tree
version=v4
num_class=1
num_tree_per_iteration=1
label_index=0
max_feature_idx=115
objective=binary sigmoid:1
feature_names=Column_0 Column_1 Column_2 Column_3 Column_4 Column_5 Column_6 Column_7 Column_8 Column_9 Column_10 Column_11 Column_12 Column_13 Column_14 Column_15 Column_16 Column_17 Column_18 Column_19 Column_20 Column_21 Column_22 Column_23 Column_24 Column_25 Column_26 Column_27 Column_28 Column_29 Column_30 Column_31 Column_32 Column_33 Column_34 Column_35 Column_36 Column_37 Column_38 Column_39 Column_40 Column_41 Column_42 Column_43 Column_44 Column_45 Column_46 Column_47 Column_48 Column_49 Column_50 Column_51 Column_52 Column_53 Column_54 Column_55 Column_56 Column_57 Column_58 Column_59 Column_60 Column_61 Column_62 Column_63 Column_64 Column_65 Column_66 Column_67 Column_68 Column_69 Column_70 Column_71 Column_72 Column_73 Column_74 Column_75 Column_76 Column_77 Column_78 Column_79 Column_80 Column_81 Column_82 Column_83 Column_84 Column_85 Column_86 Column_87 Column_88 Column_89 Column_90 Column_91 Column_92 Column_93 Column_94 Column_95 Column_96 Column_97 Column_98 Column_99 Column_100 Column_101 Column_102 Column_103 Column_104 Column_105 Column_106 Column_107 Column_108 Column_109 Column_110 Column_111 Column_112 Column_113 Column_114 Column_115
feature_infos=[-866.15167236328125:643.96697998046875] [-484.94845581054688:460.80050659179688] [-1:0.99971449375152588] [0.0058882627636194229:55.566013336181641] [0.0080636460334062576:44.643146514892578] [0.0083122998476028442:43.352272033691406] [0.0043002674356102943:60.055515289306641] [0.2869015634059906:73.197708129882812] [0.0080529497936367989:54.476680755615234] [0.01014577504247427:43.868694305419922] [0.012144618667662144:43.436111450195312] [0.0064560230821371078:60.232032775878906] [0:81.442298889160156] [0.0041504381224513054:55.215686798095703] [0.0050835744477808475:44.505962371826172] [0.0057688918896019459:44.20330810546875] [0.0032506934367120266:60.134918212890625] [-81.241714477539062:79.866020202636719] [-65.028762817382812:63.577449798583984] [-1.8322162628173828:42.422416687011719] [3.2237250804901123:25.44554328918457] [0.10750811547040939:10.804797172546387] [0.094705089926719666:10.314572334289551] [0.090973503887653351:5.6835212707519531] [0.17544767260551453:5.5591626167297363] [0.0060817701742053032:5.3443336486816406] [0.15634763240814209:12.910921096801758] [-76.565902709960938:69.5908203125] [-79.309059143066406:69.159996032714844] [-77.415702819824219:67.863677978515625] [0:35.023735046386719] [0:21.641708374023438] [0:0.72886693477630615] [0:0.27781733870506287] [0:44.41070556640625] [0:33.569633483886719] [-1:1] [-1.1414374113082886:1.0699535608291626] [-12.256069183349609:9.4999227523803711] [-70.709091186523438:65.028762817382812] [0:81.241714477539062] [0:1] [0:1.6790478229522705] [0:1.4326564073562622] [0.027427893131971359:43.741523742675781] [0.011362367309629917:45.268241882324219] [0.053446732461452484:45.222824096679688] [0.022097408771514893:47.411537170410156] [0.010373324155807495:43.492877960205078] [0.39036178588867188:38.107215881347656] [-0.99991971254348755:0.9997638463973999] [-0.99982750415802002:0.99864739179611206] [-0.99778008460998535:0.99789100885391235] [-0.99233448505401611:0.9977489709854126] [-0.95161503553390503:0.98747467994689941] [-0.86996668577194214:0.88159781694412231] [0:39.581066131591797] [0:39.138141632080078] [0:38.627853393554688] [0:8.5243330001831055] [0:10.723661422729492] [0:12.338071823120117] [0:57.111305236816406] [0:50.412540435791016] [0:39.492420196533203] [0:57.111305236816406] [0:50.412540435791016] [0:39.492420196533203] [-1:1] [0:63.039344787597656] [2.5694239139556885:368.74359130859375] [0.075694017112255096:40.250312805175781] [-66.495025634765625:58.118522644042969] [-48.350994110107422:42.556312561035156] [-48.112823486328125:40.498554229736328] [-15.552002906799316:19.829120635986328] [-19.620471954345703:26.002399444580078] [-24.923774719238281:30.071449279785156] [-61.388088226318359:43.990360260009766] [-40.734767913818359:29.307537078857422] [-31.484132766723633:24.889211654663086] [0:39.723846435546875] [0:39.413997650146484] [0:39.138141632080078] [0:72.693580627441406] [0:50.954170227050781] [0:50.412540435791016] [0:72.693580627441406] [0:50.9154052734375] [0:50.412540435791016] [-15.553439140319824:20.039615631103516] [-19.620471954345703:25.833765029907227] [-25.015253067016602:30.071449279785156] none none none [0.002984057879075408:72.693580627441406] [0.13783155381679535:37.273303985595703] [0.015645476058125496:46.383968353271484] [0.0083333337679505348:1.9016393423080444] [0.01666666753590107:1.8064515590667725] [0.0031861132010817528:8.0738840103149414] [0:33.730968475341797] [1.751109266479034e-05:22.107675552368164] [1.4271527106757276e-06:30.518444061279297] [-37.154167175292969:40.005889892578125] [0:215111376] [0:15.962193489074707] [-0.72700530290603638:39.53497314453125] [-0.83207839727401733:40.196315765380859] [-1.0027130842208862:39.754383087158203] [-0.75885194540023804:39.105716705322266] [4.2321619987487793:23.860195159912109] [3.660531759262085:24.338394165039062] [4.0260610580444336:23.78387451171875] [4.8013391494750977:23.003681182861328]
tree_sizes=3409

Tree=0
num_leaves=31
num_cat=0
split_feature=71 74 71 71 74 21 67 45 57 23 47 74 108 23 19 74 20 38 113 67 15 88 22 47 107 60 2 45 113 86
split_gain=4.01912e+06 399032 243666 107680 85569.3 80093.9 48453.9 46643.3 43437.6 38306.6 36997.4 39593 36175.1 35858.9 32586.1 31775 23735.3 37616.6 23301.7 20298.1 18685.4 17456.3 16737.4 16226.6 16108.6 15294.7 14606.7 14210.5 33095.7 35033.4
threshold=8.1294150352478045 2.7448971271514897 10.651300430297853 6.99456810951233 1.4824229478836062 6.1821746826171884 3.5905288457870488 6.2660038471221933 11.452330589294435 3.5253653526306157 7.5001709461212167 -0.21341016143560407 37.631303787231452 3.2317783832550053 34.198301315307624 0.27205039560794836 19.980703353881839 -0.057327270507812493 20.183513641357425 6.5915966033935556 2.2089940309524541 2.3440241813659672 6.7272441387176523 8.6758460998535174 6.9912145137786874 4.2186088562011728 -0.98406362533569325 15.056576251983644 17.898831367492679 0.66702857613563549
decision_type=2 2 2 2 2 2 2 2 2 2 2 2 2 2 2 2 2 2 2 2 2 2 2 2 2 2 2 2 2 2
left_child=1 3 4 9 6 19 -2 20 12 -1 11 -5 16 -7 -9 23 24 -18 -6 -3 -8 -13 -17 -11 -4 -15 -12 28 -10 -30
right_child=2 5 8 10 18 13 7 14 27 15 26 21 -14 25 -16 22 17 -19 -20 -21 -22 -23 -24 -25 -26 -27 -28 -29 29 -31
leaf_value=-1.6788082308500334 -3.6218857116880545 -3.3392170924109417 -3.6229185758559166 -1.909635935377215 -3.6954258493790091 -2.0609229662744912 -3.8256563218630992 -3.0626988234185442 -3.7703740813856426 -1.8103635970913574 -3.3938368844228481 -3.7552868067591434 -1.7854711565186165 -3.657106198532794 -2.2812952184383826 -2.1252361361424845 -3.7205325595307301 -1.6137647902970365 -2.0809480588031506 -2.1143178237485198 -1.9636933961863714 -2.4977170875649928 -2.8982968994610139 -3.2101318886876471 -2.7733085282761714 -2.7229276102402249 -2.4738914977919597 -3.8062832554868349 -1.6172478474194589 -3.3395359636142588
leaf_weight=5202.3079356998205 139.00394725799561 40.311765864491463 548.08887184411287 558.34185145795345 384.79355296492577 44.44696618616581 14.232885040342806 479.76333604753017 748.80619332194328 822.74527941644192 90.821267917752266 30.978042960166931 35.242210865020752 387.79870046675205 184.81667147576809 164.01080763339996 41.451498940587044 43.34187700599432 23.727369219064713 210.07132296264172 252.75601851195097 252.67431707680225 122.1725264787674 21.238496080040932 62.112702071666718 49.395775884389877 82.202992305159569 3823.4379970878363 33.544284909963608 246.51103082299232
leaf_count=18975 5785 1455 22821 4555 16567 494 649 14724 33336 5116 3375 1370 202 16406 2850 2029 1805 103 273 2554 2329 4965 3357 713 1555 1188 1577 172898 82 8899
internal_value=-2.68525 -1.92367 -3.55661 -1.81276 -2.98601 -3.03691 -2.75108 -2.62115 -3.70779 -1.73613 -2.29086 -2.15402 -3.34827 -3.414 -2.84539 -1.99997 -3.42751 -2.64366 -3.60166 -2.31153 -2.06295 -2.63506 -2.45526 -1.84559 -3.53644 -3.55156 -2.95678 -3.7619 -3.59695 -3.13324
internal_weight=15141.1 8079.52 7061.63 7347.49 1479.09 732.025 1070.57 931.569 5582.54 6332.48 1015.02 841.994 730.237 481.641 664.58 1130.17 694.995 84.7934 408.521 250.383 266.989 283.652 286.183 843.984 610.202 437.194 173.024 4852.3 1028.86 280.055
internal_count=353007 68129 284878 46032 43177 22097 26337 20552 241701 30190 15842 10890 26486 18088 17574 11215 26284 1908 16840 4009 2978 6335 5386 5829 24376 17594 4952 215215 42317 8981
is_linear=0
shrinkage=1


end of trees

feature_importances:
Column_74=4
Column_71=3
Column_23=2
Column_45=2
Column_47=2
Column_67=2
Column_113=2
Column_2=1
Column_15=1
Column_19=1
Column_20=1
Column_21=1
Column_22=1
Column_38=1
Column_57=1
Column_60=1
Column_86=1
Column_88=1
Column_107=1
Column_108=1

parameters:
[boosting: gbdt]
[objective: binary]
[metric: binary_logloss]
[tree_learner: serial]
[device_type: gpu]
[data_sample_strategy: bagging]
[data: ]
[valid: ]
[num_iterations: 1000]
[learning_rate: 0.05]
[num_leaves: 31]
[num_threads: 0]
[seed: 42]
[deterministic: 0]
[force_col_wise: 1]
[force_row_wise: 0]
[histogram_pool_size: -1]
[max_depth: 6]
[min_data_in_leaf: 20]
[min_sum_hessian_in_leaf: 5]
[bagging_fraction: 0.8]
[pos_bagging_fraction: 1]
[neg_bagging_fraction: 1]
[bagging_freq: 1]
[bagging_seed: 400]
[bagging_by_query: 0]
[feature_fraction: 0.8]
[feature_fraction_bynode: 1]
[feature_fraction_seed: 30056]
[extra_trees: 0]
[extra_seed: 12879]
[early_stopping_round: 0]
[early_stopping_min_delta: 0]
[first_metric_only: 0]
[max_delta_step: 0]
[lambda_l1: 0]
[lambda_l2: 0]
[linear_lambda: 0]
[min_gain_to_split: 0]
[drop_rate: 0.1]
[max_drop: 50]
[skip_drop: 0.5]
[xgboost_dart_mode: 0]
[uniform_drop: 0]
[drop_seed: 17869]
[top_rate: 0.2]
[other_rate: 0.1]
[min_data_per_group: 100]
[max_cat_threshold: 32]
[cat_l2: 10]
[cat_smooth: 10]
[max_cat_to_onehot: 4]
[top_k: 20]
[monotone_constraints: ]
[monotone_constraints_method: basic]
[monotone_penalty: 0]
[feature_contri: ]
[forcedsplits_filename: ]
[refit_decay_rate: 0.9]
[cegb_tradeoff: 1]
[cegb_penalty_split: 0]
[cegb_penalty_feature_lazy: ]
[cegb_penalty_feature_coupled: ]
[path_smooth: 0]
[interaction_constraints: ]
[verbosity: -1]
[saved_feature_importance_type: 0]
[use_quantized_grad: 0]
[num_grad_quant_bins: 4]
[quant_train_renew_leaf: 0]
[stochastic_rounding: 1]
[linear_tree: 0]
[max_bin: 255]
[max_bin_by_feature: ]
[min_data_in_bin: 3]
[bin_construct_sample_cnt: 200000]
[data_random_seed: 175]
[is_enable_sparse: 1]
[enable_bundle: 1]
[use_missing: 1]
[zero_as_missing: 0]
[feature_pre_filter: 1]
[pre_partition: 0]
[two_round: 0]
[header: 0]
[label_column: ]
[weight_column: ]
[group_column: ]
[ignore_column: ]
[categorical_feature: ]
[forcedbins_filename: ]
[precise_float_parser: 0]
[parser_config_file: ]
[objective_seed: 16083]
[num_class: 1]
[is_unbalance: 0]
[scale_pos_weight: 43.5762]
[sigmoid: 1]
[boost_from_average: 1]
[reg_sqrt: 0]
[alpha: 0.9]
[fair_c: 1]
[poisson_max_delta_step: 0.7]
[tweedie_variance_power: 1.5]
[lambdarank_truncation_level: 30]
[lambdarank_norm: 1]
[label_gain: ]
[lambdarank_position_bias_regularization: 0]
[eval_at: ]
[multi_error_top_k: 1]
[auc_mu_weights: ]
[num_machines: 1]
[local_listen_port: 12400]
[time_out: 120]
[machine_list_filename: ]
[machines: ]
[gpu_platform_id: -1]
[gpu_device_id: -1]
[gpu_use_dp: 0]
[num_gpu: 1]

end of parameters

pandas_categorical:null
