tree
version=v4
num_class=1
num_tree_per_iteration=1
label_index=0
max_feature_idx=115
objective=binary sigmoid:1
feature_names=Column_0 Column_1 Column_2 Column_3 Column_4 Column_5 Column_6 Column_7 Column_8 Column_9 Column_10 Column_11 Column_12 Column_13 Column_14 Column_15 Column_16 Column_17 Column_18 Column_19 Column_20 Column_21 Column_22 Column_23 Column_24 Column_25 Column_26 Column_27 Column_28 Column_29 Column_30 Column_31 Column_32 Column_33 Column_34 Column_35 Column_36 Column_37 Column_38 Column_39 Column_40 Column_41 Column_42 Column_43 Column_44 Column_45 Column_46 Column_47 Column_48 Column_49 Column_50 Column_51 Column_52 Column_53 Column_54 Column_55 Column_56 Column_57 Column_58 Column_59 Column_60 Column_61 Column_62 Column_63 Column_64 Column_65 Column_66 Column_67 Column_68 Column_69 Column_70 Column_71 Column_72 Column_73 Column_74 Column_75 Column_76 Column_77 Column_78 Column_79 Column_80 Column_81 Column_82 Column_83 Column_84 Column_85 Column_86 Column_87 Column_88 Column_89 Column_90 Column_91 Column_92 Column_93 Column_94 Column_95 Column_96 Column_97 Column_98 Column_99 Column_100 Column_101 Column_102 Column_103 Column_104 Column_105 Column_106 Column_107 Column_108 Column_109 Column_110 Column_111 Column_112 Column_113 Column_114 Column_115
feature_infos=[-1372.717529296875:1212.2451171875] [-729.6053466796875:825.1427001953125] [-1:0.99971449375152588] [0.0088545177131891251:64.746971130371094] [0.008662625215947628:49.414680480957031] [0.017583264037966728:44.476997375488281] [0.006060995627194643:73.976158142089844] [0.27823078632354736:397.30789184570312] [0.0060048419982194901:64.898422241210938] [0.019187591969966888:51.977462768554688] [0.060291625559329987:47.690227508544922] [0.0060194656252861023:88.541770935058594] [0:99.436279296875] [0.0013814505655318499:62.158443450927734] [0.010492892935872078:52.411670684814453] [0.011050047352910042:48.043212890625] [0.0013088468695059419:66.605987548828125] [-99.356796264648438:91.059890747070312] [-57.259822845458984:87.209556579589844] [-0.8093915581703186:44.635787963867188] [-0.77933472394943237:25.640096664428711] [0.074188292026519775:10.71885871887207] [0.094705089926719666:10.415395736694336] [0.017218519002199173:13.095241546630859] [0.17446893453598022:14.135919570922852] [0.0060817701742053032:10.019110679626465] [0.12300509959459305:12.584199905395508] [-92.18212890625:94.906692504882812] [-92.696533203125:106.49753570556641] [-93.206924438476562:105.12853240966797] [0:51.875812530517578] [0:20.62718391418457] [0:0.72919023036956787] [0:0.42438429594039917] [0:52.544944763183594] [0:51.156383514404297] [-1:1] [-1.3441487550735474:1.163433313369751] [-15.405063629150391:9.4997797012329102] [-89.634872436523438:99.356796264648438] [0:92.235771179199219] [0:1] [0:1.7749419212341309] [0:1.4590868949890137] [0.027427893131971359:43.419113159179688] [0.021505469456315041:43.994983673095703] [0.05065179243683815:45.030902862548828] [0.022097408771514893:45.486034393310547] [0.010373324155807495:41.404792785644531] [0.11966278403997421:38.451171875] [-0.99991971254348755:0.99974197149276733] [-0.99982750415802002:0.99914336204528809] [-0.99777853488922119:0.99789100885391235] [-0.99600088596343994:0.99922293424606323] [-0.9673495888710022:0.9805372953414917] [-0.91457664966583252:0.88159781694412231] [0:39.582275390625] [0:39.221351623535156] [0:38.742374420166016] [0:9.125788688659668] [0:10.568440437316895] [0:12.34434986114502] [0:73.331710815429688] [0:57.955101013183594] [0:46.078044891357422] [0:73.331710815429688] [0:57.195171356201172] [0:45.486576080322266] [-1:1] [0:69.910919189453125] [4.0430140495300293:361.37765502929688] [0.10666890442371368:39.905952453613281] [-62.861927032470703:60.166343688964844] [-56.936923980712891:50.636325836181641] [-53.257560729980469:51.289569854736328] [-15.744968414306641:21.8988037109375] [-19.856260299682617:25.186466217041016] [-23.214765548706055:29.876731872558594] [-68.239402770996094:46.693119049072266] [-39.856758117675781:29.753732681274414] [-31.469949722290039:23.186521530151367] [0:39.719837188720703] [0:39.450267791748047] [0:39.221351623535156] [0:89.550811767578125] [0:62.771469116210938] [0:57.955101013183594] [0:89.550811767578125] [0:62.771469116210938] [0:57.195171356201172] [-15.551257133483887:20.963544845581055] [-19.722137451171875:25.186466217041016] [-23.230949401855469:30.071449279785156] none none none [0.0066044367849826813:88.709800720214844] [0.20508931577205658:34.426467895507812] [0.026173340156674385:52.537540435791016] [0.0083333337679505348:1.9016393423080444] [0.01666666753590107:1.8064515590667725] [0.0029573799110949039:7.6297197341918945] [0:56.086627960205078] [0.2174576073884964:26.437126159667969] [4.8960159801936243e-06:41.847301483154297] [-48.960414886474609:47.101650238037109] [0:747592000] [0:16.807888031005859] [0.5474926233291626:41.569110870361328] [0.079897060990333557:43.453987121582031] [0.8890533447265625:43.201057434082031] [0.95413726568222046:41.882347106933594] [0.40425211191177368:21.564945220947266] [0.040430068969726562:22.846837997436523] [0.091518580913543701:22.18324089050293] [0.46785089373588562:21.569890975952148]
tree_sizes=3414 3452 3444 3465

Tree=0
num_leaves=31
num_cat=0
split_feature=73 90 27 68 91 68 82 68 82 98 91 48 74 65 27 67 4 64 74 45 82 68 57 81 48 74 59 66 113 113
split_gain=2.42274e+06 388997 239627 124156 117894 103079 87388.9 76261.9 76257.9 34708.9 33810.5 60712.5 31133 25751.7 25208.7 21926.4 19212.2 15339.6 14291.4 13915.8 13279.7 12979.6 12824.7 11992.2 13577.3 11274.5 9916.52 10428.2 9276.39 9984.36
threshold=1.5686337947845461 -0.60277128219604481 2.4066663980484013 0.17848131805658343 -1.6347045898437498 0.50833967328071605 7.8127689361572275 -0.39130164682865137 7.6230814456939706 5.229257583618165 -1.8260703086853025 13.983125209808351 0.18340191990137103 17.327730178833011 4.4434235095977792 13.039005279541017 7.1984243392944345 11.370828628540041 3.3885728120803837 8.8366951942443865 6.305091619491578 0.57961538434028637 6.8337714672088632 8.1564936637878436 15.771515846252443 1.4521228671073916 0.54605647921562206 10.80229425430298 18.380611419677738 7.9181621074676523
decision_type=2 2 2 2 2 2 2 2 2 2 2 2 2 2 2 2 2 2 2 2 2 2 2 2 2 2 2 2 2 2
left_child=2 3 10 16 7 18 22 -4 20 19 11 12 -1 14 -8 -11 -2 -15 -3 -10 -7 -6 -5 -9 -25 -13 -20 -28 29 -18
right_child=1 5 4 6 21 8 13 23 9 15 -12 25 -14 17 -16 -17 28 -19 26 -21 -22 -23 -24 24 -26 -27 27 -29 -30 -31
leaf_value=-3.1272877253297997 -3.2310039815038385 -3.2762495466089572 -3.2376089645720376 -3.209713131462173 -3.3356489623381833 -3.3415436196351607 -2.1716780496633721 -3.2270163896118049 -2.533801121053723 -2.2195756312036732 -3.3949055567938142 -3.356974994068155 -2.361321052719207 -2.293958114157574 -1.9567291251961034 -3.0135676338939374 -3.0882768637298259 -3.3401966936548919 -3.3894476415115955 -3.1411226170195721 -2.8201351889307196 -2.9117420424377238 -2.5590893420325389 -2.0718643192097828 -2.4704206946731153 -2.7577541666190708 -2.5932894860228997 -3.1608417602477226 -3.2053346203374513 -2.3495220603052802
leaf_weight=240.26396503299475 180.70790937542915 550.17502474784851 233.84980857372284 142.45407396554947 556.85727787017822 228.02302038669586 1640.9575950056314 29.509060338139534 220.97521026432514 1521.0419843532145 6365.9633126668632 1421.4385219067335 296.21315298229456 108.33132785558701 8082.2163860052824 92.223064508289099 56.352076794952154 51.779850095510483 82.768854439258575 164.56395380198956 262.92212581634521 267.23394870758057 161.72931203246117 645.68252936378121 319.38178325816989 83.087452843785286 242.04939540475607 121.59344301372766 53.184530019760132 242.77907866612077
leaf_count=6116 4962 15588 6451 3853 16416 6748 11484 808 3092 12052 194952 42489 3158 1014 23009 2145 1392 1531 2526 4233 5133 5690 2342 3274 4078 1522 3665 3174 1434 2533
internal_value=-2.64236 -2.21718 -3.21988 -2.06797 -2.73553 -2.67597 -2.02905 -2.42515 -2.50396 -2.36682 -3.33813 -3.16104 -2.70436 -2.00336 -1.99301 -2.26496 -2.81186 -2.63231 -3.10569 -2.79303 -3.06231 -3.19819 -2.86379 -2.23412 -2.20376 -3.32388 -2.89549 -2.78307 -2.59688 -2.48869
internal_weight=24666.3 14206.8 10459.5 10720.5 2052.51 3486.34 10187.5 1228.42 2489.75 1998.8 8406.97 2041 536.477 9883.29 9723.17 1613.27 533.024 160.111 996.587 385.539 490.945 824.091 304.183 994.573 965.064 1504.53 446.412 363.643 352.316 299.131
internal_count=396864 111910 284954 53554 36717 58356 43233 14611 33403 21522 248237 53285 9274 37038 34493 14197 10321 2545 24953 7325 11881 22106 6195 8160 7352 44011 9365 6839 5359 3925
is_linear=0
shrinkage=1


Tree=1
num_leaves=31
num_cat=0
split_feature=72 44 74 82 92 92 96 48 10 92 48 92 48 92 110 90 105 54 114 11 64 81 103 11 69 74 104 90 48 71
split_gain=297186 38102.9 36609.6 32568 20126.9 16820.9 11769.4 10127.7 10045.6 9906.93 14221.7 6908.27 5778.35 5646.69 5542.89 4879 4663.4 4191.27 4020.8 3335.56 3276.83 2786.05 2690.51 2651.61 2642.59 2384.69 2167.42 1655.92 2633.5 3391.13
threshold=0.73601427674293529 23.904018402099613 0.67784693837165844 6.3772156238555917 -1.6754660606384275 -8.9273405075073224 3.9219367504119877 15.564356327056887 18.771929740905765 -4.5461196899414054 13.031040191650392 -0.7908031940460204 22.241886138916019 -3.6516413688659664 11.658581733703615 -2.2167015075683589 1.6318124532699587 -0.44960530102252955 7.5686430931091317 11.983689785003664 11.481554031372072 11.047733783721926 8.8085927963256854 8.0158514976501483 11.733545303344728 4.1839067935943612 4.5845634937286386 -1.4559473991394041 14.864756107330324 9.2018675804138201
decision_type=2 2 2 2 2 2 2 2 2 2 2 2 2 2 2 2 2 2 2 2 2 2 2 2 2 2 2 2 2 2
left_child=2 3 9 17 12 19 7 11 14 10 24 -5 18 -9 -8 -6 -12 20 -4 -3 -2 -10 -20 -18 -1 -17 -27 28 29 -11
right_child=1 5 4 6 15 -7 8 13 21 27 16 -13 -14 -15 -16 25 23 -19 22 -21 -22 -23 -24 -25 -26 26 -28 -29 -30 -31
leaf_value=0.44984447145753742 -0.052503463262753652 0.070646476908725872 -0.053838810970385259 0.39657747310246466 0.40156005891152313 -0.043863157410955381 0.18860683121224073 0.25746931101791048 -0.0031228778557000994 -0.041841007058505117 -0.035566698439906237 0.23363420253120429 0.0093099596350270913 -0.035270353691091598 0.38610030324997358 0.0078044570016127662 0.036696420119843601 0.027153348246080469 0.40859143296604145 0.40532613811413054 0.79457251649503291 0.27460720560516599 -0.016008200160785895 0.30428750337986743 1.1133909617553801 0.29205007907870462 0.026791542574714295 -0.039533377465114067 -0.048102576216377285 0.28209841611901848
leaf_weight=193.69630462676287 17.549736823886633 94.010566741228104 52.002598065882921 1523.7445694804192 105.3523051738739 825.03738880157471 358.68604011833668 322.80574423074722 202.3667322807014 140.14357734844089 621.72873846814036 1135.0227708294988 116.898711591959 336.39111164957285 37413.98221071437 943.92419706657529 164.34386881068349 771.51276744902134 1176.5782924070954 357.75812050700188 32.670942638069391 163.05821393430233 38.531032357364893 212.00246405601501 16.264640025794506 164.38186432048678 144.8849846124649 5245.2533049657941 379.35928821563721 190.75821923092008
leaf_count=1139 435 1706 987 6538 474 20629 3498 3586 3711 3741 17978 13067 2486 8481 69028 24212 4461 19292 5723 1549 62 853 689 3020 83 1810 2501 161794 11164 2120
internal_value=0.303316 0.359537 0.0561251 0.367665 0.211472 0.0904299 0.373843 0.28352 0.381701 -0.00334919 0.127206 0.327017 0.34567 0.108083 0.384225 0.0747577 0.0485211 0.0559636 0.376702 0.335681 0.49856 0.120805 0.395127 0.187435 0.501246 0.0472843 0.167782 -0.0298315 0.0418166 0.144904
internal_weight=53460.7 43554.6 9906.1 42277.8 2742.55 1276.81 41456.1 3317.96 38138.1 7163.55 1208.04 2658.77 1384.01 659.197 37772.7 1358.54 998.075 821.733 1267.11 451.769 50.2207 365.425 1215.11 376.346 209.961 1253.19 309.267 5955.51 710.261 330.902
internal_count=396817 152435 244382 128551 38882 23884 108762 31672 77090 205500 26681 19605 9885 12067 72526 28997 25459 19789 7399 3255 497 4564 6412 7481 1222 28523 4311 178819 17025 5861
is_linear=0
shrinkage=0.05


Tree=2
num_leaves=31
num_cat=0
split_feature=73 27 68 58 91 44 92 108 27 92 68 42 6 4 82 92 74 105 44 71 17 8 48 91 66 98 27 22 79 97
split_gain=157317 30268.2 28710.4 14521.9 12896.7 11611 11828.5 8088.69 7684.3 6979.24 6623.74 4193.18 4192.2 3963.36 3808.54 3289.38 2442.8 2497.41 2316.39 3740.04 2177.85 1982.4 1860.78 2340.99 1712.15 1681.86 2028.91 1399.39 1350.99 1214.54
threshold=0.4636149555444718 1.2990030050277712 -0.27808381617069239 7.4997951984405526 -2.1292877197265621 21.657832145690922 -10.711657524108885 21.953623771667484 0.50180917978286754 -1.6256818771362302 -0.45111992955207819 0.52100527286529552 8.1920480728149432 19.395390510559086 5.4070196151733407 -1.6754660606384275 0.40723343193531042 0.87251171469688427 14.938261508941652 8.2670335769653338 0.85511678457260143 19.138586044311527 15.464298725128176 1.622703552246094 4.0223538875579843 4.0898871421813974 2.2202442884445195 4.6814744472503671 3.3104456663131718 5.8509752750396737
decision_type=2 2 2 2 2 2 2 2 2 2 2 2 2 2 2 2 2 2 2 2 2 2 2 2 2 2 2 2 2 2
left_child=1 16 12 7 10 8 -7 11 9 -5 21 -4 -2 -10 -13 27 -1 -18 19 -6 -21 -3 23 -19 -8 -12 -27 -14 -23 -29
right_child=2 4 3 5 18 6 24 -9 13 -11 25 14 15 -15 -16 -17 17 22 -20 20 -22 28 -24 -25 -26 26 -28 29 -30 -31
leaf_value=-0.035113489388463336 -0.030716797558468501 -0.032870647985735565 0.011555430587427751 0.27328597111698455 -0.029416168779304211 0.2744551431498064 -0.043200259484545644 -0.021754268968232158 0.27841859575485578 0.13231347202061225 0.11854809260420858 0.012833901904478204 -0.019781864494843211 0.050601240762797733 0.30352801814654229 0.0021804864800659134 -0.025846157572472245 0.27906407137697165 -0.048976955554075496 0.071064868369478298 0.31804649574035609 -0.052441962953280907 -0.052068990464537883 -0.051731087753397811 0.091936381222061783 0.46533472009407983 0.27849468256776283 -0.053214717252574532 0.9729250564676426 0.31741380279036291
leaf_weight=5600.6648420151323 876.71471095085144 226.80674013495445 222.31849918141961 1711.9711727946997 319.70419059693813 896.78617477416992 496.11908490583301 635.44046726450324 48863.350405670702 1802.2261969409883 142.0335476398468 134.59975101426244 43.002054583281279 191.65921320766211 691.7117012552917 238.1152845621109 439.98472781851888 239.9777239728719 473.96872234344482 163.87479770183563 196.02138401567936 5.1526418607681981 90.867902845144272 68.822177780792117 444.28819347172976 162.66973119229078 1360.6625129655004 24.141549959778786 8.5313525814563018 261.92546591535211
leaf_count=174486 22711 5869 4006 6671 8336 1862 8795 12395 64453 19941 1472 3470 768 2426 3552 5050 11985 2264 13719 3206 2518 125 2594 2147 5536 993 3410 496 13 1513
internal_value=0.226826 0.0383236 0.257951 0.263618 0.167815 0.268094 0.144536 0.119013 0.272412 0.200989 0.247682 0.204315 0.0378093 0.277529 0.256176 0.143732 -0.0231904 0.0563395 0.035864 0.0950341 0.205586 0.00239039 0.146816 0.20534 0.020644 0.283104 0.298446 0.246159 0.586828 0.286136
internal_weight=67034.1 9499.74 57534.4 56090.5 3059.43 54406.4 1837.19 1684.07 52569.2 3514.2 1905.86 1048.63 1443.9 49055 826.311 567.184 6440.32 839.653 1153.57 679.6 359.896 240.491 399.668 308.8 940.407 1665.37 1523.33 329.069 13.684 286.067
internal_count=396782 233137 163645 133107 39661 109684 16193 23423 93491 26612 11882 11028 30538 66879 7022 7827 193476 18990 27779 14060 5724 6007 7005 4411 14331 5875 4403 2777 138 2009
is_linear=0
shrinkage=0.05


Tree=3
num_leaves=31
num_cat=0
split_feature=68 13 82 27 110 11 110 44 111 47 92 27 68 92 105 43 47 56 72 54 46 70 115 51 74 54 29 14 64 57
split_gain=101940 26707 15615 13759.5 9298.57 5750.84 5085.29 4485.8 4777.11 4414.64 3608.88 3573.16 3534.76 5329.68 3808.39 2811.27 2793.36 2681.36 2139.45 2072.71 2022.06 1534.31 1519.6 1476.94 1423.52 1593.15 1174.73 1140.25 5859.52 1141.11
threshold=0.089577343314886107 2.0436557531356816 6.234969139099122 2.8949980735778813 31.812335968017582 10.388138294219972 10.076957225799562 13.547172069549562 32.330497741699226 1.7559375762939455 -0.8952813148498534 0.6447533667087556 -0.39130164682865137 -2.7740569114685054 1.1736110448837282 0.78139746189117443 13.319448471069338 9.0101156234741229 -0.46868498623371119 -0.44960530102252955 28.626910209655765 67.626960754394545 8.1849374771118182 0.84492945671081554 3.2946934700012211 -0.20532466471195218 -3.0440678596496578 3.0214042663574223 8.833160877227785 6.3616678714752206
decision_type=2 2 2 2 2 2 2 2 2 2 2 2 2 2 2 2 2 2 2 2 2 2 2 2 2 2 2 2 2 2
left_child=3 11 19 12 6 -5 -4 18 -9 -8 20 -2 -1 14 26 -16 17 -13 -6 -3 21 -7 -19 -12 -15 -26 -14 28 -21 -29
right_child=1 2 4 5 7 10 9 8 -10 -11 23 16 13 24 15 -17 -18 22 -20 27 -22 -23 -24 -25 25 -27 -28 29 -30 -31
leaf_value=-0.044982988299026985 -0.034587026381475372 0.29320855209909918 -0.047045174059839795 -0.0074480632977447867 -0.020500294830958488 0.031041335803180966 0.073161572211731363 0.15020459948062193 -0.025959794231760092 0.21961876852233458 -0.012536450664144581 -0.053333638045651312 0.22639072068027277 -0.037643033091905836 0.1886619203337134 0.53183823297480382 -0.042296051156159871 -0.01202797732681663 0.18894846991887282 -0.051880610527824361 0.012230456171268828 0.25343180788415703 0.24286896104712313 0.27560295209139624 0.23054793661906814 -0.054043470306720187 -0.025157306002400417 -0.040679654798518462 1.3584571658432196 0.11533344396542188
leaf_weight=4069.0486783981323 1128.9533291514963 62.384071528911591 180.96803095936775 567.00552558898926 127.48922135680914 83.71763363853097 518.88272222131491 902.35945136845112 670.98544216156006 61397.085351385176 283.30571001768112 121.87007877789438 56.730613633990288 1311.0186876654625 297.91030490398407 74.626108646392822 245.64600188285112 67.647788248956203 2792.7229149267077 35.297919319942594 109.63741870224476 1053.9558432213962 431.01759426668286 52.754348933696747 112.06157356500626 87.631480343639851 255.19151325523853 760.07916291616857 9.306443475186823 138.57343509793282
leaf_count=128559 31210 363 3384 11893 2606 1047 3678 5036 10791 89979 5635 2725 567 38693 2951 530 5245 1167 9264 1058 1891 4681 2178 424 822 1523 5620 20440 37 2538
internal_value=0.184442 0.204317 0.209639 0.0200649 0.212592 0.129191 0.217618 0.143135 0.0750757 0.218391 0.178122 0.0240236 -0.017396 0.0337403 0.149486 0.257407 0.100415 0.156909 0.179804 0.0140856 0.217304 0.237067 0.20829 0.0326954 -0.0187005 0.10566 0.0205928 -0.00437471 0.242378 -0.0166222
internal_weight=78005.9 69591.3 67596.1 8414.6 66590.5 2150.38 62096.9 4493.56 1573.34 61916 1583.37 1995.13 6264.22 2195.17 684.459 372.536 866.181 620.535 2920.21 1005.64 1247.31 1137.67 498.665 336.06 1510.71 199.693 311.922 943.257 44.6044 898.653
internal_count=396535 191699 149174 204836 124738 25571 97041 27697 15827 93657 13678 42525 179265 50706 9668 3481 11315 6070 11870 24436 7619 5728 3345 6059 41038 2345 6187 24073 1095 22978
is_linear=0
shrinkage=0.05


end of trees

feature_importances:
Column_92=10
Column_68=8
Column_27=7
Column_48=7
Column_74=7
Column_82=6
Column_44=4
Column_91=4
Column_11=3
Column_54=3
Column_64=3
Column_90=3
Column_105=3
Column_110=3
Column_4=2
Column_47=2
Column_57=2
Column_66=2
Column_71=2
Column_72=2
Column_73=2
Column_81=2
Column_98=2
Column_113=2
Column_6=1
Column_8=1
Column_10=1
Column_13=1
Column_14=1
Column_17=1
Column_22=1
Column_29=1
Column_42=1
Column_43=1
Column_45=1
Column_46=1
Column_51=1
Column_56=1
Column_58=1
Column_59=1
Column_65=1
Column_67=1
Column_69=1
Column_70=1
Column_79=1
Column_96=1
Column_97=1
Column_103=1
Column_104=1
Column_108=1
Column_111=1
Column_114=1
Column_115=1

parameters:
[boosting: gbdt]
[objective: binary]
[metric: binary_logloss]
[tree_learner: serial]
[device_type: gpu]
[data_sample_strategy: bagging]
[data: ]
[valid: ]
[num_iterations: 1000]
[learning_rate: 0.05]
[num_leaves: 31]
[num_threads: 0]
[seed: 42]
[deterministic: 0]
[force_col_wise: 1]
[force_row_wise: 0]
[histogram_pool_size: -1]
[max_depth: 6]
[min_data_in_leaf: 20]
[min_sum_hessian_in_leaf: 5]
[bagging_fraction: 0.8]
[pos_bagging_fraction: 1]
[neg_bagging_fraction: 1]
[bagging_freq: 1]
[bagging_seed: 400]
[bagging_by_query: 0]
[feature_fraction: 0.8]
[feature_fraction_bynode: 1]
[feature_fraction_seed: 30056]
[extra_trees: 0]
[extra_seed: 12879]
[early_stopping_round: 0]
[early_stopping_min_delta: 0]
[first_metric_only: 0]
[max_delta_step: 0]
[lambda_l1: 0]
[lambda_l2: 0]
[linear_lambda: 0]
[min_gain_to_split: 0]
[drop_rate: 0.1]
[max_drop: 50]
[skip_drop: 0.5]
[xgboost_dart_mode: 0]
[uniform_drop: 0]
[drop_seed: 17869]
[top_rate: 0.2]
[other_rate: 0.1]
[min_data_per_group: 100]
[max_cat_threshold: 32]
[cat_l2: 10]
[cat_smooth: 10]
[max_cat_to_onehot: 4]
[top_k: 20]
[monotone_constraints: ]
[monotone_constraints_method: basic]
[monotone_penalty: 0]
[feature_contri: ]
[forcedsplits_filename: ]
[refit_decay_rate: 0.9]
[cegb_tradeoff: 1]
[cegb_penalty_split: 0]
[cegb_penalty_feature_lazy: ]
[cegb_penalty_feature_coupled: ]
[path_smooth: 0]
[interaction_constraints: ]
[verbosity: -1]
[saved_feature_importance_type: 0]
[use_quantized_grad: 0]
[num_grad_quant_bins: 4]
[quant_train_renew_leaf: 0]
[stochastic_rounding: 1]
[linear_tree: 0]
[max_bin: 255]
[max_bin_by_feature: ]
[min_data_in_bin: 3]
[bin_construct_sample_cnt: 200000]
[data_random_seed: 175]
[is_enable_sparse: 1]
[enable_bundle: 1]
[use_missing: 1]
[zero_as_missing: 0]
[feature_pre_filter: 1]
[pre_partition: 0]
[two_round: 0]
[header: 0]
[label_column: ]
[weight_column: ]
[group_column: ]
[ignore_column: ]
[categorical_feature: ]
[forcedbins_filename: ]
[precise_float_parser: 0]
[parser_config_file: ]
[objective_seed: 16083]
[num_class: 1]
[is_unbalance: 0]
[scale_pos_weight: 29.165]
[sigmoid: 1]
[boost_from_average: 1]
[reg_sqrt: 0]
[alpha: 0.9]
[fair_c: 1]
[poisson_max_delta_step: 0.7]
[tweedie_variance_power: 1.5]
[lambdarank_truncation_level: 30]
[lambdarank_norm: 1]
[label_gain: ]
[lambdarank_position_bias_regularization: 0]
[eval_at: ]
[multi_error_top_k: 1]
[auc_mu_weights: ]
[num_machines: 1]
[local_listen_port: 12400]
[time_out: 120]
[machine_list_filename: ]
[machines: ]
[gpu_platform_id: -1]
[gpu_device_id: -1]
[gpu_use_dp: 0]
[num_gpu: 1]

end of parameters

pandas_categorical:null
