{"learner":{"attributes":{"best_iteration":"133","best_score":"0.02404120762616988"},"feature_names":["a_ax","a_ay","a_ear_left_vel_1000ms","a_ear_left_vel_2000ms","a_ear_left_vel_3000ms","a_ear_left_vel_500ms","a_ear_right_vel_1000ms","a_ear_right_vel_2000ms","a_ear_right_vel_3000ms","a_ear_right_vel_500ms","a_elongation","a_head_vel_1000ms","a_head_vel_2000ms","a_head_vel_3000ms","a_head_vel_500ms","a_speed","a_tail_base_vel_1000ms","a_tail_base_vel_2000ms","a_tail_base_vel_3000ms","a_tail_base_vel_500ms","a_vx","a_vy","a_x","a_y","aa_earleft_tailbase_dist","aa_earright_tailbase_dist","aa_head_ear_right_dist","aa_head_earleft_dist","aa_head_tailbase_dist","approach_speed_agent","approach_speed_rel","approach_speed_target","as_a_speed_std_05","as_a_turn_jerk_05","as_body_iou","as_body_iou_mean_1s","as_speed_std_sum_05","as_t_speed_std_05","body_cosine","climb_approach_speed_wall","climb_dist_wall","climb_normal_vel","climb_tangent_vel","climb_wall_stick_score","curv_mean_30","curv_mean_60","dist_head_el","dist_head_er","dist_head_head","dist_head_tail","follow_cos_body_mean_15","follow_cos_body_mean_30","follow_cos_body_mean_60","follow_cos_vel_mean_15","follow_cos_vel_mean_30","follow_cos_vel_mean_60","follow_dist_mean_15","follow_dist_mean_30","follow_dist_mean_60","follow_dist_std_15","follow_dist_std_30","follow_dist_std_60","follow_speed_agent_mean_15","follow_speed_agent_mean_30","follow_speed_agent_mean_60","follow_speed_target_mean_15","follow_speed_target_mean_30","follow_speed_target_mean_60","gaze_cosine","lateral_speed_agent","path_cum180","rel_dist","sb_att_approach_mean_10","sb_att_approach_mean_20","sb_att_approach_mean_30","sb_att_dist_delta_10","sb_att_dist_delta_20","sb_att_dist_delta_30","sb_att_rel_along_mean_10","sb_att_rel_along_mean_20","sb_att_rel_along_mean_30","sb_chase_dist_mean_10","sb_chase_dist_mean_20","sb_chase_dist_mean_30","sb_chase_speed_agent_mean_10","sb_chase_speed_agent_mean_20","sb_chase_speed_agent_mean_30","sb_chase_speed_target_mean_10","sb_chase_speed_target_mean_20","sb_chase_speed_target_mean_30","sb_esc_dist_gain_10","sb_esc_dist_gain_20","sb_esc_dist_gain_30","sb_esc_heading_cos_mean_10","sb_esc_heading_cos_mean_20","sb_esc_heading_cos_mean_30","sp_m10","sp_m160","sp_m40","sp_pct120","sp_pct60","sp_ratio","sp_s10","sp_s160","sp_s40","spd_asym_1s","spd_symkl_1s","turn_rate_30","x_e120","x_e60","x_ml120","x_ml240","y_e120","y_e60","y_ml120","y_ml240"],"feature_types":[],"gradient_booster":{"model":{"gbtree_model_param":{"num_parallel_tree":"1","num_trees":"144"},"iteration_indptr":[0,1,2,3,4,5,6,7,8,9,10,11,12,13,14,15,16,17,18,19,20,21,22,23,24,25,26,27,28,29,30,31,32,33,34,35,36,37,38,39,40,41,42,43,44,45,46,47,48,49,50,51,52,53,54,55,56,57,58,59,60,61,62,63,64,65,66,67,68,69,70,71,72,73,74,75,76,77,78,79,80,81,82,83,84,85,86,87,88,89,90,91,92,93,94,95,96,97,98,99,100,101,102,103,104,105,106,107,108,109,110,111,112,113,114,115,116,117,118,119,120,121,122,123,124,125,126,127,128,129,130,131,132,133,134,135,136,137,138,139,140,141,142,143,144],"tree_info":[0,0,0,0,0,0,0,0,0,0,0,0,0,0,0,0,0,0,0,0,0,0,0,0,0,0,0,0,0,0,0,0,0,0,0,0,0,0,0,0,0,0,0,0,0,0,0,0,0,0,0,0,0,0,0,0,0,0,0,0,0,0,0,0,0,0,0,0,0,0,0,0,0,0,0,0,0,0,0,0,0,0,0,0,0,0,0,0,0,0,0,0,0,0,0,0,0,0,0,0,0,0,0,0,0,0,0,0,0,0,0,0,0,0,0,0,0,0,0,0,0,0,0,0,0,0,0,0,0,0,0,0,0,0,0,0,0,0,0,0,0,0,0,0],"trees":[{"base_weights":[3.288525E-2,1.2601565E0,-1.572516E0,1.6369969E0,-7.322774E-1,-5.422527E-1,-9.999119E-2,1.6929933E0,-9.9627905E-2,1.2072763E0,-1.4587417E0,1.1053256E0,-9.995998E-2,-9.952324E-2,1.7378614E0,1.7115754E0,-9.919839E-2,8.5355985E-1,-1.7306798E0,1.6321276E0,-9.968896E-2,1.7624418E0,-9.9117E-2,-9.735099E-2,1.8933737E0,-9.8400004E-2,1.753778E0,-1.5897334E-1,-9.994618E-2,-9.879518E-2,1.7969282E0,-9.864407E-2,8.892729E-2,9.8505E-2,-9.354839E-2,9.78372E-2,-9.090909E-2,-9.937107E-2,8.283468E-2,-9.738562E-2,9.384178E-2],"categories":[],"categories_nodes":[],"categories_segments":[],"categories_sizes":[],"default_left":[0,0,0,0,0,0,0,0,0,0,0,0,0,0,0,0,0,0,0,0,0,0,0,0,0,0,0,0,0,0,0,0,0,0,0,0,0,0,0,0,0],"id":0,"left_children":[1,3,5,7,9,11,-1,13,-1,15,17,19,-1,-1,21,23,-1,25,27,29,-1,31,-1,-1,33,-1,35,37,-1,-1,39,-1,-1,-1,-1,-1,-1,-1,-1,-1,-1],"loss_changes":[7.2997625E4,1.5766879E4,7.0656367E3,3.5922734E3,4.708491E3,1.1301635E4,0E0,2.877586E3,0E0,1.4691578E3,1.5298789E3,3.6109124E3,0E0,0E0,1.5746641E3,5.271638E2,0E0,6.548293E2,9.167505E2,1.1269043E3,0E0,1.0303086E3,0E0,0E0,2.2038574E2,0E0,1.4489105E2,1.0596924E3,0E0,0E0,5.4442676E2,0E0,0E0,0E0,0E0,0E0,0E0,0E0,0E0,0E0,0E0],"parents":[2147483647,0,0,1,1,2,2,3,3,4,4,5,5,7,7,9,9,10,10,11,11,14,14,15,15,17,17,18,18,19,19,21,21,24,24,26,26,27,27,30,30],"right_children":[2,4,6,8,10,12,-1,14,-1,16,18,20,-1,-1,22,24,-1,26,28,30,-1,32,-1,-1,34,-1,36,38,-1,-1,40,-1,-1,-1,-1,-1,-1,-1,-1,-1,-1],"split_conditions":[8.447538E0,3.1163603E-1,-7.450295E-1,9.9951345E-1,-1.5753533E0,1.2485272E1,-9.999119E-2,6.8454397E-1,-9.9627905E-2,5.725547E-1,5.3263702E0,3.846786E0,-9.995998E-2,-9.952324E-2,1.3658339E1,2.761436E0,-9.919839E-2,3.3188175E1,5.46469E0,2.3637931E0,-9.968896E-2,1.0727695E0,-9.9117E-2,-9.735099E-2,2.845839E-1,-9.8400004E-2,3.4428616E1,2.3165508E-1,-9.994618E-2,-9.879518E-2,4.7202396E0,-9.864407E-2,8.892729E-2,9.8505E-2,-9.354839E-2,9.78372E-2,-9.090909E-2,-9.937107E-2,8.283468E-2,-9.738562E-2,9.384178E-2],"split_indices":[71,93,94,74,73,56,0,17,0,95,57,97,0,0,9,102,0,108,71,9,0,2,0,0,51,0,22,55,0,0,67,0,0,0,0,0,0,0,0,0,0],"split_type":[0,0,0,0,0,0,0,0,0,0,0,0,0,0,0,0,0,0,0,0,0,0,0,0,0,0,0,0,0,0,0,0,0,0,0,0,0,0,0,0,0],"sum_hessian":[3.7047676E4,2.0996686E4,1.6050992E4,1.7657248E4,3.3394368E3,4.706242E3,1.134475E4,1.7389498E4,2.6775E2,9.09784E2,2.4296528E3,2.2087424E3,2.4975E3,2.0875E2,1.7180748E4,7.86034E2,1.2375E2,2.55446E2,2.1742068E3,1.8882424E3,3.205E2,1.7068498E4,1.1225E2,3.675E1,7.49284E2,6.15E1,1.93946E2,3.172068E2,1.857E3,8.2E1,1.8062424E3,7.275E1,1.6995748E4,7.34784E2,1.45E1,1.83946E2,1E1,1.58E2,1.592068E2,3.725E1,1.7689924E3],"tree_param":{"num_deleted":"0","num_feature":"116","num_nodes":"41","size_leaf_vector":"1"}},{"base_weights":[-1.3361803E-3,1.1757003E0,-1.4972113E0,1.5469594E0,-8.492797E-1,-5.227559E-1,-1.891872E0,1.5964636E0,-9.486855E-2,9.646411E-1,-1.4884259E0,1.0454483E0,-9.520489E-2,-1.1184366E0,-9.523378E-2,-9.721292E-2,1.6437097E0,1.6542696E0,-1.2001383E0,-9.5253825E-2,-6.4230956E-2,1.5515552E0,-9.495613E-2,1.0244354E-1,-9.4614126E-2,1.679114E0,-9.841307E-2,1.7968055E0,-9.206706E-2,7.161513E-2,-9.470587E-2,-9.5079355E-2,1.2988803E0,-9.414201E-2,1.7113189E0,8.500026E-2,-1.029132E-1,-8.7822005E-2,9.352872E-2,9.159197E-2,-9.311531E-2,-9.298563E-2,8.967125E-2],"categories":[],"categories_nodes":[],"categories_segments":[],"categories_sizes":[],"default_left":[0,0,0,0,0,0,0,0,0,0,0,0,0,0,0,0,0,0,0,0,0,0,0,0,0,0,0,0,0,0,0,0,0,0,0,0,0,0,0,0,0,0,0],"id":1,"left_children":[1,3,5,7,9,11,13,15,-1,17,19,21,-1,23,-1,-1,25,27,29,-1,31,33,-1,-1,-1,35,-1,37,-1,-1,-1,-1,39,-1,41,-1,-1,-1,-1,-1,-1,-1,-1],"loss_changes":[6.402832E4,1.5301453E4,6.157551E3,2.9355664E3,3.6578206E3,1.0004514E4,1.10734375E2,2.839625E3,0E0,1.2296326E3,1.3839443E3,3.2265796E3,0E0,4.6471872E2,0E0,0E0,2.1430938E3,3.142527E2,3.6672342E2,0E0,1.3272555E3,1.016333E3,0E0,0E0,0E0,1.2973359E3,0E0,1.6059058E2,0E0,0E0,0E0,0E0,5.160293E2,0E0,5.207988E2,0E0,0E0,0E0,0E0,0E0,0E0,0E0,0E0],"parents":[2147483647,0,0,1,1,2,2,3,3,4,4,5,5,6,6,7,7,9,9,10,10,11,11,13,13,16,16,17,17,18,18,20,20,21,21,25,25,27,27,32,32,34,34],"right_children":[2,4,6,8,10,12,14,16,-1,18,20,22,-1,24,-1,-1,26,28,30,-1,32,34,-1,-1,-1,36,-1,38,-1,-1,-1,-1,40,-1,42,-1,-1,-1,-1,-1,-1,-1,-1],"split_conditions":[8.447538E0,3.1163603E-1,-7.450295E-1,1.1246592E0,5.5905833E0,1.2485272E1,-8.536045E-1,1.1366498E0,-9.486855E-2,-1.732054E-1,4.128064E-1,3.846786E0,-9.520489E-2,3.433082E-1,-9.523378E-2,-9.721292E-2,1.1573929E1,1.8250456E0,1.3530592E1,-9.5253825E-2,3.5609886E1,2.3637931E0,-9.495613E-2,1.0244354E-1,-9.4614126E-2,9.162943E-1,-9.841307E-2,5.114483E0,-9.206706E-2,7.161513E-2,-9.470587E-2,-9.5079355E-2,3.5298874E1,-9.414201E-2,4.7202396E0,8.500026E-2,-1.029132E-1,-8.7822005E-2,9.352872E-2,9.159197E-2,-9.311531E-2,-9.298563E-2,8.967125E-2],"split_indices":[71,93,94,74,56,56,93,14,0,74,53,97,0,84,0,0,6,91,109,0,110,9,0,0,0,45,0,87,0,0,0,0,108,0,67,0,0,0,0,0,0,0,0],"split_type":[0,0,0,0,0,0,0,0,0,0,0,0,0,0,0,0,0,0,0,0,0,0,0,0,0,0,0,0,0,0,0,0,0,0,0,0,0,0,0,0,0,0,0],"sum_hessian":[3.636327E4,2.0350555E4,1.6012717E4,1.719776E4,3.1527947E3,4.616488E3,1.13962295E4,1.6954613E4,2.4314615E2,8.213274E2,2.3314673E3,2.1621238E3,2.454364E3,1.8702133E2,1.1209208E4,2.2272853E2,1.6731885E4,6.230725E2,1.9825485E2,1.8035098E3,5.2795764E2,1.8454114E3,3.1671246E2,3.6398144E1,1.5062318E2,1.6570002E4,1.61883E2,5.991286E2,2.3943905E1,4.113924E1,1.5711562E2,2.2469421E2,3.0326343E2,8.155084E1,1.7638605E3,1.6478436E4,9.1565926E1,1.1721592E1,5.8740704E2,2.5987106E2,4.3392345E1,3.915708E1,1.7247034E3],"tree_param":{"num_deleted":"0","num_feature":"116","num_nodes":"43","size_leaf_vector":"1"}},{"base_weights":[5.078739E-4,1.1129972E0,-1.3694929E0,1.4737744E0,-7.353687E-1,-3.7145165E-1,-1.8125919E0,1.5379931E0,-9.300239E-2,9.584332E-1,-1.4304093E0,1.074503E0,-9.110457E-2,-1.2749623E0,-9.122039E-2,-9.421947E-2,1.5872314E0,1.498285E0,-9.0649605E-2,7.1509004E-1,-1.7003376E0,1.5060271E0,-7.351988E-1,8.8350944E-2,-9.073536E-2,1.616327E0,-9.049881E-2,-9.02079E-2,1.6827537E0,-9.083272E-2,1.5692968E0,2.69571E-1,-1.7628757E0,-9.2269175E-2,1.625658E0,-9.201064E-2,1.6898848E0,8.1762016E-2,-9.699133E-2,8.9109436E-2,-8.903727E-2,8.724227E-2,-8.502915E-2,8.717229E-2,-8.8065825E-2,-9.1481395E-2,-1.5175021E-2,-8.957169E-2,8.5393295E-2,-7.816321E-2,9.138702E-2],"categories":[],"categories_nodes":[],"categories_segments":[],"categories_sizes":[],"default_left":[0,0,0,0,0,0,0,0,0,0,0,0,0,0,0,0,0,0,0,0,0,0,0,0,0,0,0,0,0,0,0,0,0,0,0,0,0,0,0,0,0,0,0,0,0,0,0,0,0,0,0],"id":2,"left_children":[1,3,5,7,9,11,13,15,-1,17,19,21,-1,23,-1,-1,25,27,-1,29,31,33,35,-1,-1,37,-1,-1,39,-1,41,43,45,-1,47,-1,49,-1,-1,-1,-1,-1,-1,-1,-1,-1,-1,-1,-1,-1,-1],"loss_changes":[5.524625E4,1.3340793E4,7.182955E3,3.5862617E3,3.8481396E3,1.048078E4,6.913281E1,2.7702656E3,0E0,1.4260188E3,1.3432104E3,1.955408E3,0E0,4.0585803E2,0E0,0E0,1.6031562E3,4.8841772E2,0E0,5.644031E2,2.5408154E2,8.1329346E2,1.2961096E3,0E0,0E0,1.082832E3,0E0,0E0,2.6323242E2,0E0,1.1472391E2,1.9526834E2,1.9382812E2,0E0,5.513701E2,0E0,7.082605E1,0E0,0E0,0E0,0E0,0E0,0E0,0E0,0E0,0E0,0E0,0E0,0E0,0E0,0E0],"parents":[2147483647,0,0,1,1,2,2,3,3,4,4,5,5,6,6,7,7,9,9,10,10,11,11,13,13,16,16,17,17,19,19,20,20,21,21,22,22,25,25,28,28,30,30,31,31,32,32,34,34,36,36],"right_children":[2,4,6,8,10,12,14,16,-1,18,20,22,-1,24,-1,-1,26,28,-1,30,32,34,36,-1,-1,38,-1,-1,40,-1,42,44,46,-1,48,-1,50,-1,-1,-1,-1,-1,-1,-1,-1,-1,-1,-1,-1,-1,-1],"split_conditions":[8.478243E0,2.719035E-1,-7.450295E-1,1.099323E1,-1.5753533E0,1.2485272E1,6.79982E-1,1.2020638E0,-9.300239E-2,5.725547E-1,5.3263702E0,3.846786E0,-9.110457E-2,-7.64454E-1,-9.122039E-2,-9.421947E-2,1.1246592E0,2.761436E0,-9.0649605E-2,3.3188175E1,-4.7322006E0,1.3995938E0,1.484068E1,8.8350944E-2,-9.073536E-2,9.162943E-1,-9.049881E-2,-9.02079E-2,2.845839E-1,-9.083272E-2,3.4547028E1,1.0337852E1,1.6984856E1,-9.2269175E-2,4.7202396E0,-9.201064E-2,6.847594E-1,8.1762016E-2,-9.699133E-2,8.9109436E-2,-8.903727E-2,8.724227E-2,-8.502915E-2,8.717229E-2,-8.8065825E-2,-9.1481395E-2,-1.5175021E-2,-8.957169E-2,8.5393295E-2,-7.816321E-2,9.138702E-2],"split_indices":[81,93,94,6,73,56,8,6,0,95,57,97,0,93,0,0,74,102,0,108,72,19,67,0,0,45,0,0,51,0,108,114,58,0,67,0,51,0,0,0,0,0,0,0,0,0,0,0,0,0,0],"split_type":[0,0,0,0,0,0,0,0,0,0,0,0,0,0,0,0,0,0,0,0,0,0,0,0,0,0,0,0,0,0,0,0,0,0,0,0,0,0,0,0,0,0,0,0,0,0,0,0,0,0,0],"sum_hessian":[3.624617E4,2.0003117E4,1.6243054E4,1.6736559E4,3.2665583E3,4.994722E3,1.1248332E4,1.6420787E4,3.1577112E2,9.5030414E2,2.3162542E3,2.5015303E3,2.4931917E3,2.4423593E2,1.1004096E4,2.3236908E2,1.6188419E4,7.957565E2,1.5454771E2,2.586613E2,2.0575928E3,2.0200228E3,4.8150742E2,3.6462265E1,2.0777367E2,1.6051469E4,1.3694983E2,4.1633522E1,7.541229E2,6.497076E1,1.9369054E2,6.3209816E1,1.9943829E3,6.912381E1,1.9508989E3,3.3094852E2,1.5055888E2,1.5967089E4,8.4380035E1,7.3354865E2,2.05743E1,1.8426442E2,9.426122E0,3.6709896E1,2.6499918E1,1.9069069E3,8.7476105E1,4.5343307E1,1.9055557E3,5.7003655E0,1.4485852E2],"tree_param":{"num_deleted":"0","num_feature":"116","num_nodes":"51","size_leaf_vector":"1"}},{"base_weights":[2.0648025E-2,1.092232E0,-1.3901038E0,1.3067805E0,-8.78595E-2,-5.202998E-1,-1.7393241E0,1.4498894E0,-5.293952E-1,9.260714E-1,-8.752292E-2,-1.2569971E0,-8.75923E-2,-9.0804234E-2,1.5066695E0,7.324755E-1,-9.0944156E-2,1.4001828E0,-8.882121E-2,1.5412221E0,-8.729784E-2,1.541423E0,-1.233775E0,-9.358369E-2,1.4755136E0,-8.742293E-2,1.5707917E0,-7.434908E-2,1.01844765E-1,-9.286394E-2,7.8352265E-2,-9.2847735E-2,7.146566E-2,-1.0015837E-1,8.219481E-2,8.194608E-2,-9.640383E-2],"categories":[],"categories_nodes":[],"categories_segments":[],"categories_sizes":[],"default_left":[0,0,0,0,0,0,0,0,0,0,0,0,0,0,0,0,0,0,0,0,0,0,0,0,0,0,0,0,0,0,0,0,0,0,0,0,0],"id":3,"left_children":[1,3,5,7,-1,9,11,13,15,17,-1,19,-1,-1,21,23,-1,25,-1,27,-1,29,31,-1,33,-1,35,-1,-1,-1,-1,-1,-1,-1,-1,-1,-1],"loss_changes":[5.475924E4,1.2587283E4,4.7488105E3,5.0315625E3,0E0,7.9744536E3,6.517969E1,3.296379E3,2.254928E3,2.6421245E3,0E0,3.9379968E2,0E0,0E0,1.6646094E3,1.3586024E3,0E0,9.445574E2,0E0,6.7648445E1,0E0,1.504207E3,3.664027E2,0E0,3.22943E2,0E0,3.9973486E2,0E0,0E0,0E0,0E0,0E0,0E0,0E0,0E0,0E0,0E0],"parents":[2147483647,0,0,1,1,2,2,3,3,5,5,6,6,7,7,8,8,9,9,11,11,14,14,15,15,17,17,19,19,21,21,22,22,24,24,26,26],"right_children":[2,4,6,8,-1,10,12,14,16,18,-1,20,-1,-1,22,24,-1,26,-1,28,-1,30,32,-1,34,-1,36,-1,-1,-1,-1,-1,-1,-1,-1,-1,-1],"split_conditions":[8.447538E0,5.725547E-1,-7.450295E-1,5.7987034E-1,-8.78595E-2,1.2490892E1,-7.1564174E-1,6.8454397E-1,6.9672475E0,4.696305E0,-8.752292E-2,2.4453191E-1,-8.75923E-2,-9.0804234E-2,8.8268524E-1,9.227893E0,-9.0944156E-2,2.3637931E0,-8.882121E-2,1.2228725E1,-8.729784E-2,1.1366498E0,9.596929E0,-9.358369E-2,2.0040333E0,-8.742293E-2,7.8443108E0,-7.434908E-2,1.01844765E-1,-9.286394E-2,7.8352265E-2,-9.2847735E-2,7.146566E-2,-1.0015837E-1,8.219481E-2,8.194608E-2,-9.640383E-2],"split_indices":[71,95,94,73,0,81,94,17,57,8,0,32,0,0,45,49,0,9,0,1,0,14,64,0,16,0,28,0,0,0,0,0,0,0,0,0,0],"split_type":[0,0,0,0,0,0,0,0,0,0,0,0,0,0,0,0,0,0,0,0,0,0,0,0,0,0,0,0,0,0,0,0,0,0,0,0,0],"sum_hessian":[3.6220676E4,2.0584928E4,1.5635748E4,1.9144012E4,1.4409154E3,4.4799683E3,1.1155779E4,1.7760031E4,1.3839812E3,2.0591497E3,2.4208186E3,2.84853E2,1.0870927E4,3.0295853E2,1.7457072E4,6.9969934E2,6.8428186E2,1.7522296E3,3.0691998E2,4.205106E1,2.4280194E2,1.723889E4,2.1818076E2,1.5498822E2,5.447111E2,8.958892E1,1.6626406E3,5.633646E0,3.6417416E1,1.284547E2,1.7110438E4,1.7705214E2,4.1128624E1,2.4645895E1,5.2006525E2,1.6314055E3,3.1235113E1],"tree_param":{"num_deleted":"0","num_feature":"116","num_nodes":"37","size_leaf_vector":"1"}},{"base_weights":[4.131378E-3,1.0362293E0,-1.3048252E0,1.3508507E0,-8.1105494E-1,-4.136357E-1,-1.6766173E0,1.4037708E0,-8.575489E-2,9.7505265E-1,-1.4568634E0,9.646179E-1,-8.438336E-2,-9.4064987E-1,-8.443944E-2,-8.772246E-2,1.446584E0,1.3645753E0,-8.372041E-2,1.7335398E-2,-1.6340848E0,1.4038268E0,-8.554657E-2,9.670021E-2,-8.388121E-2,1.4834747E0,-9.2355326E-2,-8.717271E-2,1.5562972E0,1.40033E0,-8.413582E-2,-5.018653E-1,-8.4836386E-2,-8.415738E-2,1.549938E0,-9.388085E-2,7.523062E-2,8.194203E-2,-8.415801E-2,-8.1615806E-2,9.244373E-2,-8.473904E-2,7.293796E-2,-8.560975E-2,8.044028E-2],"categories":[],"categories_nodes":[],"categories_segments":[],"categories_sizes":[],"default_left":[0,0,0,0,0,0,0,0,0,0,0,0,0,0,0,0,0,0,0,0,0,0,0,0,0,0,0,0,0,0,0,0,0,0,0,0,0,0,0,0,0,0,0,0,0],"id":4,"left_children":[1,3,5,7,9,11,13,15,-1,17,19,21,-1,23,-1,-1,25,27,-1,29,31,33,-1,-1,-1,35,-1,-1,37,39,-1,41,-1,-1,43,-1,-1,-1,-1,-1,-1,-1,-1,-1,-1],"loss_changes":[4.783012E4,1.1506215E4,5.1710254E3,2.7468906E3,3.325154E3,8.0721675E3,9.707031E1,2.2509648E3,0E0,7.925995E2,5.530327E2,2.5975518E3,0E0,3.8762543E2,0E0,0E0,1.9962773E3,4.0087E2,0E0,5.387518E2,1.3316602E2,8.584817E2,0E0,0E0,0E0,1.1555938E3,0E0,0E0,1.7118884E2,1.7488474E2,0E0,2.3748761E2,0E0,0E0,3.5078076E2,0E0,0E0,0E0,0E0,0E0,0E0,0E0,0E0,0E0,0E0],"parents":[2147483647,0,0,1,1,2,2,3,3,4,4,5,5,6,6,7,7,9,9,10,10,11,11,13,13,16,16,17,17,19,19,20,20,21,21,25,25,28,28,29,29,31,31,34,34],"right_children":[2,4,6,8,10,12,14,16,-1,18,20,22,-1,24,-1,-1,26,28,-1,30,32,34,-1,-1,-1,36,-1,-1,38,40,-1,42,-1,-1,44,-1,-1,-1,-1,-1,-1,-1,-1,-1,-1],"split_conditions":[8.447538E0,3.5090923E-1,-7.450295E-1,9.9951345E-1,-1.5753533E0,1.2485272E1,-8.536045E-1,1.1366498E0,-8.575489E-2,6.6059667E-1,-8.9890367E-1,4.696305E0,-8.438336E-2,2.4453191E-1,-8.443944E-2,-8.772246E-2,1.099323E1,5.395672E0,-8.372041E-2,-4.972471E-1,5.3263702E0,2.3637931E0,-8.554657E-2,9.670021E-2,-8.388121E-2,6.8454397E-1,-9.2355326E-2,-8.717271E-2,8.551585E-1,6.324432E-1,-8.413582E-2,9.4835825E0,-8.4836386E-2,-8.415738E-2,4.7202396E0,-9.388085E-2,7.523062E-2,8.194203E-2,-8.415801E-2,-8.1615806E-2,9.244373E-2,-8.473904E-2,7.293796E-2,-8.560975E-2,8.044028E-2],"split_indices":[71,93,94,74,73,56,93,14,0,94,51,8,0,32,0,0,6,67,0,72,57,9,0,0,0,17,0,0,60,59,0,49,0,0,67,0,0,0,0,0,0,0,0,0,0],"split_type":[0,0,0,0,0,0,0,0,0,0,0,0,0,0,0,0,0,0,0,0,0,0,0,0,0,0,0,0,0,0,0,0,0,0,0,0,0,0,0,0,0,0,0,0,0],"sum_hessian":[3.5402246E4,1.9794617E4,1.5607629E4,1.6914143E4,2.880475E3,4.59514E3,1.1012488E4,1.6627682E4,2.864612E2,7.6479034E2,2.1156848E3,2.2074033E3,2.387737E3,1.8043617E2,1.0832052E4,2.218577E2,1.6405822E4,6.671859E2,9.760443E1,2.271405E2,1.8885442E3,1.8965479E3,3.108554E2,3.648764E1,1.4394853E2,1.6224649E4,1.8117325E2,3.829452E1,6.288914E2,1.2534692E2,1.0179359E2,9.948289E1,1.7890613E3,8.523431E1,1.8113135E3,1.0084938E2,1.6123801E4,6.137468E2,1.5144558E1,1.5810655E1,1.0953626E2,6.193498E1,3.7547905E1,3.1609306E1,1.7797042E3],"tree_param":{"num_deleted":"0","num_feature":"116","num_nodes":"45","size_leaf_vector":"1"}},{"base_weights":[1.6886069E-2,9.9890006E-1,-1.1941115E0,1.3242444E0,-5.730314E-1,-2.521441E-1,-1.6244221E0,1.3766367E0,-8.550321E-2,4.4307625E-1,-1.4442059E0,1.0107106E0,-8.161246E-2,-1.1163825E0,-8.1754886E-2,-1.7198678E0,1.4224364E0,1.0400244E0,-1.7204679E0,-7.9544075E-2,-8.275009E-2,1.4010028E0,-8.844546E-1,-8.120752E-2,7.96162E-2,-8.14698E-2,-9.397224E-2,1.4506037E0,-8.304222E-2,-8.4070615E-2,1.4145889E0,-9.3512826E-2,-8.2718514E-2,-8.171462E-2,1.4692526E0,-8.114422E-2,1.482077E0,-8.3707355E-2,1.4696485E0,7.316531E-2,-1.13710836E-1,7.844208E-2,-8.040511E-2,8.7382354E-2,-7.452754E-2,-8.1820235E-2,7.7299505E-2,-7.20872E-2,8.210515E-2],"categories":[],"categories_nodes":[],"categories_segments":[],"categories_sizes":[],"default_left":[0,0,0,0,0,0,0,0,0,0,0,0,0,0,0,0,0,0,0,0,0,0,0,0,0,0,0,0,0,0,0,0,0,0,0,0,0,0,0,0,0,0,0,0,0,0,0,0,0],"id":5,"left_children":[1,3,5,7,9,11,13,15,-1,17,19,21,-1,23,-1,25,27,29,31,33,-1,35,37,-1,-1,-1,-1,39,-1,-1,41,-1,-1,-1,43,-1,45,-1,47,-1,-1,-1,-1,-1,-1,-1,-1,-1,-1],"loss_changes":[4.190622E4,9.952445E3,6.3956504E3,2.565412E3,2.9550322E3,8.627539E3,5.6921875E1,2.2501816E3,0E0,1.9925071E3,5.168445E2,1.9132949E3,0E0,3.1352048E2,0E0,2.7929688E-1,1.358873E3,1.2344482E3,2.0977783E-1,5.839497E2,0E0,5.280171E2,8.24261E2,0E0,0E0,0E0,0E0,7.356621E2,0E0,0E0,4.9815088E2,0E0,0E0,0E0,1.0273007E2,0E0,4.18792E2,0E0,5.838707E1,0E0,0E0,0E0,0E0,0E0,0E0,0E0,0E0,0E0,0E0],"parents":[2147483647,0,0,1,1,2,2,3,3,4,4,5,5,6,6,7,7,9,9,10,10,11,11,13,13,15,15,16,16,17,17,18,18,19,19,21,21,22,22,27,27,30,30,34,34,36,36,38,38],"right_children":[2,4,6,8,10,12,14,16,-1,18,20,22,-1,24,-1,26,28,30,32,34,-1,36,38,-1,-1,-1,-1,40,-1,-1,42,-1,-1,-1,44,-1,46,-1,48,-1,-1,-1,-1,-1,-1,-1,-1,-1,-1],"split_conditions":[8.478243E0,2.6237684E-1,-7.450295E-1,1.099323E1,-4.606921E-1,1.2485272E1,6.79982E-1,1.2020638E0,-8.550321E-2,4.9038467E0,7.5E-2,3.721134E0,-8.161246E-2,1.9989735E0,-8.1754886E-2,1.1366498E0,9.9951345E-1,6.328775E0,4.418907E-1,2.7014458E-1,-8.275009E-2,1.3854469E0,1.484068E1,-8.120752E-2,7.96162E-2,-8.14698E-2,-9.397224E-2,1.2117302E2,-8.304222E-2,-8.4070615E-2,6.6059667E-1,-9.3512826E-2,-8.2718514E-2,-8.171462E-2,4.3984222E0,-8.114422E-2,4.7202396E0,-8.3707355E-2,6.847594E-1,7.316531E-2,-1.13710836E-1,7.844208E-2,-8.040511E-2,8.7382354E-2,-7.452754E-2,-8.1820235E-2,7.7299505E-2,-7.20872E-2,8.210515E-2],"split_indices":[81,94,94,6,73,56,8,6,0,48,99,97,0,9,0,14,74,107,94,55,0,9,67,0,0,0,0,70,0,0,94,0,0,0,46,0,67,0,51,0,0,0,0,0,0,0,0,0,0],"split_type":[0,0,0,0,0,0,0,0,0,0,0,0,0,0,0,0,0,0,0,0,0,0,0,0,0,0,0,0,0,0,0,0,0,0,0,0,0,0,0,0,0,0,0,0,0,0,0,0,0],"sum_hessian":[3.5236508E4,1.945796E4,1.5778545E4,1.6121445E4,3.3365156E3,4.9482383E3,1.0830307E4,1.5848345E4,2.731014E2,1.5403713E3,1.7961442E3,2.5840188E3,2.3642192E3,2.2506918E2,1.0605237E4,2.3045961E2,1.5617885E4,1.2076777E3,3.3269366E2,2.4050798E2,1.5556362E3,2.142957E3,4.410618E2,1.8987587E2,3.5193302E1,1.5422984E2,7.622977E1,1.5477023E4,1.4086107E2,1.4568677E2,1.061991E3,9.350347E1,2.3919019E2,1.19995834E2,1.20512146E2,5.545866E1,2.0874983E3,3.3048743E2,1.1057436E2,1.5425028E4,5.199559E1,1.0108849E3,5.110604E1,1.105258E2,9.986342E0,4.142976E1,2.0460686E3,5.7719326E0,1.0480243E2],"tree_param":{"num_deleted":"0","num_feature":"116","num_nodes":"49","size_leaf_vector":"1"}},{"base_weights":[-5.0818436E-3,9.655789E-1,-1.2750831E0,1.1939592E0,-1.1761738E0,-5.21822E-1,-1.5718516E0,1.2944735E0,-2.9384106E-1,1.0572565E0,-1.5213405E0,7.9572886E-1,-7.9121396E-2,-8.6516166E-1,-7.9202704E-2,-8.319675E-2,1.3443285E0,7.04158E-1,-1.7495649E0,7.862592E-2,-7.798368E-2,-7.9414144E-2,-2.4759908E-1,1.2497987E0,-7.949582E-2,9.598725E-2,-7.875102E-2,1.3867929E0,-1.8828679E0,1.2936903E0,-8.7939315E-2,-1.8879628E0,-8.169805E-2,-7.831341E-2,7.6487556E-2,-7.9702176E-2,1.3898244E0,7.0288315E-2,-8.61768E-2,-9.836699E-2,-8.0610394E-2,7.448628E-2,-8.283932E-2,-9.872982E-2,-7.869575E-2,7.290089E-2,-9.422593E-2],"categories":[],"categories_nodes":[],"categories_segments":[],"categories_sizes":[],"default_left":[0,0,0,0,0,0,0,0,0,0,0,0,0,0,0,0,0,0,0,0,0,0,0,0,0,0,0,0,0,0,0,0,0,0,0,0,0,0,0,0,0,0,0,0,0,0,0],"id":6,"left_children":[1,3,5,7,9,11,13,15,17,19,21,23,-1,25,-1,-1,27,29,31,-1,-1,-1,33,35,-1,-1,-1,37,39,41,-1,43,-1,-1,-1,-1,45,-1,-1,-1,-1,-1,-1,-1,-1,-1,-1],"loss_changes":[4.2092875E4,9.467979E3,3.3058555E3,2.61583E3,1.4396428E3,5.8454062E3,9.012891E1,2.4185469E3,1.6103733E3,3.3994067E2,1.3740625E2,2.0231288E3,0E0,3.6343488E2,0E0,0E0,2.2105898E3,9.5742566E2,4.1274414E0,0E0,0E0,0E0,1.9429797E2,6.266223E2,0E0,0E0,0E0,9.409219E2,1.6220703E0,3.0980127E2,0E0,2.2990723E0,0E0,0E0,0E0,0E0,3.365598E2,0E0,0E0,0E0,0E0,0E0,0E0,0E0,0E0,0E0,0E0],"parents":[2147483647,0,0,1,1,2,2,3,3,4,4,5,5,6,6,7,7,8,8,9,9,10,10,11,11,13,13,16,16,17,17,18,18,22,22,23,23,27,27,28,28,29,29,31,31,36,36],"right_children":[2,4,6,8,10,12,14,16,18,20,22,24,-1,26,-1,-1,28,30,32,-1,-1,-1,34,36,-1,-1,-1,38,40,42,-1,44,-1,-1,-1,-1,46,-1,-1,-1,-1,-1,-1,-1,-1,-1,-1],"split_conditions":[8.447538E0,5.2845293E-1,-7.450295E-1,5.7987034E-1,-3.0235584E0,1.2485272E1,-8.536045E-1,6.8454397E-1,6.1700106E0,2.2068256E-1,1.942641E1,3.846786E0,-7.9121396E-2,3.819885E-1,-7.9202704E-2,-8.319675E-2,8.532403E-1,-1.8752518E0,1.578451E0,7.862592E-2,-7.798368E-2,-7.9414144E-2,3.9773939E0,2.3637931E0,-7.949582E-2,9.598725E-2,-7.875102E-2,1.3753952E1,3.1163603E-1,-1.0981573E-1,-8.7939315E-2,3.1163603E-1,-8.169805E-2,-7.831341E-2,7.6487556E-2,-7.9702176E-2,1.4288445E0,7.0288315E-2,-8.61768E-2,-9.836699E-2,-8.0610394E-2,7.448628E-2,-8.283932E-2,-9.872982E-2,-7.869575E-2,7.290089E-2,-9.422593E-2],"split_indices":[71,93,94,73,73,56,93,17,81,59,115,97,0,62,0,0,45,40,73,0,0,0,21,9,0,0,0,2,93,95,0,93,0,0,0,0,77,0,0,0,0,0,0,0,0,0,0],"split_type":[0,0,0,0,0,0,0,0,0,0,0,0,0,0,0,0,0,0,0,0,0,0,0,0,0,0,0,0,0,0,0,0,0,0,0,0,0,0,0,0,0,0,0,0,0,0,0],"sum_hessian":[3.4143773E4,1.9352736E4,1.4791038E4,1.7488354E4,1.864383E3,4.1811514E3,1.0609887E4,1.6381748E4,1.1066053E3,2.4928705E2,1.6150961E3,1.8648135E3,2.316338E3,1.8131224E2,1.0428575E4,2.7095248E2,1.6110796E4,6.5682367E2,4.4978168E2,2.0861148E2,4.0675575E1,1.5342174E3,8.087864E1,1.5670302E3,2.977833E2,3.648204E1,1.448302E2,1.5902121E4,2.086748E2,5.303528E2,1.2647092E2,1.9773134E2,2.5205035E2,4.6498657E1,3.437998E1,7.304962E1,1.4939805E3,1.5806249E4,9.5871826E1,1.5426173E2,5.441307E1,4.9777478E2,3.2578E1,1.5083441E2,4.689693E1,1.4640442E3,2.9936348E1],"tree_param":{"num_deleted":"0","num_feature":"116","num_nodes":"47","size_leaf_vector":"1"}},{"base_weights":[-2.2277513E-3,9.3425506E-1,-1.2140036E0,1.2375761E0,-5.628783E-1,-5.280407E-1,-7.699203E-2,1.2808644E0,-8.219644E-2,8.330189E-1,-1.0915041E0,7.212256E-1,-7.690402E-2,-1.6500278E0,1.3151926E0,1.3529989E0,-1.0148224E0,-1.5690799E0,2.7049002E-1,1.1646724E0,-7.827259E-2,-7.702892E-2,-9.0113685E-2,1.3418503E0,-7.7553175E-2,1.4615285E0,-8.171394E-2,-7.803377E-2,7.02888E-2,-9.27515E-2,-7.7905744E-2,-7.818624E-2,1.2745306E0,-7.714348E-2,1.3742644E0,6.800288E-2,-9.01029E-2,-7.793041E-2,7.589703E-2,8.025902E-2,-7.665845E-2,-7.909305E-2,7.2317086E-2],"categories":[],"categories_nodes":[],"categories_segments":[],"categories_sizes":[],"default_left":[0,0,0,0,0,0,0,0,0,0,0,0,0,0,0,0,0,0,0,0,0,0,0,0,0,0,0,0,0,0,0,0,0,0,0,0,0,0,0,0,0,0,0],"id":7,"left_children":[1,3,5,7,9,11,-1,13,-1,15,17,19,-1,21,23,25,27,29,31,33,-1,-1,-1,35,-1,37,-1,-1,-1,-1,-1,-1,39,-1,41,-1,-1,-1,-1,-1,-1,-1,-1],"loss_changes":[3.8082383E4,8.596783E3,3.2689492E3,1.9655273E3,2.354623E3,5.947519E3,0E0,1.562502E3,0E0,8.437556E2,1.5055784E3,2.138857E3,0E0,2.2253418E-1,1.1733633E3,2.2434607E2,2.5733557E2,2.4819336E0,1.1099098E3,1.00414526E3,0E0,0E0,0E0,8.7188086E2,0E0,1.1500586E2,0E0,0E0,0E0,0E0,0E0,0E0,3.6390253E2,0E0,3.5159644E2,0E0,0E0,0E0,0E0,0E0,0E0,0E0,0E0],"parents":[2147483647,0,0,1,1,2,2,3,3,4,4,5,5,7,7,9,9,10,10,11,11,13,13,14,14,15,15,16,16,17,17,18,18,19,19,23,23,25,25,32,32,34,34],"right_children":[2,4,6,8,10,12,-1,14,-1,16,18,20,-1,22,24,26,28,30,32,34,-1,-1,-1,36,-1,38,-1,-1,-1,-1,-1,-1,40,-1,42,-1,-1,-1,-1,-1,-1,-1,-1],"split_conditions":[8.447538E0,2.719035E-1,-6.615917E-1,1.099323E1,5.5905833E0,1.2485272E1,-7.699203E-2,6.8454397E-1,-8.219644E-2,-1.732054E-1,4.128064E-1,4.696305E0,-7.690402E-2,1.2020638E0,1.1246592E0,1.2401811E0,1.5127432E1,3.1163603E-1,3.5609886E1,2.3637931E0,-7.827259E-2,-7.702892E-2,-9.0113685E-2,9.162943E-1,-7.7553175E-2,5.0500436E0,-8.171394E-2,-7.803377E-2,7.02888E-2,-9.27515E-2,-7.7905744E-2,-7.818624E-2,3.5298874E1,-7.714348E-2,4.7202396E0,6.800288E-2,-9.01029E-2,-7.793041E-2,7.589703E-2,8.025902E-2,-7.665845E-2,-7.909305E-2,7.2317086E-2],"split_indices":[71,93,95,6,56,56,0,17,0,74,53,8,0,6,74,61,107,93,110,9,0,0,0,45,0,65,0,0,0,0,0,0,108,0,67,0,0,0,0,0,0,0,0],"split_type":[0,0,0,0,0,0,0,0,0,0,0,0,0,0,0,0,0,0,0,0,0,0,0,0,0,0,0,0,0,0,0,0,0,0,0,0,0,0,0,0,0,0,0],"sum_hessian":[3.3556465E4,1.8928441E4,1.4628022E4,1.5739728E4,3.1887146E3,4.7116084E3,9.916414E3,1.550732E4,2.3240746E2,8.757143E2,2.3130002E3,2.1064875E3,2.6051208E3,1.7898308E2,1.5328337E4,6.83614E2,1.9210027E2,1.7124033E3,6.00597E2,1.7647474E3,3.4174017E2,1.1059527E2,6.83878E1,1.5187616E4,1.4072092E2,6.601414E2,2.34726E1,1.5704202E2,3.5058243E1,5.7027813E1,1.6553756E3,2.1226564E2,3.8833133E2,1.263376E2,1.6384099E3,1.510073E4,8.688557E1,1.1616186E1,6.4852527E2,3.4780075E2,4.0530563E1,3.8498905E1,1.599911E3],"tree_param":{"num_deleted":"0","num_feature":"116","num_nodes":"43","size_leaf_vector":"1"}},{"base_weights":[6.9403267E-3,9.071355E-1,-1.1676464E0,1.0812957E0,-7.501995E-2,-3.91534E-1,-1.487868E0,1.1619872E0,-7.5308084E-2,8.1600213E-1,-7.491652E-2,-1.0387661E0,-7.498317E-2,-1.629867E0,1.2157007E0,1.2080513E0,-7.635656E-2,1.3308219E0,-7.4790895E-2,-7.49227E-2,-1.8089387E0,1.2464263E0,-7.99783E-2,-1.5932658E0,1.3514898E0,-6.411804E-2,8.863465E-2,-8.204894E-2,-1.0157118E-1,6.358299E-2,-9.584151E-2,-7.435775E-2,-9.777871E-2,7.0559524E-2,-8.967578E-2],"categories":[],"categories_nodes":[],"categories_segments":[],"categories_sizes":[],"default_left":[0,0,0,0,0,0,0,0,0,0,0,0,0,0,0,0,0,0,0,0,0,0,0,0,0,0,0,0,0,0,0,0,0,0,0],"id":8,"left_children":[1,3,5,7,-1,9,11,13,-1,15,-1,17,-1,19,21,23,-1,25,-1,-1,27,29,-1,31,33,-1,-1,-1,-1,-1,-1,-1,-1,-1,-1],"loss_changes":[3.4836484E4,7.822341E3,3.5520645E3,3.6334316E3,0E0,5.583272E3,5.2046875E1,2.5316387E3,0E0,1.8373097E3,0E0,2.859847E2,0E0,4.7927246E0,1.433666E3,6.901538E2,0E0,5.184314E1,0E0,0E0,1.5291138E0,1.3093125E3,0E0,3.1576538E-1,3.0845898E2,0E0,0E0,0E0,0E0,0E0,0E0,0E0,0E0,0E0,0E0],"parents":[2147483647,0,0,1,1,2,2,3,3,5,5,6,6,7,7,9,9,11,11,13,13,14,14,15,15,17,17,20,20,21,21,23,23,24,24],"right_children":[2,4,6,8,-1,10,12,14,-1,16,-1,18,-1,20,22,24,-1,26,-1,-1,28,30,-1,32,34,-1,-1,-1,-1,-1,-1,-1,-1,-1,-1],"split_conditions":[8.447538E0,6.3031757E-1,-7.450295E-1,1.1246592E0,-7.501995E-2,1.2490892E1,-7.1564174E-1,1.2020638E0,-7.5308084E-2,4.696305E0,-7.491652E-2,7.7172074E0,-7.498317E-2,6.8454397E-1,1.1573929E1,1.9505702E0,-7.635656E-2,3.697041E1,-7.4790895E-2,-7.49227E-2,1.1366498E0,3.7430763E1,-7.99783E-2,2.3637931E0,6.8666415E0,-6.411804E-2,8.863465E-2,-8.204894E-2,-1.0157118E-1,6.358299E-2,-9.584151E-2,-7.435775E-2,-9.777871E-2,7.0559524E-2,-8.967578E-2],"split_indices":[71,94,94,74,0,81,94,6,0,8,0,115,0,17,6,19,0,22,0,0,14,111,0,9,107,0,0,0,0,0,0,0,0,0,0],"split_type":[0,0,0,0,0,0,0,0,0,0,0,0,0,0,0,0,0,0,0,0,0,0,0,0,0,0,0,0,0,0,0,0,0,0,0],"sum_hessian":[3.294475E4,1.8650988E4,1.4293762E4,1.7393312E4,1.2576757E3,4.1756284E3,1.0118133E4,1.686783E4,5.254827E2,1.99706E3,2.1785684E3,2.6122314E2,9.856909E3,3.1784695E2,1.6549982E4,1.7112252E3,2.858349E2,4.1929195E1,2.1929396E2,1.8872092E2,1.2912602E2,1.6371858E4,1.781237E2,8.2861084E1,1.6283641E3,5.789361E0,3.6139835E1,7.835174E1,5.0774292E1,1.6242887E4,1.2897191E2,6.80389E1,1.48221855E1,1.5985702E3,2.9793926E1],"tree_param":{"num_deleted":"0","num_feature":"116","num_nodes":"35","size_leaf_vector":"1"}},{"base_weights":[3.5027E-2,9.0193367E-1,-1.1435556E0,1.1789198E0,-4.9095216E-1,-3.990049E-1,-1.4518886E0,1.9311335E-2,1.2747458E0,-1.0881736E0,6.9565445E-1,7.9450583E-1,-7.311835E-2,-7.640435E-1,-7.317777E-2,1.1809757E0,-2.0924587E0,1.3004705E0,-1.9519074E0,8.366217E-1,-1.5012493E0,-7.4785106E-2,1.189618E0,1.1805481E0,-7.3668E-2,8.521899E-2,-7.263612E-2,1.423323E0,-2.4504762E0,-2.228065E0,-7.536724E-2,-1.6088243E0,1.3258641E0,-2.28769E0,-7.682017E-2,-7.726118E-2,1.35639E0,-8.970913E-2,-7.4446686E-2,1.3779976E0,-7.4642085E-2,-7.364067E-2,1.3039945E0,-1.1548501E-1,7.467073E-2,-1.3077837E-1,-8.609799E-2,-7.823897E-2,-1.1805327E-1,-7.315918E-2,-8.796548E-2,6.7307346E-2,-7.334491E-2,-1.22601174E-1,-6.737773E-2,-7.801702E-2,7.308724E-2,7.3239915E-2,-7.5047426E-2,6.808575E-2,-8.898578E-2],"categories":[],"categories_nodes":[],"categories_segments":[],"categories_sizes":[],"default_left":[0,0,0,0,0,0,0,0,0,0,0,0,0,0,0,0,0,0,0,0,0,0,0,0,0,0,0,0,0,0,0,0,0,0,0,0,0,0,0,0,0,0,0,0,0,0,0,0,0,0,0,0,0,0,0,0,0,0,0,0,0],"id":9,"left_children":[1,3,5,7,9,11,13,15,17,19,21,23,-1,25,-1,27,29,31,33,35,37,-1,39,41,-1,-1,-1,43,45,47,-1,49,51,53,-1,-1,55,-1,-1,57,-1,-1,59,-1,-1,-1,-1,-1,-1,-1,-1,-1,-1,-1,-1,-1,-1,-1,-1,-1,-1],"loss_changes":[3.358654E4,7.308074E3,3.197746E3,1.7555938E3,2.2277026E3,5.180834E3,7.793945E1,2.963332E3,1.2138457E3,1.6635833E3,1.1412668E3,1.6858369E3,0E0,2.8535028E2,0E0,6.893054E2,3.065503E1,1.0717656E3,1.2644989E1,4.602263E2,3.540039E0,0E0,4.364348E2,5.405232E2,0E0,0E0,0E0,1.9475842E2,1.4037476E0,2.6822388E1,0E0,1.81427E-1,8.150449E2,6.2764893E0,0E0,0E0,9.578931E1,0E0,0E0,2.0304419E2,0E0,0E0,2.8218872E2,0E0,0E0,0E0,0E0,0E0,0E0,0E0,0E0,0E0,0E0,0E0,0E0,0E0,0E0,0E0,0E0,0E0,0E0],"parents":[2147483647,0,0,1,1,2,2,3,3,4,4,5,5,6,6,7,7,8,8,9,9,10,10,11,11,13,13,15,15,16,16,17,17,18,18,19,19,20,20,22,22,23,23,27,27,28,28,29,29,31,31,32,32,33,33,36,36,39,39,42,42],"right_children":[2,4,6,8,10,12,14,16,18,20,22,24,-1,26,-1,28,30,32,34,36,38,-1,40,42,-1,-1,-1,44,46,48,-1,50,52,54,-1,-1,56,-1,-1,58,-1,-1,60,-1,-1,-1,-1,-1,-1,-1,-1,-1,-1,-1,-1,-1,-1,-1,-1,-1,-1],"split_conditions":[8.447538E0,2.719035E-1,-7.450295E-1,-5.866076E-1,2.1627562E-1,1.2485272E1,-8.536045E-1,8.565142E0,4.740157E0,5.3263702E0,6.8666415E0,3.846786E0,-7.311835E-2,2.4453191E-1,-7.317777E-2,-5.881685E-1,9.9951345E-1,6.8454397E-1,1.099323E1,3.2812065E1,3.1163603E-1,-7.4785106E-2,-3.3788085E-1,2.3637931E0,-7.3668E-2,8.521899E-2,-7.263612E-2,8.071002E0,3.012285E0,1.2826719E0,-7.536724E-2,1.2020638E0,1.1246592E0,1.1246592E0,-7.682017E-2,-7.726118E-2,5.0500436E0,-8.970913E-2,-7.4446686E-2,4.9038467E0,-7.4642085E-2,-7.364067E-2,1.4288445E0,-1.1548501E-1,7.467073E-2,-1.3077837E-1,-8.609799E-2,-7.823897E-2,-1.1805327E-1,-7.315918E-2,-8.796548E-2,6.7307346E-2,-7.334491E-2,-1.22601174E-1,-6.737773E-2,-7.801702E-2,7.308724E-2,7.3239915E-2,-7.5047426E-2,6.808575E-2,-8.898578E-2],"split_indices":[71,93,94,50,55,56,93,112,105,57,107,97,0,32,0,72,74,17,6,111,93,0,72,9,0,0,0,112,64,11,0,6,74,74,0,0,65,0,0,48,0,0,77,0,0,0,0,0,0,0,0,0,0,0,0,0,0,0,0,0,0],"split_type":[0,0,0,0,0,0,0,0,0,0,0,0,0,0,0,0,0,0,0,0,0,0,0,0,0,0,0,0,0,0,0,0,0,0,0,0,0,0,0,0,0,0,0,0,0,0,0,0,0,0,0,0,0,0,0,0,0,0,0,0,0],"sum_hessian":[3.28705E4,1.8939662E4,1.3930837E4,1.5798218E4,3.141444E3,4.0802642E3,9.850573E3,1.2059539E3,1.4592264E4,2.0897512E3,1.0516929E3,1.9226016E3,2.1576626E3,1.6540146E2,9.685172E3,7.7827374E2,4.2768015E2,1.4477438E4,1.1482514E2,3.6905453E2,1.7206967E3,1.9308543E2,8.586075E2,1.6433463E3,2.7925534E2,3.5758354E1,1.296431E2,7.301545E2,4.811928E1,3.4493085E2,8.2749306E1,1.2473245E2,1.4352706E4,6.1012833E1,5.381231E1,6.5755615E1,3.0329892E2,6.358585E1,1.6571107E3,8.0272144E2,5.5886024E1,7.25711E1,1.5707751E3,1.2867884E1,7.1728656E2,3.7117672E1,1.1001611E1,5.9744503E1,2.8518634E2,6.8835815E1,5.589664E1,1.4249733E4,1.02973236E2,5.0565872E1,1.0446962E1,1.009204E1,2.9320688E2,7.797044E2,2.3017008E1,1.542462E3,2.8313148E1],"tree_param":{"num_deleted":"0","num_feature":"116","num_nodes":"61","size_leaf_vector":"1"}},{"base_weights":[2.8071884E-2,8.687895E-1,-1.1166213E0,1.1399262E0,-4.163629E-1,-3.7847662E-1,-1.4194263E0,-1.66277E0,1.1770196E0,-1.231336E0,6.252284E-1,7.786196E-1,-7.14852E-2,-9.841087E-1,-7.154213E-2,-7.145463E-2,-9.152561E-2,1.2119184E0,-1.7779003E0,5.2088153E-1,-1.4823034E0,-7.363963E-2,1.0493565E0,1.1626958E0,-1.4659863E0,6.682464E-2,-7.133484E-2,1.2352062E0,-8.435652E-2,-1.1245563E-1,-7.940852E-2,-7.641378E-2,1.3324924E0,-8.0368035E-2,-7.219314E-2,1.3011014E0,-7.4814774E-2,-7.197481E-2,1.2926197E0,-8.462753E-2,-7.114402E-2,2.8161777E-2,6.514214E-2,-7.575736E-2,7.204817E-2,7.051678E-2,-7.081107E-2,6.7221835E-2,-8.959677E-2],"categories":[],"categories_nodes":[],"categories_segments":[],"categories_sizes":[],"default_left":[0,0,0,0,0,0,0,0,0,0,0,0,0,0,0,0,0,0,0,0,0,0,0,0,0,0,0,0,0,0,0,0,0,0,0,0,0,0,0,0,0,0,0,0,0,0,0,0,0],"id":10,"left_children":[1,3,5,7,9,11,13,15,17,19,21,23,-1,25,-1,-1,-1,27,29,31,33,-1,35,37,39,-1,-1,41,-1,-1,-1,-1,43,-1,-1,45,-1,-1,47,-1,-1,-1,-1,-1,-1,-1,-1,-1,-1],"loss_changes":[3.074095E4,6.417879E3,3.0227773E3,1.5830625E3,2.7250652E3,4.788828E3,4.625586E1,5.1870728E0,1.550082E3,7.9270337E2,1.2557202E3,1.6175642E3,0E0,2.569338E2,0E0,0E0,0E0,1.0036953E3,1.2128662E1,3.785004E2,5.2529297E0,0E0,7.536846E2,5.4314746E2,2.7056885E-1,0E0,0E0,6.682051E2,0E0,0E0,0E0,0E0,5.2431458E1,0E0,0E0,3.190044E2,0E0,0E0,2.462207E2,0E0,0E0,0E0,0E0,0E0,0E0,0E0,0E0,0E0,0E0],"parents":[2147483647,0,0,1,1,2,2,3,3,4,4,5,5,6,6,7,7,8,8,9,9,10,10,11,11,13,13,17,17,18,18,19,19,20,20,22,22,23,23,24,24,27,27,32,32,35,35,38,38],"right_children":[2,4,6,8,10,12,14,16,18,20,22,24,-1,26,-1,-1,-1,28,30,32,34,-1,36,38,40,-1,-1,42,-1,-1,-1,-1,44,-1,-1,46,-1,-1,48,-1,-1,-1,-1,-1,-1,-1,-1,-1,-1],"split_conditions":[8.447538E0,2.6237684E-1,-7.450295E-1,1.1366498E0,1.8060398E-1,1.2485272E1,-7.1564174E-1,6.8454397E-1,1.2117302E2,5.3263702E0,6.448898E-1,4.696305E0,-7.14852E-2,2.4453191E-1,-7.154213E-2,-7.145463E-2,-9.152561E-2,9.162943E-1,7.2129087E0,9.4835825E0,4.778842E-1,-7.363963E-2,4.9038467E0,2.3637931E0,3.846786E0,6.682464E-2,-7.133484E-2,-5.454008E-1,-8.435652E-2,-1.1245563E-1,-7.940852E-2,-7.641378E-2,1.882274E0,-8.0368035E-2,-7.219314E-2,6.6059667E-1,-7.4814774E-2,-7.197481E-2,5.6162196E-1,-8.462753E-2,-7.114402E-2,2.8161777E-2,6.514214E-2,-7.575736E-2,7.204817E-2,7.051678E-2,-7.081107E-2,6.7221835E-2,-8.959677E-2],"split_indices":[71,94,94,14,55,56,94,17,70,57,45,8,0,32,0,0,0,45,9,49,94,0,48,9,97,0,0,50,0,0,0,0,26,0,0,94,0,0,52,0,0,0,0,0,0,0,0,0,0],"split_type":[0,0,0,0,0,0,0,0,0,0,0,0,0,0,0,0,0,0,0,0,0,0,0,0,0,0,0,0,0,0,0,0,0,0,0,0,0,0,0,0,0,0,0,0,0,0,0,0,0],"sum_hessian":[3.1941166E4,1.841589E4,1.3525274E4,1.5207567E4,3.208324E3,3.9350637E3,9.59021E3,1.9806886E2,1.5009498E4,1.7998689E3,1.4084551E3,1.8733303E3,2.0617336E3,2.473053E2,9.342905E3,8.6745415E1,1.1132345E2,1.4834883E4,1.7461598E2,2.2536034E2,1.5745085E3,2.3643195E2,1.1720231E3,1.6000299E3,2.7330035E2,3.9288097E1,2.0801721E2,1.4717234E4,1.1764842E2,4.700939E1,1.2760659E2,6.3685074E1,1.6167526E2,3.6059253E2,1.2139161E3,1.0669946E3,1.0502848E2,7.560897E1,1.524421E3,3.7569557E1,2.357308E2,1.346734E3,1.33705E4,5.4566336E0,1.5621863E2,1.0262223E3,4.077233E1,1.4997903E3,2.4630632E1],"tree_param":{"num_deleted":"0","num_feature":"116","num_nodes":"49","size_leaf_vector":"1"}},{"base_weights":[2.7560314E-2,8.4501296E-1,-1.0822716E0,1.1118479E0,-5.794471E-1,-3.4621698E-1,-1.3897433E0,1.1508995E0,-7.610696E-2,3.234421E-1,-1.2404251E0,7.7606916E-1,-6.999879E-2,-7.37422E-1,-7.005435E-2,-1.6186304E0,1.187946E0,-7.440331E-2,7.488229E-1,-1.6376567E-1,-7.122143E-2,1.1320274E0,-7.073239E-2,7.999965E-2,-6.958093E-2,-7.358738E-2,-9.488248E-2,1.258646E0,1.5180255E-1,1.0262743E0,-6.993644E-2,1.084841E0,-7.181307E-2,-7.035388E-2,1.2433624E0,6.394169E-2,-5.1572647E-2,4.9157914E-2,-6.91533E-2,5.8945548E-2,-7.902118E-2,-6.917932E-2,7.73273E-2,-8.853351E-2,6.500844E-2],"categories":[],"categories_nodes":[],"categories_segments":[],"categories_sizes":[],"default_left":[0,0,0,0,0,0,0,0,0,0,0,0,0,0,0,0,0,0,0,0,0,0,0,0,0,0,0,0,0,0,0,0,0,0,0,0,0,0,0,0,0,0,0,0,0],"id":11,"left_children":[1,3,5,7,9,11,13,15,-1,17,19,21,-1,23,-1,25,27,-1,29,31,-1,33,-1,-1,-1,-1,-1,35,37,39,-1,41,-1,-1,43,-1,-1,-1,-1,-1,-1,-1,-1,-1,-1],"loss_changes":[2.8294932E4,6.8270586E3,2.9933066E3,1.5576953E3,1.6917964E3,4.612147E3,6.8009766E1,1.5313145E3,0E0,9.2478357E2,3.239702E2,1.4744655E3,0E0,2.4931772E2,0E0,5.288269E0,1.0773926E3,0E0,5.802271E2,3.828628E2,0E0,4.6121313E2,0E0,0E0,0E0,0E0,0E0,6.3794336E2,1.2017661E3,3.4436566E2,0E0,1.4084053E2,0E0,0E0,2.6898413E2,0E0,0E0,0E0,0E0,0E0,0E0,0E0,0E0,0E0,0E0],"parents":[2147483647,0,0,1,1,2,2,3,3,4,4,5,5,6,6,7,7,9,9,10,10,11,11,13,13,15,15,16,16,18,18,19,19,21,21,27,27,28,28,29,29,31,31,34,34],"right_children":[2,4,6,8,10,12,14,16,-1,18,20,22,-1,24,-1,26,28,-1,30,32,-1,34,-1,-1,-1,-1,-1,36,38,40,-1,42,-1,-1,44,-1,-1,-1,-1,-1,-1,-1,-1,-1,-1],"split_conditions":[8.447538E0,2.719035E-1,-7.450295E-1,1.099323E1,-1.732054E-1,1.2485272E1,-8.536045E-1,1.1366498E0,-7.610696E-2,4.2427287E0,4.536582E0,3.846786E0,-6.999879E-2,2.4453191E-1,-7.005435E-2,1.2020638E0,2.2760025E-1,-7.440331E-2,6.3031757E-1,5.801742E0,-7.122143E-2,2.3637931E0,-7.073239E-2,7.999965E-2,-6.958093E-2,-7.358738E-2,-9.488248E-2,8.8268524E-1,5.1763763E0,1.6122537E0,-6.993644E-2,2.0326659E-1,-7.181307E-2,-7.035388E-2,-1.1316774E0,6.394169E-2,-5.1572647E-2,4.9157914E-2,-6.91533E-2,5.8945548E-2,-7.902118E-2,-6.917932E-2,7.73273E-2,-8.853351E-2,6.500844E-2],"split_indices":[71,93,94,6,74,56,93,14,0,87,24,97,0,32,0,6,74,0,94,71,0,9,0,0,0,0,0,45,48,79,0,55,0,0,74,0,0,0,0,0,0,0,0,0,0],"split_type":[0,0,0,0,0,0,0,0,0,0,0,0,0,0,0,0,0,0,0,0,0,0,0,0,0,0,0,0,0,0,0,0,0,0,0,0,0,0,0,0,0,0,0,0,0],"sum_hessian":[3.1186084E4,1.7958727E4,1.3227358E4,1.5125571E4,2.8331555E3,3.8980251E3,9.329333E3,1.4905149E4,2.2042186E2,1.1976663E3,1.6354893E3,1.8877625E3,2.0102627E3,1.605895E2,9.168743E3,1.9618242E2,1.4708967E4,2.2728064E2,9.7038556E2,2.3898836E2,1.396501E3,1.6243186E3,2.6344382E2,3.4801075E1,1.2578842E2,1.3263474E2,6.3547688E1,1.3769226E4,9.397412E2,8.598234E2,1.1056216E2,1.207009E2,1.1828746E2,6.774265E1,1.5565759E3,1.3649345E4,1.1988077E2,6.0980316E2,3.299381E2,8.1277844E2,4.7044964E1,1.870439E1,1.01996506E2,2.8236431E1,1.5283395E3],"tree_param":{"num_deleted":"0","num_feature":"116","num_nodes":"45","size_leaf_vector":"1"}},{"base_weights":[-1.6991938E-2,7.7994335E-1,-9.8725885E-1,9.459095E-1,-1.2282584E0,-2.1642396E-1,-6.894055E-2,1.0652466E0,-6.337701E-1,5.0680447E-1,-6.9293365E-2,8.0707806E-1,-6.866168E-2,-1.4837159E0,1.1158403E0,7.414404E-1,-1.2055525E0,-6.837827E-2,7.614422E-2,-7.1624406E-2,9.909961E-1,-6.860309E-2,-1.6042117E0,1.1502929E0,-7.231964E-2,1.3059343E0,-1.7062545E0,6.7991935E-2,-1.4554754E0,1.1121297E0,-7.3592E-2,-8.542641E-2,-6.894223E-2,-8.223833E-2,5.869431E-2,6.946815E-2,-9.064728E-2,-1.0501444E-1,-6.8681225E-2,2.0401707E-2,-7.932515E-2,5.97904E-2,-8.442011E-2],"categories":[],"categories_nodes":[],"categories_segments":[],"categories_sizes":[],"default_left":[0,0,0,0,0,0,0,0,0,0,0,0,0,0,0,0,0,0,0,0,0,0,0,0,0,0,0,0,0,0,0,0,0,0,0,0,0,0,0,0,0,0,0],"id":12,"left_children":[1,3,5,7,9,11,-1,13,15,17,-1,19,-1,21,23,25,27,-1,-1,-1,29,-1,31,33,-1,35,37,-1,39,41,-1,-1,-1,-1,-1,-1,-1,-1,-1,-1,-1,-1,-1],"loss_changes":[2.2789418E4,5.394417E3,4.0111973E3,2.8184082E3,3.3861108E2,5.3033564E3,0E0,1.7939033E3,8.269169E2,1.9944835E2,0E0,9.8036E2,0E0,1.4436646E0,1.2046484E3,4.2934442E2,4.779496E2,0E0,0E0,0E0,6.570393E2,0E0,5.684509E-1,8.8871484E2,0E0,6.802716E1,4.764633E0,0E0,1.6593884E2,4.9284497E2,0E0,0E0,0E0,0E0,0E0,0E0,0E0,0E0,0E0,0E0,0E0,0E0,0E0],"parents":[2147483647,0,0,1,1,2,2,3,3,4,4,5,5,7,7,8,8,9,9,11,11,13,13,14,14,15,15,16,16,20,20,22,22,23,23,25,25,26,26,28,28,29,29],"right_children":[2,4,6,8,10,12,-1,14,16,18,-1,20,-1,22,24,26,28,-1,-1,-1,30,-1,32,34,-1,36,38,-1,40,42,-1,-1,-1,-1,-1,-1,-1,-1,-1,-1,-1,-1,-1],"split_conditions":[8.478243E0,5.725547E-1,-7.1564174E-1,4.06128E-1,1.3797731E1,1.2490892E1,-6.894055E-2,6.8454397E-1,1.0362172E1,4.7618756E0,-6.9293365E-2,4.7202396E0,-6.866168E-2,1.1366498E0,1.1573929E1,3.9418957E0,-8.8737124E-1,-6.837827E-2,7.614422E-2,-7.1624406E-2,1.3375549E0,-6.860309E-2,2.719035E-1,1.1366498E0,-7.231964E-2,-1.1938475E0,1.1246592E0,6.7991935E-2,7.5465554E-1,5.6162196E-1,-7.3592E-2,-8.542641E-2,-6.894223E-2,-8.223833E-2,5.869431E-2,6.946815E-2,-9.064728E-2,-1.0501444E-1,-6.8681225E-2,2.0401707E-2,-7.932515E-2,5.97904E-2,-8.442011E-2],"split_indices":[81,95,94,74,70,81,0,17,22,19,0,67,0,14,6,46,95,0,0,0,76,0,93,14,0,41,74,0,85,52,0,0,0,0,0,0,0,0,0,0,0,0,0],"split_type":[0,0,0,0,0,0,0,0,0,0,0,0,0,0,0,0,0,0,0,0,0,0,0,0,0,0,0,0,0,0,0,0,0,0,0,0,0,0,0,0,0,0,0],"sum_hessian":[2.9470639E4,1.6180704E4,1.3289936E4,1.4946031E4,1.234673E3,4.477261E3,8.812674E3,1.389654E4,1.0494908E3,1.0263072E2,1.1320422E3,2.3756646E3,2.101597E3,2.699094E2,1.3626631E4,3.0812164E2,7.413692E2,3.595618E1,6.6674545E1,1.7977385E2,2.1958906E3,1.465239E2,1.233855E2,1.3446378E4,1.8025273E2,2.5075769E2,5.736394E1,6.541911E1,6.759501E2,2.0934727E3,1.024181E2,7.98459E1,4.3539597E1,1.11976685E2,1.3334401E4,2.4476488E2,5.992817E0,2.3825735E1,3.3538208E1,4.4266396E1,6.3168365E2,2.033292E3,6.018058E1],"tree_param":{"num_deleted":"0","num_feature":"116","num_nodes":"43","size_leaf_vector":"1"}},{"base_weights":[-4.3194606E-3,7.889974E-1,-1.0768756E0,1.046733E0,-5.257701E-1,-4.0388164E-1,-6.748817E-2,1.4320801E-1,1.1637765E0,3.4062752E-1,-1.1946105E0,6.8882596E-1,-6.742519E-2,9.0020555E-1,-1.8457221E0,1.191812E0,-1.9108334E0,-1.4510895E0,8.3157694E-1,-1.7585705E-1,-6.864832E-2,1.0555917E0,-6.9474585E-2,1.2203596E0,-1.8934934E0,5.102255E-2,-2.0756972E0,-4.915152E-1,1.237801E0,-2.2508056E0,-7.090181E-2,-7.783352E-2,-6.7112E-2,1.0365947E0,-6.720653E-2,1.0001762E0,-6.9519356E-2,-6.8453066E-2,1.1899359E0,6.488848E-2,-1.1887125E-1,-6.9406055E-2,-1.1817411E-1,-1.1249572E-1,-6.9545954E-2,-1.0509401E-1,6.852562E-2,6.283163E-2,-6.9339275E-2,-1.21728145E-1,-6.82917E-2,5.8178376E-2,-8.0637954E-2,6.980312E-2,-6.7810975E-2,-7.562784E-2,6.256255E-2],"categories":[],"categories_nodes":[],"categories_segments":[],"categories_sizes":[],"default_left":[0,0,0,0,0,0,0,0,0,0,0,0,0,0,0,0,0,0,0,0,0,0,0,0,0,0,0,0,0,0,0,0,0,0,0,0,0,0,0,0,0,0,0,0,0,0,0,0,0,0,0,0,0,0,0,0,0],"id":13,"left_children":[1,3,5,7,9,11,-1,13,15,17,19,21,-1,23,25,27,29,31,33,35,-1,37,-1,39,41,-1,43,45,47,49,-1,-1,-1,51,-1,53,-1,-1,55,-1,-1,-1,-1,-1,-1,-1,-1,-1,-1,-1,-1,-1,-1,-1,-1,-1,-1],"loss_changes":[2.4595195E4,5.6310264E3,2.2565156E3,1.4690195E3,1.5789282E3,3.662203E3,0E0,2.4022585E3,1.0624648E3,1.0458022E3,2.791233E2,1.2555957E3,0E0,1.03585E3,2.9206458E2,9.4419727E2,1.549231E1,8.499756E-1,4.174546E2,3.3021603E2,0E0,4.5735632E2,0E0,2.919912E2,2.5031677E1,0E0,4.548987E1,9.769927E2,5.881738E2,7.1297607E0,0E0,0E0,0E0,2.888188E2,0E0,1.1154579E2,0E0,0E0,2.216394E2,0E0,0E0,0E0,0E0,0E0,0E0,0E0,0E0,0E0,0E0,0E0,0E0,0E0,0E0,0E0,0E0,0E0,0E0],"parents":[2147483647,0,0,1,1,2,2,3,3,4,4,5,5,7,7,8,8,9,9,10,10,11,11,13,13,14,14,15,15,16,16,17,17,18,18,19,19,21,21,23,23,24,24,26,26,27,27,28,28,29,29,33,33,35,35,38,38],"right_children":[2,4,6,8,10,12,-1,14,16,18,20,22,-1,24,26,28,30,32,34,36,-1,38,-1,40,42,-1,44,46,48,50,-1,-1,-1,52,-1,54,-1,-1,56,-1,-1,-1,-1,-1,-1,-1,-1,-1,-1,-1,-1,-1,-1,-1,-1,-1,-1],"split_conditions":[8.447538E0,2.719035E-1,-7.450295E-1,-4.194206E-1,-1.732054E-1,1.2485272E1,-6.748817E-2,2.6038272E0,4.2338862E0,4.9767947E0,4.536582E0,4.696305E0,-6.742519E-2,-1.2076481E-1,5.9665723E0,1.2421607E0,1.099323E1,5.983467E-1,6.6059667E-1,5.801742E0,-6.864832E-2,2.3637931E0,-6.9474585E-2,4.994895E1,1.1366498E0,5.102255E-2,9.9951345E-1,1.0587997E1,1.1246592E0,8.984696E-1,-7.090181E-2,-7.783352E-2,-6.7112E-2,3.473562E-1,-6.720653E-2,-3.3788085E-1,-6.9519356E-2,-6.8453066E-2,4.7202396E0,6.488848E-2,-1.1887125E-1,-6.9406055E-2,-1.1817411E-1,-1.1249572E-1,-6.9545954E-2,-1.0509401E-1,6.852562E-2,6.283163E-2,-6.9339275E-2,-1.21728145E-1,-6.82917E-2,5.8178376E-2,-8.0637954E-2,6.980312E-2,-6.7810975E-2,-7.562784E-2,6.256255E-2],"split_indices":[71,93,94,50,74,56,0,107,105,67,24,8,0,72,112,17,6,94,94,71,0,9,0,70,14,0,74,47,74,74,0,0,0,50,0,72,0,0,67,0,0,0,0,0,0,0,0,0,0,0,0,0,0,0,0,0,0],"split_type":[0,0,0,0,0,0,0,0,0,0,0,0,0,0,0,0,0,0,0,0,0,0,0,0,0,0,0,0,0,0,0,0,0,0,0,0,0,0,0,0,0,0,0,0,0,0,0,0,0,0,0,0,0,0,0,0,0],"sum_hessian":[2.8903707E4,1.6614812E4,1.2288894E4,1.3891791E4,2.7230222E3,3.5460725E3,8.74282E3,1.5934293E3,1.2298362E4,1.1865231E3,1.536499E3,1.6442869E3,1.9017855E3,1.1545491E3,4.3888025E2,1.218784E4,1.1052153E2,2.547734E2,9.317497E2,2.2921704E2,1.307282E3,1.3980599E3,2.4622687E2,1.0363483E3,1.1820089E2,3.2343746E1,4.065365E2,3.238617E2,1.1863979E4,6.329085E1,4.723068E1,1.22576675E2,1.3219673E2,8.5198987E2,7.9759796E1,1.165438E2,1.1267324E2,7.291398E1,1.325146E3,1.0151456E3,2.1202597E1,5.8861473E1,5.9339417E1,3.2226266E2,8.427384E1,1.7359776E2,1.5026395E2,1.1779978E4,8.4001396E1,5.0958683E1,1.2332169E1,8.1356006E2,3.8429836E1,1.0012915E2,1.6414648E1,2.8873236E1,1.2962727E3],"tree_param":{"num_deleted":"0","num_feature":"116","num_nodes":"57","size_leaf_vector":"1"}},{"base_weights":[-3.996719E-3,7.6440936E-1,-1.0266813E0,9.9293745E-1,-7.644816E-1,-3.421166E-1,-1.3150922E0,1.0619099E0,-6.743457E-2,4.1315222E-1,-1.2839264E0,7.157196E-1,-6.629137E-2,-6.4515764E-1,-6.634651E-2,-1.4520605E0,1.1023548E0,-1.5644993E0,1.0973128E0,-1.4676758E0,-5.3311497E-1,1.0589833E0,-6.814475E-2,7.777298E-2,-6.5852635E-2,-6.810187E-2,-8.281596E-2,1.1243458E0,-1.7368463E0,-1.9368063E0,-6.66083E-2,1.2701255E0,-1.5096073E0,-1.8294846E0,-6.7301564E-2,8.119026E-1,-1.4392835E0,-6.725186E-2,1.1775683E0,5.7353146E-2,-7.1834356E-2,-1.0981909E-1,-7.150473E-2,-1.1115252E-1,-6.8583906E-2,-8.777963E-2,6.717124E-2,-1.01943724E-1,-6.5174215E-2,-1.0622551E-1,-6.9654875E-2,-7.706855E-2,6.578929E-2,-8.5263826E-2,-6.659656E-2,6.1111964E-2,-7.565851E-2],"categories":[],"categories_nodes":[],"categories_segments":[],"categories_sizes":[],"default_left":[0,0,0,0,0,0,0,0,0,0,0,0,0,0,0,0,0,0,0,0,0,0,0,0,0,0,0,0,0,0,0,0,0,0,0,0,0,0,0,0,0,0,0,0,0,0,0,0,0,0,0,0,0,0,0,0,0],"id":14,"left_children":[1,3,5,7,9,11,13,15,-1,17,19,21,-1,23,-1,25,27,29,31,33,35,37,-1,-1,-1,-1,-1,39,41,43,-1,45,47,49,-1,51,53,-1,55,-1,-1,-1,-1,-1,-1,-1,-1,-1,-1,-1,-1,-1,-1,-1,-1,-1,-1],"loss_changes":[2.1992775E4,5.5840186E3,2.370088E3,2.2467646E3,1.2719937E3,3.7058892E3,6.6137695E1,1.3747598E3,0E0,8.635346E2,1.9823535E2,1.2259739E3,0E0,2.2179659E2,0E0,1.6838379E0,8.3185547E2,1.161673E1,2.1538031E2,4.851953E1,3.4877588E2,4.2165576E2,0E0,0E0,0E0,0E0,0E0,7.690449E2,1.1315247E1,6.7961273E0,0E0,1.01032104E2,6.0582733E-1,3.4206482E1,0E0,1.3891565E2,2.6047363E0,0E0,1.7070093E2,0E0,0E0,0E0,0E0,0E0,0E0,0E0,0E0,0E0,0E0,0E0,0E0,0E0,0E0,0E0,0E0,0E0,0E0],"parents":[2147483647,0,0,1,1,2,2,3,3,4,4,5,5,6,6,7,7,9,9,10,10,11,11,13,13,15,15,16,16,17,17,18,18,19,19,20,20,21,21,27,27,28,28,29,29,31,31,32,32,33,33,35,35,36,36,38,38],"right_children":[2,4,6,8,10,12,14,16,-1,18,20,22,-1,24,-1,26,28,30,32,34,36,38,-1,-1,-1,-1,-1,40,42,44,-1,46,48,50,-1,52,54,-1,56,-1,-1,-1,-1,-1,-1,-1,-1,-1,-1,-1,-1,-1,-1,-1,-1,-1,-1],"split_conditions":[8.447538E0,2.2760025E-1,-7.450295E-1,5.725547E-1,5.46469E0,1.2485272E1,-8.536045E-1,1.1366498E0,-6.743457E-2,1.0926532E-1,3.7344122E0,4.696305E0,-6.629137E-2,3.819885E-1,-6.634651E-2,1.2020638E0,3.7430763E1,9.9951345E-1,2.1050669E-1,2.39546E-1,2.5331354E0,2.3637931E0,-6.814475E-2,7.777298E-2,-6.5852635E-2,-6.810187E-2,-8.281596E-2,1.1573929E1,2.719035E-1,2.719035E-1,-6.66083E-2,5.465479E-1,4.4224937E-2,9.9951345E-1,-6.7301564E-2,4.3587003E0,9.9951345E-1,-6.725186E-2,3.846786E0,5.7353146E-2,-7.1834356E-2,-1.0981909E-1,-7.150473E-2,-1.1115252E-1,-6.8583906E-2,-8.777963E-2,6.717124E-2,-1.01943724E-1,-6.5174215E-2,-1.0622551E-1,-6.9654875E-2,-7.706855E-2,6.578929E-2,-8.5263826E-2,-6.659656E-2,6.1111964E-2,-7.565851E-2],"split_indices":[71,74,94,95,71,56,93,14,0,55,31,8,0,62,0,6,111,74,51,93,8,9,0,0,0,0,0,6,93,93,0,44,93,74,0,14,74,0,97,0,0,0,0,0,0,0,0,0,0,0,0,0,0,0,0,0,0],"split_type":[0,0,0,0,0,0,0,0,0,0,0,0,0,0,0,0,0,0,0,0,0,0,0,0,0,0,0,0,0,0,0,0,0,0,0,0,0,0,0,0,0,0,0,0,0,0,0,0,0,0,0,0,0,0,0,0,0],"sum_hessian":[2.7984436E4,1.5978815E4,1.2005619E4,1.3901297E4,2.0775193E3,3.559372E3,8.446247E3,1.3504081E4,3.972151E2,6.359534E2,1.4415659E3,1.7151997E3,1.8441725E3,1.4762056E2,8.298626E3,2.1326167E2,1.3290819E4,1.631272E2,4.7282623E2,1.1573643E3,2.8420166E2,1.4725177E3,2.4268195E2,3.42216E1,1.1339896E2,1.5334564E2,5.991603E1,1.3189266E4,1.0155363E2,5.986269E1,1.0326451E2,4.4391208E2,2.8914139E1,2.876787E2,8.6968555E2,1.144414E2,1.6976028E2,6.873532E1,1.4037823E3,1.307385E4,1.1541644E2,3.81869E1,6.3366726E1,3.7788612E1,2.2074076E1,9.956718E0,4.3395538E2,5.612154E0,2.3301985E1,1.6933142E2,1.1834729E2,1.9819567E1,9.462183E1,4.4533104E1,1.2522717E2,1.3813947E3,2.2387796E1],"tree_param":{"num_deleted":"0","num_feature":"116","num_nodes":"57","size_leaf_vector":"1"}},{"base_weights":[-1.3589184E-2,7.440988E-1,-1.0387607E0,8.9544594E-1,-1.2626E0,-4.1005442E-1,-1.294186E0,9.7450775E-1,-8.878262E-1,2.5491104E-1,-1.3376163E0,6.335343E-1,-6.5243974E-2,-6.341774E-1,-6.529605E-2,-1.4294926E0,1.0188546E0,-6.636485E-2,7.039149E-2,6.697764E-2,-6.357281E-2,-1.5440562E0,-6.557807E-2,1.0027565E0,-6.7128815E-2,7.554355E-2,-6.479293E-2,-6.526383E-2,-1.5616109E0,1.0440892E0,-1.710161E0,-8.8529795E-2,-6.558491E-2,-6.6004284E-2,1.1302687E0,-7.079822E-2,-8.549268E-2,5.3418677E-2,-8.050075E-2,-1.0240592E-1,-7.048848E-2,-7.415349E-2,5.9813347E-2],"categories":[],"categories_nodes":[],"categories_segments":[],"categories_sizes":[],"default_left":[0,0,0,0,0,0,0,0,0,0,0,0,0,0,0,0,0,0,0,0,0,0,0,0,0,0,0,0,0,0,0,0,0,0,0,0,0,0,0,0,0,0,0],"id":15,"left_children":[1,3,5,7,9,11,13,15,17,19,21,23,-1,25,-1,27,29,-1,-1,-1,-1,31,-1,33,-1,-1,-1,-1,35,37,39,-1,-1,-1,41,-1,-1,-1,-1,-1,-1,-1,-1],"loss_changes":[2.0969605E4,4.715672E3,1.8418877E3,2.0360625E3,1.24320435E2,3.0974104E3,6.235547E1,1.4751104E3,6.2065234E2,8.8026764E1,3.5577393E0,1.1187161E3,0E0,2.0699179E2,0E0,2.0774536E0,9.36499E2,0E0,0E0,0E0,0E0,3.503418E0,0E0,3.8384888E2,0E0,0E0,0E0,0E0,9.2926025E-2,8.6857227E2,9.775696E0,0E0,0E0,0E0,2.12932E2,0E0,0E0,0E0,0E0,0E0,0E0,0E0,0E0],"parents":[2147483647,0,0,1,1,2,2,3,3,4,4,5,5,6,6,7,7,8,8,9,9,10,10,11,11,13,13,15,15,16,16,21,21,23,23,28,28,29,29,30,30,34,34],"right_children":[2,4,6,8,10,12,14,16,18,20,22,24,-1,26,-1,28,30,-1,-1,-1,-1,32,-1,34,-1,-1,-1,-1,36,38,40,-1,-1,-1,42,-1,-1,-1,-1,-1,-1,-1,-1],"split_conditions":[8.447538E0,8.984696E-1,-7.450295E-1,5.725547E-1,-1.5077188E2,1.2485272E1,-8.536045E-1,1.1366498E0,1.1742962E1,3.49174E-1,1.1246592E0,4.696305E0,-6.5243974E-2,2.4453191E-1,-6.529605E-2,7.658537E-1,3.7430763E1,-6.636485E-2,7.039149E-2,6.697764E-2,-6.357281E-2,3.1163603E-1,-6.557807E-2,2.3637931E0,-6.7128815E-2,7.554355E-2,-6.479293E-2,-6.526383E-2,1.2020638E0,9.346218E-1,2.719035E-1,-8.8529795E-2,-6.558491E-2,-6.6004284E-2,4.7202396E0,-7.079822E-2,-8.549268E-2,5.3418677E-2,-8.050075E-2,-1.0240592E-1,-7.048848E-2,-7.415349E-2,5.9813347E-2],"split_indices":[71,74,94,95,1,56,93,14,80,60,74,8,0,32,0,17,111,0,0,0,0,93,0,9,0,0,0,0,6,45,93,0,0,0,67,0,0,0,0,0,0,0,0],"split_type":[0,0,0,0,0,0,0,0,0,0,0,0,0,0,0,0,0,0,0,0,0,0,0,0,0,0,0,0,0,0,0,0,0,0,0,0,0,0,0,0,0,0,0],"sum_hessian":[2.699425E4,1.5522265E4,1.1471985E4,1.4434179E4,1.0880857E3,3.315006E3,8.156979E3,1.3821838E4,6.1234106E2,5.1141567E1,1.0369442E3,1.5304327E3,1.7845735E3,1.4345741E2,8.013522E3,2.4978932E2,1.3572049E4,5.143062E2,9.803481E1,2.9968346E1,2.1173222E1,1.096775E2,9.2726666E2,1.2899141E3,2.4051866E2,3.3517258E1,1.0994015E2,1.3435237E2,1.15436935E2,1.34483125E4,1.2373562E2,5.2182003E1,5.7495495E1,6.6638214E1,1.2232759E3,6.3550774E1,5.1886166E1,1.3326972E4,1.2134099E2,5.5489075E1,6.824655E1,2.9603214E1,1.1936727E3],"tree_param":{"num_deleted":"0","num_feature":"116","num_nodes":"43","size_leaf_vector":"1"}},{"base_weights":[4.6351245E-3,7.3027486E-1,-9.774434E-1,9.7461385E-1,-5.1723355E-1,-2.939031E-1,-1.2749656E0,-1.4390632E0,1.0072582E0,2.7492034E-1,-1.1340367E0,7.069113E-1,-6.4269E-2,-6.180187E-1,-6.432959E-2,-6.3645564E-2,-7.7248E-2,1.1504648E0,4.9997193E-1,-1.4116617E0,7.441343E-1,4.7948253E-1,-1.3176522E0,1.0253302E0,-6.5403104E-2,7.353034E-2,-6.382367E-2,-1.9449016E0,1.1754969E0,9.367093E-1,-1.5198786E0,-7.7031575E-2,-6.438543E-2,9.766997E-1,-1.4601486E0,-6.478843E-2,7.086191E-2,-1.4121987E0,-6.477337E-2,-6.4983465E-2,1.1247381E0,-8.1338175E-2,-1.2331813E-1,5.9627064E-2,-8.149006E-2,-1.1547651E-1,5.3524144E-2,6.030434E-2,-1.0370275E-1,5.6899566E-2,-7.008764E-2,-8.166967E-2,-6.4496495E-2,-7.567694E-2,-6.444367E-2,5.9072703E-2,-8.881339E-2],"categories":[],"categories_nodes":[],"categories_segments":[],"categories_sizes":[],"default_left":[0,0,0,0,0,0,0,0,0,0,0,0,0,0,0,0,0,0,0,0,0,0,0,0,0,0,0,0,0,0,0,0,0,0,0,0,0,0,0,0,0,0,0,0,0,0,0,0,0,0,0,0,0,0,0,0,0],"id":16,"left_children":[1,3,5,7,9,11,13,15,17,19,21,23,-1,25,-1,-1,-1,27,29,31,33,35,37,39,-1,-1,-1,41,43,45,47,-1,-1,49,51,-1,-1,53,-1,-1,55,-1,-1,-1,-1,-1,-1,-1,-1,-1,-1,-1,-1,-1,-1,-1,-1],"loss_changes":[1.8962441E4,4.6648765E3,2.2990312E3,1.00971484E3,1.2251946E3,3.404641E3,5.9371094E1,1.0451355E0,9.166787E2,8.701791E2,4.1826428E2,1.0970146E3,0E0,1.9291173E2,0E0,0E0,0E0,7.651738E2,2.4550576E3,1.842926E0,4.4223337E2,2.4282378E2,8.256836E-1,3.42422E2,0E0,0E0,0E0,9.153442E0,4.689668E2,9.9587585E2,7.5008777E2,0E0,0E0,3.00213E2,3.2487488E-1,0E0,0E0,9.1729736E-1,0E0,0E0,2.349591E2,0E0,0E0,0E0,0E0,0E0,0E0,0E0,0E0,0E0,0E0,0E0,0E0,0E0,0E0,0E0,0E0],"parents":[2147483647,0,0,1,1,2,2,3,3,4,4,5,5,6,6,7,7,8,8,9,9,10,10,11,11,13,13,17,17,18,18,19,19,20,20,21,21,22,22,23,23,27,27,28,28,29,29,30,30,33,33,34,34,37,37,40,40],"right_children":[2,4,6,8,10,12,14,16,18,20,22,24,-1,26,-1,-1,-1,28,30,32,34,36,38,40,-1,-1,-1,42,44,46,48,-1,-1,50,52,-1,-1,54,-1,-1,56,-1,-1,-1,-1,-1,-1,-1,-1,-1,-1,-1,-1,-1,-1,-1,-1],"split_conditions":[8.447538E0,2.719035E-1,-7.450295E-1,1.1366498E0,-1.732054E-1,1.2485272E1,-8.536045E-1,6.8454397E-1,6.44381E0,4.9767947E0,1.3797731E1,3.846786E0,-6.4269E-2,2.4453191E-1,-6.432959E-2,-6.3645564E-2,-7.7248E-2,9.39485E-1,5.3496906E1,5.678008E-1,1.8250456E0,3.799266E0,4.6199334E-1,2.3637931E0,-6.5403104E-2,7.353034E-2,-6.382367E-2,6.8454397E-1,9.162943E-1,3.763372E0,-1.2424655E1,-7.7031575E-2,-6.438543E-2,7.668858E0,5.983467E-1,-6.478843E-2,7.086191E-2,9.9951345E-1,-6.477337E-2,-6.4983465E-2,5.6162196E-1,-8.1338175E-2,-1.2331813E-1,5.9627064E-2,-8.149006E-2,-1.1547651E-1,5.3524144E-2,6.030434E-2,-1.0370275E-1,5.6899566E-2,-7.008764E-2,-8.166967E-2,-6.4496495E-2,-7.567694E-2,-6.444367E-2,5.9072703E-2,-8.881339E-2],"split_indices":[71,93,94,14,74,56,93,17,48,67,70,97,0,32,0,0,0,17,70,94,91,60,93,9,0,0,0,17,45,89,74,0,0,57,94,0,0,74,0,0,52,0,0,0,0,0,0,0,0,0,0,0,0,0,0,0,0],"split_type":[0,0,0,0,0,0,0,0,0,0,0,0,0,0,0,0,0,0,0,0,0,0,0,0,0,0,0,0,0,0,0,0,0,0,0,0,0,0,0,0,0,0,0,0,0,0,0,0,0,0,0,0,0,0,0,0,0],"sum_hessian":[2.6606902E4,1.5301306E4,1.1305597E4,1.2795397E4,2.5059082E3,3.4291987E3,7.876398E3,1.701703E2,1.2625228E4,1.0972611E3,1.4086471E3,1.706706E3,1.7224926E3,1.3790741E2,7.7384907E3,7.130812E1,9.886218E1,9.844784E3,2.7804434E3,2.3838425E2,8.588769E2,1.4375873E2,1.2648883E3,1.47423E3,2.3247598E2,3.275974E1,1.05147675E2,7.836059E1,9.766423E3,2.2865713E3,4.9387216E2,1.11226814E2,1.27157425E2,7.7741205E2,8.1464836E1,4.9558502E1,9.420022E1,2.2848526E2,1.0364031E3,5.995277E1,1.4142772E3,5.122708E1,2.7133507E1,9.708015E3,5.840874E1,8.985385E1,2.1967173E3,8.324041E1,4.1063174E2,7.2852936E2,4.8882706E1,3.6113495E1,4.535134E1,1.19234215E2,1.09251045E2,1.387739E3,2.6538177E1],"tree_param":{"num_deleted":"0","num_feature":"116","num_nodes":"57","size_leaf_vector":"1"}},{"base_weights":[-9.778525E-4,7.6836723E-1,-9.178645E-1,8.834643E-1,-6.37982E-2,-2.1973334E-1,-1.2566715E0,-8.59038E-1,9.743732E-1,6.982699E-1,-6.3699454E-2,-3.4272838E-1,-1.2794875E0,1.016644E0,-1.5511603E0,-1.1414801E0,1.0303942E0,1.0186325E0,-1.1595185E0,-1.4853792E0,8.719954E-1,-1.5141448E0,-6.341569E-2,6.505152E-2,-1.7516401E0,-1.4498634E0,-2.190005E0,6.4418E-1,-1.6841121E0,1.0641366E0,-6.3318424E-2,-1.3939143E0,1.1155964E0,-1.3930581E0,4.7131855E-2,-1.8065126E0,-6.389734E-2,6.308522E-2,-6.81731E-2,-2.0753837E0,-6.5422036E-2,-5.6071438E-2,-1.0263609E-1,-8.152433E-2,-6.5271854E-2,-7.5778835E-2,-1.2915097E-1,-9.4929405E-2,6.729865E-2,-1.0136237E-1,-6.794287E-2,5.4347813E-2,-7.031326E-2,-6.412384E-2,-8.950135E-2,-7.339901E-2,5.8639027E-2,-1.1585144E-1,-6.445223E-2,-1.0228162E-1,-6.416462E-2,-1.1692677E-1,-7.4691996E-2],"categories":[],"categories_nodes":[],"categories_segments":[],"categories_sizes":[],"default_left":[0,0,0,0,0,0,0,0,0,0,0,0,0,0,0,0,0,0,0,0,0,0,0,0,0,0,0,0,0,0,0,0,0,0,0,0,0,0,0,0,0,0,0,0,0,0,0,0,0,0,0,0,0,0,0,0,0,0,0,0,0,0,0],"id":17,"left_children":[1,3,5,7,-1,9,11,13,15,17,-1,19,21,23,25,27,29,31,33,35,37,39,-1,-1,41,43,45,47,49,51,-1,53,55,57,-1,59,-1,-1,-1,61,-1,-1,-1,-1,-1,-1,-1,-1,-1,-1,-1,-1,-1,-1,-1,-1,-1,-1,-1,-1,-1,-1,-1],"loss_changes":[1.8126127E4,3.28875E3,2.7727988E3,2.096293E3,0E0,3.7093972E3,1.6415039E2,8.5377203E2,1.4914453E3,1.2206372E3,0E0,2.7002734E2,1.8271484E1,1.4205002E2,2.7880737E1,3.1577518E2,9.5061816E2,4.104901E2,1.4949011E2,4.3616943E0,8.402531E1,3.7096863E1,0E0,0E0,9.172096E-1,8.7543335E0,1.297522E1,1.3891743E2,2.5075195E1,6.820781E2,0E0,7.054901E-1,2.5008936E2,2.3158691E1,0E0,1.9889374E0,0E0,0E0,0E0,1.0400024E1,0E0,0E0,0E0,0E0,0E0,0E0,0E0,0E0,0E0,0E0,0E0,0E0,0E0,0E0,0E0,0E0,0E0,0E0,0E0,0E0,0E0,0E0,0E0],"parents":[2147483647,0,0,1,1,2,2,3,3,5,5,6,6,7,7,8,8,9,9,11,11,12,12,13,13,14,14,15,15,16,16,17,17,18,18,19,19,20,20,21,21,24,24,25,25,26,26,27,27,28,28,29,29,31,31,32,32,33,33,35,35,39,39],"right_children":[2,4,6,8,-1,10,12,14,16,18,-1,20,22,24,26,28,30,32,34,36,38,40,-1,-1,42,44,46,48,50,52,-1,54,56,58,-1,60,-1,-1,-1,62,-1,-1,-1,-1,-1,-1,-1,-1,-1,-1,-1,-1,-1,-1,-1,-1,-1,-1,-1,-1,-1,-1,-1],"split_conditions":[8.02408E0,1.1246592E0,-7.1564174E-1,1.1342098E0,-6.37982E-2,1.4690024E1,7.238682E0,-9.700924E-1,5.5764017E0,3.846786E0,-6.3699454E-2,1.3007231E1,8.447538E0,2.7759468E1,7.9142874E-1,1.3614686E0,6.6059667E-1,1.3995938E0,1.484068E1,8.447538E0,8.817629E0,2.39546E-1,-6.341569E-2,6.505152E-2,3.214634E0,3.1163603E-1,6.8454397E-1,2.4506376E0,3.1163603E-1,1.1573929E1,-6.3318424E-2,2.3637931E0,4.587198E0,8.447538E0,4.7131855E-2,3.7346616E-1,-6.389734E-2,6.308522E-2,-6.81731E-2,2.7935198E-1,-6.5422036E-2,-5.6071438E-2,-1.0263609E-1,-8.152433E-2,-6.5271854E-2,-7.5778835E-2,-1.2915097E-1,-9.4929405E-2,6.729865E-2,-1.0136237E-1,-6.794287E-2,5.4347813E-2,-7.031326E-2,-6.412384E-2,-8.950135E-2,-7.339901E-2,5.8639027E-2,-1.1585144E-1,-6.445223E-2,-1.0228162E-1,-6.416462E-2,-1.1692677E-1,-7.4691996E-2],"split_indices":[71,74,94,17,0,47,56,51,49,97,0,49,71,70,50,63,94,19,67,71,47,93,0,0,66,93,17,41,93,6,0,9,67,71,0,94,0,0,0,74,0,0,0,0,0,0,0,0,0,0,0,0,0,0,0,0,0,0,0,0,0,0,0],"split_type":[0,0,0,0,0,0,0,0,0,0,0,0,0,0,0,0,0,0,0,0,0,0,0,0,0,0,0,0,0,0,0,0,0,0,0,0,0,0,0,0,0,0,0,0,0,0,0,0,0,0,0,0,0,0,0,0,0,0,0,0,0,0,0],"sum_hessian":[2.5694158E4,1.3971258E4,1.1722899E4,1.3227131E4,7.4412726E2,3.8308545E3,7.892045E3,6.554429E2,1.2571688E4,2.047934E3,1.7829204E3,1.926103E2,7.6994346E3,1.7654077E2,4.789021E2,3.237724E2,1.2247916E4,1.7471089E3,3.0082504E2,9.913471E1,9.347559E1,3.438471E2,7.3555874E3,1.605749E2,1.5965863E1,4.1618082E2,6.272128E1,7.541481E1,2.4835757E2,1.2071112E4,1.768036E2,6.698897E1,1.68012E3,2.7105E2,2.9775055E1,3.5879498E1,6.3255215E1,7.996996E1,1.3505629E1,8.978644E1,2.5406065E2,6.6891284E0,9.276735E0,1.8034618E2,2.3583464E2,2.4880926E1,3.7840355E1,1.59432335E1,5.947158E1,1.1831036E2,1.3004721E2,1.1961184E4,1.09928085E2,5.5588135E1,1.140083E1,3.5847775E1,1.6442722E3,2.527258E1,2.4577742E2,2.2628311E1,1.3251187E1,5.973485E1,3.0051588E1],"tree_param":{"num_deleted":"0","num_feature":"116","num_nodes":"63","size_leaf_vector":"1"}},{"base_weights":[1.6564582E-2,7.1015453E-1,-9.6078974E-1,9.128228E-1,-5.8185923E-1,-3.0521828E-1,-1.2407823E0,9.749774E-1,-6.3798316E-2,4.707209E-1,-1.0623809E0,6.662433E-1,-6.2566936E-2,-5.950326E-1,-6.2612586E-2,-1.3587636E0,1.0147535E0,-1.5078778E0,1.0555797E0,-4.9485676E-2,-1.3667746E0,9.7261995E-1,-6.367935E-2,7.033541E-2,-6.209731E-2,-6.2006306E-2,-7.3523715E-2,1.0498934E0,-6.7020047E-1,-1.8580667E0,-6.296506E-2,1.2050526E0,-1.4982578E0,-1.6565318E0,9.690001E-1,-1.6504017E0,-6.3292794E-2,-6.337084E-2,1.0684067E0,-7.372406E-2,5.3472083E-2,-8.750679E-2,5.691665E-2,-1.0542293E-1,-6.536883E-2,-8.142756E-2,6.388317E-2,-1.0971341E-1,-6.1173934E-2,-1.0067991E-1,-6.319812E-2,6.2396433E-2,-8.44029E-2,-9.941972E-2,-6.550523E-2,5.6248274E-2,-9.003463E-2],"categories":[],"categories_nodes":[],"categories_segments":[],"categories_sizes":[],"default_left":[0,0,0,0,0,0,0,0,0,0,0,0,0,0,0,0,0,0,0,0,0,0,0,0,0,0,0,0,0,0,0,0,0,0,0,0,0,0,0,0,0,0,0,0,0,0,0,0,0,0,0,0,0,0,0,0,0],"id":18,"left_children":[1,3,5,7,9,11,13,15,-1,17,19,21,-1,23,-1,25,27,29,31,33,35,37,-1,-1,-1,-1,-1,39,41,43,-1,45,47,49,51,53,-1,-1,55,-1,-1,-1,-1,-1,-1,-1,-1,-1,-1,-1,-1,-1,-1,-1,-1,-1,-1],"loss_changes":[1.714182E4,3.8735063E3,1.9263008E3,1.7406465E3,1.01518005E3,2.8893284E3,5.3726562E1,1.1555166E3,0E0,7.300256E2,4.2469104E2,9.231606E2,0E0,1.7042406E2,0E0,9.4351196E-1,7.2456055E2,1.0197662E1,1.8749774E2,5.2435406E2,2.8230835E1,2.8891724E2,0E0,0E0,0E0,0E0,0E0,5.925586E2,4.9097827E2,5.1982574E0,0E0,9.6747925E1,2.544651E0,1.4873138E1,1.4745634E2,2.899054E1,0E0,0E0,2.106742E2,0E0,0E0,0E0,0E0,0E0,0E0,0E0,0E0,0E0,0E0,0E0,0E0,0E0,0E0,0E0,0E0,0E0,0E0],"parents":[2147483647,0,0,1,1,2,2,3,3,4,4,5,5,6,6,7,7,9,9,10,10,11,11,13,13,15,15,16,16,17,17,18,18,19,19,20,20,21,21,27,27,28,28,29,29,31,31,32,32,33,33,34,34,35,35,38,38],"right_children":[2,4,6,8,10,12,14,16,-1,18,20,22,-1,24,-1,26,28,30,32,34,36,38,-1,-1,-1,-1,-1,40,42,44,-1,46,48,50,52,54,-1,-1,56,-1,-1,-1,-1,-1,-1,-1,-1,-1,-1,-1,-1,-1,-1,-1,-1,-1,-1],"split_conditions":[8.447538E0,2.2760025E-1,-7.450295E-1,5.725547E-1,5.46469E0,1.2485272E1,-8.536045E-1,6.8454397E-1,-6.3798316E-2,1.0926532E-1,2.042179E0,3.846786E0,-6.2566936E-2,2.4453191E-1,-6.2612586E-2,1.1366498E0,8.682129E-1,9.9951345E-1,1.7911492E-1,4.5563607E0,2.719035E-1,2.3637931E0,-6.367935E-2,7.033541E-2,-6.209731E-2,-6.2006306E-2,-7.3523715E-2,1.1366498E0,9.596929E0,2.719035E-1,-6.296506E-2,5.318649E0,9.9951345E-1,3.1163603E-1,-6.958007E-1,9.9951345E-1,-6.3292794E-2,-6.337084E-2,6.8666415E0,-7.372406E-2,5.3472083E-2,-8.750679E-2,5.691665E-2,-1.0542293E-1,-6.536883E-2,-8.142756E-2,6.388317E-2,-1.0971341E-1,-6.1173934E-2,-1.0067991E-1,-6.319812E-2,6.2396433E-2,-8.44029E-2,-9.941972E-2,-6.550523E-2,5.6248274E-2,-9.003463E-2],"split_indices":[71,74,94,95,71,56,93,17,0,55,63,97,0,32,0,14,45,74,50,14,93,9,0,0,0,0,0,14,64,93,0,107,74,93,41,74,0,0,107,0,0,0,0,0,0,0,0,0,0,0,0,0,0,0,0,0,0],"split_type":[0,0,0,0,0,0,0,0,0,0,0,0,0,0,0,0,0,0,0,0,0,0,0,0,0,0,0,0,0,0,0,0,0,0,0,0,0,0,0,0,0,0,0,0,0,0,0,0,0,0,0,0,0,0,0,0,0],"sum_hessian":[2.5285273E4,1.4789805E4,1.049547E4,1.2784666E4,2.0051389E3,3.141675E3,7.3537944E3,1.2432187E4,3.5247937E2,6.284791E2,1.3766598E3,1.5502247E3,1.5914504E3,1.2925722E2,7.224537E3,2.0778665E2,1.2224399E4,1.4302892E2,4.854502E2,3.1838153E2,1.0582783E3,1.3392087E3,2.1101591E2,3.1283228E1,9.797398E1,1.0663777E2,1.0114888E2,1.1975035E4,2.4936415E2,5.669022E1,8.633869E1,4.591074E2,2.6342829E1,1.2326227E2,1.9511928E2,2.737012E2,7.845771E2,5.4416313E1,1.2847925E3,9.144764E1,1.1883588E4,1.5615257E2,9.3211586E1,3.7026146E1,1.9664078E1,1.0935266E1,4.4817212E2,5.4790134E0,2.0863815E1,6.238759E1,6.087468E1,1.7706224E2,1.8057035E1,1.3488574E2,1.3881548E2,1.260551E3,2.424138E1],"tree_param":{"num_deleted":"0","num_feature":"116","num_nodes":"57","size_leaf_vector":"1"}},{"base_weights":[1.4732861E-2,6.9894385E-1,-9.5798475E-1,9.134829E-1,-5.1999795E-1,-3.2490486E-1,-1.2255236E0,1.0105201E0,1.3361123E-1,2.4235567E-1,-1.1931527E0,6.3300955E-1,-6.1799224E-2,-5.822403E-1,-6.184667E-2,-6.858681E-2,1.0364755E0,8.891254E-1,-8.995755E-1,-1.3352925E0,6.9878507E-1,-2.0452286E-1,-1.267008E0,9.4961214E-1,-1.2869072E0,6.8789385E-2,-6.129911E-2,1.0586057E0,-6.909292E-2,-2.0936406E0,1.0644726E0,7.236153E-3,-1.6828902E0,-7.3571436E-2,-6.171418E-2,9.487627E-1,-6.167684E-2,-6.2310584E-2,6.994056E-2,-1.3234955E0,-6.194013E-2,-5.4718393E-1,1.1333717E0,-7.57649E-2,-6.1741192E-2,5.373326E-2,-8.086962E-2,-6.1511744E-2,-1.1543371E-1,-8.447349E-2,5.8332283E-2,-9.3334086E-2,3.8418014E-2,-9.93879E-2,-6.4145096E-2,-7.466485E-2,5.3991187E-2,-7.0511974E-2,-6.196914E-2,-8.011141E-2,6.0524862E-2,5.9034802E-2,-8.273887E-2],"categories":[],"categories_nodes":[],"categories_segments":[],"categories_sizes":[],"default_left":[0,0,0,0,0,0,0,0,0,0,0,0,0,0,0,0,0,0,0,0,0,0,0,0,0,0,0,0,0,0,0,0,0,0,0,0,0,0,0,0,0,0,0,0,0,0,0,0,0,0,0,0,0,0,0,0,0,0,0,0,0,0,0],"id":19,"left_children":[1,3,5,7,9,11,13,15,17,19,21,23,-1,25,-1,-1,27,29,31,33,35,37,39,41,43,-1,-1,45,-1,47,49,51,53,-1,-1,55,-1,-1,-1,57,-1,59,61,-1,-1,-1,-1,-1,-1,-1,-1,-1,-1,-1,-1,-1,-1,-1,-1,-1,-1,-1,-1],"loss_changes":[1.6214446E4,3.7406968E3,1.7035527E3,9.2025684E2,1.0991003E3,2.6101687E3,5.1183594E1,6.7021387E2,1.05225E3,7.2454205E2,8.277991E1,8.8755676E2,0E0,1.5940674E2,0E0,0E0,5.741172E2,4.0942786E2,4.0449933E2,1.2892456E0,3.7796875E2,1.3576936E2,4.6142578E-2,3.4506738E2,5.8929443E-1,0E0,0E0,4.574336E2,0E0,5.248047E0,2.0906299E2,3.7927606E2,3.470746E1,0E0,0E0,2.228601E2,0E0,0E0,0E0,7.163086E-1,0E0,2.5712238E2,1.4916724E2,0E0,0E0,0E0,0E0,0E0,0E0,0E0,0E0,0E0,0E0,0E0,0E0,0E0,0E0,0E0,0E0,0E0,0E0,0E0,0E0],"parents":[2147483647,0,0,1,1,2,2,3,3,4,4,5,5,6,6,7,7,8,8,9,9,10,10,11,11,13,13,16,16,17,17,18,18,19,19,20,20,21,21,22,22,23,23,24,24,27,27,29,29,30,30,31,31,32,32,35,35,39,39,41,41,42,42],"right_children":[2,4,6,8,10,12,14,16,18,20,22,24,-1,26,-1,-1,28,30,32,34,36,38,40,42,44,-1,-1,46,-1,48,50,52,54,-1,-1,56,-1,-1,-1,58,-1,60,62,-1,-1,-1,-1,-1,-1,-1,-1,-1,-1,-1,-1,-1,-1,-1,-1,-1,-1,-1,-1],"split_conditions":[8.447538E0,3.1163603E-1,-7.450295E-1,1.0109602E-1,-2.1223097E-1,1.2490892E1,-8.536045E-1,1.1366498E0,4.9038467E0,4.9767947E0,1.3797731E1,4.696305E0,-6.1799224E-2,2.4453191E-1,-6.184667E-2,-6.858681E-2,1.1573929E1,3.9749708E0,2.7720895E0,5.725547E-1,6.6059667E-1,4.7618756E0,7.133455E-1,2.1368809E0,3.846786E0,6.8789385E-2,-6.129911E-2,9.162943E-1,-6.909292E-2,1.1366498E0,5.4117227E0,1.5913699E0,9.9951345E-1,-7.3571436E-2,-6.171418E-2,1.3022357E0,-6.167684E-2,-6.2310584E-2,6.994056E-2,5.725547E-1,-6.194013E-2,3.747594E1,6.8666415E0,-7.57649E-2,-6.1741192E-2,5.373326E-2,-8.086962E-2,-6.1511744E-2,-1.1543371E-1,-8.447349E-2,5.8332283E-2,-9.3334086E-2,3.8418014E-2,-9.93879E-2,-6.4145096E-2,-7.466485E-2,5.3991187E-2,-7.0511974E-2,-6.196914E-2,-8.011141E-2,6.0524862E-2,5.9034802E-2,-8.273887E-2],"split_indices":[71,93,94,74,73,81,93,14,48,67,70,8,0,32,0,0,6,14,107,95,94,19,74,102,97,0,0,45,0,14,25,102,74,0,0,19,0,0,0,95,0,108,107,0,0,0,0,0,0,0,0,0,0,0,0,0,0,0,0,0,0,0,0],"split_type":[0,0,0,0,0,0,0,0,0,0,0,0,0,0,0,0,0,0,0,0,0,0,0,0,0,0,0,0,0,0,0,0,0,0,0,0,0,0,0,0,0,0,0,0,0,0,0,0,0,0,0,0,0,0,0,0,0,0,0,0,0,0,0],"sum_hessian":[2.4360688E4,1.4301366E4,1.0059321E4,1.2161194E4,2.1401726E3,2.9888909E3,7.0704297E3,1.0815195E4,1.345999E3,1.0038939E3,1.1362787E3,1.4571453E3,1.5317457E3,1.2412849E2,6.9463013E3,1.1600609E2,1.0699189E4,7.775545E2,5.684446E2,2.2483304E2,7.7906085E2,7.924676E1,1.0570319E3,1.2513049E3,2.0584021E2,3.0431078E1,9.369741E1,1.0602726E4,9.646317E1,4.2564556E1,7.349899E2,2.6391345E2,3.0453113E2,8.998588E1,1.3484715E2,6.9027185E2,8.878902E1,4.8172043E1,3.1074718E1,3.367305E2,7.203014E2,1.3660709E2,1.1146979E3,3.300716E1,1.7283305E2,1.054007E4,6.2655712E1,9.827236E0,3.273732E1,2.5737358E1,7.0925256E2,7.5811066E1,1.8810239E2,1.7056123E2,1.3396988E2,3.462934E1,6.556425E2,1.5801094E2,1.7871956E2,8.542148E1,5.1185608E1,1.0966604E3,1.8037533E1],"tree_param":{"num_deleted":"0","num_feature":"116","num_nodes":"63","size_leaf_vector":"1"}},{"base_weights":[-1.7386185E-2,6.804751E-1,-9.0410984E-1,8.0519146E-1,-1.0625954E0,-1.893342E-1,-1.1916513E0,-7.915824E-1,8.7658966E-1,-6.1755773E-2,2.2301108E-1,7.3690355E-1,-6.10982E-2,-3.9296025E-1,-1.206267E0,-1.5921416E0,9.367403E-1,-1.1329179E0,9.4408715E-1,-6.0460895E-2,6.732543E-2,1.0032582E0,-1.3070585E0,8.2245684E-1,-1.3164887E0,-8.186332E-1,-1.2283738E0,-1.3283086E0,-1.9750484E0,6.2007554E-2,-8.409975E-2,7.602983E-1,-1.5347751E0,9.7665083E-1,-6.617017E-2,1.0690387E0,-1.5532509E0,-1.1475108E-1,-6.196614E-2,-6.88541E-2,5.75591E-2,-8.2840465E-2,-6.145162E-2,7.206442E-1,-1.2749561E0,-1.462948E0,-6.1116125E-2,-6.03456E-2,-7.1415216E-2,-1.1293119E-1,-7.381558E-2,-9.40607E-2,6.5338805E-2,-1.03644006E-1,-7.105422E-2,1.3587947E-3,5.2165437E-2,5.575801E-2,-8.262225E-2,-6.028072E-2,-8.651707E-2,-6.4124644E-2,6.0061704E-2,-1.1133387E-1,-6.2472314E-2,-1.0503705E-1,-6.5684214E-2],"categories":[],"categories_nodes":[],"categories_segments":[],"categories_sizes":[],"default_left":[0,0,0,0,0,0,0,0,0,0,0,0,0,0,0,0,0,0,0,0,0,0,0,0,0,0,0,0,0,0,0,0,0,0,0,0,0,0,0,0,0,0,0,0,0,0,0,0,0,0,0,0,0,0,0,0,0,0,0,0,0,0,0,0,0,0,0],"id":20,"left_children":[1,3,5,7,9,11,13,15,17,-1,19,21,-1,23,25,27,29,31,33,-1,-1,35,37,39,41,43,45,47,49,-1,-1,51,53,55,-1,57,59,-1,-1,-1,-1,-1,-1,61,63,65,-1,-1,-1,-1,-1,-1,-1,-1,-1,-1,-1,-1,-1,-1,-1,-1,-1,-1,-1,-1,-1],"loss_changes":[1.4258092E4,2.8038076E3,2.0853574E3,1.3725742E3,1.9132172E2,2.7863613E3,8.399707E1,7.148257E2,1.5634365E3,0E0,1.6698213E2,8.374516E2,0E0,1.4871335E2,5.9884766E1,3.300934E1,1.3226292E2,2.8630463E2,8.2421484E2,0E0,0E0,2.302583E2,9.034149E0,4.308999E1,1.9953918E-1,2.7230936E2,7.751953E0,8.4820557E-1,1.6725159E1,0E0,0E0,9.815269E1,1.5988342E1,6.953877E2,0E0,1.6826001E2,3.8223267E-2,0E0,0E0,0E0,0E0,0E0,0E0,8.720861E1,4.462097E0,1.2845917E1,0E0,0E0,0E0,0E0,0E0,0E0,0E0,0E0,0E0,0E0,0E0,0E0,0E0,0E0,0E0,0E0,0E0,0E0,0E0,0E0,0E0],"parents":[2147483647,0,0,1,1,2,2,3,3,4,4,5,5,6,6,7,7,8,8,10,10,11,11,13,13,14,14,15,15,16,16,17,17,18,18,21,21,22,22,23,23,24,24,25,25,26,26,27,27,28,28,31,31,32,32,33,33,35,35,36,36,43,43,44,44,45,45],"right_children":[2,4,6,8,10,12,14,16,18,-1,20,22,-1,24,26,28,30,32,34,-1,-1,36,38,40,42,44,46,48,50,-1,-1,52,54,56,-1,58,60,-1,-1,-1,-1,-1,-1,62,64,66,-1,-1,-1,-1,-1,-1,-1,-1,-1,-1,-1,-1,-1,-1,-1,-1,-1,-1,-1,-1,-1],"split_conditions":[8.230845E0,5.725547E-1,-7.731347E-1,1.1342098E0,1.6460333E1,1.2485272E1,7.238682E0,1.4962094E0,5.5764017E0,-6.1755773E-2,1.1430537E1,3.846786E0,-6.10982E-2,8.273934E0,-7.1564174E-1,6.8454397E-1,1.7073078E0,1.3614686E0,1.1573929E1,-6.0460895E-2,6.732543E-2,1.4288445E0,8.447538E0,-5.8138556E0,8.447538E0,7.639258E0,8.447538E0,1.1366498E0,2.2593488E-1,6.2007554E-2,-8.409975E-2,1.7072295E0,2.6130373E0,4.188478E-1,-6.617017E-2,6.8666415E0,2.3637931E0,-1.1475108E-1,-6.196614E-2,-6.88541E-2,5.75591E-2,-8.2840465E-2,-6.145162E-2,2.5776866E-1,8.447538E0,4.3023333E-2,-6.1116125E-2,-6.03456E-2,-7.1415216E-2,-1.1293119E-1,-7.381558E-2,-9.40607E-2,6.5338805E-2,-1.03644006E-1,-7.105422E-2,1.3587947E-3,5.2165437E-2,5.575801E-2,-8.262225E-2,-6.028072E-2,-8.651707E-2,-6.4124644E-2,6.0061704E-2,-1.1133387E-1,-6.2472314E-2,-1.0503705E-1,-6.5684214E-2],"split_indices":[71,95,94,17,58,56,56,19,49,0,33,97,0,48,94,17,6,63,6,0,0,77,71,30,71,114,71,14,94,0,0,41,63,101,0,107,9,0,0,0,0,0,0,43,71,94,0,0,0,0,0,0,0,0,0,0,0,0,0,0,0,0,0,0,0,0,0],"split_type":[0,0,0,0,0,0,0,0,0,0,0,0,0,0,0,0,0,0,0,0,0,0,0,0,0,0,0,0,0,0,0,0,0,0,0,0,0,0,0,0,0,0,0,0,0,0,0,0,0,0,0,0,0,0,0,0,0,0,0,0,0,0,0,0,0,0,0],"sum_hessian":[2.3039148E4,1.2892691E4,1.0146458E4,1.2032319E4,8.60372E2,2.9112583E3,7.235199E3,5.1455475E2,1.1517765E4,7.5861066E2,1.0176138E2,1.5348397E3,1.3764186E3,1.305227E2,7.1046763E3,3.517178E2,1.6283691E2,3.7378555E2,1.1143979E4,4.4700768E1,5.7060616E1,1.3583397E3,1.7650006E2,5.6402798E1,7.411992E1,3.8537192E2,6.7193047E3,2.108829E2,1.408349E2,1.464011E2,1.6435827E1,6.529202E1,3.0849353E2,1.0986766E4,1.5721306E2,1.3248329E3,3.3506863E1,9.214827E0,1.6728523E2,6.918842E0,4.9483955E1,1.1484729E1,6.2635185E1,8.798842E1,2.9738348E2,1.6292593E2,6.5563784E3,1.0115214E2,1.0973077E2,8.753497E1,5.3299934E1,1.0773528E1,5.4518494E1,5.0803776E1,2.5768976E2,7.208192E2,1.0265946E4,1.3033352E3,2.149765E1,1.3943352E1,1.9563513E1,1.6702496E1,7.128592E1,5.5104847E0,2.9187302E2,2.8419132E1,1.345068E2],"tree_param":{"num_deleted":"0","num_feature":"116","num_nodes":"67","size_leaf_vector":"1"}},{"base_weights":[1.4281421E-2,6.647689E-1,-9.2209834E-1,8.804108E-1,-4.4632545E-1,-2.872324E-1,-1.1972843E0,8.010441E-2,9.9930656E-1,6.6638803E-1,-8.545723E-1,6.4669746E-1,-6.0425587E-2,-5.172648E-1,-6.0475368E-2,6.453382E-1,-1.9764913E0,-2.206668E0,1.0219132E0,-1.4142072E0,9.469095E-1,-1.3582985E-1,-1.2662137E0,9.505726E-1,-1.2526529E0,6.8690374E-2,-5.985833E-2,-1.814487E0,9.526336E-1,-2.1817112E0,-6.515357E-2,-2.3782034E0,-6.1617922E-2,1.0459765E0,-1.8486575E0,-7.941966E-2,-5.9175815E-2,1.1226983E0,-6.804349E-2,-6.355799E-2,5.339878E-1,-1.3542148E0,-6.0761966E-2,-6.09997E-2,1.0492177E0,-7.3129594E-2,-6.025947E-2,-6.1593067E-2,-1.11839175E-1,5.2070946E-2,-1.1038555E-1,-1.2008251E-1,-8.006832E-2,-9.555986E-2,-1.4381364E-1,-2.2960497E-2,5.405587E-2,-1.1525996E-1,-6.578242E-2,6.0651433E-2,-5.9894647E-2,5.2622367E-2,-6.264206E-2,-7.130294E-2,-6.241673E-2,5.5110198E-2,-8.414151E-2],"categories":[],"categories_nodes":[],"categories_segments":[],"categories_sizes":[],"default_left":[0,0,0,0,0,0,0,0,0,0,0,0,0,0,0,0,0,0,0,0,0,0,0,0,0,0,0,0,0,0,0,0,0,0,0,0,0,0,0,0,0,0,0,0,0,0,0,0,0,0,0,0,0,0,0,0,0,0,0,0,0,0,0,0,0,0,0],"id":21,"left_children":[1,3,5,7,9,11,13,15,17,19,21,23,-1,25,-1,27,29,31,33,35,37,39,41,43,45,-1,-1,47,49,51,-1,53,-1,55,57,-1,-1,59,-1,-1,61,63,-1,-1,65,-1,-1,-1,-1,-1,-1,-1,-1,-1,-1,-1,-1,-1,-1,-1,-1,-1,-1,-1,-1,-1,-1],"loss_changes":[1.3888332E4,3.2240894E3,1.6325806E3,1.0721113E3,9.942726E2,2.433689E3,5.3569336E1,1.6968065E3,7.132842E2,3.4436298E2,4.7344482E2,8.120027E2,0E0,1.5191382E2,0E0,8.671338E2,4.064807E1,8.602753E0,6.748994E2,9.420624E-1,2.1187119E2,4.448396E2,2.9196777E0,2.607091E2,1.7227173E-1,0E0,0E0,2.8611298E1,2.8805206E2,2.6750977E1,0E0,7.901581E0,0E0,5.1156152E2,1.6763275E1,0E0,0E0,1.0256134E2,0E0,0E0,3.422763E2,9.928589E-1,0E0,0E0,1.6970447E2,0E0,0E0,0E0,0E0,0E0,0E0,0E0,0E0,0E0,0E0,0E0,0E0,0E0,0E0,0E0,0E0,0E0,0E0,0E0,0E0,0E0,0E0],"parents":[2147483647,0,0,1,1,2,2,3,3,4,4,5,5,6,6,7,7,8,8,9,9,10,10,11,11,13,13,15,15,16,16,17,17,18,18,19,19,20,20,21,21,22,22,23,23,24,24,27,27,28,28,29,29,31,31,33,33,34,34,37,37,40,40,41,41,44,44],"right_children":[2,4,6,8,10,12,14,16,18,20,22,24,-1,26,-1,28,30,32,34,36,38,40,42,44,46,-1,-1,48,50,52,-1,54,-1,56,58,-1,-1,60,-1,-1,62,64,-1,-1,66,-1,-1,-1,-1,-1,-1,-1,-1,-1,-1,-1,-1,-1,-1,-1,-1,-1,-1,-1,-1,-1,-1],"split_conditions":[8.447538E0,2.719035E-1,-7.450295E-1,-4.194206E-1,-1.5753533E0,1.2485272E1,-8.536045E-1,4.994895E1,2.3025925E0,2.761436E0,6.107929E0,4.696305E0,-6.0425587E-2,2.4453191E-1,-6.0475368E-2,1.3409015E0,1.099323E1,6.101313E0,4.740157E0,5.725547E-1,4.9038467E0,6.070771E0,5.678008E-1,2.3637931E0,3.846786E0,6.8690374E-2,-5.985833E-2,1.1366498E0,2.088705E0,5.7987034E-1,-6.515357E-2,2.6668525E0,-6.1617922E-2,1.1342098E0,1.099323E1,-7.941966E-2,-5.9175815E-2,5.725547E-1,-6.804349E-2,-6.355799E-2,2.3957096E-1,9.9554455E-1,-6.0761966E-2,-6.09997E-2,5.6162196E-1,-7.3129594E-2,-6.025947E-2,-6.1593067E-2,-1.11839175E-1,5.2070946E-2,-1.1038555E-1,-1.2008251E-1,-8.006832E-2,-9.555986E-2,-1.4381364E-1,-2.2960497E-2,5.405587E-2,-1.1525996E-1,-6.578242E-2,6.0651433E-2,-5.9894647E-2,5.2622367E-2,-6.264206E-2,-7.130294E-2,-6.241673E-2,5.5110198E-2,-8.414151E-2],"split_indices":[71,93,94,50,73,56,93,70,66,102,71,8,0,32,0,102,6,17,105,95,48,87,94,9,97,0,0,14,30,73,0,62,0,17,6,0,0,95,0,0,73,73,0,0,52,0,0,0,0,0,0,0,0,0,0,0,0,0,0,0,0,0,0,0,0,0,0],"split_type":[0,0,0,0,0,0,0,0,0,0,0,0,0,0,0,0,0,0,0,0,0,0,0,0,0,0,0,0,0,0,0,0,0,0,0,0,0,0,0,0,0,0,0,0,0,0,0,0,0,0,0,0,0,0,0,0,0,0,0,0,0,0,0,0,0,0,0],"sum_hessian":[2.279927E4,1.345358E4,9.345688E3,1.1267068E4,2.186512E3,2.8266135E3,6.519075E3,1.4575747E3,9.809493E3,5.867204E2,1.5997916E3,1.4038174E3,1.422796E3,1.1587336E2,6.4032017E3,1.143878E3,3.136967E2,6.800998E1,9.741483E3,6.9227394E1,5.1749304E2,5.8306555E2,1.0167261E3,1.2106295E3,1.9318788E2,3.0373158E1,8.5500206E1,1.2648574E2,1.01739233E3,2.3871136E2,7.4985306E1,5.660354E1,1.1406441E1,9.661132E3,8.035129E1,3.609105E1,3.3136345E1,4.813416E2,3.615139E1,2.1601906E2,3.670465E2,3.6354385E2,6.5318225E2,5.213324E1,1.1584963E3,3.012493E1,1.6306294E2,5.479892E1,7.168682E1,9.9024335E2,2.7148983E1,1.7083139E2,6.787997E1,3.1709185E1,2.4894356E1,2.201332E2,9.440999E3,4.148931E1,3.8861973E1,4.6376654E2,1.7575087E1,2.8481628E2,8.223022E1,2.0915503E2,1.5438882E2,1.1370408E3,2.145557E1],"tree_param":{"num_deleted":"0","num_feature":"116","num_nodes":"67","size_leaf_vector":"1"}},{"base_weights":[-1.5951458E-2,6.3481957E-1,-9.494641E-1,8.527672E-1,-5.0384295E-1,-3.5561216E-1,-5.9860576E-2,9.69701E-3,9.7200185E-1,4.4104195E-1,-9.900321E-1,5.747465E-1,-5.9812654E-2,9.1042316E-1,-1.3621892E0,9.9466443E-1,-2.5597172E0,-6.4504854E-2,9.334647E-1,-1.2531067E0,2.3121502E-2,8.987675E-1,-6.196478E-2,-2.353498E0,1.0578127E0,1.8599743E-1,-1.9415294E0,1.0190392E0,-1.791697E0,-1.8537656E0,-3.243041E0,1.0729147E0,-7.1974576E-2,-1.3345438E0,-6.0022503E-2,-6.2415577E-2,8.9224446E-1,-1.4398783E0,1.0315937E0,-1.2539637E-1,-7.590906E-2,5.6155063E-2,-1.15644515E-1,5.581323E-2,-7.978267E-2,-1.1044433E-1,-7.53661E-2,-1.0776087E-1,5.19762E-2,-1.0769011E-1,-6.467421E-2,-1.0838163E-1,-5.8662664E-2,-1.0536553E-1,-1.8988572E-1,-6.757789E-2,5.755332E-2,-7.150147E-2,-6.1158486E-2,5.9674233E-2,-5.9371855E-2,-5.9619304E-2,-1.00513436E-1,5.4538585E-2,-7.905504E-2],"categories":[],"categories_nodes":[],"categories_segments":[],"categories_sizes":[],"default_left":[0,0,0,0,0,0,0,0,0,0,0,0,0,0,0,0,0,0,0,0,0,0,0,0,0,0,0,0,0,0,0,0,0,0,0,0,0,0,0,0,0,0,0,0,0,0,0,0,0,0,0,0,0,0,0,0,0,0,0,0,0,0,0,0,0],"id":22,"left_children":[1,3,5,7,9,11,-1,13,15,17,19,21,-1,23,25,27,29,-1,31,33,35,37,-1,39,41,43,45,47,49,51,53,55,-1,57,-1,-1,59,61,63,-1,-1,-1,-1,-1,-1,-1,-1,-1,-1,-1,-1,-1,-1,-1,-1,-1,-1,-1,-1,-1,-1,-1,-1,-1,-1],"loss_changes":[1.3105633E4,3.1550308E3,1.3033174E3,1.072542E3,9.3888916E2,2.0419835E3,0E0,1.6361154E3,7.5071484E2,5.934119E2,3.5961145E2,7.2972253E2,0E0,3.8699164E2,4.7104547E2,6.3268945E2,2.2874054E1,0E0,1.8071252E2,2.9906006E0,3.0950375E2,3.2836517E2,0E0,6.8722534E-1,1.7104315E2,2.401373E2,4.1011963E1,6.0104004E2,1.1811584E1,4.2461777E0,1.0324707E1,9.856073E1,0E0,2.6282349E0,0E0,0E0,1.0563147E2,5.645561E0,1.5577112E2,0E0,0E0,0E0,0E0,0E0,0E0,0E0,0E0,0E0,0E0,0E0,0E0,0E0,0E0,0E0,0E0,0E0,0E0,0E0,0E0,0E0,0E0,0E0,0E0,0E0,0E0],"parents":[2147483647,0,0,1,1,2,2,3,3,4,4,5,5,7,7,8,8,9,9,10,10,11,11,13,13,14,14,15,15,16,16,18,18,19,19,20,20,21,21,23,23,24,24,25,25,26,26,27,27,28,28,29,29,30,30,31,31,33,33,36,36,37,37,38,38],"right_children":[2,4,6,8,10,12,-1,14,16,18,20,22,-1,24,26,28,30,-1,32,34,36,38,-1,40,42,44,46,48,50,52,54,56,-1,58,-1,-1,60,62,64,-1,-1,-1,-1,-1,-1,-1,-1,-1,-1,-1,-1,-1,-1,-1,-1,-1,-1,-1,-1,-1,-1,-1,-1,-1,-1],"split_conditions":[8.447538E0,2.719035E-1,-7.450295E-1,-4.194206E-1,6.116595E0,1.2485272E1,-5.9860576E-2,8.565142E0,9.5694286E-1,4.982784E0,4.4165793E-1,4.696305E0,-5.9812654E-2,-1.80727E-1,2.455729E1,4.740157E0,3.506425E1,-6.4504854E-2,3.6098623E-1,5.983467E-1,3.5609886E1,1.9505702E0,-6.196478E-2,1.5635595E-1,5.0312537E-3,-7.3324823E-1,2.2760025E-1,2.3025925E0,1.099323E1,9.9951345E-1,1.7299323E0,1.3022357E0,-7.1974576E-2,5.523477E-1,-6.0022503E-2,-6.2415577E-2,3.5298874E1,2.3637931E0,6.8666415E0,-1.2539637E-1,-7.590906E-2,5.6155063E-2,-1.15644515E-1,5.581323E-2,-7.978267E-2,-1.1044433E-1,-7.53661E-2,-1.0776087E-1,5.19762E-2,-1.0769011E-1,-6.467421E-2,-1.0838163E-1,-5.8662664E-2,-1.0536553E-1,-1.8988572E-1,-6.757789E-2,5.755332E-2,-7.150147E-2,-6.1158486E-2,5.9674233E-2,-5.9371855E-2,-5.9619304E-2,-1.00513436E-1,5.4538585E-2,-7.905504E-2],"split_indices":[71,93,94,50,57,56,0,112,50,66,53,8,0,75,70,105,22,0,51,94,110,19,0,94,35,92,74,66,6,74,2,19,0,74,0,0,108,9,107,0,0,0,0,0,0,0,0,0,0,0,0,0,0,0,0,0,0,0,0,0,0,0,0,0,0],"split_type":[0,0,0,0,0,0,0,0,0,0,0,0,0,0,0,0,0,0,0,0,0,0,0,0,0,0,0,0,0,0,0,0,0,0,0,0,0,0,0,0,0,0,0,0,0,0,0,0,0,0,0,0,0,0,0,0,0,0,0,0,0,0,0,0,0],"sum_hessian":[2.157096E4,1.2710517E4,8.860445E3,1.0668706E4,2.0418107E3,2.6090273E3,6.2514175E3,1.3220424E3,9.346663E3,6.9371063E2,1.3481001E3,1.238578E3,1.3704495E3,7.982677E2,5.237746E2,9.287783E3,5.888026E1,1.5326817E2,5.4044244E2,1.0700221E3,2.7807794E2,1.051301E3,1.8727696E2,3.384336E1,7.644244E2,1.428123E2,3.8096228E2,9.207868E3,7.9914894E1,3.0786825E1,2.8093433E1,5.109629E2,2.9479576E1,4.106224E2,6.593997E2,1.1272993E2,1.65348E2,5.597201E1,9.95329E2,2.6872868E1,6.9704933E0,7.505534E2,1.3870967E1,9.406886E1,4.874344E1,2.3325287E2,1.4770941E2,5.8373116E1,9.149495E3,4.4354572E1,3.556032E1,1.9573713E1,1.1213112E1,1.0793081E1,1.7300352E1,1.5447458E1,4.9551544E2,2.1470616E2,1.9591624E2,1.4479997E2,2.0548037E1,4.1190105E1,1.4781904E1,9.738535E2,2.1475456E1],"tree_param":{"num_deleted":"0","num_feature":"116","num_nodes":"65","size_leaf_vector":"1"}},{"base_weights":[3.454034E-3,5.9442544E-1,-8.914339E-1,8.1015974E-1,-4.6653616E-1,-2.6697195E-1,-1.1727381E0,1.001856E0,2.2543581E-1,5.5615425E-1,-8.73608E-1,6.638933E-1,-1.1506734E0,-1.1898433E0,-3.9072484E-1,-1.5321952E0,1.0427427E0,7.780655E-1,-1.2759045E0,9.225501E-1,-6.352611E-2,-1.2382023E0,-2.4484208E-1,-1.3376696E0,8.2619554E-1,2.960022E-1,-5.950446E-2,-1.1994544E0,-9.873805E-1,-6.0944766E-2,9.569676E-1,-5.920909E-2,-1.7543315E0,1.0570929E0,-2.5520003E0,-1.677722E0,9.907775E-1,3.8421854E-1,-1.792813E0,-6.7008376E-2,1.091421E0,-7.637368E-2,-1.2231251E0,5.268292E-1,-6.136192E-2,-1.7959746E0,-5.954515E-2,-6.4662986E-2,9.2175406E-1,5.917419E-2,-6.141683E-2,-1.2789688E0,-5.9493E-2,6.8546265E-1,-5.9159864E-2,5.856455E-2,3.6833517E-2,-7.4194334E-2,-1.0401602E-1,5.3980835E-2,-4.7414426E-2,-1.4956193E-1,-6.3119024E-2,-6.432729E-2,-9.5984094E-2,-1.0289635E-1,5.2936066E-2,5.893735E-2,-7.019154E-2,-1.02747954E-1,-6.2560596E-2,5.9293013E-2,-6.594964E-2,-6.420302E-2,-5.945706E-2,5.2596815E-2,-6.017765E-2,-6.937468E-2,-1.298998E-1,4.9077872E-2,-8.7110355E-2,-8.4675826E-2,-5.93913E-2,-5.851102E-2,5.7238776E-2],"categories":[],"categories_nodes":[],"categories_segments":[],"categories_sizes":[],"default_left":[0,0,0,0,0,0,0,0,0,0,0,0,0,0,0,0,0,0,0,0,0,0,0,0,0,0,0,0,0,0,0,0,0,0,0,0,0,0,0,0,0,0,0,0,0,0,0,0,0,0,0,0,0,0,0,0,0,0,0,0,0,0,0,0,0,0,0,0,0,0,0,0,0,0,0,0,0,0,0,0,0,0,0,0,0],"id":23,"left_children":[1,3,5,7,9,11,13,15,17,19,21,23,25,27,29,31,33,35,37,39,-1,41,43,45,47,49,-1,51,53,-1,55,-1,57,59,61,63,65,67,69,-1,71,-1,73,75,-1,77,-1,-1,79,-1,-1,81,-1,83,-1,-1,-1,-1,-1,-1,-1,-1,-1,-1,-1,-1,-1,-1,-1,-1,-1,-1,-1,-1,-1,-1,-1,-1,-1,-1,-1,-1,-1,-1,-1],"loss_changes":[1.1208608E4,2.9220146E3,1.4804575E3,1.1888213E3,8.987046E2,2.1553938E3,7.727051E1,8.2929395E2,2.1750889E3,4.127178E2,3.5357666E2,4.156989E2,7.6992065E1,9.881348E0,1.4166411E2,7.760132E0,4.0827734E2,1.0025238E3,6.0601953E2,1.9738818E2,0E0,2.392212E0,4.3110706E2,4.325638E0,2.4040729E2,5.076277E1,0E0,2.616211E0,8.708032E1,0E0,1.4257698E0,0E0,3.577896E0,3.547793E2,1.4097961E1,1.20208435E1,3.6755066E2,2.407697E2,7.382654E1,0E0,1.10304565E2,0E0,4.0625E-1,2.908663E2,0E0,3.3876266E0,0E0,0E0,1.8185449E2,0E0,0E0,1.9549744E1,0E0,2.5401806E1,0E0,0E0,0E0,0E0,0E0,0E0,0E0,0E0,0E0,0E0,0E0,0E0,0E0,0E0,0E0,0E0,0E0,0E0,0E0,0E0,0E0,0E0,0E0,0E0,0E0,0E0,0E0,0E0,0E0,0E0,0E0],"parents":[2147483647,0,0,1,1,2,2,3,3,4,4,5,5,6,6,7,7,8,8,9,9,10,10,11,11,12,12,13,13,14,14,15,15,16,16,17,17,18,18,19,19,21,21,22,22,23,23,24,24,25,25,27,27,28,28,30,30,32,32,33,33,34,34,35,35,36,36,37,37,38,38,40,40,42,42,43,43,45,45,48,48,51,51,53,53],"right_children":[2,4,6,8,10,12,14,16,18,20,22,24,26,28,30,32,34,36,38,40,-1,42,44,46,48,50,-1,52,54,-1,56,-1,58,60,62,64,66,68,70,-1,72,-1,74,76,-1,78,-1,-1,80,-1,-1,82,-1,84,-1,-1,-1,-1,-1,-1,-1,-1,-1,-1,-1,-1,-1,-1,-1,-1,-1,-1,-1,-1,-1,-1,-1,-1,-1,-1,-1,-1,-1,-1,-1],"split_conditions":[8.945999E0,2.719035E-1,-7.64454E-1,6.44381E0,-1.5753533E0,1.4690024E1,3.1046827E0,9.39485E-1,4.64409E0,4.9038467E0,6.070771E0,6.5467935E0,1.3659878E0,8.332242E-1,1.9154606E1,1.1366498E0,9.4313586E-1,9.486705E-1,-5.3893673E-1,2.761436E0,-6.352611E-2,3.1163603E-1,4.7479653E0,1.0261906E1,4.7202396E0,-4.036474E0,-5.950446E-2,7.9219213E0,9.171351E0,-6.0944766E-2,3.5249405E0,-5.920909E-2,6.8454397E-1,8.532403E-1,7.133455E-1,1.1366498E0,3.763372E0,8.565142E0,1.099323E1,-6.7008376E-2,8.551585E-1,-7.637368E-2,5.678008E-1,5.2845293E-1,-6.136192E-2,2.5949451E1,-5.954515E-2,-6.4662986E-2,6.5813932E0,5.917419E-2,-6.141683E-2,2.719035E-1,-5.9493E-2,1.942641E1,-5.9159864E-2,5.856455E-2,3.6833517E-2,-7.4194334E-2,-1.0401602E-1,5.3980835E-2,-4.7414426E-2,-1.4956193E-1,-6.3119024E-2,-6.432729E-2,-9.5984094E-2,-1.0289635E-1,5.2936066E-2,5.893735E-2,-7.019154E-2,-1.02747954E-1,-6.2560596E-2,5.9293013E-2,-6.594964E-2,-6.420302E-2,-5.945706E-2,5.2596815E-2,-6.017765E-2,-6.937468E-2,-1.298998E-1,4.9077872E-2,-8.7110355E-2,-8.4675826E-2,-5.93913E-2,-5.851102E-2,5.7238776E-2],"split_indices":[56,93,93,48,73,47,101,17,12,48,87,28,8,43,113,14,50,102,53,102,0,93,46,47,67,20,0,48,56,0,2,0,17,45,74,14,66,112,6,0,60,0,94,93,0,111,0,0,25,0,0,93,0,115,0,0,0,0,0,0,0,0,0,0,0,0,0,0,0,0,0,0,0,0,0,0,0,0,0,0,0,0,0,0,0],"split_type":[0,0,0,0,0,0,0,0,0,0,0,0,0,0,0,0,0,0,0,0,0,0,0,0,0,0,0,0,0,0,0,0,0,0,0,0,0,0,0,0,0,0,0,0,0,0,0,0,0,0,0,0,0,0,0,0,0,0,0,0,0,0,0,0,0,0,0,0,0,0,0,0,0,0,0,0,0,0,0,0,0,0,0,0,0],"sum_hessian":[2.1192176E4,1.2763606E4,8.42857E3,1.0607026E4,2.1565798E3,2.6182705E3,5.8103003E3,7.9876396E3,2.6193867E3,6.13902E2,1.5426779E3,1.2752296E3,1.3430408E3,5.6854194E3,1.2488053E2,1.2625442E2,7.8613853E3,1.9149813E3,7.044054E2,5.1174982E2,1.0215212E2,9.758533E2,5.6682465E2,9.510635E1,1.1801233E3,3.5449013E1,1.3075918E3,5.4230586E3,2.6236078E2,7.7408066E1,4.747246E1,5.1656605E1,7.459782E1,7.830831E3,3.0554434E1,1.5209839E2,1.7628829E3,1.6731305E2,5.3709235E2,3.5058727E1,4.766911E2,4.3374054E1,9.3247925E2,3.177198E2,2.4910483E2,2.034345E1,7.476291E1,5.0371296E1,1.129752E3,2.2546108E1,1.2902906E1,5.69662E2,4.853397E3,2.7230743E1,2.3513004E2,2.1874386E1,2.5598076E1,4.3806934E1,3.0790884E1,7.7443105E3,8.652017E1,2.180745E1,8.746983E0,6.054023E1,9.155816E1,3.7792854E1,1.7250901E3,1.16075226E2,5.1237827E1,3.600342E2,1.7705814E2,4.5920755E2,1.748357E1,3.206852E2,6.11794E2,2.4405132E2,7.366849E1,1.528737E1,5.05608E0,1.1055647E3,2.4187323E1,9.950396E1,4.7015802E2,5.095699E0,2.2135044E1],"tree_param":{"num_deleted":"0","num_feature":"116","num_nodes":"85","size_leaf_vector":"1"}},{"base_weights":[1.8819612E-2,6.343512E-1,-8.9719963E-1,8.198855E-1,-5.5448425E-1,-1.0799123E0,7.660431E-2,8.7310773E-1,-5.9786152E-2,5.0897425E-1,-8.7410665E-1,-7.504309E-1,-5.890153E-2,8.8858145E-1,-5.869564E-2,-1.3912746E0,9.0596634E-1,1.0523032E0,-1.5202482E0,-1.2129966E0,2.5459778E-1,3.6790293E-1,-1.1263692E0,1.0944828E0,-5.9979606E-2,-1.305379E0,-1.294843E-1,9.2749804E-1,-6.633211E-2,-8.315902E-2,1.1591161E0,-1.7509918E0,-5.984491E-2,3.500358E-1,-1.2833639E0,9.3381256E-1,-1.5860999E0,9.138558E-1,-6.272465E-2,6.828501E-1,-1.1890556E0,1.1443133E0,-6.457942E-2,-5.8495324E-2,-7.29955E-2,4.72933E-2,-7.913776E-2,6.043309E-2,-6.742977E-2,-9.391839E-2,-5.8096904E-2,-6.483722E-2,6.290916E-2,-7.712259E-2,-5.9451777E-2,5.88494E-2,-8.943055E-2,-9.631792E-2,-6.1210837E-2,5.2750964E-2,-7.813042E-2,-5.9696794E-2,6.698867E-2,-6.790053E-2,-5.8745783E-2,5.834762E-2,-7.070789E-2],"categories":[],"categories_nodes":[],"categories_segments":[],"categories_sizes":[],"default_left":[0,0,0,0,0,0,0,0,0,0,0,0,0,0,0,0,0,0,0,0,0,0,0,0,0,0,0,0,0,0,0,0,0,0,0,0,0,0,0,0,0,0,0,0,0,0,0,0,0,0,0,0,0,0,0,0,0,0,0,0,0,0,0,0,0,0,0],"id":24,"left_children":[1,3,5,7,9,11,13,15,-1,17,19,21,-1,23,-1,25,27,29,31,33,35,37,39,41,-1,43,-1,45,-1,-1,47,49,-1,51,53,55,57,59,-1,61,63,65,-1,-1,-1,-1,-1,-1,-1,-1,-1,-1,-1,-1,-1,-1,-1,-1,-1,-1,-1,-1,-1,-1,-1,-1,-1],"loss_changes":[1.1642057E4,2.7243682E3,1.4765854E3,1.1470332E3,5.673118E2,2.2500732E2,1.3331945E3,7.756987E2,0E0,4.2721503E2,4.909455E2,6.7566376E2,0E0,3.4357068E2,0E0,1.1985321E1,4.9445703E2,9.041977E1,4.0178833E0,1.0896936E2,3.728226E2,3.5972504E2,1.3716699E2,8.769232E1,0E0,1.2502289E0,0E0,4.7008398E2,0E0,0E0,3.8175232E1,1.2431946E0,0E0,6.637502E1,2.1246094E1,1.4615552E2,7.545212E0,1.0774074E2,0E0,5.2022026E1,1.1815186E0,4.282086E1,0E0,0E0,0E0,0E0,0E0,0E0,0E0,0E0,0E0,0E0,0E0,0E0,0E0,0E0,0E0,0E0,0E0,0E0,0E0,0E0,0E0,0E0,0E0,0E0,0E0],"parents":[2147483647,0,0,1,1,2,2,3,3,4,4,5,5,6,6,7,7,9,9,10,10,11,11,13,13,15,15,16,16,17,17,18,18,19,19,20,20,21,21,22,22,23,23,25,25,27,27,30,30,31,31,33,33,34,34,35,35,36,36,37,37,39,39,40,40,41,41],"right_children":[2,4,6,8,10,12,14,16,-1,18,20,22,-1,24,-1,26,28,30,32,34,36,38,40,42,-1,44,-1,46,-1,-1,48,50,-1,52,54,56,58,60,-1,62,64,66,-1,-1,-1,-1,-1,-1,-1,-1,-1,-1,-1,-1,-1,-1,-1,-1,-1,-1,-1,-1,-1,-1,-1,-1,-1],"split_conditions":[8.447538E0,2.2760025E-1,2.0977097E0,5.725547E-1,1.0580088E1,-7.9230726E-1,-7.450295E-1,4.5587853E-1,-5.9786152E-2,4.3984222E0,1.1115228E1,1.2608874E1,-5.890153E-2,3.5962858E0,-5.869564E-2,2.2233133E0,1.1573929E1,-1.6306962E-1,1.1246592E0,1.5193456E0,2.042179E0,2.9676156E0,1.1926197E1,1.5083007E1,-5.9979606E-2,1.6632237E0,-1.294843E-1,3.7430763E1,-6.633211E-2,-8.315902E-2,1.8925852E0,2.39546E-1,-5.984491E-2,8.711122E1,2.719035E-1,-3.662109E-1,9.9951345E-1,3.9987513E-1,-6.272465E-2,1.0413251E1,1.2191251E1,5.161639E0,-6.457942E-2,-5.8495324E-2,-7.29955E-2,4.72933E-2,-7.913776E-2,6.043309E-2,-6.742977E-2,-9.391839E-2,-5.8096904E-2,-6.483722E-2,6.290916E-2,-7.712259E-2,-5.9451777E-2,5.88494E-2,-8.943055E-2,-9.631792E-2,-6.1210837E-2,5.2750964E-2,-7.813042E-2,-5.9696794E-2,6.698867E-2,-6.790053E-2,-5.8745783E-2,5.834762E-2,-7.070789E-2],"split_indices":[71,74,101,95,22,93,94,16,0,46,49,48,0,97,0,18,6,52,74,103,63,63,46,46,0,13,0,111,0,0,72,93,0,0,93,29,74,52,0,65,71,107,0,0,0,0,0,0,0,0,0,0,0,0,0,0,0,0,0,0,0,0,0,0,0,0,0],"split_type":[0,0,0,0,0,0,0,0,0,0,0,0,0,0,0,0,0,0,0,0,0,0,0,0,0,0,0,0,0,0,0,0,0,0,0,0,0,0,0,0,0,0,0,0,0,0,0,0,0,0,0,0,0,0,0,0,0,0,0,0,0,0,0,0,0,0,0],"sum_hessian":[2.0645838E4,1.2348441E4,8.2973955E3,1.0681721E4,1.666721E3,6.986437E3,1.3109587E3,1.0407478E4,2.742429E2,3.8503317E2,1.2816877E3,1.605113E3,5.3813237E3,7.950268E2,5.159319E2,1.4827228E2,1.0259205E4,3.04093E2,8.094017E1,9.85669E2,2.9601877E2,4.038297E2,1.2012833E3,7.241035E2,7.09233E1,1.4030522E2,7.9670506E0,1.0161788E4,9.741774E1,1.095729E1,2.931357E2,4.4657368E1,3.6282803E1,4.229164E1,9.433774E2,2.1659004E2,7.9428734E1,3.0247913E2,1.013506E2,3.9897274E1,1.161386E3,7.098005E2,1.4303017E1,7.932987E1,6.097535E1,1.0088591E4,7.319679E1,2.8796432E2,5.1713777E0,3.491798E1,9.739388E0,1.4880441E1,2.74112E1,2.4769412E2,6.956832E2,1.9935106E2,1.723899E1,3.8709347E1,4.0719383E1,2.8671005E2,1.5769077E1,1.0132351E1,2.9764923E1,8.235108E1,1.0790349E3,7.041139E2,5.6865854E0],"tree_param":{"num_deleted":"0","num_feature":"116","num_nodes":"67","size_leaf_vector":"1"}},{"base_weights":[1.3667968E-3,6.063353E-1,-9.065913E-1,8.079864E-1,-4.4540295E-1,-1.0744349E0,2.3172561E-2,1.5152369E-2,9.313319E-1,2.05172E-1,-1.1095188E0,-7.1197397E-1,-1.1611246E0,8.4958285E-1,-5.81971E-2,6.023998E-1,-1.8680081E0,9.53228E-1,-2.3210037E0,-1.262244E0,6.2934476E-1,-1.2107294E0,9.527559E-2,4.8884898E-1,-1.1802616E0,-7.9061085E-1,-5.8441848E-2,1.086558E0,-5.9568442E-2,9.415595E-1,-1.7124023E0,-2.0956137E0,-1.41296E0,9.745789E-1,-1.6857017E0,-2.697629E0,-5.890553E-2,-6.87079E-2,-5.791486E-2,9.1378933E-1,-1.3037621E0,-6.942106E-2,-5.967158E-2,5.4585528E-2,-5.98974E-2,9.918162E-1,-1.2679586E0,-1.401567E0,-5.8188267E-2,5.4971278E-2,-5.9848197E-2,-9.287345E-2,1.1206529E0,-1.0011526E-1,5.1374294E-2,-5.8557667E-2,-9.743674E-2,-1.15019694E-1,-7.060536E-2,-7.821422E-2,-5.8153927E-2,-1.0307174E-1,4.9599927E-2,-1.0262885E-1,-7.0881955E-2,-1.6313939E-1,-1.022104E-1,-6.378166E-2,5.2289724E-2,-7.330236E-2,-5.8408257E-2,5.4369923E-2,-7.317112E-2,-7.943984E-2,-5.9000045E-2,-6.398704E-2,-1.0840879E-1,5.7404794E-2,-5.941386E-2],"categories":[],"categories_nodes":[],"categories_segments":[],"categories_sizes":[],"default_left":[0,0,0,0,0,0,0,0,0,0,0,0,0,0,0,0,0,0,0,0,0,0,0,0,0,0,0,0,0,0,0,0,0,0,0,0,0,0,0,0,0,0,0,0,0,0,0,0,0,0,0,0,0,0,0,0,0,0,0,0,0,0,0,0,0,0,0,0,0,0,0,0,0,0,0,0,0,0,0],"id":25,"left_children":[1,3,5,7,9,11,13,15,17,19,21,23,25,27,-1,29,31,33,35,37,39,41,43,45,47,49,-1,51,-1,53,55,57,59,61,63,65,-1,-1,-1,67,69,-1,-1,-1,-1,71,73,75,-1,-1,-1,-1,77,-1,-1,-1,-1,-1,-1,-1,-1,-1,-1,-1,-1,-1,-1,-1,-1,-1,-1,-1,-1,-1,-1,-1,-1,-1,-1],"loss_changes":[1.0814422E4,2.5062441E3,1.2285874E3,9.695923E2,8.2181866E2,2.0871729E2,1.1829922E3,1.4784352E3,6.132295E2,5.992227E2,1.1487781E2,7.258231E2,1.444873E1,3.4513318E2,0E0,8.0167163E2,2.9953613E1,4.8188135E2,2.1645325E1,9.2019653E-1,4.1166425E2,1.0118408E0,9.648862E1,3.216138E2,1.7573242E0,8.794428E1,0E0,6.6069885E1,0E0,2.270575E2,1.4421539E1,2.611267E1,2.3032532E0,4.4923193E2,3.8537598E0,9.061951E0,0E0,0E0,0E0,1.8958014E2,4.0356445E-1,0E0,0E0,0E0,0E0,6.786832E1,4.1482544E-1,2.7815094E0,0E0,0E0,0E0,0E0,4.1334656E1,0E0,0E0,0E0,0E0,0E0,0E0,0E0,0E0,0E0,0E0,0E0,0E0,0E0,0E0,0E0,0E0,0E0,0E0,0E0,0E0,0E0,0E0,0E0,0E0,0E0,0E0],"parents":[2147483647,0,0,1,1,2,2,3,3,4,4,5,5,6,6,7,7,8,8,9,9,10,10,11,11,12,12,13,13,15,15,16,16,17,17,18,18,19,19,20,20,21,21,22,22,23,23,24,24,25,25,27,27,29,29,30,30,31,31,32,32,33,33,34,34,35,35,39,39,40,40,45,45,46,46,47,47,52,52],"right_children":[2,4,6,8,10,12,14,16,18,20,22,24,26,28,-1,30,32,34,36,38,40,42,44,46,48,50,-1,52,-1,54,56,58,60,62,64,66,-1,-1,-1,68,70,-1,-1,-1,-1,72,74,76,-1,-1,-1,-1,78,-1,-1,-1,-1,-1,-1,-1,-1,-1,-1,-1,-1,-1,-1,-1,-1,-1,-1,-1,-1,-1,-1,-1,-1,-1,-1],"split_conditions":[8.447538E0,2.719035E-1,2.0977097E0,-3.7947267E-1,-3.3788085E-1,-8.282626E-1,-7.450295E-1,4.65215E1,2.6327853E0,4.9767947E0,2.0977097E0,1.2608874E1,-8.798733E-1,4.6402764E0,-5.81971E-2,-1.2076481E-1,2.2760025E-1,4.740157E0,9.9951345E-1,5.725547E-1,1.485095E0,3.5090923E-1,-4.5248583E-1,2.8491151E0,1.2191251E1,4.6964276E-1,-5.8441848E-2,6.8307934E0,-5.9568442E-2,1.4958138E0,1.1366498E0,1.2396278E1,9.9951345E-1,2.3025925E0,6.770603E0,1.3441984E1,-5.890553E-2,-6.87079E-2,-5.791486E-2,1.3022357E0,5.678008E-1,-6.942106E-2,-5.967158E-2,5.4585528E-2,-5.98974E-2,6.105962E0,3.946548E0,4.721097E0,-5.8188267E-2,5.4971278E-2,-5.9848197E-2,-9.287345E-2,1.5083007E1,-1.0011526E-1,5.1374294E-2,-5.8557667E-2,-9.743674E-2,-1.15019694E-1,-7.060536E-2,-7.821422E-2,-5.8153927E-2,-1.0307174E-1,4.9599927E-2,-1.0262885E-1,-7.0881955E-2,-1.6313939E-1,-1.022104E-1,-6.378166E-2,5.2289724E-2,-7.330236E-2,-5.8408257E-2,5.4369923E-2,-7.317112E-2,-7.943984E-2,-5.9000045E-2,-6.398704E-2,-1.0840879E-1,5.7404794E-2,-5.941386E-2],"split_indices":[71,93,101,50,72,94,94,70,27,67,101,48,93,98,0,72,74,105,74,95,91,93,74,63,71,62,0,28,0,96,14,11,74,66,16,112,0,0,0,19,94,0,0,0,0,65,8,80,0,0,0,0,46,0,0,0,0,0,0,0,0,0,0,0,0,0,0,0,0,0,0,0,0,0,0,0,0,0,0],"split_type":[0,0,0,0,0,0,0,0,0,0,0,0,0,0,0,0,0,0,0,0,0,0,0,0,0,0,0,0,0,0,0,0,0,0,0,0,0,0,0,0,0,0,0,0,0,0,0,0,0,0,0,0,0,0,0,0,0,0,0,0,0,0,0,0,0,0,0,0,0,0,0,0,0,0,0,0,0,0,0],"sum_hessian":[1.9686143E4,1.1814516E4,7.871627E3,9.913936E3,1.9005798E3,6.667784E3,1.2038427E3,1.3348668E3,8.579068E3,9.6042664E2,9.401532E2,1.2887151E3,5.3790693E3,7.0991754E2,4.9392508E2,1.0180704E3,3.1679642E2,8.522399E3,5.666957E1,2.149245E2,7.4550214E2,8.672902E2,7.286298E1,3.615511E2,9.2716394E2,1.1179402E2,5.2672754E3,6.364831E2,7.3434494E1,8.884848E2,1.2958556E2,2.0876915E2,1.0802727E2,8.454626E3,6.777355E1,4.160037E1,1.5069202E1,9.761152E1,1.1731298E2,6.503365E2,9.516564E1,6.990667E1,7.9738354E2,4.12418E1,3.1621181E1,2.8141772E2,8.013336E1,5.849275E1,8.686712E2,1.9480482E1,9.2313545E1,6.674506E0,6.298086E2,2.4565351E1,8.6391943E2,4.119537E1,8.839019E1,1.5882059E2,4.994857E1,6.4006096E1,4.4021175E1,4.756376E1,8.407062E3,2.5802597E1,4.197096E1,2.0165434E1,2.1434937E1,3.648794E1,6.138485E2,3.8853374E1,5.6312267E1,2.714089E2,1.0008814E1,1.3570379E1,6.656298E1,5.2775284E1,5.717466E0,6.229077E2,6.900823E0],"tree_param":{"num_deleted":"0","num_feature":"116","num_nodes":"79","size_leaf_vector":"1"}},{"base_weights":[1.1229605E-2,6.0150874E-1,-8.7669444E-1,7.9787296E-1,-4.5322517E-1,-2.8777143E-1,-1.1314304E0,1.0347889E-1,9.1264087E-1,2.5887445E-1,-1.1533382E0,5.811321E-1,-5.7776567E-2,-3.1735542E-1,-5.781858E-2,6.145162E-1,-1.7857295E0,-3.5412186E-1,9.662148E-1,-1.249025E0,6.543152E-1,-1.2013843E0,1.1003795E-1,8.875294E-1,-5.9648182E-2,9.8019564E-1,-1.2418132E0,9.2290014E-1,-1.6845727E0,-1.9906944E0,-1.3696967E0,7.460339E-1,-1.9489808E0,9.922706E-1,-1.675986E0,-6.760058E-2,-5.7381894E-2,8.608694E-1,-6.364024E-2,-1.3021823E0,-5.8712196E-2,5.5416595E-2,-5.98031E-2,-5.8384515E-2,9.8908734E-1,-4.952554E-2,5.9056994E-2,-8.9134924E-2,-5.829217E-2,4.9606085E-2,-1.1719656E-1,-5.7589937E-2,-9.347972E-2,-1.0913845E-1,-7.358284E-2,-7.550398E-2,-5.7292547E-2,5.7540953E-2,-8.668044E-2,-6.79731E-2,-1.1503223E-1,5.0595798E-2,-8.079266E-2,-9.5205545E-2,-6.704534E-2,4.8390456E-2,-6.752559E-2,-6.865182E-2,-5.7457455E-2,5.3117085E-2,-7.229605E-2],"categories":[],"categories_nodes":[],"categories_segments":[],"categories_sizes":[],"default_left":[0,0,0,0,0,0,0,0,0,0,0,0,0,0,0,0,0,0,0,0,0,0,0,0,0,0,0,0,0,0,0,0,0,0,0,0,0,0,0,0,0,0,0,0,0,0,0,0,0,0,0,0,0,0,0,0,0,0,0,0,0,0,0,0,0,0,0,0,0,0,0],"id":26,"left_children":[1,3,5,7,9,11,13,15,17,19,21,23,-1,25,-1,27,29,31,33,35,37,39,41,43,-1,45,47,49,51,53,55,57,59,61,63,-1,-1,65,-1,67,-1,-1,-1,-1,69,-1,-1,-1,-1,-1,-1,-1,-1,-1,-1,-1,-1,-1,-1,-1,-1,-1,-1,-1,-1,-1,-1,-1,-1,-1,-1],"loss_changes":[1.0074701E4,2.3917246E3,1.1511934E3,7.756782E2,9.041E2,1.7491815E3,1.0841846E2,1.3351716E3,5.6726025E2,5.372068E2,5.563098E1,6.312787E2,0E0,1.9392014E2,0E0,7.7319727E2,2.2382324E1,5.974637E2,5.5344434E2,4.0341187E-1,2.850348E2,8.808594E-1,4.6196022E1,2.076289E2,0E0,2.7858902E1,1.7945709E0,2.1947797E2,1.0569885E1,1.6234497E1,1.4244537E0,2.0448871E2,2.567694E1,4.083203E2,3.4578552E0,0E0,0E0,1.5380612E2,0E0,3.4887695E-1,0E0,0E0,0E0,0E0,1.6977582E2,0E0,0E0,0E0,0E0,0E0,0E0,0E0,0E0,0E0,0E0,0E0,0E0,0E0,0E0,0E0,0E0,0E0,0E0,0E0,0E0,0E0,0E0,0E0,0E0,0E0,0E0],"parents":[2147483647,0,0,1,1,2,2,3,3,4,4,5,5,6,6,7,7,8,8,9,9,10,10,11,11,13,13,15,15,16,16,17,17,18,18,19,19,20,20,21,21,22,22,23,23,25,25,26,26,27,27,28,28,29,29,30,30,31,31,32,32,33,33,34,34,37,37,39,39,44,44],"right_children":[2,4,6,8,10,12,14,16,18,20,22,24,-1,26,-1,28,30,32,34,36,38,40,42,44,-1,46,48,50,52,54,56,58,60,62,64,-1,-1,66,-1,68,-1,-1,-1,-1,70,-1,-1,-1,-1,-1,-1,-1,-1,-1,-1,-1,-1,-1,-1,-1,-1,-1,-1,-1,-1,-1,