tree
version=v4
num_class=1
num_tree_per_iteration=1
label_index=0
max_feature_idx=115
objective=binary sigmoid:1
feature_names=Column_0 Column_1 Column_2 Column_3 Column_4 Column_5 Column_6 Column_7 Column_8 Column_9 Column_10 Column_11 Column_12 Column_13 Column_14 Column_15 Column_16 Column_17 Column_18 Column_19 Column_20 Column_21 Column_22 Column_23 Column_24 Column_25 Column_26 Column_27 Column_28 Column_29 Column_30 Column_31 Column_32 Column_33 Column_34 Column_35 Column_36 Column_37 Column_38 Column_39 Column_40 Column_41 Column_42 Column_43 Column_44 Column_45 Column_46 Column_47 Column_48 Column_49 Column_50 Column_51 Column_52 Column_53 Column_54 Column_55 Column_56 Column_57 Column_58 Column_59 Column_60 Column_61 Column_62 Column_63 Column_64 Column_65 Column_66 Column_67 Column_68 Column_69 Column_70 Column_71 Column_72 Column_73 Column_74 Column_75 Column_76 Column_77 Column_78 Column_79 Column_80 Column_81 Column_82 Column_83 Column_84 Column_85 Column_86 Column_87 Column_88 Column_89 Column_90 Column_91 Column_92 Column_93 Column_94 Column_95 Column_96 Column_97 Column_98 Column_99 Column_100 Column_101 Column_102 Column_103 Column_104 Column_105 Column_106 Column_107 Column_108 Column_109 Column_110 Column_111 Column_112 Column_113 Column_114 Column_115
feature_infos=[-1197.574951171875:1212.2451171875] [-601.563232421875:643.87127685546875] [-1:0.9980277419090271] [0.0058882627636194229:51.741420745849609] [0.0078917685896158218:43.219017028808594] [0.008293752558529377:43.787158966064453] [0.0043002674356102943:58.563789367675781] [0.3463592529296875:42.477199554443359] [0.0079950466752052307:50.542762756347656] [0.010405858047306538:43.392326354980469] [0.012134039774537086:43.584861755371094] [0.0064560230821371078:60.348823547363281] [0:90.18548583984375] [0.0044135949574410915:50.088741302490234] [0.0051586893387138844:44.505962371826172] [0.0057970979250967503:43.624862670898438] [0.0031034732237458229:56.744804382324219] [-82.531234741210938:79.8385009765625] [-57.905815124511719:87.209556579589844] [-1.8540489673614502:44.492740631103516] [-0.78039741516113281:25.523178100585938] [0.074188292026519775:10.776686668395996] [0.094705089926719666:10.295351982116699] [0.017218519002199173:5.3992671966552734] [0.044169161468744278:6.7542457580566406] [0.0060817701742053032:6.5149574279785156] [0.15634763240814209:12.889674186706543] [-77.415702819824219:83.738410949707031] [-79.309059143066406:78.944984436035156] [-76.565902709960938:83.738410949707031] [0:34.7552490234375] [0:21.641708374023438] [0:0.78299778699874878] [0:0.38167557120323181] [0:44.41070556640625] [0:35.023735046386719] [-1:1] [-1.1545848846435547:1.1600781679153442] [-15.353748321533203:9.4999227523803711] [-70.709091186523438:67.005386352539062] [0:87.209556579589844] [0:1] [0:1.7749419212341309] [0:1.4590868949890137] [0.027427893131971359:43.741523742675781] [0.015086611732840538:45.214672088623047] [0.068420425057411194:45.222824096679688] [0.022097408771514893:47.411537170410156] [0.010373324155807495:43.462181091308594] [0.18368187546730042:38.107215881347656] [-0.99990129470825195:0.9997638463973999] [-0.99935156106948853:0.99914336204528809] [-0.99765890836715698:0.99788135290145874] [-0.99233448505401611:0.99788194894790649] [-0.95161503553390503:0.98747467994689941] [-0.86996668577194214:0.87834417819976807] [0:39.586673736572266] [0:39.221351623535156] [0:38.742374420166016] [0:8.5243330001831055] [0:10.723661422729492] [0:12.34434986114502] [0:57.111305236816406] [0:46.410030364990234] [0:39.461643218994141] [0:57.111305236816406] [0:45.019863128662109] [0:39.492420196533203] [-1:1] [0:69.910919189453125] [2.5720865726470947:368.6561279296875] [0.075694017112255096:40.250312805175781] [-66.495025634765625:57.198173522949219] [-44.869289398193359:42.943115234375] [-43.533245086669922:40.835186004638672] [-15.552002906799316:19.829120635986328] [-19.620471954345703:26.002399444580078] [-24.897235870361328:30.071449279785156] [-61.388088226318359:43.990360260009766] [-40.734767913818359:29.307537078857422] [-31.484132766723633:24.861051559448242] [0:39.731166839599609] [0:39.451431274414062] [0:39.221351623535156] [0:72.693580627441406] [0:50.245998382568359] [0:46.410030364990234] [0:72.693580627441406] [0:50.245998382568359] [0:45.019863128662109] [-15.454719543457031:20.039615631103516] [-19.364265441894531:25.833765029907227] [-25.015253067016602:30.071449279785156] none none none [0.002984057879075408:68.278060913085938] [0.13761858642101288:37.291801452636719] [0.015645476058125496:43.514003753662109] [0.0083333337679505348:1.9016393423080444] [0.01666666753590107:1.8064515590667725] [0.0026237040292471647:8.0738840103149414] [0:35.200027465820312] [1.751109266479034e-05:22.068912506103516] [1.4271527106757276e-06:30.486337661743164] [-36.051483154296875:38.084747314453125] [0:747592000] [0:16.57819938659668] [-0.72700530290603638:41.569110870361328] [-0.83207839727401733:43.459129333496094] [-0.99851381778717041:43.201057434082031] [-0.75885194540023804:41.882156372070312] [0.40425211191177368:23.856101989746094] [0.040430068969726562:24.337333679199219] [0.09569096565246582:23.784858703613281] [0.46625545620918274:23.037857055664062]
tree_sizes=3397 3420 3435 3444 3446 3456

Tree=0
num_leaves=31
num_cat=0
split_feature=48 46 6 44 68 57 25 21 74 70 68 24 23 21 8 83 44 48 48 74 47 16 70 74 45 74 23 48 38 74
split_gain=2.45102e+06 223984 108820 63954.1 55204.3 39194.3 30206.9 27589.2 26625 31986.9 26009.6 47745.5 23719.8 20371.9 24548.4 13649.7 17131.4 13555.9 13220.2 11164.1 10860.5 10829.3 10626.7 10096.7 9834.94 7766.22 7391.18 7058.81 6253.01 5654.82
threshold=9.123232841491701 7.959954261779786 13.541612625122072 7.7097976207733163 0.33611866831779486 3.4825562238693242 2.7693721055984502 6.2562379837036142 1.0491162538528445 159.00630950927737 -0.026852012611925598 3.0865979194641118 3.300762534141541 5.2922992706298837 6.9270284175872812 4.0524570941925058 6.2732088565826425 7.6245901584625253 6.2729349136352548 -4.4436540603637686 1.4191731810569765 6.2439317703247079 72.827198028564467 0.44513300061225897 4.7365555763244638 -0.49703630805015558 3.82915210723877 5.6723158359527597 7.6606650352478036 1.4042286872863772
decision_type=2 2 2 2 2 2 2 2 2 2 2 2 2 2 2 2 2 2 2 2 2 2 2 2 2 2 2 2 2 2
left_child=2 4 3 5 24 26 22 27 -4 15 -3 -12 19 -13 -15 -10 -17 -14 -9 -7 -8 -20 23 -6 28 -22 -1 -5 29 -2
right_child=1 10 8 7 6 12 20 18 9 -11 11 13 17 14 -16 16 -18 -19 21 -21 25 -23 -24 -25 -26 -27 -28 -29 -30 -31
leaf_value=-3.1769862335583956 -3.1600151389581153 -3.2056428610809449 -2.9855127105868058 -2.4408564101309622 -2.9285488538607494 -3.2143865895579822 -2.8611042169173242 -2.1727584736285017 -3.1889865420919827 -3.0489134869907129 -3.148978461279984 -3.1358318408156052 -2.0272294000192543 -2.4447229254761029 -3.0075101610853414 -2.1894698776143517 -2.6406703750934506 -2.2029495297497577 -2.3133561234638789 -2.2765664667419809 -2.7159840632718959 -2.708612867163644 -2.9506908105537217 -2.4192057099143676 -3.1339263470585834 -2.2353762420283108 -2.1716232095838817 -2.9457912995191151 -2.1822729596015376 -2.3573352661038269
leaf_weight=94.689081255346537 65.177425991743803 7294.9568167030811 289.01331269741058 99.257188811898232 140.50314836576581 32.922299981117249 86.931504186242819 991.11766123771667 46.505166292190552 192.7360053062439 3232.5748501084745 285.69781388342381 10458.329070303589 538.68213249742985 302.6155808866024 764.10212428867817 290.30093078315258 1226.2450539469719 504.71670678630471 879.14961804449558 92.429544135928154 263.90556808933616 322.51929223909974 316.40266288071871 499.14182186871767 927.82380970194936 22.655344817787409 228.68165349960327 45.778227046132088 33.077362149953842
leaf_count=2363 1605 186014 6151 1077 2837 845 1643 5665 1171 4336 78919 6903 30626 5885 6568 4612 4261 7718 4244 6773 1490 4217 6649 3302 12042 6416 129 4693 270 306
internal_value=-2.57414 -3.05533 -2.15756 -2.11543 -2.62887 -2.07331 -2.49249 -2.37191 -2.55163 -2.4547 -3.1479 -3.05128 -2.06484 -2.77104 -2.64716 -2.35067 -2.3137 -2.04567 -2.29345 -2.31042 -2.32463 -2.44907 -2.73095 -2.57583 -3.0289 -2.27892 -2.98288 -2.79296 -2.66492 -2.88979
internal_weight=30568.6 14184.3 16384.3 14801.7 2529.78 12714 1886.61 2087.68 1582.66 1293.64 11654.5 4359.57 12596.6 1127 841.298 1100.91 1054.4 11684.6 1759.74 912.072 1107.18 768.622 779.425 456.906 643.175 1020.25 117.344 327.939 144.033 98.2548
internal_count=409730 320849 88881 68350 36560 48454 22337 19896 20531 14380 284289 98275 45962 19356 12453 10044 8873 38344 14126 7618 9549 8461 12788 6139 14223 7906 2492 5770 2181 1911
is_linear=0
shrinkage=1


Tree=1
num_leaves=31
num_cat=0
split_feature=48 44 74 48 24 52 46 25 67 58 49 44 21 21 67 49 47 112 83 22 52 111 114 100 7 21 92 21 19 97
split_gain=463053 27417.9 19694.5 16028.4 14131.8 15447.5 16283.2 13106.6 11433.2 11306.5 9989.11 9206.32 8216.92 8062.6 7151 6699.01 4985.57 4183.43 3854.54 2938.89 2744.19 3494.52 2599.01 2440.43 2326.23 2206.88 2115.16 1985.77 1667.34 1643.53
threshold=11.357536792755129 9.690277576446535 -0.52258625626564015 8.6836476325988787 3.134428977966309 -0.86284464597702015 16.778083801269535 2.9286518096923833 18.154161453247074 4.48268747329712 22.391192436218265 6.2732088565826425 5.5351860523223886 7.1677939891815194 8.6950273513793963 15.574437618255617 1.4191731810569765 17.900928497314457 14.677394390106203 6.0234384536743173 0.1083270162343979 19.562354087829593 7.5406408309936532 1.2171052694320681 3.7097822427749638 7.2685961723327646 9.6253671646118182 6.5177087783813485 36.659526824951179 8.7523250579834002
decision_type=2 2 2 2 2 2 2 2 2 2 2 2 2 2 2 2 2 2 2 2 2 2 2 2 2 2 2 2 2 2
left_child=2 7 3 14 -3 6 18 17 9 27 -7 16 -12 -13 20 25 -11 -2 -6 -16 21 -1 -17 -5 -10 -9 -19 -4 -26 -27
right_child=1 4 8 23 5 10 -8 15 24 11 12 13 -14 -15 19 22 -18 26 -20 -21 -22 -23 -24 -25 28 29 -28 -29 -30 -31
leaf_value=0.36044408818906115 0.032415413217931566 -0.037447252198359031 -0.053972495092822551 0.016745061411700179 -0.052478970026543614 -0.040773208709277538 -0.052190663235623547 -0.01714009119809071 0.410556358962753 0.27875046909846424 -0.024865071860368841 0.2882894064871786 0.28027388414861881 0.38774250174842612 -0.0035778358961892735 0.085728358871638655 0.40264936925450229 0.17831876324528573 0.71026081532912544 0.24403532866395158 0.39311484501480964 0.1426679616468601 0.45978788164097334 0.82999287063244265 -0.014597853490198265 -0.053392141622477109 0.53093562476149547 0.19434503884828758 0.28061765871929117 0.72556042272663501
leaf_weight=465.58189672976732 775.41333346813917 7986.9830801561475 133.33065927028656 627.25897578895092 17.958184890449047 1328.6492294371128 127.8044416308403 132.28088702261448 50.728029027581215 834.17388792335987 343.82236470282078 3941.1266709119081 615.72269101440907 4219.9186477661133 211.7162077575922 50.40559858083725 30451.263361971825 132.66627162694931 213.32194722443819 276.1162034124136 1315.2149551920593 304.8030083887279 589.83593466877937 9.3625738173723203 239.38843285292387 10.319645300507547 62.59368371963501 203.22954842448235 59.770207278430462 19.695946455001831
leaf_count=1712 15303 206361 2415 12545 429 32617 3283 2822 188 4887 8270 28491 7074 16093 3596 525 44295 2091 314 1945 3036 3036 1863 11 3939 202 274 1624 423 36
internal_value=0.295414 0.0260873 0.372512 0.253339 -0.00426362 0.0958532 0.400746 0.208107 0.382044 0.384547 0.0480066 0.387009 0.170937 0.339715 0.308909 0.357607 0.399346 0.0845037 0.651036 0.136573 0.34922 0.274281 0.430339 0.0287052 0.0974737 0.0706873 0.291356 0.0959723 0.0443845 0.457749
internal_weight=55750.5 12407.5 43343 3210.05 10634.3 2647.28 359.085 1773.21 40132.9 39783 2288.19 39446.5 959.545 8161.05 2573.43 802.538 31285.4 970.673 231.28 487.832 2085.6 770.385 640.242 636.622 349.887 162.296 195.26 336.56 299.159 30.0156
internal_count=409700 281464 128236 25881 258348 51987 4026 23116 102355 97805 47961 93766 15344 44584 13325 5448 49182 17668 743 5541 7784 4748 2388 12556 4550 3060 2365 4039 4362 238
is_linear=0
shrinkage=0.05


Tree=2
num_leaves=31
num_cat=0
split_feature=48 68 25 68 48 16 67 58 48 22 45 92 70 21 92 47 44 6 50 50 74 115 72 105 62 70 8 112 73 70
split_gain=250297 16891.6 20556.2 16210.6 8857.88 14857.5 7297.9 7093.86 5882.77 4727.63 5342.43 4546.2 3955.85 4196.09 3324.67 3250.62 2930.78 2652.55 2589.72 2337.06 3707.94 2298.03 2008.99 2412.21 2147.81 1983 1896.73 1758.4 1625.91 1262.73
threshold=12.429487705230715 -0.026852012611925598 3.0806736946105961 -0.29141877591609949 8.2245397567749041 7.56785011291504 19.152838706970218 4.2086012363433847 8.2245397567749041 7.8826603889465341 7.7783985137939462 -5.8746385574340811 57.907463073730476 5.1754493713378915 4.1698598861694345 4.5711820125579843 9.8001532554626483 8.2799272537231463 -0.75413605570793141 0.99637481570243847 -0.60270085930824269 17.022605895996097 3.5410172939300542 8.535471439361574 5.9226894378662118 70.581481933593764 7.4263465404510507 11.938804149627687 1.3312065601348879 142.27880859375003
decision_type=2 2 2 2 2 2 2 2 2 2 2 2 2 2 2 2 2 2 2 2 2 2 2 2 2 2 2 2 2 2
left_child=3 -2 14 8 6 9 7 25 18 10 -6 -4 16 -14 19 28 -13 -9 27 21 -21 -3 23 -16 -24 -5 -17 -1 -7 -29
right_child=1 2 11 4 5 15 -8 17 -10 -11 -12 12 13 -15 22 26 -18 -19 -20 20 -22 -23 24 -25 -26 -27 -28 29 -30 -31
leaf_value=0.30403782481130986 -0.045489166331190593 -0.037402892268354276 -0.025325151954418784 0.31337381774580608 0.25829915562900618 0.018068182283637182 0.0068701070057239346 0.28687855326855044 -0.018761177314812888 0.36135458946524679 0.15027040079334805 0.28770112838750767 -0.052797969145007187 0.32435364554731205 0.0089269411114364962 0.27080011337502091 0.0049087716576354506 0.26106163864585841 0.030212793303307131 1.1795201056013631 -0.05238541174979966 0.092690159138892267 0.73441491441820328 0.43526318873302006 0.16089419019875867 -0.0016836978288296005 -0.027260865710940569 0.043303824431282993 0.20278389594944246 0.34130934319533557
leaf_weight=379.37478991597891 6532.8986270427704 2371.1571593433619 168.84129977226257 60.417888823896646 5394.6108564287424 162.58462475240231 250.0238094329834 34023.246239002794 625.06590843200684 835.66953611373901 1452.633897408843 147.16341795772314 79.506345108151436 1018.3509668707848 171.54560203105211 58.02510441839695 242.74504884332418 14061.247215211391 193.69468259811401 10.550046756863596 14.508246436715124 396.17693497240543 28.496051222085953 41.133573792874813 38.218458414077759 288.099291048944 665.98474758863449 142.49243722483516 445.75212234258652 47.362150367349386
leaf_count=1081 177269 58051 3205 90 22391 2329 3792 33872 13612 1602 16731 471 1865 4982 3589 527 4411 29122 2436 28 359 7352 152 489 430 4224 11255 1374 2375 58
internal_value=0.222642 0.00660818 0.0785875 0.263816 0.267878 0.222353 0.276309 0.2777 0.094961 0.249083 0.235381 0.220549 0.248452 0.29704 0.0020281 0.0682156 0.111643 0.279329 0.188134 -0.0144258 0.466272 -0.0187785 0.166476 0.0913832 0.405865 0.0529337 -0.00337304 0.241871 0.153417 0.117646
internal_weight=70347.6 11261.3 4728.39 59086.3 57698.3 9015.26 48683 48433 1387.99 7682.91 6847.24 1656.61 1487.77 1097.86 3071.79 1332.35 389.908 48084.5 762.924 2792.39 25.0583 2767.33 279.394 212.679 66.7145 348.517 724.01 569.229 608.337 189.855
internal_count=409524 262653 85384 146871 128310 57210 71100 67308 18561 40724 39122 14934 11729 6847 70450 16486 4882 62994 4949 65790 387 65403 4660 4078 582 4314 11782 2513 4704 1432
is_linear=0
shrinkage=0.05


Tree=3
num_leaves=31
num_cat=0
split_feature=44 68 68 23 23 51 3 70 19 44 12 49 52 25 26 57 68 74 2 21 58 49 71 3 62 63 55 111 59 113
split_gain=139378 17574.6 16449.6 15341.5 6709.81 6366.11 5673.35 6625.26 4699.2 4384.26 5083.26 3433.73 3075.31 4167.36 2992.22 2871.33 2706.29 2694.22 2629.74 2321.26 2209.79 2150.22 2036.7 2302.24 1904.27 1604.14 1447.81 1384.82 1300.08 1196.67
threshold=12.104516029357912 -0.32899828255176539 -0.25283411145210261 3.6739799976348881 3.1586351394653325 -0.51588726043701161 7.7938766479492196 68.448913574218764 32.144853591918952 4.738183021545411 7.1770927906036386 11.214213371276857 -0.86941492557525624 3.0461815595626835 8.8355736732482928 14.188310623168947 0.98348036408424389 -0.069931812584400163 -0.98600801825523365 7.5741419792175302 3.8469289541244511 18.247810363769535 8.62158250808716 11.693665504455568 1.7425210475921633 2.6795786619186406 0.043700216338038451 23.258754730224613 1.1933805346488955 18.420061111450199
decision_type=2 2 2 2 2 2 2 2 2 2 2 2 2 2 2 2 2 2 2 2 2 2 2 2 2 2 2 2 2 2
left_child=1 5 -2 12 17 18 7 16 -9 20 14 -12 13 -4 -11 27 -5 29 -1 -14 -6 -22 23 -19 -17 -21 -15 -8 -24 -3
right_child=2 4 3 6 9 -7 15 8 -10 10 11 -13 19 26 -16 24 -18 22 -20 25 21 -23 28 -25 -26 -27 -28 -29 -30 -31
leaf_value=-0.01817964717584012 -0.047021965320238245 0.027677236024068665 -0.052185842770872085 0.038768294794690523 0.0316167683291576 -0.04371773354296199 0.29073387097410891 0.30359101449420672 -0.016824122708398503 0.1818043824312377 0.19829735249322245 0.12970987424099245 -0.023767013794244493 0.23429231946111786 0.22451582571195727 0.56034478104785757 0.29564190380126892 0.21764421781113025 0.21364713078687769 0.34530889973319967 0.22591527147925225 -0.0016838775797430882 -0.007301109931735137 0.058034214648704389 -0.042964212143516173 0.047515146845897402 0.56960366823992403 -0.010146827254094645 0.19526803520727201 0.20009831043557336
leaf_weight=160.31810745596886 5250.4745907783508 650.54231658577919 134.83042910695076 594.68838338553905 147.81541468948126 911.87415016442537 132.97772004455328 1171.3513514250517 126.81845679879189 5867.2727095559239 3521.6897124350071 3787.1773106753826 2862.7410029247403 124.24500941857696 13618.141727618873 13.449816670268772 123.89844131469727 1291.7817670889199 516.22496297210455 70.241988725960255 38837.127830021083 104.05053935945034 245.12976183742285 273.81867884099483 474.93382338061929 126.95794300734997 43.450913403183222 53.679929114878178 117.01794226467609 119.04715475440025
leaf_count=2510 147311 8080 3526 8968 1830 21893 889 4775 2288 24521 8768 21375 67318 355 24090 28 423 3481 2184 142 33420 814 3283 2088 10314 2099 136 912 782 684
internal_value=0.180674 0.206923 0.0177443 0.073912 0.210731 0.0425017 0.162869 0.204865 0.27229 0.213896 0.198317 0.162758 0.00269802 0.154774 0.211655 0.0374019 0.0830583 0.133438 0.158712 -0.0123372 0.224575 0.225307 0.165011 0.189729 -0.0263494 0.153588 0.321173 0.204205 0.0581535 0.0543489
internal_weight=81473.8 70169 11304.7 6054.27 68580.6 1588.42 2691.8 2016.76 1298.17 65883.3 26794.3 7308.87 3362.47 302.526 19485.4 675.041 718.587 2697.34 676.543 3059.94 39089 38941.2 1927.75 1565.6 488.384 197.2 167.696 186.658 362.148 769.589
internal_count=409287 159803 249484 102173 133216 26587 28597 16454 7063 114818 78754 30143 73576 4017 48611 12143 9391 18398 4694 69559 36064 34234 9634 5569 10342 2241 491 1801 4065 8764
is_linear=0
shrinkage=0.05


Tree=4
num_leaves=31
num_cat=0
split_feature=48 68 25 48 16 68 97 58 55 23 38 112 92 111 114 108 60 48 96 114 47 50 60 61 58 88 9 97 101 73
split_gain=119666 12317.5 11303.6 7675.01 9459.22 4747 4345.35 3822.55 3400.69 3264.63 3067.85 2531.07 2530.25 2313.28 4966.27 2262 2068.65 1892.67 2775.78 1841.36 1597.62 1587.65 1505.31 1415.93 1412.05 1133.41 1114.79 2996.72 1077.25 1073.29
threshold=12.429487705230715 -0.026852012611925598 3.0130407810211186 8.2245397567749041 8.3117179870605487 0.052907692268490798 14.092780113220217 4.2086012363433847 0.28175872564315801 3.4936103820800786 7.0269935131073007 18.106550216674808 7.79441261291504 8.9217319488525408 10.324604988098146 14.937624931335451 1.5761970877647402 4.6832849979400644 10.311573505401613 16.348019599914554 5.0290713310241708 0.98119589686393749 2.5477480888366704 1.6856924295425417 7.5658802986145028 1.8920504450798037 8.0195698738098162 8.4640374183654803 1.0570594668388369 2.29282557964325
decision_type=2 2 2 2 2 2 2 2 2 2 2 2 2 2 2 2 2 2 2 2 2 2 2 2 2 2 2 2 2 2
left_child=3 -2 12 6 5 10 7 22 28 11 -5 -7 21 -4 -15 -16 -11 -9 -19 -14 29 -3 -1 -23 -10 -21 27 -22 -8 -6
right_child=1 2 13 4 20 9 8 17 24 16 -12 -13 19 14 15 -17 -18 18 -20 25 26 23 -24 -25 -26 -27 -28 -29 -30 -31
leaf_value=-0.006514858241543635 -0.046416784205109002 -0.026097294711022734 0.35173921793459972 -0.023027064118100481 -0.0045073211723872224 0.091281394740631849 0.20818378390800715 0.19172818323087015 -0.051717677626670136 0.19609815090427976 0.19127594088079775 0.21794553316798246 -0.0040557900369909781 -0.023146563166676969 -0.036975464602460623 0.17924257246430095 0.13626912702965485 0.17928388842412082 0.12055736350706528 0.62780643189535401 -0.011471946133952762 -0.052382237939707879 0.25905459516638141 0.29549153921617077 0.099465641261900203 0.22798443745596952 -0.037389353417588436 0.61926829690353502 -0.057129843106779744 0.12688212497659287
leaf_weight=356.25568770244718 6066.1613166332245 2711.1902423202991 120.99072182178497 572.54764592647552 232.90404088050127 2031.6711603403091 439.36706854403019 39091.469497539103 382.91481737047434 5858.795215010643 235.7693053483963 489.40713977813721 71.72042503207922 441.34157844260335 130.27410154417157 1692.2160602733493 1917.6898093223572 23925.538193702698 2196.8909060955048 24.232998751103878 80.743373516947031 48.364306107163429 62.759047966450453 74.016081973910332 258.85835298150778 66.004667863249779 803.0082271695137 24.55943464115262 41.908692225813866 467.26123070716858
leaf_count=4745 177339 64009 155 10363 3208 14153 707 27406 4381 14508 1344 1744 1315 6978 2081 8430 7394 28286 8344 54 1164 1228 55 665 1660 308 15128 71 471 1999
internal_value=0.153577 0.00243078 0.0575047 0.175348 0.139743 0.156156 0.182129 0.183798 0.084608 0.165315 0.0394807 0.11587 -0.00715942 0.138728 0.127344 0.163787 0.181344 0.184765 0.174345 0.185053 0.02642 -0.0181457 0.0332615 0.158013 0.00926191 0.335355 -0.0173304 0.135634 0.185081 0.0831765
internal_weight=90916.8 11446.5 5380.35 79470.3 12714.4 11105.9 66756 65632.9 1123.05 10297.6 808.317 2521.08 2995.53 2384.82 2263.83 1822.49 7776.49 65213.9 26122.4 161.958 1608.48 2833.57 419.015 122.38 641.773 90.2377 908.311 105.303 481.276 700.165
internal_count=409693 262562 85223 147131 71076 49506 76055 68836 7219 37799 11707 15897 67579 17644 17489 10511 21902 64036 36630 1677 21570 65902 4800 1893 6041 362 16363 1235 1178 5207
is_linear=0
shrinkage=0.05


Tree=5
num_leaves=31
num_cat=0
split_feature=48 68 48 68 23 92 3 11 82 58 45 13 2 92 114 70 109 23 73 111 48 45 64 54 60 70 22 57 49 49
split_gain=87851.3 10358.2 6659.6 7249.54 5450.95 4354.1 4078.04 3797.86 3017.21 2980.66 2926.19 2845.06 2722.84 2501.22 2218.26 2069.37 2033.97 2033.91 1875.91 1449.15 1437.76 2859.22 1334.04 1288.96 1423.47 1191.76 1089.27 1013.47 963.077 659.447
threshold=12.878423213958742 -0.11542757600545882 8.4617962837219256 0.052907692268490798 3.7401587963104252 -1.3721117973327634 5.6356887817382821 24.269450187683109 16.740674972534183 4.48268747329712 15.878140926361086 6.2226626873016366 -0.96948644518852223 6.8787767887115487 6.0654156208038339 52.731214523315437 9.1269330978393572 3.9078110456466679 -0.87859869003295887 8.5210633277893084 4.5074307918548593 5.152254819869996 17.353702545166019 -0.20615213364362714 2.3897191286087041 128.03747558593753 7.649754762649537 14.086343288421633 12.243078231811525 33.652496337890632
decision_type=2 2 2 2 2 2 2 2 2 2 2 2 2 2 2 2 2 2 2 2 2 2 2 2 2 2 2 2 2 2
left_child=2 -2 7 14 8 6 17 9 10 23 13 12 15 -3 -4 -6 -7 -5 -18 29 22 -22 -11 -1 -25 -9 -16 -12 -28 -10
right_child=1 4 3 5 11 16 -8 25 19 20 27 -13 -14 -15 26 -17 18 -19 -20 -21 21 -23 -24 24 -26 -27 28 -29 -30 -31
leaf_value=0.21206823591234103 -0.048482149086796197 -0.020475110037385041 0.18268077072818756 0.053458841828360353 -0.019894926281863363 -0.036117984162326415 -0.029772000901883901 0.090267845908253735 -0.05243455750230297 0.16581407912455137 -0.052087355857106332 -0.004231975608103648 -0.031427998771049237 0.17164300058184967 -0.029347373235485103 0.18714991231592837 0.072744897830342312 0.19533207690088045 0.15302085161344714 -0.035395812583971321 0.16194014108152735 0.13029894456071017 0.045971718076422134 -0.01224259548980893 0.20131267223515692 -0.051400013669119587 -0.053516988554739624 0.21536360805149446 0.23753971810287 0.24539670865006122
leaf_weight=107.40604055672884 5402.7437878847122 744.51431713625789 163.53583717346191 507.00719873607159 133.11608115211129 154.62693843245506 749.50732444226742 371.97089695930481 25.448674976825714 41511.239243395627 39.561073828488588 405.58419722318649 194.9257647395134 219.32398496568203 1089.0572385191917 1292.2378618381917 790.69146044552326 503.49234509468079 9142.0276915282011 2014.2819921374321 20654.342680804431 10911.654819138348 233.52010536193848 471.40156737528741 93.510173469781876 247.04685997962952 45.42735056206584 338.49409471452236 75.921193618327379 68.918258666992188
leaf_count=210 166246 14797 593 4308 1972 1436 9648 1753 654 25837 1062 7816 2958 1418 22894 5199 6315 902 28012 51435 15319 25628 1687 5655 93 3334 942 1151 465 36
internal_value=0.134663 0.000637509 0.151265 0.118559 0.0490965 0.131168 0.0586008 0.157062 0.0108739 0.158094 0.069484 0.114199 0.143844 0.0232419 0.00983815 0.167814 0.143829 0.124149 0.146631 -0.0264241 0.159055 0.151002 0.165144 0.0532948 0.0231073 0.0337289 -0.0135143 0.187377 0.128581 0.165078
internal_weight=98702.5 10879.2 87823.4 13221.3 5476.41 11847.4 1760.01 74602.1 3450.54 73983.1 1341.89 2025.86 1620.28 963.838 1373.94 1425.35 10087.3 1010.5 9932.72 2108.65 73310.8 31566 41744.8 672.318 564.912 619.018 1210.41 378.055 121.349 94.3669
internal_count=409775 254744 155031 75515 88498 50621 14858 79516 70553 74429 18428 17945 10129 16215 24894 7171 35763 5210 34327 52125 68471 40947 27524 5958 5748 5087 24301 2213 1407 690
is_linear=0
shrinkage=0.05


end of trees

feature_importances:
Column_48=15
Column_68=11
Column_21=8
Column_70=8
Column_74=8
Column_23=7
Column_44=7
Column_49=6
Column_58=6
Column_92=6
Column_25=5
Column_45=4
Column_47=4
Column_111=4
Column_114=4
Column_3=3
Column_16=3
Column_22=3
Column_50=3
Column_52=3
Column_57=3
Column_60=3
Column_67=3
Column_73=3
Column_97=3
Column_112=3
Column_2=2
Column_6=2
Column_8=2
Column_19=2
Column_24=2
Column_38=2
Column_46=2
Column_55=2
Column_62=2
Column_83=2
Column_7=1
Column_9=1
Column_11=1
Column_12=1
Column_13=1
Column_26=1
Column_51=1
Column_54=1
Column_59=1
Column_61=1
Column_63=1
Column_64=1
Column_71=1
Column_72=1
Column_82=1
Column_88=1
Column_96=1
Column_100=1
Column_101=1
Column_105=1
Column_108=1
Column_109=1
Column_113=1
Column_115=1

parameters:
[boosting: gbdt]
[objective: binary]
[metric: binary_logloss]
[tree_learner: serial]
[device_type: gpu]
[data_sample_strategy: bagging]
[data: ]
[valid: ]
[num_iterations: 1000]
[learning_rate: 0.05]
[num_leaves: 31]
[num_threads: 0]
[seed: 42]
[deterministic: 0]
[force_col_wise: 1]
[force_row_wise: 0]
[histogram_pool_size: -1]
[max_depth: 6]
[min_data_in_leaf: 20]
[min_sum_hessian_in_leaf: 5]
[bagging_fraction: 0.8]
[pos_bagging_fraction: 1]
[neg_bagging_fraction: 1]
[bagging_freq: 1]
[bagging_seed: 400]
[bagging_by_query: 0]
[feature_fraction: 0.8]
[feature_fraction_bynode: 1]
[feature_fraction_seed: 30056]
[extra_trees: 0]
[extra_seed: 12879]
[early_stopping_round: 0]
[early_stopping_min_delta: 0]
[first_metric_only: 0]
[max_delta_step: 0]
[lambda_l1: 0]
[lambda_l2: 0]
[linear_lambda: 0]
[min_gain_to_split: 0]
[drop_rate: 0.1]
[max_drop: 50]
[skip_drop: 0.5]
[xgboost_dart_mode: 0]
[uniform_drop: 0]
[drop_seed: 17869]
[top_rate: 0.2]
[other_rate: 0.1]
[min_data_per_group: 100]
[max_cat_threshold: 32]
[cat_l2: 10]
[cat_smooth: 10]
[max_cat_to_onehot: 4]
[top_k: 20]
[monotone_constraints: ]
[monotone_constraints_method: basic]
[monotone_penalty: 0]
[feature_contri: ]
[forcedsplits_filename: ]
[refit_decay_rate: 0.9]
[cegb_tradeoff: 1]
[cegb_penalty_split: 0]
[cegb_penalty_feature_lazy: ]
[cegb_penalty_feature_coupled: ]
[path_smooth: 0]
[interaction_constraints: ]
[verbosity: -1]
[saved_feature_importance_type: 0]
[use_quantized_grad: 0]
[num_grad_quant_bins: 4]
[quant_train_renew_leaf: 0]
[stochastic_rounding: 1]
[linear_tree: 0]
[max_bin: 255]
[max_bin_by_feature: ]
[min_data_in_bin: 3]
[bin_construct_sample_cnt: 200000]
[data_random_seed: 175]
[is_enable_sparse: 1]
[enable_bundle: 1]
[use_missing: 1]
[zero_as_missing: 0]
[feature_pre_filter: 1]
[pre_partition: 0]
[two_round: 0]
[header: 0]
[label_column: ]
[weight_column: ]
[group_column: ]
[ignore_column: ]
[categorical_feature: ]
[forcedbins_filename: ]
[precise_float_parser: 0]
[parser_config_file: ]
[objective_seed: 16083]
[num_class: 1]
[is_unbalance: 0]
[scale_pos_weight: 23.6242]
[sigmoid: 1]
[boost_from_average: 1]
[reg_sqrt: 0]
[alpha: 0.9]
[fair_c: 1]
[poisson_max_delta_step: 0.7]
[tweedie_variance_power: 1.5]
[lambdarank_truncation_level: 30]
[lambdarank_norm: 1]
[label_gain: ]
[lambdarank_position_bias_regularization: 0]
[eval_at: ]
[multi_error_top_k: 1]
[auc_mu_weights: ]
[num_machines: 1]
[local_listen_port: 12400]
[time_out: 120]
[machine_list_filename: ]
[machines: ]
[gpu_platform_id: -1]
[gpu_device_id: -1]
[gpu_use_dp: 0]
[num_gpu: 1]

end of parameters

pandas_categorical:null
