tree
version=v4
num_class=1
num_tree_per_iteration=1
label_index=0
max_feature_idx=115
objective=binary sigmoid:1
feature_names=Column_0 Column_1 Column_2 Column_3 Column_4 Column_5 Column_6 Column_7 Column_8 Column_9 Column_10 Column_11 Column_12 Column_13 Column_14 Column_15 Column_16 Column_17 Column_18 Column_19 Column_20 Column_21 Column_22 Column_23 Column_24 Column_25 Column_26 Column_27 Column_28 Column_29 Column_30 Column_31 Column_32 Column_33 Column_34 Column_35 Column_36 Column_37 Column_38 Column_39 Column_40 Column_41 Column_42 Column_43 Column_44 Column_45 Column_46 Column_47 Column_48 Column_49 Column_50 Column_51 Column_52 Column_53 Column_54 Column_55 Column_56 Column_57 Column_58 Column_59 Column_60 Column_61 Column_62 Column_63 Column_64 Column_65 Column_66 Column_67 Column_68 Column_69 Column_70 Column_71 Column_72 Column_73 Column_74 Column_75 Column_76 Column_77 Column_78 Column_79 Column_80 Column_81 Column_82 Column_83 Column_84 Column_85 Column_86 Column_87 Column_88 Column_89 Column_90 Column_91 Column_92 Column_93 Column_94 Column_95 Column_96 Column_97 Column_98 Column_99 Column_100 Column_101 Column_102 Column_103 Column_104 Column_105 Column_106 Column_107 Column_108 Column_109 Column_110 Column_111 Column_112 Column_113 Column_114 Column_115
feature_infos=[-1991.3489990234375:1083.6337890625] [-1117.2047119140625:825.1427001953125] [-1:0.99901896715164185] [0.005871232133358717:64.706375122070312] [0.0078039984218776226:49.229560852050781] [0.0083214361220598221:44.476997375488281] [0.0040296968072652817:77.811622619628906] [0.27823078632354736:397.30789184570312] [0.0079950466752052307:64.898422241210938] [0.01014577504247427:51.51959228515625] [0.012089082039892673:47.67010498046875] [0.0063922959379851818:90.412109375] [0:105.89783477783203] [0.0013214480131864548:61.963279724121094] [0.0050835744477808475:52.411670684814453] [0.0057716602459549904:48.314788818359375] [0.0013088468695059419:66.605987548828125] [-99.356796264648438:86.497817993164062] [-66.543357849121094:63.577449798583984] [-1.8506897687911987:44.707584381103516] [1.8572870492935181:25.640096664428711] [0.10750811547040939:11.011712074279785] [0.12855009734630585:10.335866928100586] [0.077880986034870148:13.699997901916504] [0.12615761160850525:14.762792587280273] [0.1630675196647644:10.248317718505859] [0.12300509959459305:12.954388618469238] none none none [0:51.875812530517578] [0:20.62718391418457] [0:1] [0:1] [0:103.75162506103516] [0:51.875812530517578] [0.99993395805358887:1] [-1.257419228553772:1.0884617567062378] [-15.322174072265625:9.4999227523803711] [-79.530250549316406:99.356796264648438] [0:95.646568298339844] [0:0.99988555908203125] [0:1.6790478229522705] [0:1.4045078754425049] [0.077880986034870148:13.699997901916504] [0.1630675196647644:10.248317718505859] [0.12615761160850525:14.762792587280273] none [0.12300509959459305:12.954388618469238] none [0:1] [0:1] [0:1] [0:1] [0:1] [0:1] none none none none none none [0:73.294403076171875] [0:56.915077209472656] [0:45.891456604003906] [0:73.294403076171875] [0:56.915077209472656] [0:45.891456604003906] none [0:105.89783477783203] [2.5694239139556885:368.62893676757812] none none none none none none none none none none none none none [0:93.184066772460938] [0:62.771469116210938] [0:56.915077209472656] [0:93.184066772460938] [0:62.771469116210938] [0:56.915077209472656] none none none none none none [0.0031778078991919756:89.550811767578125] [0.13761858642101288:37.291801452636719] [0.015645476058125496:52.49517822265625] [0.0083333337679505348:1.9016393423080444] [0.01666666753590107:1.8064515590667725] [0.0031861132010817528:7.9768204689025879] [0:41.833522796630859] [1.751109266479034e-05:26.464035034179688] [1.427128040631942e-06:41.847301483154297] [-48.916233062744141:47.949123382568359] [0:228304688] [0:15.962193489074707] [-0.72578424215316772:39.585987091064453] [-0.83157014846801758:40.893405914306641] [-1.0028823614120483:40.726676940917969] [-0.75885194540023804:39.836887359619141] [4.2308320999145508:23.860540390014648] [3.6659698486328125:24.331863403320312] [3.8999350070953369:23.780532836914062] [4.7397499084472656:23.031791687011719]
tree_sizes=3397 3430 3437

Tree=0
num_leaves=31
num_cat=0
split_feature=25 7 22 24 22 46 7 22 98 7 19 46 113 21 112 6 38 70 20 19 38 24 15 25 70 110 2 38 38 15
split_gain=660587 149108 109736 28156.8 16222.8 16204.3 15716.8 11268 8386.77 8040.74 7976.7 6488.71 5680.21 5142.73 4838.03 4639.17 4324.13 3782.78 3777.08 3738.84 3648.48 3549.79 3444.01 3235.31 3173.5 5130.84 3098.39 2968.74 2887.01 2786.74
threshold=2.7631279230117802 3.8491743803024296 4.4577960968017587 2.91790783405304 6.0779409408569345 2.768722772598267 3.5134139060974126 7.0954594612121591 7.5155186653137216 2.5430551767349248 7.1565678119659433 2.8949792385101323 19.26961708068848 6.4683890342712411 10.004128456115724 10.466140747070314 -0.35954475402832026 159.57838439941409 21.068832397460941 13.004362583160402 -0.061077117919921868 2.745344996452332 0.96448755264282238 2.3394628763198857 46.938241958618171 7.0087749958038339 -0.87546762824058522 -1.976783752441406 6.2324523925781259 8.7574496269226092
decision_type=2 2 2 2 2 2 2 2 2 2 2 2 2 2 2 2 2 2 2 2 2 2 2 2 2 2 2 2 2 2
left_child=2 6 9 13 5 23 10 8 20 26 24 -8 21 29 22 28 -7 -16 -15 -9 -5 -11 -12 -4 -2 -26 -1 -25 -13 -3
right_child=1 3 4 7 -6 16 11 19 -10 12 14 15 -14 18 17 -17 -18 -19 -20 -21 -22 -23 -24 27 25 -27 -28 -29 -30 -31
leaf_value=-1.9133001441071147 -1.9284153796520263 -2.2312555024735472 -2.4939625774491216 -2.0177454090158857 -2.5078731802378633 -2.0789417866093469 -2.2119276090775188 -2.1816793699074779 -2.2769283372215616 -2.3422483271132624 -2.4798074686692879 -1.996031047508197 -1.9449341725933309 -2.4667298232229533 -1.9171717569147169 -2.2537957065112222 -2.2960824481154685 -2.5096612974610286 -2.0361651221875743 -2.4384613754875595 -2.1425887227905269 -2.0982365969175198 -1.9775565499504859 -2.2618332530985286 -2.4393691211742881 -2.0792136159855068 -2.3582099557260081 -2.4318599397854945 -2.1366811708843572 -2.4936625843738973
leaf_weight=781.05606904625893 194.47875045239925 527.27181261777878 1640.5790019631386 1127.4990872517228 10640.260595321655 377.52142214775085 543.82758140563965 207.58075705170631 726.97869829088449 342.63330003619194 34.422339878976345 3039.7002978548408 231.41959309577942 1383.8350839614868 11633.618114493787 212.15582329034805 583.86741656064987 27.00204960256815 52.881772994995117 447.05464324355125 1216.7921543568373 263.79956164956093 4047.504665710032 339.84861308336258 128.98538258671761 423.81507323682308 41.196006380021572 1049.716345012188 414.60866347700357 125.20276337862015
leaf_count=2082 572 4477 21826 5163 144269 2152 4425 1574 6781 3606 449 12710 751 17720 31836 1889 5651 367 260 5493 8355 1597 15554 3076 1587 2418 446 12771 2802 1665
internal_value=-2.18134 -2.02738 -2.43192 -2.25109 -2.47563 -2.38967 -1.96453 -2.1687 -2.12856 -2.04667 -1.94252 -2.05076 -2.15568 -2.39802 -1.93494 -2.02685 -2.21081 -1.91854 -2.45088 -2.35704 -2.08254 -2.2361 -1.98179 -2.44641 -2.10213 -2.16325 -1.93559 -2.39028 -2.01291 -2.28161
internal_weight=42807.1 26515.2 16291.9 5815.1 14631.8 3991.53 20700.1 3725.91 3071.27 1660.1 16489.8 4210.29 837.852 2089.19 15742.5 3666.46 961.389 11660.6 1436.72 654.635 2344.29 606.433 4081.93 3030.14 747.279 552.8 822.252 1389.56 3454.31 652.475
internal_count=324324 126097 198227 51488 189745 45476 74609 27366 20299 8482 52783 21826 5954 24122 48206 17401 7803 32203 17980 7067 13518 5203 16003 37673 4577 4005 2528 15847 15512 6142
is_linear=0
shrinkage=1


Tree=1
num_leaves=31
num_cat=0
split_feature=25 22 7 22 46 7 25 109 25 21 16 21 97 111 113 21 97 14 108 10 114 43 54 4 97 38 64 38 24 14
split_gain=299604 57600 56420.4 10538 9765.52 9126.17 8410.1 6260.08 6205.75 4242.28 3755.86 3126.69 3095.62 2972.52 2767.21 2609.8 2458.09 2417.36 2482.83 2257.63 2175.05 2159.62 2038.69 2016.75 1932.29 1819.16 1761.53 1724.59 1722.23 1666.04
threshold=2.7249137163162236 4.4164221286773691 4.0557703971862802 6.0779409408569345 2.8611478805541997 3.6176389455795293 2.5319634675979619 13.239861965179445 3.0767146348953252 6.7815003395080575 8.3380074501037615 6.1146481037139901 11.687800884246828 6.8308877944946298 18.555788993835453 5.7012341022491464 1.2406448125839236 8.4955091476440447 7.2207963466644296 3.1831885576248173 16.570254325866703 0.46522668004035955 0.99999657273292553 2.309462428092957 2.9695409536361699 -1.0014133453369138 3.6520237922668461 0.99031925201416027 2.8389610052108769 15.82189989089966
decision_type=2 2 2 2 2 2 2 2 2 2 2 2 2 2 2 2 2 2 2 2 2 2 2 2 2 2 2 2 2 2
left_child=1 12 5 6 20 10 14 17 11 27 13 22 19 24 -3 23 -15 18 -6 -1 -4 -10 -7 -8 -2 -22 -11 -9 -13 -12
right_child=2 3 4 -5 7 8 15 9 21 26 29 28 -14 16 -16 -17 -18 -19 -20 -21 25 -23 -24 -25 -26 -27 -28 -29 -30 -31
leaf_value=0.013018246645669362 0.3724686969931566 -0.00096823290299637838 -0.0007759361424874709 -0.031499914722916009 -0.056172362517155475 0.065614872038617017 -0.028753487635889863 0.24861493624294548 0.23108662240550659 0.19503135186960993 0.25540738240825378 0.024838738456077657 -0.025655431502688366 -0.056015199957064402 0.16722026922514246 0.083994330749092752 0.33000782119438571 -0.0077126483760468836 0.29908913002826609 0.30295853931350547 0.20622552185777218 0.31684659762386569 0.26150790697111675 0.2559408722737096 -0.055205776871413786 -0.0016021558563675501 0.01162734889890011 0.11624688643642006 0.1697926012476404 -0.055963564943681023
leaf_weight=69.608657963573933 38.815043449401855 2507.3463718891144 1255.2154722213745 10000.226055145264 51.369066715240479 147.02247282862663 68.417126670479774 594.40160438418388 959.63322257995605 159.37111742794514 1422.0072754025459 283.94776728749275 79.466164708137512 41.30495223402977 270.99417567253113 514.20073519647121 25936.728426188231 75.490771733224392 1154.1628293171525 1892.4139298945665 278.29290136694908 3123.3590831756592 1374.6176061630249 685.23803222179413 82.645966947078705 169.37970128655434 733.41715641319752 419.9005960226059 736.19814538955688 44.298777520656586
leaf_count=717 47 31486 15793 139470 531 1246 820 3025 4742 1145 5085 3146 854 451 2382 4996 53766 850 4776 5900 2194 10247 6421 4225 1006 2151 8211 3517 4877 483
internal_value=0.213722 0.0321157 0.28848 -0.00395226 0.129641 0.311202 0.0641321 0.181276 0.258508 0.123853 0.323866 0.197174 0.280281 0.32824 0.0154366 0.170842 0.329394 0.266763 0.283951 0.292672 0.0329709 0.29669 0.242581 0.230096 0.0814653 0.127593 0.0443667 0.193817 0.129446 0.246001
internal_weight=55169.5 16087.9 39081.6 14046.4 4891 34190.6 4046.2 3188.11 6624.78 1907.09 27565.8 2541.79 2041.49 26099.5 2778.34 1267.86 25978 1281.02 1205.53 1962.02 1702.89 4082.99 1521.64 753.655 121.461 447.673 892.788 1014.3 1020.15 1466.31
internal_count=324560 190850 133710 183379 42193 91517 43909 22055 30679 15898 60838 15690 7471 55270 33868 10041 54217 6157 5307 6617 20138 14989 7667 5045 1053 4345 9356 6542 8023 5568
is_linear=0
shrinkage=0.05


Tree=2
num_leaves=31
num_cat=0
split_feature=25 7 22 45 13 22 22 22 98 15 7 45 25 19 38 38 20 46 21 97 21 24 19 109 23 97 67 37 113 108
split_gain=182194 37859.1 34548.2 8492.05 5883.77 4504.97 3913.84 3872.5 3559.14 3518.81 3083.51 3528.2 3034.57 2766.29 2583.95 2527.6 2354.87 2346.14 1917.07 1845.39 1842.06 1833.64 1513.33 1377.3 1235.52 1207.95 1176.37 1154.81 1101.1 1070.67
threshold=2.6760009527206425 4.062591791152955 4.9131798744201669 3.1348553895950322 8.0430932044982928 6.1041908264160165 6.20497751235962 3.9339751005172734 0.90167930722236644 15.699593544006349 3.3077614307403569 2.9722568988800053 2.3725068569183354 13.549688816070558 -2.4710941314697261 -1.7303762435913084 20.810153961181644 2.8444517850875859 6.2445402145385751 10.906984329223635 6.7401850223541269 2.8337380886077885 36.512836456298835 32.858295440673835 3.4811385869979863 10.245914936065676 3.5839493274688725 -0.066488776355981813 7.6602361202239999 7.2207963466644296
decision_type=2 2 2 2 2 2 2 2 2 2 2 2 2 2 2 2 2 2 2 2 2 2 2 2 2 2 2 2 2 2
left_child=2 4 7 6 8 12 21 19 -2 14 23 -12 24 25 -6 22 20 27 -16 -1 -8 -3 -14 -10 -4 29 28 -9 -15 -5
right_child=1 3 5 13 9 -7 16 17 10 -11 11 -13 15 26 18 -17 -18 -19 -20 -21 -22 -23 -24 -25 -26 -27 -28 -29 -30 -31
leaf_value=0.24470682960093315 0.023774867181196233 0.045280056576896072 -0.022788305103334835 -0.055660817638917497 0.23405258513787539 -0.032818883080076383 0.076166532075771676 0.13689989618559226 0.25710405427233446 -0.056274647287569785 0.17382897308991907 0.23503644474020302 0.24121611531128773 -0.056176379493567664 0.17380184541478566 0.041836800901943173 0.24023682717051373 0.22930816373496932 0.057576396091330542 -0.028609253765897066 -0.0083145070510894266 0.21301150019070791 0.062317774733960378 0.22676147459526719 0.15361861721909631 -0.055415129962392867 0.069420979187049661 0.017329422264745195 0.24885251365281114 0.24725497142413499
leaf_weight=1502.3257871866226 189.50888890773058 243.7750905752182 1588.5064017176628 29.95476707816124 1540.0364442616701 9133.8742122650146 964.74905499815941 351.40683893859386 20607.17468252033 157.85748195648193 2944.1645522415638 11753.879008173943 324.32120525836945 34.768973752856255 1648.6856327354908 1124.3416258096695 126.24847984313965 311.00921785831451 452.08067835867405 64.406193494796753 1948.3380364477634 491.36857283115387 186.01019787788391 4569.1922035217285 105.87208300828934 35.849538683891296 551.18702618777752 474.72081835567951 198.46166154742241 1115.0732445418835
leaf_count=3131 1425 2615 21092 333 3795 131195 8377 2525 29869 1669 13464 27430 1585 376 6211 11650 550 1076 3421 651 23634 2114 1548 8964 1011 420 4827 5005 738 3643
internal_value=0.172134 0.218506 0.020479 0.097751 0.234307 -0.0146705 0.0538662 0.182493 0.239946 0.174835 0.240973 0.222776 0.0351231 0.182035 0.184856 0.0837244 0.0288259 0.112257 0.14879 0.233471 0.0196637 0.157391 0.17601 0.251597 -0.0117656 0.230382 0.109251 0.0681907 0.20338 0.23933
internal_weight=64769.1 49602.4 15166.8 5739.77 43862.6 12462.9 3774.48 2703.87 40063.9 3798.66 39874.4 14698 3329.05 1965.3 3640.8 1634.67 3039.34 1137.14 2100.77 1566.73 2913.09 735.144 510.331 25176.4 1694.38 1180.88 784.418 826.128 233.231 1145.03
internal_count=324344 143875 180469 47627 96248 168081 37290 12388 81152 15096 79727 40894 36886 10337 13427 14783 32561 8606 9632 3782 32011 4729 3133 38833 22103 4396 5941 7530 1114 3976
is_linear=0
shrinkage=0.05


end of trees

feature_importances:
Column_22=9
Column_38=8
Column_7=7
Column_25=7
Column_21=6
Column_97=5
Column_19=4
Column_24=4
Column_46=4
Column_15=3
Column_113=3
Column_14=2
Column_20=2
Column_45=2
Column_70=2
Column_98=2
Column_108=2
Column_109=2
Column_2=1
Column_4=1
Column_6=1
Column_10=1
Column_13=1
Column_16=1
Column_23=1
Column_37=1
Column_43=1
Column_54=1
Column_64=1
Column_67=1
Column_110=1
Column_111=1
Column_112=1
Column_114=1

parameters:
[boosting: gbdt]
[objective: binary]
[metric: binary_logloss]
[tree_learner: serial]
[device_type: gpu]
[data_sample_strategy: bagging]
[data: ]
[valid: ]
[num_iterations: 1000]
[learning_rate: 0.05]
[num_leaves: 31]
[num_threads: 0]
[seed: 42]
[deterministic: 0]
[force_col_wise: 1]
[force_row_wise: 0]
[histogram_pool_size: -1]
[max_depth: 6]
[min_data_in_leaf: 20]
[min_sum_hessian_in_leaf: 5]
[bagging_fraction: 0.8]
[pos_bagging_fraction: 1]
[neg_bagging_fraction: 1]
[bagging_freq: 1]
[bagging_seed: 400]
[bagging_by_query: 0]
[feature_fraction: 0.8]
[feature_fraction_bynode: 1]
[feature_fraction_seed: 30056]
[extra_trees: 0]
[extra_seed: 12879]
[early_stopping_round: 0]
[early_stopping_min_delta: 0]
[first_metric_only: 0]
[max_delta_step: 0]
[lambda_l1: 0]
[lambda_l2: 0]
[linear_lambda: 0]
[min_gain_to_split: 0]
[drop_rate: 0.1]
[max_drop: 50]
[skip_drop: 0.5]
[xgboost_dart_mode: 0]
[uniform_drop: 0]
[drop_seed: 17869]
[top_rate: 0.2]
[other_rate: 0.1]
[min_data_per_group: 100]
[max_cat_threshold: 32]
[cat_l2: 10]
[cat_smooth: 10]
[max_cat_to_onehot: 4]
[top_k: 20]
[monotone_constraints: ]
[monotone_constraints_method: basic]
[monotone_penalty: 0]
[feature_contri: ]
[forcedsplits_filename: ]
[refit_decay_rate: 0.9]
[cegb_tradeoff: 1]
[cegb_penalty_split: 0]
[cegb_penalty_feature_lazy: ]
[cegb_penalty_feature_coupled: ]
[path_smooth: 0]
[interaction_constraints: ]
[verbosity: -1]
[saved_feature_importance_type: 0]
[use_quantized_grad: 0]
[num_grad_quant_bins: 4]
[quant_train_renew_leaf: 0]
[stochastic_rounding: 1]
[linear_tree: 0]
[max_bin: 255]
[max_bin_by_feature: ]
[min_data_in_bin: 3]
[bin_construct_sample_cnt: 200000]
[data_random_seed: 175]
[is_enable_sparse: 1]
[enable_bundle: 1]
[use_missing: 1]
[zero_as_missing: 0]
[feature_pre_filter: 1]
[pre_partition: 0]
[two_round: 0]
[header: 0]
[label_column: ]
[weight_column: ]
[group_column: ]
[ignore_column: ]
[categorical_feature: ]
[forcedbins_filename: ]
[precise_float_parser: 0]
[parser_config_file: ]
[objective_seed: 16083]
[num_class: 1]
[is_unbalance: 0]
[scale_pos_weight: 11.9117]
[sigmoid: 1]
[boost_from_average: 1]
[reg_sqrt: 0]
[alpha: 0.9]
[fair_c: 1]
[poisson_max_delta_step: 0.7]
[tweedie_variance_power: 1.5]
[lambdarank_truncation_level: 30]
[lambdarank_norm: 1]
[label_gain: ]
[lambdarank_position_bias_regularization: 0]
[eval_at: ]
[multi_error_top_k: 1]
[auc_mu_weights: ]
[num_machines: 1]
[local_listen_port: 12400]
[time_out: 120]
[machine_list_filename: ]
[machines: ]
[gpu_platform_id: -1]
[gpu_device_id: -1]
[gpu_use_dp: 0]
[num_gpu: 1]

end of parameters

pandas_categorical:null
