{"learner":{"attributes":{"best_iteration":"247","best_score":"0.06700471428068379"},"feature_names":["a_ax","a_ay","a_bodyangle","a_nose_vel_1000ms","a_nose_vel_2000ms","a_nose_vel_3000ms","a_nose_vel_500ms","a_speed","a_upper_vel_1000ms","a_upper_vel_2000ms","a_upper_vel_3000ms","a_upper_vel_500ms","a_vx","a_vy","a_x","a_y","aa_earleft_tailbase_dist","aa_earright_tailbase_dist","aa_neck_tailbase_dist","aa_nose_ear_right_dist","aa_nose_earleft_dist","aa_nose_hip_left_dist","aa_nose_hip_right_dist","aa_nose_tailbase_dist","approach_speed_agent","approach_speed_rel","approach_speed_target","as_a_speed_std_05","as_a_turn_jerk_05","as_body_iou","as_body_iou_mean_1s","as_speed_std_sum_05","as_t_speed_std_05","body_cosine","climb_approach_speed_wall","climb_dist_wall","climb_normal_vel","climb_tangent_vel","climb_wall_stick_score","curv_mean_30","curv_mean_60","dist_nose_el","dist_nose_er","dist_nose_hip_l","dist_nose_hip_r","dist_nose_neck","dist_nose_nose","dist_nose_tail","ejac_activity_memory_3s","ejac_dist_body","ejac_dist_body_diff","ejac_dist_gen_body","ejac_dist_gen_nose","ejac_is_still","ejac_prox_body","ejac_prox_gen","ejac_prox_nose_gen","ejac_static_score","follow_cos_body_mean_15","follow_cos_body_mean_30","follow_cos_body_mean_60","follow_cos_vel_mean_15","follow_cos_vel_mean_30","follow_cos_vel_mean_60","follow_dist_mean_15","follow_dist_mean_30","follow_dist_mean_60","follow_dist_std_15","follow_dist_std_30","follow_dist_std_60","follow_speed_agent_mean_15","follow_speed_agent_mean_30","follow_speed_agent_mean_60","follow_speed_target_mean_15","follow_speed_target_mean_30","follow_speed_target_mean_60","gaze_cosine","lateral_speed_agent","path_cum180","rel_dist","sb_att_approach_mean_10","sb_att_approach_mean_20","sb_att_approach_mean_30","sb_att_dist_delta_10","sb_att_dist_delta_20","sb_att_dist_delta_30","sb_att_rel_along_mean_10","sb_att_rel_along_mean_20","sb_att_rel_along_mean_30","sb_chase_dist_mean_10","sb_chase_dist_mean_20","sb_chase_dist_mean_30","sb_chase_speed_agent_mean_10","sb_chase_speed_agent_mean_20","sb_chase_speed_agent_mean_30","sb_chase_speed_target_mean_10","sb_chase_speed_target_mean_20","sb_chase_speed_target_mean_30","sb_esc_dist_gain_10","sb_esc_dist_gain_20","sb_esc_dist_gain_30","sb_esc_heading_cos_mean_10","sb_esc_heading_cos_mean_20","sb_esc_heading_cos_mean_30","sp_m10","sp_m160","sp_m40","sp_pct120","sp_pct60","sp_ratio","sp_s10","sp_s160","sp_s40","spd_asym_1s","spd_symkl_1s","turn_rate_30","x_e120","x_e60","x_ml120","x_ml240","y_e120","y_e60","y_ml120","y_ml240"],"feature_types":[],"gradient_booster":{"model":{"gbtree_model_param":{"num_parallel_tree":"1","num_trees":"250"},"iteration_indptr":[0,1,2,3,4,5,6,7,8,9,10,11,12,13,14,15,16,17,18,19,20,21,22,23,24,25,26,27,28,29,30,31,32,33,34,35,36,37,38,39,40,41,42,43,44,45,46,47,48,49,50,51,52,53,54,55,56,57,58,59,60,61,62,63,64,65,66,67,68,69,70,71,72,73,74,75,76,77,78,79,80,81,82,83,84,85,86,87,88,89,90,91,92,93,94,95,96,97,98,99,100,101,102,103,104,105,106,107,108,109,110,111,112,113,114,115,116,117,118,119,120,121,122,123,124,125,126,127,128,129,130,131,132,133,134,135,136,137,138,139,140,141,142,143,144,145,146,147,148,149,150,151,152,153,154,155,156,157,158,159,160,161,162,163,164,165,166,167,168,169,170,171,172,173,174,175,176,177,178,179,180,181,182,183,184,185,186,187,188,189,190,191,192,193,194,195,196,197,198,199,200,201,202,203,204,205,206,207,208,209,210,211,212,213,214,215,216,217,218,219,220,221,222,223,224,225,226,227,228,229,230,231,232,233,234,235,236,237,238,239,240,241,242,243,244,245,246,247,248,249,250],"tree_info":[0,0,0,0,0,0,0,0,0,0,0,0,0,0,0,0,0,0,0,0,0,0,0,0,0,0,0,0,0,0,0,0,0,0,0,0,0,0,0,0,0,0,0,0,0,0,0,0,0,0,0,0,0,0,0,0,0,0,0,0,0,0,0,0,0,0,0,0,0,0,0,0,0,0,0,0,0,0,0,0,0,0,0,0,0,0,0,0,0,0,0,0,0,0,0,0,0,0,0,0,0,0,0,0,0,0,0,0,0,0,0,0,0,0,0,0,0,0,0,0,0,0,0,0,0,0,0,0,0,0,0,0,0,0,0,0,0,0,0,0,0,0,0,0,0,0,0,0,0,0,0,0,0,0,0,0,0,0,0,0,0,0,0,0,0,0,0,0,0,0,0,0,0,0,0,0,0,0,0,0,0,0,0,0,0,0,0,0,0,0,0,0,0,0,0,0,0,0,0,0,0,0,0,0,0,0,0,0,0,0,0,0,0,0,0,0,0,0,0,0,0,0,0,0,0,0,0,0,0,0,0,0,0,0,0,0,0,0,0,0,0,0,0,0,0,0,0,0,0,0],"trees":[{"base_weights":[-2.2185063E-3,-1.6201519E0,1.3630099E0,-1.9747319E0,-3.3220702E-1,-1.1066462E0,1.5327034E0,-1.997977E0,-1.6701916E0,4.4284022E-1,-1.7991921E0,-1.6131179E0,7.6026464E-1,-8.8833046E-1,1.6130387E0,-9.996491E-2,-1.7564077E0,-5.9519595E-1,-1.8662188E0,-1.1335032E0,8.112083E-1,-1.9370873E0,4.87589E-2,-1.7556807E0,1.5829232E0,-1.733145E0,1.4962028E0,-1.9087565E0,-4.192011E-2,4.4173014E-1,1.6812837E0,6.083277E-1,-9.965157E-2,-1.7947881E0,9.351062E-1,3.3218157E-1,-1.9257565E0,-1.8577852E0,1.2553215E0,1.0340096E0,-1.3278359E0,-1.9781145E0,-6.281865E-1,-9.930796E-2,1.1824789E0,-1.8029873E0,1.1404752E0,9.833106E-2,-9.5061734E-2,1.1739278E0,-9.962229E-2,1.7706276E0,-1.5183961E0,1.141489E0,-1.9679198E0,7.896928E-1,-1.8393098E0,-1.6007448E0,8.442188E-1,1.7286654E0,1.0139105E0,-9.0697676E-2,9.492668E-2,3.1532545E-2,-9.9711195E-2,7.941155E-2,-9.816514E-2,-9.748428E-2,9.400509E-2,-9.942177E-2,-2.3148635E-2,-4.2543452E-2,-9.99284E-2,-6.0475737E-2,9.354371E-2,-4.0149175E-2,5.8624834E-2,-9.9834785E-2,2.0455776E-2,2.2386663E-2,-9.926196E-2,8.527797E-2,-9.904762E-2,8.11255E-2,-9.6923076E-2,-9.175324E-2,3.3241883E-2,-9.3650796E-2,9.738598E-2,9.034328E-2,3.268477E-2,9.345575E-2,-9.578948E-2,9.034328E-2,-9.862069E-2,3.4955915E-2,8.157613E-2,-9.99162E-2,-4.6152983E-2,-9.941691E-2,6.703826E-2,-9.978034E-2,6.0352173E-2,7.3515676E-2,-9.985053E-2,-5.7898033E-2,6.0065508E-2,9.1744915E-2,7.343667E-2,-1.0751175E-2,6.855046E-2],"categories":[],"categories_nodes":[],"categories_segments":[],"categories_sizes":[],"default_left":[0,0,0,0,0,0,0,0,0,0,0,0,0,0,0,0,0,0,0,0,0,0,0,0,0,0,0,0,0,0,0,0,0,0,0,0,0,0,0,0,0,0,0,0,0,0,0,0,0,0,0,0,0,0,0,0,0,0,0,0,0,0,0,0,0,0,0,0,0,0,0,0,0,0,0,0,0,0,0,0,0,0,0,0,0,0,0,0,0,0,0,0,0,0,0,0,0,0,0,0,0,0,0,0,0,0,0,0,0,0,0],"id":0,"left_children":[1,3,5,7,9,11,13,15,17,19,21,23,25,27,29,-1,31,33,35,37,39,41,43,45,47,49,51,53,55,57,59,61,-1,63,65,67,69,71,73,75,77,79,81,-1,83,85,87,-1,-1,89,-1,91,93,95,97,99,101,103,105,107,109,-1,-1,-1,-1,-1,-1,-1,-1,-1,-1,-1,-1,-1,-1,-1,-1,-1,-1,-1,-1,-1,-1,-1,-1,-1,-1,-1,-1,-1,-1,-1,-1,-1,-1,-1,-1,-1,-1,-1,-1,-1,-1,-1,-1,-1,-1,-1,-1,-1,-1],"loss_changes":[3.7424647E5,3.540983E4,3.8512016E4,4.2709375E2,1.9033816E4,5.5880522E3,1.6724828E4,1.4515625E1,9.087637E2,6.3615825E3,1.4747617E3,2.1206035E3,2.3175493E3,2.385586E3,6.6517656E3,0E0,1.7772919E2,1.2268262E3,4.785586E2,3.5930027E3,4.233229E3,2.8794336E2,9.316666E2,6.1174805E2,2.697804E2,2.194057E2,8.089551E2,2.2824268E2,2.2597434E3,3.769149E3,2.4849375E3,9.5516464E1,0E0,1.823916E2,5.5952673E2,3.4675336E2,3.250459E2,2.2410107E2,7.3574066E2,2.046957E3,9.7448145E2,9.112891E1,5.247051E2,0E0,3.5927277E2,3.478623E2,1.7912027E2,0E0,0E0,6.7909164E0,0E0,3.2806787E2,1.2714337E2,4.16193E0,3.7193848E1,1.5850339E3,2.301023E2,9.215471E2,2.739295E3,2.0248281E3,2.2891426E3,0E0,0E0,0E0,0E0,0E0,0E0,0E0,0E0,0E0,0E0,0E0,0E0,0E0,0E0,0E0,0E0,0E0,0E0,0E0,0E0,0E0,0E0,0E0,0E0,0E0,0E0,0E0,0E0,0E0,0E0,0E0,0E0,0E0,0E0,0E0,0E0,0E0,0E0,0E0,0E0,0E0,0E0,0E0,0E0,0E0,0E0,0E0,0E0,0E0,0E0],"parents":[2147483647,0,0,1,1,2,2,3,3,4,4,5,5,6,6,7,7,8,8,9,9,10,10,11,11,12,12,13,13,14,14,16,16,17,17,18,18,19,19,20,20,21,21,22,22,23,23,24,24,25,25,26,26,27,27,28,28,29,29,30,30,31,31,33,33,34,34,35,35,36,36,37,37,38,38,39,39,40,40,41,41,42,42,44,44,45,45,46,46,49,49,51,51,52,52,53,53,54,54,55,55,56,56,57,57,58,58,59,59,60,60],"right_children":[2,4,6,8,10,12,14,16,18,20,22,24,26,28,30,-1,32,34,36,38,40,42,44,46,48,50,52,54,56,58,60,62,-1,64,66,68,70,72,74,76,78,80,82,-1,84,86,88,-1,-1,90,-1,92,94,96,98,100,102,104,106,108,110,-1,-1,-1,-1,-1,-1,-1,-1,-1,-1,-1,-1,-1,-1,-1,-1,-1,-1,-1,-1,-1,-1,-1,-1,-1,-1,-1,-1,-1,-1,-1,-1,-1,-1,-1,-1,-1,-1,-1,-1,-1,-1,-1,-1,-1,-1,-1,-1,-1,-1],"split_conditions":[2.9869389E-2,8.026029E0,2.4970827E0,5.665104E-3,7.229539E0,8.8400507E-1,-1.673177E-1,4.874233E-2,-4.628228E0,2.8780918E0,1.6445772E1,1.1055765E1,1.3718385E1,6.063182E0,2.3996644E0,-9.996491E-2,1.4184011E0,6.6392916E-1,8.398474E-2,9.139733E0,7.980062E0,9.114502E0,4.064342E-3,4.622597E0,4.1756186E0,1.4988269E0,1.1731343E0,1.3165277E0,7.4958954E1,9.629653E0,6.1845856E0,9.970848E-4,-9.965157E-2,5.659349E0,6.247205E1,5.3603687E0,1.4558719E-1,6.5756106E-1,6.6926804E0,8.55081E0,5.160161E-1,5.331869E0,7.7354836E-1,-9.930796E-2,-4.628228E0,3.8192987E0,9.8099196E-1,9.833106E-2,-9.5061734E-2,-1.1392021E0,-9.962229E-2,6.629477E0,1.4261807E1,6.186962E-2,1.3922995E-1,4.8370857E0,6.058448E-1,-1.5660441E-1,3.836864E0,9.5396626E-1,5.904269E-2,-9.0697676E-2,9.492668E-2,3.1532545E-2,-9.9711195E-2,7.941155E-2,-9.816514E-2,-9.748428E-2,9.400509E-2,-9.942177E-2,-2.3148635E-2,-4.2543452E-2,-9.99284E-2,-6.0475737E-2,9.354371E-2,-4.0149175E-2,5.8624834E-2,-9.9834785E-2,2.0455776E-2,2.2386663E-2,-9.926196E-2,8.527797E-2,-9.904762E-2,8.11255E-2,-9.6923076E-2,-9.175324E-2,3.3241883E-2,-9.3650796E-2,9.738598E-2,9.034328E-2,3.268477E-2,9.345575E-2,-9.578948E-2,9.034328E-2,-9.862069E-2,3.4955915E-2,8.157613E-2,-9.99162E-2,-4.6152983E-2,-9.941691E-2,6.703826E-2,-9.978034E-2,6.0352173E-2,7.3515676E-2,-9.985053E-2,-5.7898033E-2,6.0065508E-2,9.1744915E-2,7.343667E-2,-1.0751175E-2,6.855046E-2],"split_indices":[30,48,111,30,65,40,58,57,113,75,74,43,122,72,75,0,43,39,95,23,42,99,30,110,66,20,42,105,78,48,49,30,0,4,78,11,2,106,35,15,81,66,9,0,113,72,103,0,0,84,0,75,15,50,59,96,60,60,66,60,30,0,0,0,0,0,0,0,0,0,0,0,0,0,0,0,0,0,0,0,0,0,0,0,0,0,0,0,0,0,0,0,0,0,0,0,0,0,0,0,0,0,0,0,0,0,0,0,0,0,0],"split_type":[0,0,0,0,0,0,0,0,0,0,0,0,0,0,0,0,0,0,0,0,0,0,0,0,0,0,0,0,0,0,0,0,0,0,0,0,0,0,0,0,0,0,0,0,0,0,0,0,0,0,0,0,0,0,0,0,0,0,0,0,0,0,0,0,0,0,0,0,0,0,0,0,0,0,0,0,0,0,0,0,0,0,0,0,0,0,0,0,0,0,0,0,0,0,0,0,0,0,0,0,0,0,0,0,0,0,0,0,0,0,0],"sum_hessian":[1.6942856E5,7.7538016E4,9.189055E4,6.0799074E4,1.6738938E4,5.9076226E3,8.598292E4,5.6482316E4,4.3167583E3,1.0952918E4,5.78602E3,4.647063E3,1.2605596E3,2.7611494E3,8.322177E4,5.6167855E4,3.1446097E2,6.6638696E2,3.6503713E3,2.074313E3,8.8786045E3,5.384199E3,4.0182056E2,4.449059E3,1.980041E2,2.8696097E2,9.7359863E2,1.2513164E3,1.5098329E3,4.582288E3,7.8639484E4,2.8460958E1,2.86E2,3.7346097E2,2.9292603E2,9.613287E1,3.5542383E3,1.5918829E3,4.824301E2,8.0415225E3,8.370822E2,5.2200664E3,1.6413287E2,1.435E2,2.5832056E2,4.377926E3,7.113287E1,1.787541E2,1.925E1,2.3210958E1,2.6375E2,8.927431E2,8.085548E1,2.3460958E1,1.2278555E3,1.032622E3,4.7721097E2,7.538438E2,3.8284446E3,7.342494E4,5.2145513E3,9.75E0,1.8710958E1,2.8210958E1,3.4525E2,2.3942603E2,5.35E1,3.875E1,5.7382874E1,3.4078555E3,1.4638287E2,1.9613287E2,1.39575E3,9.621096E1,3.8621918E2,5.633986E2,7.478124E3,6.0425E2,2.3283218E2,1.5105479E1,5.204961E3,6.0132874E1,1.04E2,2.2682054E2,3.15E1,4.322004E3,5.5921917E1,1.475E1,5.6382874E1,9.355479E0,1.3855479E1,8.699931E2,2.275E1,9.355479E0,7.15E1,1.3605479E1,9.855479E0,1.19225E3,3.560548E1,1.705E2,8.621219E2,4.5425E2,2.2960958E1,8.5843834E1,6.68E2,5.791212E2,3.2493232E3,5.2118363E4,2.1306572E4,1.1741569E3,4.0403945E3],"tree_param":{"num_deleted":"0","num_feature":"124","num_nodes":"111","size_leaf_vector":"1"}},{"base_weights":[-2.6647781E-3,-1.5354986E0,1.2956266E0,-1.8807763E0,-2.9343688E-1,-1.0839009E0,1.457096E0,-1.9022781E0,-1.598605E0,4.4996023E-1,-1.72518E0,-1.4995992E0,6.1792964E-1,-8.274289E-1,1.5345695E0,-9.520836E-2,-1.5728778E0,-5.354089E-1,-1.7965635E0,-4.4311038E-1,1.0835057E0,-1.8265818E0,-5.3876758E-2,-1.6253536E0,1.5103194E0,-1.6460847E0,1.3630514E0,-1.8473291E0,2.1655716E-3,3.2395583E-1,1.5965502E0,1.0129443E0,-9.493004E-2,-1.7081368E0,8.810783E-1,5.0491687E-2,-1.8440486E0,-8.436169E-1,1.0829054E0,1.2626715E0,-7.3916996E-1,-1.871406E0,-5.1644933E-1,-1.6613499E0,1.3614275E0,-1.788812E0,-5.200278E-1,9.308358E-2,-9.081866E-2,1.3298967E0,-9.489484E-2,1.6545374E0,-1.444634E0,-9.52305E-2,-5.7171935E-1,7.126167E-1,-9.572234E-2,-1.6047751E0,7.396222E-1,1.6074495E0,-1.0422878E0,-8.53036E-2,9.218022E-2,2.2577802E-2,-9.497512E-2,-9.652493E-2,7.520874E-2,-9.3158655E-2,8.649911E-2,-3.0343449E-2,-9.471583E-2,-7.66451E-2,4.8227713E-2,-9.922411E-2,8.730158E-2,-9.708663E-2,6.5934084E-2,-9.592146E-2,4.711035E-2,-9.5263086E-2,-5.3476065E-2,-9.440944E-2,7.914895E-2,-9.473414E-2,8.934219E-2,-9.057232E-2,8.069716E-2,-9.076475E-2,1.2446291E-2,-4.4022575E-2,9.2750035E-2,8.64242E-2,4.6086695E-2,8.9232855E-2,-9.5482E-2,8.64242E-2,-9.398206E-2,8.286979E-2,-9.319242E-2,-9.524619E-2,6.1710604E-2,6.3318886E-2,-9.510195E-2,-7.371784E-2,5.054112E-2,4.9349938E-2,8.261951E-2,-1.03646114E-1,9.390921E-2],"categories":[],"categories_nodes":[],"categories_segments":[],"categories_sizes":[],"default_left":[0,0,0,0,0,0,0,0,0,0,0,0,0,0,0,0,0,0,0,0,0,0,0,0,0,0,0,0,0,0,0,0,0,0,0,0,0,0,0,0,0,0,0,0,0,0,0,0,0,0,0,0,0,0,0,0,0,0,0,0,0,0,0,0,0,0,0,0,0,0,0,0,0,0,0,0,0,0,0,0,0,0,0,0,0,0,0,0,0,0,0,0,0,0,0,0,0,0,0,0,0,0,0,0,0,0,0,0,0],"id":1,"left_children":[1,3,5,7,9,11,13,15,17,19,21,23,25,27,29,-1,31,33,35,37,39,41,43,45,47,49,51,53,55,57,59,61,-1,63,65,67,69,71,73,75,77,79,81,83,85,87,89,-1,-1,91,-1,93,95,-1,97,99,-1,101,103,105,107,-1,-1,-1,-1,-1,-1,-1,-1,-1,-1,-1,-1,-1,-1,-1,-1,-1,-1,-1,-1,-1,-1,-1,-1,-1,-1,-1,-1,-1,-1,-1,-1,-1,-1,-1,-1,-1,-1,-1,-1,-1,-1,-1,-1,-1,-1,-1,-1],"loss_changes":[3.363082E5,3.3234375E4,3.5156547E4,3.6485938E2,1.7943912E4,4.1145967E3,1.5166344E4,3.20625E1,9.040332E2,6.2793994E3,9.763789E2,1.7714492E3,1.9291453E3,2.378447E3,6.2178438E3,0E0,2.7735638E2,1.125047E3,3.1799316E2,2.816085E3,2.1210557E3,3.1804297E2,7.544392E2,8.096885E2,2.2306427E2,2.1481921E2,7.061638E2,9.104248E1,2.1135007E3,3.2380974E3,2.2691562E3,8.724655E1,0E0,1.5392395E2,5.407375E2,2.9832956E2,2.1861426E2,4.5495415E3,1.9521211E3,1.0635654E3,1.1551741E3,1.4054883E2,5.244981E2,1.2829617E2,1.4422961E2,2.1135938E2,4.9763037E2,0E0,0E0,2.0979729E0,0E0,3.649275E2,1.1562627E2,0E0,1.6328067E2,1.5484028E3,0E0,6.136572E2,1.9963282E3,2.1875781E3,9.8179944E2,0E0,0E0,0E0,0E0,0E0,0E0,0E0,0E0,0E0,0E0,0E0,0E0,0E0,0E0,0E0,0E0,0E0,0E0,0E0,0E0,0E0,0E0,0E0,0E0,0E0,0E0,0E0,0E0,0E0,0E0,0E0,0E0,0E0,0E0,0E0,0E0,0E0,0E0,0E0,0E0,0E0,0E0,0E0,0E0,0E0,0E0,0E0,0E0],"parents":[2147483647,0,0,1,1,2,2,3,3,4,4,5,5,6,6,7,7,8,8,9,9,10,10,11,11,12,12,13,13,14,14,16,16,17,17,18,18,19,19,20,20,21,21,22,22,23,23,24,24,25,25,26,26,27,27,28,28,29,29,30,30,31,31,33,33,34,34,35,35,36,36,37,37,38,38,39,39,40,40,41,41,42,42,43,43,44,44,45,45,46,46,49,49,51,51,52,52,54,54,55,55,57,57,58,58,59,59,60,60],"right_children":[2,4,6,8,10,12,14,16,18,20,22,24,26,28,30,-1,32,34,36,38,40,42,44,46,48,50,52,54,56,58,60,62,-1,64,66,68,70,72,74,76,78,80,82,84,86,88,90,-1,-1,92,-1,94,96,-1,98,100,-1,102,104,106,108,-1,-1,-1,-1,-1,-1,-1,-1,-1,-1,-1,-1,-1,-1,-1,-1,-1,-1,-1,-1,-1,-1,-1,-1,-1,-1,-1,-1,-1,-1,-1,-1,-1,-1,-1,-1,-1,-1,-1,-1,-1,-1,-1,-1,-1,-1,-1,-1],"split_conditions":[2.9869389E-2,8.026029E0,2.4970827E0,5.665104E-3,7.229539E0,8.8400507E-1,-1.673177E-1,4.874233E-2,-4.628228E0,4.610059E0,1.3928226E-2,1.162111E1,1.3718385E1,6.063182E0,2.3094292E0,-9.520836E-2,1.4184011E0,6.6392916E-1,8.398474E-2,8.654237E-1,7.4158874E0,3.2847725E1,1.2045707E1,7.605448E-1,5.7029897E-1,1.4988269E0,1.1731343E0,-2.2098629E-1,7.2062974E0,9.629653E0,2.2458242E1,9.970848E-4,-9.493004E-2,5.659349E0,3.2383528E0,5.050459E0,3.3653562E0,7.2551074E0,2.9703388E1,7.21811E0,5.160161E-1,1.6445772E1,4.5750794E-1,1.0337391E0,8.137609E0,3.6777978E0,3.4114834E1,9.308358E-2,-9.081866E-2,-1.1392021E0,-9.489484E-2,6.5467052E0,1.4261807E1,-9.52305E-2,8.976811E-1,4.553911E0,-9.572234E-2,-1.5660441E-1,3.0449262E-1,1.3925599E-1,1.9136891E0,-8.53036E-2,9.218022E-2,2.2577802E-2,-9.497512E-2,-9.652493E-2,7.520874E-2,-9.3158655E-2,8.649911E-2,-3.0343449E-2,-9.471583E-2,-7.66451E-2,4.8227713E-2,-9.922411E-2,8.730158E-2,-9.708663E-2,6.5934084E-2,-9.592146E-2,4.711035E-2,-9.5263086E-2,-5.3476065E-2,-9.440944E-2,7.914895E-2,-9.473414E-2,8.934219E-2,-9.057232E-2,8.069716E-2,-9.076475E-2,1.2446291E-2,-4.4022575E-2,9.2750035E-2,8.64242E-2,4.6086695E-2,8.9232855E-2,-9.5482E-2,8.64242E-2,-9.398206E-2,8.286979E-2,-9.319242E-2,-9.524619E-2,6.1710604E-2,6.3318886E-2,-9.510195E-2,-7.371784E-2,5.054112E-2,4.9349938E-2,8.261951E-2,-1.03646114E-1,9.390921E-2],"split_indices":[30,48,111,30,65,40,58,57,113,75,30,43,122,72,75,0,43,39,95,103,45,119,75,83,60,20,42,58,105,48,120,30,0,4,32,11,21,16,117,15,81,74,62,40,106,72,116,0,0,84,0,21,15,0,20,74,0,60,40,55,69,0,0,0,0,0,0,0,0,0,0,0,0,0,0,0,0,0,0,0,0,0,0,0,0,0,0,0,0,0,0,0,0,0,0,0,0,0,0,0,0,0,0,0,0,0,0,0,0],"split_type":[0,0,0,0,0,0,0,0,0,0,0,0,0,0,0,0,0,0,0,0,0,0,0,0,0,0,0,0,0,0,0,0,0,0,0,0,0,0,0,0,0,0,0,0,0,0,0,0,0,0,0,0,0,0,0,0,0,0,0,0,0,0,0,0,0,0,0,0,0,0,0,0,0,0,0,0,0,0,0,0,0,0,0,0,0,0,0,0,0,0,0,0,0,0,0,0,0,0,0,0,0,0,0,0,0,0,0,0,0],"sum_hessian":[1.6899156E5,7.749571E4,9.149585E4,6.063846E4,1.6857246E4,5.8138E3,8.5682055E4,5.6339566E4,4.2988965E3,1.1096401E4,5.7608457E3,4.6725713E3,1.1412286E3,2.810054E3,8.2872E4,5.601355E4,3.260164E2,6.7536224E2,3.623534E3,4.60513E3,6.491271E3,5.431227E3,3.296182E2,4.485622E3,1.869492E2,2.8229144E2,8.5893726E2,1.2599049E3,1.550149E3,4.0365156E3,7.8835484E4,3.623636E1,2.8978003E2,3.6935916E2,3.0600308E2,9.0819534E1,3.5327146E3,3.6481194E3,9.570106E2,5.910579E3,5.806919E2,5.2511396E3,1.8008781E2,1.542502E2,1.7536801E2,3.9071973E3,5.7842474E2,1.6948883E2,1.7460367E1,2.1688595E1,2.6060284E2,7.785238E2,8.0413445E1,1.2052887E3,5.4616177E1,1.1313921E3,4.1875693E2,7.151752E2,3.3213406E3,7.851159E4,3.2389233E2,8.233057E0,2.8003304E1,2.9953512E1,3.3940567E2,5.5132473E1,2.5087062E2,4.239919E1,4.842035E1,1.3844409E2,3.3942705E3,2.6413674E3,1.0067519E3,1.6976146E2,7.8724915E2,1.00958565E2,5.8096206E3,3.412265E2,2.3946538E2,5.0370957E3,2.1404367E2,1.0898139E2,7.110642E1,1.4489589E2,9.354307E0,1.2472806E1,1.628952E2,3.8571772E3,5.0019974E1,5.0275778E2,7.566697E1,9.336415E0,1.235218E1,7.5158453E2,2.6939287E1,9.336415E0,7.1077034E1,1.9937805E1,3.467837E1,1.8755022E2,9.4384186E2,6.679259E1,6.4838257E2,3.6196384E2,2.9593767E3,5.3042437E3,7.320734E4,2.3962048E2,8.427186E1],"tree_param":{"num_deleted":"0","num_feature":"124","num_nodes":"109","size_leaf_vector":"1"}},{"base_weights":[-2.0582804E-3,-1.4706949E0,1.2406762E0,-3.25264E-1,-1.7184362E0,-1.0065634E0,1.3944314E0,-6.8375796E-1,1.3145174E0,1.3725609E0,-1.7353702E0,-1.6485082E0,-1.2044233E-1,-7.0268744E-1,1.4692776E0,-1.8254206E0,-3.459482E-1,-1.6772614E0,1.5677271E0,-9.185519E-2,1.8403493E0,-1.7561235E0,1.5366234E-1,-1.748143E0,2.6564887E-1,1.6904262E0,-5.659758E-1,-1.6700703E0,7.452297E-2,4.1543573E-1,1.5308152E0,-9.192946E-2,-1.2187135E0,-1.1355934E0,2.4830723E-1,-9.3375266E-2,9.221128E-2,1.6304545E0,-9.1871746E-2,9.313314E-2,5.7469953E-2,-8.918014E-1,-1.7801642E0,-9.5777385E-2,1.5474125E0,-1.789821E0,1.5537167E0,1.319044E0,-9.030049E-2,-8.848951E-2,1.8134727E0,1.4022605E0,-8.947131E-1,1.3325008E0,-1.7751105E0,7.300961E-1,-9.2050076E-2,6.245376E-1,-9.784171E-2,1.5722588E0,9.428566E-1,8.4331475E-2,-9.077387E-2,5.5238005E-2,-7.564709E-2,3.0235684E-2,-8.910934E-2,-5.0438173E-2,8.407523E-2,6.106015E-2,-7.115079E-2,-4.7957376E-2,-8.974351E-2,-9.300887E-2,8.640958E-2,-9.04765E-3,-9.0654805E-2,4.802512E-2,8.812093E-2,-8.634803E-2,8.974093E-2,9.141658E-2,5.488793E-2,9.148706E-2,-8.9750394E-2,-8.40259E-2,-1.9476463E-3,-7.949218E-2,9.327479E-2,-9.155909E-2,-2.5638932E-2,-8.888384E-2,6.408762E-2,5.5249173E-2,-1.6901372E-2,5.3624034E-2,8.110914E-2,-1.9332362E-2,6.461034E-2],"categories":[],"categories_nodes":[],"categories_segments":[],"categories_sizes":[],"default_left":[0,0,0,0,0,0,0,0,0,0,0,0,0,0,0,0,0,0,0,0,0,0,0,0,0,0,0,0,0,0,0,0,0,0,0,0,0,0,0,0,0,0,0,0,0,0,0,0,0,0,0,0,0,0,0,0,0,0,0,0,0,0,0,0,0,0,0,0,0,0,0,0,0,0,0,0,0,0,0,0,0,0,0,0,0,0,0,0,0,0,0,0,0,0,0,0,0,0,0],"id":2,"left_children":[1,3,5,7,9,11,13,15,17,19,21,23,25,27,29,31,33,35,37,-1,39,41,43,45,47,49,51,53,55,57,59,-1,61,63,65,-1,-1,67,-1,-1,-1,69,71,-1,73,75,77,79,-1,-1,81,83,85,87,89,91,-1,93,-1,95,97,-1,-1,-1,-1,-1,-1,-1,-1,-1,-1,-1,-1,-1,-1,-1,-1,-1,-1,-1,-1,-1,-1,-1,-1,-1,-1,-1,-1,-1,-1,-1,-1,-1,-1,-1,-1,-1,-1],"loss_changes":[3.065194E5,2.1842938E4,3.143325E4,8.048294E3,3.3150156E3,3.3138862E3,1.3365266E4,4.332019E3,1.8633643E3,5.219599E2,2.4678906E3,6.4478516E2,1.9765018E3,2.2066318E3,5.3307344E3,1.8251953E1,4.0688499E3,1.3217175E2,4.8681787E2,0E0,2.5143433E0,1.2920938E3,1.9782223E3,4.4471777E2,3.690469E2,2.0916858E2,1.2732397E3,4.147246E2,2.0460779E3,2.2518015E3,1.8912031E3,0E0,1.0267588E2,3.149308E3,3.5818997E3,0E0,0E0,3.0143018E2,0E0,0E0,0E0,1.8951589E3,7.29625E2,0E0,2.5566382E2,1.1844629E2,3.3294907E0,1.6535516E2,0E0,0E0,2.9656982E0,3.8835907E2,1.1331204E3,7.269076E1,8.850586E1,1.6815079E3,0E0,1.928961E3,0E0,1.8086406E3,2.3771519E3,0E0,0E0,0E0,0E0,0E0,0E0,0E0,0E0,0E0,0E0,0E0,0E0,0E0,0E0,0E0,0E0,0E0,0E0,0E0,0E0,0E0,0E0,0E0,0E0,0E0,0E0,0E0,0E0,0E0,0E0,0E0,0E0,0E0,0E0,0E0,0E0,0E0,0E0],"parents":[2147483647,0,0,1,1,2,2,3,3,4,4,5,5,6,6,7,7,8,8,9,9,10,10,11,11,12,12,13,13,14,14,15,15,16,16,17,17,18,18,20,20,21,21,22,22,23,23,24,24,25,25,26,26,27,27,28,28,29,29,30,30,32,32,33,33,34,34,37,37,41,41,42,42,44,44,45,45,46,46,47,47,50,50,51,51,52,52,53,53,54,54,55,55,57,57,59,59,60,60],"right_children":[2,4,6,8,10,12,14,16,18,20,22,24,26,28,30,32,34,36,38,-1,40,42,44,46,48,50,52,54,56,58,60,-1,62,64,66,-1,-1,68,-1,-1,-1,70,72,-1,74,76,78,80,-1,-1,82,84,86,88,90,92,-1,94,-1,96,98,-1,-1,-1,-1,-1,-1,-1,-1,-1,-1,-1,-1,-1,-1,-1,-1,-1,-1,-1,-1,-1,-1,-1,-1,-1,-1,-1,-1,-1,-1,-1,-1,-1,-1,-1,-1,-1,-1],"split_conditions":[2.9869389E-2,6.9054976E0,2.4970827E0,9.4250953E-1,5.977077E-1,2.3181639E0,-1.1376745E-1,-5.4761972E-2,3.3500793E0,8.320968E0,4.244677E-2,2.8445227E0,3.6924472E0,6.063182E0,2.3996644E0,8.426677E0,3.6777978E0,7.667043E0,1.2915766E0,-9.185519E-2,9.652764E0,2.095586E0,3.1759798E1,1.162111E1,1.2726998E1,3.0190132E0,2.474119E-1,3.6093646E-1,7.2062974E0,1.8034445E1,6.1845856E0,-9.192946E-2,7.259802E-1,3.7189832E0,1.0865965E0,-9.3375266E-2,9.221128E-2,3.7304766E0,-9.1871746E-2,9.313314E-2,5.7469953E-2,-6.0910835E0,4.0006824E0,-9.5777385E-2,1.652209E-1,8.4943706E-1,1.9920012E0,2.9312325E-1,-9.030049E-2,-8.848951E-2,9.72025E-1,-2.954928E-1,2.8490183E0,1.0363078E1,6.270012E0,8.963139E0,-9.2050076E-2,1.5133548E1,-9.784171E-2,3.1871886E0,5.904269E-2,8.4331475E-2,-9.077387E-2,5.5238005E-2,-7.564709E-2,3.0235684E-2,-8.910934E-2,-5.0438173E-2,8.407523E-2,6.106015E-2,-7.115079E-2,-4.7957376E-2,-8.974351E-2,-9.300887E-2,8.640958E-2,-9.04765E-3,-9.0654805E-2,4.802512E-2,8.812093E-2,-8.634803E-2,8.974093E-2,9.141658E-2,5.488793E-2,9.148706E-2,-8.9750394E-2,-8.40259E-2,-1.9476463E-3,-7.949218E-2,9.327479E-2,-9.155909E-2,-2.5638932E-2,-8.888384E-2,6.408762E-2,5.5249173E-2,-1.6901372E-2,5.3624034E-2,8.110914E-2,-1.9332362E-2,6.461034E-2],"split_indices":[30,49,111,76,45,72,58,59,111,75,57,109,117,72,75,35,72,8,68,0,96,44,117,43,122,10,32,5,105,123,49,0,73,118,68,0,0,16,0,0,0,35,65,0,39,20,27,98,0,0,103,88,105,15,85,4,0,116,0,72,30,0,0,0,0,0,0,0,0,0,0,0,0,0,0,0,0,0,0,0,0,0,0,0,0,0,0,0,0,0,0,0,0,0,0,0,0,0,0],"split_type":[0,0,0,0,0,0,0,0,0,0,0,0,0,0,0,0,0,0,0,0,0,0,0,0,0,0,0,0,0,0,0,0,0,0,0,0,0,0,0,0,0,0,0,0,0,0,0,0,0,0,0,0,0,0,0,0,0,0,0,0,0,0,0,0,0,0,0,0,0,0,0,0,0,0,0,0,0,0,0,0,0,0,0,0,0,0,0,0,0,0,0,0,0,0,0,0,0,0,0],"sum_hessian":[1.6794233E5,7.697489E4,9.096744E4,1.36885E4,6.3286387E4,5.82503E3,8.514241E4,1.1233238E4,2.4552617E3,3.4438672E2,6.2942E4,3.3774192E3,2.4476106E3,2.9337312E3,8.220867E4,2.5638936E3,8.669345E3,1.9114772E2,2.264114E3,4.3435177E1,3.0095154E2,6.225809E4,6.839114E2,3.2103997E3,1.6701947E2,4.8273642E2,1.9648741E3,1.3064556E3,1.6272755E3,4.536037E3,7.767264E4,2.5074397E3,5.645394E1,3.7222786E3,4.947066E3,1.817961E2,9.3516245E0,2.223672E3,4.0441742E1,2.8989398E2,1.1057566E1,1.6858525E3,6.057224E4,2.7510562E2,4.0880576E2,3.1708335E3,3.956619E1,1.10961266E2,5.6058197E1,1.6117228E1,4.666192E2,2.807407E2,1.6841334E3,4.376447E1,1.2626912E3,1.2128173E3,4.1445828E2,4.1692764E3,3.6676083E2,7.255664E4,5.1159956E3,9.308627E0,4.7145317E1,5.3629803E2,3.1859805E3,4.208979E3,7.380871E2,4.183991E1,2.1818323E3,3.3842093E2,1.3474316E3,1.0670314E3,5.9505207E4,2.0127289E1,3.8867847E2,4.534251E1,3.125491E3,1.1755275E1,2.7810913E1,1.4635037E1,9.632623E1,4.5560587E2,1.101333E1,2.4800916E2,3.2731552E1,8.7744904E2,8.066844E2,6.4449215E0,3.731955E1,1.2085577E3,5.4133335E1,2.1828654E2,9.945307E2,2.7810305E3,1.3882461E3,6.591631E3,6.596501E4,1.0645574E3,4.051438E3],"tree_param":{"num_deleted":"0","num_feature":"124","num_nodes":"99","size_leaf_vector":"1"}},{"base_weights":[9.705672E-3,-1.4009871E0,1.1925228E0,-1.7283089E0,-2.356552E-1,-9.434385E-1,1.3378652E0,-1.2538605E0,-1.7435486E0,4.4909522E-1,-1.5751189E0,-1.5796043E0,-9.060504E-2,-6.768604E-1,1.4065487E0,-1.5891374E0,1.830722E-1,-1.7486495E0,-1.2240957E0,-3.3519766E-1,1.018227E0,-1.6897708E0,2.856141E-2,-1.6474675E0,6.8941534E-1,-1.7231817E0,2.9933628E-1,-1.6703225E0,8.907135E-2,2.2725804E-2,1.4519413E0,9.700657E-1,-1.7206553E0,1.434512E0,-8.823879E-2,-1.5349723E0,-1.7517539E0,1.5464953E0,-8.7649405E-2,-9.427418E-1,6.675578E-1,1.1164508E0,-1.6443998E0,-1.7272203E0,-3.860274E-1,-8.868059E-2,1.1383252E0,-1.7071325E0,5.8112186E-1,-8.624353E-2,9.291241E-2,-8.97898E-2,5.0186735E-2,-1.4257137E0,6.0600555E-1,1.032337E0,-1.7227519E0,7.210431E-1,-8.789855E-2,-1.631459E0,5.7560295E-1,6.0299164E-1,1.48308E0,-8.468862E-2,9.170693E-2,-8.8359855E-2,3.5556562E-2,8.7992616E-2,-8.3956614E-2,-8.750767E-2,-9.157139E-3,-7.47295E-2,-8.770578E-2,-7.804122E-2,9.047743E-2,-8.002131E-2,9.237215E-3,5.9046414E-2,-9.3835585E-2,6.28593E-2,-5.2978448E-3,-9.002866E-2,9.1355175E-2,-8.737262E-2,-2.0123303E-2,-8.7021954E-2,8.4030464E-2,-8.941006E-2,7.743633E-2,-8.643529E-2,6.0967393E-2,8.903846E-2,-8.5356556E-2,-8.8659264E-2,3.6650438E-2,4.8014518E-2,-3.9171323E-2,8.165861E-2,2.7117673E-2,-8.7544195E-2,-3.7848037E-2,-9.102877E-2,6.1064508E-2,4.3552708E-2,-9.188725E-2,4.981827E-2,-7.751204E-2,4.3151107E-2,-1.0464134E-1,4.415072E-2,7.622984E-2],"categories":[],"categories_nodes":[],"categories_segments":[],"categories_sizes":[],"default_left":[0,0,0,0,0,0,0,0,0,0,0,0,0,0,0,0,0,0,0,0,0,0,0,0,0,0,0,0,0,0,0,0,0,0,0,0,0,0,0,0,0,0,0,0,0,0,0,0,0,0,0,0,0,0,0,0,0,0,0,0,0,0,0,0,0,0,0,0,0,0,0,0,0,0,0,0,0,0,0,0,0,0,0,0,0,0,0,0,0,0,0,0,0,0,0,0,0,0,0,0,0,0,0,0,0,0,0,0,0,0,0],"id":3,"left_children":[1,3,5,7,9,11,13,15,17,19,21,23,25,27,29,31,33,35,37,39,41,43,45,47,49,51,53,55,57,59,61,63,65,67,-1,69,71,73,-1,75,77,79,81,83,85,-1,87,89,91,-1,-1,-1,-1,93,95,97,99,101,-1,103,105,107,109,-1,-1,-1,-1,-1,-1,-1,-1,-1,-1,-1,-1,-1,-1,-1,-1,-1,-1,-1,-1,-1,-1,-1,-1,-1,-1,-1,-1,-1,-1,-1,-1,-1,-1,-1,-1,-1,-1,-1,-1,-1,-1,-1,-1,-1,-1,-1,-1],"loss_changes":[2.7949675E5,2.9138984E4,2.828632E4,4.2903125E2,1.5366866E4,3.1494834E3,1.1805578E4,8.9622534E2,1.5095312E2,4.949122E3,1.0421123E3,5.131221E2,1.5801586E3,2.140609E3,5.1819062E3,5.092173E2,8.6232733E2,3.5265625E1,8.309561E2,2.8413518E3,1.6821685E3,2.5758496E2,7.6029E2,4.303086E2,2.7766852E2,9.656152E1,1.0609078E3,1.7530908E2,1.8564562E3,2.3980867E3,2.1106094E3,1.7423146E2,1.6362451E2,2.2105359E2,0E0,2.4038562E2,3.1609375E1,7.731633E1,0E0,2.1537463E3,2.3008276E3,1.066227E3,1.2743628E2,1.3709961E2,4.1993527E2,0E0,2.8532184E2,2.0064844E2,2.3618835E2,0E0,0E0,0E0,0E0,2.2839227E2,8.385878E2,6.1593056E0,3.1324707E1,1.5087134E3,0E0,3.4069067E2,1.7594006E3,1.9840574E3,1.918125E3,0E0,0E0,0E0,0E0,0E0,0E0,0E0,0E0,0E0,0E0,0E0,0E0,0E0,0E0,0E0,0E0,0E0,0E0,0E0,0E0,0E0,0E0,0E0,0E0,0E0,0E0,0E0,0E0,0E0,0E0,0E0,0E0,0E0,0E0,0E0,0E0,0E0,0E0,0E0,0E0,0E0,0E0,0E0,0E0,0E0,0E0,0E0,0E0],"parents":[2147483647,0,0,1,1,2,2,3,3,4,4,5,5,6,6,7,7,8,8,9,9,10,10,11,11,12,12,13,13,14,14,15,15,16,16,17,17,18,18,19,19,20,20,21,21,22,22,23,23,24,24,25,25,26,26,27,27,28,28,29,29,30,30,31,31,32,32,33,33,35,35,36,36,37,37,39,39,40,40,41,41,42,42,43,43,44,44,46,46,47,47,48,48,53,53,54,54,55,55,56,56,57,57,59,59,60,60,61,61,62,62],"right_children":[2,4,6,8,10,12,14,16,18,20,22,24,26,28,30,32,34,36,38,40,42,44,46,48,50,52,54,56,58,60,62,64,66,68,-1,70,72,74,-1,76,78,80,82,84,86,-1,88,90,92,-1,-1,-1,-1,94,96,98,100,102,-1,104,106,108,110,-1,-1,-1,-1,-1,-1,-1,-1,-1,-1,-1,-1,-1,-1,-1,-1,-1,-1,-1,-1,-1,-1,-1,-1,-1,-1,-1,-1,-1,-1,-1,-1,-1,-1,-1,-1,-1,-1,-1,-1,-1,-1,-1,-1,-1,-1,-1,-1],"split_conditions":[2.9869389E-2,8.026029E0,2.4970827E0,5.3514214E0,7.229539E0,2.3181639E0,-1.673177E-1,6.059569E0,1.11758795E1,4.610059E0,1.6445772E1,3.6582072E0,2.1208153E0,6.063182E0,1.9507083E0,1.4184011E0,5.868795E0,-1.3943099E1,5.515409E0,8.206673E0,1.0051161E1,1.2133152E1,4.064342E-3,3.4114834E1,6.6926804E0,8.83543E-1,3.9580076E0,1.3165277E0,7.2062974E0,1.1077064E1,6.4151397E0,3.05809E-1,5.0658984E0,-8.118818E-1,-8.823879E-2,4.355065E1,1.0906199E0,5.841949E0,-8.7649405E-2,2.7547813E1,7.296428E0,1.7049415E0,9.557807E-1,3.7379234E0,5.021964E-1,-8.868059E-2,6.2389004E-1,3.195039E0,3.6304793E0,-8.624353E-2,9.291241E-2,-8.97898E-2,5.0186735E-2,3.6777978E0,2.5362391E0,-2.6910782E-2,1.3922995E-1,4.8370857E0,-8.789855E-2,2.5E-2,4.273241E0,7.8489586E1,3.7063156E1,-8.468862E-2,9.170693E-2,-8.8359855E-2,3.5556562E-2,8.7992616E-2,-8.3956614E-2,-8.750767E-2,-9.157139E-3,-7.47295E-2,-8.770578E-2,-7.804122E-2,9.047743E-2,-8.002131E-2,9.237215E-3,5.9046414E-2,-9.3835585E-2,6.28593E-2,-5.2978448E-3,-9.002866E-2,9.1355175E-2,-8.737262E-2,-2.0123303E-2,-8.7021954E-2,8.4030464E-2,-8.941006E-2,7.743633E-2,-8.643529E-2,6.0967393E-2,8.903846E-2,-8.5356556E-2,-8.8659264E-2,3.6650438E-2,4.8014518E-2,-3.9171323E-2,8.165861E-2,2.7117673E-2,-8.7544195E-2,-3.7848037E-2,-9.102877E-2,6.1064508E-2,4.3552708E-2,-9.188725E-2,4.981827E-2,-7.751204E-2,4.3151107E-2,-1.0464134E-1,4.415072E-2,7.622984E-2],"split_indices":[30,48,111,49,65,72,58,11,27,75,97,93,19,72,75,43,4,87,111,23,43,100,30,116,35,50,66,105,105,48,48,63,36,85,0,114,41,21,0,119,5,100,76,19,61,0,59,105,65,0,0,0,0,72,20,100,59,96,0,107,111,78,78,0,0,0,0,0,0,0,0,0,0,0,0,0,0,0,0,0,0,0,0,0,0,0,0,0,0,0,0,0,0,0,0,0,0,0,0,0,0,0,0,0,0,0,0,0,0,0,0],"split_type":[0,0,0,0,0,0,0,0,0,0,0,0,0,0,0,0,0,0,0,0,0,0,0,0,0,0,0,0,0,0,0,0,0,0,0,0,0,0,0,0,0,0,0,0,0,0,0,0,0,0,0,0,0,0,0,0,0,0,0,0,0,0,0,0,0,0,0,0,0,0,0,0,0,0,0,0,0,0,0,0,0,0,0,0,0,0,0,0,0,0,0,0,0,0,0,0,0,0,0,0,0,0,0,0,0,0,0,0,0,0,0],"sum_hessian":[1.675026E5,7.63925E4,9.111009E4,5.9640133E4,1.6752367E4,5.804298E3,8.53058E4,1.858671E3,5.778146E4,1.1085822E4,5.666545E3,3.3239592E3,2.4803386E3,2.811974E3,8.249382E4,1.5069509E3,3.5172012E2,5.721724E4,5.6422205E2,4.661898E3,6.4239243E3,5.2884067E3,3.7813806E2,3.2276973E3,9.626198E1,4.775499E2,2.0027887E3,1.2236464E3,1.5883279E3,2.6200916E3,7.987373E4,7.334553E1,1.4336053E3,2.1430103E2,1.374191E2,8.2648615E2,5.639075E4,9.0133865E1,4.740882E2,2.9030645E3,1.7588335E3,6.195938E3,2.2798643E2,5.140426E3,1.4798135E2,1.4388364E2,2.3425441E2,3.1437644E3,8.393265E1,3.1245998E1,6.5015976E1,4.654958E2,1.2054086E1,3.017517E2,1.701037E3,2.2930294E1,1.2007161E3,1.1838718E3,4.044561E2,6.558539E2,1.9642375E3,2.8267673E3,7.704696E4,1.7728958E1,5.5616573E1,1.4069512E3,2.6654184E1,1.9442105E2,1.9879984E1,7.1273926E2,1.1374687E2,5.1890454E2,5.5871848E4,6.649779E0,8.3484085E1,1.833266E3,1.0697986E3,1.4639755E3,2.948581E2,5.556225E3,6.397132E2,2.186321E2,9.354329E0,5.062786E3,7.76394E1,8.9490074E1,5.8491276E1,2.8397532E1,2.0585687E2,3.1211653E3,2.259912E1,5.5209896E1,2.8722752E1,2.6006912E2,4.1682583E1,1.3556699E3,3.4536707E2,9.252021E0,1.3678272E1,1.165941E3,3.477502E1,1.9425842E2,9.896134E2,4.9700527E1,6.061534E2,1.6401404E3,3.2409717E2,2.5787124E3,2.4805495E2,4.9871484E3,7.205981E4],"tree_param":{"num_deleted":"0","num_feature":"124","num_nodes":"111","size_leaf_vector":"1"}},{"base_weights":[1.6824324E-5,-1.3665196E0,1.1388868E0,-1.5546942E0,-6.844024E-2,-9.2714584E-1,1.2797315E0,1.426217E0,-1.583537E0,-7.013832E-1,7.180995E-1,-1.3315302E0,6.182387E-1,-6.8282294E-1,1.3475072E0,-8.78347E-2,1.5791987E0,-6.9731796E-1,-1.6258782E0,-1.0640476E0,8.1280434E-1,-1.4119964E0,1.0220225E0,-1.5335006E0,7.966363E-1,-1.5158236E0,1.2696745E0,-1.3594085E0,2.6886374E-1,5.554685E-2,1.3930979E0,1.6865218E0,-8.897887E-2,-1.4166523E0,4.3606862E-1,-1.64092E0,-5.0299007E-1,1.1529666E0,-1.3351793E0,1.4402885E0,-8.614569E-2,-1.610914E0,8.169932E-2,1.2137673E0,-1.6699697E0,-1.5833464E0,1.1286486E0,1.6713856E0,-8.594295E-2,-8.800346E-2,9.8470277E-1,1.4912703E0,-8.829964E-2,1.4093302E0,-1.4685447E0,-1.7807451E0,7.9383516E-1,-5.698003E-1,1.3906484E0,7.8853637E-1,1.435371E0,-7.590139E-2,8.608794E-2,-7.9071596E-2,2.1923171E-2,-8.6219184E-2,5.5379827E-2,-5.610565E-2,-8.320747E-2,-7.1186185E-2,6.030903E-2,-8.8753216E-2,9.408422E-2,-7.389274E-2,1.5976474E-2,7.94526E-2,-9.036706E-2,-8.683529E-2,2.5016729E-2,-1.3254213E-2,7.12004E-2,7.946101E-2,-9.0116486E-2,-8.116306E-2,4.152323E-2,-7.915831E-2,8.355016E-2,8.941704E-2,-8.1541464E-2,-7.483337E-2,9.014922E-2,7.918542E-2,-8.849221E-2,8.85682E-2,-7.422319E-2,-7.9173885E-2,1.3038136E-2,-8.575595E-2,-1.04369044E-1,6.52936E-2,-7.097562E-2,2.3016261E-3,-1.00148045E-1,7.682328E-2,-1.104906E-1,-2.5132392E-2,5.8266517E-2,7.632453E-2,5.810517E-2],"categories":[],"categories_nodes":[],"categories_segments":[],"categories_sizes":[],"default_left":[0,0,0,0,0,0,0,0,0,0,0,0,0,0,0,0,0,0,0,0,0,0,0,0,0,0,0,0,0,0,0,0,0,0,0,0,0,0,0,0,0,0,0,0,0,0,0,0,0,0,0,0,0,0,0,0,0,0,0,0,0,0,0,0,0,0,0,0,0,0,0,0,0,0,0,0,0,0,0,0,0,0,0,0,0,0,0,0,0,0,0,0,0,0,0,0,0,0,0,0,0,0,0,0,0,0,0,0,0],"id":4,"left_children":[1,3,5,7,9,11,13,15,17,19,21,23,25,27,29,-1,31,33,35,37,39,41,43,45,47,49,51,53,55,57,59,61,-1,63,65,67,69,71,73,75,-1,77,-1,79,81,83,85,87,-1,-1,89,91,-1,93,95,97,99,101,103,105,107,-1,-1,-1,-1,-1,-1,-1,-1,-1,-1,-1,-1,-1,-1,-1,-1,-1,-1,-1,-1,-1,-1,-1,-1,-1,-1,-1,-1,-1,-1,-1,-1,-1,-1,-1,-1,-1,-1,-1,-1,-1,-1,-1,-1,-1,-1,-1,-1],"loss_changes":[2.572685E5,1.8354672E4,2.6238047E4,5.6448906E3,4.7373364E3,3.597248E3,1.1228641E4,3.0927283E2,2.4379219E3,2.8963394E3,2.7483933E3,1.9619473E3,1.6621935E3,1.8151366E3,4.8058438E3,0E0,2.1968774E2,2.4184985E3,1.0469688E3,2.558815E3,1.6244985E3,3.2390393E2,1.9190532E3,5.546836E2,8.743564E2,1.7259088E2,6.184877E2,4.998833E2,1.2624192E3,2.3236145E3,2.0130312E3,6.844739E1,0E0,5.5535034E2,1.6735542E3,7.358906E2,1.2944532E3,9.936491E2,8.9551953E2,3.9794482E2,0E0,1.3318994E2,0E0,1.0784878E3,1.09574036E2,3.954502E2,1.161374E2,1.16605286E2,0E0,0E0,5.454702E1,2.6017188E2,0E0,6.8617134E1,3.1553296E2,1.2349243E0,1.0600046E3,1.6729519E3,4.6946924E2,2.5075122E3,1.8323594E3,0E0,0E0,0E0,0E0,0E0,0E0,0E0,0E0,0E0,0E0,0E0,0E0,0E0,0E0,0E0,0E0,0E0,0E0,0E0,0E0,0E0,0E0,0E0,0E0,0E0,0E0,0E0,0E0,0E0,0E0,0E0,0E0,0E0,0E0,0E0,0E0,0E0,0E0,0E0,0E0,0E0,0E0,0E0,0E0,0E0,0E0,0E0,0E0],"parents":[2147483647,0,0,1,1,2,2,3,3,4,4,5,5,6,6,7,7,8,8,9,9,10,10,11,11,12,12,13,13,14,14,16,16,17,17,18,18,19,19,20,20,21,21,22,22,23,23,24,24,25,25,26,26,27,27,28,28,29,29,30,30,31,31,33,33,34,34,35,35,36,36,37,37,38,38,39,39,41,41,43,43,44,44,45,45,46,46,47,47,50,50,51,51,53,53,54,54,55,55,56,56,57,57,58,58,59,59,60,60],"right_children":[2,4,6,8,10,12,14,16,18,20,22,24,26,28,30,-1,32,34,36,38,40,42,44,46,48,50,52,54,56,58,60,62,-1,64,66,68,70,72,74,76,-1,78,-1,80,82,84,86,88,-1,-1,90,92,-1,94,96,98,100,102,104,106,108,-1,-1,-1,-1,-1,-1,-1,-1,-1,-1,-1,-1,-1,-1,-1,-1,-1,-1,-1,-1,-1,-1,-1,-1,-1,-1,-1,-1,-1,-1,-1,-1,-1,-1,-1,-1,-1,-1,-1,-1,-1,-1,-1,-1,-1,-1,-1,-1],"split_conditions":[2.9869389E-2,3.1400076E-1,2.4970827E0,5.977077E-1,4.0706277E-1,8.8400507E-1,-1.7924581E-1,5.1964555E0,2.5670664E0,9.260728E0,2.6799197E0,7.5482354E0,1.3718385E1,7.799298E0,2.1221762E0,-8.78347E-2,4.6592632E-1,8.7101006E1,3.7030987E-2,3.7189832E0,1.0705268E1,3.3736267E1,1.2164702E0,4.622597E0,8.398474E-2,7.000589E1,3.0822294E0,3.6093646E-1,4.632499E0,3.0064802E1,1.3925599E-1,3.5274296E0,-8.897887E-2,8.898802E-2,-8.118818E-1,4.2736864E0,3.240755E1,1.9414528E1,9.385861E0,7.0753555E0,-8.614569E-2,9.9010843E-1,8.169932E-2,3.4586341E0,1.13016315E-1,3.8192987E0,9.8099196E-1,5.7029897E-1,-8.594295E-2,-8.800346E-2,3.0674741E0,6.629477E0,-8.829964E-2,-9.998415E-1,6.270012E0,-1.673177E-1,8.048288E1,1.9418089E1,1.6985976E0,5.904269E-2,9.6716547E-1,-7.590139E-2,8.608794E-2,-7.9071596E-2,2.1923171E-2,-8.6219184E-2,5.5379827E-2,-5.610565E-2,-8.320747E-2,-7.1186185E-2,6.030903E-2,-8.8753216E-2,9.408422E-2,-7.389274E-2,1.5976474E-2,7.94526E-2,-9.036706E-2,-8.683529E-2,2.5016729E-2,-1.3254213E-2,7.12004E-2,7.946101E-2,-9.0116486E-2,-8.116306E-2,4.152323E-2,-7.915831E-2,8.355016E-2,8.941704E-2,-8.1541464E-2,-7.483337E-2,9.014922E-2,7.918542E-2,-8.849221E-2,8.85682E-2,-7.422319E-2,-7.9173885E-2,1.3038136E-2,-8.575595E-2,-1.04369044E-1,6.52936E-2,-7.097562E-2,2.3016261E-3,-1.00148045E-1,7.682328E-2,-1.104906E-1,-2.5132392E-2,5.8266517E-2,7.632453E-2,5.810517E-2],"split_indices":[30,54,111,45,103,40,33,72,44,23,75,41,122,94,72,0,67,78,57,118,46,116,68,110,95,78,46,5,96,119,55,75,0,57,85,89,119,121,111,5,0,39,0,111,27,72,103,60,0,0,12,75,0,2,85,58,78,116,8,30,60,0,0,0,0,0,0,0,0,0,0,0,0,0,0,0,0,0,0,0,0,0,0,0,0,0,0,0,0,0,0,0,0,0,0,0,0,0,0,0,0,0,0,0,0,0,0,0,0],"split_type":[0,0,0,0,0,0,0,0,0,0,0,0,0,0,0,0,0,0,0,0,0,0,0,0,0,0,0,0,0,0,0,0,0,0,0,0,0,0,0,0,0,0,0,0,0,0,0,0,0,0,0,0,0,0,0,0,0,0,0,0,0,0,0,0,0,0,0,0,0,0,0,0,0,0,0,0,0,0,0,0,0,0,0,0,0,0,0,0,0,0,0,0,0,0,0,0,0,0,0,0,0,0,0,0,0,0,0,0,0],"sum_hessian":[1.6530498E5,7.5141766E4,9.016322E4,6.56279E4,9.513869E3,5.75393E3,8.440929E4,6.284549E2,6.4999445E4,5.271724E3,4.242145E3,4.560668E3,1.1932622E3,2.8174163E3,8.1591875E4,2.833976E1,6.001152E2,2.9646914E3,6.2034754E4,4.2533076E3,1.0184163E3,5.29239E2,3.712906E3,4.165616E3,3.9505185E2,2.787542E2,9.14508E2,1.6464628E3,1.1709534E3,2.7811494E3,7.881073E4,5.8201587E2,1.8099293E1,1.8134723E3,1.1512191E3,6.1214285E4,8.204675E2,4.6312582E2,3.790182E3,8.1673944E2,2.0167688E2,4.9723807E2,3.200094E1,3.466541E3,2.46365E2,4.089451E3,7.616519E1,2.9336972E2,1.0168211E2,2.5421884E2,2.4535381E1,8.5276697E2,6.1741005E1,6.1986233E1,1.5844766E3,2.3827625E2,9.326771E2,1.8944042E3,8.867453E2,5.1518745E3,7.365885E4,5.8725305E0,5.761433E2,1.665668E3,1.4780438E2,2.7260886E2,8.786102E2,2.6254978E3,5.858879E4,5.333291E2,2.8713846E2,9.2005684E1,3.7112012E2,3.4894172E3,3.0076462E2,7.814543E2,3.5285133E1,4.6944513E2,2.7792933E1,4.3144672E2,3.0350942E3,9.18518E0,2.3717982E2,4.0232498E3,6.620113E1,1.2374198E1,6.3790997E1,2.837776E2,9.592157E0,5.878943E0,1.8656439E1,8.297613E2,2.3005663E1,5.543838E1,6.547853E0,1.4858113E3,9.8665306E1,2.0170149E2,3.657474E1,7.5778156E2,1.7489557E2,1.3257107E3,5.686935E2,8.5278125E2,3.3964027E1,1.1637257E3,3.9881487E3,5.52361E4,1.8422752E4],"tree_param":{"num_deleted":"0","num_feature":"124","num_nodes":"109","size_leaf_vector":"1"}},{"base_weights":[9.1629545E-4,-1.3149585E0,1.0975116E0,-1.6196467E0,-2.3521498E-1,-8.8773614E-1,1.2323623E0,-1.6346639E0,-1.4207498E0,3.5429555E-1,-1.4987782E0,-1.2706287E0,5.648388E-1,-6.8438643E-1,1.2967016E0,-8.1783906E-2,-1.4510412E0,-6.257532E-1,-1.5573055E0,-9.3983775E-1,6.527261E-1,4.9078113E-1,-1.5429002E0,-1.4307114E0,9.450612E-1,-1.4636608E0,1.19678E0,-1.5786759E0,8.399243E-2,2.5381207E-1,1.355797E0,6.447766E-1,-8.217679E-2,-1.4755883E0,6.8717265E-1,-9.3047905E-1,-1.6372675E0,-1.5750604E0,1.0584679E0,8.7530065E-1,-8.4735054E-1,-8.2024135E-2,1.8188823E0,-1.5988582E0,9.8094635E-2,-1.482555E0,8.865243E-1,-8.2713224E-2,1.5784348E0,1.1442497E0,-8.4631234E-2,1.4355224E0,-8.504474E-2,-1.6293906E0,1.0843871E0,-8.595081E-2,5.569182E-1,-1.4920353E0,6.0388464E-1,1.3818672E0,5.23197E-1,-7.392117E-2,7.8023255E-2,1.932941E-2,-8.2179226E-2,-8.274029E-2,6.857984E-2,-7.167632E-2,2.7064694E-2,-8.2450844E-2,-4.1180808E-2,-8.2966544E-2,-1.1190541E-2,7.200271E-2,-9.139968E-2,-1.7734071E-2,5.119134E-2,5.415873E-2,-6.954546E-2,1.0061901E-1,4.5059483E-2,-8.19725E-2,-5.3824563E-2,8.66034E-2,-8.1538185E-2,-7.654351E-2,5.268527E-2,-9.248529E-2,9.847704E-2,8.500017E-2,-7.8700945E-2,8.3022825E-2,3.4144804E-2,-8.781899E-2,7.6583825E-2,4.3200713E-2,-8.394695E-2,3.659176E-2,7.1617775E-2,-8.218109E-2,4.6746146E-2,-8.788697E-2,8.731111E-3,-5.8328073E-2,4.7008984E-2,6.9641635E-2,-3.3803638E-2,-3.1943392E-2,5.0803423E-2],"categories":[],"categories_nodes":[],"categories_segments":[],"categories_sizes":[],"default_left":[0,0,0,0,0,0,0,0,0,0,0,0,0,0,0,0,0,0,0,0,0,0,0,0,0,0,0,0,0,0,0,0,0,0,0,0,0,0,0,0,0,0,0,0,0,0,0,0,0,0,0,0,0,0,0,0,0,0,0,0,0,0,0,0,0,0,0,0,0,0,0,0,0,0,0,0,0,0,0,0,0,0,0,0,0,0,0,0,0,0,0,0,0,0,0,0,0,0,0,0,0,0,0,0,0,0,0,0,0],"id":5,"left_children":[1,3,5,7,9,11,13,15,17,19,21,23,25,27,29,-1,31,33,35,37,39,41,43,45,47,49,51,53,55,57,59,61,-1,63,65,67,69,71,73,75,77,-1,79,81,83,85,87,-1,89,91,-1,93,-1,95,97,-1,99,101,103,105,107,-1,-1,-1,-1,-1,-1,-1,-1,-1,-1,-1,-1,-1,-1,-1,-1,-1,-1,-1,-1,-1,-1,-1,-1,-1,-1,-1,-1,-1,-1,-1,-1,-1,-1,-1,-1,-1,-1,-1,-1,-1,-1,-1,-1,-1,-1,-1,-1],"loss_changes":[2.3527317E5,2.4381766E4,2.3809578E4,1.7032812E2,1.2151184E4,3.14717E3,1.0270789E4,7.625E0,4.403789E2,4.296662E3,4.563086E2,1.5894624E3,1.5154597E3,1.8590354E3,4.9653594E3,0E0,1.2371118E2,6.678296E2,1.7234375E2,2.6481343E3,3.0189312E3,3.238194E2,4.6637598E2,5.0300586E2,5.0029477E2,1.6968939E2,6.25683E2,1.706189E2,1.2424657E3,2.6424282E3,1.6543906E3,5.342471E1,0E0,1.14231384E2,3.7977686E2,2.930466E2,2.804004E1,1.7981616E2,5.5718335E2,1.4385068E3,1.2276648E3,0E0,1.0670837E1,1.023418E2,4.7843893E2,5.0220117E2,2.7631442E2,0E0,9.602521E1,4.4081783E0,0E0,2.5830933E2,0E0,1.5307251E2,1.8916512E0,0E0,9.616173E2,3.2011694E2,2.1450298E3,1.6694062E3,1.3275281E3,0E0,0E0,0E0,0E0,0E0,0E0,0E0,0E0,0E0,0E0,0E0,0E0,0E0,0E0,0E0,0E0,0E0,0E0,0E0,0E0,0E0,0E0,0E0,0E0,0E0,0E0,0E0,0E0,0E0,0E0,0E0,0E0,0E0,0E0,0E0,0E0,0E0,0E0,0E0,0E0,0E0,0E0,0E0,0E0,0E0,0E0,0E0,0E0],"parents":[2147483647,0,0,1,1,2,2,3,3,4,4,5,5,6,6,7,7,8,8,9,9,10,10,11,11,12,12,13,13,14,14,16,16,17,17,18,18,19,19,20,20,21,21,22,22,23,23,24,24,25,25,26,26,27,27,28,28,29,29,30,30,31,31,33,33,34,34,35,35,36,36,37,37,38,38,39,39,40,40,42,42,43,43,44,44,45,45,46,46,48,48,49,49,51,51,53,53,54,54,56,56,57,57,58,58,59,59,60,60],"right_children":[2,4,6,8,10,12,14,16,18,20,22,24,26,28,30,-1,32,34,36,38,40,42,44,46,48,50,52,54,56,58,60,62,-1,64,66,68,70,72,74,76,78,-1,80,82,84,86,88,-1,90,92,-1,94,-1,96,98,-1,100,102,104,106,108,-1,-1,-1,-1,-1,-1,-1,-1,-1,-1,-1,-1,-1,-1,-1,-1,-1,-1,-1,-1,-1,-1,-1,-1,-1,-1,-1,-1,-1,-1,-1,-1,-1,-1,-1,-1,-1,-1,-1,-1,-1,-1,-1,-1,-1,-1,-1,-1],"split_conditions":[2.9869389E-2,8.026029E0,2.4970827E0,5.665104E-3,7.9278708E0,8.8400507E-1,-1.673177E-1,4.874233E-2,-4.628228E0,2.8780918E0,5.331869E0,9.566396E0,1.3718385E1,9.230852E0,2.3996644E0,-8.1783906E-2,7.702179E-1,6.781641E-1,5.3514214E0,9.139733E0,1.7049415E0,4.4319066E-1,1.2133152E1,3.6777978E0,5.9680243E0,1.4988269E0,3.0822294E0,9.918091E-1,5.653644E-1,9.629653E0,7.5137553E0,3.7899312E-1,-8.217679E-2,5.63937E0,3.2383528E0,6.6926804E0,8.83543E-1,3.3736267E1,1.3374297E1,3.3500793E0,2.8003016E0,-8.2024135E-2,7.3981494E-1,1.2045707E1,1.73979E0,4.622597E0,2.616865E0,-8.2713224E-2,4.7446136E0,-1.1392021E0,-8.4631234E-2,2.3309617E0,-8.504474E-2,3.6093646E-1,9.27816E0,-8.595081E-2,6.063182E0,9.083819E0,3.836864E0,2.2458242E1,1.6312496E1,-7.392117E-2,7.8023255E-2,1.932941E-2,-8.2179226E-2,-8.274029E-2,6.857984E-2,-7.167632E-2,2.7064694E-2,-8.2450844E-2,-4.1180808E-2,-8.2966544E-2,-1.1190541E-2,7.200271E-2,-9.139968E-2,-1.7734071E-2,5.119134E-2,5.415873E-2,-6.954546E-2,1.0061901E-1,4.5059483E-2,-8.19725E-2,-5.3824563E-2,8.66034E-2,-8.1538185E-2,-7.654351E-2,5.268527E-2,-9.248529E-2,9.847704E-2,8.500017E-2,-7.8700945E-2,8.3022825E-2,3.4144804E-2,-8.781899E-2,7.6583825E-2,4.3200713E-2,-8.394695E-2,3.659176E-2,7.1617775E-2,-8.218109E-2,4.6746146E-2,-8.788697E-2,8.731111E-3,-5.8328073E-2,4.7008984E-2,6.9641635E-2,-3.3803638E-2,-3.1943392E-2,5.0803423E-2],"split_indices":[30,48,111,30,64,40,58,57,113,75,66,43,122,4,75,0,28,39,49,23,100,81,100,72,35,20,46,33,40,48,49,10,0,5,32,35,50,116,121,111,5,0,109,75,4,110,19,0,64,84,0,19,0,5,26,0,72,43,66,120,48,0,0,0,0,0,0,0,0,0,0,0,0,0,0,0,0,0,0,0,0,0,0,0,0,0,0,0,0,0,0,0,0,0,0,0,0,0,0,0,0,0,0,0,0,0,0,0,0],"split_type":[0,0,0,0,0,0,0,0,0,0,0,0,0,0,0,0,0,0,0,0,0,0,0,0,0,0,0,0,0,0,0,0,0,0,0,0,0,0,0,0,0,0,0,0,0,0,0,0,0,0,0,0,0,0,0,0,0,0,0,0,0,0,0,0,0,0,0,0,0,0,0,0,0,0,0,0,0,0,0,0,0,0,0,0,0,0,0,0,0,0,0,0,0,0,0,0,0,0,0,0,0,0,0,0,0,0,0,0,0],"sum_hessian":[1.6304448E5,7.411226E4,8.893223E4,5.780111E4,1.6311145E4,5.656252E3,8.327598E4,5.3736633E4,4.064479E3,1.112264E4,5.188505E3,4.4764136E3,1.1798384E3,2.7042231E3,8.057176E4,5.3433613E4,3.0301892E2,5.96628E2,3.4678508E3,2.083869E3,9.038771E3,1.1234808E2,5.0761567E3,4.1751177E3,3.0129623E2,2.7993735E2,8.9990106E2,1.2492316E3,1.4549917E3,4.321059E3,7.6250695E4,2.5292532E1,2.777264E2,3.6211383E2,2.3451414E2,3.937623E2,3.0740886E3,1.5813881E3,5.0248077E2,7.871282E3,1.1674888E3,4.3041786E1,6.9306305E1,4.908792E3,1.673645E2,4.084104E3,9.1013565E1,5.8716312E1,2.4257991E2,2.227108E1,2.5766626E2,8.3186725E2,6.8033806E1,1.226267E3,2.296456E1,3.017912E2,1.1532004E3,7.211832E2,3.599876E3,7.393501E4,2.3156863E3,7.436057E0,1.7856476E1,2.9857153E1,3.3225668E2,5.2714973E1,1.8179918E2,2.9347833E2,1.00283966E2,3.0293174E3,4.4771206E1,1.4883398E3,9.304811E1,4.4425232E2,5.8228466E1,8.4793494E2,7.0233477E3,2.5628033E2,9.112084E2,5.6252457E1,1.3053845E1,4.552863E3,3.5592953E2,8.604246E1,8.1322044E1,4.0081462E3,7.595784E1,2.56078E1,6.540576E1,2.3401625E2,8.563672E0,9.28407E0,1.298701E1,2.382175E1,8.080455E2,2.357304E1,1.202694E3,1.2948582E1,1.0015978E1,1.6856395E2,9.8463654E2,6.219718E2,9.921146E1,5.742471E2,3.025629E3,7.354347E4,3.9154208E2,6.895672E2,1.626119E3],"tree_param":{"num_deleted":"0","num_feature":"124","num_nodes":"109","size_leaf_vector":"1"}},{"base_weights":[1.6929487E-3,-1.3838855E0,9.6084625E-1,-1.5202881E0,-4.2422104E-1,1.1127552E0,-1.347148E0,8.887356E-1,-1.534433E0,-1.445252E0,1.4120178E-1,-4.8099113E-1,1.1828493E0,-1.5485219E0,2.077042E-2,-8.170991E-2,1.6086326E0,-4.469179E-1,-1.5549166E0,-1.6167021E0,-3.7662696E-2,7.468063E-1,-1.0117387E0,-1.3561441E0,2.0351799E-1,-4.9469206E-1,1.2282044E0,-1.583179E0,-3.7712464E-1,-1.4109974E0,8.584935E-1,4.6080556E-2,8.174411E-2,-1.4776931E0,1.4387596E0,-1.5707431E0,-1.0813156E0,1.8275955E-1,-1.6403649E0,1.0714391E0,-8.103221E-2,-1.1665481E0,9.6119106E-1,-1.2126801E0,9.526703E-1,-1.4893998E0,2.8419802E-1,-1.4641228E0,5.4852754E-1,9.1927344E-1,-1.3824136E0,4.11453E-1,1.299273E0,6.3994396E-1,-1.594059E0,-8.030077E-2,7.8750275E-2,-8.231005E-2,1.3975327E0,-8.4855564E-2,1.3498136E0,8.208896E-2,-7.8371994E-2,8.300655E-2,-7.7538244E-2,-1.0245702E-3,-7.8666925E-2,-2.7880787E-3,-7.1925096E-2,8.160224E-2,-7.644864E-2,-7.990041E-2,-8.811691E-2,-7.828116E-2,8.329516E-2,-8.172852E-2,8.817271E-2,5.4629188E-2,-9.3845464E-2,-7.94798E-2,3.7903634E-3,-7.974688E-2,8.255794E-2,-7.903207E-2,5.0962914E-2,-8.31988E-2,6.917635E-2,-8.1889406E-2,3.818752E-2,4.3322954E-2,-6.584863E-2,-8.350211E-2,6.572945E-2,-7.526882E-2,6.018558E-2,-4.0745776E-2,3.717762E-2,6.626076E-2,1.1075546E-2,-8.7217726E-2,7.408658E-2,-1.3969424E-3,-8.002369E-2,8.515832E-2,5.198279E-2,-8.7438196E-2,7.803606E-2],"categories":[],"categories_nodes":[],"categories_segments":[],"categories_sizes":[],"default_left":[0,0,0,0,0,0,0,0,0,0,0,0,0,0,0,0,0,0,0,0,0,0,0,0,0,0,0,0,0,0,0,0,0,0,0,0,0,0,0,0,0,0,0,0,0,0,0,0,0,0,0,0,0,0,0,0,0,0,0,0,0,0,0,0,0,0,0,0,0,0,0,0,0,0,0,0,0,0,0,0,0,0,0,0,0,0,0,0,0,0,0,0,0,0,0,0,0,0,0,0,0,0,0,0,0,0,0],"id":6,"left_children":[1,3,5,7,9,11,13,15,17,19,21,23,25,27,29,-1,31,33,35,37,39,41,43,45,47,49,51,53,55,57,59,-1,-1,61,63,65,67,69,71,73,-1,75,77,79,81,83,85,87,89,91,93,95,97,99,101,-1,-1,-1,103,-1,105,-1,-1,-1,-1,-1,-1,-1,-1,-1,-1,-1,-1,-1,-1,-1,-1,-1,-1,-1,-1,-1,-1,-1,-1,-1,-1,-1,-1,-1,-1,-1,-1,-1,-1,-1,-1,-1,-1,-1,-1,-1,-1,-1,-1,-1,-1],"loss_changes":[2.1332945E5,8.59482E3,3.3258844E4,1.9604219E3,4.718638E3,9.942945E3,1.6137666E3,6.1331323E2,1.2725156E3,7.029448E2,3.6741577E3,2.2467659E3,6.486922E3,2.0671484E2,9.040509E2,0E0,3.2199707E0,2.0586855E3,4.1878125E2,1.10867676E2,5.588464E2,1.4162227E3,7.164929E2,3.6020923E2,1.2119803E3,2.819126E3,4.817617E3,1.2097754E2,3.5770392E2,1.8609131E2,5.993373E2,0E0,0E0,1.942351E2,2.503913E2,2.1835938E2,6.656133E2,8.833823E1,1.0425781E1,2.9605267E2,0E0,4.801613E2,1.1590974E3,7.9876636E2,3.0288617E2,3.500962E2,2.689569E2,1.4097394E2,1.0360884E3,8.890726E2,4.40489E2,2.7073752E3,2.1347422E3,5.2494827E1,4.9539062E1,0E0,0E0,0E0,6.400986E-1,0E0,2.6373047E2,0E0,0E0,0E0,0E0,0E0,0E0,0E0,0E0,0E0,0E0,0E0,0E0,0E0,0E0,0E0,0E0,0E0,0E0,0E0,0E0,0E0,0E0,0E0,0E0,0E0,0E0,0E0,0E0,0E0,0E0,0E0,0E0,0E0,0E0,0E0,0E0,0E0,0E0,0E0,0E0,0E0,0E0,0E0,0E0,0E0,0E0],"parents":[2147483647,0,0,1,1,2,2,3,3,4,4,5,5,6,6,7,7,8,8,9,9,10,10,11,11,12,12,13,13,14,14,16,16,17,17,18,18,19,19,20,20,21,21,22,22,23,23,24,24,25,25,26,26,27,27,28,28,29,29,30,30,33,33,34,34,35,35,36,36,37,37,38,38,39,39,41,41,42,42,43,43,44,44,45,45,46,46,47,47,48,48,49,49,50,50,51,51,52,52,53,53,54,54,58,58,60,60],"right_children":[2,4,6,8,10,12,14,16,18,20,22,24,26,28,30,-1,32,34,36,38,40,42,44,46,48,50,52,54,56,58,60,-1,-1,62,64,66,68,70,72,74,-1,76,78,80,82,84,86,88,90,92,94,96,98,100,102,-1,-1,-1,104,-1,106,-1,-1,-1,-1,-1,-1,-1,-1,-1,-1,-1,-1,-1,-1,-1,-1,-1,-1,-1,-1,-1,-1,-1,-1,-1,-1,-1,-1,-1,-1,-1,-1,-1,-1,-1,-1,-1,-1,-1,-1,-1,-1,-1,-1,-1,-1],"split_conditions":[7.7481103E0,2.7250525E-2,7.229539E0,3.7322295E-1,2.218642E0,2.4970827E0,1.37932625E1,5.973341E0,1.4184011E0,6.310719E0,6.9054976E0,2.636513E0,-2.3609011E-1,1.2133152E1,3.9868968E0,-8.170991E-2,2.6881158E0,1.5766696E-4,1.2192713E1,8.4943706E-1,8.575661E0,2.4970827E0,3.315798E1,2.8490183E0,2.149337E0,-5.1133423E0,2.6799197E0,1.050882E0,4.207048E-1,1.2133152E1,-1.1582756E-1,4.6080556E-2,8.174411E-2,-3.666848E0,4.4166666E-1,2.5958402E0,-4.313149E0,1.7886609E-1,2.4970827E0,-3.4922352E-1,-8.103221E-2,7.8931513E0,8.257194E1,1.0330719E1,8.373275E-1,4.622597E0,6.160076E0,6.035959E0,5.9222274E0,4.1694446E0,1.3616944E1,1.7409945E-2,7.4158874E0,3.295327E0,5.331869E0,-8.030077E-2,7.8750275E-2,-8.231005E-2,1.9794225E0,-8.4855564E-2,5.387984E-3,8.208896E-2,-7.8371994E-2,8.300655E-2,-7.7538244E-2,-1.0245702E-3,-7.8666925E-2,-2.7880787E-3,-7.1925096E-2,8.160224E-2,-7.644864E-2,-7.990041E-2,-8.811691E-2,-7.828116E-2,8.329516E-2,-8.172852E-2,8.817271E-2,5.4629188E-2,-9.3845464E-2,-7.94798E-2,3.7903634E-3,-7.974688E-2,8.255794E-2,-7.903207E-2,5.0962914E-2,-8.31988E-2,6.917635E-2,-8.1889406E-2,3.818752E-2,4.3322954E-2,-6.584863E-2,-8.350211E-2,6.572945E-2,-7.526882E-2,6.018558E-2,-4.0745776E-2,3.717762E-2,6.626076E-2,1.1075546E-2,-8.7217726E-2,7.408658E-2,-1.3969424E-3,-8.002369E-2,8.515832E-2,5.198279E-2,-8.7438196E-2,7.803606E-2],"split_indices":[48,29,65,45,72,111,97,10,43,41,49,10,33,100,27,0,95,57,31,20,116,111,117,105,19,35,75,45,62,100,99,0,0,81,107,64,82,3,111,33,0,35,78,31,60,110,17,24,75,75,75,29,45,46,66,0,0,0,19,0,102,0,0,0,0,0,0,0,0,0,0,0,0,0,0,0,0,0,0,0,0,0,0,0,0,0,0,0,0,0,0,0,0,0,0,0,0,0,0,0,0,0,0,0,0,0,0],"split_type":[0,0,0,0,0,0,0,0,0,0,0,0,0,0,0,0,0,0,0,0,0,0,0,0,0,0,0,0,0,0,0,0,0,0,0,0,0,0,0,0,0,0,0,0,0,0,0,0,0,0,0,0,0,0,0,0,0,0,0,0,0,0,0,0,0,0,0,0,0,0,0,0,0,0,0,0,0,0,0,0,0,0,0,0,0,0,0,0,0,0,0,0,0,0,0,0,0,0,0,0,0,0,0,0,0,0,0],"sum_hessian":[1.6051894E5,6.566288E4,9.4856055E4,5.7490797E4,8.1720806E3,8.89988E4,5.857258E3,3.3523322E2,5.7155566E4,2.9120303E3,5.2600503E3,3.7490857E3,8.524971E4,5.105531E3,7.5172705E2,7.413865E1,2.6109457E2,1.0570591E3,5.6098508E4,2.595713E3,3.1631726E2,3.4488347E3,1.8112156E3,1.6449791E3,2.1041064E3,2.2439314E3,8.300578E4,4.9584766E3,1.4705383E2,2.7722775E2,4.7449933E2,1.0937634E1,2.5015694E2,6.835977E2,3.734613E2,5.428223E4,1.816277E3,3.360306E1,2.5621099E3,1.8618884E2,1.301284E2,3.470469E2,3.1017878E3,1.6434846E3,1.6773103E2,1.5214722E3,1.23507034E2,3.60131E2,1.7439755E3,8.6543243E2,1.378499E3,6.6450283E3,7.636075E4,2.3867144E1,4.93461E3,9.035286E1,5.6700974E1,2.5618692E2,2.1040817E1,7.611782E1,3.983815E2,1.8633394E1,6.6496436E2,3.4812747E2,2.5333828E1,9.074268E1,5.419149E4,4.6947507E2,1.346802E3,1.8221706E1,1.5381353E1,1.9121819E3,6.4992804E2,3.395034E1,1.5223851E2,2.996281E2,4.741879E1,2.9651292E3,1.3665858E2,1.2713486E3,3.72136E2,3.581587E1,1.3191516E2,1.4684341E3,5.303808E1,4.4367546E1,7.913949E1,3.3433414E2,2.5796875E1,1.4904912E3,2.5348431E2,1.14199745E2,7.512327E2,1.3163292E3,6.216977E1,1.4157026E3,5.2293257E3,7.4565695E4,1.7950563E3,5.9479184E0,1.7919226E1,2.0151344E1,4.9144585E3,9.321225E0,1.1719591E1,2.4923452E1,3.7345807E2],"tree_param":{"num_deleted":"0","num_feature":"124","num_nodes":"107","size_leaf_vector":"1"}},{"base_weights":[1.8214254E-3,-1.257477E0,1.0008619E0,-4.9063307E-1,-1.4966094E0,-8.460574E-1,1.128083E0,-1.0776424E0,4.2113155E-1,-1.5213767E0,-9.659712E-1,-1.2098678E0,5.5655104E-1,-7.2223127E-1,1.1964797E0,-1.2520956E0,5.6779534E-1,-8.7988126E-1,7.206084E-1,-1.5312574E0,-6.3761127E-1,-1.3107064E0,4.2062113E-1,-1.3887265E0,5.562073E-1,-1.3890398E0,1.1511159E0,-1.3160105E0,1.01924114E-1,2.0451528E-1,1.254902E0,-1.4514068E0,-1.1195906E-1,1.296929E0,-1.1201011E0,-1.3838826E0,1.7333932E0,-1.4416796E0,9.1718096E-1,-1.5349207E0,-1.0929763E0,-1.5218599E0,9.3439996E-1,-5.110866E-1,-1.44533E0,1.1553081E0,-8.00287E-2,-1.4329416E0,1.0216765E0,1.4637499E0,-8.095776E-2,1.0848807E0,-8.046925E-2,1.3963875E0,-1.2721713E0,7.348298E-1,-1.469121E0,7.2980464E-1,-8.055736E-2,-1.5178474E0,5.0076777E-1,1.3049752E0,7.552395E-1,-7.8304246E-2,-3.7315458E-2,-7.372364E-2,3.524205E-2,7.503698E-2,-8.683263E-2,-7.880332E-2,7.616031E-2,-7.904772E-2,2.0359987E-2,6.269314E-2,8.92536E-2,2.388209E-2,-8.899649E-2,-6.3597456E-2,5.1253896E-2,-7.67738E-2,3.4506273E-2,7.5426325E-2,-7.9555236E-2,-8.027882E-2,1.4723551E-2,8.2302414E-2,-8.1589065E-2,8.0716394E-2,-5.0258756E-2,-7.5341746E-2,2.543405E-2,7.264674E-2,-8.583242E-2,-7.346842E-2,3.5617527E-2,7.5811915E-2,-7.8857884E-2,-7.460104E-2,8.198439E-2,7.8588754E-2,3.254942E-2,7.517544E-2,-8.33667E-2,7.446957E-2,-8.130644E-2,-7.828664E-2,8.141624E-2,4.7017653E-2,-7.6119006E-2,-8.186098E-2,5.587377E-2,-8.947884E-2,5.9796482E-2,3.3276804E-2,-9.7871825E-2,4.023541E-2,6.776651E-2,-1.2218556E-2,5.3965695E-2],"categories":[],"categories_nodes":[],"categories_segments":[],"categories_sizes":[],"default_left":[0,0,0,0,0,0,0,0,0,0,0,0,0,0,0,0,0,0,0,0,0,0,0,0,0,0,0,0,0,0,0,0,0,0,0,0,0,0,0,0,0,0,0,0,0,0,0,0,0,0,0,0,0,0,0,0,0,0,0,0,0,0,0,0,0,0,0,0,0,0,0,0,0,0,0,0,0,0,0,0,0,0,0,0,0,0,0,0,0,0,0,0,0,0,0,0,0,0,0,0,0,0,0,0,0,0,0,0,0,0,0,0,0,0,0,0,0,0,0],"id":7,"left_children":[1,3,5,7,9,11,13,15,17,19,21,23,25,27,29,31,33,35,37,39,41,43,45,47,49,51,53,55,57,59,61,63,65,67,69,71,73,75,77,79,81,83,85,87,89,91,-1,93,95,97,-1,99,-1,101,103,105,107,109,-1,111,113,115,117,-1,-1,-1,-1,-1,-1,-1,-1,-1,-1,-1,-1,-1,-1,-1,-1,-1,-1,-1,-1,-1,-1,-1,-1,-1,-1,-1,-1,-1,-1,-1,-1,-1,-1,-1,-1,-1,-1,-1,-1,-1,-1,-1,-1,-1,-1,-1,-1,-1,-1,-1,-1,-1,-1,-1,-1],"loss_changes":[1.9888116E5,1.2823195E4,2.0713266E4,8.898467E3,6.991328E2,2.8997363E3,1.0437828E4,2.903961E3,2.5379058E3,4.4375E2,1.138166E3,1.4258486E3,1.3559534E3,1.4390825E3,4.608742E3,2.0779219E3,1.1954915E3,1.6078967E3,2.25158E3,7.91875E1,7.86536E2,2.0446777E2,7.0665753E2,4.3809473E2,8.2285333E2,1.5137903E2,5.3509863E2,5.377639E2,1.3266143E3,2.2584573E3,1.8781484E3,6.282363E2,1.5166348E3,4.2179407E2,3.5579984E2,3.6153723E2,2.6568604E0,2.8752173E2,1.1477202E3,6.278125E1,5.479072E2,5.5496033E1,3.7514368E2,2.9171387E2,1.9678589E2,3.0053903E2,0E0,3.1546777E2,9.799208E1,1.5522052E2,0E0,3.845602E0,0E0,2.7008142E2,8.3548096E1,2.4798793E2,2.0556787E2,8.299379E2,0E0,4.811715E2,1.5307275E3,1.7185547E3,2.2172039E3,0E0,0E0,0E0,0E0,0E0,0E0,0E0,0E0,0E0,0E0,0E0,0E0,0E0,0E0,0E0,0E0,0E0,0E0,0E0,0E0,0E0,0E0,0E0,0E0,0E0,0E0,0E0,0E0,0E0,0E0,0E0,0E0,0E0,0E0,0E0,0E0,0E0,0E0,0E0,0E0,0E0,0E0,0E0,0E0,0E0,0E0,0E0,0E0,0E0,0E0,0E0,0E0,0E0,0E0,0E0,0E0],"parents":[2147483647,0,0,1,1,2,2,3,3,4,4,5,5,6,6,7,7,8,8,9,9,10,10,11,11,12,12,13,13,14,14,15,15,16,16,17,17,18,18,19,19,20,20,21,21,22,22,23,23,24,24,25,25,26,26,27,27,28,28,29,29,30,30,31,31,32,32,33,33,34,34,35,35,36,36,37,37,38,38,39,39,40,40,41,41,42,42,43,43,44,44,45,45,47,47,48,48,49,49,51,51,53,53,54,54,55,55,56,56,57,57,59,59,60,60,61,61,62,62],"right_children":[2,4,6,8,10,12,14,16,18,20,22,24,26,28,30,32,34,36,38,40,42,44,46,48,50,52,54,56,58,60,62,64,66,68,70,72,74,76,78,80,82,84,86,88,90,92,-1,94,96,98,-1,100,-1,102,104,106,108,110,-1,112,114,116,118,-1,-1,-1,-1,-1,-1,-1,-1,-1,-1,-1,-1,-1,-1,-1,-1,-1,-1,-1,-1,-1,-1,-1,-1,-1,-1,-1,-1,-1,-1,-1,-1,-1,-1,-1,-1,-1,-1,-1,-1,-1,-1,-1,-1,-1,-1,-1,-1,-1,-1,-1,-1,-1,-1,-1,-1],"split_conditions":[2.4393268E-2,6.2394233E0,2.4970827E0,4.610059E0,4.064342E-3,8.8400507E-1,-1.673177E-1,9.260728E0,-1.673177E-1,5.5574212E-2,1.2045707E1,7.5482354E0,1.3718385E1,7.799298E0,2.3996644E0,3.1877705E1,5.3514214E0,3.3980034E1,9.560624E0,4.274666E-1,3.2139206E1,4.3311462E0,-4.628228E0,4.622597E0,4.7446136E0,1.4988269E0,1.1731343E0,-2.424389E0,7.2062974E0,2.889242E-1,5.7901E0,1.9564806E1,3.4586341E0,7.5298243E0,2.3320875E1,1.0332966E1,8.214547E0,1.5325756E0,1.1740054E0,7.486999E-2,6.983054E-2,1.1886405E0,1.154631E1,2.4454484E0,2.6410168E1,1.6366581E1,-8.00287E-2,3.8192987E0,4.9012017E0,8.699835E0,-8.095776E-2,-1.1392021E0,-8.046925E-2,6.5467052E0,1.4261807E1,1.8371844E0,-2.5120564E0,4.8370857E0,-8.055736E-2,3.3825172E1,1.8034445E1,3.1871886E0,5.904269E-2,-7.8304246E-2,-3.7315458E-2,-7.372364E-2,3.524205E-2,7.503698E-2,-8.683263E-2,-7.880332E-2,7.616031E-2,-7.904772E-2,2.0359987E-2,6.269314E-2,8.92536E-2,2.388209E-2,-8.899649E-2,-6.3597456E-2,5.1253896E-2,-7.67738E-2,3.4506273E-2,7.5426325E-2,-7.9555236E-2,-8.027882E-2,1.4723551E-2,8.2302414E-2,-8.1589065E-2,8.0716394E-2,-5.0258756E-2,-7.5341746E-2,2.543405E-2,7.264674E-2,-8.583242E-2,-7.346842E-2,3.5617527E-2,7.5811915E-2,-7.8857884E-2,-7.460104E-2,8.198439E-2,7.8588754E-2,3.254942E-2,7.517544E-2,-8.33667E-2,7.446957E-2,-8.130644E-2,-7.828664E-2,8.141624E-2,4.7017653E-2,-7.6119006E-2,-8.186098E-2,5.587377E-2,-8.947884E-2,5.9796482E-2,3.3276804E-2,-9.7871825E-2,4.023541E-2,6.776651E-2,-1.2218556E-2,5.3965695E-2],"split_indices":[30,91,111,75,30,40,58,23,58,57,75,41,122,71,75,118,49,118,15,54,118,5,113,110,64,20,42,99,105,40,49,121,111,3,6,111,5,45,19,29,32,12,123,47,46,15,0,72,17,43,0,84,0,21,15,82,98,96,0,14,123,72,30,0,0,0,0,0,0,0,0,0,0,0,0,0,0,0,0,0,0,0,0,0,0,0,0,0,0,0,0,0,0,0,0,0,0,0,0,0,0,0,0,0,0,0,0,0,0,0,0,0,0,0,0,0,0,0,0],"split_type":[0,0,0,0,0,0,0,0,0,0,0,0,0,0,0,0,0,0,0,0,0,0,0,0,0,0,0,0,0,0,0,0,0,0,0,0,0,0,0,0,0,0,0,0,0,0,0,0,0,0,0,0,0,0,0,0,0,0,0,0,0,0,0,0,0,0,0,0,0,0,0,0,0,0,0,0,0,0,0,0,0,0,0,0,0,0,0,0,0,0,0,0,0,0,0,0,0,0,0,0,0,0,0,0,0,0,0,0,0,0,0,0,0,0,0,0,0,0,0],"sum_hessian":[1.580798E5,6.993098E4,8.814881E4,1.6624139E4,5.330684E4,5.6802783E3,8.246853E4,1.0113023E4,6.5111157E3,5.092793E4,2.3789116E3,4.5104814E3,1.169797E3,2.9394316E3,7.95291E4,9.143813E3,9.692094E2,1.2179698E3,5.2931455E3,5.0364117E4,5.638104E2,1.9052759E3,4.7363577E2,4.0958857E3,4.1459576E2,2.7349728E2,8.962997E2,1.7081581E3,1.2312734E3,4.423651E3,7.510545E4,7.782972E3,1.3608418E3,6.769945E2,2.922149E2,1.0214428E3,1.9652708E2,4.405694E2,4.852576E3,4.9944164E4,4.199542E2,3.6086023E2,2.0295021E2,2.7523975E2,1.6300361E3,3.4768402E2,1.25951744E2,4.0225046E3,7.3381004E1,2.927783E2,1.2181747E2,2.204656E1,2.5145071E2,8.1430414E2,8.199556E1,1.1840331E2,1.5897548E3,9.0144635E2,3.2982712E2,6.48611E2,3.7750398E3,6.826295E4,6.842503E3,6.6931655E3,1.0898066E3,5.097375E2,8.5110425E2,6.3484766E2,4.214682E1,2.4956857E2,4.2646336E1,9.203001E2,1.01142715E2,2.1576849E1,1.7495023E2,6.5948425E1,3.74621E2,2.2743056E2,4.625146E3,4.993201E4,1.2151907E1,6.716304E1,3.5279117E2,3.450716E2,1.5788644E1,1.5916849E2,4.3781734E1,5.148784E1,2.237519E2,1.5805164E3,4.951978E1,3.154839E2,3.220013E1,3.9556533E3,6.685153E1,6.199906E1,1.138194E1,1.6027903E1,2.767504E2,9.152988E0,1.2893572E1,7.872864E2,2.7017775E1,8.951158E0,7.30444E1,3.291128E1,8.549203E1,3.401991E1,1.5557349E3,1.26407776E2,7.750386E2,5.8988654E2,5.8724514E1,3.5385852E3,2.3645467E2,6.2442896E3,6.201866E4,1.6752924E3,5.1672104E3],"tree_param":{"num_deleted":"0","num_feature":"124","num_nodes":"119","size_leaf_vector":"1"}},{"base_weights":[1.0992022E-3,-1.3155209E0,8.97533E-1,-1.4502698E0,-4.5341346E-1,1.0367767E0,-1.2357247E0,7.912671E-1,-1.4626027E0,-1.378657E0,4.71468E-2,8.028596E-2,1.1466578E0,-1.44461E0,1.0455813E-1,-7.77909E-2,1.5306631E0,-4.3744236E-1,-1.4810451E0,-1.5137887E0,-2.4214838E-1,6.532553E-1,-9.4916236E-1,-9.6238816E-1,4.8676312E-1,1.2008994E0,-1.752424E-1,-1.4924849E0,5.1875967E-3,1.1335149E0,-9.4984293E-1,4.4847127E-2,7.785944E-2,1.0679808E0,-1.2908347E0,-1.49369E0,-1.0961047E0,-7.1444464E-1,-1.557486E0,8.7973917E-1,-7.744813E-2,-7.7823174E-1,9.034864E-1,-1.2038047E0,2.3539223E-1,-1.1801816E0,9.609334E-1,-1.2141992E0,6.295518E-1,-1.0254352E0,1.2170984E0,-1.3083376E0,4.573688E-1,9.327367E-1,-1.509222E0,-7.587036E-2,8.136774E-2,-1.7939988E0,1.4645462E0,-7.852868E-2,1.6922079E-1,-7.474781E-2,7.993769E-2,7.940599E-2,-7.394967E-2,-5.3485602E-2,-7.482534E-2,-2.07969E-2,-7.6850235E-2,7.22329E-2,-7.578096E-2,-7.568803E-2,-8.385287E-2,-7.430014E-2,7.9893775E-2,-8.3116695E-2,3.3289496E-2,5.396221E-2,-5.347314E-2,-6.869336E-2,3.5571303E-2,4.1160066E-2,-7.952459E-2,-8.527959E-3,-7.1118645E-2,6.9394715E-2,-8.607004E-2,5.5799294E-2,-9.2956655E-2,3.6370613E-2,-8.865998E-2,-8.108996E-2,7.794549E-2,3.0066399E-2,6.351544E-2,-8.461603E-2,3.6644846E-2,-5.8878865E-2,3.956675E-2,-7.949924E-2,7.24492E-2,-7.57319E-2,-6.918624E-2,-7.613346E-2,-1.0641686E-1,-7.793278E-2,8.1179634E-2,6.276193E-2,-5.532623E-2],"categories":[],"categories_nodes":[],"categories_segments":[],"categories_sizes":[],"default_left":[0,0,0,0,0,0,0,0,0,0,0,0,0,0,0,0,0,0,0,0,0,0,0,0,0,0,0,0,0,0,0,0,0,0,0,0,0,0,0,0,0,0,0,0,0,0,0,0,0,0,0,0,0,0,0,0,0,0,0,0,0,0,0,0,0,0,0,0,0,0,0,0,0,0,0,0,0,0,0,0,0,0,0,0,0,0,0,0,0,0,0,0,0,0,0,0,0,0,0,0,0,0,0,0,0,0,0,0,0],"id":8,"left_children":[1,3,5,7,9,11,13,15,17,19,21,23,25,27,29,-1,31,33,35,37,39,41,43,45,47,49,51,53,55,57,59,-1,-1,61,63,65,67,69,71,73,-1,75,77,79,81,83,85,87,89,91,93,95,97,99,101,-1,-1,103,105,-1,107,-1,-1,-1,-1,-1,-1,-1,-1,-1,-1,-1,-1,-1,-1,-1,-1,-1,-1,-1,-1,-1,-1,-1,-1,-1,-1,-1,-1,-1,-1,-1,-1,-1,-1,-1,-1,-1,-1,-1,-1,-1,-1,-1,-1,-1,-1,-1,-1],"loss_changes":[1.8277128E5,7.2862344E3,2.7367617E4,1.5008359E3,3.9277358E3,9.089492E3,1.5807021E3,5.1864966E2,1.0193594E3,4.568838E2,3.324457E3,3.7778518E3,5.5623516E3,3.3902734E2,8.2796747E2,0E0,2.4144897E0,1.2280667E3,2.5633594E2,9.182471E1,4.669608E2,1.2267793E3,6.284005E2,1.0484651E3,1.5584315E3,2.6886094E3,2.192938E3,1.9333105E2,3.9056836E2,3.7688287E2,2.6212247E2,0E0,0E0,4.730592E2,3.326978E2,5.9679688E1,5.0595642E2,2.439509E2,1.0647461E1,2.9376788E2,0E0,6.520016E2,1.0116216E3,5.5926904E2,3.9764163E2,5.490491E2,2.9428848E2,7.490077E2,1.3926606E3,8.329432E2,2.423164E3,8.603141E2,1.0730001E3,4.531405E1,1.0957031E0,0E0,0E0,3.5903168E-1,1.6962244E2,0E0,1.889822E2,0E0,0E0,0E0,0E0,0E0,0E0,0E0,0E0,0E0,0E0,0E0,0E0,0E0,0E0,0E0,0E0,0E0,0E0,0E0,0E0,0E0,0E0,0E0,0E0,0E0,0E0,0E0,0E0,0E0,0E0,0E0,0E0,0E0,0E0,0E0,0E0,0E0,0E0,0E0,0E0,0E0,0E0,0E0,0E0,0E0,0E0,0E0,0E0],"parents":[2147483647,0,0,1,1,2,2,3,3,4,4,5,5,6,6,7,7,8,8,9,9,10,10,11,11,12,12,13,13,14,14,16,16,17,17,18,18,19,19,20,20,21,21,22,22,23,23,24,24,25,25,26,26,27,27,28,28,29,29,30,30,33,33,34,34,35,35,36,36,37,37,38,38,39,39,41,41,42,42,43,43,44,44,45,45,46,46,47,47,48,48,49,49,50,50,51,51,52,52,53,53,54,54,57,57,58,58,60,60],"right_children":[2,4,6,8,10,12,14,16,18,20,22,24,26,28,30,-1,32,34,36,38,40,42,44,46,48,50,52,54,56,58,60,-1,-1,62,64,66,68,70,72,74,-1,76,78,80,82,84,86,88,90,92,94,96,98,100,102,-1,-1,104,106,-1,108,-1,-1,-1,-1,-1,-1,-1,-1,-1,-1,-1,-1,-1,-1,-1,-1,-1,-1,-1,-1,-1,-1,-1,-1,-1,-1,-1,-1,-1,-1,-1,-1,-1,-1,-1,-1,-1,-1,-1,-1,-1,-1,-1,-1,-1,-1,-1,-1],"split_conditions":[7.7481103E0,1.7409945E-2,7.229539E0,3.7322295E-1,2.218642E0,3.0176384E0,1.37932625E1,5.973341E0,1.4184011E0,6.310719E0,6.9054976E0,2.5315118E0,7.0583096E0,1.2133152E1,9.892869E0,-7.77909E-2,2.6881158E0,1.7886609E-1,1.2192713E1,-9.998415E-1,8.575661E0,3.1246943E0,1.1122686E1,4.545775E0,3.6304793E0,-6.9916695E-1,-2.9277605E-1,1.050882E0,3.315798E1,8.727658E0,5.313567E0,4.4847127E-2,7.785944E-2,3.0748684E0,-6.3536434E0,3.4585807E0,5.515409E0,3.064009E0,2.4970827E0,-3.4922352E-1,-7.744813E-2,5.864247E0,6.555321E0,3.315798E1,6.786164E-1,2.940671E0,4.9631977E0,-4.1809312E-1,5.7901E0,3.3336662E1,2.7792451E0,1.2433858E1,9.094807E-2,2.8964522E0,6.46841E0,-7.587036E-2,8.136774E-2,1.2192713E1,4.2115933E-1,-7.852868E-2,1.1753081E0,-7.474781E-2,7.993769E-2,7.940599E-2,-7.394967E-2,-5.3485602E-2,-7.482534E-2,-2.07969E-2,-7.6850235E-2,7.22329E-2,-7.578096E-2,-7.568803E-2,-8.385287E-2,-7.430014E-2,7.9893775E-2,-8.3116695E-2,3.3289496E-2,5.396221E-2,-5.347314E-2,-6.869336E-2,3.5571303E-2,4.1160066E-2,-7.952459E-2,-8.527959E-3,-7.1118645E-2,6.9394715E-2,-8.607004E-2,5.5799294E-2,-9.2956655E-2,3.6370613E-2,-8.865998E-2,-8.108996E-2,7.794549E-2,3.0066399E-2,6.351544E-2,-8.461603E-2,3.6644846E-2,-5.8878865E-2,3.956675E-2,-7.949924E-2,7.24492E-2,-7.57319E-2,-6.918624E-2,-7.613346E-2,-1.0641686E-1,-7.793278E-2,8.1179634E-2,6.276193E-2,-5.532623E-2],"split_indices":[48,29,65,45,72,111,74,10,43,41,49,72,42,100,123,0,95,3,31,2,116,111,31,9,65,33,102,45,117,122,27,0,0,75,80,65,111,47,111,33,0,18,111,117,102,44,9,62,49,116,75,112,59,46,32,0,0,31,59,0,37,0,0,0,0,0,0,0,0,0,0,0,0,0,0,0,0,0,0,0,0,0,0,0,0,0,0,0,0,0,0,0,0,0,0,0,0,0,0,0,0,0,0,0,0,0,0,0,0],"split_type":[0,0,0,0,0,0,0,0,0,0,0,0,0,0,0,0,0,0,0,0,0,0,0,0,0,0,0,0,0,0,0,0,0,0,0,0,0,0,0,0,0,0,0,0,0,0,0,0,0,0,0,0,0,0,0,0,0,0,0,0,0,0,0,0,0,0,0,0,0,0,0,0,0,0,0,0,0,0,0,0,0,0,0,0,0,0,0,0,0,0,0,0,0,0,0,0,0,0,0,0,0,0,0,0,0,0,0,0,0],"sum_hessian":[1.5485444E5,6.2726145E4,9.21283E4,5.424662E4,8.479522E3,8.648377E4,5.644524E3,2.96488E2,5.3950133E4,2.9763098E3,5.503213E3,8.911638E3,7.757213E4,4.8833657E3,7.6115826E2,7.0762024E1,2.25726E2,9.5383167E2,5.29963E4,2.6597336E3,3.1657623E2,3.4218572E3,2.0813555E3,2.4992708E3,6.412367E3,7.4514664E4,3.0574727E3,4.7272344E3,1.5613127E2,3.851892E2,3.7596906E2,1.0467277E1,2.1525871E2,3.449944E2,6.088373E2,5.1308004E4,1.6882972E3,1.3876114E2,2.5209724E3,1.7051637E2,1.4605988E2,5.0884097E2,2.913016E3,1.7130803E3,3.6827515E2,2.2453928E3,2.5387788E2,4.9602255E2,5.9163447E3,5.378071E2,7.397685E4,1.0950381E3,1.9624347E3,3.2025112E1,4.6952095E3,8.057074E1,7.556054E1,3.8681904E1,3.4650732E2,2.4156984E2,1.3439922E2,5.887737E1,2.86117E2,3.6893993E1,5.719433E2,3.411474E2,5.0966855E4,6.6474817E2,1.0235491E3,3.733718E1,1.0142395E2,1.8559415E3,6.650309E2,3.9458797E1,1.3105757E2,3.1551547E2,1.933255E2,2.6751562E3,2.3786002E2,1.5736326E3,1.3944778E2,2.7900415E2,8.9271E1,4.3475076E2,1.8106421E3,2.194323E2,3.4445587E1,1.07367355E2,3.8865518E2,5.685481E3,2.3086377E2,4.3727414E2,1.00533005E2,5.885061E3,6.809179E4,9.2180536E2,1.7323274E2,3.3243903E2,1.6299956E3,5.086969E0,2.6938143E1,4.490351E3,2.048583E2,2.4419065E1,1.4262836E1,1.6878357E1,3.2962894E2,7.2606636E1,6.179258E1],"tree_param":{"num_deleted":"0","num_feature":"124","num_nodes":"109","size_leaf_vector":"1"}},{"base_weights":[-9.315657E-3,-1.1656448E0,9.491771E-1,-1.4464583E0,-2.1103568E-1,-8.545457E-1,1.068275E0,-1.0763919E0,-1.4585108E0,3.2354528E-1,-1.3269333E0,-1.1637913E0,4.1274157E-1,-5.280013E-1,1.125577E0,-1.3156514E0,1.9730972E-1,-1.4617773E0,-1.1221292E0,-3.5376891E-1,8.099646E-1,-1.4199516E0,-1.1793793E-2,-1.3171006E0,6.403972E-1,-1.3330679E0,1.0291669E0,-1.2616363E0,2.2448352E-1,2.1771014E-1,1.1800247E0,7.916905E-1,-1.4260403E0,1.259512E0,-7.5508825E-2,-1.4628991E0,-6.946802E-1,1.4432263E0,-7.425418E-2,-6.6500425E-1,1.0536687E0,1.0896412E0,5.3054057E-2,-1.4629232E0,-3.2885827E-2,1.4283681E0,-1.2215539E0,-1.3975949E0,-7.1035415E-2,1.4686495E0,-7.449599E-2,1.0756977E0,-7.7859364E-2,1.291668E0,-1.222729E0,2.4065334E-1,-1.548913E0,8.5826683E-1,-1.3685948E0,-1.4136122E0,5.3238416E-1,1.1920463E0,-8.143678E-1,-7.357795E-2,7.828862E-2,-7.3524974E-2,4.2606127E-2,-7.240928E-2,7.740873E-2,-6.453769E-2,-7.327556E-2,8.492954E-2,-7.4596696E-2,-6.6112034E-2,8.788575E-2,-5.8985222E-2,4.423746E-2,6.91145E-2,-8.590351E-2,2.6268262E-2,6.430638E-2,-7.217055E-2,2.493568E-2,-7.351689E-2,-1.8499024E-2,7.9992585E-2,-7.292908E-2,-7.22295E-2,8.621885E-2,1.6734993E-2,-7.686131E-2,-7.4761555E-2,-4.148184E-2,-7.533239E-2,4.4989426E-2,-7.419543E-2,7.907713E-2,8.099183E-2,2.9516766E-2,7.131271E-2,-8.200751E-2,7.1186975E-2,-7.881961E-2,6.455789E-2,-7.844385E-2,-7.861083E-2,1.7668756E-2,5.813953E-2,-8.299329E-2,-8.016052E-2,6.235343E-2,-8.1041366E-2,-1.8466817E-3,4.2075954E-2,-4.75344E-2,-4.4667084E-2,6.0182948E-2,6.528654E-2,-1.1146938E-1],"categories":[],"categories_nodes":[],"categories_segments":[],"categories_sizes":[],"default_left":[0,0,0,0,0,0,0,0,0,0,0,0,0,0,0,0,0,0,0,0,0,0,0,0,0,0,0,0,0,0,0,0,0,0,0,0,0,0,0,0,0,0,0,0,0,0,0,0,0,0,0,0,0,0,0,0,0,0,0,0,0,0,0,0,0,0,0,0,0,0,0,0,0,0,0,0,0,0,0,0,0,0,0,0,0,0,0,0,0,0,0,0,0,0,0,0,0,0,0,0,0,0,0,0,0,0,0,0,0,0,0,0,0,0,0,0,0,0,0],"id":9,"left_children":[1,3,5,7,9,11,13,15,17,19,21,23,25,27,29,31,33,35,37,39,41,43,45,47,49,51,53,55,57,59,61,63,65,67,-1,69,71,73,-1,75,77,79,81,83,85,87,89,91,93,95,-1,97,-1,99,101,103,105,107,109,111,113,115,117,-1,-1,-1,-1,-1,-1,-1,-1,-1,-1,-1,-1,-1,-1,-1,-1,-1,-1,-1,-1,-1,-1,-1,-1,-1,-1,-1,-1,-1,-1,-1,-1,-1,-1,-1,-1,-1,-1,-1,-1,-1,-1,-1,-1,-1,-1,-1,-1,-1,-1,-1,-1,-1,-1,-1,-1],"loss_changes":[1.6731166E5,1.8340336E4,1.773207E4,2.3422656E2,9.278205E3,2.00428E3,7.0829062E3,5.095697E2,5.4617188E1,3.4648992E3,6.162471E2,1.1377539E3,1.0814948E3,1.4818811E3,3.6944844E3,3.2845874E2,4.828276E2,4.2617188E1,4.6461072E2,1.9264415E3,1.2956672E3,2.8038184E2,5.8326984E2,3.7991455E2,5.7137756E2,1.4330298E2,4.403924E2,5.8691455E2,1.3397256E3,2.1723113E3,1.6916406E3,1.261353E2,1.3671387E2,1.3043869E2,0E0,2.0867188E1,1.4743436E2,5.6306625E1,0E0,2.8731897E3,7.2786957E2,4.9485352E2,1.1027874E3,3.6438477E1,3.3381192E2,1.3246896E2,8.9894684E1,1.9610498E2,3.232366E2,7.993915E1,0E0,5.097866E0,0E0,2.6486316E2,7.526121E1,4.183969E2,5.1138184E1,7.296795E2,2.3378485E2,1.9515698E2,1.6269773E3,1.6985234E3,1.2721898E3,0E0,0E0,0E0,0E0,0E0,0E0,0E0,0E0,0E0,0E0,0E0,0E0,0E0,0E0,0E0,0E0,0E0,0E0,0E0,0E0,0E0,0E0,0E0,0E0,0E0,0E0,0E0,0E0,0E0,0E0,0E0,0E0,0E0,0E0,0E0,0E0,0E0,0E0,0E0,0E0,0E0,0E0,0E0,0E0,0E0,0E0,0E0,0E0,0E0,0E0,0E0,0E0,0E0,0E0,0E0,0E0],"parents":[2147483647,0,0,1,1,2,2,3,3,4,4,5,5,6,6,7,7,8,8,9,9,10,10,11,11,12,12,13,13,14,14,15,15,16,16,17,17,18,18,19,19,20,20,21,21,22,22,23,23,24,24,25,25,26,26,27,27,28,28,29,29,30,30,31,31,32,32,33,33,35,35,36,36,37,37,39,39,40,40,41,41,42,42,43,43,44,44,45,45,46,46,47,47,48,48,49,49,51,51,53,53,54,54,55,55,56,56,57,57,58,58,59,59,60,60,61,61,62,62],"right_children":[2,4,6,8,10,12,14,16,18,20,22,24,26,28,30,32,34,36,38,40,42,44,46,48,50,52,54,56,58,60,62,64,66,68,-1,70,72,74,-1,76,78,80,82,84,86,88,90,92,94,96,-1,98,-1,100,102,104,106,108,110,112,114,116,118,-1,-1,-1,-1,-1,-1,-1,-1,-1,-1,-1,-1,-1,-1,-1,-1,-1,-1,-1,-1,-1,-1,-1,-1,-1,-1,-1,-1,-1,-1,-1,-1,-1,-1,-1,-1,-1,-1,-1,-1,-1,-1,-1,-1,-1,-1,-1,-1,-1,-1,-1,-1,-1,-1,-1,-1],"split_conditions":[2.9869389E-2,8.026029E0,2.4970827E0,5.3514214E0,7.229539E0,8.8400507E-1,-1.7924581E-1,6.860941E0,1.11758795E1,4.610059E0,1.6445772E1,7.5482354E0,1.3718385E1,9.815582E0,2.3996644E0,1.4184011E0,5.868795E0,1.5764672E-1,5.515409E0,9.389719E0,7.641781E-1,1.2133152E1,4.4890866E0,1.2106209E0,8.398474E-2,1.4988269E0,1.1731343E0,9.446805E-1,7.2062974E0,9.629653E0,2.2825808E1,3.05809E-1,6.035959E0,3.7696943E-1,-7.5508825E-2,-1.2397591E1,-7.7023926E0,9.427027E-1,-7.425418E-2,8.654237E-1,7.404282E0,6.1965156E-1,1.2438394E-1,1.0337391E0,4.7559693E-1,5.000725E-1,-9.989758E-1,1.1474131E1,1.0194475E1,1.5745308E-1,-7.449599E-2,-4.5683384E-1,-7.7859364E-2,6.5467052E0,1.314827E1,1.4751884E0,8.378159E0,8.128152E0,7.5523716E-1,9.083819E0,4.4824023E0,3.9820716E0,8.858412E0,-7.357795E-2,7.828862E-2,-7.3524974E-2,4.2606127E-2,-7.240928E-2,7.740873E-2,-6.453769E-2,-7.327556E-2,8.492954E-2,-7.4596696E-2,-6.6112034E-2,8.788575E-2,-5.8985222E-2,4.423746E-2,6.91145E-2,-8.590351E-2,2.6268262E-2,6.430638E-2,-7.217055E-2,2.493568E-2,-7.351689E-2,-1.8499024E-2,7.9992585E-2,-7.292908E-2,-7.22295E-2,8.621885E-2,1.6734993E-2,-7.686131E-2,-7.4761555E-2,-4.148184E-2,-7.533239E-2,4.4989426E-2,-7.419543E-2,7.907713E-2,8.099183E-2,2.9516766E-2,7.131271E-2,-8.200751E-2,7.1186975E-2,-7.881961E-2,6.455789E-2,-7.844385E-2,-7.861083E-2,1.7668756E-2,5.813953E-2,-8.299329E-2,-8.016052E-2,6.235343E-2,-8.1041366E-2,-1.8466817E-3,4.2075954E-2,-4.75344E-2,-4.4667084E-2,6.0182948E-2,6.528654E-2,-1.1146938E-1],"split_indices":[30,48,111,49,65,40,33,11,27,75,97,41,122,4,75,43,4,29,111,23,68,100,22,83,95,20,42,20,105,48,121,63,24,81,0,88,35,33,0,103,6,40,76,40,112,102,2,48,48,68,0,100,0,21,120,70,82,23,59,43,111,117,118,0,0,0,0,0,0,0,0,0,0,0,0,0,0,0,0,0,0,0,0,0,0,0,0,0,0,0,0,0,0,0,0,0,0,0,0,0,0,0,0,0,0,0,0,0,0,0,0,0,0,0,0,0,0,0,0],"split_type":[0,0,0,0,0,0,0,0,0,0,0,0,0,0,0,0,0,0,0,0,0,0,0,0,0,0,0,0,0,0,0,0,0,0,0,0,0,0,0,0,0,0,0,0,0,0,0,0,0,0,0,0,0,0,0,0,0,0,0,0,0,0,0,0,0,0,0,0,0,0,0,0,0,0,0,0,0,0,0,0,0,0,0,0,0,0,0,0,0,0,0,0,0,0,0,0,0,0,0,0,0,0,0,0,0,0,0,0,0,0,0,0,0,0,0,0,0,0,0],"sum_hessian":[1.509559E5,6.841708E4,8.253883E4,5.2865367E4,1.5551709E4,5.1120005E3,7.742683E4,1.670265E3,5.11951E4,1.0515075E4,5.0366333E3,4.1093193E3,1.0026813E3,2.6828152E3,7.4744016E4,1.4061017E3,2.641633E2,5.0699418E4,4.9568558E2,4.395223E3,6.1198525E3,4.7038555E3,3.327781E2,3.78773E3,3.2158923E2,2.613464E2,7.413349E2,1.3580793E3,1.3247357E3,4.229297E3,7.051472E4,6.9682304E1,1.3364194E3,1.6301587E2,1.0114743E2,5.0624477E4,7.494173E1,6.1069683E1,4.346159E2,3.5997222E3,7.9550116E2,4.4683633E3,1.6514889E3,4.5624546E3,1.4140068E2,1.5183958E2,1.809385E2,3.5577803E3,2.299498E2,2.3178387E2,8.980535E1,2.1923178E1,2.3942322E2,6.64322E2,7.701291E1,2.1803674E2,1.1400426E3,9.480349E2,3.7670084E2,6.8332654E2,3.5459705E3,7.009262E4,4.2209558E2,1.7529314E1,5.2152992E1,1.3111857E3,2.5233757E1,1.5317607E1,1.4769826E2,7.6404236E2,4.9860434E4,1.8444061E1,5.6497665E1,5.908519E0,5.5161163E1,2.702435E3,8.97287E2,7.1163055E2,8.387059E1,1.1550183E3,3.3133452E3,3.784536E2,1.2730353E3,4.531368E3,3.1086359E1,6.585731E1,7.554337E1,1.3820675E1,1.380189E2,3.0502394E1,1.5043613E2,3.0344958E3,5.232844E2,9.254554E1,1.3740427E2,8.088784E0,2.236951E2,9.233802E0,1.2689376E1,6.356556E2,2.8666437E1,8.721801E0,6.829111E1,1.3813205E2,7.9904686E1,1.1264172E3,1.3625408E1,8.462359E2,1.0179904E2,3.460486E2,3.0652224E1,5.9377527E2,8.955128E1,2.9346897E3,6.1128076E2,3.877354E2,6.970488E4,1.6898526E2,2.5311032E2],"tree_param":{"num_deleted":"0","num_feature":"124","num_nodes":"119","size_leaf_vector":"1"}},{"base_weights":[-4.962716E-3,-1.2976784E0,8.0501956E-1,-1.4146523E0,-3.0225247E-1,9.3981606E-1,-1.2216752E0,-1.4311259E0,-1.2213136E0,-1.4764063E0,2.3432E-1,-5.1468927E-2,1.0650015E0,-1.3690039E0,2.2155836E-1,-1.4325414E0,-1.0353787E0,4.3531802E-1,-1.3031932E0,4.9523294E-1,-1.4916372E0,4.5250526E-1,-1.6489277E0,-8.168492E-1,5.207083E-1,4.6795866E-1,1.1791862E0,-1.4197261E0,-4.6927333E-1,-1.5663702E0,8.562488E-1,-1.3289671E0,-7.169848E-2,6.8718857E-1,-7.169885E-2,-7.2890334E-2,1.6157436E0,5.879406E-1,-1.3450699E0,7.692277E-2,-6.5339275E-2,-9.552476E-1,-1.5077E0,-1.5490906E0,6.4953727E-1,2.4486199E-2,-1.712577E0,-9.8819834E-1,7.800018E-1,-1.3448244E0,6.5635544E-1,-1.2805967E0,6.900238E-1,3.4450436E-1,1.2150909E0,4.7158364E-2,-1.4259006E0,-7.225917E-2,1.3475755E0,-7.319279E-2,-1.0411254E-1,-1.6673226E0,1.183367E0,-7.201524E-2,2.0355212E-3,-6.7863E-2,6.946566E-2,2.807079E-2,8.700507E-2,-7.140116E-2,8.274097E-2,-1.3700402E-2,-7.1334966E-2,7.058626E-2,-7.04162E-2,-7.2091855E-2,-8.2467526E-2,-8.547985E-2,4.9669545E-2,-8.563926E-2,3.9246526E-2,-7.468584E-2,-9.959256E-2,3.2322522E-2,-6.077507E-2,-8.188417E-2,6.806113E-2,-1.0463037E-1,7.382253E-2,3.780942E-2,-8.4239006E-2,-7.119309E-2,2.2799613E-2,4.4181384E-2,-2.5217196E-2,2.9263576E-2,-9.619027E-2,-1.0729394E-1,6.1209448E-2,9.956448E-2,-7.998027E-2,-3.231369E-2,-7.189857E-2,-6.79551E-2,8.014786E-2,-9.927579E-2,-7.2950475E-2,6.983983E-2,-8.0136925E-2],"categories":[],"categories_nodes":[],"categories_segments":[],"categories_sizes":[],"default_left":[0,0,0,0,0,0,0,0,0,0,0,0,0,0,0,0,0,0,0,0,0,0,0,0,0,0,0,0,0,0,0,0,0,0,0,0,0,0,0,0,0,0,0,0,0,0,0,0,0,0,0,0,0,0,0,0,0,0,0,0,0,0,0,0,0,0,0,0,0,0,0,0,0,0,0,0,0,0,0,0,0,0,0,0,0,0,0,0,0,0,0,0,0,0,0,0,0,0,0,0,0,0,0,0,0,0,0,0,0],"id":10,"left_children":[1,3,5,7,9,11,13,15,17,19,21,23,25,27,29,31,33,35,37,39,41,43,45,47,49,51,53,55,57,59,61,63,-1,65,-1,-1,67,69,71,-1,-1,73,75,77,79,-1,81,83,85,87,89,91,93,95,97,99,101,-1,103,-1,-1,105,107,-1,-1,-1,-1,-1,-1,-1,-1,-1,-1,-1,-1,-1,-1,-1,-1,-1,-1,-1,-1,-1,-1,-1,-1,-1,-1,-1,-1,-1,-1,-1,-1,-1,-1,-1,-1,-1,-1,-1,-1,-1,-1,-1,-1,-1,-1],"loss_changes":[1.5522422E5,6.6488906E3,2.4899695E4,1.61E2,3.7843652E3,1.0604719E4,1.2089238E3,2.4882812E1,5.4572217E2,5.7314453E1,1.6949601E3,4.1970737E3,5.1720625E3,2.347168E2,5.9978564E2,5.03125E0,1.1867284E2,4.2702448E2,3.0410303E2,3.0571938E1,1.4669922E1,1.4585869E3,5.914258E1,1.122532E3,1.3886656E3,4.7314653E3,1.9083828E3,4.4285156E1,4.926406E2,4.2773438E0,3.2379672E2,9.9446655E1,0E0,4.9090946E1,0E0,0E0,1.4432159E1,1.8231552E2,3.2723633E2,0E0,0E0,6.3216923E1,1.454248E1,1.3698071E2,1.0777385E3,0E0,2.2461182E1,1.3766282E3,5.6128625E2,7.880299E2,1.1963127E3,3.4229834E2,2.50027E3,1.4364772E3,1.8699141E3,7.179922E1,4.482129E1,0E0,6.938359E1,0E0,0E0,9.587097E-2,2.078045E2,0E0,0E0,0E0,0E0,0E0,0E0,0E0,0E0,0E0,0E0,0E0,0E0,0E0,0E0,0E0,0E0,0E0,0E0,0E0,0E0,0E0,0E0,0E0,0E0,0E0,0E0,0E0,0E0,0E0,0E0,0E0,0E0,0E0,0E0,0E0,0E0,0E0,0E0,0E0,0E0,0E0,0E0,0E0,0E0,0E0,0E0],"parents":[2147483647,0,0,1,1,2,2,3,3,4,4,5,5,6,6,7,7,8,8,9,9,10,10,11,11,12,12,13,13,14,14,15,15,16,16,17,17,18,18,19,19,20,20,21,21,22,22,23,23,24,24,25,25,26,26,27,27,28,28,29,29,30,30,31,31,33,33,36,36,37,37,38,38,41,41,42,42,43,43,44,44,46,46,47,47,48,48,49,49,50,50,51,51,52,52,53,53,54,54,55,55,56,56,58,58,61,61,62,62],"right_children":[2,4,6,8,10,12,14,16,18,20,22,24,26,28,30,32,34,36,38,40,42,44,46,48,50,52,54,56,58,60,62,64,-1,66,-1,-1,68,70,72,-1,-1,74,76,78,80,-1,82,84,86,88,90,92,94,96,98,100,102,-1,104,-1,-1,106,108,-1,-1,-1,-1,-1,-1,-1,-1,-1,-1,-1,-1,-1,-1,-1,-1,-1,-1,-1,-1,-1,-1,-1,-1,-1,-1,-1,-1,-1,-1,-1,-1,-1,-1,-1,-1,-1,-1,-1,-1,-1,-1,-1,-1,-1,-1],"split_conditions":[6.4151397E0,3.644136E-2,7.229539E0,5.665104E-3,5.0581735E-1,3.0176384E0,1.6445772E1,4.874233E-2,-7.7023926E0,-1.8877038E0,7.667403E1,2.8481796E0,4.9107347E-2,3.315798E1,7.7717576E0,-1.3943099E1,1.4184011E0,1.1836692E1,2.7154746E0,1.7886609E-1,9.907596E-1,4.5288424E0,8.398474E-2,8.543767E-1,3.6304793E0,2.8780918E0,2.8343127E0,5.331869E0,7.5403433E0,2.9869389E-2,3.1269693E-1,7.873775E-1,-7.169848E-2,3.7899312E-1,-7.169885E-2,-7.2890334E-2,3.282394E-4,5.6430473E0,4.8568807E0,7.692277E-2,-6.5339275E-2,1.024425E-1,2.4970827E0,1.4029546E1,9.265247E0,2.4486199E-2,-1.673177E-1,-1.3862494E0,1.3835468E1,6.5359535E1,5.7901E0,8.114714E0,1.7049415E0,7.6390133E0,2.548275E1,3.3149178E0,3.4259744E0,-7.225917E-2,3.3500793E0,-7.319279E-2,-1.0411254E-1,7.5137553E0,9.027187E0,-7.201524E-2,2.0355212E-3,-6.7863E-2,6.946566E-2,2.807079E-2,8.700507E-2,-7.140116E-2,8.274097E-2,-1.3700402E-2,-7.1334966E-2,7.058626E-2,-7.04162E-2,-7.2091855E-2,-8.2467526E-2,-8.547985E-2,4.9669545E-2,-8.563926E-2,3.9246526E-2,-7.468584E-2,-9.959256E-2,3.2322522E-2,-6.077507E-2,-8.188417E-2,6.806113E-2,-1.0463037E-1,7.382253E-2,3.780942E-2,-8.4239006E-2,-7.119309E-2,2.2799613E-2,4.4181384E-2,-2.5217196E-2,2.9263576E-2,-9.619027E-2,-1.0729394E-1,6.1209448E-2,9.956448E-2,-7.998027E-2,-3.231369E-2,-7.189857E-2,-6.79551E-2,8.014786E-2,-9.927579E-2,-7.2950475E-2,6.983983E-2,-8.0136925E-2],"split_indices":[48,30,65,30,69,111,74,57,35,88,78,72,30,117,93,87,43,8,17,3,47,18,95,40,65,75,66,66,100,30,60,40,0,10,0,0,24,21,49,0,0,8,111,8,121,0,58,81,15,78,49,22,100,17,78,5,23,0,111,0,0,49,23,0,0,0,0,0,0,0,0,0,0,0,0,0,0,0,0,0,0,0,0,0,0,0,0,0,0,0,0,0,0,0,0,0,0,0,0,0,0,0,0,0,0,0,0,0,0],"split_type":[0,0,0,0,0,0,0,0,0,0,0,0,0,0,0,0,0,0,0,0,0,0,0,0,0,0,0,0,0,0,0,0,0,0,0,0,0,0,0,0,0,0,0,0,0,0,0,0,0,0,0,0,0,0,0,0,0,0,0,0,0,0,0,0,0,0,0,0,0,0,0,0,0,0,0,0,0,0,0,0,0,0,0,0,0,0,0,0,0,0,0,0,0,0,0,0,0,0,0,0,0,0,0,0,0,0,0,0,0],"sum_hessian":[1.4824331E5,5.710472E4,9.11386E4,5.1099516E4,6.0052026E3,8.545545E4,5.6831494E3,4.7081516E4,4.0179995E3,1.8829934E3,4.122209E3,9.581853E3,7.58736E4,5.1567837E3,5.263655E2,4.6911113E4,1.7040298E2,1.8903465E2,3.8289648E3,1.4193051E1,1.8688004E3,3.6948936E3,4.2731534E2,4.0987197E3,5.483133E3,1.2182018E4,6.3691582E4,4.8810376E3,2.7574603E2,1.3751541E2,3.888501E2,6.5073987E2,4.626037E4,3.1885185E1,1.3851779E2,7.251027E1,1.1652438E2,8.266808E1,3.7462969E3,9.081728E0,5.111323E0,5.609405E1,1.8127063E3,3.305062E2,3.3643875E3,1.2156497E1,4.1515884E2,3.7018735E3,3.9684622E2,3.7106223E2,5.1120703E3,1.3722289E3,1.0809788E4,2.6272012E3,6.1064383E4,2.0431644E1,4.860606E3,1.7952159E2,9.6224434E1,1.1792018E2,1.9595232E1,4.415063E1,3.4469946E2,6.017718E2,4.8968044E1,7.9124913E0,2.3972692E1,1.2875776E1,1.03648605E2,2.8491785E1,5.41763E1,2.656076E2,3.4806892E3,8.672274E0,4.7421776E1,1.2450005E3,5.677059E2,3.111885E2,1.931766E1,1.8174126E2,3.1826462E3,2.3631404E2,1.788448E2,4.5169168E2,3.250182E3,7.656085E1,3.2028537E2,2.9352203E2,7.754018E1,4.9036416E3,2.0842868E2,1.2678167E3,1.0441223E2,9.302188E3,1.5076001E3,2.3757698E3,2.5143141E2,1.6421942E2,6.0900164E4,9.2738905E0,1.1157754E1,7.4939384E1,4.785667E3,7.9236217E0,8.830081E1,1.4092817E1,3.0057814E1,3.206358E2,2.4063643E1],"tree_param":{"num_deleted":"0","num_feature":"124","num_nodes":"109","size_leaf_vector":"1"}},{"base_weights":[1.37384E-3,-1.2696534E0,7.8363436E-1,-1.3840092E0,-3.0471045E-1,9.500758E-1,-7.435068E-1,-1.3959262E0,-1.0314696E0,-1.3473738E0,2.0481461E-1,-6.248333E-2,1.0700849E0,-1.2834816E0,8.366659E-2,-1.1287873E0,-1.4029658E0,-1.3881569E0,-8.3225496E-2,-1.4453293E0,9.011322E-1,4.4524536E-1,-1.595872E0,-6.861872E-1,7.11354E-1,4.8495686E-1,1.1520824E0,-1.3668367E0,3.5460547E-1,-1.1142092E0,5.4029113E-1,7.0993245E-1,-1.2785283E0,-1.404394E0,-1.1804208E0,-8.207206E-1,-7.096234E-2,1.3390497E0,-1.0826685E0,-1.24802245E-2,-1.4725195E0,8.130165E-2,-7.909676E-2,-1.4711179E0,6.621226E-1,5.618723E-2,-1.6514084E0,9.554434E-1,-1.0280279E0,-1.7375207E0,8.237061E-1,6.567555E-1,-7.575017E-1,3.9964557E-1,1.1860545E0,7.546013E-1,-1.397244E0,1.6012605E0,-7.2742954E-2,3.1683433E-1,-1.4260026E0,-6.566492E-1,8.731584E-1,-7.2583996E-2,6.340791E-2,-7.106675E-2,1.9206481E-2,-7.015002E-2,-8.0062315E-2,7.739218E-2,-6.875127E-2,1.2388887E-1,-6.94098E-2,-7.234235E-2,8.594411E-2,5.823223E-2,-7.394121E-2,7.2865926E-2,-7.2819166E-2,-7.0950985E-2,-8.788925E-2,-7.113689E-2,-8.064681E-2,-8.757692E-2,4.106032E-2,-7.303917E-2,-9.465395E-2,6.2565915E-2,-8.9014046E-2,-6.720601E-2,3.0316407E-2,-7.815165E-2,-9.848116E-2,-6.8648756E-2,4.5304347E-2,3.9458524E-2,-4.59741E-2,-5.7416964E-2,4.9867135E-2,3.0084847E-2,-1.0674491E-1,-1.1036783E-1,5.9690263E-2,7.665501E-2,-7.383619E-2,-2.7007011E-3,-7.166418E-2,8.28568E-2,6.609958E-2,6.7722104E-2,-7.905891E-2,-7.857316E-2,7.3364586E-2,-5.4191083E-2,6.4216E-2,-1.0628598E-1,4.8208114E-2],"categories":[],"categories_nodes":[],"categories_segments":[],"categories_sizes":[],"default_left":[0,0,0,0,0,0,0,0,0,0,0,0,0,0,0,0,0,0,0,0,0,0,0,0,0,0,0,0,0,0,0,0,0,0,0,0,0,0,0,0,0,0,0,0,0,0,0,0,0,0,0,0,0,0,0,0,0,0,0,0,0,0,0,0,0,0,0,0,0,0,0,0,0,0,0,0,0,0,0,0,0,0,0,0,0,0,0,0,0,0,0,0,0,0,0,0,0,0,0,0,0,0,0,0,0,0,0,0,0,0,0,0,0,0,0,0,0],"id":11,"left_children":[1,3,5,7,9,11,13,15,17,19,21,23,25,27,29,31,33,35,37,39,41,43,45,47,49,51,53,55,57,59,61,63,65,67,69,71,-1,73,75,77,79,-1,-1,81,83,-1,85,87,89,91,93,95,97,99,101,103,105,107,-1,109,111,113,115,-1,-1,-1,-1,-1,-1,-1,-1,-1,-1,-1,-1,-1,-1,-1,-1,-1,-1,-1,-1,-1,-1,-1,-1,-1,-1,-1,-1,-1,-1,-1,-1,-1,-1,-1,-1,-1,-1,-1,-1,-1,-1,-1,-1,-1,-1,-1,-1,-1,-1,-1,-1,-1,-1],"loss_changes":[1.4474092E5,6.119508E3,2.290573E4,2.06875E2,3.1228127E3,9.874227E3,3.955983E3,8.860156E1,5.495502E2,4.2628516E2,1.7104155E3,4.156637E3,3.485E3,7.321758E2,1.9144965E3,3.4135107E2,1.31953125E1,1.9667236E1,6.344024E2,7.203125E1,1.4866861E2,1.4492542E3,7.214734E1,2.6770288E3,1.05893E3,1.9068364E3,1.6282734E3,3.300039E2,5.8944226E2,4.3148035E2,1.01017706E3,1.14973755E2,2.7211096E2,1.05E1,1.6365894E2,1.2269307E2,0E0,1.974159E2,2.350339E2,7.7353836E1,2.5204102E1,0E0,0E0,1.3793945E-1,1.203693E3,0E0,1.8264038E1,6.678787E2,2.0400044E3,3.7627258E0,6.664011E2,1.6384473E3,7.4555225E2,1.4116533E3,1.6061094E3,1.2856454E2,2.4331055E2,2.2131348E-1,0E0,3.4410522E2,3.3620813E2,4.590204E2,5.432471E2,0E0,0E0,0E0,0E0,0E0,0E0,0E0,0E0,0E0,0E0,0E0,0E0,0E0,0E0,0E0,0E0,0E0,0E0,0E0,0E0,0E0,0E0,0E0,0E0,0E0,0E0,0E0,0E0,0E0,0E0,0E0,0E0,0E0,0E0,0E0,0E0,0E0,0E0,0E0,0E0,0E0,0E0,0E0,0E0,0E0,0E0,0E0,0E0,0E0,0E0,0E0,0E0,0E0,0E0],"parents":[2147483647,0,0,1,1,2,2,3,3,4,4,5,5,6,6,7,7,8,8,9,9,10,10,11,11,12,12,13,13,14,14,15,15,16,16,17,17,18,18,19,19,20,20,21,21,22,22,23,23,24,24,25,25,26,26,27,27,28,28,29,29,30,30,31,31,32,32,33,33,34,34,35,35,37,37,38,38,39,39,40,40,43,43,44,44,46,46,47,47,48,48,49,49,50,50,51,51,52,52,53,53,54,54,55,55,56,56,57,57,59,59,60,60,61,61,62,62],"right_children":[2,4,6,8,10,12,14,16,18,20,22,24,26,28,30,32,34,36,38,40,42,44,46,48,50,52,54,56,58,60,62,64,66,68,70,72,-1,74,76,78,80,-1,-1,82,84,-1,86,88,90,92,94,96,98,100,102,104,106,108,-1,110,112,114,116,-1,-1,-1,-1,-1,-1,-1,-1,-1,-1,-1,-1,-1,-1,-1,-1,-1,-1,-1,-1,-1,-1,-1,-1,-1,-1,-1,-1,-1,-1,-1,-1,-1,-1,-1,-1,-1,-1,-1,-1,-1,-1,-1,-1,-1,-1,-1,-1,-1,-1,-1,-1,-1,-1],"split_conditions":[6.4151397E0,3.644136E-2,7.0583096E0,1.2192713E1,3.1246943E0,3.0176384E0,4.064342E-3,5.3514214E0,4.064342E-3,7.8931513E0,7.667403E1,7.873775E-1,3.644136E-2,1.2133152E1,2.0392844E-1,2.0198798E0,8.835258E-2,-7.3984665E-1,4.2948327E0,8.256027E-1,-6.0918593E-1,-8.124804E-1,2.6263201E0,-1.1202672E0,9.1342735E-1,6.2394233E0,2.8343127E0,3.2586443E0,1.2888246E0,9.889242E-1,4.9536204E0,1.4069893E1,7.8931513E0,2.9869389E-2,-7.7023926E0,7.603462E0,-7.096234E-2,6.24126E0,-8.997317E-1,2.6245493E-1,2.4970827E0,8.130165E-2,-7.909676E-2,6.063182E0,9.466162E0,5.618723E-2,-1.673177E-1,2.058569E0,3.3336662E1,2.4970827E0,1.8958879E0,2.2014127E0,1.7716202E1,7.7550344E0,2.4046629E1,3.9470847E0,1.1874926E-1,-3.5351213E-2,-7.2742954E-2,1.4751884E0,1.1377585E1,1.1377585E1,8.727658E0,-7.2583996E-2,6.340791E-2,-7.106675E-2,1.9206481E-2,-7.015002E-2,-8.0062315E-2,7.739218E-2,-6.875127E-2,1.2388887E-1,-6.94098E-2,-7.234235E-2,8.594411E-2,5.823223E-2,-7.394121E-2,7.2865926E-2,-7.2819166E-2,-7.0950985E-2,-8.788925E-2,-7.113689E-2,-8.064681E-2,-8.757692E-2,4.106032E-2,-7.303917E-2,-9.465395E-2,6.2565915E-2,-8.9014046E-2,-6.720601E-2,3.0316407E-2,-7.815165E-2,-9.848116E-2,-6.8648756E-2,4.5304347E-2,3.9458524E-2,-4.59741E-2,-5.7416964E-2,4.9867135E-2,3.0084847E-2,-1.0674491E-1,-1.1036783E-1,5.9690263E-2,7.665501E-2,-7.383619E-2,-2.7007011E-3,-7.166418E-2,8.28568E-2,6.609958E-2,6.7722104E-2,-7.905891E-2,-7.857316E-2,7.3364586E-2,-5.4191083E-2,6.4216E-2,-1.0628598E-1,4.8208114E-2],"split_indices":[48,30,42,31,111,111,30,49,30,35,78,40,30,100,58,43,29,61,105,19,76,58,90,82,33,65,66,44,106,20,115,120,35,30,35,66,0,66,60,4,111,0,0,72,120,0,58,10,116,111,111,100,96,17,78,4,74,34,0,70,82,82,122,0,0,0,0,0,0,0,0,0,0,0,0,0,0,0,0,0,0,0,0,0,0,0,0,0,0,0,0,0,0,0,0,0,0,0,0,0,0,0,0,0,0,0,0,0,0,0,0,0,0,0,0,0,0],"split_type":[0,0,0,0,0,0,0,0,0,0,0,0,0,0,0,0,0,0,0,0,0,0,0,0,0,0,0,0,0,0,0,0,0,0,0,0,0,0,0,0,0,0,0,0,0,0,0,0,0,0,0,0,0,0,0,0,0,0,0,0,0,0,0,0,0,0,0,0,0,0,0,0,0,0,0,0,0,0,0,0,0,0,0,0,0,0,0,0,0,0,0,0,0,0,0,0,0,0,0,0,0,0,0,0,0,0,0,0,0,0,0,0,0,0,0,0,0],"sum_hessian":[1.455724E5,5.5459863E4,9.011255E4,4.9583293E4,5.8765713E3,8.1256836E4,8.855713E3,4.7959152E4,1.6241399E3,1.9285173E3,3.9480537E3,8.610187E3,7.264665E4,5.3576885E3,3.4980244E3,1.2354834E3,4.672367E4,1.1798636E3,4.4427625E2,1.8483517E3,8.0165634E1,3.483662E3,4.6439172E2,4.7676387E3,3.8425479E3,8.929965E3,6.3716684E4,5.098418E3,2.5927057E2,9.650202E2,2.5330044E3,9.275638E1,1.1427269E3,4.642043E4,3.032397E2,6.2710007E1,1.1171537E3,1.8321255E2,2.610637E2,3.444895E1,1.8139028E3,6.2317856E1,1.7847778E1,3.535808E2,3.1300813E3,8.908499E0,4.5548325E2,8.2136786E2,3.946271E3,1.6792462E2,3.6746233E3,7.8456006E3,1.0843645E3,2.7530454E3,6.0963637E4,7.170838E1,5.0267095E3,1.5357681E2,1.0569376E2,1.7263918E2,7.9238104E2,5.509389E2,1.9820654E3,1.8709034E1,7.404735E1,1.0524745E3,9.02525E1,4.610215E4,3.1828323E2,1.9726698E1,2.83513E2,8.710893E0,5.3999115E1,2.1645266E1,1.6156729E2,3.8832825E1,2.2223087E2,1.7066788E1,1.7382162E1,1.5324711E3,2.814317E2,2.7186765E2,8.171318E1,1.929273E2,2.9371538E3,2.585715E2,1.9691173E2,7.4169446E2,7.967338E1,3.3068818E3,6.393892E2,1.00275024E2,6.764959E1,1.3225964E2,3.5423638E3,7.238053E3,6.0754755E2,8.8712933E2,1.9723509E2,2.5504858E3,2.0255965E2,1.3828104E2,6.0825355E4,5.3392803E1,1.8315578E1,1.3141057E2,4.8952993E3,1.2386113E2,2.9715683E1,1.1180427E2,6.08349E1,7.54886E2,3.7495068E1,4.519208E2,9.901807E1,5.7717728E1,1.9243477E3],"tree_param":{"num_deleted":"0","num_feature":"124","num_nodes":"117","size_leaf_vector":"1"}},{"base_weights":[1.1431732E-3,-1.2383515E0,7.585404E-1,-1.3377647E0,-5.529379E-1,8.8380194E-1,-1.1802216E0,-3.8105902E-1,-1.3536177E0,-1.424166E0,-2.1572487E-1,-3.9634474E-2,1.0016738E0,-1.3482099E0,-7.0661366E-2,-1.1518401E0,1.2497637E0,-1.0977399E0,-1.3660898E0,-6.9196455E-2,-1.5101851E0,2.9655662E-1,-9.0353906E-1,-9.0740514E-1,3.7154695E-1,-6.509097E-1,1.0414312E0,-1.3798176E0,-2.9154712E-1,9.1933596E-1,-1.023396E0,7.370677E-2,-1.3423046E0,-6.5693155E-2,1.4551929E0,7.081594E-1,-6.9215834E-2,-1.3728651E0,-1.1397221E0,-7.203435E-2,-1.6413593E0,8.906545E-1,-3.7751976E-1,-1.0504584E0,6.6933745E-1,-1.1428853E0,3.548059E-1,-9.7974694E-1,5.3235805E-1,-1.1412596E0,1.4603081E0,2.7899966E-1,1.1031417E0,5.510772E-1,-1.3896304E0,6.996997E-2,-7.000934E-2,1.2545594E0,-7.65182E-2,-1.308845E0,1.0543358E0,-6.979513E-2,6.4261794E-2,1.0233634E-1,7.103783E-2,-6.811464E-2,8.146416E-2,-6.890301E-2,-5.4617163E-2,8.408782E-2,-6.1240852E-2,-7.3839076E-2,-9.709599E-2,-7.168356E-2,5.782261E-2,-7.789823E-2,1.795667E-2,1.6075961E-2,-6.376275E-2,-7.2732076E-2,7.374693E-2,1.2771405E-4,-7.199093E-2,-8.5274145E-2,4.6626024E-2,-9.305961E-2,1.623284E-2,3.1627648E-2,-7.96778E-2,-7.27315E-2,7.891421E-3,7.7784844E-2,-8.439622E-2,-6.914455E-2,3.204997E-2,4.634898E-2,6.275074E-2,-8.2956895E-2,6.603914E-2,-6.934548E-2,-8.52306E-2,7.200545E-2,-9.7167365E-2,1.0930304E-2,-7.332832E-2,-6.2316276E-2,7.947233E-2],"categories":[],"categories_nodes":[],"categories_segments":[],"categories_sizes":[],"default_left":[0,0,0,0,0,0,0,0,0,0,0,0,0,0,0,0,0,0,0,0,0,0,0,0,0,0,0,0,0,0,0,0,0,0,0,0,0,0,0,0,0,0,0,0,0,0,0,0,0,0,0,0,0,0,0,0,0,0,0,0,0,0,0,0,0,0,0,0,0,0,0,0,0,0,0,0,0,0,0,0,0,0,0,0,0,0,0,0,0,0,0,0,0,0,0,0,0,0,0,0,0,0,0,0,0,0,0],"id":12,"left_children":[1,3,5,7,9,11,13,15,17,19,21,23,25,27,29,31,33,35,37,-1,39,41,43,45,47,49,51,53,55,57,59,-1,61,-1,63,65,-1,67,69,-1,71,73,75,77,79,81,83,85,87,89,91,93,95,97,99,-1,-1,101,-1,103,105,-1,-1,-1,-1,-1,-1,-1,-1,-1,-1,-1,-1,-1,-1,-1,-1,-1,-1,-1,-1,-1,-1,-1,-1,-1,-1,-1,-1,-1,-1,-1,-1,-1,-1,-1,-1,-1,-1,-1,-1,-1,-1,-1,-1,-1,-1],"loss_changes":[1.3362981E5,3.6780234E3,2.1457965E4,7.145781E2,2.0093364E3,9.033527E3,9.994282E2,9.692614E2,1.4651562E2,4.5161133E0,1.7383597E3,3.3527063E3,4.83625E3,1.5514551E2,6.6701135E2,2.637367E2,1.3230249E2,1.1192222E3,6.625E1,0E0,3.0805664E0,1.1328173E3,4.8734595E2,8.982905E2,1.3859314E3,1.7922283E3,3.3811406E3,8.644238E1,2.579126E2,2.8674658E2,2.1508951E2,0E0,7.058783E1,0E0,1.7710266E0,5.6785254E2,0E0,6.10625E1,3.1201E2,0E0,7.0096436E0,9.304706E2,1.1531678E3,5.9453613E2,3.110193E2,8.6599854E2,5.678364E2,7.8057684E2,1.214734E3,5.718638E2,1.0065814E2,3.2391992E3,1.7776641E3,4.230494E1,1.4921875E0,0E0,0E0,1.8415811E2,0E0,7.675122E1,5.6246685E1,0E0,0E0,0E0,0E0,0E0,0E0,0E0,0E0,0E0,0E0,0E0,0E0,0E0,0E0,0E0,0E0,0E0,0E0,0E0,0E0,0E0,0E0,0E0,0E0,0E0,0E0,0E0,0E0,0E0,0E0,0E0,0E0,0E0,0E0,0E0,0E0,0E0,0E0,0E0,0E0,0E0,0E0,0E0,0E0,0E0,0E0],"parents":[2147483647,0,0,1,1,2,2,3,3,4,4,5,5,6,6,7,7,8,8,9,9,10,10,11,11,12,12,13,13,14,14,15,15,16,16,17,17,18,18,20,20,21,21,22,22,23,23,24,24,25,25,26,26,27,27,28,28,29,29,30,30,32,32,34,34,35,35,37,37,38,38,40,40,41,41,42,42,43,43,44,44,45,45,46,46,47,47,48,48,49,49,50,50,51,51,52,52,53,53,54,54,57,57,59,59,60,60],"right_children":[2,4,6,8,10,12,14,16,18,20,22,24,26,28,30,32,34,36,38,-1,40,42,44,46,48,50,52,54,56,58,60,-1,62,-1,64,66,-1,68,70,-1,72,74,76,78,80,82,84,86,88,90,92,94,96,98,100,-1,-1,102,-1,104,106,-1,-1,-1,-1,-1,-1,-1,-1,-1,-1,-1,-1,-1,-1,-1,-1,-1,-1,-1,-1,-1,-1,-1,-1,-1,-1,-1,-1,-1,-1,-1,-1,-1,-1,-1,-1,-1,-1,-1,-1,-1,-1,-1,-1,-1,-1],"split_conditions":[6.4151397E0,9.0690125E-3,7.229539E0,1.4184011E0,4.3088698E-1,3.0176384E0,1.37932625E1,1.5766696E-4,-5.8018575E0,2.4970827E0,7.243044E0,2.5315118E0,-2.0050739E-1,1.2133152E1,9.892869E0,-6.3536434E0,3.0748684E0,4.211532E0,3.622085E-1,-6.9196455E-2,2.3996644E0,-3.843978E-2,3.240755E1,3.1562092E0,3.7563345E0,3.4081863E1,2.6799197E0,1.050882E0,1.2600918E-1,-4.628228E0,3.3980034E1,7.370677E-2,5.45141E0,-6.5693155E-2,1.4635217E-1,6.3816085E0,-6.9215834E-2,4.5187363E-1,4.884195E0,-7.203435E-2,4.7687265E-1,-3.4922352E-1,4.2405534E0,4.068491E0,7.4327765E0,2.940671E0,6.2097054E0,3.0084795E1,5.7901E0,8.2457227E-1,4.0006824E0,1.4535886E-2,8.824698E-1,3.295327E0,8.835258E-2,6.996997E-2,-7.000934E-2,1.7300283E1,-7.65182E-2,7.638811E0,5.893465E0,-6.979513E-2,6.4261794E-2,1.0233634E-1,7.103783E-2,-6.811464E-2,8.146416E-2,-6.890301E-2,-5.4617163E-2,8.408782E-2,-6.1240852E-2,-7.3839076E-2,-9.709599E-2,-7.168356E-2,5.782261E-2,-7.789823E-2,1.795667E-2,1.6075961E-2,-6.376275E-2,-7.2732076E-2,7.374693E-2,1.2771405E-4,-7.199093E-2,-8.5274145E-2,4.6626024E-2,-9.305961E-2,1.623284E-2,3.1627648E-2,-7.96778E-2,-7.27315E-2,7.891421E-3,7.7784844E-2,-8.439622E-2,-6.914455E-2,3.204997E-2,4.634898E-2,6.275074E-2,-8.2956895E-2,6.603914E-2,-6.934548E-2,-8.52306E-2,7.200545E-2,-9.7167365E-2,1.0930304E-2,-7.332832E-2,-6.2316276E-2,7.947233E-2],"split_indices":[48,29,65,43,69,111,74,57,81,111,49,72,59,100,123,80,75,10,56,0,75,60,119,106,65,119,75,45,109,113,118,0,47,0,40,75,0,63,23,0,33,33,106,66,16,44,22,117,49,33,65,29,101,46,29,0,0,92,0,65,21,0,0,0,0,0,0,0,0,0,0,0,0,0,0,0,0,0,0,0,0,0,0,0,0,0,0,0,0,0,0,0,0,0,0,0,0,0,0,0,0,0,0,0,0,0,0],"split_type":[0,0,0,0,0,0,0,0,0,0,0,0,0,0,0,0,0,0,0,0,0,0,0,0,0,0,0,0,0,0,0,0,0,0,0,0,0,0,0,0,0,0,0,0,0,0,0,0,0,0,0,0,0,0,0,0,0,0,0,0,0,0,0,0,0,0,0,0,0,0,0,0,0,0,0,0,0,0,0,0,0,0,0,0,0,0,0,0,0,0,0,0,0,0,0,0,0,0,0,0,0,0,0,0,0,0,0],"sum_hessian":[1.4234064E5,5.3987863E4,8.835278E4,4.714844E4,6.8394204E3,8.299133E4,5.3614473E3,7.6894135E2,4.63795E4,1.907627E3,4.9317935E3,9.394359E3,7.359697E4,4.656269E3,7.0517804E2,5.2235345E2,2.465879E2,2.159733E3,4.421977E4,1.3113218E3,5.9630524E2,2.8268984E3,2.1048948E3,3.0198862E3,6.3744727E3,1.728618E3,7.186835E4,4.5207354E3,1.3553384E2,3.4584335E2,3.5933466E2,3.486888E1,4.874846E2,1.7893425E1,2.2869449E2,2.9558658E2,1.8641464E3,4.2929812E4,1.2899556E3,3.976219E2,1.9868335E2,1.5024188E3,1.3244796E3,1.9253809E3,1.7951393E2,2.5451528E3,4.747335E2,6.7737823E2,5.6970947E3,1.4031768E3,3.254413E2,5.3817993E3,6.6486555E4,2.2579378E1,4.498156E3,5.3567715E1,8.1966125E1,3.0464307E2,4.1200294E1,3.1625595E2,4.307873E1,4.7819876E2,9.285821E0,9.366426E0,2.1932806E2,9.086537E1,2.0472122E2,4.2145406E4,7.844072E2,3.7216343E1,1.2527393E3,1.3220517E2,6.647817E1,1.5372685E2,1.3486919E3,5.0850864E2,8.15971E2,2.7099786E2,1.654383E3,4.914274E1,1.303712E2,5.241603E2,2.0209924E3,1.0353766E2,3.7119583E2,4.0397025E2,2.7340802E2,5.441345E3,2.5574948E2,1.1303823E3,2.727944E2,3.163617E2,9.079639E0,9.621019E2,4.4196973E3,3.078511E4,3.5701445E4,5.533718E0,1.704566E1,4.46499E3,3.3165817E1,2.8845587E2,1.6187176E1,2.956341E1,2.8669254E2,7.878166E0,3.5200565E1],"tree_param":{"num_deleted":"0","num_feature":"124","num_nodes":"107","size_leaf_vector":"1"}},{"base_weights":[-2.625338E-4,-1.0645349E0,8.4537536E-1,-1.3319156E0,-1.9965087E-1,-6.2017804E-1,9.613337E-1,-9.670559E-1,-1.3440949E0,2.5250152E-1,-1.1927202E0,-1.2522068E0,5.3537184E-1,-4.6599135E-1,1.0108949E0,-1.2310218E0,1.7624694E-1,-1.3478185E0,-9.7132534E-1,-6.549137E-2,1.0152222E0,-1.2955048E0,1.1315948E-1,8.483755E-2,-1.3735827E0,8.5372144E-1,-1.9465847E0,-1.1643773E0,3.380137E-1,3.0404234E-1,1.081065E0,6.8545926E-1,-1.3365996E0,8.6906695E-1,-7.000565E-2,-1.095461E0,-1.3501979E0,1.266701E0,-6.8284295E-2,-2.7730766E-1,1.2137576E0,-1.7618874E0,1.0941756E0,-1.3343782E0,-6.3691005E-2,-6.907263E-2,9.214441E-1,-6.991791E-2,1.3076144E0,-1.4291893E0,-2.2893637E-2,-2.220828E0,9.46312E-1,-1.5641162E0,-2.1877925E0,-1.4297715E0,-3.8795892E-2,-7.639181E-1,8.7236905E-1,-1.3275787E0,5.036003E-1,9.103633E-1,1.2271175E0,-6.814312E-2,7.118298E-2,3.8021427E-2,-6.91457E-2,-7.100885E-2,6.639956E-2,-6.844861E-2,8.778567E-2,-6.0471434E-2,-6.7611925E-2,-6.2407713E-2,7.796728E-2,-8.202978E-2,-3.6607676E-3,-8.197301E-2,6.9239005E-2,-7.985502E-2,-1.0963299E-1,5.703155E-2,-1.05452135E-1,-6.77177E-2,-8.839485E-3,-6.740429E-2,6.9664985E-2,-7.186451E-2,6.2770255E-2,-7.409503E-2,7.7317975E-2,-7.2425045E-2,3.8746085E-2,-7.812821E-2,5.569644E-2,-7.835428E-2,-1.2509207E-1,-8.689602E-2,5.238384E-2,-6.804588E-2,-8.655165E-2,-1.1336321E-1,-8.876916E-2,9.057831E-4,-7.491072E-2,6.296291E-2,-8.066188E-2,2.6034325E-2,-7.671446E-2,5.5167932E-2,-8.384412E-2,-8.700411E-2,5.9123393E-2,-1.365714E-2,3.708857E-2,1.53477965E-2,5.1387776E-2,6.5511875E-2,4.557941E-2],"categories":[],"categories_nodes":[],"categories_segments":[],"categories_sizes":[],"default_left":[0,0,0,0,0,0,0,0,0,0,0,0,0,0,0,0,0,0,0,0,0,0,0,0,0,0,0,0,0,0,0,0,0,0,0,0,0,0,0,0,0,0,0,0,0,0,0,0,0,0,0,0,0,0,0,0,0,0,0,0,0,0,0,0,0,0,0,0,0,0,0,0,0,0,0,0,0,0,0,0,0,0,0,0,0,0,0,0,0,0,0,0,0,0,0,0,0,0,0,0,0,0,0,0,0,0,0,0,0,0,0,0,0,0,0,0,0,0,0],"id":13,"left_children":[1,3,5,7,9,11,13,15,17,19,21,23,25,27,29,31,33,35,37,39,41,43,45,47,49,51,53,55,57,59,61,63,65,67,-1,69,71,73,-1,75,77,79,81,83,85,-1,87,-1,89,91,93,95,97,99,101,103,105,107,109,111,113,115,117,-1,-1,-1,-1,-1,-1,-1,-1,-1,-1,-1,-1,-1,-1,-1,-1,-1,-1,-1,-1,-1,-1,-1,-1,-1,-1,-1,-1,-1,-1,-1,-1,-1,-1,-1,-1,-1,-1,-1,-1,-1,-1,-1,-1,-1,-1,-1,-1,-1,-1,-1,-1,-1,-1,-1,-1],"loss_changes":[1.2502032E5,1.4223109E4,1.3155473E4,2.0747656E2,6.522537E3,4.146245E3,5.0748125E3,4.5929407E2,6.1789062E1,2.4210732E3,6.1014746E2,5.956367E2,1.5879457E3,1.3524263E3,3.438211E3,2.5099817E2,3.137907E2,2.5554688E1,4.0171463E2,1.909488E3,6.459385E2,2.0165869E2,4.0298584E2,5.574137E2,2.5264746E2,5.088457E2,1.7661804E1,3.8493774E2,6.601909E2,2.0395702E3,1.5711719E3,1.0051881E2,1.1485669E2,2.1141403E2,0E0,3.343991E2,1.11640625E1,5.2294968E1,0E0,1.6820004E3,4.907622E2,2.2890167E0,4.2748462E2,9.420166E1,2.4504077E2,0E0,1.7227806E2,0E0,1.1446182E2,1.3865869E2,2.3636003E2,5.6946716E0,4.7218958E2,7.610626E-1,4.859619E-1,1.0337305E2,5.0667804E2,3.6330792E2,4.4629224E2,7.089131E2,1.032534E3,2.0597422E3,8.900781E2,0E0,0E0,0E0,0E0,0E0,0E0,0E0,0E0,0E0,0E0,0E0,0E0,0E0,0E0,0E0,0E0,0E0,0E0,0E0,0E0,0E0,0E0,0E0,0E0,0E0,0E0,0E0,0E0,0E0,0E0,0E0,0E0,0E0,0E0,0E0,0E0,0E0,0E0,0E0,0E0,0E0,0E0,0E0,0E0,0E0,0E0,0E0,0E0,0E0,0E0,0E0,0E0,0E0,0E0,0E0,0E0],"parents":[2147483647,0,0,1,1,2,2,3,3,4,4,5,5,6,6,7,7,8,8,9,9,10,10,11,11,12,12,13,13,14,14,15,15,16,16,17,17,18,18,19,19,20,20,21,21,22,22,23,23,24,24,25,25,26,26,27,27,28,28,29,29,30,30,31,31,32,32,33,33,35,35,36,36,37,37,39,39,40,40,41,41,42,42,43,43,44,44,46,46,48,48,49,49,50,50,51,51,52,52,53,53,54,54,55,55,56,56,57,57,58,58,59,59,60,60,61,61,62,62],"right_children":[2,4,6,8,10,12,14,16,18,20,22,24,26,28,30,32,34,36,38,40,42,44,46,48,50,52,54,56,58,60,62,64,66,68,-1,70,72,74,-1,76,78,80,82,84,86,-1,88,-1,90,92,94,96,98,100,102,104,106,108,110,112,114,116,118,-1,-1,-1,-1,-1,-1,-1,-1,-1,-1,-1,-1,-1,-1,-1,-1,-1,-1,-1,-1,-1,-1,-1,-1,-1,-1,-1,-1,-1,-1,-1,-1,-1,-1,-1,-1,-1,-1,-1,-1,-1,-1,-1,-1,-1,-1,-1,-1,-1,-1,-1,-1,-1,-1,-1,-1],"split_conditions":[2.9869389E-2,8.026029E0,2.218642E0,5.3514214E0,7.229539E0,1.2613397E1,-1.2313886E-1,6.059569E0,1.11758795E1,8.824698E-1,1.6445772E1,1.1828272E-1,8.889503E0,6.6633353E0,3.0176384E0,1.4184011E0,8.090099E0,1.0906199E0,5.515409E0,1.4558719E-1,1.1077064E1,1.2133152E1,4.064342E-3,3.432598E-1,1.0713586E1,-1.1974965E-1,3.0176384E0,1.3829548E1,7.401122E0,3.7563345E0,8.824698E-1,3.05809E-1,-5.8018575E0,5.665104E-3,-7.000565E-2,2.3320875E1,-1.3943099E1,9.427027E-1,-6.8284295E-2,9.079999E0,3.7899508E0,3.6839342E0,2.076131E1,3.608448E0,4.207048E-1,-6.907263E-2,6.2389004E-1,-6.991791E-2,8.856842E-2,3.4407246E1,8.9190445E0,3.1246943E0,1.9874586E1,2.4970827E0,6.7879343E-1,-1.8582892E0,6.3864895E1,1.3973273E0,9.2923904E1,6.5359535E1,3.7063156E1,8.105825E-2,9.6716547E-1,-6.814312E-2,7.118298E-2,3.8021427E-2,-6.91457E-2,-7.100885E-2,6.639956E-2,-6.844861E-2,8.778567E-2,-6.0471434E-2,-6.7611925E-2,-6.2407713E-2,7.796728E-2,-8.202978E-2,-3.6607676E-3,-8.197301E-2,6.9239005E-2,-7.985502E-2,-1.0963299E-1,5.703155E-2,-1.05452135E-1,-6.77177E-2,-8.839485E-3,-6.740429E-2,6.9664985E-2,