tree
version=v4
num_class=1
num_tree_per_iteration=1
label_index=0
max_feature_idx=115
objective=binary sigmoid:1
feature_names=Column_0 Column_1 Column_2 Column_3 Column_4 Column_5 Column_6 Column_7 Column_8 Column_9 Column_10 Column_11 Column_12 Column_13 Column_14 Column_15 Column_16 Column_17 Column_18 Column_19 Column_20 Column_21 Column_22 Column_23 Column_24 Column_25 Column_26 Column_27 Column_28 Column_29 Column_30 Column_31 Column_32 Column_33 Column_34 Column_35 Column_36 Column_37 Column_38 Column_39 Column_40 Column_41 Column_42 Column_43 Column_44 Column_45 Column_46 Column_47 Column_48 Column_49 Column_50 Column_51 Column_52 Column_53 Column_54 Column_55 Column_56 Column_57 Column_58 Column_59 Column_60 Column_61 Column_62 Column_63 Column_64 Column_65 Column_66 Column_67 Column_68 Column_69 Column_70 Column_71 Column_72 Column_73 Column_74 Column_75 Column_76 Column_77 Column_78 Column_79 Column_80 Column_81 Column_82 Column_83 Column_84 Column_85 Column_86 Column_87 Column_88 Column_89 Column_90 Column_91 Column_92 Column_93 Column_94 Column_95 Column_96 Column_97 Column_98 Column_99 Column_100 Column_101 Column_102 Column_103 Column_104 Column_105 Column_106 Column_107 Column_108 Column_109 Column_110 Column_111 Column_112 Column_113 Column_114 Column_115
feature_infos=[-986.42449951171875:1212.2451171875] [-704.96856689453125:643.87127685546875] [-1:0.9980277419090271] [0.005871232133358717:43.415096282958984] [0.0077421199530363083:39.489425659179688] [0.008293752558529377:32.211166381835938] [0.0040494636632502079:61.944972991943359] [0.36826011538505554:38.183704376220703] [0.0060048419982194901:45.354686737060547] [0.01014577504247427:39.409324645996094] [0.012089082039892673:36.242626190185547] [0.0060155205428600311:63.512985229492188] [0:87.440086364746094] [0.004136859904974699:45.924427032470703] [0.0050835744477808475:38.739101409912109] [0.0057733249850571156:36.243705749511719] [0.0031066157389432192:57.8284912109375] [-81.509048461914062:76.486579895019531] [-47.56939697265625:82.889923095703125] [-1.8540489673614502:44.769496917724609] [-0.78180736303329468:24.952596664428711] [0.074188292026519775:9.2202138900756836] [0.094705089926719666:9.350346565246582] [0.017218519002199173:5.1216568946838379] [0.075673207640647888:6.8273715972900391] [0.0060817701742053032:6.5149574279785156] [0.15634763240814209:11.722677230834961] none none none [0:34.7552490234375] [0:19.719005584716797] [0.99326670169830322:1] [0:1] [0:69.510498046875] [0:34.7552490234375] [0.99995917081832886:1] [-1.1449552774429321:1.1600781679153442] [-15.300090789794922:9.4997797012329102] [-76.486579895019531:81.509048461914062] [0:82.889923095703125] [0:1] [0:1.7749419212341309] [0:1.4590868949890137] [0.017218519002199173:5.1216568946838379] [0.0060817701742053032:6.5149574279785156] [0.075673207640647888:6.8273715972900391] none [0.15634763240814209:11.722677230834961] none [0:1] [0:1] [0:1] [0:1] [0:1] [0:1] none none none none none none [0:57.136646270751953] [0:39.919387817382812] [0:36.460231781005859] [0:57.136646270751953] [0:39.919387817382812] [0:36.460231781005859] none [0:87.440086364746094] [2.5694239139556885:315.56838989257812] none none none none none none none none none none none none none [0:66.755691528320312] [0:50.245998382568359] [0:39.919387817382812] [0:66.755691528320312] [0:50.245998382568359] [0:39.919387817382812] none none none none none none [0.0033237903844565153:66.755691528320312] [0.136243537068367:29.02168083190918] [0.015645476058125496:40.318756103515625] [0.0083333337679505348:1] [0.01666666753590107:1] [0.0033880146220326424:7.6356334686279297] [2.0900415620417334e-06:33.598045349121094] [0.00012417686230037361:18.583234786987305] [4.0761278796708211e-06:27.885726928710938] [-36.051483154296875:34.441665649414062] [0:745333440] [0:16.57819938659668] [0.018802033737301826:41.568855285644531] [-0.83209437131881714:43.459129333496094] [-1.0028823614120483:43.201053619384766] [-0.18071600794792175:41.882347106933594] [0.40698820352554321:21.495281219482422] [0.040430068969726562:22.105947494506836] [0.091518580913543701:22.107843399047852] [0.46562737226486206:21.563953399658203]
tree_sizes=3384 3450

Tree=0
num_leaves=31
num_cat=0
split_feature=23 14 114 14 70 5 107 19 114 70 15 10 115 20 55 38 30 114 115 23 5 20 64 26 107 109 33 24 38 19
split_gain=6.44539e+06 7.97194e+06 2.24746e+06 2.24369e+06 2.12746e+06 1.65143e+06 1.4663e+06 1.25311e+06 1.7654e+06 781260 724705 2.15359e+06 840590 702734 604329 545275 440109 391820 332458 276776 225743 193590 375077 123748 78429.5 67994.3 272200 25367 5153.45 1592.67
threshold=3.2043042182922368 2.0646059513092045 19.075980186462406 8.8451828956604022 39.480772018432624 3.4710137844085698 8.7500014305114764 19.849928855896 7.6693835258483896 59.166893005371101 5.7900335788726816 10.211198806762697 19.33853912353516 6.3908603191375741 0.99999931454658519 -6.0837154388427725 2.7006207704544072 8.1688127517700213 12.646936893463137 3.6213945150375371 16.352834701538089 5.7145583629608163 16.242729187011722 8.2855677604675311 8.3654236793518084 28.143415451049808 0.99999830126762401 2.7908782958984379 -5.1381168365478507 32.25567817687989
decision_type=2 2 2 2 2 2 2 2 2 2 2 2 2 2 2 2 2 2 2 2 2 2 2 2 2 2 2 2 2 2
left_child=3 2 5 4 -1 -2 10 8 14 19 11 12 -3 -9 -6 -15 -13 20 23 -7 -5 22 -12 27 -23 26 -4 -8 -27 -30
right_child=1 6 25 17 7 9 18 13 -10 -11 21 16 -14 15 -16 -17 -18 -19 -20 -21 -22 24 -24 -25 -26 28 -28 -29 29 -31
leaf_value=-5.8188806889957743 -5.818837605350681 -5.2287718064288535 10.109524865153471 -3.1209203204893106 -5.8188641867571205 9.1865533248406468 5.9094236986162461 -5.8189200856705945 -5.8188742510483955 -5.8188742522540382 -5.8186518745847255 8.3140283552120824 3.2956321218676123 -3.9247195527585461 8.7217147738253349 8.8846789072256005 -5.8188742522993628 -5.8188742521082295 -5.8188742525368458 -2.7860831393585279 10.12400160645746 -5.8188825458580782 9.4452612502403461 1.4182021702462304 0.40356009236368262 8.8031718212624064 -2.760981574132872 9.6894540561013773 9.6633246225226888 10.277924107461226
leaf_weight=32.182780686765909 50.693601500242949 216.99933399446309 19.092994393780831 5.9327831827104074 7.9967823009937993 56.535323347896338 5.4589617904275682 8.5120604392141086 40.089379735291004 11.914436805993317 11.169454632326962 49.832618752494454 33.366695722565055 8.4503949005156738 67.149113055318594 493.13780420832336 6.1931477282196274 44.454073689877987 5.3146210573613635 5.2777635045349589 7.0278711430728436 323.4032622911036 6.2917498257011166 6.6351467352360478 5.1446002386510363 6.5680349804460993 5.2342782225459805 23.73860876262188 11.372412387281654 144.18527726829052
leaf_count=10367 16330 67349 87 1592 2576 1298 482 2742 12914 3838 3598 2011 4685 2403 2164 14290 1995 14320 1712 1381 30 104178 112 1180 1019 201 1367 307 153 173
internal_value=2.26178 -0.320995 6.33235 5.89037 6.71807 1.12806 -3.30327 7.36328 2.65412 5.9046 -3.88065 -2.10973 -4.09271 8.42712 7.17435 8.66888 6.75176 -3.5886 5.85113 8.1643 4.06109 -5.4488 -0.318646 7.58199 -5.72145 9.8052 7.34029 8.98272 10.1751 10.233
internal_weight=1719.36 1004.42 310.874 714.933 657.518 124.421 693.548 625.336 115.235 73.7275 652.401 306.392 250.366 510.1 75.1459 501.588 56.0258 57.4147 41.1473 61.8131 12.9607 346.009 17.4612 35.8327 328.548 186.453 24.3273 29.1976 162.126 155.558
internal_count=276854 213456 24828 63398 47456 22847 188628 37089 17654 6517 184947 76040 72034 19435 4740 16693 4006 15942 3681 2679 1622 108907 3710 1969 105197 1981 1454 789 527 326
is_linear=0
shrinkage=1


Tree=1
num_leaves=31
num_cat=0
split_feature=23 14 38 109 112 107 48 20 114 64 115 54 18 105 48 23 14 10 109 5 107 111 14 5 5 22 114 114 97 20
split_gain=743720 620827 696585 2.23851e+06 1.09671e+06 995114 230435 152494 135696 396195 67399.3 50352.5 131962 21055.4 14901.3 19829.4 9979.88 9436.31 8999.69 5169.7 1288.22 752.517 428.435 201.537 71.5974 0.151562 0.0373237 0.000186818 2.82048e-05 1.52838e-06
threshold=3.1876630783081059 8.8451828956604022 -6.0837154388427725 19.097018241882328 8.6480994224548358 6.7977876663208017 6.3324027061462411 6.3908603191375741 7.6693835258483896 2.9682927131652836 19.427224159240726 0.99986383318901073 -5.6695170402526847 -3.6455689668655391 7.7550008296966562 3.2043042182922368 1.6065278649330141 2.538282155990601 16.378627777099613 7.5195269584655771 7.9433076381683358 20.423972129821781 7.2863478660583505 2.6628545522689824 16.352834701538089 5.49080514907837 8.1688127517700213 7.9559106826782235 4.0475533008575448 9.2488269805908221
decision_type=2 2 2 2 2 2 2 2 2 2 2 2 2 2 2 2 2 2 2 2 2 2 2 2 2 2 2 2 2 2
left_child=1 2 27 8 7 -6 13 -5 9 -4 11 12 -8 -2 15 -13 21 -16 -10 20 -18 25 -21 -14 26 -12 -3 -1 -29 -30
right_child=6 24 3 4 5 -7 10 -9 18 -11 16 14 23 -15 17 -17 19 -19 -20 22 -22 -23 -24 -25 -26 -27 -28 28 29 -31
leaf_value=-0.050644579007629753 9.3618029116134291 -0.052205825890682046 -0.84614160642400771 -0.2429257071357237 -31.447793529536952 -9.4089225224074085 9.2479059921666753 -10.739439106628245 -0.092385045727982826 -17.204244334210937 -0.063100935498695207 -3.6978998054087864 -0.050414588079749502 4.9887168089429057 0.53754703221223099 -0.55832617129935591 -1.3419496697409723 -0.14192608645933558 -2.2806734270995008 -0.65619382730509912 -0.56022184702769962 -0.72868155747095176 -0.086251151467945764 -0.45445657108559168 -0.23512132318572512 -0.053154243221681864 -0.050148543798808565 -0.050853529851178504 -0.050954807757728308 -0.050984381180527019
leaf_weight=5.1382076609879723 5.101859537884593 59.851047650678083 13.170836634348236 5.9634372724685809 15.187033273046838 7.728396472753956 5.164354324340823 8.2432845693547261 40.238440000917763 5.1484747315407722 5.0369806612143355 5.2570213289727681 7.7777922620734881 5.9773100359598157 52.736045866491622 116.10190850473009 154.95747851883061 1644.3084391238081 5.3196439186576745 5.4084255918860427 5.4556520290207109 5.173990425275405 8.4474582877010089 5.1166774726007134 5.6204470992088309 15.979250713047803 34.902966185705736 5.0161936478689304 5.0973492255434385 30.569624835625291
leaf_count=871 6 1479 4459 2041 12257 1796 20 2870 13657 2767 92 1349 2279 312 4223 19770 5336 179740 1930 590 151 283 1479 862 1897 298 11818 493 325 1641
internal_value=-0.501599 -3.09226 -5.16408 -7.48381 -17.2482 -24.015 -0.188905 -6.33341 -1.80924 -5.44344 -0.22802 -0.132996 2.49418 7.00248 -0.159087 -0.694326 -1.09856 -0.120811 -0.347903 -1.23533 -1.31536 -0.188521 -0.308719 -0.210743 -0.0617328 -0.0555382 -0.051448 -0.0509287 -0.0509645 -0.0509802
internal_weight=2295.2 247.195 146.821 101 37.1222 22.9154 2048 14.2067 63.8774 18.3193 2036.92 1836.46 18.0588 11.0792 1818.4 121.359 200.459 1697.04 45.5581 174.269 160.413 26.1902 13.8559 12.8945 100.374 21.0162 94.754 45.8214 40.6832 35.667
internal_count=277091 60301 45107 41777 18964 14053 216790 4911 22813 7226 216472 208243 3161 318 205082 21119 8229 183963 15587 7556 5487 673 2069 3141 15194 390 13297 3330 2459 1966
is_linear=0
shrinkage=0.05


end of trees

feature_importances:
Column_114=6
Column_5=5
Column_14=5
Column_20=4
Column_23=4
Column_107=4
Column_38=3
Column_109=3
Column_115=3
Column_10=2
Column_19=2
Column_48=2
Column_64=2
Column_70=2
Column_15=1
Column_18=1
Column_22=1
Column_24=1
Column_26=1
Column_30=1
Column_33=1
Column_54=1
Column_55=1
Column_97=1
Column_105=1
Column_111=1
Column_112=1

parameters:
[boosting: gbdt]
[objective: binary]
[metric: binary_logloss]
[tree_learner: serial]
[device_type: gpu]
[data_sample_strategy: bagging]
[data: ]
[valid: ]
[num_iterations: 1000]
[learning_rate: 0.05]
[num_leaves: 31]
[num_threads: 0]
[seed: 42]
[deterministic: 0]
[force_col_wise: 1]
[force_row_wise: 0]
[histogram_pool_size: -1]
[max_depth: 6]
[min_data_in_leaf: 20]
[min_sum_hessian_in_leaf: 5]
[bagging_fraction: 0.8]
[pos_bagging_fraction: 1]
[neg_bagging_fraction: 1]
[bagging_freq: 1]
[bagging_seed: 400]
[bagging_by_query: 0]
[feature_fraction: 0.8]
[feature_fraction_bynode: 1]
[feature_fraction_seed: 30056]
[extra_trees: 0]
[extra_seed: 12879]
[early_stopping_round: 0]
[early_stopping_min_delta: 0]
[first_metric_only: 0]
[max_delta_step: 0]
[lambda_l1: 0]
[lambda_l2: 0]
[linear_lambda: 0]
[min_gain_to_split: 0]
[drop_rate: 0.1]
[max_drop: 50]
[skip_drop: 0.5]
[xgboost_dart_mode: 0]
[uniform_drop: 0]
[drop_seed: 17869]
[top_rate: 0.2]
[other_rate: 0.1]
[min_data_per_group: 100]
[max_cat_threshold: 32]
[cat_l2: 10]
[cat_smooth: 10]
[max_cat_to_onehot: 4]
[top_k: 20]
[monotone_constraints: ]
[monotone_constraints_method: basic]
[monotone_penalty: 0]
[feature_contri: ]
[forcedsplits_filename: ]
[refit_decay_rate: 0.9]
[cegb_tradeoff: 1]
[cegb_penalty_split: 0]
[cegb_penalty_feature_lazy: ]
[cegb_penalty_feature_coupled: ]
[path_smooth: 0]
[interaction_constraints: ]
[verbosity: -1]
[saved_feature_importance_type: 0]
[use_quantized_grad: 0]
[num_grad_quant_bins: 4]
[quant_train_renew_leaf: 0]
[stochastic_rounding: 1]
[linear_tree: 0]
[max_bin: 255]
[max_bin_by_feature: ]
[min_data_in_bin: 3]
[bin_construct_sample_cnt: 200000]
[data_random_seed: 175]
[is_enable_sparse: 1]
[enable_bundle: 1]
[use_missing: 1]
[zero_as_missing: 0]
[feature_pre_filter: 1]
[pre_partition: 0]
[two_round: 0]
[header: 0]
[label_column: ]
[weight_column: ]
[group_column: ]
[ignore_column: ]
[categorical_feature: ]
[forcedbins_filename: ]
[precise_float_parser: 0]
[parser_config_file: ]
[objective_seed: 16083]
[num_class: 1]
[is_unbalance: 0]
[scale_pos_weight: 320.127]
[sigmoid: 1]
[boost_from_average: 1]
[reg_sqrt: 0]
[alpha: 0.9]
[fair_c: 1]
[poisson_max_delta_step: 0.7]
[tweedie_variance_power: 1.5]
[lambdarank_truncation_level: 30]
[lambdarank_norm: 1]
[label_gain: ]
[lambdarank_position_bias_regularization: 0]
[eval_at: ]
[multi_error_top_k: 1]
[auc_mu_weights: ]
[num_machines: 1]
[local_listen_port: 12400]
[time_out: 120]
[machine_list_filename: ]
[machines: ]
[gpu_platform_id: -1]
[gpu_device_id: -1]
[gpu_use_dp: 0]
[num_gpu: 1]

end of parameters

pandas_categorical:null
