tree
version=v4
num_class=1
num_tree_per_iteration=1
label_index=0
max_feature_idx=72
objective=binary sigmoid:1
feature_names=Column_0 Column_1 Column_2 Column_3 Column_4 Column_5 Column_6 Column_7 Column_8 Column_9 Column_10 Column_11 Column_12 Column_13 Column_14 Column_15 Column_16 Column_17 Column_18 Column_19 Column_20 Column_21 Column_22 Column_23 Column_24 Column_25 Column_26 Column_27 Column_28 Column_29 Column_30 Column_31 Column_32 Column_33 Column_34 Column_35 Column_36 Column_37 Column_38 Column_39 Column_40 Column_41 Column_42 Column_43 Column_44 Column_45 Column_46 Column_47 Column_48 Column_49 Column_50 Column_51 Column_52 Column_53 Column_54 Column_55 Column_56 Column_57 Column_58 Column_59 Column_60 Column_61 Column_62 Column_63 Column_64 Column_65 Column_66 Column_67 Column_68 Column_69 Column_70 Column_71 Column_72
feature_infos=[-10522.2236328125:4192.9013671875] [-11731.7939453125:7655.958984375] [-1:0.99999988079071045] [0.0020373966544866562:48.990642547607422] [0:190.20417785644531] [0:97.4644775390625] [0:66.648117065429688] [0:214.78099060058594] [0.005144903901964426:2108.3134765625] [0:456.21624755859375] [0:336.50009155273438] [0:306.30807495117188] [0:559.41864013671875] [0:531.2293701171875] [0:283.45651245117188] [0:225.96247863769531] [0:169.33242797851562] [0:353.1741943359375] [-351.17831420898438:305.80825805664062] [-398.5955810546875:422.95025634765625] [2.1451289653778076:75.091606140136719] [2.8259956836700439:65.152580261230469] [0.0061595453880727291:77.093574523925781] [0.016311639919877052:44.136054992675781] [0.0094330962747335434:48.778087615966797] [0.0032432365696877241:43.717296600341797] [0.0199319738894701:72.585678100585938] [0.011067695915699005:91.4306640625] [0.020634803920984268:90.940147399902344] [-405.40615844726562:524.8043212890625] [-661.73541259765625:683.031494140625] [-659.0767822265625:662.2578125] none [0:1.6433109045028687] [0:1.4318860769271851] [-54.545604705810547:54.045970916748047] [-54.534404754638672:54.227775573730469] [0.083088256418704987:93.929779052734375] [0.12259852141141891:94.672096252441406] [0.030500208958983421:93.320663452148438] [0.0072925765998661518:95.148155212402344] [0.060964912176132202:94.813331604003906] [0.046734239906072617:92.589752197265625] [0.053162597119808197:94.762245178222656] [0.037655103951692581:93.555610656738281] [0:667.59698486328125] none [2.384185791015625e-06:3.1415832042694092] [-1:1] [0:349.3162841796875] [0:414.0865478515625] [0.27263364195823669:79.571861267089844] [0:197.69331359863281] [0:42.652961730957031] [0:77.42279052734375] [0.0083333337679505348:1] [0.01666666753590107:1] [0:15.999973297119141] [0:224.591552734375] [0:69.920051574707031] [0:135.22320556640625] [-99.697273254394531:99.082504272460938] [-1.5648111689789474e-20:279372928] [0:662.25787353515625] [0:28.669862747192383] [3.2059381008148193:73.962196350097656] [2.7674407958984375:74.330619812011719] [2.5851714611053467:73.952278137207031] [2.861724853515625:73.637901306152344] [3.5991172790527344:64.890151977539062] [3.418987512588501:64.935371398925781] [3.4640767574310303:64.903877258300781] [3.6159534454345703:64.892341613769531]
tree_sizes=3370

Tree=0
num_leaves=31
num_cat=0
split_feature=51 6 45 21 59 50 16 66 41 21 50 7 66 50 41 10 29 59 14 50 51 50 49 51 40 5 2 50 57 45
split_gain=1.16766e+07 888922 359265 279576 201098 139270 118243 112850 77251.4 77532.6 75834.6 73932.7 72222.1 57947.8 47944.9 69677.4 45019.3 35265 25362 25113.3 24677.9 20777.3 20407.7 16648.7 13637.5 13472.1 12618.4 1202.62 879.35 746.778
threshold=8.766843795776369 5.7299778461456308 117.69258880615236 3.6585386991500859 22.899911880493168 43.063657760620124 3.7664324045181279 67.495418548583999 7.2412319183349618 4.0897581577301034 97.446949005126967 14.623482704162599 15.510467052459719 36.221580505371101 10.032909393310549 44.214982986450202 2.5333149433135991 2.2960127592086796 2.2336724996566777 82.481235504150405 6.5491666793823251 91.250141143798842 0.060242315754294402 5.5283012390136728 3.1106594800949101 15.263630867004396 -0.92787986993789662 64.646301269531264 1.4780559539794924 7.797776699066163
decision_type=2 2 2 2 2 2 2 2 2 2 2 2 2 2 2 2 2 2 2 2 2 2 2 2 2 2 2 2 2 2
left_child=1 5 3 12 8 -1 13 28 11 -10 21 -5 -2 25 17 16 -16 -8 26 -4 -19 -6 -20 27 -12 -3 -15 -9 -7 -17
right_child=2 6 19 4 10 7 14 23 9 -11 24 -13 -14 18 15 29 -18 20 22 -21 -22 -23 -24 -25 -26 -27 -28 -29 -30 -31
leaf_value=-4.3092682907926063 -0.68644376336595325 -4.3092401035404642 -4.3092619679240789 -4.1349640715152454 -3.7549809465338173 -4.3092641383850188 -4.309462818536594 -0.73399776762775248 -3.2643011750294395 -4.2762530958438472 -1.4904158222972481 -1.6054664322206063 -4.3092642820099032 -3.6285768110789336 -3.7132029318500952 -1.2273380969965904 -1.2364450837410259 -0.75189328657374599 -1.3051476238893103 -0.71856817006333618 -1.0826773698546428 -0.75923184432815249 -4.3092644332207213 -3.6644287147644503 -4.30926454098989 -1.5582816396976371 -1.0807884407502657 -1.4109757409133494 -3.6043137559067744 -0.72492237217589617
leaf_weight=208.48801711574197 73.185694236308336 33.153738478198647 5.1703743599355212 60.945279467850924 6.3760648015886536 37.512697894126177 7.1232958864420644 63.286254964768887 196.21500488929451 5355.3179126754403 5.0167950205504885 54.917769342660904 16.941221276298165 5.193857964128255 47.450070209801197 8.0299560222774726 29.913977928459644 4999.9199385549873 9.4147993028163928 83.690876897424459 635.51030131056905 62.740231513977051 14.149766866117714 5.4826288297772399 29.64713747240603 5.1405545827001324 75.559557981789112 7.3189282845705739 5.0150950457900754 93.702685197815299
leaf_count=15162 94 2411 376 4223 394 2728 518 141 10226 385964 86 1066 1232 308 2893 96 363 12904 127 161 5785 171 1029 329 2156 95 685 114 295 192
internal_value=-2.495 -0.993234 -4.08289 -4.13072 -4.17388 -3.53108 -0.854048 -2.16327 -4.21382 -4.24049 -1.99278 -2.93601 -1.36743 -2.27646 -0.819204 -1.6246 -2.75553 -0.79364 -1.6658 -0.927492 -0.789196 -1.03559 -3.10902 -1.01027 -3.9013 -3.93996 -1.24466 -0.804173 -4.22613 -0.764579
internal_weight=12241.5 6291.37 5950.16 5861.3 5771.18 327.104 5964.26 118.616 5667.4 5551.53 103.78 115.863 90.1269 142.612 5821.65 179.097 77.364 5642.55 104.318 88.8613 5635.43 69.1163 23.5646 76.0878 34.6639 38.2943 80.7534 70.6052 42.5278 101.733
internal_count=452324 46175 406149 405612 404286 18769 27406 3607 401479 396190 2807 5289 1326 4655 22751 3544 3256 19207 2149 537 18689 565 1156 584 2242 2506 993 255 3023 288
is_linear=0
shrinkage=1


end of trees

feature_importances:
Column_50=6
Column_51=3
Column_21=2
Column_41=2
Column_45=2
Column_59=2
Column_66=2
Column_2=1
Column_5=1
Column_6=1
Column_7=1
Column_10=1
Column_14=1
Column_16=1
Column_29=1
Column_40=1
Column_49=1
Column_57=1

parameters:
[boosting: gbdt]
[objective: binary]
[metric: binary_logloss]
[tree_learner: serial]
[device_type: gpu]
[data_sample_strategy: bagging]
[data: ]
[valid: ]
[num_iterations: 1000]
[learning_rate: 0.05]
[num_leaves: 31]
[num_threads: 0]
[seed: 42]
[deterministic: 0]
[force_col_wise: 1]
[force_row_wise: 0]
[histogram_pool_size: -1]
[max_depth: 6]
[min_data_in_leaf: 20]
[min_sum_hessian_in_leaf: 5]
[bagging_fraction: 0.8]
[pos_bagging_fraction: 1]
[neg_bagging_fraction: 1]
[bagging_freq: 1]
[bagging_seed: 400]
[bagging_by_query: 0]
[feature_fraction: 0.8]
[feature_fraction_bynode: 1]
[feature_fraction_seed: 30056]
[extra_trees: 0]
[extra_seed: 12879]
[early_stopping_round: 0]
[early_stopping_min_delta: 0]
[first_metric_only: 0]
[max_delta_step: 0]
[lambda_l1: 0]
[lambda_l2: 0]
[linear_lambda: 0]
[min_gain_to_split: 0]
[drop_rate: 0.1]
[max_drop: 50]
[skip_drop: 0.5]
[xgboost_dart_mode: 0]
[uniform_drop: 0]
[drop_seed: 17869]
[top_rate: 0.2]
[other_rate: 0.1]
[min_data_per_group: 100]
[max_cat_threshold: 32]
[cat_l2: 10]
[cat_smooth: 10]
[max_cat_to_onehot: 4]
[top_k: 20]
[monotone_constraints: ]
[monotone_constraints_method: basic]
[monotone_penalty: 0]
[feature_contri: ]
[forcedsplits_filename: ]
[refit_decay_rate: 0.9]
[cegb_tradeoff: 1]
[cegb_penalty_split: 0]
[cegb_penalty_feature_lazy: ]
[cegb_penalty_feature_coupled: ]
[path_smooth: 0]
[interaction_constraints: ]
[verbosity: -1]
[saved_feature_importance_type: 0]
[use_quantized_grad: 0]
[num_grad_quant_bins: 4]
[quant_train_renew_leaf: 0]
[stochastic_rounding: 1]
[linear_tree: 0]
[max_bin: 255]
[max_bin_by_feature: ]
[min_data_in_bin: 3]
[bin_construct_sample_cnt: 200000]
[data_random_seed: 175]
[is_enable_sparse: 1]
[enable_bundle: 1]
[use_missing: 1]
[zero_as_missing: 0]
[feature_pre_filter: 1]
[pre_partition: 0]
[two_round: 0]
[header: 0]
[label_column: ]
[weight_column: ]
[group_column: ]
[ignore_column: ]
[categorical_feature: ]
[forcedbins_filename: ]
[precise_float_parser: 0]
[parser_config_file: ]
[objective_seed: 16083]
[num_class: 1]
[is_unbalance: 0]
[scale_pos_weight: 70.7079]
[sigmoid: 1]
[boost_from_average: 1]
[reg_sqrt: 0]
[alpha: 0.9]
[fair_c: 1]
[poisson_max_delta_step: 0.7]
[tweedie_variance_power: 1.5]
[lambdarank_truncation_level: 30]
[lambdarank_norm: 1]
[label_gain: ]
[lambdarank_position_bias_regularization: 0]
[eval_at: ]
[multi_error_top_k: 1]
[auc_mu_weights: ]
[num_machines: 1]
[local_listen_port: 12400]
[time_out: 120]
[machine_list_filename: ]
[machines: ]
[gpu_platform_id: -1]
[gpu_device_id: -1]
[gpu_use_dp: 0]
[num_gpu: 1]

end of parameters

pandas_categorical:null
