tree
version=v4
num_class=1
num_tree_per_iteration=1
label_index=0
max_feature_idx=115
objective=binary sigmoid:1
feature_names=Column_0 Column_1 Column_2 Column_3 Column_4 Column_5 Column_6 Column_7 Column_8 Column_9 Column_10 Column_11 Column_12 Column_13 Column_14 Column_15 Column_16 Column_17 Column_18 Column_19 Column_20 Column_21 Column_22 Column_23 Column_24 Column_25 Column_26 Column_27 Column_28 Column_29 Column_30 Column_31 Column_32 Column_33 Column_34 Column_35 Column_36 Column_37 Column_38 Column_39 Column_40 Column_41 Column_42 Column_43 Column_44 Column_45 Column_46 Column_47 Column_48 Column_49 Column_50 Column_51 Column_52 Column_53 Column_54 Column_55 Column_56 Column_57 Column_58 Column_59 Column_60 Column_61 Column_62 Column_63 Column_64 Column_65 Column_66 Column_67 Column_68 Column_69 Column_70 Column_71 Column_72 Column_73 Column_74 Column_75 Column_76 Column_77 Column_78 Column_79 Column_80 Column_81 Column_82 Column_83 Column_84 Column_85 Column_86 Column_87 Column_88 Column_89 Column_90 Column_91 Column_92 Column_93 Column_94 Column_95 Column_96 Column_97 Column_98 Column_99 Column_100 Column_101 Column_102 Column_103 Column_104 Column_105 Column_106 Column_107 Column_108 Column_109 Column_110 Column_111 Column_112 Column_113 Column_114 Column_115
feature_infos=[-1157.179443359375:1212.2451171875] [-704.96856689453125:643.87127685546875] [-1:0.9980277419090271] [0.005871232133358717:55.566013336181641] [0.0078039984218776226:39.835006713867188] [0.0083214361220598221:33.588008880615234] [0.0040296968072652817:60.159988403320312] [0.2869015634059906:781.92266845703125] [0.0079950466752052307:54.476680755615234] [0.01014577504247427:42.024589538574219] [0.012089082039892673:36.129966735839844] [0.0063922959379851818:60.348823547363281] [0:78.896072387695312] [0.004136859904974699:55.215686798095703] [0.0050835744477808475:37.18902587890625] [0.0057716602459549904:35.766502380371094] [0.0031034732237458229:59.7130126953125] [-78.839942932128906:76.486579895019531] [-54.320751190185547:71.01190185546875] [-1.8506897687911987:44.746669769287109] [-0.77902704477310181:24.952596664428711] [0.14119935035705566:10.804797172546387] [0.13316482305526733:10.314572334289551] [0.017218519002199173:6.2341203689575195] [0.10517279058694839:6.8273715972900391] [0.059067264199256897:6.5178914070129395] [0.19271674752235413:12.910921096801758] none none none [0:34.7552490234375] [0:20.054346084594727] [0:1] [0:1] [0:69.510498046875] [0:34.7552490234375] [0.9999731183052063:1] [-1.0119912624359131:1.0699535608291626] [-15.426372528076172:9.4999227523803711] [-76.486579895019531:78.839942932128906] [0:75.379478454589844] [0:0.99988555908203125] [0:1.628028392791748] [0:1.4045078754425049] [0.017218519002199173:6.2341203689575195] [0.059067264199256897:6.5178914070129395] [0.10517279058694839:6.8273715972900391] none [0.19271674752235413:12.910921096801758] none [0:1] [0:1] [0:1] [0:1] [0:1] [0:1] none none none none none none [0:56.083736419677734] [0:50.412540435791016] [0:35.820613861083984] [0:56.083736419677734] [0:50.412540435791016] [0:35.820613861083984] none [0:78.896072387695312] [2.5694239139556885:284.70758056640625] none none none none none none none none none none none none none [0:72.693580627441406] [0:50.954170227050781] [0:50.412540435791016] [0:72.693580627441406] [0:50.954170227050781] [0:50.412540435791016] none none none none none none [0.0031778078991919756:63.994182586669922] [0.13761858642101288:26.966249465942383] [0.015645476058125496:46.143527984619141] [0.0083333337679505348:1.9016393423080444] [0.01666666753590107:1.8064515590667725] [0.0035636387765407562:7.6356334686279297] [0:33.484512329101562] [1.751109266479034e-05:22.107675552368164] [1.427128040631942e-06:30.518444061279297] [-37.205814361572266:40.139148712158203] [0:747592000] [0:15.665082931518555] [0.018802033737301826:41.522342681884766] [-0.83157014846801758:43.460357666015625] [-1.0028823614120483:43.201053619384766] [-0.1812356561422348:41.882347106933594] [0.40425211191177368:22.281911849975586] [0.040430068969726562:23.058561325073242] [0.091518580913543701:22.466575622558594] [0.46625545620918274:21.569890975952148]
tree_sizes=3389 3437 3432 3435 3440 3448 3444 3462 3465 3480 3481 3469 3492 3497 3496 3493

Tree=0
num_leaves=31
num_cat=0
split_feature=25 21 109 20 21 19 97 38 46 38 19 19 22 22 37 22 16 21 38 70 38 55 46 105 113 110 70 20 14 109
split_gain=721296 170516 118677 93629.3 88859.6 58731.6 35380.1 31815.5 20178.2 18272.2 41945.9 17355.4 10818 10206.9 8667.23 8467.26 6773.98 6692.53 5838.51 5614.52 5575.39 5020.79 4682.19 3396.76 2911.21 3733.18 2744.06 2582.79 2424.94 2409.43
threshold=2.7503308057785039 5.9111576080322275 6.8708703517913827 1.2926986813545229 4.4175751209259042 8.0548834800720233 2.3863824605941777 -2.7538301944732662 2.9443842172622685 4.7686119079589853 11.963198184967043 12.318962574005129 4.5824217796325692 5.0911369323730478 -0.030628267675638195 5.853339910507203 11.980507850646974 6.7657611370086679 4.8572971820831308 33.942266464233406 1.9144842028617861 0.99999538064003002 2.656787753105164 2.8717577457427983 7.2821898460388192 11.565310001373293 47.088212966918952 7.3863787651062021 13.926066875457765 6.2133991718292245
decision_type=2 2 2 2 2 2 2 2 2 2 2 2 2 2 2 2 2 2 2 2 2 2 2 2 2 2 2 2 2 2
left_child=2 6 29 23 12 18 19 17 22 13 21 20 16 28 -15 -10 -5 26 -3 -2 -9 -11 -6 -4 -21 -26 -7 -13 -8 -1
right_child=1 5 3 4 8 7 9 11 15 10 -12 27 -14 14 -16 -17 -18 -19 -20 24 -22 -23 -24 -25 25 -27 -28 -29 -30 -31
leaf_value=-1.8718186427278405 -2.5919474943179326 -1.9192797878161691 -1.887406934061107 -1.9956795321300818 -2.5782761617176173 -2.5695971648902125 -1.9056813522295744 -2.1422071628658204 -2.1105950587097158 -2.4653515062360483 -2.5233581370858547 -2.4284430048517573 -2.3881315289142115 -2.1549135118057099 -1.966370101003557 -2.4374936544463273 -2.4429223645909204 -2.3377007559695624 -2.5298358280096411 -2.5919151990299634 -2.3906267103275054 -1.9560936478319189 -2.5080643679988617 -2.5919149174819029 -1.9794796515305757 -2.5008571553189216 -2.0700991810542821 -2.5553742511101181 -2.196725421495648 -2.1749614602222902
leaf_weight=810.11156175285578 216.57450889796019 990.47288221120834 639.4225811585784 903.03074215352535 11133.589719869196 28.348373427987099 10838.795868247747 457.24250185489655 324.67826212197542 49.993552424013615 442.98033198714256 526.3677748516202 282.53106282651424 734.0383141040802 3593.6047796607018 508.05200056731701 93.422545105218887 363.36804136633873 40.766950666904449 43.643794506788254 446.33773291110992 1517.4984289929271 3018.1742900460958 17.579699777066708 116.73789266496897 48.637878179550171 914.21378560364246 1679.535104803741 72.044490307569504 71.318603515625
leaf_count=1190 3191 2321 1123 3387 161233 406 22684 2949 1905 620 5967 6170 3102 4906 11538 6040 1120 3652 554 643 4921 4585 39805 259 403 635 4682 23614 537 503
internal_value=-2.22275 -2.03856 -2.46198 -2.49144 -2.51508 -2.28316 -1.96318 -2.3625 -2.54923 -1.95207 -2.09375 -2.44948 -2.11504 -1.93337 -1.99835 -2.31004 -2.03761 -2.1554 -1.94342 -2.41354 -2.26492 -1.97234 -2.5633 -1.90626 -2.22868 -2.13282 -2.08512 -2.52509 -1.9076 -1.89635
internal_weight=40923.1 23121.2 17801.9 16920.5 16263.5 5446.65 17674.5 4415.41 14984.5 17249 2010.47 3109.48 1278.98 15238.5 4327.64 832.73 996.453 1305.93 1031.24 425.594 903.58 1567.49 14151.8 657.002 209.02 165.376 942.562 2205.9 10910.8 881.43
internal_count=324645 104978 219667 217974 216592 49269 55709 46394 208983 50837 11172 37654 7609 39665 16444 7945 4507 8740 2875 4872 7870 5205 201038 1382 1681 1038 5088 29784 23221 1693
is_linear=0
shrinkage=1


Tree=1
num_leaves=31
num_cat=0
split_feature=25 21 109 20 21 109 97 38 46 38 109 38 20 111 38 109 33 66 54 109 38 14 53 97 22 105 20 46 4 109
split_gain=298701 69009 56075.5 47883.5 34580.4 19766.6 14919.3 14831.9 10009.8 7680.83 14049 6964.82 5655.18 4316.95 3726.45 16072.6 3488.91 3141.89 3104.47 3021.3 3088.37 2432.35 2363.46 2358.57 2037.69 1699.51 1602.29 1519.56 1431.08 1336.61
threshold=2.6700584888458256 6.125390052795411 6.8708703517913827 4.1308329105377206 3.9726307392120366 12.464700222015383 2.0348292589187627 -2.0242090225219722 2.8209258317947392 4.061587095260621 11.979698657989504 4.1743872165679941 6.6585376262664804 11.608915328979494 -3.605387687683105 25.641829490661625 0.99999985098838817 8.3691463470459002 0.99999442696571361 16.053952217102054 4.6690642833709726 10.344443321228029 0.99999728798866283 2.5395641326904301 4.4067285060882577 2.4225767850875859 6.1229221820831308 2.996650338172913 4.049574851989747 7.894310951232911
decision_type=2 2 2 2 2 2 2 2 2 2 2 2 2 2 2 2 2 2 2 2 2 2 2 2 2 2 2 2 2 2
left_child=2 6 -1 25 17 11 -2 16 24 14 18 22 -10 -12 -8 -16 26 23 -11 20 -9 -18 28 -5 -6 -4 -7 -13 -3 -24
right_child=1 5 3 4 8 7 9 19 12 10 13 27 -14 -15 15 -17 21 -19 -20 -21 -22 -23 29 -25 -26 -27 -28 -29 -30 -31
leaf_value=0.35708311597803355 -0.033559152846128891 -0.04662011937776963 0.35916359739833459 -0.055813030481125618 0.091957478007745716 0.32596668343584978 0.36866128235413753 0.20114422168096385 0.28651550317213681 -0.014353253827931824 0.37776501704010051 -0.0084233605857263385 0.050339053017901675 0.11671785507173105 0.35822537191348092 0.23244692758363855 0.26572522467161497 0.0086803986774443703 0.34307530142385279 -0.014469667636463471 -0.034214350186940468 0.019759382730468109 0.37883238478399273 0.33934317187575302 -0.037714976832898504 0.013663733214545832 0.024061953452823821 0.20889130855559856 0.29048010006081398 0.28882594822945101
leaf_weight=1365.5753413438797 275.33284187316895 68.485861770808697 1026.5808620080352 39.584866657853127 310.72757835686207 51.401587724685669 11107.05522158742 375.30223193764687 333.54872070997953 61.961615405976772 180.63398970663548 219.22539180517197 1055.6322587132454 1285.0378433689475 11435.026167623699 3265.1214709356427 1185.4278775602579 88.76021546125412 3107.9711883962154 1995.5365864634514 221.73140096664429 109.82364831864834 799.2554761916399 819.86672551929951 12116.397997349501 36.871592789888382 303.0799688398838 127.06704449653625 58.271763287484646 852.3529945909977
leaf_count=1555 3844 741 1287 437 3369 222 14359 2864 2120 726 384 2740 12052 11058 17340 14120 6547 932 6489 27253 3050 1191 746 2142 179135 440 3186 974 180 3380
internal_value=0.221928 0.301793 0.0496655 0.0231427 -0.000197246 0.151978 0.332845 0.0896317 -0.0202434 0.336159 0.276901 0.276466 0.107046 0.14889 0.346803 0.330288 0.206831 0.291894 0.336089 0.0150541 0.113735 0.24487 0.316414 0.321143 -0.0344726 0.347185 0.0678396 0.0713171 0.108348 0.332382
internal_weight=54278.6 37085.1 17193.5 15828 14764.5 6366.96 30718.1 4242.3 13816.3 30442.8 4635.6 2124.66 1389.18 1465.67 25807.2 14700.1 1649.73 948.212 3169.93 2592.57 597.034 1295.25 1778.37 859.452 12427.1 1063.45 354.482 346.292 126.758 1651.61
internal_count=324863 121394 203469 201914 200187 53074 68320 44313 196676 64476 18657 8761 14172 11442 45819 31460 11146 3511 7215 33167 5914 7738 5047 2579 182504 1727 3408 3714 921 4126
is_linear=0
shrinkage=0.05


Tree=2
num_leaves=31
num_cat=0
split_feature=25 22 109 113 21 19 38 97 38 46 21 19 46 38 13 110 22 10 22 21 108 21 22 19 15 21 32 114 54 112
split_gain=175645 37839.7 36336.4 33859.3 17573.2 13115.4 12229.3 8344.55 7611.29 6047.38 8766.52 4477.44 3900.23 3849.55 3757.17 3460.83 3406.33 2752.88 2180.05 2094.22 2079.85 1968.95 1898.56 1859.99 1852.04 1847.98 1804.89 2072 1640.68 1355.73
threshold=2.6643638610839848 6.2546329498291025 6.8708703517913827 6.1289145946502694 4.8112695217132577 7.7757179737091073 -2.5219955444335933 2.4840846061706547 3.887531161308289 2.7432399988174443 5.5650911331176767 12.199445724487306 2.8445333242416386 -2.6390514373779292 2.2941471338272099 11.856508731842043 4.6997175216674814 7.0469210147857675 5.6404566764831552 6.4397051334381112 12.074499607086183 7.4104881286621103 5.0397796630859384 11.558485984802248 12.701916217803957 3.9726307392120366 0.99999997019767772 5.5525217056274423 0.99999800324440014 14.461913108825685
decision_type=2 2 2 2 2 2 2 2 2 2 2 2 2 2 2 2 2 2 2 2 2 2 2 2 2 2 2 2 2 2
left_child=2 7 -1 8 13 -3 26 15 20 10 24 19 -6 -5 16 28 -11 -12 -14 -8 -4 -22 -10 -16 -9 -15 27 -7 29 -2
right_child=1 5 3 4 12 6 11 9 22 14 17 -13 18 25 23 -17 -18 -19 -20 -21 21 -23 -24 -25 -26 -27 -28 -29 -30 -31
leaf_value=0.26284634508408239 -0.05514880162547886 0.25539524447116696 -0.043696533630676423 0.2630956025735034 -0.038741582096706841 0.2999327682460593 0.18987450278332754 0.24379679975634738 0.21272277866325406 0.25469896637102085 0.18048457364725878 -0.019061334634012213 0.20019611979229032 0.16009328558160804 0.27837207444615469 -0.02719245470499081 0.17393338253293564 -0.0064460468892004246 0.024307287512749798 0.04232721054999606 0.2643642652227865 -0.05461127183370721 -0.037876410623231965 0.25309680729671535 0.024486521388885761 0.027537161057494687 0.227078352833813 0.09830641633235615 0.22495077260191765 0.21904607190871075
leaf_weight=1700.5726602226496 118.47068382799625 1345.4218711853027 60.194092735648155 498.26773619651794 11107.649515204132 151.52025452256203 442.46970860660076 2400.4162191078067 96.047874271869659 2831.5181308686733 289.68509859591722 2227.053514316678 227.18168248981237 530.3820403367281 12179.374839246273 338.84784332662821 2422.3226232528687 615.27375662326813 784.5646547973156 526.84015369415283 1692.1301026791334 49.803149789571762 354.66364628076553 18089.90222582221 100.28760212659836 521.40633773803711 977.87130737304688 801.07288894057274 434.28325897455215 72.772728450596333
leaf_count=1517 1542 2000 875 1490 169628 169 2217 4461 496 3648 1498 28907 1396 2481 11844 4179 9189 6760 8934 4748 3058 708 5257 30300 795 5955 3771 5378 1248 208
internal_value=0.177526 0.228597 0.0431576 0.0196938 -0.00990645 0.116455 0.0799935 0.246791 0.199298 0.25039 0.186744 0.0199798 -0.0301811 0.148614 0.256492 0.101501 0.217461 0.053392 0.0638021 0.109679 0.245259 0.255245 0.015527 0.263267 0.235002 0.0943808 0.179361 0.130377 0.171215 0.049189
internal_weight=63988.3 46365.4 17622.9 15922.3 13669.5 6472.25 5126.83 39893.2 2252.84 38928.8 3405.66 3196.36 12119.4 1550.06 35523.1 964.375 5253.84 904.959 1011.75 969.31 1802.13 1741.93 450.712 30269.3 2500.7 1051.79 1930.46 952.593 625.527 191.243
internal_count=324657 122862 201795 200278 189884 47190 45190 75672 10394 68495 13514 35872 179958 9926 54981 7177 12837 8258 10330 6965 4641 3766 5753 42144 5256 8436 9318 5547 2998 1750
is_linear=0
shrinkage=0.05


Tree=3
num_leaves=31
num_cat=0
split_feature=45 21 109 113 19 21 97 38 38 7 38 19 37 24 70 19 38 20 45 38 33 24 64 114 21 70 15 2 20 7
split_gain=115250 28397.3 28118 25604.6 12283.6 10563.5 8254.67 8159.17 5253.55 4913.51 5661.27 8783.47 3400.35 2599.02 2368.84 2266.07 2159.84 2147 2085.91 1794.51 1772.04 1578.77 1494.4 1176.11 1173.41 1053.01 981.491 905.186 773.111 708.132
threshold=2.6207743883132939 6.3557300567626962 6.2133991718292245 6.1289145946502694 9.1466245651245135 4.6724877357482919 2.0348292589187627 -1.9030685424804685 4.1743872165679941 3.1679912805557255 4.3869991302490243 11.742378234863283 -0.097455732524394975 2.7383246421813969 53.702589035034187 13.680320739746096 4.061587095260621 5.8035554885864267 2.311308860778809 -6.0345516204833975 0.99999985098838817 2.996650338172913 2.8551518917083745 6.1365773677825937 4.4175751209259042 28.351989746093754 8.8512830734252947 -0.85500714182853688 1.2926986813545229 3.609255433082581
decision_type=2 2 2 2 2 2 2 2 2 2 2 2 2 2 2 2 2 2 2 2 2 2 2 2 2 2 2 2 2 2
left_child=2 6 -1 8 16 18 -2 17 14 25 12 -12 -11 28 23 21 -3 -6 -5 -15 -19 -9 -20 -4 -10 -8 -16 -27 -7 -18
right_child=1 4 3 5 7 13 9 15 24 10 11 -13 -14 19 26 -17 29 20 22 -21 -22 -23 -24 -25 -26 27 -28 -29 -30 -31
leaf_value=0.21772007122507736 -0.043639467571274029 0.21015415646249311 -0.050604737032254821 0.029358552752633445 0.2355257124502016 0.28227623705358235 0.057369259040718872 0.008595631233698579 0.20408491611550003 0.12220153201459479 0.17661706261949797 -0.008643492684300369 0.19957079888666862 0.20361244148293645 0.22284372790127091 -0.040997945052600217 0.31490400242188427 -0.0052569123707984569 0.013016351244682353 0.011413644142505484 0.12589542280160024 0.1483807604863269 0.18942643127397243 0.20010564686134696 -0.04589763759791235 0.21545551060840357 0.079097156152266368 0.15990357273325853 -0.041825011898620118 0.01590218509707746
leaf_weight=1880.0091273337603 350.00560760498047 1796.5513878241181 137.45761585608125 452.29187047481537 351.7262504696846 18.435120463371277 107.7685720436275 608.72591504454613 55.000173628330231 1572.8573544025421 1967.4913640022278 948.09942293167114 14624.51943378523 132.13399410247803 1686.2446238733828 1892.5148673951626 21.960882283747196 324.3112735748291 142.94874103367329 1501.4258423224092 1251.1166305541992 302.30765342712402 749.41270630061626 70.909645311534405 320.44609755277634 27283.508062392473 127.74551959335804 753.5495373904705 9686.3443370237947 201.41953121125698
leaf_count=1106 4892 2386 1850 3892 552 10 657 6334 137 6750 5213 9837 26521 1058 1922 27224 20 3313 1204 18081 7397 1933 2629 326 4939 25761 809 1787 154074 1978
internal_value=0.149173 0.184677 0.0353846 0.0126542 0.0887052 -0.0156737 0.198285 0.044633 0.162492 0.200077 0.180513 0.116374 0.192058 -0.0313879 0.19438 -0.00980907 0.191923 0.123833 0.116832 0.0269601 0.0988969 0.0549804 0.161167 0.0347147 -0.00927699 0.213363 0.212721 0.213962 -0.0412094 0.0452975
internal_weight=71319.2 54358.4 16960.8 15080.8 6750.63 12683 47607.8 4730.7 2397.8 47257.8 19113 2915.59 16197.4 11338.3 2022.36 2803.55 2019.93 1927.15 1344.65 1633.56 1575.43 911.034 892.361 208.367 375.446 28144.8 1813.99 28037.1 9704.78 223.38
internal_count=324592 132555 192037 190931 51137 180948 81418 46753 9983 76526 48321 15050 33271 173223 4907 35491 4384 11262 7725 19139 10710 8267 3833 2176 5076 28205 2731 27548 154084 1998
is_linear=0
shrinkage=0.05


Tree=4
num_leaves=31
num_cat=0
split_feature=25 109 113 21 19 21 15 38 21 38 19 38 6 45 70 19 55 70 25 46 55 38 14 32 38 113 7 38 21 70
split_gain=85287.4 20943.4 20811.6 20593.4 8972.34 8877.04 6859.73 5081.83 3959.13 6130.91 3835.46 3826.24 3413.79 2938.46 2472.12 2246.62 1945.05 1778.55 1768.57 1723.57 1666.99 1793.6 1631.69 1517.22 1239.72 1069.05 1014.47 994.169 986.442 962.128
threshold=2.6207743883132939 6.8708703517913827 6.1289145946502694 6.469722032546998 7.9279313087463388 5.0687360763549814 1.5835957527160647 -2.0242090225219722 5.2812252044677743 4.6157982349395761 12.382882595062258 4.1743872165679941 12.371756553649904 2.3519473075866704 57.920568466186531 13.680320739746096 0.99999853968620311 53.249687194824226 3.0652080774307255 2.8209258317947392 0.99999311566352855 -2.9446125030517574 10.344443321228029 0.99999991059303295 -6.1476287841796866 17.355978965759281 3.3970682621002202 4.0000243186950692 5.1672215461730966 30.031904220581058
decision_type=2 2 2 2 2 2 2 2 2 2 2 2 2 2 2 2 2 2 2 2 2 2 2 2 2 2 2 2 2 2
left_child=1 -1 11 6 27 13 14 22 20 12 -11 17 -10 25 -2 18 -15 28 -9 -7 21 -8 23 -6 -21 -4 -16 -5 -3 -22
right_child=3 2 5 4 7 19 8 15 9 10 -12 -13 -14 16 26 -17 -18 -19 -20 24 29 -23 -24 -25 -26 -27 -28 -29 -30 -31
leaf_value=0.18063923974771845 -0.042111712862211485 0.19547435529257862 -0.022927692720376272 0.18212004939178245 0.026605902653321578 -0.040335154389410224 0.17674396792070099 -0.0026153620180355973 0.1631814284290144 0.116408811427495 -0.044552467784172919 -0.009255318058505279 0.0073247803866210333 -0.012693713060023865 0.19237175608234969 -0.04399080313402165 0.16407742411165641 0.1782670011384431 0.1290470038786872 0.19364085509587789 0.084631404666326529 0.018028259687924666 -0.034117427348016288 0.14412818201408276 0.010363179148481557 0.12442296220337497 -0.024089506848798889 0.018696989091092454 -0.042401516008989892 0.18067926641750412
leaf_weight=2070.7464277073741 518.54079343751073 61.241935405880213 597.88395185768604 1521.8655483499169 353.88994485139847 9559.5077710226178 382.96098122745752 653.40360200405121 13672.10550057888 968.82641921937466 598.8664295822382 372.18120270967484 360.60515809059143 186.3495888710022 221.6881583109498 1668.6575132608414 943.4666919708252 2029.3135706186295 418.37014436721802 103.65005350112915 262.56468736752868 332.59489466995001 198.99286717176437 1226.1885185241699 840.09136984497309 155.00661063194275 71.612439814954996 99.123694203794003 151.13996383175254 37392.39822864905
leaf_count=1397 5446 134 7085 1274 2596 157025 397 6931 27213 4060 7313 5114 2708 1916 282 25085 3727 2766 2179 563 1254 2029 2039 5280 9244 888 591 844 2054 35349
internal_value=0.130359 0.0315832 0.0110058 0.158036 0.0712069 -0.0160499 0.167768 0.0350104 0.169938 0.1487 0.0549208 0.13921 0.159176 0.0839294 0.023508 -0.00770866 0.134921 0.163859 0.0487794 -0.0339711 0.178573 0.102972 0.100814 0.117807 0.0304924 0.00740915 0.13952 0.172127 0.0261918 0.18001
internal_weight=77993.8 17070.6 14999.8 60923.3 6140.49 12386 54782.8 4519.5 53970.9 15600.4 1567.69 2613.88 14032.7 1882.71 811.841 2740.43 1129.82 2241.7 1071.77 10503.2 38370.5 715.556 1779.07 1580.08 943.741 752.891 293.301 1620.99 212.382 37655
internal_count=324783 191913 190516 132870 46228 180448 86642 44110 80323 41294 11373 10068 29921 13616 6319 34195 5643 4954 9110 166832 39029 2426 9915 7876 9807 7973 873 2118 2188 36603
is_linear=0
shrinkage=0.05


Tree=5
num_leaves=31
num_cat=0
split_feature=45 109 113 26 19 48 24 38 44 38 19 15 97 19 46 19 38 114 113 38 19 38 24 32 38 25 10 26 55 14
split_gain=65764.9 17415.2 17220.9 11003.6 6526.87 5332.58 5188.1 4178.78 4103.81 4010.38 4084 3726.84 2876.75 2393.4 1951.22 1907.99 8486.59 1748.68 1573.93 1524.68 1415.46 2282.12 1272.12 1067.38 1058.33 920.783 752.656 707.484 702.872 681.019
threshold=2.5945981740951543 6.2133991718292245 6.1289145946502694 9.0436701774597186 7.0670959949493417 6.4086086750030526 2.7834830284118657 -2.0242090225219722 2.7937636375427251 -2.3935241699218746 12.382882595062258 2.0232834815979008 2.0843907594680791 11.89112710952759 2.7884918451309209 11.616940498352053 4.437352418899537 6.6949305534362802 18.46266078948975 4.2757239341735849 11.558485984802248 -2.5874061584472652 3.0119680166244511 0.99999997019767772 3.8324972391128544 2.4075593948364262 7.0469210147857675 7.1992325782775888 0.9999932348728181 11.838902950286867
decision_type=2 2 2 2 2 2 2 2 2 2 2 2 2 2 2 2 2 2 2 2 2 2 2 2 2 2 2 2 2 2
left_child=1 -1 12 6 -5 18 8 23 -2 28 -11 20 -3 22 -7 -13 -17 -16 25 29 24 -22 -9 26 -8 -4 -6 -21 -10 -14
right_child=3 2 5 4 7 14 11 13 9 10 -12 15 19 -15 17 16 -18 -19 -20 27 21 -23 -24 -25 -26 -27 -28 -29 -30 -31
leaf_value=0.16125463332557397 0.15299034086486238 -0.048522492928373129 0.00158041805608885 0.16221224611567964 0.11141754222654068 -0.039162901585037019 0.15985814349295024 0.015513859099589085 -0.037764797431849732 0.10058371599040539 -0.017487627863696533 0.16437699375917095 0.15500464809360681 -0.025225692942131051 0.18887431719875944 0.14990549609719814 0.012763659788328777 0.0058213101652694142 0.1717737731899103 0.1414115019886911 0.11887870630823133 -0.040517250051662193 0.13146934475696112 0.13329287560032405 0.030832105687182639 0.10429493116907565 0.02078929883383876 -0.053524443375307665 0.13994387196796343 -0.01641837244752346
leaf_weight=2075.8836400285363 2925.5497201085091 226.29496921598911 523.83677980303764 1647.5968065261841 413.01820454001427 9234.6371848732233 595.81447121500969 482.75269621610641 57.376492857933044 1457.7371490709484 1471.8494464047253 20368.21976698935 2131.3542654402554 1872.8070312142372 148.51533780992031 29006.215706333518 1173.7086244821548 1073.4941439628601 332.03675889968872 69.003848250955343 423.91358464956284 477.49527211487293 463.74837303161621 1146.3967895507812 216.74573530256748 373.94608697295189 514.43889561295509 143.00713874399662 1840.1056360006332 59.556583866477013
leaf_count=1018 3276 3582 4950 1252 1751 155349 621 4142 511 6056 15346 15632 3014 26552 681 34346 9150 11778 614 351 1159 4244 1581 4029 1369 1401 3729 2364 4716 506
internal_value=0.115625 0.0259139 0.00628846 0.13772 0.0761371 -0.0197229 0.144432 0.0471544 0.106262 0.0779417 0.0412637 0.150094 0.121905 0.00752497 -0.031306 0.152552 0.144572 0.0280684 0.0787626 0.137955 0.0775837 0.0344433 0.0723275 0.101029 0.125441 0.0443632 0.0611482 0.00992194 0.13457 0.150345
internal_weight=82947.1 16391.6 14315.7 66555.5 6540.76 11686.5 60014.7 4893.16 7752.62 4827.07 2929.59 52262.1 2629.22 2819.31 10456.6 50548.1 30179.9 1222.01 1229.82 2402.92 1713.97 901.409 946.501 2073.85 812.56 897.783 927.457 212.011 1897.48 2190.91
internal_count=325070 185608 184590 139462 43036 174773 96426 41784 29905 26629 21402 66521 9817 32275 167808 59128 43496 12459 6965 6235 7393 5403 5723 9509 1990 6351 5480 2715 5227 3520
is_linear=0
shrinkage=0.05


Tree=6
num_leaves=31
num_cat=0
split_feature=46 21 109 20 21 38 45 6 38 70 19 55 20 14 97 38 19 88 113 20 38 64 55 38 51 2 115 14 19 97
split_gain=50642.9 16199.2 16621.8 17040.4 6897.02 7218.32 4455.53 3971.14 3447.49 3075.56 2533.5 2412.73 1875.03 1872.95 1436.71 1292.8 2867.52 1153.79 1007.87 969.433 1884.46 1086.04 897.456 764.225 755.162 624.403 621.827 618.787 546.761 479.087
threshold=2.7432399988174443 4.5515315532684335 6.2133991718292245 4.1308329105377206 5.6153419017791757 4.8098325729370126 2.5695632696151738 12.974363803863527 0.35801601409912115 32.912010192871101 11.89112710952759 0.99999311566352855 6.7156376838684091 3.1772973537445073 3.0945909023284917 6.568836212158204 12.64377546310425 10.354899406433107 16.876049995422367 7.1468524932861337 -3.2171659469604488 1.8250973224639895 0.99999263882637035 -1.9684982299804685 0.99999997019767772 -0.92124012112617482 10.451656818389894 9.6446785926818865 36.089849472045906 2.3863824605941777
decision_type=2 2 2 2 2 2 2 2 2 2 2 2 2 2 2 2 2 2 2 2 2 2 2 2 2 2 2 2 2 2
left_child=1 14 -3 27 9 7 -5 11 -8 13 24 18 -13 -2 23 19 22 25 -6 21 -21 -11 -17 28 -7 -16 -26 -4 -1 -15
right_child=4 2 3 6 5 10 8 -9 -10 15 -12 12 -14 29 17 16 -18 -19 -20 20 -22 -23 -24 -25 26 -27 -28 -29 -30 -31
leaf_value=0.16634304037960088 -0.043851561593297006 0.14785309629175777 0.14668043438625283 -0.041015064647838856 -0.042108332060242254 0.14020513962890988 0.059307422501783363 -0.028087228404355437 -0.026552493215021278 -0.018786653625592484 -0.047645728265366311 0.14899673929934651 0.10781162468144574 -0.05695254418478625 0.14384612349662232 -0.057828324457795593 -0.057070242221515577 -0.018947820562833447 0.087916067400448411 0.1465345301779197 0.12074855797063358 0.14997986649083106 0.12761907751985965 -0.042685700226911073 -0.046335578551892749 0.089463087533553198 0.076737483404000911 -0.019841668670733541 -0.067518698831742482 0.12395101752626565
leaf_weight=106.64368370175362 366.11065894365311 2144.687774002552 1795.4220134615898 8861.9378527328372 327.27308706194162 271.99517070129514 2504.1008856073022 500.94234418869019 2193.0097818374634 95.857848070561886 1025.8837417028844 3855.8302578702569 9755.5960095375776 40.132655903697014 3482.4796748235822 67.592063024640083 255.33100891113281 124.42002385854721 273.66109102964401 14608.766810238361 13758.033803574741 17207.4781665802 1874.5253740251064 189.77827810123563 155.24488590657711 622.09683518856764 302.83761030435562 57.576616674661636 32.643320806324482 415.56488312780857
leaf_count=49 3687 934 1215 154382 3068 1038 16899 5437 26669 578 14184 5915 30469 406 3949 652 2505 1023 904 9368 19075 11355 2858 1792 1466 2068 1636 369 193 585
internal_value=0.104618 0.0392403 0.017436 -0.000712442 0.126808 0.0988376 -0.0201482 0.110273 0.0192207 0.136269 0.0030193 0.11515 0.119478 0.0403616 0.123226 0.137915 0.100455 0.131057 0.0171038 0.139718 0.134028 0.149045 0.121165 0.022593 0.0742123 0.135604 0.0350278 0.141506 0.111535 0.108019
internal_weight=87273.5 22114.8 17556.7 15412 65158.7 16469.3 13559 14713.3 4697.11 48689.4 1755.96 14212.4 13611.4 821.808 4558.06 47867.6 2197.45 4229 600.934 45670.1 28366.8 17303.3 1942.12 329.065 730.078 4104.58 458.082 1853 139.287 455.698
internal_count=324728 209542 200468 199534 115186 64117 197950 45793 43568 51069 18324 40356 36384 4678 9074 46391 6015 7040 3972 40376 28443 11933 3510 2034 4140 6017 3102 1584 242 991
is_linear=0
shrinkage=0.05


Tree=7
num_leaves=31
num_cat=0
split_feature=45 21 110 113 21 3 70 14 70 110 110 20 21 70 46 13 20 7 21 46 7 106 16 97 13 64 70 97 13 67
split_gain=42002.7 12141.9 11557.2 12367.9 5617.49 5275.72 4165.78 2666.81 2452.35 2431.22 2209.79 3286.88 2105.39 1691.52 1554.66 1315.93 1189.56 1049.14 825.001 802.647 686.359 681.388 680.932 576.434 545.261 496.23 444.003 368.108 265.808 289.591
threshold=2.5945981740951543 6.4397051334381112 7.0901694297790536 6.2188382148742685 3.9726307392120366 8.2821602821350115 28.351989746093754 1.5028081536293032 53.702589035034187 6.5065484046936044 12.020834445953371 6.5763478279113778 7.0600309371948251 49.930706024169929 2.656787753105164 1.1348075270652773 6.5478174686431894 3.3599280118942265 7.4104881286621103 3.2194147109985356 2.7461745738983159 522.79830932617199 12.593112468719484 2.851805686950684 4.8880038261413583 1.9723666310310366 54.992559432983406 1.9299399852752688 7.1998612880706796 13.934081554412844
decision_type=2 2 2 2 2 2 2 2 2 2 2 2 2 2 2 2 2 2 2 2 2 2 2 2 2 2 2 2 2 2
left_child=2 6 -1 8 22 9 24 13 20 -3 27 -12 15 -8 21 -11 -16 -15 25 -7 -4 -6 23 -5 -2 -10 -14 -9 -21 -30
right_child=1 5 3 4 14 19 7 10 18 12 11 -13 26 17 16 -17 -18 -19 -20 28 -22 -23 -24 -25 -26 -27 -28 -29 29 -31
leaf_value=0.13151415455334725 -0.05536082424331891 0.13966120819512395 0.14316669542166563 -0.058495839764874207 -0.04021244031506431 -0.040301295053790466 -0.046687481705808227 -0.023249796582960194 0.023540418279491087 -0.058129036558286475 0.1347430910519675 0.10437915674621341 -0.05264291519842948 0.11784755091051449 0.089956908122114737 0.087501739574209453 -0.0075965006772140469 0.012457126594239722 -0.054671590898523525 0.13121961091809262 -0.042335299621337141 0.091211819645880141 -0.026245376998428018 0.12180314974152247 0.090884763040423588 0.12432831361160279 0.020104791164249233 0.13348363323155685 -0.0084322361924852995 0.1825099913205841
leaf_weight=2144.0664703212678 386.2895573079586 1128.1596410423517 57.985560949891806 46.846306599676609 7795.9923915080726 1460.711697101593 337.03046903014183 37.523235898464918 128.61308140680194 163.40286358073354 12987.550358690321 28406.554592348635 256.24187664687634 694.625653013587 367.41554449498653 3059.8021156601608 2090.4967842102051 357.76251712068915 70.063151180744171 82.533269062638283 356.05644378811121 99.887887477874756 99.009455472230911 825.47028394788504 76.328920513391495 2421.0362855382264 1155.8320912122726 22991.656799577177 132.31478983163834 23.363725945353508
leaf_count=1264 4701 431 33 415 139371 19453 2704 370 1112 1729 10342 49951 2790 917 2931 14736 27360 1910 1025 222 5415 426 832 1425 270 3975 10729 16762 1134 72
internal_value=0.095338 0.111476 0.023232 0.00706327 -0.0169542 0.0510104 0.118284 0.119335 0.0967212 0.0738358 0.120813 0.113906 0.0578149 0.0507993 -0.02774 0.0801189 0.00698605 0.0820198 0.114593 -0.0264227 -0.0163562 -0.0385498 0.0980165 0.11212 -0.0312313 0.119244 0.00690364 0.133228 0.0586805 0.0202238
internal_weight=90240.6 73737.7 16502.9 14358.9 11325.1 7462.36 66275.3 65812.7 3033.75 5763.44 64423.3 41394.1 4635.28 1389.42 10353.8 3223.2 2457.91 1052.39 2619.71 1698.92 414.042 7895.88 971.326 872.317 462.618 2549.65 1412.07 23029.2 238.212 155.679
internal_count=324807 139223 185584 184320 172760 51296 87927 82956 11560 30415 77425 60293 29984 5531 170088 16465 30291 2827 6112 20881 5448 139797 2672 1840 4971 5087 13519 17132 1428 1206
is_linear=0
shrinkage=0.05


Tree=8
num_leaves=31
num_cat=0
split_feature=24 21 109 112 22 19 70 38 21 38 38 19 112 14 19 112 97 55 15 38 111 111 32 38 97 55 38 67 70 112
split_gain=34879.5 10916 13111.2 9516.45 8826.5 4149.29 3868.83 3253.68 2821.96 2607.76 2102.7 6749.1 4333.74 1926.84 1421.37 1118.52 1039.2 971.982 879.56 797.803 743.737 644.261 607.112 577.449 510.738 492.983 473.918 445.8 426.604 421.367
threshold=2.7118335962295537 4.5515315532684335 6.2133991718292245 5.5549335479736337 6.4088642597198495 6.8532309532165536 32.912010192871101 0.35801601409912115 6.250148057937623 -2.8155088424682613 -3.2171659469604488 11.742378234863283 10.764625549316408 3.1368912458419804 12.199445724487306 13.944343090057375 3.0945909023284917 0.99997898936271679 12.701916217803957 -1.598121643066406 25.235273361206058 13.560122489929201 0.99999997019767772 -2.9446125030517574 2.3863824605941777 0.99999478459358226 4.5666627883911142 3.5144279003143315 139.94669342041018 6.358675718307496
decision_type=2 2 2 2 2 2 2 2 2 2 2 2 2 2 2 2 2 2 2 2 2 2 2 2 2 2 2 2 2 2
left_child=1 16 -3 19 6 -6 13 8 -5 15 -8 17 -13 -2 21 20 29 -12 25 -4 -7 -11 -17 -20 -15 -18 -16 -26 -27 -1
right_child=4 2 3 7 5 9 10 -9 -10 14 11 12 -14 24 26 22 18 -19 23 -21 -22 -23 -24 -25 27 28 -28 -29 -30 -31
leaf_value=0.11993730678728252 -0.047499885299116112 0.12414957857319704 0.11675762665654077 0.05299663133533359 0.12398135485846709 -0.031575034358044533 0.12331525339221223 -0.043988300617663054 -0.018934900517651732 0.081817472514247869 -0.029290277073425654 0.10231303954395031 0.047322492341657467 -0.057719591010853957 -0.0031756855993377853 -0.027587775401810257 -0.061027688265517778 0.121305391863981 0.11854110522917674 -0.054723987649558839 0.10538122720227752 0.0026369907264702248 0.062226313210176902 -0.054583098088375276 0.11306487028297174 0.11666798119187079 -0.052236523760949977 -0.071107669053934938 -0.053761298672186375 -0.026574780359200623
leaf_weight=63.909420888870955 559.23516581952572 2265.0164233744144 1536.0088716596365 2130.0723077505827 1570.0743799209595 106.2308554649353 24879.059112429619 6663.9972345978022 3788.6924896240234 651.6511814147234 107.61541169881821 7984.4927129745483 6499.1654985845089 57.162331953644753 1487.7042669951916 336.9065363407135 40.183678783476353 24527.197161048651 75.338464789092541 70.960115239024162 1482.5380907058716 424.08987256139517 426.16072082519531 133.54306501895189 464.81832219660282 3794.1541717872024 735.63595520704985 35.356494292616844 37.076599597930908 211.41012624278665
leaf_count=57 6226 907 1269 20786 873 831 16872 112710 55632 2959 693 14760 22980 584 15511 2596 330 17893 191 1112 3892 3141 1738 1188 546 4579 11175 201 199 1769
internal_value=0.0881134 0.0310695 0.0124383 -0.00539349 0.104525 0.0520766 0.110341 -0.0200266 0.00695215 0.0320983 0.111951 0.104723 0.0776375 0.0180709 0.00342011 0.072327 0.101455 0.120648 0.107799 0.109185 0.0962238 0.0506021 0.0225719 0.00785857 0.0838651 0.113191 -0.0194084 0.100046 0.115019 0.0074348
internal_weight=93145.5 20810.4 16454.7 14189.7 72335.1 7220.99 65114.1 12582.8 5918.76 5650.92 63997.5 39118.5 14483.7 1116.57 3299.08 2351.84 4355.62 24634.8 4080.3 1606.97 1588.77 1075.74 763.067 208.882 557.337 3871.41 2223.34 500.175 3831.23 275.32
internal_count=324200 200729 192416 191509 123471 42716 80755 189128 76418 41843 73198 56326 37740 7557 32786 9057 8313 18586 6487 2381 4723 6100 4334 1379 1331 5108 26686 747 4778 1826
is_linear=0
shrinkage=0.05


Tree=9
num_leaves=31
num_cat=0
split_feature=25 22 109 113 38 3 21 19 19 38 38 64 38 14 24 22 38 19 38 38 21 38 21 46 25 103 26 46 3 13
split_gain=29406.1 10540.7 10293.2 9761.77 5268.71 3542 3331.02 2284.64 2244.9 2343.35 2161.32 2107.04 1972.17 1773.66 1671.03 1129.01 1089.03 3982.9 1031.28 940.091 921.92 851.26 727.172 673.061 661.423 574.114 610.986 526.858 519.817 496.406
threshold=2.5502144098281865 5.7996838092803964 7.2140772342681894 6.1755390167236337 4.6157982349395761 9.7741174697875994 5.5650911331176767 11.963198184967043 7.0670959949493417 -2.5219955444335933 -2.1502647399902339 2.0098230838775639 3.2293705940246586 13.177685737609865 2.876328825950623 6.4600145816802987 -2.8155088424682613 12.382882595062258 -3.0091495513916011 6.6871726512908944 4.4175751209259042 -2.3357095718383785 3.9726307392120366 3.2512632608413701 2.1789675951004033 1.9261938929557803 8.2338209152221697 2.6033735275268559 10.129635810852053 1.8214651346206667
decision_type=2 2 2 2 2 2 2 2 2 2 2 2 2 2 2 2 2 2 2 2 2 2 2 2 2 2 2 2 2 2
left_child=2 11 -1 12 5 8 10 14 -3 -10 24 19 28 16 -6 21 -13 -18 -15 25 -14 -7 -12 -20 -5 26 -2 -8 -4 -16
right_child=1 4 3 6 7 15 27 -9 9 -11 22 13 20 18 29 -17 17 -19 23 -21 -22 -23 -24 -25 -26 -27 -28 -29 -30 -31
leaf_value=0.11033426506423163 -0.057594603717545705 0.11742803405377655 0.10741406605996942 0.0083451517488140007 -0.038735719186124257 0.094827788792542278 -0.048362261394658164 -0.0487576237804596 0.089375192458925085 0.043457426230582373 0.051005650289092735 0.11474269059976408 0.10953817164574875 0.10078116878817844 -0.025637129361107583 -0.036019043128339458 0.11249218165165412 0.07562724559331363 -0.048022408944408207 -0.05562008051798184 -0.042691937839225688 -0.0036858336305486562 -0.021436671659955255 0.089640096308014006 0.12697578171191759 0.076155176850318307 0.091871986426332375 -0.017701652920755626 -0.04090094464056851 0.093842917807488033
leaf_weight=2500.9505350589752 177.22663821280003 3128.1191224902868 2159.8752942681313 149.99521017074585 426.477713778615 428.85660713911057 5539.3866252712905 1374.1601446121931 6444.9484815597534 4884.2017927318811 467.67514504119754 23961.472380697727 133.06159251928329 324.87474781274796 97.289730288088322 865.82758593559265 23125.488277666271 10724.617750883102 364.46990264207125 173.9634917974472 393.80149048566818 448.73529487848282 1336.0025765895844 117.38684630393982 542.2998309135437 1761.1350514031947 111.31860215589404 1875.4867417737842 60.738605454564095 816.66137387603521
leaf_count=1676 2156 1589 2662 1603 4606 1038 109738 20701 14641 28079 1913 14015 172 394 645 10315 15603 22449 3213 1829 6697 3302 19293 172 2156 3472 293 28096 500 2000
internal_value=0.0814783 0.0936115 0.0176426 -0.000670806 0.0610117 0.0718136 -0.0237892 -0.00345432 0.0799323 0.0695792 0.0261723 0.103746 0.0827231 0.105559 0.042989 0.00448961 0.106586 0.100812 0.0319327 0.0559727 -0.00424555 0.0444552 -0.00265312 -0.014486 0.101273 0.065444 6.84922e-05 -0.0406071 0.103357 0.0811243
internal_weight=94916.5 79757.2 15159.3 12658.3 18915.3 16200.7 9910.85 2714.59 14457.3 11329.2 2495.97 60842 2747.48 58618.3 1340.43 1743.42 57811.6 33850.1 806.731 2223.64 526.863 877.592 1803.68 481.857 692.295 2049.68 288.545 7414.87 2220.61 913.951
internal_count=325018 150512 174506 172830 86916 58964 162799 27952 44309 42720 24965 63596 10031 55846 7251 14655 52067 38052 3779 7750 6869 4340 21206 3385 3759 5921 2449 137834 3162 2645
is_linear=0
shrinkage=0.05


Tree=10
num_leaves=31
num_cat=0
split_feature=46 21 109 20 21 38 38 6 21 109 45 38 19 97 19 38 38 19 38 97 16 70 70 113 13 52 13 103 70 98
split_gain=25339.9 9822.18 9681.1 10865.1 4227.95 4226.4 2572.98 2278.48 2266.89 2234.66 1757.76 1790.31 1757.24 1691.85 1613.52 3179.82 1148.85 1975.79 1097.74 824.655 792.674 1192.05 740.509 646.215 645.286 598.206 582.133 522.201 520.792 467.317
threshold=2.7577275037765507 5.5650911331176767 6.2133991718292245 1.2926986813545229 5.5995841026306161 4.8098325729370126 -2.0242090225219722 12.371756553649904 4.2082576751708993 12.04885244369507 2.5998504161834721 0.059570312500000007 11.963198184967043 2.0348292589187627 11.89112710952759 -2.0242090225219722 6.568836212158204 12.64377546310425 4.1176035404205331 2.851805686950684 1.9932757616043093 33.942266464233406 126.74651336669923 6.5502617359161386 16.711357116699222 0.99999997019767772 1.4566241502761843 9.1994643211364764 41.776311874389656 3.6573780775070195
decision_type=2 2 2 2 2 2 2 2 2 2 2 2 2 2 2 2 2 2 2 2 2 2 2 2 2 2 2 2 2 2
left_child=1 6 -3 -4 13 7 28 14 19 18 -5 -12 25 -2 27 -16 20 26 -10 -8 21 -15 -21 -11 -22 -7 -18 -6 -1 -27
right_child=4 2 3 10 5 12 8 -9 9 23 11 -13 -14 16 15 -17 17 -19 -20 22 24 -23 -24 -25 -26 29 -28 -29 -30 -31
leaf_value=0.025798048977783219 -0.035102650799535909 0.10728831954284331 0.10633031256993267 -0.042751813973137549 0.10208482974665152 0.11403462677408904 -0.055284696436857732 -0.019238246442949851 0.10410618176106055 0.067965444807853451 0.030859162096232226 -0.038129809751197702 -0.049778056836200339 -0.044860640845780848 0.086996170602887113 0.022774124532248689 -0.058903095450090738 -0.058269159034714239 0.0055829911258111972 0.093943917511975075 0.1030755092687395 0.088939173644294156 -0.06671571408900305 -0.043955724210821188 -0.020749060673687748 -0.056378767669106149 0.086092834711411853 0.034509285461362414 0.110985511053313 0.04630328578224354
leaf_weight=189.62326630949974 238.44947099685669 2043.5161848068237 1735.5314486175776 7218.1418790109456 6860.689456641674 250.31800901144743 102.98784969002008 581.37808895111084 715.24633800983429 146.12649733573198 2055.8748295865953 1733.1721768379211 939.55751490592957 169.69139744713902 6370.5799891501665 2763.5004321187735 71.597432926297188 287.39221142977476 467.53219103813171 2391.6504388749599 42831.567763131112 8756.2041100636125 73.940126031637192 1098.5589533373713 105.47437869012356 144.23282875865698 2087.3043724000454 298.32097673416138 3331.8786448538303 478.11302660405636
leaf_count=1045 3048 813 1078 142805 7230 702 940 5720 1370 1037 13315 22940 13452 1106 13111 17174 477 2568 4910 3176 29475 9605 512 14758 596 1273 2822 901 4665 2093
internal_value=0.0763081 0.0308965 0.00625943 -0.0099423 0.0907585 0.0702327 0.0736658 0.0780253 0.050594 0.0159489 -0.0282753 -0.000697524 -0.00232747 0.0977901 0.0814959 0.0675659 0.0983736 0.0648894 0.0651616 0.0833357 0.099953 0.0863955 0.0891259 -0.0308161 0.102771 0.0487604 0.0812842 0.0992689 0.106398 0.022506
internal_weight=96538.2 23303.8 14786.2 12742.7 73234.4 18686.7 8517.54 16874.5 4996.04 2427.46 11007.2 3789.05 1812.22 54547.7 16293.1 9134.08 54309.2 2446.29 1182.78 2568.58 51862.9 8925.9 2465.59 1244.69 42937 872.664 2158.9 7159.01 3521.5 622.346
internal_count=324717 213364 180951 180138 111353 61656 32413 44136 26703 22075 179060 36255 17520 49697 38416 30285 46649 5867 6280 4628 40782 10711 3688 15795 30071 4068 3299 8131 5710 3366
is_linear=0
shrinkage=0.05


Tree=11
num_leaves=31
num_cat=0
split_feature=24 89 22 38 109 21 20 6 21 38 19 20 19 70 97 20 15 22 20 7 24 14 70 54 26 38 21 110 33 70
split_gain=22306.7 7610.86 6247.23 6175 3162.86 3803.08 5777.92 3151.61 3001.23 2661.63 2495.36 1906.79 2168.8 1707.9 1495.1 1334.67 951.782 780.395 987.472 757.603 569.877 548.096 539.058 492.378 455.997 378.544 621.429 363.528 336.407 311.101
threshold=2.7118335962295537 8.1443686485290545 5.7013916969299325 4.3869991302490243 7.2140772342681894 5.5650911331176767 1.2926986813545229 12.816564083099367 3.9061055183410649 4.6157982349395761 11.963198184967043 6.7156376838684091 7.9279313087463388 28.351989746093754 2.5395641326904301 4.1308329105377206 1.5835957527160647 4.3012797832489023 6.8829541206359872 2.3076082468032841 3.0358133316040044 4.2630546092987069 58.735807418823249 0.99999812245368969 8.6315875053405779 -5.816417694091796 6.3352677822113046 4.4915437698364267 0.99999877810478222 148.63666534423831
decision_type=2 2 2 2 2 2 2 2 2 2 2 2 2 2 2 2 2 2 2 2 2 2 2 2 2 2 2 2 2 2
left_child=1 3 13 4 -1 14 -7 9 -5 11 20 23 -13 21 -6 -3 22 29 -19 -17 -11 -2 24 -4 -15 26 -21 -10 -29 -18
right_child=2 15 7 8 5 6 -8 -9 27 10 -12 12 -14 16 -16 19 17 18 -20 25 -22 -23 -24 -25 -26 -27 -28 28 -30 -31
leaf_value=0.10337730473153671 -0.057372519804191668 0.11131317122364277 0.039612243164149255 0.088687652886253951 -0.054794664407741403 0.099194973560196575 -0.01283977186183638 -0.031979455360656807 0.10765767743874331 0.0095259677452997609 -0.048545103592357836 0.099109337321865013 0.04843132140598766 -0.063381048671268217 0.084348144301186131 0.080498747096175868 0.10009724844847903 0.10040069172967361 0.081380115075049456 0.12925884861340872 0.079141912816056675 0.086374741325112359 0.082815620355718669 0.10273194675610385 0.10147053312897299 -0.048722615381968398 -0.041798109023760965 0.043045172619342195 -0.046041554989352584 -0.04728669371738696
leaf_weight=2802.6718470267951 249.7700025960803 149.75778865814209 332.60474905371666 536.50679874420166 202.1300744600594 1569.5808473266661 4313.4060576446354 892.78257703781128 40.897424280643463 429.17615865170956 944.50390173494816 2768.4472310617566 8892.0361942276359 196.81539686024189 4301.3409941643476 124.76968127861619 26974.522260606289 10604.640611849725 19138.562613762915 80.643761560320854 933.13592147827148 90.282451398670673 193.99887342751026 4346.9384574890137 53.310833841562271 3597.2569656632841 155.42174027860165 110.34937404096127 2669.4924652129412 35.852410674095154
leaf_count=1173 3154 145 1249 823 3100 963 64742 10533 13 3213 13760 2094 33859 1598 11112 214 15067 7277 24043 463 2084 237 300 5473 48 64363 2807 1724 49088 140
internal_value=0.0718535 0.025708 0.0842189 0.040831 0.0562417 0.0435226 0.0170511 0.059792 -0.0197105 0.0641859 0.0139098 0.0712836 0.0604634 0.0925142 0.078103 -0.0352073 0.0931784 0.093749 0.0881617 -0.040751 0.0572104 -0.0192082 0.0202674 0.0982456 -0.0282453 -0.0446976 0.0166377 -0.040328 -0.0425051 0.0999016
internal_weight=97731.6 20654.2 77077.4 16546.4 13189.1 10386.5 5882.99 19539.6 3357.25 18646.8 2306.82 16340 11660.5 57537.8 4503.47 4107.85 57197.7 56753.6 29743.2 3958.09 1362.31 340.052 444.125 4679.54 250.126 3833.32 236.066 2820.74 2779.84 27010.4
internal_count=324859 200730 124129 132738 81090 79917 65705 72265 51648 61732 19057 42675 35953 51864 14212 67992 48473 46527 31320 67847 5297 3391 1946 6722 1646 67633 3270 50825 50812 15207
is_linear=0
shrinkage=0.05


Tree=12
num_leaves=31
num_cat=0
split_feature=25 108 113 22 22 11 110 21 39 70 5 43 13 108 22 110 20 46 54 111 107 21 46 114 4 70 97 55 55 4
split_gain=19629.9 7298.33 7553.57 7003.23 3309.11 3004.57 1802.56 2016.28 1627.73 1484.51 1281 1231.6 1173.17 1161.12 1086.55 1100.85 1682.25 932.172 869.158 634.854 620.444 614.606 591.802 756.918 585.665 507.32 471.628 423.833 417.886 353.773
threshold=2.5745811462402348 7.2833247184753427 6.1289145946502694 5.7996838092803964 5.3874211311340341 11.309774398803713 10.449484348297121 6.9619798660278329 -1.3082097768783567 32.912010192871101 3.4563663005828862 0.057951370254158981 2.3696976900100712 12.074499607086183 4.6227774620056161 11.856508731842043 6.4055931568145761 2.9222090244293217 0.99999728798866283 25.457673072814945 4.2311232089996347 7.4104881286621103 2.6073175668716435 6.6107656955719003 3.0423943996429448 148.63666534423831 2.3863824605941777 0.99997952580451976 0.99999359250068676 10.196621417999269
decision_type=2 2 2 2 2 2 2 2 2 2 2 2 2 2 2 2 2 2 2 2 2 2 2 2 2 2 2 2 2 2
left_child=1 -1 13 9 10 6 18 8 -8 12 -4 -12 -2 -3 25 27 -17 -7 24 -9 -19 28 -6 -24 -5 -11 -14 -16 -15 -22
right_child=3 2 4 5 22 17 7 19 -10 14 11 -13 26 21 15 16 -18 20 -20 -21 29 -23 23 -25 -26 -27 -28 -29 -30 -31
leaf_value=0.092321389825222977 -0.059722248105410616 -0.035011817122221366 -0.051950863928107154 -0.060924137605733966 -0.044473892280970727 -0.03220994133286207 0.079503870760529616 -0.032712507189202766 0.039591318995538125 0.092166203503388139 0.45297189090530265 0.044583443308875245 -0.05675950847029021 -0.060613050183430932 -0.053562670977771648 0.095365804221342387 0.060779305979211454 -0.014889835549794629 0.091148453926307257 0.026712146695623329 0.080899837085216822 -0.055295600426425701 0.08238757720762302 -0.022733302959928006 0.068772721101303516 -0.046705392261707036 0.075954876087582987 0.093312261874089739 0.08831800329645724 0.0058420506445521665
leaf_weight=2616.5894978418946 294.00772957503796 233.23332870006561 378.70105220749974 160.85020763799548 5412.4732098691165 1208.2658777236938 4493.0086832642555 824.78724933043122 5920.6298696361482 36007.065457820892 18.637145515531301 1957.0747480429709 75.726367130875587 47.991986505687237 49.385335870087147 4983.1773975044489 11938.957160741091 475.19491982460022 4285.2017176151276 987.64366292953491 519.83814775943756 79.84606185182929 186.08805152773857 2146.4782693386078 189.69192593172193 65.885425806045532 577.13350659608841 9067.5199906900525 2536.1108052544296 224.91382706165314
leaf_count=1483 3407 3933 6218 1556 116613 15794 10992 10050 24331 22546 58 13657 894 621 334 3579 23679 3631 4853 7570 1276 1228 1518 31737 370 327 750 6651 3726 1467
internal_value=0.0675363 0.016134 0.000795335 0.0772821 -0.0196206 0.050919 0.0584074 0.0483408 0.0568118 0.0853467 0.0322889 0.0484358 0.0232124 0.0719645 0.086294 0.0785103 0.0709642 -0.00108103 0.0849563 -0.000330372 0.0297498 0.0813305 -0.0354006 -0.0143469 0.00925986 0.0919126 0.0605611 0.0925167 0.0855521 0.0582325
internal_weight=97962.1 15613.2 12996.6 82348.9 10099.5 19290 16861.8 12226.1 10413.6 63058.9 2354.41 1975.71 946.868 2897.18 62112 26039 16922.1 2428.21 4635.74 1812.43 1219.95 2663.95 7745.04 2332.57 350.542 36073 652.86 9116.91 2584.1 744.752
internal_count=324849 180792 179309 144057 169801 81890 59722 52943 35323 62167 19933 13715 5051 9508 57116 34243 27258 22168 6779 17620 6374 5575 149868 33255 1926 22873 1644 6985 4347 2743
is_linear=0
shrinkage=0.05


Tree=13
num_leaves=31
num_cat=0
split_feature=21 19 20 25 45 64 38 109 38 19 20 20 38 21 70 21 14 84 70 15 70 38 21 24 38 24 21 15 111 14
split_gain=17550.4 8937.51 5322.77 6724.38 4980.6 2189.06 1910.09 3151.49 1682.42 5400.83 13502.4 1531.62 1486.71 1151.12 1073.66 947.673 768.996 701.984 695.907 675.346 770.202 616.912 604.878 604.811 567.797 511.838 496.367 463.464 438.635 414.653
threshold=6.0895230770111093 6.8532309532165536 5.8473145961761483 2.7368465662002568 2.4989818334579472 1.9723666310310366 -2.1502647399902339 7.6785573959350595 -2.9446125030517574 12.443270683288576 6.8829541206359872 18.678631782531742 3.302290797233582 3.9726307392120366 32.912010192871101 6.9519166946411142 5.3209898471832284 1.9637173414230349 29.213630676269535 11.432566642761232 50.926578521728523 6.6871726512908944 7.4395821094512948 3.0358133316040044 4.5666627883911142 2.5955280065536503 5.5995841026306161 1.8582913279533388 12.286407947540285 10.25459146499634
decision_type=2 2 2 2 2 2 2 2 2 2 2 2 2 2 2 2 2 2 2 2 2 2 2 2 2 2 2 2 2 2
left_child=4 24 12 25 6 14 19 -8 -7 18 -11 15 22 16 -6 -5 -9 -13 -10 20 -1 26 29 -14 -2 -4 -16 -22 -27 -3
right_child=1 2 3 11 5 8 7 13 9 10 -12 17 23 -15 21 -17 -18 -19 -20 -21 27 -23 -24 -25 -26 28 -28 -29 -30 -31
leaf_value=-0.010359690350266425 0.09280923028479876 0.094803505836499394 -0.045685550195580085 0.029314247717767961 -0.049957769743020242 0.089885537596825327 0.090680305411918571 0.092559914891188533 -0.063061592793506635 0.092085914421246237 -0.0071711429576515042 -0.018836444502050631 -0.045125781283329953 -0.0341533112596549 0.063562105563451571 -0.019983179615222682 -0.027358106133820372 0.078447039433379231 0.087800010422722952 -0.033046135439643402 0.37297861805972471 -0.046277085130550462 -0.04281229648617807 0.080137222087564922 -0.059198112491621296 0.03636260115548063 -0.007568398947505179 0.092051088067195461 -0.02589467241959072 -0.011796017262061989
leaf_weight=198.16181582957506 4110.5284134820104 2309.3320832103491 4807.1530846878886 3979.2142701745033 336.65841655433178 28191.011277794838 882.24803890287876 344.12207793444395 76.667442888021469 7857.5087656080723 6075.6454027891159 206.60540652275085 346.0938478410244 2203.0499808900058 1742.7821604311466 1291.2162155508995 218.62157781422138 1809.5773575305939 26026.905839443207 139.38966631889343 14.841817878186701 167.54077106714249 88.082762598991394 133.54779136180878 62.365408234298229 319.24039047956467 285.43150041997433 1358.2493315041065 2486.6976075172424 94.976868681609631
leaf_count=2317 1894 2514 103124 21528 4575 17480 682 485 669 6493 26009 1065 6327 37933 2989 14093 1253 4707 18359 1536 164 1494 1114 480 584 3523 1287 4380 34687 828
internal_value=0.0639373 0.0246517 0.00926792 -0.00291898 0.0753147 0.0788344 0.0288386 0.00839681 0.0805287 0.0739402 0.0488042 0.0314151 0.0703646 -0.0178504 0.0331868 0.0172367 0.0459727 0.0684781 0.0873569 0.0724317 0.0817889 0.0459347 0.0858779 -0.0102485 0.0905374 -0.0357806 0.0535519 0.0950876 -0.0188115 0.0905925
internal_weight=98163.5 22044.6 17871.7 14899.7 76118.8 70760.2 5358.68 3648.04 68227.7 40036.7 13933.2 7286.61 2972.03 2765.79 2532.41 5270.43 562.744 2016.18 26103.6 1710.64 1571.25 2195.75 2492.39 479.642 4172.89 7613.09 2028.21 1373.09 2805.94 2404.31
internal_count=324573 196468 193990 182727 128105 79355 48750 40353 69010 51530 32502 41393 11263 39671 10345 35621 1738 5772 19028 8397 6861 5770 4456 6807 2478 141334 4276 4544 38210 3342
is_linear=0
shrinkage=0.05


Tree=14
num_leaves=31
num_cat=0
split_feature=21 19 45 20 97 6 38 38 19 38 25 15 22 22 88 38 115 38 5 45 22 3 15 38 38 108 70 7 19 19
split_gain=15901.2 8197.34 5310.58 7600.04 4261.42 2390.02 2162.29 1789.56 2231.71 1569.17 1200.74 1199.17 1154.77 1041.46 1048.32 1039.25 934.096 872.84 772.956 759.108 705.515 665.993 662.082 544.16 515.838 325.379 306.497 289.063 282.842 272.237
threshold=5.8972151279449472 6.8532309532165536 2.8115099668502812 5.8035554885864267 2.4840846061706547 12.816564083099367 4.8572971820831308 6.4071886539459237 12.64377546310425 2.8391067981719975 3.3395131826400761 12.701916217803957 5.4287693500518808 6.9922704696655282 1.9394504427909853 -4.1020851135253897 18.814325332641605 -3.8455295562744136 3.0223064422607426 2.5406103134155278 4.928760528564454 7.4086041450500497 8.3445105552673358 -2.5874061584472652 4.8098325729370126 6.6027159690856942 33.942266464233406 4.3400077819824228 11.963198184967043 38.520511627197273
decision_type=2 2 2 2 2 2 2 2 2 2 2 2 2 2 2 2 2 2 2 2 2 2 2 2 2 2 2 2 2 2
left_child=4 24 3 9 10 7 13 12 18 22 16 20 23 14 -4 -14 27 -15 -9 25 -7 -21 -3 -6 -2 -5 -12 -1 -8 -22
right_child=1 2 6 19 5 11 28 8 -10 -11 26 -13 15 17 -16 -17 -18 -19 -20 21 29 -23 -24 -25 -26 -27 -28 -29 -30 -31
leaf_value=-0.042283590330863874 0.088534073203378708 0.093009290909485856 0.0015451089498010155 0.079414486114695565 0.087452251828697258 0.062959994142644665 0.0019340356131969346 -0.05509463980293821 -0.057508753750398926 -0.028595642738393857 -0.058489028150523641 -0.043157872044924959 0.083647522171457725 0.059452208750835248 0.063223360268275214 0.054360124976903137 0.074243297546829998 -0.036866198962783224 0.064024010869561956 0.0060631967433748095 -0.019646482781099747 -0.037456116160971713 -0.0069285625805067114 0.077191635602699801 -0.068614034105402094 -0.041642085567236559 0.089416406061973389 0.07163146209308674 -0.052814922750129806 0.097949430154632477
leaf_weight=1236.7116681858897 4693.2471290975809 1992.4516334868968 768.71065235137939 56.062958136200905 23464.664153933525 1336.3417655825615 419.46389603614807 143.50939207524061 491.73517546802759 355.65856503322721 38.673149071633816 502.68498134613037 4797.2630195617676 393.78336429595947 6637.2511727809906 8217.4754334390163 220.17861950397491 584.09506154060364 2669.0384584367275 2210.1495614647865 445.07387647032738 1459.7491016387939 180.76162901520729 28758.874076962471 52.807337149977684 5604.1636158153415 371.47704032808542 58.314980253577232 539.06795191764832 55.334448218345642
leaf_count=17063 2209 1862 3654 91 13098 2334 2308 1302 5730 6207 499 5193 4574 1196 18709 21904 311 5883 5443 20247 3768 20323 1409 27317 523 122122 353 169 8742 88
internal_value=0.0609954 0.0273871 0.0140904 -0.00812033 0.0729729 0.0749665 0.0422843 0.0766628 0.0407643 0.0687634 -0.000423012 0.0252698 0.078481 0.0504178 0.0568214 0.0651555 -0.0209666 0.00192041 0.057946 -0.0289592 0.0439972 -0.0112472 0.0846967 0.0818019 0.0867856 -0.0404431 0.0754704 -0.037154 -0.0288562 -0.00664289
internal_weight=98754.8 25947.4 21201.4 11859 72807.4 70882 9342.37 68542.6 3304.28 2528.87 1925.36 2339.44 65238.3 8383.84 7405.96 13014.7 1515.21 977.878 2812.55 9330.13 1836.75 3669.9 2173.21 52223.5 4746.05 5660.23 410.15 1295.03 958.532 500.408
internal_count=324631 215485 212753 172261 109146 90751 40492 79368 12475 9478 18395 11383 66893 29442 22363 26478 17543 7079 6745 162783 6190 40570 3271 40415 2732 122213 852 17232 11050 3856
is_linear=0
shrinkage=0.05


Tree=15
num_leaves=31
num_cat=0
split_feature=21 19 24 20 25 64 22 38 19 20 64 109 38 25 10 38 103 21 13 38 70 20 45 70 4 111 38 22 108 111
split_gain=14113.8 7474.61 4836.99 6197.72 3811.79 2123.09 1982.1 1526.87 4957.34 12723.1 1179.92 1174.03 1937.98 1028.49 1149.41 1008.95 960.645 683.433 711.949 671.737 595.224 569.78 528.847 521.459 599.823 490.715 444.741 325.002 316.248 309.867
threshold=5.9769268035888681 6.8532309532165536 2.7678292989730839 1.2926986813545229 2.3987628221511845 1.9723666310310366 6.840825319290162 -2.7538301944732662 12.382882595062258 7.0575802326202401 2.1188991069793706 7.2140772342681894 -2.2135658264160152 2.6810564994812016 7.8457727432250985 4.5666627883911142 1.9261938929557803 3.9726307392120366 4.939380645751954 0.41009521484375006 29.213630676269535 4.8626074790954599 3.4309883117675786 54.149305343627937 10.053437709808351 36.654397964477546 4.5666627883911142 7.0508477687835702 6.6027159690856942 38.572235107421882
decision_type=2 2 2 2 2 2 2 2 2 2 2 2 2 2 2 2 2 2 2 2 2 2 2 2 2 2 2 2 2 2
left_child=4 26 3 -3 11 16 10 29 20 -10 -4 -1 23 28 -15 -12 -6 18 -14 25 -9 -8 -21 -13 -25 -18 -2 -23 -5 -7
right_child=1 2 6 13 5 7 21 8 9 -11 15 12 17 14 -16 -17 19 -19 -20 22 -22 27 -24 24 -26 -27 -28 -29 -30 -31
leaf_value=0.084462955866472497 0.084834757604434791 0.081484038014271162 -0.027693355143757377 0.073198583773301212 -0.044365398935409139 0.082327840651382267 0.078173740763535046 -0.060739516341299128 0.081855735576570138 -0.016616389722079464 0.061394692435335657 -0.041912120787130164 0.092964405856590868 0.035116966016741712 -0.032778535097724458 0.0021095487654832529 0.069455878325942882 -0.037989927167638847 -0.040630399780344925 -0.019780208731403827 0.080041817852834762 0.012332582766299706 0.07434379689622897 0.083952364997216034 -0.027025318572676923 -0.057113472333039476 -0.056309380053326558 -0.029674546344100862 -0.041202361506545111 0.026541241668409661
leaf_weight=587.20196735113859 4428.7721962034702 1491.2179181426764 466.57036709785461 61.022105529904366 402.73155748099089 28592.081340670586 185.83710098266602 75.301580384373665 8176.6338237971067 5477.7874732017517 6125.8226183354855 117.15672490000725 229.2740581035614 1138.8245722427964 1377.1512703895569 812.89119091629982 1244.866309851408 1559.3377360627055 176.49578655511141 600.03516308218241 25636.152584314346 749.68827847018838 198.63780665397644 919.24726958572865 140.34535266458988 81.599097013473511 56.523572534322739 1193.4375168941915 6022.20804335922 251.10385131835938
leaf_count=337 2052 925 3395 110 5385 17762 267 789 7234 25378 16736 1684 320 7070 16351 7139 1634 28308 1154 3623 18437 5799 236 2500 1430 386 579 12304 135200 447
internal_value=0.0580724 0.0248227 0.0115133 -0.012616 0.0688377 0.0714351 0.0370502 0.0731026 0.0666992 0.0423514 0.0492739 0.0195681 0.00743952 -0.0289342 -0.0020465 0.0544493 0.0264389 -0.0229483 0.0348553 0.039857 0.0796295 -0.00546818 0.00362936 0.0581856 0.0692531 0.0616698 0.0830561 -0.0134675 -0.0400548 0.0818422
internal_weight=98576 24110 19624.7 10090.4 74466 70736.9 9534.25 68209.1 39365.9 13654.4 7405.28 3729.06 3141.86 8599.21 2515.98 6938.71 2527.87 1965.11 405.77 2125.14 25711.5 2128.96 798.673 1176.75 1059.59 1326.47 4485.3 1943.13 6083.23 28843.2
internal_count=324971 207927 205296 159656 117044 81311 45640 70047 51838 32612 27270 35733 35396 158731 23421 23875 11264 29782 1474 5879 19226 18370 3859 5614 3930 2020 2631 18103 135310 18209
is_linear=0
shrinkage=0.05


end of trees

feature_importances:
Column_38=74
Column_21=44
Column_19=39
Column_70=28
Column_20=25
Column_22=21
Column_109=20
Column_97=17
Column_46=16
Column_25=13
Column_14=12
Column_113=12
Column_24=11
Column_45=11
Column_15=10
Column_55=10
Column_13=9
Column_110=8
Column_7=7
Column_64=7
Column_111=7
Column_6=5
Column_108=5
Column_112=5
Column_3=4
Column_4=4
Column_26=4
Column_32=4
Column_54=4
Column_114=4
Column_10=3
Column_16=3
Column_33=3
Column_103=3
Column_2=2
Column_5=2
Column_37=2
Column_67=2
Column_88=2
Column_105=2
Column_115=2
Column_11=1
Column_39=1
Column_43=1
Column_44=1
Column_48=1
Column_51=1
Column_52=1
Column_53=1
Column_66=1
Column_84=1
Column_89=1
Column_98=1
Column_106=1
Column_107=1

parameters:
[boosting: gbdt]
[objective: binary]
[metric: binary_logloss]
[tree_learner: serial]
[device_type: gpu]
[data_sample_strategy: bagging]
[data: ]
[valid: ]
[num_iterations: 1000]
[learning_rate: 0.05]
[num_leaves: 31]
[num_threads: 0]
[seed: 42]
[deterministic: 0]
[force_col_wise: 1]
[force_row_wise: 0]
[histogram_pool_size: -1]
[max_depth: 6]
[min_data_in_leaf: 20]
[min_sum_hessian_in_leaf: 5]
[bagging_fraction: 0.8]
[pos_bagging_fraction: 1]
[neg_bagging_fraction: 1]
[bagging_freq: 1]
[bagging_seed: 400]
[bagging_by_query: 0]
[feature_fraction: 0.8]
[feature_fraction_bynode: 1]
[feature_fraction_seed: 30056]
[extra_trees: 0]
[extra_seed: 12879]
[early_stopping_round: 0]
[early_stopping_min_delta: 0]
[first_metric_only: 0]
[max_delta_step: 0]
[lambda_l1: 0]
[lambda_l2: 0]
[linear_lambda: 0]
[min_gain_to_split: 0]
[drop_rate: 0.1]
[max_drop: 50]
[skip_drop: 0.5]
[xgboost_dart_mode: 0]
[uniform_drop: 0]
[drop_seed: 17869]
[top_rate: 0.2]
[other_rate: 0.1]
[min_data_per_group: 100]
[max_cat_threshold: 32]
[cat_l2: 10]
[cat_smooth: 10]
[max_cat_to_onehot: 4]
[top_k: 20]
[monotone_constraints: ]
[monotone_constraints_method: basic]
[monotone_penalty: 0]
[feature_contri: ]
[forcedsplits_filename: ]
[refit_decay_rate: 0.9]
[cegb_tradeoff: 1]
[cegb_penalty_split: 0]
[cegb_penalty_feature_lazy: ]
[cegb_penalty_feature_coupled: ]
[path_smooth: 0]
[interaction_constraints: ]
[verbosity: -1]
[saved_feature_importance_type: 0]
[use_quantized_grad: 0]
[num_grad_quant_bins: 4]
[quant_train_renew_leaf: 0]
[stochastic_rounding: 1]
[linear_tree: 0]
[max_bin: 255]
[max_bin_by_feature: ]
[min_data_in_bin: 3]
[bin_construct_sample_cnt: 200000]
[data_random_seed: 175]
[is_enable_sparse: 1]
[enable_bundle: 1]
[use_missing: 1]
[zero_as_missing: 0]
[feature_pre_filter: 1]
[pre_partition: 0]
[two_round: 0]
[header: 0]
[label_column: ]
[weight_column: ]
[group_column: ]
[ignore_column: ]
[categorical_feature: ]
[forcedbins_filename: ]
[precise_float_parser: 0]
[parser_config_file: ]
[objective_seed: 16083]
[num_class: 1]
[is_unbalance: 0]
[scale_pos_weight: 12.6539]
[sigmoid: 1]
[boost_from_average: 1]
[reg_sqrt: 0]
[alpha: 0.9]
[fair_c: 1]
[poisson_max_delta_step: 0.7]
[tweedie_variance_power: 1.5]
[lambdarank_truncation_level: 30]
[lambdarank_norm: 1]
[label_gain: ]
[lambdarank_position_bias_regularization: 0]
[eval_at: ]
[multi_error_top_k: 1]
[auc_mu_weights: ]
[num_machines: 1]
[local_listen_port: 12400]
[time_out: 120]
[machine_list_filename: ]
[machines: ]
[gpu_platform_id: -1]
[gpu_device_id: -1]
[gpu_use_dp: 0]
[num_gpu: 1]

end of parameters

pandas_categorical:null
