tree
version=v4
num_class=1
num_tree_per_iteration=1
label_index=0
max_feature_idx=72
objective=binary sigmoid:1
feature_names=Column_0 Column_1 Column_2 Column_3 Column_4 Column_5 Column_6 Column_7 Column_8 Column_9 Column_10 Column_11 Column_12 Column_13 Column_14 Column_15 Column_16 Column_17 Column_18 Column_19 Column_20 Column_21 Column_22 Column_23 Column_24 Column_25 Column_26 Column_27 Column_28 Column_29 Column_30 Column_31 Column_32 Column_33 Column_34 Column_35 Column_36 Column_37 Column_38 Column_39 Column_40 Column_41 Column_42 Column_43 Column_44 Column_45 Column_46 Column_47 Column_48 Column_49 Column_50 Column_51 Column_52 Column_53 Column_54 Column_55 Column_56 Column_57 Column_58 Column_59 Column_60 Column_61 Column_62 Column_63 Column_64 Column_65 Column_66 Column_67 Column_68 Column_69 Column_70 Column_71 Column_72
feature_infos=[-10522.2236328125:6167.09521484375] [-11731.7939453125:12060.349609375] [-1:0.99999994039535522] [0.00079269555862993002:39.991962432861328] [0:78.999099731445312] [0:71.155509948730469] [0:59.816551208496094] [0:131.1116943359375] [0.011148944497108459:3293.80419921875] [0:254.62185668945312] [0:154.47117614746094] [0:106.19310760498047] [0:399.5477294921875] [0:531.2293701171875] [0:225.93215942382812] [0:113.13545989990234] [0:97.418922424316406] [0:313.861328125] [-351.17831420898438:305.80825805664062] [-421.11956787109375:422.95025634765625] [2.1392145156860352:75.945449829101562] [3.2021129131317139:66.227828979492188] [0.049089815467596054:56.914417266845703] [0.015700183808803558:33.311801910400391] [0.0026589357294142246:30.512397766113281] [0.0077989320270717144:40.534843444824219] [0.0096111642196774483:65.023033142089844] [0.013671334832906723:78.105354309082031] [0.031030435115098953:79.615226745605469] [-421.124267578125:524.8043212890625] [-421.10333251953125:541.7034912109375] [-405.20352172851562:65.600456237792969] none [0:1.6398898363113403] [0:1.4564610719680786] [-37.897186279296875:34.429237365722656] [-50.3409423828125:47.691104888916016] [0.08458748459815979:81.159111022949219] [0.038607630878686905:84.716224670410156] [0.032519515603780746:83.377365112304688] [0.011096215806901455:85.683891296386719] [0.024117706343531609:82.031044006347656] [0.031154206022620201:82.411056518554688] [0.032299026846885681:80.907791137695312] [0.037655103951692581:83.588645935058594] [0:70.242095947265625] none [1.2159347534179688e-05:3.1415679454803467] [-1:1] [0:305.58966064453125] [2.3686766624450684:321.203125] [0.16522186994552612:77.839935302734375] [0:197.81724548339844] [0:39.578399658203125] [0:72.00982666015625] [0.0083333337679505348:1.688524603843689] [0.01666666753590107:1.9032257795333862] [0:15.999973297119141] [0:226.15335083007812] [0:69.918624877929688] [0:135.22320556640625] [-68.231277465820312:67.173637390136719] [0:320472416] [0:70.242095947265625] [0:24.323186874389648] [3.0757105350494385:74.726707458496094] [2.76479172706604:75.213165283203125] [2.5852413177490234:75.080406188964844] [2.861724853515625:74.427482604980469] [3.6623332500457764:64.674690246582031] [3.5042788982391357:64.986373901367188] [3.5146067142486572:64.720504760742188] [3.6160922050476074:64.634071350097656]
tree_sizes=3365 3393 3423 3449 3466 3455 3457 3453 3468 3470 3468 3452 3482 3461 3478 3452 3475 3486 3487 3478 3487 3494 3462 3487 3479 3483 3483 3484 3468 3492 3495 3491 3489 3485 3481 3479 3489 3494 3496 3497 3478 3488 3492 3472 3463 3482 3492 3499 3487 3487 3491 3486 3495 3490 3500 3495 3486 3503 3488 3484 3480 3492 3498 3509 3487 3472 3480 3511 3508 3483 3495 3482 3487 3486 3507 3482 3500 3474 3482 3085 3497 3074 3481 3495 3514 3505 3507 3494 3484 3509 3496 2174 3500 3498 3477 3500 2829 3380 3494 3464 2433 3489 3503 3511 3291 3495 2884 3483 3498 3486 3476 3474 3504 3494 3493 3492 3377 3511 3492 2747 3481 3509 3494 3471 3491

Tree=0
num_leaves=31
num_cat=0
split_feature=41 6 31 31 41 16 21 41 29 67 52 14 6 31 15 29 29 41 3 61 68 68 16 29 41 65 45 19 56 50
split_gain=3.30197e+07 9.10853e+06 3.24454e+06 1.98013e+06 2.25624e+06 1.36489e+06 861937 850110 801662 489884 432184 379140 305117 126668 290221 107531 89873.1 246847 67476 45484.9 33132.3 18770 14574.5 11664.6 4977 8644.49 3556.8 157.487 0.0386219 0.236575
threshold=19.582906723022464 7.816371202468873 -10.038864135742186 -3.0485786199569698 7.2937195301055917 14.564085960388185 13.00186347961426 2.1148020029067998 6.8198063373565683 57.539236068725593 5.687422752380372 6.4511075019836435 14.454504489898683 -7.2421889305114737 19.070681571960453 3.9810508489608769 1.2593887448310854 7.6107096672058114 3.8591091632843022 -12.531128883361815 48.919977188110359 44.707344055175788 7.6158280372619638 3.9810508489608769 20.067104339599613 54.994724273681648 0.78187841176986705 -4.125201702117919 0.020833333954215053 2.8553370237350468
decision_type=2 2 2 2 2 2 2 2 2 2 2 2 2 2 2 2 2 2 2 2 2 2 2 2 2 2 2 2 2 2
left_child=1 7 5 11 6 23 -5 10 19 -8 -1 18 -10 14 -4 -7 17 -13 -3 -6 -18 26 -12 -2 25 -15 -17 -24 -26 -30
right_child=2 3 13 4 8 15 9 -9 12 -11 22 16 -14 24 -16 21 20 -19 -20 -21 -22 -23 27 -25 28 -27 -28 -29 29 -31
leaf_value=-5.6175065716986294 -5.6168790793025254 -5.6167520412706091 -5.6169074394423237 -5.6168935622792695 -0.62564395724048349 0.47754068257752014 6.4438365455508473 -5.6167957932472561 -3.3305067958164121 -5.6168232230632826 4.4375934062972648 6.7856166998591574 4.4661873610311149 -5.616477527834677 5.8564403862707239 6.4052752946202967 7.3818207900437338 -1.1496312673699611 2.2245079144863817 -5.4432234806238471 6.4093397387912647 4.3287925917451355 7.5609547270736135 -3.0028299499561961 -5.6184610403499038 -3.0028413304121173 7.5497679943630294 7.2585601025750703 -5.6075217302714195 -5.6168282905730065
leaf_weight=10.106414031004531 29.03378648776561 6.0745883865747583 17.825503771193329 16.349424848333001 5.2402927279472342 6.4375631539151064 330.71692930534482 198.06783199310303 17.160063713788986 8.6395459193736297 5.2027241329196867 60.102880941005424 46.691723376512527 8.6052965663839114 7.9788199020549646 7.6145694435108444 1180.123847181676 11.709893196821211 5.0033291147556156 75.333598673343658 94.606243077665567 5.2596385583747169 10.91636645793915 5.0029335943981996 35.015464811818674 5.0029370253905645 62.574127628002316 7.109932064311578 6.8660269137471905 1252.1740477425046
leaf_count=2663 7652 1601 4698 4309 860 915 7694 52202 3741 2277 329 989 2926 2268 279 183 5401 2044 537 19594 2266 344 11 1058 9228 1058 77 50 1810 330018
internal_value=0.957918 4.98093 -4.84086 6.14613 3.45663 3.18258 5.59655 -4.37352 -1.81376 6.13679 3.01363 7.1369 2.37084 -5.53836 -2.06929 6.68046 7.21269 5.49168 -2.07526 -5.1299 7.30965 7.20972 6.76884 -5.23265 -5.60682 -4.6556 7.42561 7.44168 -5.61682 -5.61678
internal_weight=3538.55 2089.16 1449.39 1857.75 500.132 115.923 355.706 231.403 144.426 339.356 33.3354 1357.62 63.8518 1333.47 25.8043 81.8859 1346.54 71.8128 11.0779 80.5739 1274.73 75.4483 23.229 34.0367 1307.66 13.6082 70.1887 18.0263 1294.06 1259.04
internal_count=469082 109494 359588 54239 41401 10229 14280 55255 27121 9971 3053 12838 6667 349359 4977 1519 10700 3033 2138 20454 7667 604 390 8710 344382 3326 260 61 341056 331828
is_linear=0
shrinkage=1


Tree=1
num_leaves=31
num_cat=0
split_feature=41 59 54 54 27 69 36 52 6 3 41 6 12 47 30 6 50 34 40 45 31 21 50 41 9 30 27 19 31 61
split_gain=199894 194114 305023 257061 101896 142142 89562.5 44279.1 40054 78614.7 30893.1 41615.4 70759.4 27399.5 19862.2 20020.1 19268.6 34508.9 17900.9 40876.9 14139 13267.2 8894.94 21051.9 8537.36 7137.26 19808.8 10583 6334.75 4320.86
threshold=7.2937195301055917 7.7017979621887216 12.625332832336428 7.6457157135009775 4.0129885673522958 22.917757987976078 5.5719881057739267 13.73485040664673 8.0557956695556658 3.8639640808105473 5.1002113819122323 7.816371202468873 13.761759757995607 0.86387938261032116 6.6465134620666513 14.454504489898683 107.4096145629883 0.69684037566185009 15.22668504714966 7.8211455345153817 -3.0485786199569698 8.1764407157897967 115.46375274658205 19.582906723022464 28.480745315551761 4.8352372646331796 6.0369863510131845 -4.9285120964050284 2.3675371408462529 9.4664425849914569
decision_type=2 2 2 2 2 2 2 2 2 2 2 2 2 2 2 2 2 2 2 2 2 2 2 2 2 2 2 2 2 2
left_child=1 6 3 8 5 -4 10 -6 -3 -10 16 -12 -13 -9 25 20 21 -18 19 28 -16 -1 -20 -24 -21 -2 -27 29 -17 -28
right_child=14 2 4 -5 7 -7 -8 13 9 -11 11 12 -14 -15 15 18 17 -19 22 24 -22 -23 23 -25 -26 26 27 -29 -30 -31
leaf_value=2.2370336283476973 -0.071281182548341857 -0.91293911838861652 -1.4295707157149071 -16.11079941938468 -5.5006704497833692 -12.241443540513179 -6.7288909242997015 -0.60905460895385133 -10.888692868571191 -2.7320802372470658 -0.050191029573433223 -7.1859352161489287 -1.4213021268470805 -4.4131994198156921 -2.6095018397113146 -4.204703692014661 -0.74741066640637566 -5.3617126402209436 -0.23471626061383666 -1.9483751414835166 -0.052418557262753733 -0.27118000048369151 -2.1111633100582465 -0.17642267797356806 -0.060503282661914418 -0.17737125311278787 1.2781310397584997 -0.23124446106042029 -2.2449878929254097 2.5582717939339177
leaf_weight=5.3677046034717923 2619.754367351532 5.0311084366403582 7.325039728661066 6.8722157180309287 5.3959336066618553 5.1964407440973446 5.8840345293283454 80.982958884909749 5.1649141964735445 6.9013375010108575 21.273576580919325 7.361229280941191 19.228343870490789 5.0271871266886583 5.5271936208009711 11.544260538765231 20.641734904609624 5.041542012942954 103.44377195043489 7.9548364243237293 246.38419358432293 296.27372700534761 24.730611351784319 32.586131128016859 24.226697161793709 65.7295261323452 19.402284192387015 9.1869851751252991 6.4152064519003025 9.9833630942739564
leaf_count=1108 364892 1322 348 2943 754 1356 1613 1530 2084 581 5893 1827 1024 568 860 1124 743 1339 4846 507 33896 14018 1150 7728 93 12861 254 1317 530 30
internal_value=-0.253536 -1.17367 -2.85916 -7.94358 -1.6865 -5.91652 -0.607975 -1.10704 -4.66079 -6.22349 -0.511982 -1.69847 -3.01722 -0.831402 -0.106584 -0.409419 -0.338486 -1.65318 -0.768825 -1.59365 -0.108524 -0.226546 -0.511564 -1.01121 -0.527159 -0.0551322 0.35048 1.24996 -3.50468 1.71304
internal_weight=3695.84 508.969 127.897 23.9696 103.928 12.5215 381.072 91.4061 17.0974 12.0663 375.188 47.8631 26.5896 86.0101 3186.87 462.813 327.325 25.6833 210.902 50.141 251.911 301.641 160.761 57.3167 32.1815 2724.06 104.302 38.5726 17.9595 29.3856
internal_count=469139 39051 11486 6930 4556 1704 27565 2852 3987 2665 25952 8744 2851 2098 430088 50734 17208 2082 15978 2254 34756 15126 13724 8878 600 379354 14462 1601 1654 284
is_linear=0
shrinkage=0.05


Tree=2
num_leaves=31
num_cat=0
split_feature=31 27 62 18 19 44 43 61 57 27 18 50 24 59 27 12 50 44 11 72 11 49 64 62 70 59 35 42 45 29
split_gain=19135.9 58415.5 167350 125329 87926.1 82964 42201.1 14051.4 37673.8 8252.84 14492.7 7536.8 7370.23 5241.82 7458.32 28395.4 4809.26 4354.85 4095.81 4056.75 3772.03 4218.71 3133.38 8437.14 2640.56 2240.04 2236.3 2009.73 886.189 741.392
threshold=-10.038864135742186 3.8947361707687382 9.1572046279907244 7.6705737113952646 21.991165161132816 7.4176058769226083 7.9311730861663827 9.4664425849914569 1.6475175023078921 0.84681311249732982 12.69999408721924 101.71643066406251 1.2775915861129763 6.0873546600341806 6.3938333988189706 10.448062896728517 250.83833312988284 5.7002506256103525 20.671429634094242 32.352487564086921 14.933736324310305 0.036789987236261375 2.0512056350708012 31.551200866699222 52.158716201782234 22.190045356750492 -1.2689113616943357 21.983224868774418 4.4870214462280282 1.2593887448310854
decision_type=2 2 2 2 2 2 2 2 2 2 2 2 2 2 2 2 2 2 2 2 2 2 2 2 2 2 2 2 2 2
left_child=1 2 4 -4 7 -6 -5 26 -9 10 -2 13 -3 17 19 -16 20 24 -18 -15 29 -22 23 -13 -11 27 -1 -24 -19 -14
right_child=9 12 3 6 5 -7 -8 8 -10 11 -12 22 16 14 15 -17 18 28 -20 -21 21 -23 25 -25 -26 -27 -28 -29 -30 -31
leaf_value=0.082461074935912981 -0.25229784081956497 1.6636410926167149 -0.30565858185098754 6.7173705893204758 6.9064422566229524 -0.32052538013299342 2.0051812439992753 -0.43537072736442761 5.0516299218377814 -0.31189856754955775 2.0707204515121775 -0.025735424588098455 -0.11520429178217005 -0.17817468505619191 3.5121665900804966 0.15088317143830438 -0.11622010333090677 -0.0631504115880097 -2.055794655513342 0.037118841003319886 0.90774355090937997 0.016820260129544181 -0.22936599932189303 1.8697895041305868 -1.0586910930077309 0.014120715793863762 -0.23539829741454532 -0.079929586399587332 -0.18633805142316762 -0.3202579763132995
leaf_weight=149.37330013205064 14.958484346086154 6.6658545760437837 12.974480406846849 21.212008358794268 9.3802039031870681 6.8866721107624462 6.1228397731902069 8.2957260788243712 5.0221461753535541 115.71815760270692 12.181836405768989 51.074966607615352 87.657116212035362 260.74087594193406 7.2430782932788125 47.409190712496638 5.6600315980613214 969.60450010400848 5.2433620602823794 1360.4234045080375 13.373611444199922 2060.4025308026467 1178.0117591265589 6.6328943222761145 13.185619533061979 132.2161231637001 87.89557968621375 278.10655066929758 171.87164551901049 88.673274169300385
leaf_count=300 1625 241 446 37 38 137 41 208 39 8086 94 2741 6073 31616 1330 1703 50 238337 236 39297 33 5253 30861 1139 3559 2157 2342 68153 19995 2745
internal_value=-0.0180675 0.0911569 0.738248 3.74108 0.284657 3.84687 5.66187 0.0534159 1.63377 -0.0789491 0.790381 -0.0840869 0.00350668 -0.0362084 0.0218592 0.596355 -0.00138768 -0.112808 -1.04895 0.00249198 0.0036885 0.0225658 -0.169783 0.192135 -0.388288 -0.182932 -0.035289 -0.200825 -0.0816987 -0.218322
internal_weight=7194.22 2574.84 307.163 40.3093 266.854 16.2669 27.3348 250.587 13.3179 4619.38 27.1403 4592.24 2267.68 2946.2 1675.82 54.6523 2261.01 1270.38 10.9034 1621.16 2250.11 2073.78 1646.04 57.7079 128.904 1588.33 237.269 1456.12 1141.48 176.33
internal_count=468912 18219 3588 524 3064 175 78 2889 247 450693 1719 448974 14631 343923 73946 3033 14390 269977 286 70913 14104 5286 105051 3880 11645 101171 2642 99014 258332 8818
is_linear=0
shrinkage=0.05


Tree=3
num_leaves=31
num_cat=0
split_feature=62 52 35 24 64 51 44 9 51 18 12 35 61 55 49 45 26 40 45 57 59 51 44 37 36 40 70 3 40 16
split_gain=8448.7 6143.18 6362.83 5984.37 3949.24 45906.5 5760.72 2987.68 2992.13 2745.12 2089.39 2490.45 1975.31 2586.41 1954.64 1473.75 1297.06 1292.35 1248.37 1203.21 1067.32 1495.25 792.552 815.508 1161.05 763.674 617.036 601.873 597.326 584.081
threshold=2.2530093193054204 6.945296287536622 -3.590365886688232 1.2775915861129763 2.0512056350708012 7.4407136440277108 10.592895030975344 44.949020385742195 5.9362773895263681 6.5866465568542489 26.69388580322266 2.1363015174865727 1.239918649196625 0.3740671575069428 0.036789987236261375 8.1567549705505389 2.9938151836395268 16.876359939575199 3.1500542163848881 1.4851915836334231 13.828177452087404 12.632094383239748 9.744415760040285 2.8758646249771123 5.5719881057739267 21.786175727844242 45.938331604003913 3.8437014818191533 3.4523880481719975 14.739562988281252
decision_type=2 2 2 2 2 2 2 2 2 2 2 2 2 2 2 2 2 2 2 2 2 2 2 2 2 2 2 2 2 2
left_child=7 22 15 -4 5 -5 -6 8 10 12 17 -12 16 -14 -9 29 -10 19 -16 -1 25 -22 23 24 26 -11 -2 -25 -29 -3
right_child=1 2 3 4 6 -7 -8 14 9 20 11 -13 13 -15 18 -17 -18 -19 -20 -21 21 -23 -24 27 -26 -27 -28 28 -30 -31
leaf_value=-0.1719545986026482 -1.0687973593289526 -0.1967620750645612 1.5659967508640404 4.7773515820090457 0.072377980854977306 0.1425400628937194 -0.090035840050831289 0.47597237379686752 -0.070099552770601758 -0.25388107498519713 -1.3650356213608428 -0.27573273238955903 0.034027524270004127 -0.14614873212711743 -0.25556904772165301 -0.028552677973911984 -0.16553711903986718 -1.0160005039529059 0.04862628741503474 -0.54722002438819373 -1.2704051201654922 -0.24482816556043241 -0.081339820664833654 -0.10386673559531129 -0.11076549964900001 -0.1118188686961263 -0.41340784270889741 -0.63248842787303261 -0.21652368558864477 -0.38388278427064138
leaf_weight=208.03303229948324 7.5268905911439123 81.807902950049538 6.5430994220077983 5.472790405217892 2622.3190192163256 224.53780735773034 689.53524735146493 24.547934486996382 865.09333616448566 235.57997080264613 9.1960812088218535 12.219066909688989 695.407419326948 279.12602414842695 38.125450960577325 77.721022047904626 604.9730863366276 5.0886473059872506 292.34661357967849 23.804232368260273 5.6289926127064964 9.6412457867991161 590.67453184910119 151.14355156314559 13.512494731807577 158.07823017286137 6.8684202264950045 10.665619055274872 45.231891717528924 85.068514767976012
leaf_count=8810 1269 7005 659 60 5883 863 32501 77 147403 6419 693 247 15567 22751 3199 484 67480 187 775 1497 290 606 111563 8354 128 15756 641 755 2574 4127
internal_value=-0.0329199 0.0113618 0.0382653 0.0552678 0.052477 0.252819 0.0385631 -0.0919125 -0.10759 -0.0928381 -0.270536 -0.743501 -0.0727805 -0.0175786 0.0455078 -0.208392 -0.109375 -0.227786 0.0135323 -0.210486 -0.212744 -0.622882 -0.112236 -0.189911 -0.443636 -0.196834 -0.756092 -0.15571 -0.295893 -0.292151
internal_weight=8085.52 4618.63 3793.01 3548.41 3541.86 230.011 3311.85 3466.89 3111.87 2853.53 258.341 21.4151 2444.6 974.533 355.02 244.597 1470.07 236.926 330.472 231.837 408.928 15.2702 825.623 234.949 27.9078 393.658 14.3953 207.041 55.8975 166.876
internal_count=468623 176866 51582 39966 39307 923 38384 291757 287706 276272 11434 940 253201 38318 4051 11616 214883 10494 3974 10307 23071 896 125284 13721 2038 22175 1910 11683 3329 11132
is_linear=0
shrinkage=0.05


Tree=4
num_leaves=31
num_cat=0
split_feature=62 52 35 40 4 37 9 31 0 36 2 45 44 26 45 45 31 31 44 31 29 48 42 31 29 41 44 19 31 45
split_gain=7437.78 5771.03 5434.91 4927.17 4074.01 6554.47 3125.73 2064.84 1997.02 1878.91 4011.64 2873.96 2427.55 1572.77 1405.3 1330 1642.81 2100.27 1329.59 1275.73 971.15 915.667 875.322 753.179 689.711 1217.19 672.902 672.286 1425.44 750.76
threshold=2.2530093193054204 6.945296287536622 -3.590365886688232 0.66473323106765758 14.387150287628176 2.3532853126525883 44.949020385742195 -18.166453361511227 29.68024826049805 -7.2302222251892081 -0.99993464350700367 1.0084758400917055 5.9775433540344247 2.9984161853790288 3.1500542163848881 8.1567549705505389 -3.0485786199569698 -12.03443670272827 7.1118750572204599 -12.03443670272827 1.7847502231597903 0.9999370574951173 5.5511331558227548 -3.0485786199569698 1.2593887448310854 19.582906723022464 4.1872446537017831 -21.207230567932125 -3.0485786199569698 5.5136020183563241
decision_type=2 2 2 2 2 2 2 2 2 2 2 2 2 2 2 2 2 2 2 2 2 2 2 2 2 2 2 2 2 2
left_child=6 18 15 -4 5 -5 8 -6 9 10 -1 -12 19 -14 22 16 17 -3 -2 -11 26 -16 -8 24 -20 -26 -10 29 -29 -22
right_child=1 2 3 4 7 -7 14 -9 20 12 11 -13 13 -15 21 -17 -18 -19 23 -21 27 -23 -24 -25 25 -27 -28 28 -30 -31
leaf_value=0.86756214020283329 -0.26399119476077643 -0.27088029163993277 1.2052775238687312 0.65161685242967593 0.053634417394593736 0.096337719668550703 -0.85815153409477285 -0.047190335474459798 -0.43252293023718313 -0.0922604441919887 -0.25381233606337233 0.070359868640581844 -0.048573290185408999 -0.1509226004120493 0.048652952916258659 -0.023614901540469239 -0.2001643150765664 -1.185648124988069 -0.13652089280169497 -0.3199311841148168 -0.43612859300561679 0.32105521906840551 -0.14986801312363826 -0.061720614777876728 -0.75688568724296923 -0.082810469897026603 -0.10047245047799125 -0.39870014812896137 -0.18335894143936279 0.003953498509651098
leaf_weight=13.346780717372893 129.46235904842615 16.050011515617374 9.2314705394674075 55.804397383161813 1069.251652183535 1114.7838049419224 5.0107781839854502 967.07484985959763 16.101648226613179 92.272252082824707 93.05032888890446 257.77895413993656 1080.1011185219977 575.25812359526753 299.73035483604116 85.027516913615727 148.66150721347276 10.302419149316846 92.470370990704396 184.67633230976116 12.113252481162588 34.389640808105469 33.694292261498049 511.83480884879827 13.586410887524837 13.207041511777787 291.03406784287654 124.17825714941137 201.62411280279048 48.465934912025887
leaf_count=327 8327 217 208 293 1227 19520 191 18752 924 598 12213 1104 142660 64416 805 503 10015 992 8714 10110 607 2 3030 106139 622 1782 35383 3437 15697 135
internal_value=-0.0373418 0.00672714 0.0340229 0.0518003 0.0484799 0.122809 -0.0928633 0.00575158 -0.109885 -0.0874298 0.0167478 -0.0156202 -0.107064 -0.084141 0.0436506 -0.185845 -0.264661 -0.628507 -0.11803 -0.244077 -0.184243 0.0766902 -0.241563 -0.0880876 -0.201244 -0.42462 -0.11788 -0.236996 -0.265435 -0.0840441
internal_weight=7599.57 4236.75 3476.19 3216.15 3206.91 1170.59 3362.83 2036.33 2990 2296.48 364.176 350.829 1932.31 1655.36 372.825 260.041 175.014 26.3524 760.561 276.949 693.517 334.12 38.7051 631.099 119.264 26.7935 307.136 386.382 325.802 60.5792
internal_count=468950 177311 51727 40000 39792 19813 291639 19979 287611 231428 13644 13317 217784 207076 4028 11727 11224 1209 125584 10708 56183 807 3221 117257 11118 2404 36307 19876 19134 742
is_linear=0
shrinkage=0.05


Tree=5
num_leaves=31
num_cat=0
split_feature=62 7 35 68 42 8 68 70 10 44 45 71 4 61 29 30 57 44 58 5 34 65 45 6 9 69 53 11 45 51
split_gain=7731.78 5235.65 5256.48 4145.86 15240.5 35630.1 4102.8 3819.85 3662.9 3276.98 2682.56 2228.06 1932.98 1742.26 1625.49 1900.29 1453.31 1339.09 1195.62 1711.26 945.465 938.47 902.042 867.087 862.537 836.671 693.911 674.764 670.961 634.097
threshold=2.2530093193054204 8.9441313743591326 -3.590365886688232 47.818572998046882 1.2492678761482241 2.3888528347015385 45.503160476684577 11.830243587493898 25.140361785888675 8.491737365722658 4.1743075847625741 18.522500038146976 15.566281318664553 -0.36777560412883753 3.9810508489608769 3.8179354667663579 1.0322773456573489 6.8231153488159189 3.7267028093338017 22.735180854797367 0.38076932728290563 25.787761688232425 8.1567549705505389 30.35997295379639 9.51397752761841 57.712186813354499 5.5795991420745858 21.960105895996097 0.52677634358406078 7.4407136440277108
decision_type=2 2 2 2 2 2 2 2 2 2 2 2 2 2 2 2 2 2 2 2 2 2 2 2 2 2 2 2 2 2
left_child=8 17 22 4 5 -4 -6 27 9 12 21 -12 24 14 -11 -16 -13 -2 19 -15 -18 -10 -3 -9 -1 -26 -14 -5 -28 -23
right_child=1 2 3 7 6 -7 -8 23 10 13 11 16 26 18 15 -17 20 -19 -20 -21 -22 29 -24 -25 25 -27 28 -29 -30 -31
leaf_value=-0.19536789583671985 -0.2938169604506165 -0.23612939284522932 -0.11850056522702096 0.077544926975107883 0.033056942924233716 5.0963681655602002 0.16506901235090748 -0.16716365299913188 -0.015674451793105386 -0.08857347792137249 -0.81674518777134952 -0.29061990401376597 -0.54010204230764391 -0.038987564497522283 -0.61635980940016677 -0.20013199647781699 -0.35618315857755684 -0.087837053355563938 -0.15451369276033836 0.30579115197105389 0.065320304028078327 -0.62832961819095645 -0.034320971747152512 -0.78349575171767982 -0.34382798887067417 -0.97293439751771293 -0.3272485939134524 -0.49825475830859417 -0.080978483373459351 -0.2228832586174761
leaf_weight=128.03110180033582 91.866118280217052 190.05246110005442 9.4045414729856862 291.97887396758597 2167.7679854440066 5.0258665125498778 807.91721944294113 335.70993458945304 59.445305719377302 371.97193994815461 7.588412987382525 31.151932763009768 9.6023196934256685 962.85498831025325 31.804040551185608 199.02070391178131 13.54520664214658 559.22975745983422 221.38402456045151 37.386834874749184 747.17149983154536 10.577354269345959 78.13691620783743 5.805223047733306 203.71432720492885 5.4257826395332804 31.055955885181618 5.1782559705898157 252.74600781270448 109.21061209368054
leaf_count=11391 6887 12753 159 1239 25900 26 2601 15864 1831 65994 411 1004 307 157901 1716 11091 380 110982 18981 333 1018 392 531 348 8092 740 451 218 1901 7701
internal_value=-0.0284135 0.0143454 0.0362735 0.0520603 0.0767599 1.69775 0.068899 -0.063578 -0.0850497 -0.117656 -0.00325877 0.0359365 -0.215916 -0.0836942 -0.153252 -0.257482 0.0441077 -0.1169 -0.0493716 -0.0261005 0.0578151 -0.178087 -0.177333 -0.17764 -0.297578 -0.360149 -0.122071 0.067511 -0.107927 -0.258684
internal_weight=7981.76 4548.07 3896.98 3628.79 2990.12 14.4304 2975.69 638.672 3433.69 2455 978.69 799.457 630.575 1824.42 602.797 230.825 791.869 651.096 1221.63 1000.24 760.717 179.233 268.189 341.515 337.171 209.14 293.404 297.157 283.802 119.788
internal_count=469143 177508 59639 46355 28686 185 28501 17669 291635 278898 12737 2813 22882 256016 78801 12807 2402 117869 177215 158234 1398 9924 13284 16212 20223 8832 2659 1457 2352 8093
is_linear=0
shrinkage=0.05


Tree=6
num_leaves=31
num_cat=0
split_feature=16 50 43 12 72 6 72 71 30 50 62 54 65 14 26 29 52 29 30 41 40 30 12 4 23 39 9 39 33 72
split_gain=5359.73 5569.22 5789.86 3287.32 3176.91 3019.29 2567.16 2858.13 2767.05 2174.62 2172.96 2136.54 2046.56 1995.5 1927.21 1565.81 1561.49 3329.86 3486.24 1238.46 2432.82 3059.78 1868.71 1200.35 1068.9 1005.33 1036.46 933.73 929.971 873.68
threshold=10.44146251678467 117.68807983398439 10.421512603759767 13.076888084411623 46.455377578735359 14.194196224212648 36.252767562866218 33.802146911621101 8.3837199211120623 250.83833312988284 0.98599603772163402 13.052563667297365 57.448415756225593 12.563407421112062 3.8090333938598637 2.3093440532684331 25.813655853271488 1.6575891971588137 0.2669582217931748 19.582906723022464 15.892503738403322 7.1712327003479013 24.254264831542972 37.184183120727546 4.6783528327941903 3.4213606119155888 1.4068718552589419 3.2331833839416508 0.72587111592292797 32.924228668212898
decision_type=2 2 2 2 2 2 2 2 2 2 2 2 2 2 2 2 2 2 2 2 2 2 2 2 2 2 2 2 2 2
left_child=3 4 5 14 6 -3 11 8 -8 12 -9 28 -7 -13 25 27 17 -4 -19 20 22 -22 -17 -11 -16 26 -1 -5 -2 -18
right_child=1 2 16 15 -6 9 7 10 -10 23 -12 13 -14 -15 24 19 29 18 -20 -21 21 -23 -24 -25 -26 -27 -28 -29 -30 -31
leaf_value=-0.89538027474359261 -0.089255360723698829 -0.2953852342218356 -0.094713626142912566 -0.47624531500271411 -0.16513862073230418 0.021188419093344724 0.13509510081123516 -0.16676993717016933 0.53552288907761603 -0.23541346011409925 0.085076995292230659 0.50455081516270917 -0.3130242729834003 0.016912451159130822 -0.057302194440939903 -0.26680861889735641 -0.27556432364088851 -0.70978822911082362 -0.25229112424010641 -0.051834412528826083 -1.9899349159787798 -0.48567985251214352 -0.89316898247143595 -0.96871931273552514 0.47670503935040731 -0.066468519848063193 -0.17667020639261485 -0.12675501060663738 -0.33532402437679515 -0.032468055900853637
leaf_weight=5.1910175380826322 168.97455745353363 88.770929973572493 314.17483684024774 20.594960290938616 181.69231805205345 1687.5237882843514 123.24419752275571 91.861435901078949 66.37974262307398 36.439742498099804 1266.2702582684033 21.439382061362267 47.083522554645924 978.23697370290756 15.1486429721117 110.37221349199535 43.45856039179489 49.656263666925952 257.97177532827482 29.82422367145773 5.1958812156808554 9.67585890740156 13.347907658666371 6.5897264480590811 24.56966070830822 1422.7569216224365 149.06092454004101 265.29554198309779 49.687787933507934 247.18211896764114
leaf_count=1031 9799 2796 22728 1927 9445 4717 393 3916 81 599 8311 492 870 12873 3621 3668 2115 1489 12807 10219 687 549 864 168 202 299959 7455 37622 3935 3717
internal_value=-0.0354117 -0.0104828 -0.0612675 -0.104343 0.0373915 -0.0108047 0.0506948 0.093431 0.275269 0.00340659 0.0680425 -0.0035965 0.0121167 0.0273705 -0.0709499 -0.223177 -0.164489 -0.209208 -0.326139 -0.344118 -0.407015 -1.01124 -0.334385 -0.347715 0.273034 -0.0796134 -0.200857 -0.151932 -0.145171 -0.0688175
internal_weight=7797.67 5726.64 2778.85 2071.03 2947.79 1866.41 2766.09 1547.76 189.624 1777.64 1358.13 1218.34 1734.61 999.676 1616.73 454.307 912.444 621.803 307.628 168.416 138.592 14.8717 123.72 43.0295 39.7183 1577.01 154.252 285.891 218.662 290.641
internal_count=469055 101251 52006 367804 49245 9150 39800 12701 474 6354 12227 27099 5587 13365 312268 55536 42856 37024 14296 15987 5768 1236 4532 767 3823 308445 8486 39549 13734 5832
is_linear=0
shrinkage=0.05


Tree=7
num_leaves=31
num_cat=0
split_feature=59 50 44 6 52 44 7 34 31 36 29 30 65 27 16 59 12 50 37 36 44 2 65 34 62 5 50 6 45 35
split_gain=4668.2 5594.38 7457.31 4334.12 4141.1 3353.6 3151.68 9451.74 4146.27 2268.45 1820.89 2372.22 3728.9 1718.64 1525.21 1302.89 1432.31 2777.91 1508.69 1198.55 1190.34 1138.42 1133.23 1041.98 1240.42 983.219 929.793 880.77 1253.91 858.049
threshold=5.7316980361938485 117.68807983398439 9.0478835105896014 14.059786319732668 6.945296287536622 9.3488602638244647 13.301414012908937 0.14098718017339709 -10.976402282714842 1.9975013732910158 1.6575891971588137 2.1476005315780644 29.471905708312992 0.84681311249732982 20.16223239898682 5.22770118713379 8.7893085479736346 108.13501358032228 3.5586949586868291 3.2566924095153813 8.2630686759948748 -0.21145300567150113 46.356037139892585 0.6999834179878236 6.6166539192199716 9.8811893463134783 161.973991394043 10.79439163208008 7.59627389907837 0.8306713104248048
decision_type=2 2 2 2 2 2 2 2 2 2 2 2 2 2 2 2 2 2 2 2 2 2 2 2 2 2 2 2 2 2
left_child=5 4 3 23 20 15 7 -6 -8 -9 -4 12 -12 -5 -10 16 18 19 22 -18 25 -15 -1 24 -3 29 -13 -7 -29 -2
right_child=1 2 10 13 6 27 8 9 14 -11 11 26 -14 21 -16 -17 17 -19 -20 -21 -22 -23 -24 -25 -26 -27 -28 28 -30 -31
leaf_value=-0.21070763310753318 -0.64442984249148505 -0.71210714725151747 -0.095227624222121346 0.40446076495825967 2.0588019475179502 -0.057944171552365045 0.055693935040817523 0.10933321587429148 -0.12450004447012267 -0.14979951568277572 -0.074541563926670593 -0.23687060067946961 -0.6172174776974314 0.014152499349661844 0.076858950413242186 -0.13475457918449041 -0.80497617598528715 -0.16560228318816994 -0.10871817874904753 -0.20313285720753679 -0.059572606130030792 -0.28087006564341377 -1.0617815238960517 -0.17699342261469675 -0.19800563125311108 -0.14105272559980461 -0.09909162693283545 -0.16634146689074022 -0.82687468935742769 -0.17932431512979752
leaf_weight=7.5872030015389091 21.915565156377852 26.195861752210476 430.20784706436098 27.805036064072738 6.1379012018442145 731.17026363789171 1332.1749973297119 1289.9784922853673 607.34553528670222 90.371336539033564 50.566225200775079 287.78707486391068 84.639837801572867 1548.6013277317143 111.27282094117254 112.23150587081909 48.38177870491154 41.141732169040552 73.175818459829316 9.9785355694430091 495.1975397374481 33.404223610371446 8.0731290974449603 68.496161234565079 21.251629190453968 100.75426738988608 213.13903856277466 56.294710786851397 8.2360273311501242 18.111181965097785
leaf_count=1411 2951 1638 40071 25 210 246629 1905 13517 31527 6829 690 14136 3705 4121 863 2406 7177 717 11545 683 57349 729 1375 1859 641 1566 4806 6593 760 722
internal_value=-0.0315091 -0.0162098 -0.0707254 -0.00649293 0.0211589 -0.12732 0.0428445 0.101073 0.0034776 0.0923678 -0.174679 -0.22841 -0.41426 0.0147722 -0.0933211 -0.269608 -0.349968 -0.480255 -0.20404 -0.702072 -0.0960452 0.00792306 -0.649449 -0.301746 -0.481842 -0.224338 -0.178247 -0.0735721 -0.250645 -0.43398
internal_weight=7961.62 6865.35 2792.09 1725.75 4073.26 1096.27 3437.28 1386.49 2050.79 1380.35 1066.34 636.132 135.206 1609.81 718.618 300.57 188.338 99.502 88.8362 58.3603 635.979 1582.01 15.6603 115.944 47.4475 140.781 500.926 795.701 64.5307 40.0267
internal_count=469156 189860 72421 9013 117439 279296 54851 20556 34295 20346 63408 23337 4395 4875 32390 25314 22908 8577 14331 7860 62588 4850 2786 4138 2279 5239 18942 253982 7353 3673
is_linear=0
shrinkage=0.05


Tree=8
num_leaves=31
num_cat=0
split_feature=16 50 44 6 72 9 44 71 25 36 44 35 51 57 50 68 44 61 9 45 27 48 31 42 31 47 41 69 17 34
split_gain=5066.82 4596.52 4959.29 3325.61 2660.34 2358.35 1771.51 1890.36 1596.26 1526.65 1497.98 1612.76 1390.77 2390.02 1433.08 1548.5 1326.79 1268.07 1254.82 1214.57 1137.61 1070.03 989.838 893.87 832.317 1393.04 1339.22 780.988 716.084 673.636
threshold=10.44146251678467 117.68807983398439 10.835957527160646 14.059786319732668 46.455377578735359 12.789492607116701 23.067255020141605 15.725608825683596 1.8137603402137759 9.4317722320556658 8.491737365722658 -2.4078769683837886 7.4407136440277108 1.5130779147148135 180.88987731933597 44.707344055175788 3.1403256654739384 3.7515140771865849 16.16618633270264 4.0376105308532724 0.84681311249732982 0.10768213868141176 -2.7782987356185909 3.1981350183486943 -2.9107375144958492 1.4442412853240969 7.2937195301055917 34.551649093627937 11.121653079986574 0.6999834179878236
decision_type=2 2 2 2 2 2 2 2 2 2 2 2 2 2 2 2 2 2 2 2 2 2 2 2 2 2 2 2 2 2
left_child=5 4 3 29 6 16 7 22 -9 18 11 28 13 -4 21 -16 27 19 -5 -13 -18 -14 -2 -22 25 26 -12 -1 -7 -3
right_child=1 2 12 9 -6 10 -8 8 -10 -11 24 17 14 -15 15 -17 20 -19 -20 -21 23 -23 -24 -25 -26 -27 -28 -29 -30 -31
leaf_value=-0.21075262554720245 -0.66302731293732142 -0.47125526642480642 -0.28666689723894806 -0.24034035072263113 -0.14793487128013 -0.50396307343789537 -0.13757863263664216 0.096895560135510997 0.021643671426325568 -0.19429353855274348 -0.10727788360791504 -0.79003631481626013 -0.094125191174851186 -1.4276900085478736 0.0024490653634626708 -0.29221729634967236 0.16310508899972551 -0.12295173671489719 0.027671876162258649 -0.3149393366591704 -0.23706145903703876 -0.23025356613658265 -0.11239682840450643 -0.061144951303606088 -0.063136303494266729 -0.079592580564772641 -0.68245056126123416 -0.67439740238494661 -1.3455464397722638 -0.17945175973407798
leaf_weight=34.893484966320216 12.780400780029593 38.854072609799914 43.8923344128998 44.939924713614346 192.5979261379689 5.088501120451836 128.88066662075653 1310.9418968194514 1523.8860549656674 87.584059923887253 16.564694944536313 16.034477051269548 235.14860404346837 5.125264123431406 265.96930832322687 53.564289026893675 54.041077506321017 78.759097049640062 1548.9716999862167 83.535290514500957 76.333170761064594 373.88392360770376 22.584659786294651 1337.0472668770221 184.67184862866998 56.246392285451293 26.013343563536182 12.278804694304084 5.0223628184758127 40.284175364417024
leaf_count=2402 367 1387 1108 1242 9472 276 25006 3808 8303 1325 194 2162 20320 338 2503 3467 653 1124 3297 3309 4580 15954 2387 304289 40460 3230 2765 1301 325 1058
internal_value=-0.0317268 -0.00857435 -0.0561009 -0.00596046 0.0321999 -0.100838 0.043768 0.0519111 0.0564433 0.00894743 -0.198434 -0.307696 -0.146404 -0.405972 -0.132702 -0.0469467 -0.0704279 -0.272866 0.0201153 -0.391448 -0.0620374 -0.177694 -0.311386 -0.0706458 -0.125808 -0.242922 -0.458684 -0.331438 -0.922002 -0.322717
internal_weight=7916.42 5929.89 2738.22 1760.63 3191.67 1986.53 2999.07 2870.19 2834.83 1681.5 471.936 188.44 977.584 49.0176 928.566 319.534 1514.59 178.329 1593.91 99.5698 1467.42 609.033 35.3651 1413.38 283.496 98.8244 42.578 47.1723 10.1109 79.1382
internal_count=468412 101342 51999 8309 49343 367070 39871 14865 12111 5864 53845 7196 43690 1446 42244 5970 313225 6595 4539 5471 309522 36274 2754 308869 46649 6189 2959 3703 601 2445
is_linear=0
shrinkage=0.05


Tree=9
num_leaves=31
num_cat=0
split_feature=52 13 31 59 44 51 42 59 39 42 45 68 67 45 65 42 21 44 45 31 69 29 14 69 35 44 31 29 62 57
split_gain=4443.84 4337.06 3860.71 3816.26 2475.46 2316.47 2571.72 2237.13 1590.24 1556.92 1460.01 1246.57 1878.14 2024.96 1155.01 1108.49 1091.53 825.931 1188.21 1013.81 791.507 680.307 1718.33 638.885 564.656 521.453 515.69 767.482 496.259 458.551
threshold=6.945296287536622 13.768527030944826 -13.237027168273924 5.8430259227752694 23.067255020141605 6.8457682132720956 1.2492678761482241 6.7794780731201181 3.2331833839416508 4.1739995479583749 3.5070272684097294 49.80421447753907 54.265718460083015 0.78187841176986705 17.402014732360843 2.6151115894317631 62.718729019165046 9.5509381294250506 3.4162796735763554 -3.0485786199569698 9.3901457786560076 1.2593887448310854 6.6533470153808603 41.936540603637702 0.65667915344238292 5.7002506256103525 -3.1974619626998897 1.3104179501533511 1.2002806663513186 1.6475175023078921
decision_type=2 2 2 2 2 2 2 2 2 2 2 2 2 2 2 2 2 2 2 2 2 2 2 2 2 2 2 2 2 2
left_child=8 3 4 10 14 20 -7 -8 16 -6 -2 12 13 -4 -3 -16 25 18 -10 21 -5 -19 -23 -22 -11 -1 27 -13 -20 -14
right_child=1 2 11 5 9 6 7 -9 17 24 -12 26 29 -15 15 -17 -18 19 28 -21 23 22 -24 -25 -26 -27 -28 -29 -30 -31
leaf_value=-0.35040535223582592 -0.079656099601335212 0.12937637337797064 -0.1952895875665086 0.047098468594336002 -0.94499504392057254 0.65771720230656694 0.10389025099793575 0.013815521569390206 -0.051990142283530855 -0.42776834322030632 -0.37755366927786316 -0.14226748589207519 0.029580830520932917 -0.05690220466853451 -0.26819336975453478 0.013234009679925893 -0.94093121578695527 -0.10977261458387738 -0.33518170306828377 -0.038129892470635834 -0.28524861081172426 -0.11919185811593316 -0.74186750635265031 -0.078389690817075794 -0.11728255529884726 -0.15777509001570678 -0.1526123114123146 -0.43839997938725067 -0.17260917401523868 0.22423641149835702
leaf_weight=54.172379276484008 106.4122742441092 219.99582922300033 392.10635898556598 54.474899198594358 7.1611388130404512 17.777540960455099 1255.230847956283 1528.9900779996442 178.75316042810982 18.308108455021284 67.043942329606011 42.004019638872705 93.28810674790293 811.24601298113316 36.045197672952781 1194.7519039916369 5.5220962166786185 165.01814901985927 70.771713288086858 880.18620206118044 70.321370523797668 34.537457169601112 16.312640075106174 79.552141651402053 73.154077795275953 99.957019488058194 214.72534636186901 45.666773715638556 139.40593606047332 44.776465217699297
leaf_count=3611 13127 135 28208 98 201 49 7108 30694 12877 433 3239 1184 535 13172 325 2607 244 22235 6335 280847 1979 4500 1352 923 704 6644 16733 1299 7431 122
internal_value=-0.0270017 -0.00809186 -0.0492523 0.0332423 0.00737566 0.0463996 0.0582522 0.0544246 -0.100278 -0.235021 -0.194799 -0.102628 -0.0819551 -0.101995 0.0238535 0.00499211 -0.250226 -0.0841569 -0.146755 -0.0619443 -0.116123 -0.159046 -0.318945 -0.175449 -0.179433 -0.225479 -0.194334 -0.29652 -0.227351 0.0927106
internal_weight=8017.67 6373.03 3193.23 3179.8 1549.42 3006.35 2802 2784.22 1644.64 98.6233 173.456 1643.81 1341.42 1203.35 1450.79 1230.8 159.651 1484.99 388.931 1096.05 204.348 215.868 50.8501 149.874 91.4622 154.129 302.396 87.6708 210.178 138.065
internal_count=468951 122875 65658 57217 4405 40851 37851 37802 346076 1338 16366 61253 42037 41380 3067 2932 10499 335577 26643 308934 3000 28087 5852 2902 1137 10255 19216 2483 13766 657
is_linear=0
shrinkage=0.05


Tree=10
num_leaves=31
num_cat=0
split_feature=16 44 30 7 67 60 34 39 29 31 25 44 43 45 27 19 44 12 41 29 14 53 31 60 56 26 45 45 67 60
split_gain=3994.88 3519.45 3303.38 3498.86 2543.35 2705.8 2094.11 1736.51 1577.86 1555.12 1330.22 1799.61 1326.02 1484.77 874.449 846.402 765.816 786.065 751.687 2607.7 3654.36 1373.7 745.711 644.019 600.999 599.418 595.1 498.844 481.27 471.304
threshold=10.221767902374269 23.067255020141605 10.336278438568117 9.4261803627014178 48.522153854370124 7.6328496932983407 0.16892982274293902 3.2331833839416508 4.3363323211669931 -3.3568284511566158 2.764934897422791 3.1403256654739384 23.290421485900882 4.2402193546295175 0.84681311249732982 24.321010589599613 17.463119506835941 13.761759757995607 6.3054015636444101 1.3104179501533511 6.4511075019836435 6.1314258575439462 -8.4506292343139631 5.4771993160247812 0.99166667461395275 3.01344907283783 5.8441674709320077 3.2415623664855961 48.818439483642585 5.2229266166687021
decision_type=2 2 2 2 2 2 2 2 2 2 2 2 2 2 2 2 2 2 2 2 2 2 2 2 2 2 2 2 2 2
left_child=7 2 3 27 6 -6 -5 16 -3 18 11 -11 13 15 -13 -4 17 -1 21 -20 -21 29 23 -10 -12 -15 -25 -2 -23 -9
right_child=1 8 12 4 5 -7 -8 9 22 10 24 14 -14 25 -16 -17 -18 -19 19 20 -22 28 -24 26 -26 -27 -28 -29 -30 -31
leaf_value=-0.16872928371713958 -0.11053387948140213 -0.080409588945025798 -0.17098382514929705 0.13508219314593325 -0.26372982705082298 -0.0073362438686432885 0.033997811467147164 -0.33151706036834222 -0.93058676629908121 -0.40913999491017866 -0.11221350096808298 0.14185901024834044 0.17635276212908191 -0.17893354999986213 -0.055987423381975154 -0.025368339996586022 -0.83945100547842544 -0.45552648363926285 -0.11133824717231509 -0.10048177282194211 -0.89326330974914958 -0.011427182515421368 -0.14966421195394147 -0.28455126715862661 0.32103358918662472 0.00049140093970072285 -0.67769467484921719 -0.27697238963984311 -0.33763808928106254 -0.87940016659420994
leaf_weight=120.76826842225273 93.766876045198657 313.23192861676216 438.41185363752129 612.56092342125521 125.46777348456635 572.12157559394836 3132.0925504900515 16.063267189076331 5.2381998077034941 35.260105190026479 10.432319998741148 58.457357259890159 51.737026724149473 52.144135435020416 1251.8416492797551 129.20317248813808 5.2559733334772991 29.784013767687725 137.08102852851152 28.087509728382429 30.127971862097183 144.1311089782545 53.364759564399719 54.076304895457724 34.398181915283203 433.75581252388656 11.709982673051853 86.594949763684056 12.269063817956718 5.1945792701517339
leaf_count=7055 4574 47113 4521 416 4223 3411 14927 963 206 3329 2375 960 1015 638 316804 358 675 2261 21910 4344 2627 782 17047 831 61 1213 300 3723 272 145
internal_value=-0.0231791 -0.00356972 0.00687212 0.0254391 0.0342042 -0.053451 0.0505335 -0.0861761 -0.140239 -0.0720384 -0.0477195 -0.0566463 -0.0707823 -0.0829188 -0.0471608 -0.137838 -0.246179 -0.225467 -0.1627 -0.230403 -0.510766 -0.0882756 -0.290899 -0.397016 0.220214 -0.0187635 -0.354531 -0.190444 -0.0370173 -0.465398
internal_weight=8084.63 6165.48 5727.86 4622.6 4442.24 697.589 3744.65 1919.15 437.621 1763.34 1390.39 1345.56 1105.25 1053.51 1310.3 567.615 155.808 150.552 372.955 195.297 58.2155 177.658 124.389 71.0245 44.8305 485.9 65.7863 180.362 156.4 21.2578
internal_count=469079 104516 39019 31274 22977 7634 15343 364563 65497 354572 323529 321093 7745 6730 317764 4879 9991 9316 31043 28881 6971 2162 18384 1337 2436 1851 1131 8297 1054 1108
is_linear=0
shrinkage=0.05


Tree=11
num_leaves=31
num_cat=0
split_feature=31 44 59 52 62 57 9 61 44 5 41 64 29 29 41 29 22 29 21 70 11 68 61 59 59 41 12 15 70 62
split_gain=3907.89 3561.81 3613.45 2529.5 1806.09 2040.72 1732.16 1539.96 1938.76 1300.65 1195.64 1114.02 1097.35 2082.53 913.87 1600.66 825.137 733.948 751.083 754.782 701.732 667.335 617.529 583.361 643.066 466.642 448.578 431.23 424.262 397.2
threshold=-1.5762940049171446 23.067255020141605 5.1247706413269052 6.945296287536622 2.4387521743774419 1.0322773456573489 12.30706834793091 -13.27326440811157 7.4176058769226083 12.819979190826418 2.4764127731323247 2.0512056350708012 4.933091640472413 4.7265753746032724 6.3054015636444101 1.3104179501533511 15.001370906829836 3.9810508489608769 54.37635803222657 40.647968292236335 18.035684585571293 43.269836425781257 -2.7176129817962642 6.8298351764678964 5.5811297893524179 3.6563888788223271 34.16249084472657 13.957378387451174 23.600851058959964 0.3717824667692185
decision_type=2 2 2 2 2 2 2 2 2 2 2 2 2 2 2 2 2 2 2 2 2 2 2 2 2 2 2 2 2 2
left_child=1 2 27 14 5 -5 -6 10 9 16 11 -2 13 25 20 -16 22 -3 19 -19 -4 -21 -9 24 -11 -10 -12 -1 29 -14
right_child=7 17 3 4 6 -7 -8 8 12 23 26 -13 28 -15 15 -17 -18 18 -20 21 -22 -23 -24 -25 -26 -27 -28 -29 -30 -31
leaf_value=-0.222249454124889 0.39898947464877427 -0.097048357768684285 -0.023216172843529254 -0.18825029973066951 0.13041342256350191 0.0053137226344629647 0.032988367373245168 -0.49521217250633703 0.022860031441112944 -0.31354958785540205 -0.10599822756492634 0.056688450857092343 0.0061240091829952098 0.37642766429513369 -0.12590451687284573 -0.55140799524360085 0.033681074393611607 -0.2527078333956469 -0.029891189858291485 -1.0907011013893604 -0.39686871020092507 -0.3889960508894319 -0.26435807135209405 -0.17857467923436132 0.011719712054733964 -0.063726595707385245 0.017057016169883234 -0.68475942116165378 -0.15084382657769779 -0.13212165453641045
leaf_weight=134.41041267057881 28.669284046371843 256.06440680846572 171.45760707308 147.32221783927889 579.73892037197948 1798.3882576375763 2141.5784528255463 36.108816968605566 190.14185145375086 17.592613257467747 167.15658633876228 139.07123327094558 104.46665758546442 29.722469806671143 93.20729440409923 28.972230453044176 19.310282737016678 84.096276961558033 31.420062816701829 5.2836315256572552 13.55906252627028 9.4451463604200381 146.48834608005276 145.68086310476065 111.51023995876312 856.66701467108214 132.97289146110779 5.2360505484975866 396.1057891221717 103.3683649264276
leaf_count=12474 5 41587 1419 2051 826 5951 4609 2907 2850 686 5860 113 2360 1192 4136 1570 31 4184 1128 982 486 870 17019 2587 371 317812 852 224 23502 8366
internal_value=-0.0237615 0.000193891 0.0112527 0.0182949 0.0274426 -0.00934225 0.0537434 -0.0739547 -0.0917899 -0.180789 0.00827643 0.115193 -0.0665438 -0.0362808 -0.12068 -0.226803 -0.277139 -0.1462 -0.242834 -0.310536 -0.0505995 -0.640718 -0.31001 -0.109993 -0.0326041 -0.047999 -0.0514784 -0.239591 -0.120488 -0.0626335
internal_weight=8125.21 5500.18 5113.87 4974.22 4667.03 1945.71 2721.32 2625.03 2157.16 476.691 467.87 167.741 1680.47 1076.53 307.196 122.18 201.907 386.31 130.245 98.8251 185.017 14.7288 182.597 274.784 129.103 1046.81 300.129 139.646 603.941 207.835
internal_count=469010 82497 33746 21048 13437 8002 5435 386513 379683 23601 6830 118 356082 321854 7611 5706 19957 48751 7164 6036 1905 1852 19926 3644 1057 320662 6712 12698 34228 10726
is_linear=0
shrinkage=0.05


Tree=12
num_leaves=31
num_cat=0
split_feature=53 50 43 6 55 25 34 45 34 47 52 60 67 15 59 52 48 31 9 69 59 33 39 72 53 61 41 42 53 53
split_gain=3775.36 3939.78 2932.78 2366.58 2147.1 1698.63 3494.89 2097.34 1980.62 1646.22 1444.36 1756.05 1506.62 1373.49 1309.76 1179.29 839.974 1196.23 801.277 673.48 554.639 553.721 545.693 525.615 476.172 442.962 1007.47 441.667 473.655 439.46
threshold=7.5481736660003671 117.68807983398439 10.421512603759767 13.93432664871216 0.76041665673255932 1.8137603402137759 0.16892982274293902 4.7690985202789316 1.1430174112319949 0.40094244480133062 16.626298904418949 16.043027877807621 37.262754440307624 4.7034289836883554 6.7794780731201181 24.272670745849613 0.10768213868141176 -3.0485786199569698 11.179593563079836 19.613913536071781 7.6119403839111337 0.66979998350143444 3.2331833839416508 32.654169082641609 10.402754306793215 -2.1140896081924434 5.1002113819122323 3.4741491079330449 6.9839937686920175 5.7540090084075937
decision_type=2 2 2 2 2 2 2 2 2 2 2 2 2 2 2 2 2 2 2 2 2 2 2 2 2 2 2 2 2 2
left_child=13 4 3 24 5 8 9 -8 14 -7 12 -12 -5 22 -2 16 -4 -18 27 25 -6 -21 29 -17 -3 26 -20 28 -15 -1
right_child=1 2 15 10 20 6 7 -9 -10 -11 11 -13 -14 18 -16 23 17 -19 19 21 -22 -23 -24 -25 -26 -27 -28 -29 -30 -31
leaf_value=-0.30965505153192596 0.10011453496724872 -0.16109047732758416 -0.084212708530788938 -0.21423411480652912 -0.055427879553661796 0.28236765708991157 -0.13570130427842195 0.0031985847648647024 0.54808262282596021 0.065080983993854702 -0.14830204802133873 0.019174043227001135 0.048375679503682781 -0.37383022043400133 0.013160338025226891 -0.18170035112566216 -0.30369304037728595 -0.12890739620351196 -1.0414784754742179 -0.083800471111371691 -0.20867188936171113 -0.24475195639645198 -0.037999551333970684 -0.023532504878036261 -0.37971477656559149 -0.26326335464268696 -0.29860307881694609 -0.070600389243592548 -0.054209484981655898 -0.048756609892416244
leaf_weight=35.101943492931241 1103.1909870349336 100.86322529241443 238.8439165558666 57.425130907064386 157.78421507088933 118.52029260824202 393.8247697814412 876.91643022978235 21.556946784257889 329.52935591881396 291.37662095110863 338.18476867675781 1116.5791947780269 27.000355154275894 712.92375741165597 62.395121452631429 169.30839616060257 232.06860030628741 6.5613732500933137 108.51934204308782 94.35350875556469 105.27739317342639 676.7968902438879 332.06724083679728 33.072840768843889 65.157058569951914 14.992320260498671 261.47128537297249 20.310742080211639 29.879616752266884
leaf_count=4737 3190 2232 27420 1038 5630 141 31023 7310 66 1118 2447 580 2521 1422 18525 2681 3939 17811 515 9148 12043 11733 231449 5112 2656 8156 2677 51047 170 538
internal_value=-0.0206546 -0.00544721 -0.0485903 -0.0122946 0.0282211 0.0382171 0.00248707 -0.0398489 0.0716356 0.122559 0.00276423 -0.058338 0.0355304 -0.0969776 0.0659803 -0.116556 -0.158456 -0.202635 -0.152602 -0.210725 -0.112774 -0.163056 -0.051288 -0.0485511 -0.215075 -0.328261 -0.524749 -0.0960371 -0.236616 -0.18969
internal_weight=8131.85 6780.79 2972.19 1937.5 3808.6 3556.46 1718.79 1270.74 1837.67 448.05 1803.57 629.561 1174 1351.07 1816.11 1034.68 640.221 401.377 609.29 300.507 252.138 213.797 741.778 394.462 133.936 86.7108 21.5537 308.782 47.3111 64.9816
internal_count=469075 147483 68437 11474 79046 61373 39592 38333 21781 1259 6586 3027 3559 321592 21715 56963 49170 21750 84868 32229 17673 20881 236724 7793 4888 11348 3192 52639 1592 5275
is_linear=0
shrinkage=0.05


Tree=13
num_leaves=31
num_cat=0
split_feature=54 67 30 44 72 44 45 70 15 12 45 45 55 45 31 41 71 48 72 70 41 69 47 64 53 31 48 72 38 7
split_gain=3574.7 3035.65 2342.35 2210.05 2466.05 2065.85 1845.4 1835.87 1697.43 1511.55 1069.6 1044.72 848.404 846.111 842.977 614.595 602.482 561.822 793.808 524.028 566.63 454.433 452.463 439.072 430.929 413.32 411.225 354.168 325.233 318.059
threshold=7.7673034667968759 48.522153854370124 10.336278438568117 23.067255020141605 13.087722301483156 8.2630686759948748 4.2402193546295175 13.455968856811525 9.8893241882324237 25.157346725463871 1.762485206127167 10.141834735870363 0.66828480362892162 8.573308467864992 -3.1974619626998897 3.6563888788223271 28.042222023010257 0.10768213868141176 29.154392242431644 28.883238792419437 7.2937195301055917 47.155456542968757 1.4819524288177492 4.6729073524475107 11.505270004272463 3.7505220174789433 0.10768213868141176 19.595617294311527 4.0429613590240487 7.3130688667297372
decision_type=2 2 2 2 2 2 2 2 2 2 2 2 2 2 2 2 2 2 2 2 2 2 2 2 2 2 2 2 2 2
left_child=5 2 3 4 26 10 19 12 -6 17 29 13 24 -11 -7 21 -8 -9 -19 23 -21 -16 -13 -4 -3 -18 -2 -14 -17 -1
right_child=1 7 6 -5 8 14 16 9 -10 11 -12 22 27 -15 15 28 25 18 -20 20 -22 -23 -24 -25 -26 -27 -28 -29 -30 -31
leaf_value=-0.21868728870355617 -0.20740730622668951 -0.2439112953843901 -0.037064455706615755 -0.13049436834809158 -0.15826160583580368 -0.15900199201947207 -0.27214106629676549 -0.092012908763817347 0.042966091529779288 -0.080668294566213716 -0.23118595940598388 -0.45177141394146675 -0.12908874914204446 0.054994934328080516 -0.2960009997667013 -0.17176443642364331 0.027551164486041353 -0.35903757202908299 -0.16443855591905215 -0.44146014675788092 -0.1681567951081262 0.047702014808972834 -0.12609369062215231 -0.2084585293333297 0.058689335637924639 -0.1479741435393421 -0.57669666045577406 -0.63089979364062387 -0.0503272896163421 0.012839308412361042
leaf_weight=18.758885019171601 13.528533801521009 12.2351644614655 143.80937905291671 213.88706235311111 107.62632767460809 167.93627029657364 19.138888459725194 186.26075955387205 3988.8242906349428 260.87149021461266 317.46818920682728 20.098798747351793 8.1231931079119004 205.44640687316257 10.049835607954092 60.495580147626242 435.29316549369833 63.751921942457557 294.43876991840079 21.034787549047905 192.72297554233228 223.33439926726095 22.720297856198158 50.484208002220839 306.42498669633642 36.338553488254547 17.0258433884037 6.1997596100554793 622.27433867807667 70.889025588403456
leaf_count=5162 785 1628 1921 39954 4146 27236 477 16937 17303 5694 21184 455 559 102 1773 4520 690 3675 11551 304 8142 883 677 3381 980 531 751 758 285569 1057
internal_value=-0.0221422 -0.00640193 0.0110072 0.0262193 0.0343412 -0.0920853 -0.0624602 -0.0721894 0.0376792 -0.104534 -0.188119 -0.0426025 0.0301503 -0.0208989 -0.056021 -0.037144 0.00286731 -0.162448 -0.199074 -0.141031 -0.195051 0.0329017 -0.278963 -0.0815986 0.0470708 0.0140272 -0.413187 -0.3463 -0.061087 -0.0356078
internal_weight=8117.49 6626.29 5239.71 4340.89 4127 1491.21 898.822 1386.57 4096.45 1053.59 407.116 509.137 332.983 466.318 1084.09 916.154 490.771 544.451 358.191 408.051 213.758 233.384 42.8191 194.294 318.66 471.632 30.5544 14.323 682.77 89.6479
internal_count=468785 121401 78385 62939 22985 347384 15446 43016 21449 39091 27403 6928 3925 5796 319981 292745 1698 32163 15226 13748 8446 2656 1132 5302 2608 1221 1536 1317 290089 6219
is_linear=0
shrinkage=0.05


Tree=14
num_leaves=31
num_cat=0
split_feature=69 72 62 69 58 45 22 50 68 65 33 48 8 70 45 41 25 45 67 44 70 47 69 28 68 69 16 19 41 51
split_gain=3216.63 3402.21 2941.7 3140.66 2736.15 1995.54 1968.33 1822.24 1993.96 1877.63 1462.32 1249.56 1237.89 1206.35 1186.21 1043.6 981.101 928.749 879.427 811.788 792.898 722.405 675.175 605.649 509.153 473.411 433.823 359.757 602.597 287.987
threshold=42.463607788085945 53.179019927978523 10.571985721588137 28.089430809021 5.1313076019287118 0.50300294160842907 2.3017286062240605 89.154426574707045 44.401206970214851 64.401462554931655 0.66979998350143444 -0.99372944235801686 1.2216107845306399 34.725904464721687 2.2997944355010991 2.4764127731323247 3.0933243036270146 3.7565779685974126 29.056879997253422 14.343786716461183 42.936260223388679 1.4943310022354128 34.551649093627937 4.7081027030944833 14.134114265441896 12.905220985412599 14.378155231475832 -5.171069622039794 9.6150865554809588 6.4909284114837655
decision_type=2 2 2 2 2 2 2 2 2 2 2 2 2 2 2 2 2 2 2 2 2 2 2 2 2 2 2 2 2 2
left_child=2 5 3 7 -4 6 20 17 10 -10 -9 -5 23 -7 15 -13 18 24 -15 -3 -2 -16 25 -6 -1 -14 -19 28 -8 -21
right_child=1 19 4 11 12 13 27 8 9 -11 -12 14 22 16 21 -17 -18 26 -20 29 -22 -23 -24 -25 -26 -27 -28 -29 -30 -31
leaf_value=0.023179849288037319 0.097561953404874349 -0.24201929013526932 -0.11259810785858493 0.032715054586530082 0.10604876349120936 0.34693343631416312 -0.61464746542079074 0.039331456988819735 -0.18729773619519829 0.02028733147991536 -0.13789321380841521 0.022521346545577248 -0.32316559195804939 -0.083079358185242924 -0.26895449858067322 -0.14513911539223365 0.29941603448046666 -0.21651773236677788 0.04164351518584878 -0.32888534963283211 -0.19788224325538015 -0.13407255242060137 -0.19611534447899703 0.31776497430902928 -0.11354236328890195 0.064204730755714701 -0.68032283239996394 -0.10534237100364521 -0.19465560280010683 -0.059879439192844768
leaf_weight=89.364631081236439 150.28875827685306 130.02152012102306 256.04496169090271 93.634377717971802 65.964870878597139 32.037568807827029 9.2344775921665114 1084.2420801802073 267.54604331520386 183.74492354737595 130.39243862777948 116.42306263182832 8.0090389529830173 148.94026086577469 278.00496264003164 457.67848621669691 35.583297729492188 127.52894289122014 2767.6055530169488 10.602892826595051 26.751757479156367 154.40222033858299 27.432864067493938 69.231940123150707 286.08757353376132 518.69281952899132 5.2492809661780475 123.34496261551976 113.65107461670414 161.38559038070525
leaf_count=9553 749 13331 37377 3249 313 27 217 12679 15363 3318 10572 360 746 2716 9016 70877 51 17544 14730 716 5147 9752 1146 21 113910 2648 479 27908 11156 73079
internal_value=-0.0208626 0.0131033 -0.0507215 -0.0731537 0.0269724 0.0273592 -0.0742395 -0.03832 -0.0130369 -0.102779 0.0203062 -0.141994 0.0788144 0.0417698 -0.158247 -0.111139 0.0384581 -0.121195 0.0352742 -0.147739 0.0529188 -0.220791 0.0457186 0.214465 -0.0809999 0.0583144 -0.234854 -0.165667 -0.226217 -0.0764633
internal_weight=7929.12 3709.45 4219.68 3274.3 945.376 3407.44 423.271 2174.16 1665.93 451.291 1214.63 1100.14 689.332 2984.17 1006.51 574.102 2952.13 508.23 2916.55 302.01 177.041 432.407 554.135 135.197 375.452 526.702 132.778 246.231 122.886 171.988
internal_count=468750 149827 318923 276672 42251 62701 45177 183418 41932 18681 23251 93254 4874 17524 90005 71237 17497 141486 17446 87126 5896 18768 4540 334 123463 3394 18023 39281 11373 73795
is_linear=0
shrinkage=0.05


Tree=15
num_leaves=31
num_cat=0
split_feature=61 31 44 59 34 28 22 62 36 56 44 27 15 1 34 29 5 53 54 59 51 20 59 39 18 3 22 59 22 3
split_gain=3133.58 3452.48 2547.9 2238.82 1973.21 1688.99 1853.35 1467.58 1598.04 1258.05 1087.32 1057.34 1029.96 1006.61 841.763 736.912 706.806 629.202 527.048 518.481 497.547 764.539 664.452 479.937 427.738 417.106 410.038 392.66 331.341 329.468
threshold=-13.27326440811157 -1.5762940049171446 9.9775686264038104 5.22770118713379 0.16892982274293902 9.198733329772951 2.7909712791442876 2.036852359771729 0.42251110076904302 0.91250002384185802 5.7002506256103525 6.3938333988189706 13.098762035369875 112.69524383544923 0.52427050471305858 1.2593887448310854 12.684261798858644 12.67895030975342 13.740053653717043 6.7794780731201181 6.3028039932250985 31.132429122924808 3.3977587223052983 22.288944244384769 0.12348889559507371 4.2170164585113534 15.001370906829836 28.763326644897464 8.93457078933716 3.2570528984069829
decision_type=2 2 2 2 2 2 2 2 2 2 2 2 2 2 2 2 2 2 2 2 2 2 2 2 2 2 2 2 2 2
left_child=4 2 3 -2 12 6 9 8 -5 -4 16 -9 29 27 24 -8 -3 25 -16 -18 21 -12 -23 26 -7 -14 -22 -6 -15 -1
right_child=1 10 5 7 13 14 15 11 -10 -11 20 -13 17 28 18 -17 19 -19 -20 -21 23 22 -24 -25 -26 -27 -28 -29 -30 -31
leaf_value=0.28754273743740838 -0.20568818628847213 -0.24631792457753346 -0.084511132633461078 0.0090153764507213217 -0.091399660301054078 -0.23271350856234713 -0.091390419484456559 0.039816290958280029 -0.1485514434091644 0.065714492362552501 -0.20682082085069997 0.17419877314341892 0.073715731809068361 0.032362527237657833 -0.16974422169090805 -0.20831853342620349 -0.017833392132316401 -0.10581706702823011 0.08288960993397318 -0.18213495379286343 -0.12340439600507849 -0.2400253803646516 0.02293030382756334 -0.047058412927700848 -0.024049771532634046 0.23529131540118128 -0.0063966751835792014 0.053935698791601705 0.1740000623896398 0.15417823938336142
leaf_weight=75.017969478982536 107.62187737040222 154.62046268194172 389.45210005226545 748.13424573134398 299.34727646961767 37.18363506172318 238.02231015730649 1896.5330681498745 205.01119997352362 217.02417016052641 48.908195944724184 158.6187519133091 456.78175610839389 179.65852050110698 22.167572214268148 310.55428457073867 92.928238481748849 45.777189860353246 300.49670061469078 99.351951241027564 667.08221753347311 25.895008504415273 332.4203578907518 500.12186045668204 72.340923855896108 43.769798278808594 84.341426849365234 55.015743784606457 53.61344077065587 121.01290313614663
leaf_count=28 4482 13256 20933 2219 6729 1478 26520 3413 2426 3345 2469 217 299 663 2579 11141 761 953 532 1708 75853 3081 4794 277726 910 2 420 332 39 164
internal_value=-0.0174012 -0.0313006 -0.0078774 0.0183887 0.0527108 -0.0594404 -0.0909903 0.026405 -0.0248755 -0.0307537 -0.0862266 0.0501881 0.106896 -0.015741 0.0248788 -0.157585 -0.166729 0.0716174 0.0655332 -0.102729 -0.0693909 -0.0213843 0.00392682 -0.0850112 -0.0948912 0.0878444 -0.110271 -0.068836 0.0649154 0.205215
internal_weight=8038.83 6708.83 4703.16 3115.92 1329.99 1587.24 1155.05 3008.3 953.145 606.476 2005.67 2055.15 742.36 587.635 432.189 548.577 346.901 546.329 322.664 192.28 1658.77 407.224 358.315 1251.55 109.525 500.552 751.424 354.363 233.272 196.031
internal_count=469472 460263 80195 12757 9209 67438 61939 8275 4645 24278 380068 3630 1446 7763 5499 37661 15725 1254 3111 2469 364343 10344 7875 353999 2388 301 76273 7061 702 192
is_linear=0
shrinkage=0.05


Tree=16
num_leaves=31
num_cat=0
split_feature=59 68 44 35 7 50 43 47 72 38 19 22 15 50 65 61 4 50 50 29 69 50 38 22 59 44 44 41 58 71
split_gain=3173.53 2887.09 2999.56 2427.59 2559.29 1632.44 1679.6 1347.79 1022.82 840.804 806.454 698.007 977.531 865.253 613.051 529.1 494.104 491.851 448.463 551.799 431.119 424.652 379.758 377.12 376.901 375.298 375.17 353.711 293.552 280.612
threshold=6.0873546600341806 48.919977188110359 4.5007236003875741 -3.590365886688232 9.4261803627014178 117.68807983398439 10.736162185668947 1.6020926833152773 33.832517623901374 1.7111943364143374 6.8541808128356942 8.93457078933716 4.3993918895721444 51.885843276977546 42.872819900512702 7.951230764389039 37.184183120727546 158.86429595947268 180.88987731933597 22.778806686401371 9.6693639755249041 100.49428176879884 4.0429613590240487 3.3585557937622075 4.9441630840301523 9.0478835105896014 4.5007236003875741 19.079214096069339 4.8720629215240487 27.539491653442386
decision_type=2 2 2 2 2 2 2 2 2 2 2 2 2 2 2 2 2 2 2 2 2 2 2 2 2 2 2 2 2 2
left_child=11 3 8 10 9 7 -7 -6 17 23 16 12 22 24 29 27 -2 28 19 20 -4 -21 -1 -5 -14 -11 -24 -15 -3 -12
right_child=1 2 18 4 5 6 -8 -9 -10 25 14 -13 13 15 -16 -17 -18 -19 -20 21 -22 -23 26 -25 -26 -27 -28 -29 -30 -31
leaf_value=-0.17420769860168053 -0.17424612666142147 -0.11855740120075775 0.039603398170405056 0.042194239106537891 0.06741273572990128 0.020897350353443297 -0.10208112747925886 -0.061935269206275026 -0.26575674070036959 -0.19475769400689702 -0.171828907083897 0.040561807395961713 -0.13502321302194858 -0.23131699127002525 -0.18676675935510179 -0.023530618957315421 0.030786960504294466 -0.23881301996436208 -0.26060248814252684 -0.47142676554090546 -0.15284970681319263 -0.014451851047740447 -0.33684538914416517 -0.37620410944256533 0.029598654740141492 -0.08721766048566934 -0.029481406911718994 -0.084858141741975993 0.06838738607355678 0.01837482842313019
leaf_weight=56.952921825373778 231.34503853321075 22.170037661592687 30.786376781391027 125.49722234511241 2771.860291079618 1504.7103562960401 340.46553176548332 217.17189501132816 27.504966171310116 122.40685602173465 21.1432051688098 90.940357208251953 63.632139545108657 294.15539947748766 51.328487283113645 42.395825355575653 33.659115791320801 14.386171241378177 61.815730005502701 5.2820116718648924 531.12681936044055 135.47401125828037 10.169469011187912 5.6271588104781207 76.65251125022769 240.58341369136912 418.12495099468214 47.943760135036428 397.54883728947789 234.03062771847908
leaf_count=6947 14831 355 1416 338 11333 5022 18317 15866 809 5317 1257 228 25992 14795 1555 1551 269 248 3258 381 53747 860 3200 258 3270 39960 202076 34204 159 1730
internal_value=-0.0131113 -0.000904851 -0.070718 0.0136036 0.0241076 0.0351862 -0.00179422 0.0580148 0.029925 -0.084281 -0.0843278 -0.0921168 -0.104063 -0.151363 -0.0290999 -0.190143 -0.148204 0.0486594 -0.131488 -0.120129 -0.142305 -0.0316003 -0.0529093 0.0242388 -0.0450727 -0.123482 -0.0367795 -0.210791 0.0585127 0.00261492
internal_weight=8226.89 7125.92 1226.09 5899.83 5328.32 4834.21 1845.18 2989.03 461.61 494.115 571.506 1100.97 1010.03 524.78 306.502 384.495 265.004 434.105 764.485 702.669 561.913 140.756 485.247 131.124 140.285 362.99 428.294 342.099 419.719 255.174
internal_count=469549 177286 61233 116053 96411 50538 23339 27199 1571 45873 19642 292263 292035 79812 4542 50550 15100 762 59662 56404 55163 1241 212223 596 29262 45277 205276 48999 514 2987
is_linear=0
shrinkage=0.05


Tree=17
num_leaves=31
num_cat=0
split_feature=68 53 62 68 50 50 10 70 69 70 67 64 65 59 72 13 50 5 59 71 53 38 64 29 30 72 68 50 44 50
split_gain=3508.85 3331.41 2135.64 2027.68 1712.81 3667.67 1509.21 1465.19 1205.42 1275.43 1200.48 1142.96 1040.08 1103.8 918.777 799.329 781.765 767.973 721.097 613.186 537.222 529.301 477.735 384.507 837.301 383.61 364.956 316.511 307.21 295.189
threshold=48.230045318603523 6.9839937686920175 2.4387521743774419 45.503160476684577 102.45977020263673 154.04616546630862 25.140361785888675 11.830243587493898 44.976762771606452 48.745975494384773 48.522153854370124 8.4625062942504901 25.47526836395264 6.9862158298492441 15.306126594543459 13.768527030944826 78.578159332275405 10.384562969207765 11.015268802642824 37.674598693847663 11.628507614135744 4.6110968589782724 3.8115614652633671 0.80346640944480907 8.0712738037109393 18.910904884338382 47.245138168334968 103.83556365966798 10.835957527160646 147.310173034668
decision_type=2 2 2 2 2 2 2 2 2 2 2 2 2 2 2 2 2 2 2 2 2 2 2 2 2 2 2 2 2 2
left_child=1 17 6 4 16 -6 12 18 23 22 15 19 14 -14 -3 -5 -4 21 20 -8 -2 -1 -10 -9 25 -25 28 -26 -23 -13
right_child=7 2 3 10 5 -7 11 8 9 -11 -12 29 13 -15 -16 -17 -18 -19 -20 -21 -22 26 -24 24 27 -27 -28 -29 -30 -31
leaf_value=-0.22007954439244259 -0.091310088349580626 -0.0036150856313300356 -0.13448553626836085 0.13729621243840182 -0.16658633395491848 0.031310750630877696 0.055739233794279301 -0.096542673000045709 -0.18194681225591269 -0.13093216762072621 -0.10842470006625633 -0.39020179420014173 0.013750090485806474 -0.080965833047414726 -0.25092821411954247 0.031980027395749504 0.063496901450572463 -0.24566273516254344 -0.36316107588617808 -0.059258628502906766 0.069670311799164761 -0.18266335928420752 0.033917732331916299 -0.10747825635539919 -0.24277145680502998 -0.27823399570788671 0.027697786586379933 -0.086131101609989116 -0.060628912608439139 -0.11893869466259221
leaf_weight=64.565775824094999 66.313119015889242 55.890268229268258 52.067093893885612 752.64255380351096 341.99651952087879 742.29207873344421 786.22186324285576 279.5106373950839 27.923000085633248 259.78038132190704 65.827552202157676 16.90319023700431 562.54143306662445 678.73537053028122 114.4669748476008 236.86853516101837 1176.8992810249329 95.8567214012146 11.844821481499819 135.96468089142581 237.22863615513779 69.951810428909084 312.25107480259612 40.883253472085926 37.941188037395477 168.25467907435086 82.441824145615101 214.9712136387825 196.27123385198502 24.660737578291446
leaf_count=8129 35464 1092 6102 1708 19621 4267 2037 78279 2049 65537 2499 892 8187 28239 12445 929 13241 9704 977 2287 431 12131 3849 2403 3129 13734 4533 4392 120514 609
internal_value=-0.0127107 0.00443157 0.0152965 0.0408983 0.0146966 -0.0311082 -0.02101 -0.0774046 -0.100202 -0.047509 0.0983312 0.0272244 -0.0539406 -0.038041 -0.169791 0.112086 0.0551091 -0.118156 0.019567 0.0387843 0.0345018 -0.0885788 0.0161986 -0.142833 -0.170836 -0.244854 -0.0642275 -0.10963 -0.0926942 -0.229256
internal_weight=7909.97 6253.07 5743.98 3368.59 2313.25 1084.29 2375.38 1656.9 1341.52 599.954 1055.34 963.75 1411.63 1241.28 170.357 989.511 1228.97 509.087 315.387 922.187 303.542 413.231 340.174 741.561 462.05 209.138 348.665 252.912 266.223 41.5639
internal_count=469410 259166 104155 48367 43231 23888 55788 210244 173372 71435 5136 5825 49963 36426 13537 2637 19343 155011 36872 4324 35895 145307 5898 101937 23658 16137 137178 7521 132645 1501
is_linear=0
shrinkage=0.05


Tree=18
num_leaves=31
num_cat=0
split_feature=52 50 44 57 31 72 6 72 72 72 53 45 54 27 45 67 50 31 66 31 48 33 24 65 37 64 45 45 29 42
split_gain=2669.4 2643.88 2425.85 1764.92 2084.37 1342.83 1303.26 1035.82 915.611 968.107 913.823 845.776 817.359 796.303 689.319 647.506 645.176 541.21 540.877 512.789 628.093 511.913 507.136 503.586 503.179 471.581 371.952 300.409 291.071 290.444
threshold=7.7909014225006112 117.68807983398439 7.1118750572204599 1.6828408837318423 -12.03443670272827 49.009990692138679 13.93432664871216 14.374183177948 47.110998153686531 53.179019927978523 14.361320972442629 8.0624260902404803 14.936659812927248 0.84681311249732982 3.2415623664855961 33.038747787475593 132.81760406494143 -3.3568284511566158 12.867188930511476 -3.1974619626998897 0.14520467817783358 0.42365385591983801 1.8025383949279787 17.402014732360843 4.3837506771087655 4.7079637050628671 17.342932701110843 21.661441802978519 3.9810508489608769 9.5537304878234881
decision_type=2 2 2 2 2 2 2 2 2 2 2 2 2 2 2 2 2 2 2 2 2 2 2 2 2 2 2 2 2 2
left_child=8 3 6 5 23 7 27 -2 14 24 -9 18 19 -8 -1 -15 17 -14 -6 20 -4 -13 -18 -5 -10 28 -25 -3 -16 -11
right_child=1 2 12 4 11 -7 13 10 9 29 -12 21 16 15 25 -17 22 -19 -20 -21 -22 -23 -24 26 -26 -27 -28 -29 -30 -31
leaf_value=-0.068049155151808885 -0.35883843001647514 -0.28602082023849212 -0.078683816871693665 0.12105975014035038 -0.00048996220329604215 -0.16186510371815674 0.22894525327159806 0.057033043038177578 0.029906518223818235 -0.18953865719372173 -0.23696285641879211 0.024732179355820422 -0.31921358172901299 -0.11954318758201291 -0.14089677487677946 0.023659358304741342 -0.010269402394635432 -0.10451065840035785 -0.21653188034422569 -0.10603700813434991 -0.35731604837771802 -0.1798825680735622 -0.082162977829388514 0.011166863359863596 -0.10213822682130731 -0.19198255365477263 -0.3467972473161855 -0.018941851673168943 0.022863553040678351 -0.068557147598250309
leaf_weight=483.10422119108648 15.270696087914983 43.829589847546195 30.265303301275708 125.22191864456545 34.064775118066876 75.587722452590242 44.492875260397341 2669.251918990165 406.8625191822648 91.437873291783035 26.695721829833928 110.12123518758645 42.176015585660934 84.939672436424189 62.655710882918129 1117.0411770260407 394.09114521974698 96.528281480073929 193.74028545478359 114.64343912759796 60.971112084924243 42.312984463409521 649.65326767927036 315.26258166307321 87.698664296418428 279.50948376953602 7.427826505105485 13.857479853018992 47.862394304182089 108.44697911757976
leaf_count=218006 2235 1133 1315 97 2167 5484 16 25444 1437 8469 1187 1197 976 701 14789 2231 4989 5061 25304 14072 1430 1905 13952 1040 20980 24424 120 88 431 68896
internal_value=-0.0154944 -0.000982026 -0.0384913 0.0269556 -0.0371328 0.0460007 0.0104759 0.0517959 -0.0738878 -0.0310397 0.0541218 -0.123226 -0.0844899 0.0212286 -0.107967 0.0135397 -0.0684815 -0.169796 -0.184226 -0.176432 -0.264887 -0.0320652 -0.0550178 0.0359532 0.00649152 -0.157411 0.00292709 -0.221864 -0.0699766 -0.1239
internal_weight=7875.02 6307.45 2692.49 3614.96 828.152 2786.81 1304.16 2711.22 1567.58 694.446 2695.95 380.239 1388.33 1246.47 873.132 1201.98 1182.45 138.704 227.805 205.88 91.2364 152.434 1043.74 447.912 494.561 390.028 322.69 57.6871 110.518 199.885
internal_count=469576 112144 45964 66180 31830 34350 4169 28866 357432 99782 26631 30573 41795 2948 257650 2932 24978 6037 27471 16817 2745 3102 18941 1257 22417 39644 1160 1221 15220 77365
is_linear=0
shrinkage=0.05


Tree=19
num_leaves=31
num_cat=0
split_feature=52 50 44 72 72 5 50 68 49 5 19 72 72 27 45 67 37 18 60 68 34 30 60 57 53 53 37 29 53 52
split_gain=2480.18 2365.27 1787.88 1717.94 1500.05 1448.28 1177.1 1619.02 1099.17 985.081 877.514 786.049 844.481 630.897 564.053 518.617 492.146 438.487 396.308 375.909 372.342 340.673 324.641 258.28 251.012 241.315 230.971 213.307 346.456 212.457
threshold=7.7909014225006112 116.59024810791017 9.0478835105896014 50.667600631713874 14.374183177948 13.841043472290041 161.973991394043 46.013671875000007 10.937293052673342 17.589419364929203 6.5119166374206552 47.110998153686531 53.179019927978523 6.0174086093902597 3.2415623664855961 36.960538864135749 4.3837506771087655 -6.4355416297912589 7.5419981479644784 56.831441879272468 0.47654743492603308 8.7129077911376971 9.7125244140625018 1.4230620861053469 8.0197439193725604 9.1425800323486346 19.509955406188968 1.6575891971588137 6.9839937686920175 32.055072784423835
decision_type=2 2 2 2 2 2 2 2 2 2 2 2 2 2 2 2 2 2 2 2 2 2 2 2 2 2 2 2 2 2
left_child=11 3 5 4 23 25 19 17 10 -10 -6 14 16 15 -1 -7 -13 -8 27 21 -16 -4 -21 -2 -20 -3 -14 -5 -29 -15
right_child=1 2 6 18 8 13 7 -9 9 -11 -12 12 26 29 20 -17 -18 -19 24 22 -22 -23 -24 -25 -26 -27 -28 28 -30 -31
leaf_value=-0.068007486841959841 -0.53961137156548378 -0.11558092941295635 -0.20905470636461043 -0.11796460761990563 0.061644243654553302 -0.059538198976731127 -0.12641845078266464 -0.19490925178290375 -0.11387097262343189 0.016777877445754295 -0.021561220813089522 0.026867088719488903 -0.16683042419830818 -0.18218711545631192 -0.070832707072100362 0.029447421007729704 -0.10485284174830939 0.019150054994566582 0.024259197139475757 -0.13427411295204328 -0.17987499328296594 -0.11948073413682442 0.029175775205401957 -0.20432417103273207 -0.19342257946023159 -0.3157059629321653 -0.055824477444588232 -0.21981784423667558 -0.53411989237396928 0.0093094575700005122
leaf_weight=457.99194905636398 6.7423089091898865 25.025058706271416 188.01169189405971 18.061630418698769 2253.4406054797 190.4730621881547 58.349576473236084 129.89677895791829 201.03015656024218 511.070701867342 368.7268790169619 387.33449590392411 113.96359342522919 55.331497248381311 108.18022868288369 1166.4964824049709 86.806408265605569 456.16737519018352 30.192160764330765 66.131702683722892 283.31667883694172 243.7867471575737 56.192231848835945 38.782411508262157 23.590645296877483 37.840955532641196 79.58406406454742 26.056130499579012 13.214515583356841 19.619832038879395
leaf_count=217813 1282 465 19178 4687 21331 1052 1650 5924 13385 4701 8458 1443 15323 639 13511 2325 21145 2917 1062 3593 26198 7108 469 5195 1725 1245 61817 2011 1390 67
internal_value=-0.0164834 -0.00242935 -0.0376334 0.0247315 0.0310913 -0.00115547 -0.0831279 -0.0371794 0.0349836 -0.020105 0.049944 -0.0737698 -0.0331752 0.00915683 -0.105677 0.0169568 0.00275161 0.00264164 -0.168716 -0.136563 -0.149744 -0.158483 -0.0591898 -0.253981 -0.0712221 -0.236042 -0.121186 -0.260174 -0.32558 -0.13206
internal_weight=7701.41 6184.23 2693.32 3490.91 3379.79 1494.79 1198.54 644.414 3334.27 712.101 2622.17 1517.18 667.689 1431.92 849.489 1356.97 474.141 514.517 111.115 554.122 391.497 431.798 122.324 45.5247 53.7828 62.866 193.548 57.3323 39.2706 74.9513
internal_count=469109 111859 46632 65227 54352 5793 40839 10491 47875 18086 29789 357250 99728 4083 257522 3377 22588 4567 10875 30348 39709 26286 4062 6477 2787 1710 77140 8088 3401 706
is_linear=0
shrinkage=0.05


Tree=20
num_leaves=31
num_cat=0
split_feature=59 59 11 51 34 15 44 52 6 71 14 66 36 45 43 22 6 27 19 60 47 36 69 16 11 50 44 25 60 61
split_gain=2491.41 2303.83 2716.02 2327.25 1590.58 2350.34 1698.51 1175.41 898.067 893.678 838.996 676.961 636.637 626.126 546.099 500.286 470.626 464.678 459.587 459.273 565.771 409.349 351.848 334.617 290.207 253.984 238.301 237.444 234.537 187.681
threshold=6.0873546600341806 6.7794780731201181 18.358294486999515 9.0474267005920428 0.16892982274293902 14.897370815277101 8.2630686759948748 6.6894652843475351 11.091446399688722 15.725608825683596 14.046582698822023 23.010170936584476 1.5815486907958987 2.8829414844512944 3.7075828313827519 8.93457078933716 10.597940444946291 6.0369863510131845 -13.395508766174315 10.169886589050295 1.4697201848030093 -0.25260448455810541 36.187217712402351 4.631732940673829 11.818033695220949 84.81207656860353 15.805158615112306 1.8111366033554079 2.6625560522079472 7.6281816959381112
decision_type=2 2 2 2 2 2 2 2 2 2 2 2 2 2 2 2 2 2 2 2 2 2 2 2 2 2 2 2 2 2
left_child=13 7 3 8 10 26 -7 25 21 -9 -4 -10 17 14 28 23 -16 -11 -12 20 -5 -3 -21 24 -15 27 -6 -2 -1 -25
right_child=1 2 4 19 5 6 -8 9 11 12 18 -13 -14 15 16 -17 -18 -19 -20 22 -22 -23 -24 29 -26 -27 -28 -29 -30 -31
leaf_value=-0.23067159245598146 -0.23615690342286572 -0.32901248789649801 0.15117555475847877 -0.18289910213155958 -0.23102818031845052 0.034343752995988672 -0.042553121158639011 -0.27682610214718767 -0.32548329139828031 0.052211481787647951 -0.17859706138552683 0.022871340752671703 -0.08860110947797388 -0.14309110298391711 -0.066851338911712174 0.046628144590467734 -0.24658756487452296 0.11252005932682257 0.046921596213037944 -0.19468526397690769 -0.081698818277451679 -0.091031210512331137 -0.0018755667938362562 -0.18801393031073449 0.0072982743137689852 -0.1741690890596288 -0.101071102063159 0.013929690141706275 0.025063067165689231 -0.029633666109558216
leaf_weight=9.3819628078645092 11.455421123420818 22.889350114246682 233.1207983866334 438.19960031716619 116.39088695042301 1666.3757055104652 1261.9278043507657 18.552993111370597 14.278287589540353 695.11725213285536 23.732850662452165 599.9123640520653 58.594857462943764 75.88768858262938 307.15094556803973 37.089276075363159 41.319853751231733 590.92286472200067 469.71501268165093 31.09129704372026 201.6671196911484 85.813972470115786 99.01133090921212 255.94312640718999 55.567458190431353 54.814481418579817 50.615031433175318 55.352755105122924 201.94611253724361 20.179814686067402
leaf_count=1608 2221 1698 400 42237 3940 3197 24247 1484 494 4543 685 3661 3632 21689 239825 44 8735 850 1426 3244 49656 3619 4155 16043 3065 7414 10176 3745 945 416
internal_value=-0.0113857 -0.000527457 -0.0159107 -0.0731012 0.00642843 -0.00919929 0.00120569 0.0545356 -0.00867233 0.0678236 0.0730053 0.014773 0.072579 -0.0848888 -0.0497057 -0.129181 -0.0881635 0.0799227 0.0360751 -0.133591 -0.151004 -0.141142 -0.0479523 -0.14518 -0.0795199 -0.0944003 -0.191642 -0.028952 0.0137097 -0.176439
internal_weight=7804.02 6799.55 5314.74 1492.86 3821.88 3095.31 2928.3 1484.81 722.894 1363.19 726.569 614.191 1344.63 1004.47 559.799 444.667 348.471 1286.04 493.448 769.969 639.867 108.703 130.103 407.578 131.455 121.623 167.006 66.8082 211.328 276.123
internal_count=469094 176724 152835 108764 44071 41560 27444 23889 9472 10509 2511 4155 9025 292370 251113 41257 248560 5393 2111 99292 91893 5317 7399 41213 24754 13380 14116 5966 2553 16459
is_linear=0
shrinkage=0.05


Tree=21
num_leaves=31
num_cat=0
split_feature=62 52 13 31 72 65 72 44 53 40 8 68 69 69 50 70 15 50 36 31 69 23 69 21 37 29 31 43 68 44
split_gain=2519.63 1848.16 1554.59 1891.37 1349.28 1249.64 1612.59 1159.13 914.98 756.894 731.701 702.454 588.129 561.564 928.403 559.179 841.071 545.565 599.192 540.136 478.884 328.497 325.876 325.741 303.092 239.218 392.283 239.193 221.885 220.653
threshold=2.0812387466430669 6.5620718002319345 13.768527030944826 -8.4506292343139631 32.352487564086921 52.480060577392585 39.539407730102546 18.844999313354496 6.9839937686920175 2.9356873035430913 1.633192837238312 45.503160476684577 24.313757896423343 19.979636192321781 54.264312744140632 24.923315048217777 4.7034289836883554 80.596145629882827 1.5815486907958987 -10.976402282714842 45.700492858886726 3.162337183952332 49.494718551635749 20.97932052612305 4.6102433204650888 1.117517411708832 -2.7782987356185909 3.4710793495178227 30.934013366699222 15.535225868225099
decision_type=2 2 2 2 2 2 2 2 2 2 2 2 2 2 2 2 2 2 2 2 2 2 2 2 2 2 2 2 2 2
left_child=4 -2 8 7 13 15 12 10 -3 27 -4 -11 -7 17 -15 -6 20 29 21 -18 -17 -19 -14 -5 -25 -16 -27 -10 -9 -1
right_child=1 2 3 23 5 6 -8 28 9 11 -12 -13 22 14 25 16 19 18 -20 -21 -22 -23 -24 24 -26 26 -28 -29 -30 -31
leaf_value=-0.17958063416112857 -0.079167517260783304 -0.14065090704377897 0.11100668663200569 -0.1826156241911355 0.030525599045566117 -0.35034700349983849 -0.12384761403143507 -0.0018850644119355565 -0.039619384570229621 0.029443775682727737 0.01491580270380451 0.086811659649881176 0.063762691778016856 -0.0062398038793205152 -0.11428163663514022 -0.16398571848339599 -0.045097779505803029 -0.1305486368844738 -0.16843200416479667 -0.1250071231379376 0.027100054359871339 0.015850179776634079 -0.23118159085030526 0.0047115846822109973 -0.093393666624941168 -0.27197807113329059 -0.13794704683283571 -0.28645525340485678 -0.15240503184674731 -0.057433488253272116
leaf_weight=113.59465153142901 503.88439989089966 61.396848976612091 284.02765893295191 79.312073221140963 164.24077032186324 8.8605481190170376 155.49561540782452 32.615019553239108 19.718411737892893 1033.2455054244899 654.92861367534306 1103.4836615595443 671.82156087670592 96.180370007874444 87.649734415113926 37.372458427969832 354.59582202509046 44.379905994050205 66.939019292593002 523.91625940811355 267.28068586438894 280.50267532933503 9.4974951094627595 99.02647399637317 384.08122779164114 121.82304503023624 98.920858189463615 19.540739423347986 98.207260847499128 54.813584749819711
leaf_count=15702 127984 7448 201 5922 1212 441 39871 158 226 12175 1243 8804 6170 46372 17214 15559 2508 7110 5971 39401 23048 6882 428 320 18411 2295 7697 591 1126 46633
internal_value=-0.0136694 0.0109052 0.0226342 -0.0144706 -0.0477037 -0.0260259 0.0216152 0.0245555 0.0497025 0.0550734 0.0439826 0.0590706 0.0543876 -0.0969792 -0.141868 -0.055927 -0.0679279 -0.0645627 -0.0322146 -0.0927531 0.00365915 -0.00414832 0.0596512 -0.0887021 -0.0732842 -0.184167 -0.211915 -0.162479 -0.114879 -0.139824
internal_weight=7531.35 4373.47 3869.58 1632.2 3157.89 2193.08 845.675 1069.78 2237.39 2175.99 938.956 2136.73 690.18 964.804 404.574 1347.41 1183.17 560.23 391.822 878.512 304.653 324.883 681.319 562.42 483.108 308.394 220.744 39.2592 130.822 168.408
internal_count=469123 184609 56625 27381 284514 128638 46910 2728 29244 21796 1444 20979 7039 155876 73578 81728 80516 82298 19963 41909 38607 13992 6598 24653 18731 27206 9992 817 1284 62335
is_linear=0
shrinkage=0.05


Tree=22
num_leaves=31
num_cat=0
split_feature=44 16 41 68 9 68 21 59 69 11 28 7 44 45 29 24 12 45 11 41 30 50 29 64 29 14 71 21 44 37
split_gain=2107.12 1991.18 1721.36 1495.15 2072.12 1600.92 1594.52 1374.54 1088.07 1020.23 851.65 823.909 812.156 930.797 479.009 463.215 447.499 399.976 387.16 312.092 618.475 273.168 254.032 249.447 247.64 240.843 237.715 234.084 169.262 186.62
threshold=18.559075355529789 10.550828456878664 4.8001317977905282 49.80421447753907 25.142869949340824 43.269836425781257 52.687892913818366 6.7794780731201181 20.940689086914066 26.435694694519047 10.184756755828859 13.301414012908937 8.491737365722658 1.0000000180025095e-35 3.6600725650787358 1.9960082173347475 17.620655059814457 13.354367733001711 21.26064491271973 7.2937195301055917 5.0121765136718759 105.32674026489259 19.286042213439945 3.162813782691956 2.7933118343353276 28.667303085327152 17.221269607543949 54.554727554321296 2.1171516180038457 2.6331300735473637
decision_type=2 2 2 2 2 2 2 2 2 2 2 2 2 2 2 2 2 2 2 2 2 2 2 2 2 2 2 2 2 2
left_child=1 2 10 5 21 6 7 -3 25 17 12 -10 13 -1 28 -8 18 -6 -2 -16 -21 24 -23 -20 -5 -7 -14 -18 -4 -30
right_child=16 3 14 4 9 8 15 -9 11 -11 -12 -13 26 -15 19 -17 27 -19 23 20 -22 22 -24 -25 -26 -27 -28 -29 29 -31
leaf_value=0.078749195829313126 -0.076037423716673269 0.030353763675220254 0.021220940338728844 -0.13837351481917667 0.037311040869173903 -0.21675092834834106 0.066298416561029569 -0.068535506968024837 0.093013294433088381 -0.27103228442985 0.1776894042762005 0.031378670940629287 -0.28727442583055823 -0.097288625950829807 -0.13402457941028087 -0.15828396171749859 -0.13975206002986348 -0.23969601360104781 0.052647300653234357 -0.42644981378850394 -0.14440413802936958 -0.17127556743445418 -0.041235375284738425 -0.11570373174328273 -0.35446467721131869 -0.0071300489422714101 0.038966962571342426 -0.030195467441294706 0.045930659556997259 -0.12119791590507326
leaf_weight=90.871694477968106 449.0276517868042 535.04496232583188 26.854146509620477 22.471059349831194 421.56050730942871 43.698916238208767 635.12949923241104 1023.7677581283497 972.85631701274542 30.362202525138855 53.505502374406205 1224.9009727877565 5.6812044935229542 432.37636613347007 74.247125736670569 23.821114212259999 321.51670084521174 13.447107899197077 111.59719893708825 36.74019290949218 41.269794959574938 157.9049534285441 49.274871051311493 27.406943824142218 32.338500347454101 19.962184131145477 325.21370873585033 57.472119230777025 17.8670774418988 256.39425453460899
leaf_count=65 292049 2523 388 1668 641 1041 636 10612 1506 544 147 3136 1545 12658 1729 380 46103 281 2078 2288 4286 4125 273 6555 1023 64 1110 7960 223 61412
internal_value=-0.0118625 -0.00171639 -0.0555639 0.0123597 -0.0541313 0.0231569 -0.00702791 -0.0345929 0.052759 0.00918948 -0.0158226 0.0586618 -0.0279446 -0.0667164 -0.135126 0.0581797 -0.0807705 0.0287481 -0.0534643 -0.207401 -0.277239 -0.166607 -0.140347 0.0194541 -0.265871 -0.15102 0.0333657 -0.123138 -0.0985799 -0.11031
internal_weight=7534.58 6567.56 1361.02 5206.54 727.359 4479.18 2217.76 1558.81 2261.42 465.37 907.648 2197.76 854.143 523.248 453.373 658.951 967.021 435.008 588.032 152.257 78.01 261.989 207.18 139.004 54.8096 63.6611 330.895 378.989 301.115 274.261
internal_count=469049 114304 85851 28453 8555 19898 14151 13135 5747 1466 15525 4642 15378 12723 70326 1016 354745 922 300682 8303 6574 7089 4398 8633 2691 1105 2655 54063 62023 61635
is_linear=0
shrinkage=0.05


Tree=23
num_leaves=31
num_cat=0
split_feature=68 6 50 50 71 41 21 45 31 36 53 68 64 10 34 45 28 16 68 70 42 54 41 37 54 17 50 50 29 16
split_gain=1657.35 1537.13 1957.47 2300.29 1996.36 1135.23 1130.94 955.983 1123.94 872.232 814.739 727.898 703.573 701.022 681.659 640.259 605.132 558.522 549.1 827.737 477.187 452.226 439.745 388.565 372.841 361.627 303.769 301.274 295.123 283.715
threshold=49.80421447753907 11.596196651458742 117.68807983398439 156.47134399414065 22.901989936828617 1.792274057865143 7.0861999988555917 7.9151978492736825 -3.1974619626998897 -9.491330146789549 14.361320972442629 33.479349136352546 7.8898804187774667 9.3638820648193377 0.6296924650669099 3.8363219499588017 10.184756755828859 4.7454261779785165 44.401206970214851 42.097616195678718 7.8562238216400155 8.641268730163576 3.0914937257766728 1.584103047847748 5.0596487522125253 19.696691513061527 105.32674026489259 112.03617477416994 1.2098510861396792 10.550828456878664
decision_type=2 2 2 2 2 2 2 2 2 2 2 2 2 2 2 2 2 2 2 2 2 2 2 2 2 2 2 2 2 2
left_child=1 5 4 7 14 16 26 8 -4 15 11 -6 -9 21 20 -8 24 -11 23 -20 -3 -7 25 -5 -1 -19 -2 -26 -24 -15
right_child=6 2 3 18 10 13 9 12 -10 17 -12 -13 -14 29 -16 -17 -18 22 19 -21 -22 -23 28 -25 27 -27 -28 -29 -30 -31
leaf_value=-0.20693545933837332 0.061496721674543814 0.0087291970213206789 -0.30899427461118067 -0.30122970755863498 -0.014285256357198323 -0.070341247836395102 -0.14946598943389935 -0.012347672461216055 -0.10622543524546356 -0.038335070111376518 -0.23042820971692848 0.057975802603995291 -0.23046838183551951 -0.10756500176146684 -0.28353843546284729 0.048309463788897999 0.1759073979375636 -0.18050183249945079 -0.17905212260154707 0.019057664005226137 -0.20019160017746596 0.055478693511879208 -0.099467091284844419 0.019719105517538645 0.020435892708154303 0.0016206779105808454 -0.32474033290153609 -0.25939446531427768 -0.18008502572474952 -0.21230876100662638
leaf_weight=21.567173791232563 170.65355793535821 76.353323921503033 103.41509348154068 9.5053482167422754 410.65418954985216 218.03459405730609 53.817250891666845 234.0897642183819 201.50313800240372 206.98537895653863 26.717261536279693 2302.5152933559148 43.904462717473507 441.37677439144045 51.690032970160246 170.7749072414972 53.811452120542526 38.434461993936566 95.668195520775043 117.46216675148753 42.570053161529358 106.20219759873362 169.07714901831059 1196.5835354216397 246.52485116014856 93.721733891448821 5.2472039669740971 10.009120448260488 345.49200729407312 75.744032605583016
leaf_count=1860 12708 485 2927 164 10215 132647 9304 2426 17602 103696 1448 14351 1526 58763 4272 484 17 1797 2724 1028 4203 1386 47185 7082 584 358 482 221 21268 5752
internal_value=-0.0152435 -0.00445781 0.00782237 -0.0302314 0.0339995 -0.0558765 -0.06758 -0.113857 -0.174996 -0.0867565 0.044333 0.0470387 -0.0467961 -0.0867677 -0.131946 0.000918089 0.022429 -0.109822 0.0041158 -0.0698682 -0.0660565 -0.0291295 -0.132701 0.0171897 -0.00726846 -0.0513453 0.0499751 0.00951782 -0.153596 -0.122907
internal_weight=7340.11 6085.9 4912.63 2002.13 2910.5 1173.27 1254.2 582.912 304.918 1078.3 2739.89 2713.17 277.994 841.358 170.613 224.592 331.913 853.711 1419.22 213.13 118.923 324.237 646.725 1206.09 278.101 132.156 175.901 256.534 514.569 517.121
internal_count=468965 271683 70453 35479 34974 201230 197282 24481 20529 184092 26014 24566 3952 198548 8960 9788 2682 174304 10998 3752 4688 134033 70608 7246 2665 2155 13190 805 68453 64515
is_linear=0
shrinkage=0.05


Tree=24
num_leaves=31
num_cat=0
split_feature=45 59 62 57 55 41 58 50 72 45 65 45 50 1 58 62 51 5 65 68 27 62 65 37 61 16 42 45 33 34
split_gain=1924.15 2005.55 1727.3 1725.28 1184.08 1015.81 1089.3 973.981 1081.45 1007.57 970.128 926.895 867.094 855.476 730.597 608.892 541.191 537.87 453.767 424.098 417.444 376.077 360.738 353.268 337.228 332.575 330.287 309.728 278.234 276.686
threshold=4.1743075847625741 5.6780683994293222 7.1880669593811044 0.71199762821197521 0.82426470518112194 4.5092499256134042 2.4641304016113286 102.45977020263673 24.774888038635257 17.342932701110843 47.572309494018562 3.4162796735763554 108.13501358032228 53.785800933837898 4.478374958038331 0.60742425918579113 6.8457682132720956 25.402891159057621 51.428838729858406 33.479349136352546 5.2419233322143564 7.4110329151153573 34.923299789428718 2.3532853126525883 18.441747665405277 11.313803672790529 1.2492678761482241 4.3942885398864755 0.5677640736103059 1.0178318619728091
decision_type=2 2 2 2 2 2 2 2 2 2 2 2 2 2 2 2 2 2 2 2 2 2 2 2 2 2 2 2 2 2
left_child=2 27 5 12 7 11 13 9 -9 -5 14 18 16 -7 22 -15 29 23 26 -19 -6 -16 -4 -8 -23 -13 -1 -2 -18 -3
right_child=1 3 10 4 20 6 17 8 -10 -11 -12 25 -14 15 21 -17 28 19 -20 -21 -22 24 -24 -25 -26 -27 -28 -29 -30 -31
leaf_value=-0.31431971871810382 -0.013011837597753801 0.025934734083727786 -0.13890729802602919 0.069448877893513047 -0.23689292128935868 -0.082041379157032079 0.030483383452913383 -0.13046684670035555 0.022598525218098992 -0.19371986381926071 -0.12704276137871168 -0.17438605792229614 -0.16931104255730489 0.084692805561866993 0.18453854437227407 -0.15557555274502161 -0.039529089001863311 0.017602541277460842 -0.18909612792838371 -0.18012515333500917 -0.045814594957030143 0.051438888419586881 -0.0038626630191766357 -0.15744603263650825 -0.29154524160920281 -0.52412712039453968 0.010103192170178785 -0.13844420395240592 -0.20305794990212345 -0.26893123439206262
leaf_weight=7.9431132321134319 62.048610975826705 239.95496104055201 69.845858386252075 1763.6083957660492 47.714584729808848 392.28221155329811 26.096035760398081 123.65394780745464 1728.1108093840749 37.136060400585166 107.76155347866006 32.328207813700786 144.81837710738182 163.87425144948065 54.417247526347637 31.425154095515609 53.07436615823417 94.987186260095768 31.211973421837229 37.954977207311458 71.289528288703877 604.28692382038571 169.35711574205197 598.98669229770167 7.252655697753652 8.6070114941950759 637.00831211016362 237.95618506790106 51.011461643578969 8.2284996379166824
leaf_count=332 1291 1506 22337 5348 1716 212627 38 2248 10045 1665 30564 1566 9333 5290 166 7016 2918 662 1759 1512 1287 5357 12348 92416 797 205 3718 28814 4078 194
internal_value=-0.00812331 0.0124591 -0.038697 0.0212416 0.0327819 -0.0649546 -0.0905693 0.0378388 0.0123774 0.0640217 0.014774 -0.0168898 -0.066317 -0.0394726 0.0316576 0.0460318 -0.023976 -0.130177 -0.00290303 -0.0388487 -0.122427 0.0585795 -0.0432949 -0.1496 0.0473712 -0.247922 0.00610765 -0.112502 -0.119673 0.0161585
internal_weight=7644.23 4568.61 3075.63 4268.6 3771.51 2062.71 1345.61 3652.51 1851.76 1800.74 1012.92 717.099 497.088 587.582 905.16 195.299 352.269 758.025 676.163 132.942 119.004 665.957 239.203 625.083 611.54 40.9352 644.951 300.005 104.086 248.183
internal_count=469153 70443 398710 40338 22309 327141 319561 19306 12293 7013 71569 7580 18029 224933 41005 12306 8696 94628 5809 2174 3003 6320 34685 92454 6154 1771 4050 30105 6996 1700
is_linear=0
shrinkage=0.05


Tree=25
num_leaves=31
num_cat=0
split_feature=17 44 72 50 16 72 41 67 45 72 72 60 51 44 41 16 72 11 31 31 50 59 31 43 50 20 45 3 53 30
split_gain=1651.13 1556.66 1352.3 1263.55 1587.43 1408.19 1199.17 883.541 869.008 567.354 486.301 410.499 391.431 282.444 375.226 223.814 140.549 191.704 153.582 509.225 127.963 120.724 263.174 99.3072 92.9361 88.0636 79.317 77.996 94.4424 74.3213
threshold=7.1083345413208017 25.895786285400394 13.324705600738527 117.68807983398439 16.396115303039554 51.375545501708991 2.7666959762573247 54.616149902343757 4.1743075847625741 47.110998153686531 53.179019927978523 7.7256515026092538 7.0160467624664316 2.6850067377090459 19.582906723022464 9.2394065856933612 13.831398010253908 31.901542663574222 -10.038864135742186 -7.8054301738739005 107.4096145629883 7.371739625930787 -3.7072939872741695 7.6239390373229989 96.800361633300795 45.769584655761726 1.7884901165962221 3.7183125019073491 6.2708640098571786 8.7129077911376971
decision_type=2 2 2 2 2 2 2 2 2 2 2 2 2 2 2 2 2 2 2 2 2 2 2 2 2 2 2 2 2 2
left_child=9 2 21 5 6 7 -5 -4 -6 13 12 -7 20 15 27 -1 -3 18 -18 -20 -11 -2 -23 25 -17 -12 -14 28 -15 -29
right_child=1 16 3 4 8 11 -8 -9 -10 10 23 -13 26 14 -16 24 17 -19 19 -21 -22 22 -24 -25 -26 -27 -28 29 -30 -31
leaf_value=-0.14582087710322408 -0.17412453511577786 0.021797909749621442 0.041272886292627084 0.011241091340429388 -0.043422642791857716 -0.20579684236788048 -0.13600679103195043 -0.067118710737880546 0.029292268745042479 0.039264955661978546 -0.3178056113922077 -0.03329755360973731 -0.047897628454739216 -0.12673361343109843 -0.054608939444545347 0.046499270902634539 -0.077366778841658768 -0.242385007767558 -0.4576217913112352 -0.10889767191345134 -0.12388506261353947 -0.54152260290320664 -0.14039843880222089 -0.065194205555252807 -0.14193258831919317 -0.13131344284743549 -0.17759413223894002 -0.13604289641491374 -0.21766033587749478 0.0045995659247221356
leaf_weight=26.014441545675794 53.626321509733025 17.834337466680154 3353.8992309856694 208.51283097156602 605.75283352251654 75.530928590793337 410.4293498836123 199.17254159025424 1277.2174805033624 261.19623716390271 7.1950996670482388 63.47053113207221 20.451812550118223 48.262008741257887 162.70584694878926 61.331639392152738 146.66576206125319 29.882757683284581 12.429844558704643 66.344447841118381 12.598216320103516 7.7213132008910206 8.6924242132102503 67.262844363925979 7.3251143998003547 52.658538465287378 27.828196543576166 171.21845769695938 69.947086989879608 9.9385927040129882
leaf_count=2191 6288 6701 22115 816 5203 4210 12375 5086 4206 898 1047 859 16003 18784 184294 113 2424 3255 901 69658 548 148 942 63816 133 4802 2645 20188 7949 770
internal_value=-0.00624282 0.00293364 0.00802871 0.0104991 -0.0169343 0.0290892 -0.0864011 0.0351968 0.00589983 -0.0658771 -0.0240725 -0.127031 0.00861108 -0.0996059 -0.115726 -0.0209276 -0.113906 -0.123385 -0.107612 -0.163923 0.0317579 -0.210441 -0.329094 -0.106883 0.0263951 -0.153732 -0.122654 -0.148943 -0.180537 -0.128327
internal_weight=7543.12 6537.18 6264.03 6193.99 2501.91 3692.07 618.942 3553.07 1882.97 1005.93 449.191 139.001 322.074 556.743 462.072 94.6712 273.157 255.323 225.44 78.7743 273.794 70.0401 16.4137 127.116 68.6568 59.8536 48.28 299.366 118.209 181.157
internal_count=469368 145187 62248 54870 22600 32270 13191 27201 9409 324181 89759 5069 20094 234422 231985 2437 82939 76238 72983 70559 1446 7378 1090 69665 246 5849 18648 47691 26733 20958
is_linear=0
shrinkage=0.05


Tree=26
num_leaves=31
num_cat=0
split_feature=68 7 62 41 64 42 69 41 5 21 71 7 69 69 69 5 70 41 11 53 59 31 44 52 50 54 7 50 16 64
split_gain=1705.65 1502.62 1411.54 994.229 931.427 887.577 883.739 1296.54 1052.4 828.37 735.341 680.414 592.514 875.202 533.65 639.268 443.227 435.633 398.686 309.86 275.481 272.722 302.763 241.941 231.475 234.348 227.297 211.949 211.334 171.525
threshold=48.919977188110359 9.4261803627014178 2.0812387466430669 12.171341419219972 11.136042118072512 18.632957458496097 26.932086944580082 6.3054015636444101 16.90138149261475 6.6421258449554452 15.582499980926515 13.301414012908937 45.700492858886726 49.151035308837898 20.284709930419925 20.266348838806156 33.56096267700196 1.4253530502319338 23.162833213806156 11.757052421569826 9.2090430259704608 -3.0485786199569698 13.82026529312134 6.8207738399505624 164.87223052978518 14.205270290374758 40.269052505493171 104.56777954101564 7.9591786861419687 11.490419864654543
decision_type=2 2 2 2 2 2 2 2 2 2 2 2 2 2 2 2 2 2 2 2 2 2 2 2 2 2 2 2 2 2
left_child=1 17 4 10 6 19 8 -8 -3 27 -4 -12 14 20 15 -11 -7 28 -17 -5 -14 22 -16 29 25 -6 -15 -2 -1 -19
right_child=9 2 3 5 24 16 7 -9 -10 12 11 -13 13 26 21 18 -18 23 -20 -21 -22 -23 -24 -25 -26 -27 -28 -29 -30 -31
leaf_value=-0.13913837632778611 0.06206312672371439 -0.10133516576135559 -0.21317041618848998 -0.24300478199889644 -0.17333978250591825 0.038522212262747019 -0.0025826422543163714 -0.11984601447923665 0.048794780436537427 -0.13681370590378714 0.07491073218354026 0.024214489804196559 0.040742664211958414 -0.12773523061566563 -0.23827338870934123 0.038112899961520293 -0.073885981647692611 -0.086548260764520407 -0.25110626279839676 -0.085636204105666039 -0.16883261213561587 -0.095887765735879427 -0.12286121303284137 -0.15941594715118318 -0.0011698780899049661 -0.40236069302839894 0.037528015051874759 -0.26401574163188074 0.02560720875429719 -0.01142924201620661
leaf_weight=22.330055983143836 145.01566132761945 140.53251301762066 27.46584665607952 43.049340820557632 62.123859916697256 335.14124424870613 632.22468081180705 375.86127166866208 689.23968362808228 118.14004028954514 1196.4179071577819 1481.3041344447411 257.77146754082059 180.6868502497673 101.32556894083973 152.35243471199647 118.77229380477365 377.0815054422755 12.926616830285637 114.41660404205322 16.695807780663017 221.65632683417789 129.38780619541649 93.567811194660919 15.277957539074121 13.618585810181683 23.513127148151398 5.1607496454525963 151.7853662464243 95.17181677175904
leaf_count=1142 10531 12134 1721 2202 4314 12265 2142 24938 3707 38239 1853 3704 5258 61331 2045 882 15103 154240 318 1425 1164 77957 6508 12352 398 482 42 384 489 9994
internal_value=-0.00947928 0.00202164 0.0114309 0.0312112 -0.0225799 -0.0263742 -0.0148476 -0.0463039 0.0233684 -0.0599232 0.0442256 0.0468658 -0.0736221 -0.0303221 -0.101791 -0.0479944 0.00910917 -0.064681 0.0154928 -0.128659 0.0279942 -0.135496 -0.173548 -0.085963 -0.178707 -0.214518 -0.108706 0.0508576 0.00447882 -0.0714097
internal_weight=7350.01 5985.38 5245.45 3316.57 1928.88 611.379 1837.86 1008.09 829.772 1364.63 2705.19 2677.72 1214.46 478.667 735.789 283.419 453.914 739.937 165.279 157.466 274.467 452.37 230.713 565.821 91.0204 75.7424 204.2 150.176 174.115 472.253
internal_count=469264 264605 86388 38273 48115 30995 42921 27080 15841 204659 7278 5557 193744 67795 125949 39439 27368 178217 1200 3627 6422 86510 8553 176586 5194 4796 61373 10915 1631 164234
is_linear=0
shrinkage=0.05


Tree=27
num_leaves=31
num_cat=0
split_feature=68 7 9 59 45 68 59 59 36 9 3 43 16 68 38 45 45 50 47 34 39 16 50 20 33 43 31 37 17 50
split_gain=1841.04 1663.73 1299.57 1217.83 1137.26 1562.18 1312.18 1238.69 975.341 846.077 629.009 541.603 504.517 435.189 419.044 301.4 294.029 283.255 272.088 264.733 239.927 209.134 195.049 162.838 138.287 177.309 257.085 143.332 117.515 84.3272
threshold=49.80421447753907 9.4261803627014178 25.142869949340824 5.6780683994293222 4.1743075847625741 43.710618972778327 22.190045356750492 8.9282622337341326 12.595289230346681 29.495158195495609 3.1187281608581547 4.3684921264648446 4.7454261779785165 55.622510910034187 1.7111943364143374 3.022070169448853 1.4287735223770144 101.0537567138672 0.631984442472458 0.76434752345085155 4.3796048164367685 8.6451249122619647 74.741436004638686 31.132429122924808 0.13124877959489825 12.612102508544924 -7.2421889305114737 3.9858896732330327 30.673224449157718 92.956634521484389
decision_type=2 2 2 2 2 2 2 2 2 2 2 2 2 2 2 2 2 2 2 2 2 2 2 2 2 2 2 2 2 2
left_child=1 14 12 11 5 6 -5 -7 10 13 -6 15 22 -4 23 -3 -15 20 -10 -11 -16 -22 -2 -1 27 26 -26 -14 -21 -13
right_child=2 3 9 4 8 7 -8 -9 18 19 -12 29 24 16 17 -17 -18 -19 -20 28 21 -23 -24 -25 25 -27 -28 -29 -30 -31
leaf_value=-0.10436788565259797 -0.074767553416963825 0.02960885562837029 -0.150960104365712 -0.077865020632331777 -0.11436089252770801 0.062885727614972436 0.049652370457015829 -0.088304687952003108 -0.0028435037860021412 -0.17381545756403763 0.047744691769431045 -0.16006954866585396 0.047945359200459836 -0.28533214031164322 -0.15129771423946536 -0.13102088701063996 0.050611576228396599 -0.13785176685364736 -0.16873491866739063 -0.20185464627894578 -0.082692096456733963 -0.01163301950131819 0.032959676833456568 0.046060657691386703 -0.28829109666034797 -0.11537580811300284 -0.14811839383602576 -0.12052249980957108 0.037217962922575336 -0.26359867152942312
leaf_weight=21.702419794949378 118.03033273923211 76.240448715001207 30.614863720533322 859.7552017193043 61.02655031006725 829.09572002664208 263.59223914146423 161.93318188562989 38.691147329547675 79.075694105413277 3081.0545930695412 63.348061271914972 19.96298582432064 6.62662643682006 62.691448879581571 47.334278736893225 380.64205190349867 155.44676101945254 68.43813180711004 6.3088371541234656 202.42612875996656 211.97018224646422 65.244122043484822 105.17507593813309 42.396888971328735 245.42909561880515 143.17692918292596 34.350008645567868 27.746403932571411 28.526108637945967
