tree
version=v4
num_class=1
num_tree_per_iteration=1
label_index=0
max_feature_idx=115
objective=binary sigmoid:1
feature_names=Column_0 Column_1 Column_2 Column_3 Column_4 Column_5 Column_6 Column_7 Column_8 Column_9 Column_10 Column_11 Column_12 Column_13 Column_14 Column_15 Column_16 Column_17 Column_18 Column_19 Column_20 Column_21 Column_22 Column_23 Column_24 Column_25 Column_26 Column_27 Column_28 Column_29 Column_30 Column_31 Column_32 Column_33 Column_34 Column_35 Column_36 Column_37 Column_38 Column_39 Column_40 Column_41 Column_42 Column_43 Column_44 Column_45 Column_46 Column_47 Column_48 Column_49 Column_50 Column_51 Column_52 Column_53 Column_54 Column_55 Column_56 Column_57 Column_58 Column_59 Column_60 Column_61 Column_62 Column_63 Column_64 Column_65 Column_66 Column_67 Column_68 Column_69 Column_70 Column_71 Column_72 Column_73 Column_74 Column_75 Column_76 Column_77 Column_78 Column_79 Column_80 Column_81 Column_82 Column_83 Column_84 Column_85 Column_86 Column_87 Column_88 Column_89 Column_90 Column_91 Column_92 Column_93 Column_94 Column_95 Column_96 Column_97 Column_98 Column_99 Column_100 Column_101 Column_102 Column_103 Column_104 Column_105 Column_106 Column_107 Column_108 Column_109 Column_110 Column_111 Column_112 Column_113 Column_114 Column_115
feature_infos=[-890.864013671875:956.85406494140625] [-521.8016357421875:557.4169921875] [-1:0.99971449375152588] [0.005871232133358717:55.369453430175781] [0.0078039984218776226:44.302047729492188] [0.008293752558529377:43.856895446777344] [0.0040494636632502079:61.944972991943359] [0.27823078632354736:397.30789184570312] [0.0080529497936367989:54.554458618164062] [0.01014577504247427:43.538497924804688] [0.012089082039892673:43.659770965576172] [0.0062294462695717812:63.512985229492188] [0:86.555686950683594] [0.004136859904974699:55.215686798095703] [0.0051939589902758598:44.427742004394531] [0.0057733249850571156:44.103935241699219] [0.0031034732237458229:58.637561798095703] [-81.509048461914062:71.608055114746094] [-65.028762817382812:60.363918304443359] [-1.8540489673614502:43.741279602050781] [3.2712721824645996:25.548656463623047] [0.10750811547040939:10.776686668395996] [0.094705089926719666:10.295351982116699] [0.017218519002199173:6.0684914588928223] [0.044169161468744278:6.8273715972900391] [0.066025987267494202:6.5178914070129395] [0.12300509959459305:12.889674186706543] [-83.080619812011719:69.590522766113281] [-100.42002105712891:79.072319030761719] [-83.080619812011719:67.168968200683594] [0:35.023735046386719] [0:20.62718391418457] [0:0.78299778699874878] [0:0.37961024045944214] [0:44.41070556640625] [0:35.023735046386719] [-1:1] [-1.1545848846435547:1.1047816276550293] [-14.305831909179688:9.4997797012329102] [-67.344245910644531:81.509048461914062] [0:81.241714477539062] [0:0.99994277954101562] [0:1.6790478229522705] [0:1.399932861328125] [0.027427893131971359:43.741523742675781] [0.011362367309629917:45.141677856445312] [0.023635229095816612:45.222824096679688] [0.022097408771514893:47.226894378662109] [0.012945590540766716:43.409400939941406] [0.33047142624855042:38.057342529296875] [-0.99991971254348755:0.9997638463973999] [-0.99982750415802002:0.99914336204528809] [-0.99778008460998535:0.99788022041320801] [-0.99233448505401611:0.99768620729446411] [-0.95855629444122314:0.98826634883880615] [-0.86996668577194214:0.88159781694412231] [0:39.581066131591797] [0:39.138141632080078] [0:38.630191802978516] [0:8.5243330001831055] [0:10.723661422729492] [0:12.338071823120117] [0:56.736328125] [0:50.542839050292969] [0:39.243553161621094] [0:57.111305236816406] [0:50.412540435791016] [0:39.461643218994141] [-1:1] [0:63.039344787597656] [2.5740008354187012:368.74359130859375] [0.10666890442371368:40.188320159912109] [-66.495025634765625:60.166343688964844] [-48.350994110107422:42.943115234375] [-48.214427947998047:40.889297485351562] [-15.552002906799316:20.039615631103516] [-19.620471954345703:25.833765029907227] [-24.923774719238281:29.876731872558594] [-61.388088226318359:45.595100402832031] [-40.734767913818359:29.307537078857422] [-31.133975982666016:24.889211654663086] [0:39.723846435546875] [0:39.413997650146484] [0:39.138141632080078] [0:72.693580627441406] [0:50.957870483398438] [0:50.542839050292969] [0:72.693580627441406] [0:50.9154052734375] [0:50.412540435791016] [-15.553439140319824:20.039615631103516] [-19.364265441894531:25.833765029907227] [-25.015253067016602:30.071449279785156] none none none [0.0033237903844565153:72.693580627441406] [0.136243537068367:37.273303985595703] [0.016610078513622284:46.404930114746094] [0.0083333337679505348:1.3333333730697632] [0.01666666753590107:1.0909091234207153] [0.0026237040292471647:8.1836423873901367] [0:33.730968475341797] [1.751109266479034e-05:22.03931999206543] [1.427128040631942e-06:30.518444061279297] [-37.445182800292969:40.139148712158203] [0:226565824] [0:16.807888031005859] [-0.72578424215316772:39.533145904541016] [-0.83209437131881714:40.190284729003906] [-1.0028823614120483:39.754383087158203] [-0.75807148218154907:39.105716705322266] [4.2325692176818848:23.860540390014648] [3.6667697429656982:24.338394165039062] [4.0892152786254883:23.784858703613281] [5.0977902412414551:23.036382675170898]
tree_sizes=3398 3446

Tree=0
num_leaves=31
num_cat=0
split_feature=73 68 27 82 68 90 91 90 48 74 91 68 5 27 48 5 83 27 4 48 90 48 92 27 71 92 48 80 6 45
split_gain=2.09896e+06 304854 204817 182345 105569 86012.5 65140.3 45568.6 44542.6 26225.7 30020.2 25379.2 24490.5 21892 21248.7 18986.4 17640 13601.3 12202.3 12175.7 11109.7 11072 10962.5 8709 8407.23 8273.1 7347.48 7211.7 6559.25 6384.78
threshold=1.5992142558097842 0.42727707326412206 2.1675180196762089 7.6645801067352304 -0.12869213521480558 -0.57355117797851551 -1.5354733467102049 -0.85456466674804676 14.742339611053469 0.71872550249099743 -1.7181885242462156 -0.2927428930997848 12.765646934509279 2.8183641433715825 15.588643550872805 17.680435180664066 5.8559226989746103 3.7550411224365239 5.8127174377441415 9.4485836029052752 -0.73703813552856434 13.318479061126711 -0.20810222625732419 1.8369875550270083 7.0389881134033212 -3.8677177429199214 20.054570198059086 4.0141849517822275 5.9051682949066171 15.106484413146974
decision_type=2 2 2 2 2 2 2 2 2 2 2 2 2 2 2 2 2 2 2 2 2 2 2 2 2 2 2 2 2 2
left_child=2 7 9 12 -4 15 21 11 13 -1 14 -2 16 -7 -11 17 -3 -5 -13 22 29 24 -9 -18 -6 -10 -20 -24 -23 -8
right_child=1 3 4 5 6 8 20 19 25 10 -12 18 -14 -15 -16 -17 23 -19 26 -21 -22 28 27 -25 -26 -27 -28 -29 -30 -31
leaf_value=-3.2320214033385679 -3.0198688204376287 -3.1853451498063787 -3.1550278316969083 -2.1587899681715634 -2.9866757248015912 -2.4891581213456906 -2.4675085825928842 -2.4548560474629459 -2.5286089430310836 -2.3758569634352034 -3.1493174684878835 -3.1138507231565002 -3.1941102292820585 -2.1710225027123871 -3.079803302388215 -2.9515796580460862 -2.816813404555802 -1.9992605535752077 -2.2686791714274257 -3.1734673636691255 -3.0117004981835755 -2.7953469995382947 -3.1720308861958757 -2.4002740135621687 -2.0810623800477344 -3.2501915176998248 -2.6702536886135184 -2.6532415230915594 -2.3319703656835156 -3.2667347314095618
leaf_weight=8032.5890387371182 221.8704394698143 122.36232170090079 846.9182243347168 1566.2186379879713 26.66915924474597 862.8858192525804 186.90435742586851 136.46044436097145 53.966902900487185 265.48708522319794 1060.1774500235915 56.995768316090107 274.24886322021484 1448.5103522986174 179.79985249042511 55.298296213150024 179.83941834419966 9093.5393030904233 545.04786267131567 600.60721611976624 444.17237377166748 100.34904622659087 197.1844579577446 415.19951460883021 656.18041277304292 150.49361206963658 143.99928060173988 101.45376268029213 319.60752551630139 28.845461376011372
leaf_count=211018 4925 3105 20997 8877 575 10363 2167 1549 689 2611 26168 1368 7005 8550 4198 1155 3291 23692 4239 15103 9790 1795 4953 4278 2740 4006 2230 1538 2874 777
internal_value=-2.59172 -2.21962 -3.08874 -2.13828 -2.69623 -2.08927 -2.4758 -2.79704 -2.35236 -3.19613 -3.00462 -2.55038 -2.79223 -2.28979 -2.6601 -2.02749 -2.6386 -2.0227 -2.41076 -3.02755 -2.86872 -2.24068 -2.82613 -2.52617 -2.11643 -3.05973 -2.3526 -2.99579 -2.44269 -2.57436
internal_weight=28373.9 16226.2 12147.7 14222.6 2609.65 13230.9 1762.73 2003.62 2515.86 9538.05 1505.46 967.913 991.65 2311.4 445.287 10715.1 717.401 10659.8 746.043 1035.71 659.922 1102.81 435.099 595.039 682.85 204.461 689.047 298.638 419.957 215.75
internal_count=396626 110916 285710 75011 41715 57332 20718 35905 23608 243995 32977 12762 17679 18913 6809 33724 10674 32569 7837 23143 12734 7984 8040 7569 3315 4695 6469 6491 4669 2944
is_linear=0
shrinkage=1


Tree=1
num_leaves=31
num_cat=0
split_feature=73 48 33 90 48 92 72 90 71 14 48 113 92 72 11 83 88 21 98 10 90 11 48 22 11 48 49 72 52 74
split_gain=352338 41869.7 32483.5 30126.1 24610 21804.2 15122 18486.1 11146.9 10213.8 8049.75 11549.1 8672.25 7440.51 6811.74 6671.88 6368.36 5583.54 5160.13 4817.28 4772.39 4574.3 3556.69 3457.04 3371.05 3111.26 2781.93 2123.06 2027.79 1945.86
threshold=0.65556582808494579 21.804780006408695 0.0038500976515933876 -1.1174890995025633 14.006926059722902 -9.1804904937744123 1.6695548295974734 -0.34931540489196772 7.5067412853240976 13.495969772338869 11.157652854919435 5.4490120410919198 -1.3122777938842771 0.43014656007289892 10.076948165893556 5.2031016349792489 12.033492565155031 4.1886243820190439 6.4013972282409677 16.166658401489261 2.5491771697998051 6.9606306552886972 11.432866573333742 4.8192949295043954 5.4943218231201181 23.768047332763675 20.068804740905765 -0.66005736589431752 0.80116447806358349 0.88400462269783031
decision_type=2 2 2 2 2 2 2 2 2 2 2 2 2 2 2 2 2 2 2 2 2 2 2 2 2 2 2 2 2 2
left_child=3 2 6 4 8 18 7 23 -1 15 11 28 21 -6 -15 -4 17 -8 -3 -18 -17 -13 -9 -2 26 -16 -10 -26 -5 -14
right_child=1 5 9 10 13 -7 16 22 24 -11 -12 12 29 14 25 20 19 -19 -20 -21 -22 -23 -24 -25 27 -27 -28 -29 -30 -31
leaf_value=-0.038345797924156509 0.072254345256286295 -0.052940758254999755 -0.022128591343648404 0.18531445017998505 -0.012901558922091006 -0.029443953462662726 0.12240372395321897 0.18749363254480958 0.066472586935467481 -0.0076792897901534589 -0.041580625707843766 0.0047436015904129877 -0.020105763512614866 0.030417410273943724 0.46621672913715789 0.3096957851443235 0.32451705946427056 0.39937646520207515 0.39982522719260161 -0.020177222655311328 0.00095298726040069729 0.39111491078804661 0.0049817163252513143 0.374228615087007 0.27564991763557739 0.076950986181267292 0.58051296482101344 0.45888679259683685 1.2718365608722537 0.13452150616184777
leaf_weight=174.9217724353075 98.754132986068726 71.114872258156538 204.95796993374825 5.2540376149117973 1298.1955599077046 1009.1150789260864 182.95256765186787 697.34210070967674 124.71944969519973 516.98984432220459 5700.1568512916565 108.11253960430622 1166.3165051266551 285.13491475954652 220.13157648593187 1383.2839115709066 1894.1395189762115 33537.798218548298 546.72397585585713 107.09257173538208 137.61692154407501 262.85122391581535 432.48340034484863 2353.5950891971588 196.22066758573055 66.941119432449341 33.360600251704454 813.26078353822231 23.506901979446411 246.45292022079229
leaf_count=4089 1577 1527 4770 112 32642 22148 2293 9500 2341 9876 151303 2377 29863 6331 1401 10114 7422 57068 2032 1419 2560 2521 9582 10804 2149 1196 169 2304 25 5041
internal_value=0.298888 0.362605 0.372348 0.0424046 0.170543 0.113781 0.38291 0.284972 0.333883 0.187272 -0.0123956 0.0793889 0.0633623 0.0533064 0.203516 0.245671 0.392731 0.397874 0.347711 0.306071 0.28176 0.278512 0.11763 0.362068 0.389649 0.375446 0.174954 0.42327 1.07335 0.00686845
internal_weight=53899.5 43174 41547 10725.5 3212.89 1626.95 39304.2 3582.17 1342.48 2242.85 7512.65 1812.49 1783.73 1870.4 572.208 1725.86 35722 33720.8 617.839 2001.23 1520.9 370.964 1129.83 2452.35 1167.56 287.073 158.08 1009.48 28.7609 1412.77
internal_count=396556 152692 126985 243864 52622 25707 99665 31463 11052 27320 191242 39939 39802 41570 8928 17444 68202 59361 3559 8841 12674 4898 19082 12381 6963 2597 2510 4453 137 34904
is_linear=0
shrinkage=0.05


end of trees

feature_importances:
Column_48=10
Column_90=6
Column_27=4
Column_92=4
Column_11=3
Column_68=3
Column_72=3
Column_5=2
Column_71=2
Column_73=2
Column_74=2
Column_83=2
Column_91=2
Column_4=1
Column_6=1
Column_10=1
Column_14=1
Column_21=1
Column_22=1
Column_33=1
Column_45=1
Column_49=1
Column_52=1
Column_80=1
Column_82=1
Column_88=1
Column_98=1
Column_113=1

parameters:
[boosting: gbdt]
[objective: binary]
[metric: binary_logloss]
[tree_learner: serial]
[device_type: gpu]
[data_sample_strategy: bagging]
[data: ]
[valid: ]
[num_iterations: 1000]
[learning_rate: 0.05]
[num_leaves: 31]
[num_threads: 0]
[seed: 42]
[deterministic: 0]
[force_col_wise: 1]
[force_row_wise: 0]
[histogram_pool_size: -1]
[max_depth: 6]
[min_data_in_leaf: 20]
[min_sum_hessian_in_leaf: 5]
[bagging_fraction: 0.8]
[pos_bagging_fraction: 1]
[neg_bagging_fraction: 1]
[bagging_freq: 1]
[bagging_seed: 400]
[bagging_by_query: 0]
[feature_fraction: 0.8]
[feature_fraction_bynode: 1]
[feature_fraction_seed: 30056]
[extra_trees: 0]
[extra_seed: 12879]
[early_stopping_round: 0]
[early_stopping_min_delta: 0]
[first_metric_only: 0]
[max_delta_step: 0]
[lambda_l1: 0]
[lambda_l2: 0]
[linear_lambda: 0]
[min_gain_to_split: 0]
[drop_rate: 0.1]
[max_drop: 50]
[skip_drop: 0.5]
[xgboost_dart_mode: 0]
[uniform_drop: 0]
[drop_seed: 17869]
[top_rate: 0.2]
[other_rate: 0.1]
[min_data_per_group: 100]
[max_cat_threshold: 32]
[cat_l2: 10]
[cat_smooth: 10]
[max_cat_to_onehot: 4]
[top_k: 20]
[monotone_constraints: ]
[monotone_constraints_method: basic]
[monotone_penalty: 0]
[feature_contri: ]
[forcedsplits_filename: ]
[refit_decay_rate: 0.9]
[cegb_tradeoff: 1]
[cegb_penalty_split: 0]
[cegb_penalty_feature_lazy: ]
[cegb_penalty_feature_coupled: ]
[path_smooth: 0]
[interaction_constraints: ]
[verbosity: -1]
[saved_feature_importance_type: 0]
[use_quantized_grad: 0]
[num_grad_quant_bins: 4]
[quant_train_renew_leaf: 0]
[stochastic_rounding: 1]
[linear_tree: 0]
[max_bin: 255]
[max_bin_by_feature: ]
[min_data_in_bin: 3]
[bin_construct_sample_cnt: 200000]
[data_random_seed: 175]
[is_enable_sparse: 1]
[enable_bundle: 1]
[use_missing: 1]
[zero_as_missing: 0]
[feature_pre_filter: 1]
[pre_partition: 0]
[two_round: 0]
[header: 0]
[label_column: ]
[weight_column: ]
[group_column: ]
[ignore_column: ]
[categorical_feature: ]
[forcedbins_filename: ]
[precise_float_parser: 0]
[parser_config_file: ]
[objective_seed: 16083]
[num_class: 1]
[is_unbalance: 0]
[scale_pos_weight: 24.8965]
[sigmoid: 1]
[boost_from_average: 1]
[reg_sqrt: 0]
[alpha: 0.9]
[fair_c: 1]
[poisson_max_delta_step: 0.7]
[tweedie_variance_power: 1.5]
[lambdarank_truncation_level: 30]
[lambdarank_norm: 1]
[label_gain: ]
[lambdarank_position_bias_regularization: 0]
[eval_at: ]
[multi_error_top_k: 1]
[auc_mu_weights: ]
[num_machines: 1]
[local_listen_port: 12400]
[time_out: 120]
[machine_list_filename: ]
[machines: ]
[gpu_platform_id: -1]
[gpu_device_id: -1]
[gpu_use_dp: 0]
[num_gpu: 1]

end of parameters

pandas_categorical:null
