tree
version=v4
num_class=1
num_tree_per_iteration=1
label_index=0
max_feature_idx=115
objective=binary sigmoid:1
feature_names=Column_0 Column_1 Column_2 Column_3 Column_4 Column_5 Column_6 Column_7 Column_8 Column_9 Column_10 Column_11 Column_12 Column_13 Column_14 Column_15 Column_16 Column_17 Column_18 Column_19 Column_20 Column_21 Column_22 Column_23 Column_24 Column_25 Column_26 Column_27 Column_28 Column_29 Column_30 Column_31 Column_32 Column_33 Column_34 Column_35 Column_36 Column_37 Column_38 Column_39 Column_40 Column_41 Column_42 Column_43 Column_44 Column_45 Column_46 Column_47 Column_48 Column_49 Column_50 Column_51 Column_52 Column_53 Column_54 Column_55 Column_56 Column_57 Column_58 Column_59 Column_60 Column_61 Column_62 Column_63 Column_64 Column_65 Column_66 Column_67 Column_68 Column_69 Column_70 Column_71 Column_72 Column_73 Column_74 Column_75 Column_76 Column_77 Column_78 Column_79 Column_80 Column_81 Column_82 Column_83 Column_84 Column_85 Column_86 Column_87 Column_88 Column_89 Column_90 Column_91 Column_92 Column_93 Column_94 Column_95 Column_96 Column_97 Column_98 Column_99 Column_100 Column_101 Column_102 Column_103 Column_104 Column_105 Column_106 Column_107 Column_108 Column_109 Column_110 Column_111 Column_112 Column_113 Column_114 Column_115
feature_infos=[-2039.5943603515625:1212.2451171875] [-1134.104736328125:723.493408203125] [-1:0.99971449375152588] [0.0074091670103371143:64.989105224609375] [0.0085179982706904411:49.291007995605469] [0.013509055599570274:43.476299285888672] [0.0061499839648604393:78.644180297851562] [0.3463592529296875:38.183704376220703] [0.011470429599285126:65.188430786132812] [0.067284129559993744:51.676582336425781] [0.16398657858371735:47.690227508544922] [0.0098667861893773079:90.412109375] [0:100.23731231689453] [0.0013814505655318499:62.158443450927734] [0.010320204310119152:52.189498901367188] [0.011078455485403538:48.456829071044922] [0.0013313139788806438:66.533592224121094] [-97.774765014648438:83.384567260742188] [-66.543357849121094:87.209556579589844] [-1.3473501205444336:44.769496917724609] [-0.78039741516113281:25.628744125366211] [0.074188292026519775:11.011712074279785] [0.094705089926719666:10.415395736694336] [0.017218519002199173:13.699997901916504] [0.075673207640647888:14.762792587280273] [0.0060817701742053032:9.3151159286499023] [0.18814969062805176:12.954388618469238] [-89.731826782226562:99.688468933105469] [-134.4696044921875:100.57228851318359] [-134.10050964355469:91.601478576660156] [0:51.605751037597656] [0:20.054346084594727] [0:0.78299778699874878] [0:0.38210967183113098] [0:54.894451141357422] [0:51.605751037597656] [-1:1] [-1.4240525960922241:1.1541460752487183] [-15.426372528076172:9.4997797012329102] [-83.384567260742188:97.774765014648438] [0:90.94842529296875] [0:1] [0:1.7477066516876221] [0:1.477941632270813] [0.090761035680770874:43.750633239746094] [0.015086611732840538:45.273876190185547] [0.038315538316965103:45.272552490234375] [0.022097408771514893:47.411537170410156] [0.010373324155807495:43.492877960205078] [0.18368187546730042:38.453590393066406] [-0.99990129470825195:0.9997638463973999] [-0.99952477216720581:0.99914336204528809] [-0.99765890836715698:0.99789100885391235] [-0.99600088596343994:0.99936777353286743] [-0.95161503553390503:0.98826634883880615] [-0.91276836395263672:0.87834417819976807] [0:39.586673736572266] [0:39.221351623535156] [0:38.742374420166016] [0:9.125788688659668] [0:10.744699478149414] [0:12.338071823120117] [0:73.331710815429688] [0:57.955101013183594] [0:45.458320617675781] [0:73.331710815429688] [0:57.955101013183594] [0:45.956134796142578] [-1:1] [0:69.910919189453125] [4.046234130859375:368.6561279296875] [0.20458182692527771:40.250312805175781] [-63.804225921630859:59.638103485107422] [-55.6435546875:50.636325836181641] [-52.569713592529297:51.496723175048828] [-15.744968414306641:21.8988037109375] [-19.712799072265625:26.002399444580078] [-25.015253067016602:29.876731872558594] [-68.105026245117188:46.693119049072266] [-40.734767913818359:29.535537719726562] [-31.133975982666016:24.97967529296875] [0:39.731166839599609] [0:39.451431274414062] [0:39.221351623535156] [0:89.550811767578125] [0:62.458950042724609] [0:57.955101013183594] [0:79.641975402832031] [0:62.458950042724609] [0:57.955101013183594] [-15.106813430786133:21.8988037109375] [-19.856260299682617:25.833765029907227] [-25.015253067016602:29.876731872558594] none none none [0.0070165623910725117:93.184066772460938] [0.20432910323143005:37.273303985595703] [0.026173340156674385:52.537540435791016] [0.0083333337679505348:1.9016393423080444] [0.01666666753590107:1.8064515590667725] [0.0026237040292471647:8.0738840103149414] [0:45.282489776611328] [2.8104301236453466e-05:26.464035034179688] [4.8960159801936243e-06:41.847301483154297] [-48.449901580810547:47.949123382568359] [0:721669184] [0:16.807888031005859] [-0.72694313526153564:41.565895080566406] [-0.80539190769195557:43.441631317138672] [-0.78563004732131958:43.201053619384766] [-0.75885194540023804:41.879726409912109] [0.40698820352554321:23.860540390014648] [0.057217009365558624:24.329673767089844] [0.095136947929859161:23.780532836914062] [0.46625545620918274:23.036382675170898]
tree_sizes=3372 3425 3436 3434 3424 3427 3442 3449 3434

Tree=0
num_leaves=31
num_cat=0
split_feature=47 71 47 47 71 71 19 47 32 104 23 61 111 78 61 15 56 16 34 23 47 49 78 60 25 91 71 13 115 106
split_gain=6.0454e+06 119075 107248 75509.1 47430.7 32766.1 18917 17103.7 18560 14346.4 14279.9 14226.1 13282.1 13901.6 14815.5 12646.3 11923.4 10026.6 9493.01 7868.12 7821.37 11424 15880.9 6515.03 6512.74 5291.92 4857.97 4845.5 4630.1 4328.17
threshold=4.1467928886413583 3.6771188974380498 5.47092628479004 3.3428614139556889 7.1819372177124032 5.3490703105926523 37.604972839355476 2.3953450918197636 0.055869175121188171 2.3086739778518681 3.6677627563476567 0.41748419404029852 28.274478912353519 2.3786658048629765 2.3483508825302128 5.7803983688354501 3.5872666835784917 7.097172975540162 3.5481349229812627 3.4533042907714848 6.9991955757141122 14.926424980163576 -3.0208916664123531 0.87184676527977001 3.6905219554901127 -1.6530268192291258 5.0237562656402597 8.7190952301025408 17.548518180847172 7.6773021221160898
decision_type=2 2 2 2 2 2 2 2 2 2 2 2 2 2 2 2 2 2 2 2 2 2 2 2 2 2 2 2 2 2
left_child=1 6 4 7 9 11 -1 16 17 18 15 -5 13 14 -6 -7 -3 -9 -2 28 21 24 -23 -20 -4 -21 -18 -12 -14 -10
right_child=2 3 20 5 12 10 -8 8 29 -11 27 -13 19 -15 -16 -17 26 -19 23 25 -22 22 -24 -25 -26 -27 -28 -29 -30 -31
leaf_value=-3.6507013990359596 -3.6506770494782002 -3.6508861275361211 -3.6073867310865317 -1.8828710621078488 -3.2187738243949777 -2.2623597935877786 -1.796690094544608 -1.8763834873839709 -3.3698228767667566 -3.5802173498930761 -2.0067607189034993 -3.6215263675067715 -3.5458914158011154 -3.4310280818839107 -2.2090955758958097 -3.0193941822486932 -1.9587163818837396 -2.2247133016296918 -2.1140630656339172 -3.6506880436950921 -3.6409214547115192 -2.4124288943421748 -3.4330299378424605 -3.6506880444568415 -2.061109086206141 -2.0780028785758877 -1.7655095739911939 -2.6046015759057974 -1.9926573887737544 -2.3392139339750857
leaf_weight=107.32695119827986 21.450432142242789 8.4718546569347364 506.77505488321185 14.482296485453842 59.274200728163123 160.69522992148995 15.781416492536662 1878.8575771544129 26.043380266055465 285.4429620206356 441.61432148516178 62.707966137677431 17.44975691661239 74.925016855821013 93.8694864846766 84.004325043410063 340.4497699085623 232.11434693820775 39.271842245012522 5.5698426384478799 8425.666202545166 54.641852667555213 126.02353882603347 8.3677169885486347 6.9024682044982901 134.88120394572616 7335.3268377613276 36.710215918719769 6.6174998190253964 16.732343165203929
leaf_count=4143 828 327 19135 61 1790 1863 40 7675 863 10627 2924 2385 638 2572 991 2211 1936 2521 342 215 323636 793 4331 323 53 1080 14143 670 42 219
internal_value=-2.68655 -1.86693 -3.58045 -1.84904 -3.00451 -2.31612 -3.41303 -1.81105 -1.93558 -3.42374 -2.21158 -3.29532 -2.62593 -2.87294 -2.59989 -2.52225 -1.77615 -1.91468 -2.77724 -2.28351 -3.62763 -3.46633 -3.12435 -2.38397 -3.58661 -2.14037 -1.77408 -2.05264 -3.11882 -2.96669
internal_weight=20628.4 10761.3 9867.13 10638.2 747.12 800.214 123.108 9838 2153.75 354.533 723.024 77.1903 392.587 228.069 153.144 244.7 7684.25 2110.97 69.09 164.518 9120.01 694.343 180.665 47.6396 513.678 140.451 7675.78 478.325 24.0673 42.7757
internal_count=409377 41981 367396 37798 19448 10114 4183 27684 11278 12120 7668 2446 7328 5353 2781 4074 16406 10196 1493 1975 347948 24312 5124 665 19188 1295 16079 3594 680 1082
is_linear=0
shrinkage=1


Tree=1
num_leaves=31
num_cat=0
split_feature=47 71 92 49 47 71 78 74 71 109 47 75 83 44 92 70 22 47 109 59 61 49 82 49 63 104 110 50 21 13
split_gain=399124 7974.08 6381.68 9178.29 6268.31 5960.09 3525.64 2773.91 3348.25 2570.05 1793.31 4661.44 3117.12 2059.84 1643.86 1521.18 1459.8 1110.01 1081.15 1265.23 1015.86 1243.02 696.847 7991.2 7611.67 520.86 517.944 458.898 332.922 287.597
threshold=5.9013192653656015 3.4053466320037846 20.006621360778812 15.989169597625734 4.613178253173829 6.6008629798889169 -0.11573179438710211 -3.4832262992858882 6.6008629798889169 6.9635922908782968 7.4544246196746835 0.99882888793945324 7.1236360073089608 4.4174311161041269 15.469473361968996 219.25674438476565 5.6486945152282724 2.9920486211776738 38.443353652954109 0.97977134585380565 6.2479541301727304 9.1097149848938006 10.406723499298097 14.565875530242922 5.6388103961944589 1.5472568273544314 36.548513412475593 0.96162348985672008 7.8966603279113778 2.8751151561737065
decision_type=2 2 2 2 2 2 2 2 2 2 2 2 2 2 2 2 2 2 2 2 2 2 2 2 2 2 2 2 2 2
left_child=1 26 10 -4 7 20 16 8 25 27 11 18 -13 -14 -8 -11 -7 -10 28 -20 29 -22 23 -12 -25 -3 -1 -9 -2 -6
right_child=2 4 3 -5 5 6 14 9 17 15 22 12 13 -15 -16 -17 -18 -19 19 -21 21 -23 -24 24 -26 -27 -28 -29 -30 -31
leaf_value=-0.051429991318977963 -0.051404699809638188 0.33617410828764105 0.033076701522501958 1.7480630457002797 0.10504693884314519 0.11581225526371459 0.12560351201639938 -0.056794277684640349 0.31737308265201869 0.3379959730678837 -0.051310218667062972 -0.051549609348927376 1.3757272983960456 0.35244167385065739 0.7302748430344308 -0.055162323292930943 0.39174196585116022 0.0040010830604089659 -0.05140225605656841 1.0456774514019487 1.0446845455033231 -0.051386915711763043 -0.051028825710704453 0.69891188678858607 -0.051311405039855068 -0.054966071927581885 0.33231833845418524 0.32058868143747182 0.10979158775945136 -0.051516329693646036
leaf_weight=143.5324230492115 545.17939289659262 9.2768711019307357 21.655816055834293 12.194708846509455 34.524692414328456 53.826528865844011 305.99204641953111 48.663608865812421 326.08243012987077 49216.700192924589 1263.8150168918073 56.943260330706835 5.1253062114119521 121.52218816429377 11.668621122837065 24.615155875682831 437.80932216346264 30.939634203910828 5.5397019870579225 5.0001312606036663 5.0051595531404001 5.353197630494833 6466.6987223289907 73.125009089708328 62.884182885289192 103.13633581995964 9.3666650988161546 9.6534667331725341 34.030540864914656 195.02770865149796
leaf_count=5615 20840 8 821 42 716 906 6069 570 287 40977 50746 2147 56 1290 119 427 2220 437 210 72 84 204 259623 1869 2525 1931 12 16 1172 7312
internal_value=0.279265 0.33262 -0.0342782 0.650903 0.333705 0.212761 0.277645 0.336255 0.215287 0.337407 -0.0369627 0.0356898 0.255705 0.393853 0.147815 0.337799 0.361532 0.290216 -0.0328016 0.469056 -0.0061134 0.478235 -0.0441051 -0.0121196 0.352044 -0.0226873 -0.0279214 0.00567548 -0.0419339 -0.0279692
internal_weight=59644.9 50971.2 8673.71 33.8505 50818.3 1049.21 809.297 49769.1 469.435 49299.6 8639.86 773.341 183.591 126.647 317.661 49241.3 491.636 357.022 589.75 10.5398 239.911 10.3584 7866.52 1399.82 136.009 112.413 152.899 58.3171 579.21 229.552
internal_count=409323 67910 341413 863 62283 17630 9314 44653 2663 41990 340550 25787 3493 1346 6188 41404 3126 724 22294 282 8316 288 314763 55140 4394 1939 5627 586 22012 8028
is_linear=0
shrinkage=0.05


Tree=2
num_leaves=31
num_cat=0
split_feature=47 68 48 96 91 73 47 75 55 83 36 71 47 109 50 71 42 21 20 25 47 71 57 108 8 28 56 115 83 71
split_gain=240069 5191.27 4453.91 8176.8 2382 2166.64 1594.33 4489.42 4457.52 2566.71 2010.37 1571.89 1561.75 1488.11 1407.63 1226.96 1163.44 1153.83 2600.56 912.739 908.183 862.027 558.08 249.327 190.124 176.026 153.251 784.942 583.684 94.5572
threshold=6.1138968467712411 -0.51965883374214161 4.886810541152955 3.1067252159118657 16.899785995483402 -4.7533891201019278 9.0200686454772967 1.6433601379394533 -0.13816349953413007 10.261113166809084 -0.19120110571384427 3.4053466320037846 2.6403155326843266 7.2405259609222421 0.28476479649543768 6.6008629798889169 0.74767413735389721 7.9473121166229257 20.643504142761234 3.5455753803253178 3.6764560937881474 6.5275628566741952 5.758902072906495 37.382192611694343 2.9638952016830449 18.6340446472168 10.632806777954103 5.7053775787353525 10.750508785247805 9.3977756500244158
decision_type=2 2 2 2 2 2 2 2 2 2 2 2 2 2 2 2 2 2 2 2 2 2 2 2 2 2 2 2 2 2
left_child=1 -1 3 14 6 12 7 17 10 -10 -9 24 21 -13 22 25 -6 19 -19 -2 -17 -4 -3 -14 -7 -5 27 -8 -29 -18
right_child=4 2 5 15 16 11 26 8 9 -11 -12 13 23 -15 -16 20 29 18 -20 -21 -22 -23 -24 -25 -26 -27 -28 28 -30 -31
leaf_value=-0.052805324473713916 -0.049678492559873298 -0.056695838617603717 -0.057002432661004181 -0.053954851285630573 -0.051983670582641799 0.24984194575822616 0.52556370351406312 0.66503666060854616 -0.037436121178901813 0.46818651204524814 -0.052784843147888776 0.05630233355485989 -0.053850999725081894 0.25353529167271377 -0.055714901654377036 0.26648490623330801 0.23340294486235705 0.0064126142593978232 0.70635157166004447 0.27286100573429728 -0.053272611042841658 0.23760685940835269 0.28011025492728736 0.30801994327290472 -0.051479160949439468 0.19296364448985548 -0.051247607308906019 -0.044737815477143478 0.10584932019304419 0.3884414967931431
leaf_weight=141.40079519152641 1049.9663136955351 12.521532397717236 28.572696499526501 365.1564328763634 25.301246009767056 5.8837607502937308 6.3318568356335154 58.488392490893602 123.70088694989681 31.488520428538322 11.706222098320721 95.782458793371916 99.001261860132217 61980.052238332108 33.899965614080429 61.561902588233352 12.574399901553987 62.790422491729259 16.826774522662163 22.402133453637362 34.735603272914886 189.52999545633793 692.66725906543434 5.0003639161586753 47.478927796706557 7.3634283393621436 5949.0671249423176 831.93655142560601 69.743554022163153 45.135523522272706
leaf_count=4336 41938 242 379 9995 916 14 119 296 4262 258 345 787 2374 48770 660 54 115 2167 47 430 948 156 478 12 1948 104 250605 33901 2489 43
internal_value=0.216878 0.249816 0.250488 0.155391 -0.0357803 0.252327 -0.0384669 0.0106223 0.214703 0.0651566 0.545327 0.252998 0.122984 0.253231 0.259001 -0.00794814 0.230718 -0.0293058 0.154342 -0.0429405 0.151145 0.199011 0.27413 -0.0364524 -0.0182555 -0.0490741 -0.0483273 -0.0291945 -0.0330901 0.35466
internal_weight=72118.1 63800.6 63659.2 1207.91 8317.46 62451.3 8234.45 1377.37 225.384 155.189 70.1946 62129.2 322.104 62075.8 739.089 468.817 83.0112 1151.99 79.6172 1072.37 96.2975 218.103 705.189 104.002 53.3627 372.52 6857.08 908.012 901.68 57.7099
internal_count=409188 71257 66921 12481 337931 54440 336857 49743 5161 4520 641 51519 2921 49557 1380 11101 1074 44582 2214 42368 1002 535 720 2386 1962 10099 287114 36509 36390 158
is_linear=0
shrinkage=0.05


Tree=3
num_leaves=31
num_cat=0
split_feature=47 47 78 81 92 68 56 58 26 47 75 49 92 74 92 23 17 8 42 26 20 71 55 51 108 26 55 45 56 49
split_gain=166627 4226.67 2948.92 2728.33 1896.79 1727.75 1514.37 1427.57 1307.23 1261.99 2995.89 2453.44 1246.61 1177.52 961.561 802.872 763.319 757.905 684.315 647.899 597.947 565.831 540.828 480.088 438.032 304.995 729.379 188.207 185.127 1672.1
threshold=6.1138968467712411 5.0410053730010995 -0.94343471527099598 3.5003322362899785 20.006621360778812 -0.50867599248886097 6.4597034454345712 23.834524154663089 4.7848439216613778 9.0200686454772967 1.0269906520843508 14.638450622558596 0.087773323059082045 -1.8102720975875852 11.632356166839601 4.0536487102508554 -1.7076443433761594 2.6309038400650029 0.76514375209808361 8.2886128425598162 20.509082794189457 10.26914691925049 -0.22554849833250043 -0.94109222292900074 30.009637832641605 10.509984970092775 -0.14417336881160733 4.1968190670013437 10.632806777954103 14.709208965301515
decision_type=2 2 2 2 2 2 2 2 2 2 2 2 2 2 2 2 2 2 2 2 2 2 2 2 2 2 2 2 2 2
left_child=1 3 6 21 9 -5 -3 14 23 10 25 17 -13 -10 22 -9 -16 -12 -6 24 -21 -1 -4 -7 -8 27 -27 -2 29 -11
right_child=4 2 7 5 18 8 19 15 13 28 11 12 -14 -15 16 -17 -18 -19 -20 20 -22 -23 -24 -25 -26 26 -28 -29 -30 -31
leaf_value=-0.052076382101534972 0.085128912629754222 -0.052027297366616931 0.11876328067868513 -0.053688320401076572 -0.052735768253526244 0.2277875963349307 -0.015949381007619848 0.19953466027938108 0.1715882283626578 -0.05121560377795286 0.25347449177724335 -0.054519842061578651 0.28718234793909525 0.20721521078619701 0.46838995592951166 1.0207480481923827 0.058107507553030152 -0.051480976377890932 0.27790548690517314 0.23267943666220867 0.68644697526535459 0.252321896898618 -0.052621325636004183 -0.059989419443445539 0.2241189234546187 0.67087038021471901 -0.051491671534445366 -0.049343978618818729 -0.051185578131735278 0.16473312741631344
leaf_weight=123.67384392209351 26.760461151599884 60.420232359319925 52.964358869940042 64.198649832978845 20.627248201519251 18.817004531621933 45.854443719610572 7.1250618770718557 2398.5031575690955 787.7751517817378 23.335133600980043 31.313963057473302 180.8208744879812 70207.889327086508 17.526710400357842 5.1114345900714397 32.097993211820722 160.57386832311749 64.838572110980749 369.24914867803454 7.4055868536233893 17.416542053222656 351.66446529328823 63.064044520258904 32.445729857310653 5.0615980345755842 11.286795226857064 940.31081430986524 5666.2756607681513 101.14913903549314
leaf_count=4618 958 2100 1019 1634 722 6 631 55 5132 34165 84 602 1162 42949 223 10 562 6594 128 1077 36 3 10335 676 149 96 419 39689 250619 2477
internal_value=0.180271 0.20377 0.100722 0.205158 -0.0361865 0.205584 0.183162 0.00964399 0.205813 -0.0387101 0.00475809 0.12087 0.236742 0.206038 -0.00471182 0.542572 0.203013 -0.012787 0.198105 0.214396 0.241601 -0.0145007 -0.0301877 0.00614434 0.0835292 -0.0420025 0.172158 -0.0456229 -0.0478575 -0.0266432
internal_weight=81895.6 73875.4 981.865 72893.6 8020.13 72752.5 515.375 466.49 72688.3 7934.66 1379.46 396.044 212.135 72606.4 454.254 12.2365 49.6247 183.909 85.4658 454.955 376.655 141.09 404.629 81.881 78.3002 983.42 16.3484 967.071 6555.2 888.924
internal_count=408930 71215 16197 55018 337715 50397 3993 12204 48763 336865 49604 8442 1764 48081 12139 65 785 6678 850 1893 1113 4621 11354 682 780 41162 515 40647 287261 36642
is_linear=0
shrinkage=0.05


Tree=4
num_leaves=31
num_cat=0
split_feature=47 47 33 97 28 47 49 91 26 81 112 6 23 92 8 23 5 109 96 81 51 17 56 49 36 49 100 50 38 25
split_gain=123797 3426.92 4968.14 2541.2 1985.86 1631.21 2415.23 2075.31 1591.37 1136.02 996.088 945.338 909.468 848.149 790.279 785.972 719.221 650.314 613.681 568.134 397.017 393.422 258.385 1705.8 2252.13 252.175 169.375 158.63 115.486 110.856
threshold=6.1138968467712411 3.7888793945312504 0.01526400586590171 3.1180409193038945 0.77837061882019054 8.6360054016113299 14.709208965301515 -0.23353052139282224 9.3405985832214373 3.5003322362899785 19.291646957397464 3.1298000812530522 2.4156092405319218 20.006621360778812 2.770475029945374 3.6868513822555546 14.489928722381594 6.9635922908782968 8.2070145606994647 1.0000000180025095e-35 0.97938972711563121 5.2819914817810067 10.632806777954103 14.565875530242922 -0.28965100646018976 15.989169597625734 0.9495762586593629 0.96162348985672008 9.1969671249389666 3.2521065473556523
decision_type=2 2 2 2 2 2 2 2 2 2 2 2 2 2 2 2 2 2 2 2 2 2 2 2 2 2 2 2 2 2
left_child=1 9 3 28 10 6 14 -8 -6 19 -5 -9 21 22 16 -13 -2 27 -19 -1 -4 -11 23 -7 -25 -15 -23 -14 -3 -30
right_child=5 2 20 4 8 13 7 11 -10 12 -12 15 17 25 -16 -17 -18 18 -20 -21 -22 26 -24 24 -26 -27 -28 -29 29 -31
leaf_value=0.21695845011450865 -0.051307923480582877 -0.05798592156825521 -0.052940094920746562 0.18867332308336682 0.055024512785685036 -0.051150905025160835 -0.051924946869104698 -0.053483901627209812 0.15983318179582709 -0.060715873698407301 -0.059151828109239413 0.12147953690472507 -0.059185129439458507 -0.051395627206048546 -0.051248606352501162 0.28271868954992463 0.31657260831231565 0.17793880812089896 0.15963490931584212 -0.052151666272403266 0.23449015590594124 -0.057603204207764339 -0.051127080998178615 -0.05235727107262677 0.33940852410017652 0.22123454464962658 0.1858269407975201 0.20395412410870298 -0.057170357084364201 0.26607733983422316
leaf_weight=25.902212884277105 24.552747756242752 151.48543266579509 362.86021790280938 2263.046619862318 696.01586008816957 823.11479018442333 150.17649840936065 41.302351824939251 755.08123410493135 56.627169655635953 41.285598516464233 152.21395855396986 36.246273040771484 10.879755012691019 737.76667657867074 150.12000669538975 28.952335834503174 72568.297294115648 4887.6859187744558 80.766271591186523 12.425294160842894 8.9167961403727514 5454.6890654861927 77.243373788893223 69.864330599084496 38.48490334302187 35.973746299743652 6.8021637983620158 5.0542678833007795 5.5812139511108398
leaf_count=4 1049 1983 11046 7373 8767 37562 5665 1230 4442 522 486 1817 307 430 32728 1136 6 27379 5677 3078 98 121 253255 2072 978 17 8 8 63 1
internal_value=0.15579 0.173853 0.130365 0.147013 0.15538 -0.0350983 0.0163584 0.103128 0.109562 0.176256 0.184233 0.170889 0.17648 -0.045312 -0.037792 0.201541 0.147757 0.176676 0.176784 0.0131961 -0.0434236 0.0269223 -0.0468982 -0.0231233 0.1337 0.161148 0.137473 -0.017606 -0.0468042 0.112461
internal_weight=89759.4 82000.1 4292.84 3917.55 3755.43 7759.36 1285.08 493.813 1451.1 77707.2 2304.33 343.636 77600.5 6474.28 791.272 302.334 53.5051 77499 77456 106.668 375.286 101.518 6424.91 970.222 147.108 49.3647 44.8905 43.0484 162.121 10.6355
internal_count=409308 71363 34259 23115 21068 337945 43631 9848 13209 37104 7859 4183 34022 294314 33783 2953 1055 33371 33056 3082 11144 651 293867 40612 3050 447 129 315 2047 64
is_linear=0
shrinkage=0.05


Tree=5
num_leaves=31
num_cat=0
split_feature=47 47 71 82 49 53 71 3 4 78 19 70 109 6 77 23 106 26 71 4 61 16 47 61 47 75 40 19 81 92
split_gain=96174.7 2768.72 2116.2 1986.83 5570.66 1385.94 1319.15 1258.06 1594.43 1163.05 1125.77 1003.59 894.994 785.942 746.779 739.638 618.009 977.171 832.338 539.594 524.663 395.622 372.022 545.983 339.04 308.326 298.417 263.423 244.639 147.599
threshold=6.0128231048583993 4.613178253173829 6.5275628566741952 10.927399158477785 14.565875530242922 0.19005186855793002 3.4053466320037846 4.0476295948028573 7.2494730949401864 -0.037943949922919266 23.829308509826664 219.25674438476565 6.9635922908782968 4.3302130699157724 1.6908104419708254 3.5109239816665654 24.202036857604984 9.5432276725769061 7.3079469203948983 3.0217919349670415 0.26116311550140386 1.8514899015426638 6.6137740612030038 7.1319005489349374 6.2146666049957284 1.6433601379394533 0.396841511130333 37.855070114135749 14.952409744262697 20.006621360778812
decision_type=2 2 2 2 2 2 2 2 2 2 2 2 2 2 2 2 2 2 2 2 2 2 2 2 2 2 2 2 2 2
left_child=1 6 21 4 16 7 27 -6 -9 14 28 12 -8 -12 19 -14 -2 -18 -19 -4 -7 26 23 25 -22 -5 -3 -1 -11 -23
right_child=3 2 9 22 5 20 11 8 -10 10 13 -13 15 -15 -16 -17 17 18 -20 -21 24 29 -24 -25 -26 -27 -28 -29 -30 -31
leaf_value=-0.051308980092203055 -0.051132311278540558 0.22574451867801187 -0.057869948700972534 -0.051757741109970827 -0.054129993984969142 0.3991228279313721 -0.057666427573764251 0.29179487295873552 0.093510761598173342 -0.044682122759486999 -0.031818040085199527 -0.058347113080184393 0.14597348481873149 0.15494444294778334 -0.057348509191830356 0.15702956332463727 -0.051282824098776728 0.62939857146690958 0.12979572708415094 0.16298098743820832 0.14367823594621976 -0.051790712578115766 -0.051084956542709031 0.4889489572237718 -0.053016745642722032 0.16989329601506886 -0.05389782630949147 0.17393669929711023 0.3074908232426774 0.15925466520725218
leaf_weight=93.579026866704226 1488.688511537388 25.551923396065831 28.478369439020753 49.805280312895775 52.226874461397529 7.9833126403391352 49.722862772643566 235.16494747437537 178.217538645491 197.81582543253899 72.199621345847845 55.46762228757143 19558.41838744469 256.30631595477462 42.537722580134869 66767.011587543413 70.463432639837265 10.717909749597309 37.522163961082697 959.18588745035231 26.803092470392585 271.64109624922276 5264.6383181214333 6.7253300771117202 119.96006265841424 22.905092239379883 15.224473683163522 15.070623911917208 5.0572822950780383 8.5452214926481229
leaf_count=4170 70296 95 354 1751 1166 5 540 1277 2235 4025 1036 737 17201 1896 604 26074 3268 102 383 2606 142 9807 255687 21 3387 7 368 7 50 126
internal_value=0.138097 0.152742 0.0927542 -0.0329279 0.00674134 0.134013 0.154047 0.177097 0.206311 0.116788 0.0567057 0.154266 0.154402 0.113897 0.147778 0.154525 -0.0423777 0.0674158 0.240797 0.156613 0.00437781 -0.0241772 -0.0494645 0.0579331 -0.0170947 0.0180664 0.121336 -0.0200655 -0.035903 -0.0453542
internal_weight=95993.6 88421.8 1882.54 7571.82 2227.75 620.356 86539.3 465.609 413.382 1561.58 531.379 86430.6 86375.2 328.506 1030.2 86325.4 1607.39 118.704 48.2401 987.664 154.746 320.963 5344.07 79.4357 146.763 72.7104 40.7764 108.65 202.873 280.186
internal_count=409423 69696 20967 339727 82261 8212 48729 4678 3512 10571 7007 44552 43815 2932 3564 43275 74049 3753 485 2960 3534 10396 257466 1779 3529 1758 463 4177 4075 9933
is_linear=0
shrinkage=0.05


Tree=6
num_leaves=31
num_cat=0
split_feature=47 47 33 91 68 97 97 69 81 56 49 70 97 68 19 71 91 66 42 24 22 13 23 33 73 61 52 47 45 20
split_gain=79604.9 2812.68 3222.34 1629.72 1551.35 1243.41 1303.63 886.363 1188.4 816.006 2809.21 1409.46 1517.32 677.259 656.992 552.182 517.865 456.279 437.705 437.548 438.477 411.062 384.175 304.037 237.646 160.79 146.037 141.091 131.929 292.161
threshold=6.1138968467712411 3.7888793945312504 0.01526400586590171 16.899785995483402 -0.025481291115283963 2.930107951164246 10.905962944030763 7.7189736366271982 4.8779146671295175 11.666209220886232 14.565875530242922 66.041149139404311 4.0846514701843271 0.26715761423110967 6.9234778881073007 3.4053466320037846 3.4749391078948979 1.627224922180176 0.74437326192855846 3.2926405668258671 6.5722763538360605 3.9695312976837163 2.4156092405319218 0.00071328831836581241 10.115747451782228 4.6982700824737558 0.93114504218101513 3.9060724973678593 4.5973327159881601 20.643504142761234
decision_type=2 2 2 2 2 2 2 2 2 2 2 2 2 2 2 2 2 2 2 2 2 2 2 2 2 2 2 2 2 2
left_child=1 7 4 9 19 -6 -7 14 -9 10 28 12 -12 21 24 -16 -13 26 -5 27 -21 -10 -17 -15 -1 -20 -4 -3 29 -2
right_child=3 2 17 18 5 6 -8 8 13 -11 11 16 -14 23 15 22 -18 -19 25 20 -22 -23 -24 -25 -26 -27 -28 -29 -30 -31
leaf_value=-0.063015487870731274 -0.051247732929954985 0.065970011958183458 -0.055262805980721211 -0.052299640843461649 -0.043543423801438511 0.12672273739999251 -0.056012198703816518 -0.061564949451265477 0.14226012541704766 -0.050658648246477325 -0.054330079693744482 -0.052873839225638999 0.22085567280520157 0.13298026217692088 -0.020952240332967123 0.035682220786122619 0.078751196033004373 -0.053200310540204444 0.16534355533057063 -0.055645864263465045 0.39993977393751284 -0.066021157791377488 0.13993668672368384 0.08308920523834902 0.15589249302138686 0.35171050209838611 0.24771773033556901 -0.054979209662531447 -0.051066460719633944 0.16365309531806191
leaf_weight=54.34019891358912 49.102561106905341 27.927846759557724 5.1533609367907074 22.842366192489862 115.57231040671468 4316.6183085516095 99.858439147472382 100.36737805604935 33.77792769856751 4837.1285647135228 64.668855458498001 171.94856712222099 222.21951313316822 1426.7328344397247 53.433088537305593 88.454852057620883 132.16535419225693 356.93728773295879 85.943159688264132 9.4469495899975318 11.977408867329357 79.311473516747355 86783.17595246993 388.52281247451901 16.062629699707031 13.374447263777254 17.42570161819458 176.47358359396458 1551.3203108943999 23.330108217895031
leaf_count=464 2209 121 111 937 1312 15629 1928 1686 12 246573 1606 5317 1906 1032 2084 419 1870 11066 154 195 6 528 30052 784 5 20 3 3887 77471 12
internal_value=0.124538 0.13677 0.100797 -0.0360132 0.111981 0.118354 0.122591 0.138846 0.106175 -0.0391498 -0.0140138 0.0793255 0.158825 0.114906 0.139608 0.139732 0.00432929 -0.0394115 0.145051 -0.0159212 0.199052 -0.00381099 0.139831 0.122302 -0.0130709 0.19044 0.178567 -0.0384536 -0.0479868 0.0179705
internal_weight=101336 94161.6 5137.39 7174.04 4757.87 4532.05 4416.48 89024.2 2028.71 7051.88 2214.76 591.002 286.888 1928.35 86995.5 86925.1 304.114 379.516 122.16 225.826 21.4244 113.089 86871.6 1815.26 70.4028 99.3176 22.5791 204.401 1623.75 72.4327
internal_count=409399 71324 34258 338075 23078 18869 17557 37066 4042 336964 90391 10699 3512 2356 33024 32555 7187 11180 1111 4209 201 540 30471 1816 469 174 114 4008 79692 2221
is_linear=0
shrinkage=0.05


Tree=7
num_leaves=31
num_cat=0
split_feature=47 47 33 75 49 91 57 49 108 97 69 57 79 68 59 23 52 49 23 85 66 58 26 49 52 87 25 33 106 47
split_gain=65093 2643.19 2853.33 1605.72 1388.24 1413.38 1289.95 3343.61 1309.39 1177.67 829.121 977.319 727.742 704.361 669.372 571.985 537.43 498.912 456.461 425.63 400.636 366.211 1459.35 331.432 304.244 297.153 275.304 240.253 210.852 402.09
threshold=6.4236521720886239 3.7888793945312504 0.01526400586590171 -0.87463927268981922 14.495851516723635 -1.3255635499954221 11.078336238861086 14.565875530242922 27.45805644989014 3.0675947666168217 6.6202468872070321 4.7489428520202646 -5.5377786159515372 -0.025481291115283963 0.5326979160308839 3.1581894159317021 0.66453984379768383 20.288300514221195 2.4156092405319218 4.7466444969177255 1.627224922180176 4.4771878719329843 9.1966471672058123 15.757352352142336 0.67367443442344677 4.4332616329193124 1.7392756342887881 0.00011817381164291875 27.678290367126468 6.9991955757141122
decision_type=2 2 2 2 2 2 2 2 2 2 2 2 2 2 2 2 2 2 2 2 2 2 2 2 2 2 2 2 2 2
left_child=1 10 3 4 19 -6 7 28 16 -5 18 -12 -10 -11 -14 27 17 -9 26 -3 -4 22 -20 -17 -18 -23 -1 -13 -2 -30
right_child=6 2 20 9 5 -7 -8 8 12 13 11 15 14 -15 -16 23 24 -19 21 -21 -22 25 -24 -25 -26 -27 -28 -29 29 -31
leaf_value=0.10129162857695162 -0.051002036712737779 0.040034358457621405 0.15637327139776666 -0.042643925325700216 -0.037297221135699637 0.12261180239642883 -0.050319293710231555 -0.044620940680731032 -0.052113554302783395 -0.0045739949964226567 -0.061184464790222839 0.061552760038711324 0.010758407921661757 0.12672378243941623 0.20589302977234999 0.096742456050927864 0.41314576495318511 0.16745133689727532 -0.065927980071961184 -0.049351976035346884 -0.052849276272257356 0.12941513791248879 0.13812931890292526 0.13057982739474014 0.066350936171487254 0.12303919560129589 -0.062139583266113255 -0.06752705248577863 0.17701046160704945 -0.051066487293714963
leaf_weight=53.179383439943194 1314.1486246846616 248.48821022734046 24.413016939535737 110.68217135034502 169.17362664267421 754.31223679333925 4733.5950842890888 207.93988309055567 39.132615149021149 105.19395451247692 89.879130229353905 92.64016231149435 51.988902632147074 3525.2089079767466 284.1468389891088 1733.0195339303464 11.669164760038258 32.000897813588381 121.08460125513375 286.98939351737499 364.59261640906334 62734.218335507438 317.01675935834646 1242.5200222507119 13.807848110795019 25784.83242226392 49.991565223783255 59.012076990678906 30.122535651549697 53.905656510964036
leaf_count=242 69203 2689 121 1314 2326 2884 251295 5964 1448 1916 1634 184 1050 9105 931 2299 17 276 1620 6277 12382 17083 207 568 210 12250 506 468 326 2731
internal_value=0.113913 0.124287 0.0908988 0.10067 0.0561785 0.093318 -0.035998 -0.00274851 0.0918409 0.118021 0.12631 0.101373 0.151955 0.122919 0.175712 0.106045 0.00684713 -0.0163369 0.12721 -0.00787228 -0.039719 0.127332 0.081731 0.110872 0.225192 0.127558 0.0221009 0.0113242 -0.0460922 0.0306948
internal_weight=104639 97866.4 5589.05 5200.05 1458.96 923.486 6772.46 2038.86 640.686 3741.09 92277.4 3217.07 375.268 3630.4 336.136 3127.19 265.418 239.941 89060.3 535.478 389.006 88957.2 438.101 2975.54 25.477 88519.1 103.171 151.652 1398.18 84.0282
internal_count=409526 76075 39014 26511 14176 5210 333451 82156 9896 12335 37061 5153 3429 11021 1981 3519 6467 6240 31908 8966 12503 31160 1827 2867 227 29333 748 652 72260 3057
is_linear=0
shrinkage=0.05


Tree=8
num_leaves=31
num_cat=0
split_feature=47 47 97 56 49 23 48 92 28 23 8 104 69 33 52 113 47 61 54 106 99 109 52 19 23 8 27 50 9 115
split_gain=54737.2 2406.82 2370.97 1615.96 3691.4 996.021 1317.69 863.045 830.343 754.003 666.395 722.373 575.771 793.398 597.598 412.178 406.846 349.095 346.762 345.849 433.847 316.889 314.189 299.975 257.319 244.145 175.219 141.211 121.686 110.834
threshold=6.1138968467712411 3.6764560937881474 10.199924468994142 10.895269870758058 14.638450622558596 3.9828541278839116 4.886810541152955 -0.21393537521362302 0.77837061882019054 2.4156092405319218 5.8238530158996591 4.7856931686401376 5.7113170623779306 0.017667894251644615 0.34355901181697851 19.587926864624027 6.6137740612030038 8.8282351493835467 -0.42697800695896143 27.678290367126468 0.10838353633880617 7.2405259609222421 0.8485161066055299 8.7570352554321307 3.6000280380249028 16.287509918212894 2.851482748985291 -0.98979434370994557 2.1667546033859257 19.678562164306644
decision_type=2 2 2 2 2 2 2 2 2 2 2 2 2 2 2 2 2 2 2 2 2 2 2 2 2 2 2 2 2 2
left_child=1 9 5 4 19 6 28 -6 -8 27 -9 -12 21 23 -15 25 18 29 -5 -2 26 22 -11 -14 -23 -7 -21 -1 -3 -4
right_child=3 2 17 16 7 15 8 10 -10 12 11 -13 13 14 -16 -17 -18 -19 -20 20 -22 24 -24 -25 -26 -27 -28 -29 -30 -31
leaf_value=0.16522148369954354 -0.050979125488025759 0.13946144657976467 -0.054838342981262944 0.17352757537032804 -0.053342910560602176 0.12723730924987911 0.10274692959778538 -0.054610691858165486 0.054924785105896559 -0.064194587221066648 0.18210250502511671 0.066821381568582847 -0.072579213891169517 -0.052274909874943903 0.077370359893316656 -0.065588732448354961 -0.050938696428717428 0.14155370534163514 -0.052008622316528232 0.10715889817371052 -0.051414465235825817 0.11349787027099692 0.13242530206184641 0.10680460348847405 0.1194069441221482 -0.066748067531541014 0.35147270638615857 -0.059931419322506431 -0.054855329597754132 0.11973144482491804
leaf_weight=7.7185487747192374 1258.8959138486534 8.410766461864112 340.62806142866611 37.693924989551306 82.96833430416882 1826.2739683613181 2443.2551780082285 50.942556206136942 1444.2446353137493 47.486396314576268 327.56874202005565 232.22667214460671 23.428154094144702 137.80502779968083 250.39626353979111 28.654357016086578 4595.4804151896387 25.4683857858181 31.107442492619157 40.224049605429173 56.41916754283011 26054.341246645898 35.512151129543781 4450.8265224341303 62904.731852635741 16.365280397236347 8.9765448551624996 71.226585043594241 191.40793673880398 9.3416547924280149
leaf_count=1 68648 1 9516 144 2259 2878 8037 1074 9834 345 1395 2114 128 1861 541 230 257697 27 1193 325 2812 12489 33 3207 15668 123 60 973 5013 8
internal_value=0.105274 0.11453 0.0846974 -0.0328474 0.00405603 0.0923761 0.0785442 0.097968 0.0849805 0.11654 0.118523 0.134279 0.11667 0.0999161 0.0313484 0.122588 -0.0491318 -0.0371722 0.071555 -0.0436879 0.0432174 0.117585 0.0199321 0.105865 0.117676 0.125514 0.151733 -0.037918 -0.0466762 -0.0501786
internal_weight=107040 100318 6334.05 6722.5 2058.22 5958.61 4087.32 693.706 3887.5 93983.5 610.738 559.795 93904.5 4862.46 388.201 1871.29 4664.28 375.438 68.8014 1364.52 105.62 89042.1 82.9985 4474.25 88959.1 1842.64 49.2006 78.9451 199.819 349.97
internal_count=408634 70913 35667 337721 78687 26116 22885 6842 17871 35246 4583 3509 34272 5737 2402 3231 259034 9551 1337 71845 3197 28535 378 3335 28157 3001 385 974 5014 9524
is_linear=0
shrinkage=0.05


end of trees

feature_importances:
Column_47=32
Column_49=16
Column_71=16
Column_23=12
Column_92=8
Column_56=7
Column_61=7
Column_26=6
Column_33=6
Column_91=6
Column_97=6
Column_109=6
Column_8=5
Column_19=5
Column_52=5
Column_68=5
Column_75=5
Column_78=5
Column_81=5
Column_25=4
Column_50=4
Column_106=4
Column_13=3
Column_20=3
Column_28=3
Column_42=3
Column_55=3
Column_57=3
Column_69=3
Column_70=3
Column_83=3
Column_104=3
Column_108=3
Column_115=3
Column_4=2
Column_6=2
Column_16=2
Column_17=2
Column_21=2
Column_22=2
Column_36=2
Column_45=2
Column_48=2
Column_51=2
Column_58=2
Column_59=2
Column_66=2
Column_73=2
Column_74=2
Column_82=2
Column_96=2
Column_3=1
Column_5=1
Column_9=1
Column_15=1
Column_24=1
Column_27=1
Column_32=1
Column_34=1
Column_38=1
Column_40=1
Column_44=1
Column_53=1
Column_54=1
Column_60=1
Column_63=1
Column_77=1
Column_79=1
Column_85=1
Column_87=1
Column_99=1
Column_100=1
Column_110=1
Column_111=1
Column_112=1
Column_113=1

parameters:
[boosting: gbdt]
[objective: binary]
[metric: binary_logloss]
[tree_learner: serial]
[device_type: gpu]
[data_sample_strategy: bagging]
[data: ]
[valid: ]
[num_iterations: 1000]
[learning_rate: 0.05]
[num_leaves: 31]
[num_threads: 0]
[seed: 42]
[deterministic: 0]
[force_col_wise: 1]
[force_row_wise: 0]
[histogram_pool_size: -1]
[max_depth: 6]
[min_data_in_leaf: 20]
[min_sum_hessian_in_leaf: 5]
[bagging_fraction: 0.8]
[pos_bagging_fraction: 1]
[neg_bagging_fraction: 1]
[bagging_freq: 1]
[bagging_seed: 400]
[bagging_by_query: 0]
[feature_fraction: 0.8]
[feature_fraction_bynode: 1]
[feature_fraction_seed: 30056]
[extra_trees: 0]
[extra_seed: 12879]
[early_stopping_round: 0]
[early_stopping_min_delta: 0]
[first_metric_only: 0]
[max_delta_step: 0]
[lambda_l1: 0]
[lambda_l2: 0]
[linear_lambda: 0]
[min_gain_to_split: 0]
[drop_rate: 0.1]
[max_drop: 50]
[skip_drop: 0.5]
[xgboost_dart_mode: 0]
[uniform_drop: 0]
[drop_seed: 17869]
[top_rate: 0.2]
[other_rate: 0.1]
[min_data_per_group: 100]
[max_cat_threshold: 32]
[cat_l2: 10]
[cat_smooth: 10]
[max_cat_to_onehot: 4]
[top_k: 20]
[monotone_constraints: ]
[monotone_constraints_method: basic]
[monotone_penalty: 0]
[feature_contri: ]
[forcedsplits_filename: ]
[refit_decay_rate: 0.9]
[cegb_tradeoff: 1]
[cegb_penalty_split: 0]
[cegb_penalty_feature_lazy: ]
[cegb_penalty_feature_coupled: ]
[path_smooth: 0]
[interaction_constraints: ]
[verbosity: -1]
[saved_feature_importance_type: 0]
[use_quantized_grad: 0]
[num_grad_quant_bins: 4]
[quant_train_renew_leaf: 0]
[stochastic_rounding: 1]
[linear_tree: 0]
[max_bin: 255]
[max_bin_by_feature: ]
[min_data_in_bin: 3]
[bin_construct_sample_cnt: 200000]
[data_random_seed: 175]
[is_enable_sparse: 1]
[enable_bundle: 1]
[use_missing: 1]
[zero_as_missing: 0]
[feature_pre_filter: 1]
[pre_partition: 0]
[two_round: 0]
[header: 0]
[label_column: ]
[weight_column: ]
[group_column: ]
[ignore_column: ]
[categorical_feature: ]
[forcedbins_filename: ]
[precise_float_parser: 0]
[parser_config_file: ]
[objective_seed: 16083]
[num_class: 1]
[is_unbalance: 0]
[scale_pos_weight: 36.5734]
[sigmoid: 1]
[boost_from_average: 1]
[reg_sqrt: 0]
[alpha: 0.9]
[fair_c: 1]
[poisson_max_delta_step: 0.7]
[tweedie_variance_power: 1.5]
[lambdarank_truncation_level: 30]
[lambdarank_norm: 1]
[label_gain: ]
[lambdarank_position_bias_regularization: 0]
[eval_at: ]
[multi_error_top_k: 1]
[auc_mu_weights: ]
[num_machines: 1]
[local_listen_port: 12400]
[time_out: 120]
[machine_list_filename: ]
[machines: ]
[gpu_platform_id: -1]
[gpu_device_id: -1]
[gpu_use_dp: 0]
[num_gpu: 1]

end of parameters

pandas_categorical:null
