{"learner":{"attributes":{"best_iteration":"249","best_score":"0.1075918257023816"},"feature_names":["a_ax","a_ay","a_ear_left_vel_1000ms","a_ear_left_vel_2000ms","a_ear_left_vel_3000ms","a_ear_left_vel_500ms","a_ear_right_vel_1000ms","a_ear_right_vel_2000ms","a_ear_right_vel_3000ms","a_ear_right_vel_500ms","a_elongation","a_head_vel_1000ms","a_head_vel_2000ms","a_head_vel_3000ms","a_head_vel_500ms","a_speed","a_tail_base_vel_1000ms","a_tail_base_vel_2000ms","a_tail_base_vel_3000ms","a_tail_base_vel_500ms","a_vx","a_vy","a_x","a_y","aa_earleft_tailbase_dist","aa_earright_tailbase_dist","aa_head_ear_right_dist","aa_head_earleft_dist","aa_head_tailbase_dist","approach_speed_agent","approach_speed_rel","approach_speed_target","as_a_speed_std_05","as_a_turn_jerk_05","as_body_iou","as_body_iou_mean_1s","as_speed_std_sum_05","as_t_speed_std_05","body_cosine","climb_approach_speed_wall","climb_dist_wall","climb_normal_vel","climb_tangent_vel","climb_wall_stick_score","curv_mean_30","curv_mean_60","dist_head_el","dist_head_er","dist_head_head","dist_head_tail","follow_cos_body_mean_15","follow_cos_body_mean_30","follow_cos_body_mean_60","follow_cos_vel_mean_15","follow_cos_vel_mean_30","follow_cos_vel_mean_60","follow_dist_mean_15","follow_dist_mean_30","follow_dist_mean_60","follow_dist_std_15","follow_dist_std_30","follow_dist_std_60","follow_speed_agent_mean_15","follow_speed_agent_mean_30","follow_speed_agent_mean_60","follow_speed_target_mean_15","follow_speed_target_mean_30","follow_speed_target_mean_60","gaze_cosine","lateral_speed_agent","path_cum180","rel_dist","sb_att_approach_mean_10","sb_att_approach_mean_20","sb_att_approach_mean_30","sb_att_dist_delta_10","sb_att_dist_delta_20","sb_att_dist_delta_30","sb_att_rel_along_mean_10","sb_att_rel_along_mean_20","sb_att_rel_along_mean_30","sb_chase_dist_mean_10","sb_chase_dist_mean_20","sb_chase_dist_mean_30","sb_chase_speed_agent_mean_10","sb_chase_speed_agent_mean_20","sb_chase_speed_agent_mean_30","sb_chase_speed_target_mean_10","sb_chase_speed_target_mean_20","sb_chase_speed_target_mean_30","sb_esc_dist_gain_10","sb_esc_dist_gain_20","sb_esc_dist_gain_30","sb_esc_heading_cos_mean_10","sb_esc_heading_cos_mean_20","sb_esc_heading_cos_mean_30","sp_m10","sp_m160","sp_m40","sp_pct120","sp_pct60","sp_ratio","sp_s10","sp_s160","sp_s40","spd_asym_1s","spd_symkl_1s","turn_rate_30","x_e120","x_e60","x_ml120","x_ml240","y_e120","y_e60","y_ml120","y_ml240"],"feature_types":[],"gradient_booster":{"model":{"gbtree_model_param":{"num_parallel_tree":"1","num_trees":"250"},"iteration_indptr":[0,1,2,3,4,5,6,7,8,9,10,11,12,13,14,15,16,17,18,19,20,21,22,23,24,25,26,27,28,29,30,31,32,33,34,35,36,37,38,39,40,41,42,43,44,45,46,47,48,49,50,51,52,53,54,55,56,57,58,59,60,61,62,63,64,65,66,67,68,69,70,71,72,73,74,75,76,77,78,79,80,81,82,83,84,85,86,87,88,89,90,91,92,93,94,95,96,97,98,99,100,101,102,103,104,105,106,107,108,109,110,111,112,113,114,115,116,117,118,119,120,121,122,123,124,125,126,127,128,129,130,131,132,133,134,135,136,137,138,139,140,141,142,143,144,145,146,147,148,149,150,151,152,153,154,155,156,157,158,159,160,161,162,163,164,165,166,167,168,169,170,171,172,173,174,175,176,177,178,179,180,181,182,183,184,185,186,187,188,189,190,191,192,193,194,195,196,197,198,199,200,201,202,203,204,205,206,207,208,209,210,211,212,213,214,215,216,217,218,219,220,221,222,223,224,225,226,227,228,229,230,231,232,233,234,235,236,237,238,239,240,241,242,243,244,245,246,247,248,249,250],"tree_info":[0,0,0,0,0,0,0,0,0,0,0,0,0,0,0,0,0,0,0,0,0,0,0,0,0,0,0,0,0,0,0,0,0,0,0,0,0,0,0,0,0,0,0,0,0,0,0,0,0,0,0,0,0,0,0,0,0,0,0,0,0,0,0,0,0,0,0,0,0,0,0,0,0,0,0,0,0,0,0,0,0,0,0,0,0,0,0,0,0,0,0,0,0,0,0,0,0,0,0,0,0,0,0,0,0,0,0,0,0,0,0,0,0,0,0,0,0,0,0,0,0,0,0,0,0,0,0,0,0,0,0,0,0,0,0,0,0,0,0,0,0,0,0,0,0,0,0,0,0,0,0,0,0,0,0,0,0,0,0,0,0,0,0,0,0,0,0,0,0,0,0,0,0,0,0,0,0,0,0,0,0,0,0,0,0,0,0,0,0,0,0,0,0,0,0,0,0,0,0,0,0,0,0,0,0,0,0,0,0,0,0,0,0,0,0,0,0,0,0,0,0,0,0,0,0,0,0,0,0,0,0,0,0,0,0,0,0,0,0,0,0,0,0,0,0,0,0,0,0,0],"trees":[{"base_weights":[3.0949423E-3,-1.4555652E0,1.4440464E0,-1.7513323E0,-3.7787688E-1,-1.3429736E0,1.5501915E0,-1.8652127E0,-9.7781456E-1,5.805814E-1,-8.385403E-1,-1.8773739E0,-6.7657053E-1,9.542116E-1,1.714856E0,-1.6629736E0,-1.9311284E0,-1.8433697E0,-4.3002695E-1,1.0372423E0,-1.2724912E0,-4.2448723E-1,-1.7676549E0,2.79001E-1,-1.9279339E0,-1.1262037E0,4.8248583E-1,1.0668745E0,-6.813015E-1,1.7753457E0,1.3554243E0,-7.4462223E-1,-1.7595071E0,-1.8122576E0,-1.9680529E0,-1.9383497E0,-9.751596E-1,7.6076575E-2,-1.5654356E0,-1.3959689E0,1.1459454E0,3.407058E-1,-1.594155E0,-6.767511E-2,-1.1124418E0,-1.8593806E0,1.1590438E0,9.4078414E-2,-9.59596E-2,-1.963114E0,9.585603E-1,1.1420144E-1,-1.7694741E0,8.8950294E-1,-9.873817E-2,1.4941099E0,6.2799597E-1,8.180419E-1,-1.7293974E0,1.8022171E0,1.0907729E0,1.4449766E0,-1.1478194E0,-9.138669E-2,-1.7062838E-3,-7.050758E-2,-9.679865E-2,-9.8930515E-2,-7.194488E-2,-9.210137E-2,-9.994065E-2,-9.9405624E-2,-7.494008E-2,-9.128141E-2,4.6385485E-3,-6.1487254E-2,1.662311E-2,-9.487204E-2,-5.7077985E-2,6.4597437E-3,-9.9518076E-2,7.3776886E-2,3.7012734E-2,-9.86755E-2,6.0172893E-2,-2.3267869E-2,-8.751939E-2,-3.4024645E-2,1.5523334E-2,-7.8868404E-2,-3.253687E-3,-6.738183E-2,-9.800171E-2,9.9231355E-2,-9.714286E-2,-9.904541E-2,-2.43353E-2,-8.75E-2,9.341137E-2,4.1385088E-2,-9.9196784E-2,-3.5908453E-2,-9.4762765E-2,5.617351E-2,-9.7278915E-2,-3.6529046E-2,7.5664066E-2,3.5748508E-2,-8.9188166E-2,-2.9978855E-2,6.781555E-2,4.0922232E-2,-9.511161E-2,-9.7837836E-2,9.022486E-2,7.351464E-2,-6.745896E-2,4.366414E-2,7.8354955E-2,5.783784E-2,-8.7828346E-2],"categories":[],"categories_nodes":[],"categories_segments":[],"categories_sizes":[],"default_left":[0,0,0,0,0,0,0,0,0,0,0,0,0,0,0,0,0,0,0,0,0,0,0,0,0,0,0,0,0,0,0,0,0,0,0,0,0,0,0,0,0,0,0,0,0,0,0,0,0,0,0,0,0,0,0,0,0,0,0,0,0,0,0,0,0,0,0,0,0,0,0,0,0,0,0,0,0,0,0,0,0,0,0,0,0,0,0,0,0,0,0,0,0,0,0,0,0,0,0,0,0,0,0,0,0,0,0,0,0,0,0,0,0,0,0,0,0,0,0,0,0],"id":0,"left_children":[1,3,5,7,9,11,13,15,17,19,21,23,25,27,29,31,33,35,37,39,41,43,45,47,49,51,53,55,57,59,61,63,65,67,69,71,73,75,77,79,81,83,85,87,89,91,93,-1,-1,95,97,99,101,103,-1,105,107,109,111,113,115,117,119,-1,-1,-1,-1,-1,-1,-1,-1,-1,-1,-1,-1,-1,-1,-1,-1,-1,-1,-1,-1,-1,-1,-1,-1,-1,-1,-1,-1,-1,-1,-1,-1,-1,-1,-1,-1,-1,-1,-1,-1,-1,-1,-1,-1,-1,-1,-1,-1,-1,-1,-1,-1,-1,-1,-1,-1,-1,-1],"loss_changes":[5.0749825E5,3.8245125E4,3.5934406E4,8.291656E3,1.1409658E4,1.585916E3,1.1481125E4,1.0907812E3,5.7288916E3,7.1000083E3,6.713325E3,2.7013965E2,1.0350278E3,4.668461E3,1.9908438E3,1.7876875E3,2.6807812E2,3.843164E2,4.253548E3,1.7818457E3,8.6139966E2,2.9637097E3,1.4463652E3,2.0625644E2,2.4724805E2,1.1416122E3,5.573495E2,4.4429043E3,2.5678564E3,1.4414844E3,2.9630137E3,1.4784004E3,1.1229805E3,9.089336E2,1.7934375E2,8.933496E1,4.2144864E2,1.7148167E3,3.190044E2,2.6159894E2,8.604678E2,5.5468024E2,2.431477E2,1.8428147E3,2.0078071E3,2.6606055E2,4.2409317E2,0E0,0E0,6.175879E1,7.661069E1,7.343561E2,1.23208984E2,3.1876242E2,0E0,5.132793E2,2.453879E3,5.1405725E2,4.2498096E2,6.5065625E2,2.7487668E3,8.890996E2,6.4291284E2,0E0,0E0,0E0,0E0,0E0,0E0,0E0,0E0,0E0,0E0,0E0,0E0,0E0,0E0,0E0,0E0,0E0,0E0,0E0,0E0,0E0,0E0,0E0,0E0,0E0,0E0,0E0,0E0,0E0,0E0,0E0,0E0,0E0,0E0,0E0,0E0,0E0,0E0,0E0,0E0,0E0,0E0,0E0,0E0,0E0,0E0,0E0,0E0,0E0,0E0,0E0,0E0,0E0,0E0,0E0,0E0,0E0,0E0],"parents":[2147483647,0,0,1,1,2,2,3,3,4,4,5,5,6,6,7,7,8,8,9,9,10,10,11,11,12,12,13,13,14,14,15,15,16,16,17,17,18,18,19,19,20,20,21,21,22,22,23,23,24,24,25,25,26,26,27,27,28,28,29,29,30,30,31,31,32,32,33,33,34,34,35,35,36,36,37,37,38,38,39,39,40,40,41,41,42,42,43,43,44,44,45,45,46,46,49,49,50,50,51,51,52,52,53,53,55,55,56,56,57,57,58,58,59,59,60,60,61,61,62,62],"right_children":[2,4,6,8,10,12,14,16,18,20,22,24,26,28,30,32,34,36,38,40,42,44,46,48,50,52,54,56,58,60,62,64,66,68,70,72,74,76,78,80,82,84,86,88,90,92,94,-1,-1,96,98,100,102,104,-1,106,108,110,112,114,116,118,120,-1,-1,-1,-1,-1,-1,-1,-1,-1,-1,-1,-1,-1,-1,-1,-1,-1,-1,-1,-1,-1,-1,-1,-1,-1,-1,-1,-1,-1,-1,-1,-1,-1,-1,-1,-1,-1,-1,-1,-1,-1,-1,-1,-1,-1,-1,-1,-1,-1,-1,-1,-1,-1,-1,-1,-1,-1,-1],"split_conditions":[3.118165E0,1.2221488E0,-3.0505648E-1,2.9111636E0,-1.0342503E0,-6.821195E-1,5.780695E0,-6.9651365E-1,-4.4380662E-1,1.5507742E1,1.080842E1,2.1244545E-1,1.4465536E1,1.7393051E1,-2.7958488E-1,8.401354E0,9.832442E0,1.1056758E1,-2.7958488E-1,7.005445E0,-5.4248924E0,7.1025105E0,9.8727465E-1,-5.327911E0,-2.7949935E-1,5.178813E0,-1.5755758E0,-1.0342503E0,-7.53924E0,1.8911535E1,1.1570856E1,7.2875514E0,1.1541516E1,4.7712727E0,8.988085E0,7.455304E0,2.2327242E0,2.1683545E0,4.0938563E0,2.4400558E0,8.401354E0,3.9142212E-1,1.1938476E1,2.231677E1,8.907578E0,6.861017E0,-8.878114E-1,9.4078414E-2,-9.59596E-2,2.084603E1,2.7616072E-1,1.5016793E1,-5.9996934E0,2.2975536E1,-9.873817E-2,4.2147903E0,1.4361914E1,6.162758E0,2.4764187E0,3.0273194E0,-6.313921E0,5.882408E0,7.9324155E0,-9.138669E-2,-1.7062838E-3,-7.050758E-2,-9.679865E-2,-9.8930515E-2,-7.194488E-2,-9.210137E-2,-9.994065E-2,-9.9405624E-2,-7.494008E-2,-9.128141E-2,4.6385485E-3,-6.1487254E-2,1.662311E-2,-9.487204E-2,-5.7077985E-2,6.4597437E-3,-9.9518076E-2,7.3776886E-2,3.7012734E-2,-9.86755E-2,6.0172893E-2,-2.3267869E-2,-8.751939E-2,-3.4024645E-2,1.5523334E-2,-7.8868404E-2,-3.253687E-3,-6.738183E-2,-9.800171E-2,9.9231355E-2,-9.714286E-2,-9.904541E-2,-2.43353E-2,-8.75E-2,9.341137E-2,4.1385088E-2,-9.9196784E-2,-3.5908453E-2,-9.4762765E-2,5.617351E-2,-9.7278915E-2,-3.6529046E-2,7.5664066E-2,3.5748508E-2,-8.9188166E-2,-2.9978855E-2,6.781555E-2,4.0922232E-2,-9.511161E-2,-9.7837836E-2,9.022486E-2,7.351464E-2,-6.745896E-2,4.366414E-2,7.8354955E-2,5.783784E-2,-8.7828346E-2],"split_indices":[72,74,93,29,90,93,72,90,93,49,49,59,11,49,90,49,49,19,90,71,90,33,95,41,95,7,91,90,91,47,49,57,48,16,47,40,78,19,19,66,49,51,48,108,71,48,52,0,0,96,54,58,41,49,0,48,47,104,107,19,91,73,47,0,0,0,0,0,0,0,0,0,0,0,0,0,0,0,0,0,0,0,0,0,0,0,0,0,0,0,0,0,0,0,0,0,0,0,0,0,0,0,0,0,0,0,0,0,0,0,0,0,0,0,0,0,0,0,0,0,0],"split_type":[0,0,0,0,0,0,0,0,0,0,0,0,0,0,0,0,0,0,0,0,0,0,0,0,0,0,0,0,0,0,0,0,0,0,0,0,0,0,0,0,0,0,0,0,0,0,0,0,0,0,0,0,0,0,0,0,0,0,0,0,0,0,0,0,0,0,0,0,0,0,0,0,0,0,0,0,0,0,0,0,0,0,0,0,0,0,0,0,0,0,0,0,0,0,0,0,0,0,0,0,0,0,0,0,0,0,0,0,0,0,0,0,0,0,0,0,0,0,0,0,0],"sum_hessian":[2.4145014E5,1.19987766E5,1.21462375E5,9.4148484E4,2.5839277E4,4.4558105E3,1.1700656E5,8.206512E4,1.2083365E4,8.387646E3,1.7451633E4,2.4718076E3,1.9840028E3,2.5331084E4,9.1675484E4,2.0179053E4,6.1886066E4,4.68239E3,7.4009756E3,6.729665E3,1.6579808E3,1.2072894E4,5.3787393E3,5.6524727E1,2.415283E3,1.429489E3,5.545138E2,2.3698922E4,1.6321621E3,7.846624E4,1.320924E4,1.9202115E3,1.825884E4,1.4679277E4,4.720679E4,4.2195493E3,4.6284067E2,5.119786E3,2.2811897E3,2.8728296E2,6.4423823E3,2.7562363E2,1.3823572E3,7.9504424E3,4.1224507E3,5.21564E3,1.630989E2,3.2774727E1,2.375E1,2.3865166E3,2.8766485E1,4.884478E2,9.410412E2,4.7626376E2,7.825E1,1.2007536E4,1.1691385E4,6.716127E2,9.6054944E2,7.5500984E4,2.9652556E3,1.2753416E4,4.558242E2,7.600247E2,1.1601869E3,6.1306924E3,1.2128148E4,1.0151791E4,4.5274863E3,9.27353E3,3.7933258E4,3.7872583E3,4.322912E2,2.5725824E2,2.0558243E2,8.3962366E2,4.280162E3,1.2772748E3,1.00391486E3,8.0782974E1,2.065E2,3.5531157E3,2.8892666E3,7.45E1,2.0112364E2,1.6854945E2,1.2138077E3,3.0335166E3,4.9169263E3,2.8547307E3,1.2677198E3,8.596072E2,4.356033E3,1.290989E2,3.4E1,2.3577583E3,2.8758244E1,7E0,2.1766485E1,3.649478E2,1.235E2,1.0127473E2,8.397665E2,4.4051376E2,3.575E1,1.0227473E2,1.1905262E4,1.1285119E4,4.0626648E2,1.8479945E2,4.8681323E2,6.078297E1,8.997665E2,4.525E1,7.5455734E4,2.5664563E3,3.9879947E2,2.2462363E3,1.050718E4,9.50577E1,3.6076648E2],"tree_param":{"num_deleted":"0","num_feature":"116","num_nodes":"121","size_leaf_vector":"1"}},{"base_weights":[-2.6503494E-3,-1.4614924E0,1.2422147E0,-1.7178981E0,-3.8924626E-1,1.1478863E-1,1.5263289E0,-1.7864195E0,-1.2038338E0,-1.5795289E0,2.3962449E-1,-5.1602197E-1,8.52252E-1,-3.2947913E-1,1.5728755E0,-1.6909434E0,-1.8920736E0,-7.756059E-1,-1.7846028E0,-1.7878145E0,-9.567515E-1,6.992084E-1,-9.2804664E-1,-1.6182902E-1,-1.650557E0,-5.371055E-1,1.0043596E0,-7.9766273E-1,1.0795876E0,1.2089641E0,1.6826907E0,-1.868368E0,-1.520107E0,-1.9000268E0,-1.2853234E0,-1.4451317E0,5.0236613E-2,-1.8289455E0,2.8019592E-1,-1.4590635E0,-9.543353E-2,-1.2178049E0,6.5704525E-1,8.7174696E-1,-9.50061E-1,-6.729438E-1,-9.637634E-2,-1.0374883E0,2.6524174E-1,-2.3408504E-1,-1.8905871E0,-1.565963E0,9.7281945E-1,1.1358932E0,-2.8590614E-1,-4.9715918E-2,-1.7263309E0,1.3982189E0,-9.681254E-2,1.526164E0,8.378255E-1,1.7057433E0,8.6504495E-1,-4.536703E-2,-9.423288E-2,-8.272995E-2,-4.3870673E-2,-5.0361495E-2,-9.5058285E-2,-8.439156E-2,2.8826166E-2,-8.181655E-2,-4.582927E-3,-9.6846566E-2,1.5466821E-2,-9.285525E-2,-3.3165995E-2,-9.365265E-2,6.407873E-2,-3.382727E-2,-8.457001E-2,-3.7901785E-2,-9.048453E-2,-9.5940515E-2,5.2406628E-2,-2.413477E-2,5.1750924E-2,4.5720737E-2,-7.778159E-2,-8.53544E-2,-8.264626E-3,-6.523948E-3,-7.0350364E-2,-6.769213E-2,2.1810232E-2,4.064993E-2,-8.598132E-2,-9.600727E-2,-4.8242267E-2,-8.614549E-2,1.3724218E-2,5.669436E-2,-9.803677E-2,3.5521176E-2,6.825637E-2,5.655871E-2,-8.4293E-2,-5.8290135E-2,4.2716898E-2,4.326879E-3,-9.592733E-2,7.531982E-2,-9.427147E-2,7.8216024E-2,-1.9822644E-2,4.701416E-2,-9.094363E-2,-9.773844E-2,8.541504E-2,6.225918E-2,-7.669228E-2],"categories":[],"categories_nodes":[],"categories_segments":[],"categories_sizes":[],"default_left":[0,0,0,0,0,0,0,0,0,0,0,0,0,0,0,0,0,0,0,0,0,0,0,0,0,0,0,0,0,0,0,0,0,0,0,0,0,0,0,0,0,0,0,0,0,0,0,0,0,0,0,0,0,0,0,0,0,0,0,0,0,0,0,0,0,0,0,0,0,0,0,0,0,0,0,0,0,0,0,0,0,0,0,0,0,0,0,0,0,0,0,0,0,0,0,0,0,0,0,0,0,0,0,0,0,0,0,0,0,0,0,0,0,0,0,0,0,0,0,0,0],"id":1,"left_children":[1,3,5,7,9,11,13,15,17,19,21,23,25,27,29,31,33,35,37,39,41,43,45,47,49,51,53,55,57,59,61,63,65,67,69,71,73,75,77,79,-1,81,83,85,87,89,-1,91,93,95,97,99,101,103,105,107,109,111,-1,113,115,117,119,-1,-1,-1,-1,-1,-1,-1,-1,-1,-1,-1,-1,-1,-1,-1,-1,-1,-1,-1,-1,-1,-1,-1,-1,-1,-1,-1,-1,-1,-1,-1,-1,-1,-1,-1,-1,-1,-1,-1,-1,-1,-1,-1,-1,-1,-1,-1,-1,-1,-1,-1,-1,-1,-1,-1,-1,-1,-1],"loss_changes":[4.3665475E5,3.0435719E4,4.1556156E4,3.144875E3,1.5993189E4,1.2148684E4,8.951516E3,7.920156E2,2.6127227E3,9.5637695E2,7.5031543E3,5.6558506E3,2.5448984E3,1.6740164E3,4.0376719E3,1.2526016E3,1.7810938E2,3.3462598E3,4.088838E2,2.1708203E2,7.815669E2,2.855712E3,1.0055576E3,4.0121113E3,1.1380889E3,1.8481509E3,1.8420449E3,1.3226108E3,6.10941E2,2.757793E3,1.4621719E3,3.1628906E2,1.8229688E3,3.5609375E1,3.660434E2,8.647671E2,1.3962001E3,1.420957E2,2.0646245E2,2.700664E2,0E0,4.3283667E2,2.626221E2,2.0091074E3,1.0747556E3,1.6521012E3,0E0,1.1785813E3,1.9968092E3,7.579366E2,7.649609E1,2.0479236E2,2.3012997E2,9.595488E2,1.9951484E3,1.0662968E3,2.9617603E2,2.063988E2,0E0,9.275488E2,2.9420708E3,7.1034375E2,1.9454436E3,0E0,0E0,0E0,0E0,0E0,0E0,0E0,0E0,0E0,0E0,0E0,0E0,0E0,0E0,0E0,0E0,0E0,0E0,0E0,0E0,0E0,0E0,0E0,0E0,0E0,0E0,0E0,0E0,0E0,0E0,0E0,0E0,0E0,0E0,0E0,0E0,0E0,0E0,0E0,0E0,0E0,0E0,0E0,0E0,0E0,0E0,0E0,0E0,0E0,0E0,0E0,0E0,0E0,0E0,0E0,0E0,0E0,0E0],"parents":[2147483647,0,0,1,1,2,2,3,3,4,4,5,5,6,6,7,7,8,8,9,9,10,10,11,11,12,12,13,13,14,14,15,15,16,16,17,17,18,18,19,19,20,20,21,21,22,22,23,23,24,24,25,25,26,26,27,27,28,28,29,29,30,30,31,31,32,32,33,33,34,34,35,35,36,36,37,37,38,38,39,39,41,41,42,42,43,43,44,44,45,45,47,47,48,48,49,49,50,50,51,51,52,52,53,53,54,54,55,55,56,56,57,57,59,59,60,60,61,61,62,62],"right_children":[2,4,6,8,10,12,14,16,18,20,22,24,26,28,30,32,34,36,38,40,42,44,46,48,50,52,54,56,58,60,62,64,66,68,70,72,74,76,78,80,-1,82,84,86,88,90,-1,92,94,96,98,100,102,104,106,108,110,112,-1,114,116,118,120,-1,-1,-1,-1,-1,-1,-1,-1,-1,-1,-1,-1,-1,-1,-1,-1,-1,-1,-1,-1,-1,-1,-1,-1,-1,-1,-1,-1,-1,-1,-1,-1,-1,-1,-1,-1,-1,-1,-1,-1,-1,-1,-1,-1,-1,-1,-1,-1,-1,-1,-1,-1,-1,-1,-1,-1,-1,-1],"split_conditions":[1.722346E0,2.9111636E0,2.6096897E0,8.497931E-1,-3.0505648E-1,4.6321645E0,-1.9743206E-2,1.4850514E1,1.1525579E1,-5.72807E-1,-4.342785E-1,1.3917843E1,1.6644952E0,1.9630718E1,4.853777E0,3.8947825E0,8.335554E0,8.558471E0,1.4495232E1,1.2199896E1,1.7861673E1,1.9375612E1,1.26381855E1,7.7575984E0,-6.313921E0,1.5646555E0,1.1310417E1,1.6420517E1,-2.775736E0,-1.3703394E0,1.7865921E1,-5.4840794E0,2.2696645E0,8.731384E0,8.5076284E-1,9.657651E0,1.7716175E0,2.7159774E0,1.4430776E-1,-1.5017314E0,-9.543353E-2,1.5507742E1,9.025238E0,2.5774586E0,-5.4248924E0,7.2625093E0,-9.637634E-2,5.602989E-1,2.3515387E0,1.7865921E1,9.021572E0,1.1230843E1,6.4976153E0,2.47458E0,-1.8207293E0,2.07263E0,-5.4248924E0,2.445509E1,-9.681254E-2,1.9375612E1,1.2669292E1,2.5774586E0,-4.8171616E0,-4.536703E-2,-9.423288E-2,-8.272995E-2,-4.3870673E-2,-5.0361495E-2,-9.5058285E-2,-8.439156E-2,2.8826166E-2,-8.181655E-2,-4.582927E-3,-9.6846566E-2,1.5466821E-2,-9.285525E-2,-3.3165995E-2,-9.365265E-2,6.407873E-2,-3.382727E-2,-8.457001E-2,-3.7901785E-2,-9.048453E-2,-9.5940515E-2,5.2406628E-2,-2.413477E-2,5.1750924E-2,4.5720737E-2,-7.778159E-2,-8.53544E-2,-8.264626E-3,-6.523948E-3,-7.0350364E-2,-6.769213E-2,2.1810232E-2,4.064993E-2,-8.598132E-2,-9.600727E-2,-4.8242267E-2,-8.614549E-2,1.3724218E-2,5.669436E-2,-9.803677E-2,3.5521176E-2,6.825637E-2,5.655871E-2,-8.4293E-2,-5.8290135E-2,4.2716898E-2,4.326879E-3,-9.592733E-2,7.531982E-2,-9.427147E-2,7.8216024E-2,-1.9822644E-2,4.701416E-2,-9.094363E-2,-9.773844E-2,8.541504E-2,6.225918E-2,-7.669228E-2],"split_indices":[74,29,29,74,93,74,93,47,47,93,90,47,26,14,78,5,105,82,2,82,14,49,47,82,91,59,49,49,90,90,49,91,26,49,94,48,96,26,54,90,0,49,18,19,90,81,0,45,9,49,28,88,61,78,90,26,90,71,0,49,49,19,91,0,0,0,0,0,0,0,0,0,0,0,0,0,0,0,0,0,0,0,0,0,0,0,0,0,0,0,0,0,0,0,0,0,0,0,0,0,0,0,0,0,0,0,0,0,0,0,0,0,0,0,0,0,0,0,0,0,0],"split_type":[0,0,0,0,0,0,0,0,0,0,0,0,0,0,0,0,0,0,0,0,0,0,0,0,0,0,0,0,0,0,0,0,0,0,0,0,0,0,0,0,0,0,0,0,0,0,0,0,0,0,0,0,0,0,0,0,0,0,0,0,0,0,0,0,0,0,0,0,0,0,0,0,0,0,0,0,0,0,0,0,0,0,0,0,0,0,0,0,0,0,0,0,0,0,0,0,0,0,0,0,0,0,0,0,0,0,0,0,0,0,0,0,0,0,0,0,0,0,0,0,0],"sum_hessian":[2.4043855E5,1.1070479E5,1.2973375E5,8.934027E4,2.136451E4,2.6113037E4,1.0362072E5,7.883025E4,1.0510025E4,7.385064E3,1.3979445E4,1.4074396E4,1.2038641E4,2.535229E3,1.01085484E5,4.1418598E4,3.7411652E4,6.050815E3,4.4592104E3,5.5327764E3,1.852288E3,1.0031533E4,3.9479116E3,1.0726737E4,3.3476602E3,1.1876904E3,1.085095E4,1.9032722E3,6.3195685E2,2.343556E4,7.764993E4,2.0312645E4,2.1105953E4,3.6925508E4,4.8614523E2,3.3412512E3,2.7095635E3,4.365572E3,9.363887E1,1.4907452E3,4.042031E3,1.5945874E3,2.5770065E2,9.0819E3,9.496331E2,3.1464888E3,8.014227E2,3.5160508E3,7.210686E3,4.85368E2,2.862292E3,7.0634937E2,4.8134103E2,9.847215E3,1.00373535E3,1.0547959E3,8.4847626E2,5.720542E2,5.990265E1,1.2634314E4,1.0801245E4,7.551965E4,2.1302756E3,3.395104E2,1.9973135E4,1.7452268E4,3.6536855E3,4.8167736E1,3.687734E4,3.9980573E2,8.633949E1,2.9274888E3,4.137625E2,3.117926E2,2.397771E3,4.262015E3,1.03556305E2,2.9447626E1,6.4191246E1,3.4218066E2,1.1485646E3,8.987391E2,6.958483E2,3.3453865E1,2.2424678E2,9.767952E2,8.1051055E3,2.3269243E2,7.169407E2,1.0352344E3,2.1112544E3,1.018189E3,2.4978618E3,6.8801355E2,6.5226724E3,2.8496393E2,2.0040407E2,2.772688E3,8.9604034E1,6.5090625E2,5.5443092E1,4.568699E2,2.4471113E1,3.449281E3,6.397934E3,4.9891196E2,5.0482343E2,4.71913E2,5.82883E2,8.139117E1,7.670851E2,5.543333E2,1.772088E1,1.2388636E4,2.4567961E2,1.0400776E4,4.004681E2,5.2193874E1,7.546746E4,1.8392941E3,2.9098163E2],"tree_param":{"num_deleted":"0","num_feature":"116","num_nodes":"121","size_leaf_vector":"1"}},{"base_weights":[1.025492E-3,-1.3284606E0,1.3134812E0,-1.6056778E0,-4.0610808E-1,-1.257255E0,1.4105744E0,-1.7150342E0,-1.0059352E0,4.7704768E-1,-8.0902916E-1,-1.4943801E0,-1.631699E-1,8.6687416E-1,1.5626036E0,-1.4824967E0,-1.744063E0,-1.6677998E0,-5.6683815E-1,9.4002944E-1,-1.1772461E0,-1.9941895E-1,-1.3722147E0,-8.0100554E-1,-1.7816179E0,4.016866E-1,-1.6582054E0,9.7435355E-1,-7.3581576E-1,1.6438665E0,1.3531884E0,-2.7791718E-1,-1.5880708E0,-1.661524E0,-1.817825E0,-1.7550375E0,-1.0950934E0,-6.404661E-2,-1.5634911E0,-6.145239E-1,1.0649319E0,9.49151E-2,-1.4017576E0,-8.0107427E-1,4.8295227E-1,-1.7865075E0,-1.0172316E0,3.1732795E-1,-1.6430051E0,7.066863E-2,-1.7976038E0,-9.3280695E-2,7.648005E-1,-6.3523546E-2,-9.228305E-2,1.2666224E0,4.4236523E-1,5.870222E-1,-1.5685288E0,1.6593018E0,7.2232425E-1,1.4050118E0,-1.8351417E0,-7.5246654E-2,1.9785218E-2,4.3892474E-3,-8.156794E-2,-8.545625E-2,-5.5700332E-2,-9.10657E-2,-5.033819E-2,-8.895027E-2,-4.3186963E-2,-7.146782E-2,4.1382365E-2,-7.933639E-2,1.01790195E-2,-8.666335E-2,-3.9038446E-2,-5.6093365E-2,8.5533306E-2,-8.107408E-2,5.58662E-2,-9.469395E-2,4.043925E-2,-8.4448606E-2,-3.1638693E-2,-6.9140755E-2,-7.5753257E-3,-5.857382E-2,3.376737E-2,-9.237968E-2,-7.060519E-2,5.4989415E-3,-6.615134E-2,-9.438199E-2,5.395911E-2,-2.655462E-2,-8.877409E-2,8.673857E-3,-9.071148E-2,5.3444415E-2,-9.079656E-2,8.308651E-2,-8.458968E-2,-2.0738952E-2,6.5824494E-2,2.9269004E-2,-4.664227E-2,-9.525191E-2,4.137468E-2,-8.83751E-2,7.2573744E-2,7.369717E-2,8.478436E-2,6.121344E-2,-2.5421953E-2,5.142632E-2,7.452585E-2,7.269777E-2,-9.669938E-2],"categories":[],"categories_nodes":[],"categories_segments":[],"categories_sizes":[],"default_left":[0,0,0,0,0,0,0,0,0,0,0,0,0,0,0,0,0,0,0,0,0,0,0,0,0,0,0,0,0,0,0,0,0,0,0,0,0,0,0,0,0,0,0,0,0,0,0,0,0,0,0,0,0,0,0,0,0,0,0,0,0,0,0,0,0,0,0,0,0,0,0,0,0,0,0,0,0,0,0,0,0,0,0,0,0,0,0,0,0,0,0,0,0,0,0,0,0,0,0,0,0,0,0,0,0,0,0,0,0,0,0,0,0,0,0,0,0,0,0,0,0],"id":2,"left_children":[1,3,5,7,9,11,13,15,17,19,21,23,25,27,29,31,33,35,37,39,41,43,45,47,49,51,53,55,57,59,61,63,65,67,69,71,73,75,77,79,81,83,85,87,89,91,93,95,97,-1,99,-1,101,103,-1,105,107,109,111,113,115,117,119,-1,-1,-1,-1,-1,-1,-1,-1,-1,-1,-1,-1,-1,-1,-1,-1,-1,-1,-1,-1,-1,-1,-1,-1,-1,-1,-1,-1,-1,-1,-1,-1,-1,-1,-1,-1,-1,-1,-1,-1,-1,-1,-1,-1,-1,-1,-1,-1,-1,-1,-1,-1,-1,-1,-1,-1,-1,-1],"loss_changes":[4.1781538E5,3.0414812E4,3.0078E4,5.9969688E3,9.782903E3,1.1376147E3,9.596281E3,5.196094E2,4.0990996E3,6.59823E3,6.4812305E3,7.1646387E2,6.6136536E2,4.3716836E3,1.5419219E3,1.0921934E3,4.1565625E2,2.7916797E2,4.2506494E3,1.3075039E3,5.3821436E2,3.7228113E3,1.4413262E3,9.9643884E2,1.326748E2,4.695805E2,6.407385E1,3.696918E3,1.7582206E3,9.2859375E2,4.194918E3,5.738434E2,5.731875E2,8.441797E2,1.0088281E2,1.02728516E2,4.8087628E2,2.2984092E3,3.7662646E2,5.931563E2,8.787119E2,4.0408618E2,3.526211E2,1.8207148E3,1.35329E3,1.00924805E2,1.8225562E3,7.665712E2,8.795862E1,0E0,8.341016E1,0E0,3.8714545E2,6.9171684E1,0E0,1.2874121E3,1.6592559E3,3.7133258E2,5.910227E2,4.3109375E2,6.6693976E2,8.0220703E2,1.3488892E2,0E0,0E0,0E0,0E0,0E0,0E0,0E0,0E0,0E0,0E0,0E0,0E0,0E0,0E0,0E0,0E0,0E0,0E0,0E0,0E0,0E0,0E0,0E0,0E0,0E0,0E0,0E0,0E0,0E0,0E0,0E0,0E0,0E0,0E0,0E0,0E0,0E0,0E0,0E0,0E0,0E0,0E0,0E0,0E0,0E0,0E0,0E0,0E0,0E0,0E0,0E0,0E0,0E0,0E0,0E0,0E0,0E0,0E0],"parents":[2147483647,0,0,1,1,2,2,3,3,4,4,5,5,6,6,7,7,8,8,9,9,10,10,11,11,12,12,13,13,14,14,15,15,16,16,17,17,18,18,19,19,20,20,21,21,22,22,23,23,24,24,25,25,26,26,27,27,28,28,29,29,30,30,31,31,32,32,33,33,34,34,35,35,36,36,37,37,38,38,39,39,40,40,41,41,42,42,43,43,44,44,45,45,46,46,47,47,48,48,50,50,52,52,53,53,55,55,56,56,57,57,58,58,59,59,60,60,61,61,62,62],"right_children":[2,4,6,8,10,12,14,16,18,20,22,24,26,28,30,32,34,36,38,40,42,44,46,48,50,52,54,56,58,60,62,64,66,68,70,72,74,76,78,80,82,84,86,88,90,92,94,96,98,-1,100,-1,102,104,-1,106,108,110,112,114,116,118,120,-1,-1,-1,-1,-1,-1,-1,-1,-1,-1,-1,-1,-1,-1,-1,-1,-1,-1,-1,-1,-1,-1,-1,-1,-1,-1,-1,-1,-1,-1,-1,-1,-1,-1,-1,-1,-1,-1,-1,-1,-1,-1,-1,-1,-1,-1,-1,-1,-1,-1,-1,-1,-1,-1,-1,-1,-1,-1],"split_conditions":[3.118165E0,1.0876814E0,-3.0505648E-1,2.3289871E0,-1.0342503E0,1.4465536E1,5.780695E0,-1.6530256E0,-4.4380662E-1,1.5094631E1,8.051873E0,1.3625605E1,-1.3703394E0,1.7393051E1,-1.1376419E0,9.32649E0,1.1525409E1,8.5972756E-1,-2.7958488E-1,7.4525437E0,-5.4248924E0,7.7575984E0,3.5225496E-1,5.3131857E0,2.4728975E0,8.264504E0,9.8364725E0,-3.7942886E-1,-3.6170063E0,1.9375612E1,1.397722E1,8.350459E0,-9.824112E-1,2.3871195E0,2.6691995E0,1.8636684E1,1.050712E1,5.748276E0,2.2696645E0,9.804152E-1,1.0187556E0,3.5996415E-2,2.2084076E0,1.9470117E0,2.4343781E0,8.3504254E-1,8.838216E-1,7.045855E0,4.9657446E-1,7.066863E-2,2.0599017E0,-9.3280695E-2,2.2975536E1,-4.1256466E0,-9.228305E-2,7.2875514E0,1.0458938E1,9.195924E-1,1.0518668E1,6.270273E-1,-4.290436E0,5.882408E0,1.2205642E1,-7.5246654E-2,1.9785218E-2,4.3892474E-3,-8.156794E-2,-8.545625E-2,-5.5700332E-2,-9.10657E-2,-5.033819E-2,-8.895027E-2,-4.3186963E-2,-7.146782E-2,4.1382365E-2,-7.933639E-2,1.01790195E-2,-8.666335E-2,-3.9038446E-2,-5.6093365E-2,8.5533306E-2,-8.107408E-2,5.58662E-2,-9.469395E-2,4.043925E-2,-8.4448606E-2,-3.1638693E-2,-6.9140755E-2,-7.5753257E-3,-5.857382E-2,3.376737E-2,-9.237968E-2,-7.060519E-2,5.4989415E-3,-6.615134E-2,-9.438199E-2,5.395911E-2,-2.655462E-2,-8.877409E-2,8.673857E-3,-9.071148E-2,5.3444415E-2,-9.079656E-2,8.308651E-2,-8.458968E-2,-2.0738952E-2,6.5824494E-2,2.9269004E-2,-4.664227E-2,-9.525191E-2,4.137468E-2,-8.83751E-2,7.2573744E-2,7.369717E-2,8.478436E-2,6.121344E-2,-2.5421953E-2,5.142632E-2,7.452585E-2,7.269777E-2,-9.669938E-2],"split_indices":[72,74,93,29,90,11,72,90,93,49,49,49,90,49,90,49,81,51,90,81,90,82,93,7,62,19,6,90,90,49,49,82,51,26,73,88,19,28,26,51,19,94,72,26,16,51,61,11,60,0,33,0,49,74,0,57,107,105,105,93,90,73,81,0,0,0,0,0,0,0,0,0,0,0,0,0,0,0,0,0,0,0,0,0,0,0,0,0,0,0,0,0,0,0,0,0,0,0,0,0,0,0,0,0,0,0,0,0,0,0,0,0,0,0,0,0,0,0,0,0,0],"split_type":[0,0,0,0,0,0,0,0,0,0,0,0,0,0,0,0,0,0,0,0,0,0,0,0,0,0,0,0,0,0,0,0,0,0,0,0,0,0,0,0,0,0,0,0,0,0,0,0,0,0,0,0,0,0,0,0,0,0,0,0,0,0,0,0,0,0,0,0,0,0,0,0,0,0,0,0,0,0,0,0,0,0,0,0,0,0,0,0,0,0,0,0,0,0,0,0,0,0,0,0,0,0,0,0,0,0,0,0,0,0,0,0,0,0,0,0,0,0,0,0,0],"sum_hessian":[2.3944862E5,1.1895255E5,1.2049608E5,9.1462375E4,2.7490174E4,4.3849097E3,1.1611117E5,7.735558E4,1.4106791E4,8.612469E3,1.8877705E4,3.6035361E3,7.813736E2,2.5373814E4,9.073736E4,8.590754E3,6.876483E4,5.625102E3,8.481689E3,6.729529E3,1.8829395E3,9.06587E3,9.811836E3,1.0566458E3,2.5468904E3,5.676388E2,2.1373482E2,2.3779508E4,1.5943058E3,6.5365582E4,2.5371775E4,6.9254767E2,7.898206E3,3.24628E4,3.6302027E4,4.879731E3,7.453709E2,5.6383286E3,2.8433604E3,5.0018866E2,6.2293403E3,2.825409E2,1.6003984E3,4.81779E3,4.2480806E3,4.525821E3,5.286015E3,4.541167E2,6.0252905E2,1.2244598E1,2.5346458E3,7.778814E1,4.8985068E2,2.2622696E1,1.9111212E2,1.534677E4,8.432738E3,6.160118E2,9.7829395E2,6.4288008E4,1.077576E3,2.4966527E4,4.0524854E2,2.450145E2,4.475332E2,1.98851E2,7.699355E3,2.986429E4,2.59851E3,3.61453E4,1.5672954E2,4.7509766E3,1.2875453E2,6.351998E2,1.10171074E2,8.4211755E2,4.7962114E3,2.335554E3,5.0780643E2,4.110232E2,8.916544E1,1.1859154E2,6.1107485E3,7.419252E1,2.0834839E2,1.1643273E3,4.3607123E2,2.5409944E3,2.2767957E3,4.420187E2,3.8060618E3,3.887601E3,6.382194E2,1.1281421E3,4.1578726E3,1.1623377E2,3.378829E2,6.467803E1,5.37851E2,2.1121696E1,2.5135242E3,4.3873975E2,5.111092E1,1.0974247E1,1.1648449E1,4.418362E2,1.4904933E4,7.6389062E3,7.938325E2,5.3601807E1,5.6241E2,9.182122E2,6.008175E1,1.0555686E4,5.373232E4,7.65419E2,3.1215698E2,4.6232144E3,2.0343312E4,1.1423471E1,3.9382504E2],"tree_param":{"num_deleted":"0","num_feature":"116","num_nodes":"121","size_leaf_vector":"1"}},{"base_weights":[-7.095846E-4,-1.2735815E0,1.2580262E0,-1.5100574E0,-2.8496218E-1,-1.0329369E0,1.3446031E0,-1.617152E0,-9.2204475E-1,6.380878E-2,-1.3507774E0,-1.2960972E0,5.536495E-1,8.16146E-1,1.4958099E0,-1.2881421E0,-1.6763529E0,-5.0604326E-1,-1.6087368E0,-7.875523E-1,4.0127483E-1,-2.4529788E-1,-1.6663136E0,-6.140768E-1,-1.7102109E0,-8.884504E-2,7.972458E-1,9.244256E-1,-7.8793305E-1,1.5073905E0,-9.983761E-2,-1.5512849E0,-4.322503E-1,-1.5794232E0,-1.744158E0,-1.5667896E0,-1.5224029E-1,-1.6984724E0,5.8496547E-1,-1.2617888E0,-1.6312735E-1,9.5544535E-1,6.5690935E-2,-1.1580601E0,5.1456964E-1,-8.8007194E-1,-1.7499992E0,8.800767E-1,-9.64218E-1,7.7137224E-2,-1.7270713E0,-9.13466E-2,1.0238621E0,2.6664878E-3,1.0830612E0,-1.6587275E0,3.8808382E-1,1.2940226E0,1.5843246E0,9.35528E-1,-1.6095613E0,-8.407818E-2,-5.633048E-2,-6.231553E-2,3.245685E-2,-8.6242095E-2,-7.199582E-2,-8.745625E-2,-6.841681E-2,4.7813067E-3,-8.3315924E-2,-5.6000914E-2,7.85024E-3,-8.675045E-2,2.5714168E-2,5.862854E-2,-9.102293E-2,-6.995548E-2,4.0710896E-2,2.0566419E-2,-4.5345455E-2,-8.18229E-2,5.2498855E-2,-8.3019786E-2,1.037683E-2,7.200068E-2,-7.026117E-2,-7.435369E-2,4.657711E-2,-7.652498E-2,2.8351841E-2,-8.8473506E-2,4.8254E-2,6.262167E-2,-8.906581E-2,4.8207156E-2,-7.285016E-2,-4.1750472E-2,-8.804985E-2,6.1936196E-2,-9.350607E-2,3.2854013E-2,-3.3131402E-2,3.0566862E-2,6.0882747E-2,-8.940797E-2,-2.5039738E-2,3.622269E-2,-9.0754375E-2,-1.8923039E-2,6.566836E-2,8.110339E-2,6.883355E-2,-1.0068353E-1,5.7906993E-2,4.5343697E-2,-9.538364E-2],"categories":[],"categories_nodes":[],"categories_segments":[],"categories_sizes":[],"default_left":[0,0,0,0,0,0,0,0,0,0,0,0,0,0,0,0,0,0,0,0,0,0,0,0,0,0,0,0,0,0,0,0,0,0,0,0,0,0,0,0,0,0,0,0,0,0,0,0,0,0,0,0,0,0,0,0,0,0,0,0,0,0,0,0,0,0,0,0,0,0,0,0,0,0,0,0,0,0,0,0,0,0,0,0,0,0,0,0,0,0,0,0,0,0,0,0,0,0,0,0,0,0,0,0,0,0,0,0,0,0,0,0,0,0,0,0,0],"id":3,"left_children":[1,3,5,7,9,11,13,15,17,19,21,23,25,27,29,31,33,35,37,39,41,43,45,47,49,-1,51,53,55,57,59,61,63,65,67,69,71,73,75,77,79,81,83,85,87,89,91,93,95,-1,97,-1,99,101,103,105,107,109,111,113,115,-1,-1,-1,-1,-1,-1,-1,-1,-1,-1,-1,-1,-1,-1,-1,-1,-1,-1,-1,-1,-1,-1,-1,-1,-1,-1,-1,-1,-1,-1,-1,-1,-1,-1,-1,-1,-1,-1,-1,-1,-1,-1,-1,-1,-1,-1,-1,-1,-1,-1,-1,-1,-1,-1,-1,-1],"loss_changes":[3.8036662E5,2.7595016E4,2.3676406E4,5.9968906E3,8.470098E3,1.8157534E3,9.189375E3,1.5672812E3,4.1921436E3,4.932989E3,1.9592295E3,1.0521343E3,3.5292053E2,4.445508E3,1.6526406E3,2.767746E3,4.4604688E2,3.4307024E3,1.0909531E3,1.4430896E3,2.2865957E3,8.666201E2,2.8601367E2,7.386897E2,1.2988672E2,0E0,3.356388E2,3.5053809E3,1.6583357E3,1.4553594E3,1.01017175E3,5.1823047E2,2.5465547E3,5.679219E2,7.2578125E1,3.7847266E2,2.0521995E3,4.309629E2,3.1073962E2,7.9079443E2,8.997673E2,1.1379775E3,1.87564E3,3.6647815E2,5.706676E2,3.9847247E2,2.1046387E2,2.680907E2,1.0876215E3,0E0,6.8382324E1,0E0,3.2396503E2,1.5333772E3,1.2978223E3,1.3852417E2,5.1227704E2,7.6191016E2,5.0915625E2,2.5405344E2,1.9893555E2,0E0,0E0,0E0,0E0,0E0,0E0,0E0,0E0,0E0,0E0,0E0,0E0,0E0,0E0,0E0,0E0,0E0,0E0,0E0,0E0,0E0,0E0,0E0,0E0,0E0,0E0,0E0,0E0,0E0,0E0,0E0,0E0,0E0,0E0,0E0,0E0,0E0,0E0,0E0,0E0,0E0,0E0,0E0,0E0,0E0,0E0,0E0,0E0,0E0,0E0,0E0,0E0,0E0,0E0,0E0,0E0],"parents":[2147483647,0,0,1,1,2,2,3,3,4,4,5,5,6,6,7,7,8,8,9,9,10,10,11,11,12,12,13,13,14,14,15,15,16,16,17,17,18,18,19,19,20,20,21,21,22,22,23,23,24,24,26,26,27,27,28,28,29,29,30,30,31,31,32,32,33,33,34,34,35,35,36,36,37,37,38,38,39,39,40,40,41,41,42,42,43,43,44,44,45,45,46,46,47,47,48,48,50,50,52,52,53,53,54,54,55,55,56,56,57,57,58,58,59,59,60,60],"right_children":[2,4,6,8,10,12,14,16,18,20,22,24,26,28,30,32,34,36,38,40,42,44,46,48,50,-1,52,54,56,58,60,62,64,66,68,70,72,74,76,78,80,82,84,86,88,90,92,94,96,-1,98,-1,100,102,104,106,108,110,112,114,116,-1,-1,-1,-1,-1,-1,-1,-1,-1,-1,-1,-1,-1,-1,-1,-1,-1,-1,-1,-1,-1,-1,-1,-1,-1,-1,-1,-1,-1,-1,-1,-1,-1,-1,-1,-1,-1,-1,-1,-1,-1,-1,-1,-1,-1,-1,-1,-1,-1,-1,-1,-1,-1,-1,-1,-1],"split_conditions":[3.118165E0,1.3424816E0,-5.147468E-1,2.3289871E0,1.3917843E1,1.9630718E1,5.780695E0,8.401354E0,1.5357277E1,7.2110834E0,-7.4355063E0,1.5507742E1,-8.8214946E-1,1.7393051E1,2.1914297E1,8.684842E0,1.3446404E1,7.6633544E0,1.0518668E1,3.0033395E0,-1.7410898E0,1.1776025E-1,1.4850514E1,-2.727315E-1,2.4728975E0,-8.884504E-2,9.404402E0,7.7575984E0,8.398075E0,6.275215E0,-1.2282013E1,7.2875514E0,4.263702E0,8.684842E0,8.335554E0,7.1957226E0,4.5793033E0,1.5495244E1,5.1100426E0,3.9604362E1,6.155226E0,5.748276E0,4.7621007E0,-3.9805853E-1,7.0462546E0,3.6137712E0,2.1075363E1,5.3761177E0,2.7214477E0,7.7137224E-2,-1.35173025E1,-9.13466E-2,1.7290623E1,3.7801461E0,2.0750926E0,7.8347964E0,-7.4355063E0,3.4126394E0,1.4361914E1,1.0714896E1,-1.7898788E1,-8.407818E-2,-5.633048E-2,-6.231553E-2,3.245685E-2,-8.6242095E-2,-7.199582E-2,-8.745625E-2,-6.841681E-2,4.7813067E-3,-8.3315924E-2,-5.6000914E-2,7.85024E-3,-8.675045E-2,2.5714168E-2,5.862854E-2,-9.102293E-2,-6.995548E-2,4.0710896E-2,2.0566419E-2,-4.5345455E-2,-8.18229E-2,5.2498855E-2,-8.3019786E-2,1.037683E-2,7.200068E-2,-7.026117E-2,-7.435369E-2,4.657711E-2,-7.652498E-2,2.8351841E-2,-8.8473506E-2,4.8254E-2,6.262167E-2,-8.906581E-2,4.8207156E-2,-7.285016E-2,-4.1750472E-2,-8.804985E-2,6.1936196E-2,-9.350607E-2,3.2854013E-2,-3.3131402E-2,3.0566862E-2,6.0882747E-2,-8.940797E-2,-2.5039738E-2,3.622269E-2,-9.0754375E-2,-1.8923039E-2,6.566836E-2,8.110339E-2,6.883355E-2,-1.0068353E-1,5.7906993E-2,4.5343697E-2,-9.538364E-2],"split_indices":[72,73,94,29,47,14,72,49,47,71,92,49,95,49,46,57,46,81,105,73,92,95,47,39,62,0,16,82,98,30,92,57,16,57,105,112,9,96,25,106,25,28,25,55,2,29,9,25,104,0,20,0,12,33,29,20,92,17,47,96,20,0,0,0,0,0,0,0,0,0,0,0,0,0,0,0,0,0,0,0,0,0,0,0,0,0,0,0,0,0,0,0,0,0,0,0,0,0,0,0,0,0,0,0,0,0,0,0,0,0,0,0,0,0,0,0,0],"split_type":[0,0,0,0,0,0,0,0,0,0,0,0,0,0,0,0,0,0,0,0,0,0,0,0,0,0,0,0,0,0,0,0,0,0,0,0,0,0,0,0,0,0,0,0,0,0,0,0,0,0,0,0,0,0,0,0,0,0,0,0,0,0,0,0,0,0,0,0,0,0,0,0,0,0,0,0,0,0,0,0,0,0,0,0,0,0,0,0,0,0,0,0,0,0,0,0,0,0,0,0,0,0,0,0,0,0,0,0,0,0,0,0,0,0,0,0,0],"sum_hessian":[2.3739927E5,1.1803683E5,1.1936244E5,9.5252164E4,2.2784666E4,4.346116E3,1.1501632E5,8.057527E4,1.4676893E4,1.7167738E4,5.6169272E3,3.7279592E3,6.181573E2,2.5589451E4,8.9426875E4,1.2290953E4,6.828432E4,9.140979E3,5.535914E3,4.8729365E3,1.2294803E4,1.2476322E3,4.3692954E3,1.4093418E3,2.3186174E3,5.7901726E1,5.6025555E2,2.397172E4,1.6177307E3,8.878258E4,6.442919E2,9.400093E3,2.8908596E3,2.8115957E4,4.0168363E4,2.2854575E3,6.855521E3,5.318578E3,2.1733615E2,2.7689563E3,2.1039805E3,4.6364683E3,7.658334E3,5.665551E2,6.81077E2,4.214267E2,3.9478684E3,2.6727765E2,1.1420641E3,1.1488981E1,2.3071284E3,4.3974678E1,5.162809E2,3.5199453E3,2.0451775E4,9.292482E2,6.884824E2,2.3533361E4,6.524922E4,3.8241364E2,2.618782E2,7.1911035E3,2.2089897E3,1.6492009E3,1.2416587E3,1.3760733E4,1.4355224E4,3.9640812E4,5.2755194E2,1.2910318E2,2.1563542E3,1.6595044E3,5.1960166E3,5.2323975E3,8.618041E1,1.7507964E2,4.2256527E1,2.5974688E3,1.7148753E2,1.1873693E3,9.166111E2,1.6257663E2,4.4738916E3,5.8074E2,7.077594E3,4.8796913E1,5.177582E2,1.16976135E2,5.641009E2,2.9070624E2,1.3072046E2,3.9201042E3,2.7764294E1,2.3493694E2,3.2340717E1,2.3225397E2,9.098102E2,8.546557E1,2.2216628E3,4.8113156E2,3.51493E1,1.7744896E3,1.7454558E3,4.5412275E3,1.5910547E4,8.353319E2,9.3916336E1,5.978731E2,9.060931E1,2.6887073E2,2.326449E4,5.5207832E4,1.0041388E4,2.6274826E1,3.5613882E2,2.7521353E1,2.3435684E2],"tree_param":{"num_deleted":"0","num_feature":"116","num_nodes":"117","size_leaf_vector":"1"}},{"base_weights":[-1.3660538E-3,-1.2596035E0,1.1710066E0,-1.486743E0,-3.777781E-1,2.6545924E-1,1.3611822E0,-1.5640405E0,-9.1900146E-1,-1.4969527E0,9.0295345E-2,5.35755E-1,-1.0200174E0,-1.150445E0,1.3927592E0,-1.5894437E0,-9.9768996E-1,-5.672941E-1,-1.4827385E0,-1.5609034E0,-5.48244E-1,5.26732E-1,-7.25375E-1,-5.3584534E-1,7.25025E-1,2.5564596E-1,-1.5998467E0,-1.5211723E0,3.703251E-1,1.1421316E0,1.50125E0,-1.4984215E0,-1.6798531E0,-5.254871E-1,-1.6281357E0,-9.607873E-1,4.9021944E-1,-1.6010833E0,-1.43743E-1,-6.976985E-1,-1.6064309E0,9.2033935E-1,-1.3349354E0,8.367752E-1,-4.775437E-1,-1.3175837E0,-1.6714375E-1,1.2453077E0,-8.3472645E-1,1.2895184E0,4.5929778E-1,-1.5090617E0,5.557139E-1,-1.6963173E0,-5.6199175E-1,8.9557433E-1,-1.6347014E0,9.9740213E-1,-9.102002E-2,1.2228916E0,1.14551574E-1,1.5183686E0,7.03543E-1,-8.220389E-2,-6.520034E-2,-7.097885E-2,-8.447131E-2,-8.5456304E-2,-3.6110727E-3,-8.402555E-2,3.8530022E-2,-6.62654E-2,-2.102959E-3,-9.136977E-2,4.0103834E-2,-5.433047E-2,-8.6298175E-2,-8.889636E-2,4.916128E-2,-8.575181E-2,4.366484E-2,-6.833859E-2,-8.518191E-2,7.315478E-2,-8.448148E-2,-8.650682E-2,-1.5507625E-2,-3.246871E-2,4.8663225E-2,-7.2023444E-2,2.9216055E-2,-7.280617E-2,-2.4326054E-2,-6.588169E-2,1.1055039E-2,-2.4914687E-2,8.706544E-2,4.0118485E-3,-6.841316E-2,6.6200614E-2,-1.02058806E-1,-3.2589894E-2,3.2494295E-2,7.114186E-2,-8.747221E-2,3.8768753E-2,-9.577024E-2,-8.5713565E-2,-7.486918E-3,5.0319936E-2,-8.990031E-2,9.4238125E-2,-7.908701E-2,-8.385716E-2,5.249326E-3,-8.9282595E-2,6.472093E-2,2.5302932E-2,6.413407E-2,5.1218558E-2,-6.972186E-2,7.735689E-2,6.315424E-2,6.0575392E-2,-9.755477E-2],"categories":[],"categories_nodes":[],"categories_segments":[],"categories_sizes":[],"default_left":[0,0,0,0,0,0,0,0,0,0,0,0,0,0,0,0,0,0,0,0,0,0,0,0,0,0,0,0,0,0,0,0,0,0,0,0,0,0,0,0,0,0,0,0,0,0,0,0,0,0,0,0,0,0,0,0,0,0,0,0,0,0,0,0,0,0,0,0,0,0,0,0,0,0,0,0,0,0,0,0,0,0,0,0,0,0,0,0,0,0,0,0,0,0,0,0,0,0,0,0,0,0,0,0,0,0,0,0,0,0,0,0,0,0,0,0,0,0,0,0,0,0,0,0,0],"id":4,"left_children":[1,3,5,7,9,11,13,15,17,19,21,23,25,27,29,31,33,35,37,39,41,43,45,47,49,51,53,55,57,59,61,63,65,67,69,71,73,75,77,79,81,83,85,87,89,91,93,95,97,99,101,103,105,107,109,111,113,115,-1,117,119,121,123,-1,-1,-1,-1,-1,-1,-1,-1,-1,-1,-1,-1,-1,-1,-1,-1,-1,-1,-1,-1,-1,-1,-1,-1,-1,-1,-1,-1,-1,-1,-1,-1,-1,-1,-1,-1,-1,-1,-1,-1,-1,-1,-1,-1,-1,-1,-1,-1,-1,-1,-1,-1,-1,-1,-1,-1,-1,-1,-1,-1,-1,-1],"loss_changes":[3.4723206E5,2.2740844E4,2.0984469E4,3.960625E3,1.2183119E4,7.3494375E3,7.9884688E3,1.1416406E3,2.1447168E3,4.1523926E2,5.8382705E3,3.5449902E3,2.7186536E3,7.058196E2,2.7025312E3,6.233125E2,1.0154536E3,2.7741467E3,6.5848145E2,2.5136426E2,5.0339008E2,3.3269329E3,1.8896006E3,1.3979197E3,2.2274448E3,6.094099E2,2.5202588E2,2.7746387E2,3.3973166E2,2.4936016E3,9.467031E2,1.0712656E3,9.2640625E1,1.0478746E3,1.8491016E2,1.6269463E3,1.3084084E3,2.435E2,6.254525E2,5.187512E2,1.3982617E2,2.1808646E2,1.1425638E2,1.6565894E3,2.5784055E3,3.186416E2,1.3152124E3,3.2728967E2,1.0972802E3,5.488335E2,2.1394053E3,1.20389984E2,5.350521E2,6.3922363E1,4.212784E2,1.1516824E2,7.11438E1,1.6092628E2,0E0,1.1934102E3,3.009047E3,4.970625E2,1.9711184E3,0E0,0E0,0E0,0E0,0E0,0E0,0E0,0E0,0E0,0E0,0E0,0E0,0E0,0E0,0E0,0E0,0E0,0E0,0E0,0E0,0E0,0E0,0E0,0E0,0E0,0E0,0E0,0E0,0E0,0E0,0E0,0E0,0E0,0E0,0E0,0E0,0E0,0E0,0E0,0E0,0E0,0E0,0E0,0E0,0E0,0E0,0E0,0E0,0E0,0E0,0E0,0E0,0E0,0E0,0E0,0E0,0E0,0E0,0E0,0E0,0E0,0E0],"parents":[2147483647,0,0,1,1,2,2,3,3,4,4,5,5,6,6,7,7,8,8,9,9,10,10,11,11,12,12,13,13,14,14,15,15,16,16,17,17,18,18,19,19,20,20,21,21,22,22,23,23,24,24,25,25,26,26,27,27,28,28,29,29,30,30,31,31,32,32,33,33,34,34,35,35,36,36,37,37,38,38,39,39,40,40,41,41,42,42,43,43,44,44,45,45,46,46,47,47,48,48,49,49,50,50,51,51,52,52,53,53,54,54,55,55,56,56,57,57,59,59,60,60,61,61,62,62],"right_children":[2,4,6,8,10,12,14,16,18,20,22,24,26,28,30,32,34,36,38,40,42,44,46,48,50,52,54,56,58,60,62,64,66,68,70,72,74,76,78,80,82,84,86,88,90,92,94,96,98,100,102,104,106,108,110,112,114,116,-1,118,120,122,124,-1,-1,-1,-1,-1,-1,-1,-1,-1,-1,-1,-1,-1,-1,-1,-1,-1,-1,-1,-1,-1,-1,-1,-1,-1,-1,-1,-1,-1,-1,-1,-1,-1,-1,-1,-1,-1,-1,-1,-1,-1,-1,-1,-1,-1,-1,-1,-1,-1,-1,-1,-1,-1,-1,-1,-1,-1,-1,-1,-1,-1,-1],"split_conditions":[2.3783133E0,2.6096897E0,4.441828E0,1.2221488E0,-3.9833686E-1,1.3917843E1,-3.9833686E-1,2.2084076E0,1.1057769E1,1.3737072E1,-5.6461143E-1,1.729232E0,-5.4840794E0,1.9630718E1,7.195033E0,1.3831872E1,1.397722E1,2.2330198E0,9.666745E-1,7.531949E0,6.1219335E0,1.4787185E1,7.4829704E-1,4.286092E1,-1.9127922E0,-1.13347866E-1,7.195033E0,6.4892926E0,8.091208E0,1.5357277E1,2.0094263E1,4.434847E0,-7.53924E0,7.704366E0,9.315244E0,9.010743E0,2.486121E0,-3.094236E0,1.6749258E1,1.0926344E1,1.2199896E1,-1.137126E0,-5.72807E-1,7.6633544E0,5.206956E0,3.5274044E-1,7.363104E0,1.4046465E1,5.5512524E0,1.0486339E1,-6.0568804E-1,-1.35173025E1,1.6200214E1,1.5191085E1,1.2669292E1,3.771558E0,1.5354258E-1,5.684997E0,-9.102002E-2,7.3093505E0,-5.4840794E0,9.650932E0,-7.53924E0,-8.220389E-2,-6.520034E-2,-7.097885E-2,-8.447131E-2,-8.5456304E-2,-3.6110727E-3,-8.402555E-2,3.8530022E-2,-6.62654E-2,-2.102959E-3,-9.136977E-2,4.0103834E-2,-5.433047E-2,-8.6298175E-2,-8.889636E-2,4.916128E-2,-8.575181E-2,4.366484E-2,-6.833859E-2,-8.518191E-2,7.315478E-2,-8.448148E-2,-8.650682E-2,-1.5507625E-2,-3.246871E-2,4.8663225E-2,-7.2023444E-2,2.9216055E-2,-7.280617E-2,-2.4326054E-2,-6.588169E-2,1.1055039E-2,-2.4914687E-2,8.706544E-2,4.0118485E-3,-6.841316E-2,6.6200614E-2,-1.02058806E-1,-3.2589894E-2,3.2494295E-2,7.114186E-2,-8.747221E-2,3.8768753E-2,-9.577024E-2,-8.5713565E-2,-7.486918E-3,5.0319936E-2,-8.990031E-2,9.4238125E-2,-7.908701E-2,-8.385716E-2,5.249326E-3,-8.9282595E-2,6.472093E-2,2.5302932E-2,6.413407E-2,5.1218558E-2,-6.972186E-2,7.735689E-2,6.315424E-2,6.0575392E-2,-9.755477E-2],"split_indices":[73,29,72,74,93,47,93,72,49,5,91,26,91,14,29,46,49,26,93,112,85,46,74,70,91,93,29,23,69,47,46,9,91,56,40,82,9,91,112,14,82,75,93,81,104,43,82,23,24,18,50,20,115,16,49,3,39,67,0,56,91,69,91,0,0,0,0,0,0,0,0,0,0,0,0,0,0,0,0,0,0,0,0,0,0,0,0,0,0,0,0,0,0,0,0,0,0,0,0,0,0,0,0,0,0,0,0,0,0,0,0,0,0,0,0,0,0,0,0,0,0,0,0,0,0],"split_type":[0,0,0,0,0,0,0,0,0,0,0,0,0,0,0,0,0,0,0,0,0,0,0,0,0,0,0,0,0,0,0,0,0,0,0,0,0,0,0,0,0,0,0,0,0,0,0,0,0,0,0,0,0,0,0,0,0,0,0,0,0,0,0,0,0,0,0,0,0,0,0,0,0,0,0,0,0,0,0,0,0,0,0,0,0,0,0,0,0,0,0,0,0,0,0,0,0,0,0,0,0,0,0,0,0,0,0,0,0,0,0,0,0,0,0,0,0,0,0,0,0,0,0,0,0],"sum_hessian":[2.3538992E5,1.1353718E5,1.2185274E5,9.028181E4,2.3255367E4,2.1149393E4,1.0070334E5,7.9461445E4,1.0820371E4,6.857272E3,1.6398096E4,1.7475436E4,3.673957E3,1.2499177E3,9.945343E4,7.6048555E4,3.4128887E3,6.664496E3,4.155875E3,6.4236216E3,4.336507E2,1.0682576E4,5.715519E3,2.6229736E3,1.4852462E4,1.1482622E3,2.5256948E3,1.00493774E3,2.4498003E2,3.0048674E4,6.940476E4,3.790463E4,3.8143926E4,1.9523872E3,1.4605013E3,4.857242E3,1.8072535E3,3.8182136E3,3.3766162E2,3.2264093E2,6.1009805E3,1.5120801E2,2.824427E2,8.162722E3,2.5198542E3,2.7726975E3,2.9428215E3,3.7644135E2,2.2465325E3,4.752568E3,1.0099895E4,1.6628813E2,9.8197406E2,2.3103125E3,2.1538246E2,4.4780724E1,9.6015704E2,1.9088538E2,5.4094646E1,2.785898E4,2.1896929E3,6.794576E4,1.4589991E3,2.166539E4,1.6239239E4,1.3584689E3,3.6785457E4,5.398569E2,1.4125303E3,1.4295864E3,3.091493E1,3.4771738E3,1.3800687E3,2.137652E2,1.5934883E3,7.476777E2,3.070536E3,1.3758133E2,2.0008028E2,1.9577208E2,1.2686885E2,1.7648639E3,4.3361167E3,1.2554063E2,2.5667385E1,2.0333827E2,7.91044E1,6.862963E2,7.476426E3,1.3213055E3,1.1985488E3,2.3758816E3,3.9681604E2,7.419115E2,2.20091E3,8.3368835E1,2.930725E2,8.277948E2,1.4187375E3,4.704449E3,4.811859E1,1.4784379E3,8.621456E3,1.2227884E1,1.5406024E2,9.0244104E2,7.953301E1,2.2836929E3,2.661951E1,9.500962E1,1.2037283E2,3.2173203E1,1.2607521E1,9.3732574E2,2.2831257E1,1.7924088E1,1.7296129E2,2.145504E3,2.5713477E4,1.366254E3,8.234389E2,6.1059594E4,6.8861626E3,1.2251168E3,2.3388234E2],"tree_param":{"num_deleted":"0","num_feature":"116","num_nodes":"125","size_leaf_vector":"1"}},{"base_weights":[-1.1831698E-3,-1.201847E0,1.1227732E0,-1.4184827E0,-2.8976345E-1,4.3469843E-1,1.3386246E0,-1.5017899E0,-8.2783633E-1,-1.4053198E0,1.12327375E-1,6.4463055E-1,-1.2205892E0,1.3626302E0,-1.0488275E0,-1.3971472E0,-1.6226643E0,-5.4410243E-1,-1.4444982E0,-1.5104631E0,-3.1047538E-1,6.577461E-1,-7.1963125E-1,2.015907E-1,1.0005288E0,4.6655864E-2,-1.5311334E0,1.0771343E0,1.462973E0,3.056164E-1,-1.4372092E0,-1.0544125E0,-1.5188392E0,-1.6313331E0,-9.768146E-1,4.889504E-1,-8.411688E-1,-6.53265E-1,-1.6091336E0,-4.4619226E-1,-1.5721079E0,8.4810597E-1,-1.166716E0,8.1362265E-1,-9.7340703E-1,-3.8648224E-1,-1.4930677E0,4.9740902E-1,-5.352093E-1,2.2430429E-1,1.0881367E0,-8.8764775E-1,1.0241525E0,-3.2109484E-1,-1.6177722E0,-3.345471E-1,1.1377459E0,1.4855486E0,1.1526988E0,8.7808156E-1,-1.0156268E-1,8.8526976E-1,-1.6000655E0,-6.5342315E-2,-2.5478715E-2,-7.855523E-2,-5.8982164E-2,-3.8585387E-2,-8.161983E-2,-8.270288E-2,8.02991E-3,-1.2946396E-2,5.793604E-2,-3.0683408E-2,-7.801504E-2,4.7433943E-2,-6.331691E-2,3.3126882E-4,-8.1702456E-2,7.796076E-2,-7.355646E-2,-4.035122E-2,-8.013626E-2,-8.506863E-2,6.379529E-2,-8.544928E-2,2.947851E-2,-6.81273E-2,4.40289E-2,3.3697758E-2,-7.4607745E-2,-7.3721156E-2,9.570105E-3,-3.143528E-2,-8.586382E-2,3.7306976E-2,-1.5030751E-2,4.816536E-2,-4.6046365E-2,-3.337064E-2,3.5922814E-2,-9.54937E-2,5.5149537E-2,-8.938836E-2,-3.5063953E-3,-9.73595E-2,6.468983E-2,5.1078565E-2,-9.216135E-2,-8.3170764E-2,-2.519849E-3,1.1440418E-2,-6.4272314E-2,6.346386E-2,3.2608684E-2,7.590713E-2,6.535604E-2,6.4684235E-2,-1.0462637E-2,-9.19067E-2,6.1804283E-2,-8.430488E-2,1.0151426E-1,5.1122338E-2,-8.5785E-2],"categories":[],"categories_nodes":[],"categories_segments":[],"categories_sizes":[],"default_left":[0,0,0,0,0,0,0,0,0,0,0,0,0,0,0,0,0,0,0,0,0,0,0,0,0,0,0,0,0,0,0,0,0,0,0,0,0,0,0,0,0,0,0,0,0,0,0,0,0,0,0,0,0,0,0,0,0,0,0,0,0,0,0,0,0,0,0,0,0,0,0,0,0,0,0,0,0,0,0,0,0,0,0,0,0,0,0,0,0,0,0,0,0,0,0,0,0,0,0,0,0,0,0,0,0,0,0,0,0,0,0,0,0,0,0,0,0,0,0,0,0,0,0,0,0],"id":5,"left_children":[1,3,5,7,9,11,13,15,17,19,21,23,25,27,29,31,33,35,37,39,41,43,45,47,49,51,53,55,57,59,61,63,65,67,69,71,73,75,77,79,81,83,85,87,89,91,93,95,97,99,101,103,105,107,109,111,113,115,117,119,-1,121,123,-1,-1,-1,-1,-1,-1,-1,-1,-1,-1,-1,-1,-1,-1,-1,-1,-1,-1,-1,-1,-1,-1,-1,-1,-1,-1,-1,-1,-1,-1,-1,-1,-1,-1,-1,-1,-1,-1,-1,-1,-1,-1,-1,-1,-1,-1,-1,-1,-1,-1,-1,-1,-1,-1,-1,-1,-1,-1,-1,-1,-1,-1],"loss_changes":[3.1390153E5,2.2221672E4,1.7843016E4,4.4705E3,9.683049E3,9.970633E3,5.2427812E3,1.005125E3,1.9651289E3,6.579199E2,7.2010464E3,4.0145566E3,1.2709844E3,2.5922031E3,4.796394E2,1.7791641E3,2.0528125E2,2.3624482E3,4.6009375E2,3.416338E2,4.9937445E2,2.4379497E3,1.6186536E3,2.4727087E3,9.59916E2,5.8230505E2,2.714126E2,2.015457E3,4.6754688E2,2.744592E2,2.6925208E2,1.538457E3,5.566953E2,3.2070312E1,3.791622E2,8.616709E2,9.770918E2,6.0167236E2,1.1795068E2,5.92372E2,1.1423535E2,2.3566168E2,2.7654166E2,1.2760972E3,7.158951E2,2.7625435E3,3.6549854E2,1.606922E3,1.8794792E3,6.3201263E2,5.670967E2,2.3978784E2,2.5215414E2,3.5863297E2,1.7306494E2,5.20079E2,1.4413828E3,3.611875E2,8.736089E2,1.6215565E2,0E0,1.4193643E2,2.0253296E2,0E0,0E0,0E0,0E0,0E0,0E0,0E0,0E0,0E0,0E0,0E0,0E0,0E0,0E0,0E0,0E0,0E0,0E0,0E0,0E0,0E0,0E0,0E0,0E0,0E0,0E0,0E0,0E0,0E0,0E0,0E0,0E0,0E0,0E0,0E0,0E0,0E0,0E0,0E0,0E0,0E0,0E0,0E0,0E0,0E0,0E0,0E0,0E0,0E0,0E0,0E0,0E0,0E0,0E0,0E0,0E0,0E0,0E0,0E0,0E0,0E0,0E0],"parents":[2147483647,0,0,1,1,2,2,3,3,4,4,5,5,6,6,7,7,8,8,9,9,10,10,11,11,12,12,13,13,14,14,15,15,16,16,17,17,18,18,19,19,20,20,21,21,22,22,23,23,24,24,25,25,26,26,27,27,28,28,29,29,30,30,31,31,32,32,33,33,34,34,35,35,36,36,37,37,38,38,39,39,40,40,41,41,42,42,43,43,44,44,45,45,46,46,47,47,48,48,49,49,50,50,51,51,52,52,53,53,54,54,55,55,56,56,57,57,58,58,59,59,61,61,62,62],"right_children":[2,4,6,8,10,12,14,16,18,20,22,24,26,28,30,32,34,36,38,40,42,44,46,48,50,52,54,56,58,60,62,64,66,68,70,72,74,76,78,80,82,84,86,88,90,92,94,96,98,100,102,104,106,108,110,112,114,116,118,120,-1,122,124,-1,-1,-1,-1,-1,-1,-1,-1,-1,-1,-1,-1,-1,-1,-1,-1,-1,-1,-1,-1,-1,-1,-1,-1,-1,-1,-1,-1,-1,-1,-1,-1,-1,-1,-1,-1,-1,-1,-1,-1,-1,-1,-1,-1,-1,-1,-1,-1,-1,-1,-1,-1,-1,-1,-1,-1,-1,-1,-1,-1,-1,-1],"split_conditions":[2.3783133E0,2.9111636E0,4.030344E0,1.2221488E0,-5.147468E-1,1.4695589E1,2.1438713E1,1.4850514E1,1.238329E1,1.6553438E1,-8.5158443E-1,5.032348E0,-3.1416416E0,5.882408E0,-5.4248924E0,-5.559273E-1,8.335554E0,-8.5158443E-1,-4.288975E0,-1.9529432E-1,1.2669292E1,1.9897821E1,1.0371094E1,8.795542E0,1.6874657E0,4.018213E0,1.5094631E1,7.0561028E0,1.0668029E1,8.853386E1,1.7062243E1,5.524493E-1,3.173847E0,8.731384E0,2.4271098E-1,2.1393852E0,8.187682E1,1.4695589E1,4.072903E-1,7.0049143E0,6.903314E0,8.892039E0,1.7754114E1,1.1560895E1,-5.4248924E0,7.2625093E0,9.32649E0,6.206893E0,-3.4387531E0,9.497564E0,-2.923051E-1,2.0750926E0,9.459836E0,-5.95573E-1,8.335554E0,7.2166977E0,1.3831872E1,-6.2405634E-1,6.8209825E0,1.5594663E1,-1.0156268E-1,2.3707987E-1,-9.824112E-1,-6.5342315E-2,-2.5478715E-2,-7.855523E-2,-5.8982164E-2,-3.8585387E-2,-8.161983E-2,-8.270288E-2,8.02991E-3,-1.2946396E-2,5.793604E-2,-3.0683408E-2,-7.801504E-2,4.7433943E-2,-6.331691E-2,3.3126882E-4,-8.1702456E-2,7.796076E-2,-7.355646E-2,-4.035122E-2,-8.013626E-2,-8.506863E-2,6.379529E-2,-8.544928E-2,2.947851E-2,-6.81273E-2,4.40289E-2,3.3697758E-2,-7.4607745E-2,-7.3721156E-2,9.570105E-3,-3.143528E-2,-8.586382E-2,3.7306976E-2,-1.5030751E-2,4.816536E-2,-4.6046365E-2,-3.337064E-2,3.5922814E-2,-9.54937E-2,5.5149537E-2,-8.938836E-2,-3.5063953E-3,-9.73595E-2,6.468983E-2,5.1078565E-2,-9.216135E-2,-8.3170764E-2,-2.519849E-3,1.1440418E-2,-6.4272314E-2,6.346386E-2,3.2608684E-2,7.590713E-2,6.535604E-2,6.4684235E-2,-1.0462637E-2,-9.19067E-2,6.1804283E-2,-8.430488E-2,1.0151426E-1,5.1122338E-2,-8.5785E-2],"split_indices":[73,29,29,74,94,49,49,47,49,14,90,73,90,73,90,90,105,90,91,39,49,49,46,12,26,74,49,81,69,70,47,29,21,49,95,26,70,49,61,46,113,58,114,108,90,81,49,33,91,82,94,29,2,51,105,107,46,90,25,14,0,55,51,0,0,0,0,0,0,0,0,0,0,0,0,0,0,0,0,0,0,0,0,0,0,0,0,0,0,0,0,0,0,0,0,0,0,0,0,0,0,0,0,0,0,0,0,0,0,0,0,0,0,0,0,0,0,0,0,0,0,0,0,0,0],"split_type":[0,0,0,0,0,0,0,0,0,0,0,0,0,0,0,0,0,0,0,0,0,0,0,0,0,0,0,0,0,0,0,0,0,0,0,0,0,0,0,0,0,0,0,0,0,0,0,0,0,0,0,0,0,0,0,0,0,0,0,0,0,0,0,0,0,0,0,0,0,0,0,0,0,0,0,0,0,0,0,0,0,0,0,0,0,0,0,0,0,0,0,0,0,0,0,0,0,0,0,0,0,0,0,0,0,0,0,0,0,0,0,0,0,0,0,0,0,0,0,0,0,0,0,0,0],"sum_hessian":[2.3260486E5,1.1246467E5,1.20140195E5,9.087882E4,2.1585852E4,2.8689373E4,9.145082E4,7.964395E4,1.1234865E4,5.718371E3,1.5867481E4,2.54609E4,3.2284722E3,9.054087E4,9.099557E2,4.2694883E4,3.694907E4,7.695809E3,3.5390557E3,5.216979E3,5.013919E2,9.584347E3,6.2831343E3,1.1342615E4,1.4118286E4,6.35603E2,2.5928691E3,2.3549447E4,6.699142E4,2.0282745E2,7.0712823E2,1.1189723E4,3.150516E4,3.645819E4,4.908786E2,1.7186234E3,5.977186E3,6.104098E2,2.928646E3,2.8608453E2,4.9308945E3,2.1308098E2,2.8831094E2,8.748794E3,8.3555304E2,4.3925796E3,1.8905543E3,8.0934824E3,3.2491326E3,1.4322057E3,1.2686081E4,3.2502853E2,3.1057446E2,1.7355956E2,2.4193096E3,9.693014E2,2.2580146E4,6.2444164E4,4.547254E3,1.6341884E2,3.9408615E1,4.6045242E1,6.6108295E2,7.645856E3,3.543867E3,2.7295654E4,4.209505E3,4.594145E1,3.641225E4,3.0739435E2,1.8348424E2,8.122561E2,9.063673E2,4.542119E3,1.4350667E3,1.6879793E2,4.4161185E2,4.4485924E1,2.88416E3,9.658451E1,1.8950003E2,1.9078612E2,4.7401084E3,3.0189457E1,1.8289153E2,2.203139E2,6.7997025E1,2.6056625E2,8.488228E3,2.0002962E2,6.3552344E2,1.523273E3,2.869307E3,3.901736E2,1.5003807E3,6.170353E3,1.923129E3,6.6481714E2,2.5843154E3,5.1054898E2,9.216567E2,6.19162E1,1.2624164E4,1.5413425E2,1.708943E2,2.5321608E1,2.8525284E2,9.239085E1,8.116871E1,2.3507917E3,6.851787E1,6.0916437E2,3.6013702E2,1.7766076E4,4.8140703E3,5.279284E4,9.651325E3,4.120735E3,4.2651874E2,1.8549255E1,1.4486958E2,1.4040918E1,3.2004326E1,2.7586983E1,6.33496E2],"tree_param":{"num_deleted":"0","num_feature":"116","num_nodes":"125","size_leaf_vector":"1"}},{"base_weights":[2.6900845E-3,-1.1330751E0,1.1205761E0,-1.3702235E0,-3.4926656E-1,-1.0244144E0,1.2028118E0,-9.1517085E-1,-1.4548258E0,-2.7155772E-2,-1.2787915E0,-1.2970052E0,7.896793E-2,7.435804E-1,1.3370178E0,-1.4077679E0,-3.6528367E-1,-1.3237611E0,-1.5800164E0,8.193251E-1,-4.964605E-1,-3.6880177E-2,-1.5153197E0,1.3372735E0,-1.3674604E0,5.3444386E-1,-8.35857E-2,8.782921E-1,-1.7189649E-1,1.3908433E0,1.0326107E0,-1.1062211E0,-1.5400294E0,-1.3231972E0,2.1538085E-1,-1.5475755E0,-1.1545752E0,-2.0773917E-1,-1.5850049E0,-8.365345E-1,9.399927E-1,-1.6864437E-1,-1.0160301E0,-1.3095745E0,7.132219E-1,-1.5350738E0,6.733874E-1,1.846503E0,-7.7007994E-2,2.561495E-1,-1.4168855E0,1.1743958E0,-3.3326665E-1,6.7238077E-3,1.0397072E0,9.003468E-1,-1.3001868E0,1.4370756E0,1.0655134E0,1.0941707E0,-1.6349281E0,-6.1956342E-2,1.8476656E-2,-7.8533895E-2,6.162801E-3,5.501595E-2,-7.008068E-2,2.724131E-2,-4.1971862E-2,-7.886218E-2,-4.7588464E-2,-7.417746E-2,-4.392717E-2,-8.107177E-2,8.985845E-2,-7.4797854E-2,-7.941897E-2,9.2011675E-2,-5.6475487E-2,-4.7187533E-2,5.0564136E-2,-8.526652E-2,-3.088288E-3,-6.404535E-2,-2.1202635E-2,1.9076202E-2,-7.855534E-2,-8.631758E-2,4.972786E-2,-4.749951E-2,-7.944628E-2,-8.134145E-2,9.9670134E-2,9.602777E-2,6.615166E-2,8.884525E-2,-8.022841E-2,-1.1066726E-2,-7.449689E-2,-8.653128E-2,6.800384E-2,2.646914E-2,-8.6611584E-2,1.4067526E-2,-7.615917E-2,6.0876895E-2,3.125168E-2,-7.778845E-2,5.184713E-2,-7.235985E-2,7.210521E-2,-1.01569615E-1,7.1964234E-2,6.389033E-2,-2.546127E-2,2.8554752E-2,6.037098E-2,-8.847327E-2,8.720925E-2],"categories":[],"categories_nodes":[],"categories_segments":[],"categories_sizes":[],"default_left":[0,0,0,0,0,0,0,0,0,0,0,0,0,0,0,0,0,0,0,0,0,0,0,0,0,0,0,0,0,0,0,0,0,0,0,0,0,0,0,0,0,0,0,0,0,0,0,0,0,0,0,0,0,0,0,0,0,0,0,0,0,0,0,0,0,0,0,0,0,0,0,0,0,0,0,0,0,0,0,0,0,0,0,0,0,0,0,0,0,0,0,0,0,0,0,0,0,0,0,0,0,0,0,0,0,0,0,0,0,0,0,0,0,0,0,0,0,0,0],"id":6,"left_children":[1,3,5,7,9,11,13,15,17,19,21,23,25,27,29,31,33,35,37,39,41,43,45,47,49,51,-1,53,55,57,59,61,63,65,67,69,71,73,75,77,79,81,83,85,87,89,91,93,-1,95,97,99,101,103,105,107,109,111,113,115,117,-1,-1,-1,-1,-1,-1,-1,-1,-1,-1,-1,-1,-1,-1,-1,-1,-1,-1,-1,-1,-1,-1,-1,-1,-1,-1,-1,-1,-1,-1,-1,-1,-1,-1,-1,-1,-1,-1,-1,-1,-1,-1,-1,-1,-1,-1,-1,-1,-1,-1,-1,-1,-1,-1,-1,-1,-1,-1],"loss_changes":[2.9200972E5,2.1205188E4,2.0446781E4,3.3705156E3,7.9345303E3,1.2874653E3,6.8788594E3,3.719455E3,1.2096719E3,7.8191055E3,2.00329E3,6.3886084E2,6.777864E2,3.1137598E3,1.4139375E3,2.871953E2,3.610543E3,1.3646289E3,2.5821094E2,1.4035029E3,2.1565293E3,1.0435253E3,2.4872656E2,1.345916E2,2.6866113E2,3.7487128E2,0E0,3.0962773E3,3.9201755E3,1.1024688E3,2.133795E3,4.3431592E2,2.5674316E2,4.670957E2,1.4050383E3,2.7304688E2,1.865209E3,3.9389398E2,8.921875E0,3.764458E2,8.79751E2,1.2752212E3,7.6751904E2,1.7987036E2,4.7376776E2,1.7739062E2,1.6094377E2,4.380188E-1,0E0,2.8474066E2,2.8306104E2,2.1183307E2,3.4731143E2,1.4458037E3,1.3685938E3,5.590492E2,6.385901E2,4.9532812E2,3.055162E3,7.5108887E2,1.3640717E2,0E0,0E0,0E0,0E0,0E0,0E0,0E0,0E0,0E0,0E0,0E0,0E0,0E0,0E0,0E0,0E0,0E0,0E0,0E0,0E0,0E0,0E0,0E0,0E0,0E0,0E0,0E0,0E0,0E0,0E0,0E0,0E0,0E0,0E0,0E0,0E0,0E0,0E0,0E0,0E0,0E0,0E0,0E0,0E0,0E0,0E0,0E0,0E0,0E0,0E0,0E0,0E0,0E0,0E0,0E0,0E0,0E0,0E0],"parents":[2147483647,0,0,1,1,2,2,3,3,4,4,5,5,6,6,7,7,8,8,9,9,10,10,11,11,12,12,13,13,14,14,15,15,16,16,17,17,18,18,19,19,20,20,21,21,22,22,23,23,24,24,25,25,27,27,28,28,29,29,30,30,31,31,32,32,33,33,34,34,35,35,36,36,37,37,38,38,39,39,40,40,41,41,42,42,43,43,44,44,45,45,46,46,47,47,49,49,50,50,51,51,52,52,53,53,54,54,55,55,56,56,57,57,58,58,59,59,60,60],"right_children":[2,4,6,8,10,12,14,16,18,20,22,24,26,28,30,32,34,36,38,40,42,44,46,48,50,52,-1,54,56,58,60,62,64,66,68,70,72,74,76,78,80,82,84,86,88,90,92,94,-1,96,98,100,102,104,106,108,110,112,114,116,118,-1,-1,-1,-1,-1,-1,-1,-1,-1,-1,-1,-1,-1,-1,-1,-1,-1,-1,-1,-1,-1,-1,-1,-1,-1,-1,-1,-1,-1,-1,-1,-1,-1,-1,-1,-1,-1,-1,-1,-1,-1,-1,-1,-1,-1,-1,-1,-1,-1,-1,-1,-1,-1,-1,-1,-1,-1,-1],"split_conditions":[3.118165E0,1.0599508E0,-3.0505648E-1,-1.5017314E0,1.3917843E1,1.4465536E1,5.780695E0,-2.0985766E-1,1.1868889E1,-8.5158443E-1,-6.313921E0,1.6637369E-1,-1.5755758E0,1.4850514E1,-2.7958488E-1,1.3917843E1,2.2983143E0,7.3093505E0,8.203856E0,7.005445E0,6.817953E0,7.420631E-2,1.0518668E1,-9.035235E-1,6.4892926E0,1.8725546E1,-8.35857E-2,7.7575984E0,-3.1416416E0,1.5357277E1,1.6412256E1,9.75E-1,2.1075363E1,-9.824112E-1,1.5357277E1,9.5848334E-1,3.956517E0,1.3351631E1,1.1890812E1,3.4110245E-1,-3.524525E-1,1.2059118E1,9.162042E0,3.1876884E0,7.236098E0,-2.2241354E0,2.984894E-1,7.2166977E0,-7.7007994E-2,2.2548802E0,4.901741E0,-1.0216776E-1,-1.0164844E-1,9.3524065E0,-3.7942886E-1,1.0072178E1,1.0518668E1,3.0273194E0,-5.4840794E0,5.882408E0,5.973814E0,-6.1956342E-2,1.8476656E-2,-7.8533895E-2,6.162801E-3,5.501595E-2,-7.008068E-2,2.724131E-2,-4.1971862E-2,-7.886218E-2,-4.7588464E-2,-7.417746E-2,-4.392717E-2,-8.107177E-2,8.985845E-2,-7.4797854E-2,-7.941897E-2,9.2011675E-2,-5.6475487E-2,-4.7187533E-2,5.0564136E-2,-8.526652E-2,-3.088288E-3,-6.404535E-2,-2.1202635E-2,1.9076202E-2,-7.855534E-2,-8.631758E-2,4.972786E-2,-4.749951E-2,-7.944628E-2,-8.134145E-2,9.9670134E-2,9.602777E-2,6.615166E-2,8.884525E-2,-8.022841E-2,-1.1066726E-2,-7.449689E-2,-8.653128E-2,6.800384E-2,2.646914E-2,-8.6611584E-2,1.4067526E-2,-7.615917E-2,6.0876895E-2,3.125168E-2,-7.778845E-2,5.184713E-2,-7.235985E-2,7.210521E-2,-1.01569615E-1,7.1964234E-2,6.389033E-2,-2.546127E-2,2.8554752E-2,6.037098E-2,-8.847327E-2,8.720925E-2],"split_indices":[72,73,93,90,47,11,72,93,71,90,91,59,91,47,90,47,19,56,48,71,33,95,105,51,23,82,0,82,90,47,71,99,9,51,47,95,9,107,47,65,93,110,71,36,2,90,55,107,0,107,48,54,55,107,90,11,105,19,91,73,90,0,0,0,0,0,0,0,0,0,0,0,0,0,0,0,0,0,0,0,0,0,0,0,0,0,0,0,0,0,0,0,0,0,0,0,0,0,0,0,0,0,0,0,0,0,0,0,0,0,0,0,0,0,0,0,0,0,0],"split_type":[0,0,0,0,0,0,0,0,0,0,0,0,0,0,0,0,0,0,0,0,0,0,0,0,0,0,0,0,0,0,0,0,0,0,0,0,0,0,0,0,0,0,0,0,0,0,0,0,0,0,0,0,0,0,0,0,0,0,0,0,0,0,0,0,0,0,0,0,0,0,0,0,0,0,0,0,0,0,0,0,0,0,0,0,0,0,0,0,0,0,0,0,0,0,0,0,0,0,0,0,0,0,0,0,0,0,0,0,0,0,0,0,0,0,0,0,0,0,0],"sum_hessian":[2.2998917E5,1.1408228E5,1.1590689E5,8.758262E4,2.6499664E4,4.279196E3,1.1162769E5,1.3732268E4,7.385034E4,1.9680691E4,6.818973E3,3.4313137E3,8.47882E2,2.52461E4,8.638159E4,7.242642E3,6.489626E3,3.6084418E4,3.776593E4,7.0192983E3,1.2661393E4,1.0911182E3,5.727855E3,8.8913376E1,3.3424004E3,6.7338245E2,1.7449959E2,2.200772E4,3.238378E3,7.339947E4,1.298212E4,2.211025E3,5.031617E3,2.4487239E3,4.040902E3,1.5530773E4,2.0553645E4,1.3694437E2,3.7628984E4,4.7637125E2,6.5429272E3,7.7640713E3,4.897322E3,4.0433655E2,6.867816E2,5.676917E3,5.0938137E1,7.584849E1,1.3064892E1,9.8618286E1,3.243782E3,3.8735086E2,2.8603162E2,3.439113E3,1.8568607E4,1.6605328E3,1.577845E3,6.4263613E4,9.135859E3,1.268986E4,2.9225983E2,2.0284996E3,1.825253E2,4.9406343E3,9.098277E1,7.6340225E1,2.3723835E3,3.079563E3,9.61339E2,1.4792531E4,7.382424E2,9.375536E3,1.1178107E4,8.04259E1,5.651846E1,1.3901354E3,3.623885E4,4.6474625E1,4.2989664E2,2.3814027E2,6.304787E3,5.039136E2,7.2601577E3,3.382623E3,1.5146987E3,5.4094738E1,3.5024182E2,7.048046E1,6.1630115E2,4.8004227E2,5.1968745E3,1.8488403E1,3.2449734E1,6.411027E1,1.1738217E1,5.4291306E1,4.4326977E1,1.8702435E2,3.0567578E3,2.2771114E1,3.6457974E2,1.7731483E2,1.08716774E2,2.9164163E3,5.226966E2,1.2994182E4,5.5744263E3,8.6937E1,1.5735958E3,1.4980111E3,7.983386E1,4.031918E1,6.4223293E4,8.0507173E3,1.0851425E3,2.2595354E3,1.0430324E4,2.8152734E2,1.0732483E1],"tree_param":{"num_deleted":"0","num_feature":"116","num_nodes":"119","size_leaf_vector":"1"}},{"base_weights":[8.628967E-3,-1.0904179E0,1.084039E0,-1.3320595E0,-2.5473055E-1,-1.0059904E0,1.1630957E0,-1.3901535E0,-6.587581E-1,2.520996E-1,-7.8483677E-1,-1.4438051E0,-4.7363493E-1,7.0644224E-1,1.2948481E0,-1.5077839E0,-1.254428E0,-2.4179035E-1,-1.3163223E0,-5.585368E-1,7.7965826E-1,1.5821825E-1,-1.0473355E0,-1.488463E0,1.0257857E0,-1.0833735E0,4.773414E-2,7.856967E-1,-6.099956E-1,1.0822973E0,1.371732E0,-1.5313792E0,-1.2231503E0,-1.4543309E0,-9.5566386E-1,6.0616416E-1,-9.216488E-1,-1.4276291E0,4.437139E-2,-9.9123496E-1,1.2787637E-1,1.1385554E-1,1.02422E0,9.60998E-1,-7.2829807E-1,-4.926427E-1,-1.5689032E0,1.504596E-1,-1.5215704E0,-7.198735E-2,8.49897E-2,3.236969E-1,-1.630772E0,4.4289142E-1,-8.3981705E-1,-1.0020176E-1,9.313441E-1,8.694611E-1,-1.3174056E0,1.1372772E0,2.0658241E-1,1.3927822E0,8.412151E-1,1.5863046E-3,-7.672609E-2,8.406495E-2,-6.747666E-2,-7.649038E-2,-5.9936114E-2,-3.1225756E-2,-7.1539775E-2,-3.5107028E-2,4.154914E-2,-3.386443E-2,-8.288344E-2,-3.6264115E-4,-7.557937E-2,3.505866E-2,-8.157385E-2,5.676176E-3,-7.118598E-2,3.2355927E-2,-4.4075802E-2,-6.804385E-2,2.6938096E-2,-7.3406346E-2,5.3952187E-2,5.526465E-2,-5.8156695E-2,-6.4748116E-2,5.2421032E-3,-5.4447908E-2,2.317106E-2,-7.91434E-2,-1.00909835E-2,9.508949E-2,-7.587327E-2,-7.7583656E-2,-2.7392728E-3,6.6657536E-2,-7.91006E-2,-8.501623E-2,-7.848521E-2,-8.271539E-2,3.289729E-2,7.001013E-2,-5.763177E-2,6.0161655E-3,-9.410278E-2,4.8444863E-2,-1.8783215E-2,-9.229067E-2,5.457114E-2,-7.425555E-2,2.2355413E-2,6.3841894E-2,4.5968063E-2,4.8696604E-2,-7.598916E-2,7.088586E-2,5.826517E-2,5.6934007E-2,-8.283604E-2],"categories":[],"categories_nodes":[],"categories_segments":[],"categories_sizes":[],"default_left":[0,0,0,0,0,0,0,0,0,0,0,0,0,0,0,0,0,0,0,0,0,0,0,0,0,0,0,0,0,0,0,0,0,0,0,0,0,0,0,0,0,0,0,0,0,0,0,0,0,0,0,0,0,0,0,0,0,0,0,0,0,0,0,0,0,0,0,0,0,0,0,0,0,0,0,0,0,0,0,0,0,0,0,0,0,0,0,0,0,0,0,0,0,0,0,0,0,0,0,0,0,0,0,0,0,0,0,0,0,0,0,0,0,0,0,0,0,0,0,0,0,0,0],"id":7,"left_children":[1,3,5,7,9,11,13,15,17,19,21,23,25,27,29,31,33,35,37,39,41,43,45,47,49,51,53,55,57,59,61,63,65,67,69,71,73,75,77,79,81,83,85,87,89,91,93,95,97,-1,-1,99,101,103,105,107,109,111,113,115,117,119,121,-1,-1,-1,-1,-1,-1,-1,-1,-1,-1,-1,-1,-1,-1,-1,-1,-1,-1,-1,-1,-1,-1,-1,-1,-1,-1,-1,-1,-1,-1,-1,-1,-1,-1,-1,-1,-1,-1,-1,-1,-1,-1,-1,-1,-1,-1,-1,-1,-1,-1,-1,-1,-1,-1,-1,-1,-1,-1,-1,-1],"loss_changes":[2.6895962E5,2.2726312E4,1.9005547E4,3.4137969E3,6.782706E3,9.764907E2,6.666922E3,1.2811719E3,1.9014312E3,5.5199155E3,3.0547227E3,2.5519482E2,6.0199115E2,2.589789E3,1.4040625E3,2.8722656E2,2.227414E3,2.4482007E3,4.0766943E2,1.511504E3,1.2729907E3,1.9134054E3,2.791792E3,1.228374E2,7.132135E1,6.7280066E2,3.5869467E2,3.0205E3,1.4766508E3,1.0999961E3,7.0414844E2,1.9528125E2,1.2137188E3,4.2948047E2,2.3533682E3,5.564683E2,4.2276636E2,2.9666553E2,2.2620839E2,1.4914739E3,1.032237E3,1.3176047E3,7.829038E2,4.3371143E2,6.033797E2,2.6681724E3,9.464551E1,1.3623996E2,9.771484E1,0E0,0E0,4.7398053E2,4.8828125E-4,3.202175E2,2.224007E2,1.2993235E3,9.870996E2,2.7723544E2,2.830221E2,6.527422E2,1.791403E3,3.4292188E2,1.7947943E3,0E0,0E0,0E0,0E0,0E0,0E0,0E0,0E0,0E0,0E0,0E0,0E0,0E0,0E0,0E0,0E0,0E0,0E0,0E0,0E0,0E0,0E0,0E0,0E0,0E0,0E0,0E0,0E0,0E0,0E0,0E0,0E0,0E0,0E0,0E0,0E0,0E0,0E0,0E0,0E0,0E0,0E0,0E0,0E0,0E0,0E0,0E0,0E0,0E0,0E0,0E0,0E0,0E0,0E0,0E0,0E0,0E0,0E0,0E0,0E0],"parents":[2147483647,0,0,1,1,2,2,3,3,4,4,5,5,6,6,7,7,8,8,9,9,10,10,11,11,12,12,13,13,14,14,15,15,16,16,17,17,18,18,19,19,20,20,21,21,22,22,23,23,24,24,25,25,26,26,27,27,28,28,29,29,30,30,31,31,32,32,33,33,34,34,35,35,36,36,37,37,38,38,39,39,40,40,41,41,42,42,43,43,44,44,45,45,46,46,47,47,48,48,51,51,52,52,53,53,54,54,55,55,56,56,57,57,58,58,59,59,60,60,61,61,62,62],"right_children":[2,4,6,8,10,12,14,16,18,20,22,24,26,28,30,32,34,36,38,40,42,44,46,48,50,52,54,56,58,60,62,64,66,68,70,72,74,76,78,80,82,84,86,88,90,92,94,96,98,-1,-1,100,102,104,106,108,110,112,114,116,118,120,122,-1,-1,-1,-1,-1,-1,-1,-1,-1,-1,-1,-1,-1,-1,-1,-1,-1,-1,-1,-1,-1,-1,-1,-1,-1,-1,-1,-1,-1,-1,-1,-1,-1,-1,-1,-1,-1,-1,-1,-1,-1,-1,-1,-1,-1,-1,-1,-1,-1,-1,-1,-1,-1,-1,-1,-1,-1,-1,-1,-1],"split_conditions":[3.118165E0,1.2221488E0,-3.0505648E-1,1.7559012E0,8.401354E0,-6.821195E-1,5.780695E0,4.434847E0,1.4695589E1,7.4525437E0,-3.8317962E0,-3.2188085E-1,7.531085E0,1.7865921E1,6.275215E0,9.521606E-1,-1.1338226E0,-8.4059906E-1,7.0359015E0,4.018213E0,1.0006468E1,1.4695589E1,1.0417445E1,2.1244545E-1,2.7616072E-1,2.7214477E0,5.414528E0,8.474867E0,-1.2282013E1,1.590357E1,1.8911535E1,-2.727315E-1,6.4324074E0,7.583333E-1,1.3917843E1,2.5774586E0,2.124136E0,3.0914712E-1,5.327302E0,9.666988E0,6.2896457E0,4.6165237E0,9.336603E-1,9.698278E0,3.474171E0,9.178561E0,9.150092E0,-5.327911E0,2.084622E1,-7.198735E-2,8.49897E-2,1.1796969E1,1.6420517E1,-1.899817E0,4.51759E0,9.287806E-1,1.1377269E1,-3.6558622E-1,6.5737557E0,-5.6461143E-1,-5.4840794E0,9.650932E0,-6.313921E0,1.5863046E-3,-7.672609E-2,8.406495E-2,-6.747666E-2,-7.649038E-2,-5.9936114E-2,-3.1225756E-2,-7.1539775E-2,-3.5107028E-2,4.154914E-2,-3.386443E-2,-8.288344E-2,-3.6264115E-4,-7.557937E-2,3.505866E-2,-8.157385E-2,5.676176E-3,-7.118598E-2,3.2355927E-2,-4.4075802E-2,-6.804385E-2,2.6938096E-2,-7.3406346E-2,5.3952187E-2,5.526465E-2,-5.8156695E-2,-6.4748116E-2,5.2421032E-3,-5.4447908E-2,2.317106E-2,-7.91434E-2,-1.00909835E-2,9.508949E-2,-7.587327E-2,-7.7583656E-2,-2.7392728E-3,6.6657536E-2,-7.91006E-2,-8.501623E-2,-7.848521E-2,-8.271539E-2,3.289729E-2,7.001013E-2,-5.763177E-2,6.0161655E-3,-9.410278E-2,4.8444863E-2,-1.8783215E-2,-9.229067E-2,5.457114E-2,-7.425555E-2,2.2355413E-2,6.3841894E-2,4.5968063E-2,4.8696604E-2,-7.598916E-2,7.088586E-2,5.826517E-2,5.6934007E-2,-8.283604E-2],"split_indices":[72,74,93,72,49,93,72,9,49,81,91,95,19,49,30,93,72,91,105,74,58,49,47,59,54,104,24,58,92,47,47,39,114,99,47,19,105,45,25,112,24,2,19,67,102,81,102,41,5,0,0,58,49,105,6,45,84,95,102,91,91,69,91,0,0,0,0,0,0,0,0,0,0,0,0,0,0,0,0,0,0,0,0,0,0,0,0,0,0,0,0,0,0,0,0,0,0,0,0,0,0,0,0,0,0,0,0,0,0,0,0,0,0,0,0,0,0,0,0,0,0,0,0],"split_type":[0,0,0,0,0,0,0,0,0,0,0,0,0,0,0,0,0,0,0,0,0,0,0,0,0,0,0,0,0,0,0,0,0,0,0,0,0,0,0,0,0,0,0,0,0,0,0,0,0,0,0,0,0,0,0,0,0,0,0,0,0,0,0,0,0,0,0,0,0,0,0,0,0,0,0,0,0,0,0,0,0,0,0,0,0,0,0,0,0,0,0,0,0,0,0,0,0,0,0,0,0,0,0,0,0,0,0,0,0,0,0,0,0,0,0,0,0,0,0,0,0,0,0],"sum_hessian":[2.2755848E5,1.1254243E5,1.15016055E5,8.729903E4,2.5243395E4,4.191566E3,1.10824484E5,8.036398E4,6.9350566E3,1.2905284E4,1.2338111E4,2.2990723E3,1.8924935E3,2.4816607E4,8.600788E4,4.3046434E4,3.7317543E4,4.244773E3,2.6902834E3,5.0876465E3,7.8176377E3,2.686602E3,9.651509E3,2.2586265E3,4.0445732E1,8.7182294E2,1.02067065E3,2.3407775E4,1.4088318E3,2.2850684E4,6.3157195E4,3.9747137E4,3.299297E3,2.2355576E4,1.4961967E4,1.8889214E3,2.3558518E3,2.4868096E3,2.0347388E2,3.1202642E3,1.9673823E3,2.1005364E3,5.7171016E3,1.4098429E3,1.2767592E3,4.6781694E3,4.9733394E3,4.46522E1,2.2139744E3,8.439137E0,3.200659E1,2.4429053E2,6.275324E2,7.0658466E2,3.14086E2,3.3050667E3,2.0102709E4,4.5565634E2,9.531754E2,2.150052E4,1.3501647E3,6.0745285E4,2.411909E3,7.972863E1,3.966741E4,1.370646E2,3.1622324E3,1.7255389E4,5.1001875E3,8.818275E3,6.143691E3,2.7668176E2,1.6122396E3,1.7700962E3,5.857556E2,1.388516E2,2.347958E3,1.465998E2,5.6874077E1,8.780559E2,2.2422083E3,1.2993446E3,6.680377E2,4.693499E2,1.6311864E3,1.2249651E2,5.594605E3,1.3206117E3,8.923124E1,7.5957574E2,5.171834E2,2.8810588E3,1.7971107E3,4.922894E3,5.0445385E1,2.1713106E1,2.293909E1,2.1693943E3,4.4580116E1,1.5989474E2,8.439578E1,2.8083517E2,3.466972E2,6.509444E1,6.414902E2,3.8061348E1,2.7602466E2,2.9419043E3,3.6316232E2,1.9541498E4,5.6121027E2,3.3880287E1,4.2177606E2,8.7058997E2,8.2585464E1,1.3103654E4,8.396864E3,9.350026E2,4.1516205E2,5.4739793E4,6.0054946E3,2.1557385E3,2.5617047E2],"tree_param":{"num_deleted":"0","num_feature":"116","num_nodes":"123","size_leaf_vector":"1"}},{"base_weights":[-1.4146775E-3,-1.0925306E0,1.0075837E0,-1.2955273E0,-4.5533884E-1,4.3649638E-1,1.2174358E0,-7.264359E-1,-1.372303E0,3.598922E-1,-9.337254E-1,8.0712837E-1,-1.0841642E-1,1.2995203E0,8.4769714E-1,-1.0170525E-1,-1.1845889E0,-1.4775143E0,-1.2506477E0,8.1472844E-1,-7.0901495E-1,-7.181068E-1,-7.614602E-2,9.601045E-1,-5.189238E-1,1.3626519E-1,-1.5409547E0,1.3102856E0,-5.4726166E-1,9.4377446E-1,-8.9937204E-1,-9.2967236E-1,5.6173825E-1,-1.353115E0,-4.611693E-1,-9.368682E-1,-1.4916687E0,-1.0454253E0,-1.4714944E0,-6.352677E-1,9.566943E-1,-1.1777879E0,5.537123E-1,-1.2877085E0,-3.847669E-1,4.084644E-1,1.1112326E0,2.943233E-1,-1.6102575E0,4.2222083E-1,-4.9751917E-1,-1.5618519E0,7.651135E-2,1.0280211E0,1.3401654E0,4.7798726E-1,-1.7207912E0,-4.862245E-1,9.824548E-1,2.9119137E-1,-1.3098366E0,9.976118E-2,-5.726686E-2,-1.7113987E-2,4.861874E-2,-6.9028206E-2,7.0525266E-2,-5.7331324E-2,4.5108438E-2,-6.388375E-2,7.195694E-2,5.24784E-3,-7.4747585E-2,-3.232417E-2,-6.750317E-2,-4.8795164E-2,-7.415729E-2,1.7193729E-2,-7.146402E-2,-2.9467298E-2,5.275166E-2,-6.732722E-2,2.309173E-2,-4.6876483E-2,4.4065364E-2,-7.382496E-2,-1.7114019E-2,-7.38068E-2,-7.5063272E-3,3.287528E-2,-3.8058624E-2,-7.950317E-2,5.6453437E-2,-6.1928432E-2,3.4682695E-2,-7.6784834E-2,-8.5072145E-2,4.0928107E-2,-5.879782E-3,-8.231809E-2,-1.434079E-2,1.720951E-2,-7.973188E-2,-9.069265E-2,5.267275E-2,6.906216E-2,5.7378706E-2,4.1943528E-2,-1.1105963E-1,-9.983203E-2,-8.082588E-2,-8.653056E-2,3.9356273E-2,-2.4349969E-2,5.0476946E-2,-9.385013E-2,4.054848E-2,-2.4739224E-2,-9.081841E-2],"categories":[],"categories_nodes":[],"categories_segments":[],"categories_sizes":[],"default_left":[0,0,0,0,0,0,0,0,0,0,0,0,0,0,0,0,0,0,0,0,0,0,0,0,0,0,0,0,0,0,0,0,0,0,0,0,0,0,0,0,0,0,0,0,0,0,0,0,0,0,0,0,0,0,0,0,0,0,0,0,0,0,0,0,0,0,0,0,0,0,0,0,0,0,0,0,0,0,0,0,0,0,0,0,0,0,0,0,0,0,0,0,0,0,0,0,0,0,0,0,0,0,0,0,0,0,0,0,0,0,0,0,0,0,0,0,0,0,0],"id":8,"left_children":[1,3,5,7,9,11,13,15,17,19,21,23,25,27,29,31,33,35,37,39,41,43,-1,45,47,49,51,53,55,57,59,61,63,65,67,69,71,73,75,77,79,81,83,85,87,89,91,93,95,97,99,101,-1,103,105,107,109,111,113,115,117,-1,-1,-1,-1,-1,-1,-1,-1,-1,-1,-1,-1,-1,-1,-1,-1,-1,-1,-1,-1,-1,-1,-1,-1,-1,-1,-1,-1,-1,-1,-1,-1,-1,-1,-1,-1,-1,-1,-1,-1,-1,-1,-1,-1,-1,-1,-1,-1,-1,-1,-1,-1,-1,-1,-1,-1,-1,-1],"loss_changes":[2.44823E5,1.3819086E4,1.3845781E4,3.53925E3,1.0068182E4,6.2706465E3,2.563125E3,2.7573335E3,9.119531E2,4.642285E3,2.0657354E3,3.7491133E3,4.40614E3,1.3752578E3,2.5777998E3,2.2401052E3,6.7696387E2,2.9153906E2,1.4993711E3,1.3793779E3,1.6879021E3,2.2612837E3,0E0,1.3808252E3,1.6973942E3,1.9461243E3,1.20083984E2,5.7835156E2,4.8375586E2,8.0542285E2,3.9171075E2,1.1465775E3,8.4079913E2,3.438623E2,9.837954E2,7.948269E2,1.9567969E2,2.0856836E3,9.0640625E1,4.6533014E2,9.281987E2,5.758845E2,3.78151E2,7.8434375E2,1.9244658E3,1.0388129E3,6.28375E2,6.720075E2,2.9389648E0,1.583192E3,8.0770917E2,1.1440332E2,0E0,4.7781104E2,4.9014062E2,2.1130281E2,2.1620483E0,6.0972687E2,5.6442676E2,2.3381421E2,2.4502045E2,0E0,0E0,0E0,0E0,0E0,0E0,0E0,0E0,0E0,0E0,0E0,0E0,0E0,0E0,0E0,0E0,0E0,0E0,0E0,0E0,0E0,0E0,0E0,0E0,0E0,0E0,0E0,0E0,0E0,0E0,0E0,0E0,0E0,0E0,0E0,0E0,0E0,0E0,0E0,0E0,0E0,0E0,0E0,0E0,0E0,0E0,0E0,0E0,0E0,0E0,0E0,0E0,0E0,0E0,0E0,0E0,0E0,0E0],"parents":[2147483647,0,0,1,1,2,2,3,3,4,4,5,5,6,6,7,7,8,8,9,9,10,10,11,11,12,12,13,13,14,14,15,15,16,16,17,17,18,18,19,19,20,20,21,21,23,23,24,24,25,25,26,26,27,27,28,28,29,29,30,30,31,31,32,32,33,33,34,34,35,35,36,36,37,37,38,38,39,39,40,40,41,41,42,42,43,43,44,44,45,45,46,46,47,47,48,48,49,49,50,50,51,51,53,53,54,54,55,55,56,56,57,57,58,58,59,59,60,60],"right_children":[2,4,6,8,10,12,14,16,18,20,22,24,26,28,30,32,34,36,38,40,42,44,-1,46,48,50,52,54,56,58,60,62,64,66,68,70,72,74,76,78,80,82,84,86,88,90,92,94,96,98,100,102,-1,104,106,108,110,112,114,116,118,-1,-1,-1,-1,-1,-1,-1,-1,-1,-1,-1,-1,-1,-1,-1,-1,-1,-1,-1,-1,-1,-1,-1,-1,-1,-1,-1,-1,-1,-1,-1,-1,-1,-1,-1,-1,-1,-1,-1,-1,-1,-1,-1,-1,-1,-1,-1,-1,-1,-1,-1,-1,-1,-1,-1,-1,-1,-1],"split_conditions":[2.3783133E0,7.4829704E-1,5.032348E0,-2.0050411E0,-9.416485E-1,-6.2405634E-1,-2.7958488E-1,1.3446404E1,4.5793033E0,1.3473201E1,1.4361914E1,1.9554314E1,1.4695361E1,2.1914297E1,1.2976917E1,8.879088E0,6.4159904E0,6.3926506E0,1.3831872E1,5.2881765E-1,6.4159904E0,7.2625093E0,-7.614602E-2,1.017163E0,-6.313921E0,8.795542E0,7.981549E0,9.6355766E-1,-4.290436E0,4.0059485E0,4.148439E0,-9.824112E-1,-1.1334716E0,2.2667097E1,-5.8835268E-2,9.2016524E-1,-2.727315E-1,1.4354706E-2,-1.0025135E1,3.9564211E0,7.363104E0,2.7447042E-1,8.786107E0,9.41198E-1,2.486121E0,8.630421E0,-8.38821E-1,-3.6558622E-1,-2.923051E-1,4.750617E0,1.0133253E1,9.277939E0,7.651135E-2,-2.923051E-1,1.3917843E1,1.0486339E1,-6.313921E0,7.027205E-1,6.518035E-1,3.474171E0,-3.925155E0,9.976118E-2,-5.726686E-2,-1.7113987E-2,4.861874E-2,-6.9028206E-2,7.0525266E-2,-5.7331324E-2,4.5108438E-2,-6.388375E-2,7.195694E-2,5.24784E-3,-7.4747585E-2,-3.232417E-2,-6.750317E-2,-4.8795164E-2,-7.415729E-2,1.7193729E-2,-7.146402E-2,-2.9467298E-2,5.275166E-2,-6.732722E-2,2.309173E-2,-4.6876483E-2,4.4065364E-2,-7.382496E-2,-1.7114019E-2,-7.38068E-2,-7.5063272E-3,3.287528E-2,-3.8058624E-2,-7.950317E-2,5.6453437E-2,-6.1928432E-2,3.4682695E-2,-7.6784834E-2,-8.5072145E-2,4.0928107E-2,-5.879782E-3,-8.231809E-2,-1.434079E-2,1.720951E-2,-7.973188E-2,-9.069265E-2,5.267275E-2,6.906216E-2,5.7378706E-2,4.1943528E-2,-1.1105963E-1,-9.983203E-2,-8.082588E-2,-8.653056E-2,3.9356273E-2,-2.4349969E-2,5.0476946E-2,-9.385013E-2,4.054848E-2,-2.4739224E-2,-9.081841E-2],"split_indices":[73,74,73,90,90,90,90,46,9,47,47,47,82,46,46,14,104,113,46,101,104,81,0,101,91,12,74,101,90,84,107,51,73,14,94,94,39,90,92,66,82,55,9,95,9,107,95,95,94,33,23,48,0,94,47,18,91,50,60,102,30,0,0,0,0,0,0,0,0,0,0,0,0,0,0,0,0,0,0,0,0,0,0,0,0,0,0,0,0,0,0,0,0,0,0,0,0,0,0,0,0,0,0,0,0,0,0,0,0,0,0,0,0,0,0,0,0,0,0],"split_type":[0,0,0,0,0,0,0,0,0,0,0,0,0,0,0,0,0,0,0,0,0,0,0,0,0,0,0,0,0,0,0,0,0,0,0,0,0,0,0,0,0,0,0,0,0,0,0,0,0,0,0,0,0,0,0,0,0,0,0,0,0,0,0,0,0,0,0,0,0,0,0,0,0,0,0,0,0,0,0,0,0,0,0,0,0,0,0,0,0,0,0,0,0,0,0,0,0,0,0,0,0,0,0,0,0,0,0,0,0,0,0,0,0,0,0,0,0,0,0],"sum_hessian":[2.2237548E5,1.0684011E5,1.1553538E5,8.102583E4,2.581428E4,3.1047191E4,8.448819E4,9.63296E3,7.139287E4,9.546348E3,1.6267933E4,1.8478342E4,1.256885E4,6.913683E4,1.5351364E4,4.0760884E3,5.556871E3,3.8277863E4,3.3115008E4,6.696937E3,2.8494106E3,1.1911194E4,4.3567373E3,1.6567371E4,1.910971E3,1.0736013E4,1.8328365E3,6.873644E4,4.003875E2,1.4551582E4,7.997816E2,1.8130408E3,2.2630476E3,4.506239E3,1.0506324E3,9.782884E2,3.7299574E4,1.7167652E4,1.5947355E4,5.9690063E2,6.100036E3,2.0780325E3,7.7137823E2,4.3962114E3,7.5149834E3,3.5635588E3,1.30038125E4,1.0954137E3,8.155572E2,7.3983174E3,3.3376953E3,1.8209379E3,1.1898721E1,6.5831343E3,6.2153305E4,2.140107E2,1.863768E2,3.8293777E2,1.4168645E4,2.0511903E2,5.946626E2,1.2393637E2,1.6891044E3,7.069221E2,1.5561255E3,4.462417E3,4.3821674E1,6.9923236E2,3.5140012E2,8.5597266E2,1.22315735E2,7.647659E1,3.7223098E4,7.4346504E3,9.733002E3,3.6825797E2,1.5579098E4,2.675439E2,3.2935675E2,3.6450235E2,5.735534E3,1.8842739E3,1.9375844E2,1.3859938E2,6.327789E2,3.6639941E3,7.3221716E2,1.3288569E3,6.1861265E3,2.9383564E3,6.2520233E2,8.472001E1,1.2919093E4,2.2595375E2,8.6945996E2,4.584947E2,3.570625E2,4.2657925E3,3.1325247E3,5.162224E2,2.821473E3,3.0631626E1,1.7903062E3,5.7770626E1,6.525364E3,5.1222E4,1.0931303E4,1.8937965E2,2.463105E1,4.6147762E1,1.4022903E2,1.9348987E2,1.894479E2,2.561143E2,1.391253E4,3.915933E1,1.6595972E2,2.2867767E2,3.6598492E2],"tree_param":{"num_deleted":"0","num_feature":"116","num_nodes":"119","size_leaf_vector":"1"}},{"base_weights":[1.6396998E-3,-1.0242091E0,1.0096111E0,-1.2528847E0,-2.4711838E-1,-6.64514E-1,1.1012036E0,-1.3532039E0,-7.362597E-1,4.4324204E-1,-5.799922E-1,-1.2491466E0,-8.232741E-2,6.7710984E-1,1.2210939E0,-1.1130139E0,-1.3923681E0,-1.3267918E0,-3.5309917E-1,7.743821E-1,-9.8263854E-1,-7.549341E-2,-1.1036901E0,1.1494114E0,-1.3089247E0,-7.8744805E-1,3.450478E-1,9.912283E-1,3.535117E-1,1.0133276E0,1.2934189E0,-1.4005207E0,-5.5667603E-1,-1.2817223E0,-1.448213E0,-7.689212E-1,-1.4491193E0,7.5928845E-2,-1.1909856E0,-1.1671205E0,8.626994E-1,2.4445638E-1,-1.2498196E0,-5.1697314E-1,4.2232245E-1,-6.20212E-1,-1.4648273E0,-7.103127E-2,9.167886E-2,-1.3726003E0,2.842515E-1,1.003939E0,-1.0112015E0,5.6172526E-1,-9.712397E-1,1.0842687E0,-1.3663778E-1,4.6939644E-1,-1.526076E0,1.0590888E0,1.6871923E-1,1.3327651E0,1.0430055E0,1.3996336E-2,-7.209619E-2,-6.23284E-2,2.2438675E-2,-5.6686945E-2,-7.224666E-2,-5.5684336E-2,-7.2778426E-2,-6.728389E-2,1.079569E-2,-7.332565E-2,3.251026E-2,1.7834116E-2,-4.8263147E-2,2.9810911E-2,-6.329555E-2,-8.6109824E-2,2.5185639E-2,5.6604575E-2,2.2883693E-2,-8.04558E-2,4.0782627E-2,2.8279468E-2,-6.803458E-2,1.9128405E-2,-4.2495977E-2,-2.5710205E-2,3.4807272E-2,-5.1463783E-2,2.567692E-2,-7.606124E-2,-4.766528E-2,8.191843E-3,-7.042534E-2,6.644311E-2,-7.698248E-2,7.792716E-2,-8.318701E-2,-6.30276E-2,3.539674E-2,3.397019E-2,-9.481603E-2,2.7991984E-2,-7.460412E-2,-6.2805474E-2,5.5213418E-2,-6.821404E-2,5.0042745E-2,-9.650705E-3,3.3467352E-2,6.7653647E-4,-8.308319E-2,5.361275E-2,-6.9292605E-2,4.541276E-2,-7.988555E-2,5.0470203E-2,6.77157E-2,5.8431435E-2,-5.461498E-2],"categories":[],"categories_nodes":[],"categories_segments":[],"categories_sizes":[],"default_left":[0,0,0,0,0,0,0,0,0,0,0,0,0,0,0,0,0,0,0,0,0,0,0,0,0,0,0,0,0,0,0,0,0,0,0,0,0,0,0,0,0,0,0,0,0,0,0,0,0,0,0,0,0,0,0,0,0,0,0,0,0,0,0,0,0,0,0,0,0,0,0,0,0,0,0,0,0,0,0,0,0,0,0,0,0,0,0,0,0,0,0,0,0,0,0,0,0,0,0,0,0,0,0,0,0,0,0,0,0,0,0,0,0,0,0,0,0,0,0,0,0,0,0],"id":9,"left_children":[1,3,5,7,9,11,13,15,17,19,21,23,25,27,29,31,33,35,37,39,41,43,45,47,49,51,53,55,57,59,61,63,65,67,69,71,73,75,77,79,81,83,85,87,89,91,93,-1,-1,95,97,99,101,103,105,107,109,111,113,115,117,119,121,-1,-1,-1,-1,-1,-1,-1,-1,-1,-1,-1,-1,-1,-1,-1,-1,-1,-1,-1,-1,-1,-1,-1,-1,-1,-1,-1,-1,-1,-1,-1,-1,-1,-1,-1,-1,-1,-1,-1,-1,-1,-1,-1,-1,-1,-1,-1,-1,-1,-1,-1,-1,-1,-1,-1,-1,-1,-1,-1,-1],"loss_changes":[2.2660419E5,1.9299977E4,1.6950148E4,4.3481562E3,5.6753374E3,1.95171E3,5.327883E3,6.5947656E2,3.0875332E3,3.7943179E3,4.402115E3,4.1173926E2,8.664493E2,2.3477412E3,1.2264375E3,1.5757695E3,3.714375E2,3.6535742E2,2.975983E3,1.1191028E3,4.9689404E2,1.8656005E3,1.4265312E3,1.2587362E2,2.836333E2,4.35914E2,5.1116122E2,1.2301406E3,2.4794473E3,8.1543164E2,5.9572656E2,4.524795E2,2.3311304E3,4.880078E2,9.715625E1,5.500656E2,1.6173535E2,1.6010618E3,3.761577E2,2.643908E2,6.8006836E2,2.8893423E2,2.5115796E2,1.3477158E3,1.0235252E3,1.6225084E3,1.335332E2,0E0,0E0,1.4835205E2,2.0806535E2,1.8157744E2,4.1456598E2,4.4613904E2,2.029248E2,5.0821484E2,1.2499414E3,1.4199653E3,1.38031E2,6.458535E2,1.4198167E3,3.6354688E2,2.2099531E3,0E0,0E0,0E0,0E0,0E0,0E0,0E0,0E0,0E0,0E0,0E0,0E0,0E0,0E0,0E0,0E0,0E0,0E0,0E0,0E0,0E0,0E0,0E0,0E0,0E0,0E0,0E0,0E0,0E0,0E0,0E0,0E0,0E0,0E0,0E0,0E0,0E0,0E0,0E0,0E0,0E0,0E0,0E0,0E0,0E0,0E0,0E0,0E0,0E0,0E0,0E0,0E0,0E0,0E0,0E0,0E0,0E0,0E0,0E0,0E0],"parents":[2147483647,0,0,1,1,2,2,3,3,4,4,5,5,6,6,7,7,8,8,9,9,10,10,11,11,12,12,13,13,14,14,15,15,16,16,17,17,18,18,19,19,20,20,21,21,22,22,23,23,24,24,25,25,26,26,27,27,28,28,29,29,30,30,31,31,32,32,33,33,34,34,35,35,36,36,37,37,38,38,39,39,40,40,41,41,42,42,43,43,44,44,45,45,46,46,49,49,50,50,51,51,52,52,53,53,54,54,55,55,56,56,57,57,58,58,59,59,60,60,61,61,62,62],"right_children":[2,4,6,8,10,12,14,16,18,20,22,24,26,28,30,32,34,36,38,40,42,44,46,48,50,52,54,56,58,60,62,64,66,68,70,72,74,76,78,80,82,84,86,88,90,92,94,-1,-1,96,98,100,102,104,106,108,110,112,114,116,118,120,122,-1,-1,-1,-1,-1,-1,-1,-1,-1,-1,-1,-1,-1,-1,-1,-1,-1,-1,-1,-1,-1,-1,-1,-1,-1,-1,-1,-1,-1,-1,-1,-1,-1,-1,-1,-1,-1,-1,-1,-1,-1,-1,-1,-1,-1,-1,-1,-1,-1,-1,-1,-1,-1,-1,-1,-1,-1,-1,-1,-1],"split_conditions":[3.118165E0,1.2221488E0,-6.994396E-2,2.3289871E0,-1.0342503E0,-5.3266066E-1,5.780695E0,8.401354E0,-3.9833686E-1,1.5507742E1,8.051873E0,1.7795536E-1,7.531085E0,-1.0342503E0,7.195033E0,4.7712727E0,-3.4206772E-1,8.919596E0,-3.2870674E-1,7.005445E0,-5.4248924E0,7.7575984E0,7.8632665E0,-7.3640436E-1,1.703744E1,3.5339126E-1,2.0389809E1,1.7393051E1,1.3625605E1,1.6387589E1,1.4787185E1,6.627573E0,7.560621E0,1.1541516E1,-1.0025135E1,9.24419E0,2.1075363E1,9.874732E0,6.781204E0,2.3300667E0,9.040861E0,1.2421478E-1,2.2208706E-1,9.666988E0,3.6066084E0,9.203737E0,9.3581617E-1,-7.103127E-2,9.167886E-2,1.758153E0,-4.288975E0,5.72961E0,3.6212394E-1,6.652149E0,4.084261E0,4.2147903E0,6.162758E0,7.560621E0,8.919596E0,1.7014614E1,-5.4840794E0,9.24419E0,-3.8317962E0,1.3996336E-2,-7.209619E-2,-6.23284E-2,2.2438675E-2,-5.6686945E-2,-7.224666E-2,-5.5684336E-2,-7.2778426E-2,-6.728389E-2,1.079569E-2,-7.332565E-2,3.251026E-2,1.7834116E-2,-4.8263147E-2,2.9810911E-2,-6.329555E-2,-8.6109824E-2,2.5185639E-2,5.6604575E-2,2.2883693E-2,-8.04558E-2,4.0782627E-2,2.8279468E-2,-6.803458E-2,1.9128405E-2,-4.2495977E-2,-2.5710205E-2,3.4807272E-2,-5.1463783E-2,2.567692E-2,-7.606124E-2,-4.766528E-2,8.191843E-3,-7.042534E-2,6.644311E-2,-7.698248E-2,7.792716E-2,-8.318701E-2,-6.30276E-2,3.539674E-2,3.397019E-2,-9.481603E-2,2.7991984E-2,-7.460412E-2,-6.2805474E-2,5.5213418E-2,-6.821404E-2,5.0042745E-2,-9.650705E-3,3.3467352E-2,6.7653647E-4,-8.308319E-2,5.361275E-2,-6.9292605E-2,4.541276E-2,-7.988555E-2,5.0470203E-2,6.77157E-2,5.8431435E-2,-5.461498E-2],"split_indices":[72,74,93,29,90,93,72,49,93,49,49,59,19,90,29,16,77,48,90,71,90,82,48,95,36,44,49,49,49,46,46,112,82,48,92,82,9,107,115,27,49,93,87,112,16,56,93,0,0,107,91,36,54,25,25,48,104,82,48,69,91,82,91,0,0,0,0,0,0,0,0,0,0,0,0,0,0,0,0,0,0,0,0,0,0,0,0,0,0,0,0,0,0,0,0,0,0,0,0,0,0,0,0,0,0,0,0,0,0,0,0,0,0,0,0,0,0,0,0,0,0,0,0],"split_type":[0,0,0,0,0,0,0,0,0,0,0,0,0,0,0,0,0,0,0,0,0,0,0,0,0,0,0,0,0,0,0,0,0,0,0,0,0,0,0,0,0,0,0,0,0,0,0,0,0,0,0,0,0,0,0,0,0,0,0,0,0,0,0,0,0,0,0,0,0,0,0,0,0,0,0,0,0,0,0,0,0,0,0,0,0,0,0,0,0,0,0,0,0,0,0,0,0,0,0,0,0,0,0,0,0,0,0,0,0,0,0,0,0,0,0,0,0,0,0,0,0,0,0],"sum_hessian":[2.1914542E5,1.0860955E5,1.10535875E5,8.391512E4,2.4694426E4,5.7334653E3,1.0480241E5,7.026861E4,1.3646507E4,8.0333677E3,1.6661059E4,2.8601516E3,2.8733137E3,2.3099188E4,8.170322E4,9.855456E3,6.0413156E4,5.369107E3,8.2774E3,6.5197153E3,1.5136523E3,8.486666E3,8.1743926E3,6.910557E1,2.7910461E3,1.0839978E3,1.7893159E3,1.1720233E4,1.1378954E4,2.1101246E4,6.0601977E4,6.496598E3,3.3588582E3,2.027205E4,4.0141105E4,9.6689667E2,4.4022104E3,5.474942E3,2.802458E3,2.831408E2,6.2365747E3,2.7066083E2,1.2429915E3,4.4978154E3,3.988851E3,3.4963345E3,4.678058E3,1.4302489E1,5.480308E1,2.6839146E3,1.0713153E2,1.1997582E2,9.64022E2,1.5368967E3,2.5241924E2,1.0827116E4,8.931169E2,1.0718842E4,6.601129E2,2.0016488E4,1.0847563E3,5.2369137E4,8.232837E3,1.5607668E2,6.3405215E3,1.9918826E3,1.3669756E3,1.0636179E4,9.635873E3,8.669008E2,3.9274203E4,6.0955304E2,3.5734366E2,4.3663354E3,3.587514E1,4.312697E3,1.1622451E3,1.1248095E2,2.689977E3,2.1251079E2,7.063001E1,3.7443337E3,2.4922407E3,6.3330784E1,2.0733003E2,7.130748E1,1.171684E3,1.2150076E3,3.2828079E3,9.022175E2,3.0866335E3,2.5693796E3,9.269548E2,4.2117236E3,4.663344E2,6.120922E1,2.6227053E3,6.829059E1,3.884094E1,9.967036E1,2.0305462E1,8.421412E2,1.2188078E2,1.4673702E3,6.952648E1,6.405296E1,1.8836627E2,9.121489E1,1.0735901E4,4.2944138E2,4.636755E2,2.4853232E3,8.233519E3,5.3501423E1,6.0661145E2,1.9909836E4,1.066537E2,7.649762E2,3.1978012E2,3.2748281E3,4.909431E4,7.7758257E3,4.5701105E2],"tree_param":{"num_deleted":"0","num_feature":"116","num_nodes":"123","size_leaf_vector":"1"}},{"base_weights":[5.2652056E-3,-7.363074E-1,8.241656E-1,2.5789617E-2,-1.0877364E0,-7.9911566E-1,1.0198748E0,-8.811493E-1,5.5040115E-1,3.316385E-2,-1.2341725E0,-1.2833756E0,9.054807E-3,-8.998938E-1,1.1117965E0,-4.6094963E-1,-1.3457592E0,-5.421819E-1,8.2864994E-1,5.540824E-1,-1.1940157E0,-8.936673E-1,-1.3682791E0,-9.0884215E-1,-1.41306E0,-1.4171289E0,2.6727694E-1,-1.250378E0,-3.2269272E-1,1.1469003E0,1.3551505E-1,-1.0281787E0,-4.0172737E-2,-1.4197394E0,-1.5855505E-1,5.438597E-1,-1.0096191E0,-3.451105E-1,9.254161E-1,-1.2016499E0,7.4409395E-1,-1.4168197E0,-4.153261E-1,-1.2193946E0,-3.576357E-2,-7.3219424E-1,-1.3993732E0,-4.2372957E-1,-1.4231012E0,-8.281042E-1,-1.4563144E0,-2.6664567E-1,-1.4787837E0,5.4908985E-1,-9.5732456E-1,2.508177E-1,-1.3376957E0,5.4880805E-2,-1.4161785E0,1.2330204E0,7.807565E-1,8.6565083E-1,-1.0171089E0,-6.0677197E-2,5.0948568E-2,-8.764567E-2,6.798616E-3,-7.248171E-2,3.5718236E-2,-7.2522126E-2,4.7580022E-2,4.1254293E-2,-8.255442E-2,-7.042581E-2,-4.377253E-3,2.5961509E-2,-4.74819E-2,-6.476887E-2,4.7788814E-2,1.7308509E-2,-7.401748E-2,8.257616E-3,5.1499248E-2,-7.356948E-2,-2.1548346E-2,5.607341E-2,-4.929591E-2,-4.2643476E-2,-6.7789786E-2,-7.568949E-2,1.7616168E-2,9.857566E-3,-5.9898224E-2,-4.874341E-2,-7.170736E-2,-3.8698316E-2,5.8908023E-2,2.9865667E-2,-7.613255E-2,-7.294557E-2,4.7351077E-2,-7.378173E-2,-1.800776E-2,1.1327597E-1,-7.734879E-2,-7.636009E-2,-2.5831923E-2,3.7027914E-2,-5.231759E-2,-7.688887E-2,8.146308E-3,8.4533714E-2,-8.606772E-2,-7.0073985E-2,2.4166157E-2,3.796523E-2,-3.2498788E-2,1.5189478E-2,-8.433191E-2,-7.9116814E-2,6.1912548E-2,4.3665476E-2,-6.001764E-2,-8.297879E-2,4.9812865E-2,-6.0692277E-2,6.803958E-2],"categories":[],"categories_nodes":[],"categories_segments":[],"categories_sizes":[],"default_left":[0,0,0,0,0,0,0,0,0,0,0,0,0,0,0,0,0,0,0,0,0,0,0,0,0,0,0,0,0,0,0,0,0,0,0,0,0,0,0,0,0,0,0,0,0,0,0,0,0,0,0,0,0,0,0,0,0,0,0,0,0,0,0,0,0,0,0,0,0,0,0,0,0,0,0,0,0,0,0,0,0,0,0,0,0,0,0,0,0,0,0,0,0,0,0,0,0,0,0,0,0,0,0,0,0,0,0,0,0,0,0,0,0,0,0,0,0,0,0,0,0,0,0,0,0,0,0],"id":10,"left_children":[1,3,5,7,9,11,13,15,17,19,21,23,25,27,29,31,33,35,37,39,41,43,45,47,49,51,53,55,57,59,61,63,65,67,69,71,73,75,77,79,81,83,85,87,89,91,93,95,97,99,101,103,105,107,109,111,113,115,117,119,121,123,125,-1,-1,-1,-1,-1,-1,-1,-1,-1,-1,-1,-1,-1,-1,-1,-1,-1,-1,-1,-1,-1,-1,-1,-1,-1,-1,-1,-1,-1,-1,-1,-1,-1,-1,-1,-1,-1,-1,-1,-1,-1,-1,-1,-1,-1,-1,-1,-1,-1,-1,-1,-1,-1,-1,-1,-1,-1,-1,-1,-1,-1,-1,-1,-1],"loss_changes":[1.3087553E5,3.028982E4,3.253771E4,1.6983451E4,1.2705016E4,4.3127754E3,1.6129844E4,2.5531738E3,6.8753823E3,5.7186064E3,3.124914E3,3.3341016E2,1.5213423E3,8.4457666E2,2.9890469E3,1.6397432E3,5.453467E2,2.3310906E3,2.0475361E3,2.0959226E3,4.619038E2,5.406294E3,9.703672E2,4.4224036E2,1.2825684E2,4.45271E1,1.2076129E3,3.4094653E2,6.521626E2,2.6538906E3,2.54958E3,1.1115369E3,1.1905261E3,3.7407812E2,5.2557935E2,8.544414E2,1.1804746E3,7.181748E2,1.1239688E3,2.652243E2,9.378386E2,1.1084961E2,5.223826E2,6.999004E2,3.0550566E3,9.919429E2,6.898047E2,5.1418835E2,1.7413318E2,3.9847217E2,1.0033984E2,1.1189194E2,2.720227E1,8.695523E2,4.259699E2,4.1089832E2,2.8592334E2,5.838892E2,1.8910455E2,1.0057031E3,2.9411992E3,6.1331555E2,5.513002E2,0E0,0E0,0E0,0E0,0E0,0E0,0E0,0E0,0E0,0E0,0E0,0E0,0E0,0E0,0E0,0E0,0E0,0E0,0E0,0E0,0E0,0E0,0E0,0E0,0E0,0E0,0E0,0E0,0E0,0E0,0E0,0E0,0E0,0E0,0E0,0E0,0E0,0E0,0E0,0E0,0E0,0E0,0E0,0E0,0E0,0E0,0E0,0E0,0E0,0E0,0E0,0E0,0E0,0E0,0E0,0E0,0E0,0E0,0E0,0E0,0E0,0E0,0E0,0E0],"parents":[2147483647,0,0,1,1,2,2,3,3,4,4,5,5,6,6,7,7,8,8,9,9,10,10,11,11,12,12,13,13,14,14,15,15,16,16,17,17,18,18,19,19,20,20,21,21,22,22,23,23,24,24,25,25,26,26,27,27,28,28,29,29,30,30,31,31,32,32,33,33,34,34,35,35,36,36,37,37,38,38,39,39,40,40,41,41,42,42,43,43,44,44,45,45,46,46,47,47,48,48,49,49,50,50,51,51,52,52,53,53,54,54,55,55,56,56,57,57,58,58,59,59,60,60,61,61,62,62],"right_children":[2,4,6,8,10,12,14,16,18,20,22,24,26,28,30,32,34,36,38,40,42,44,46,48,50,52,54,56,58,60,62,64,66,68,70,72,74,76,78,80,82,84,86,88,90,92,94,96,98,100,102,104,106,108,110,112,114,116,118,120,122,124,126,-1,-1,-1,-1,-1,-1,-1,-1,-1,-1,-1,-1,-1,-1,-1,-1,-1,-1,-1,-1,-1,-1,-1,-1,-1,-1,-1,-1,-1,-1,-1,-1,-1,-1,-1,-1,-1,-1,-1,-1,-1,-1,-1,-1,-1,-1,-1,-1,-1,-1,-1,-1,-1,-1,-1,-1,-1,-1,-1,-1,-1,-1,-1,-1],"split_conditions":[3.6523876E0,8.401354E0,-2.4686797E-1,7.363104E0,-2.2241354E0,8.264504E0,2.724951E0,6.817953E0,3.7460003E0,1.8862217E1,8.919596E0,1.397722E1,1.0593391E1,2.0402977E0,1.7865921E1,7.847252E-1,1.1218835E1,-8.5158443E-1,1.7087117E0,4.847241E0,5.442381E0,9.358366E0,-4.288975E0,6.261147E0,7.531949E0,-2.727315E-1,2.0389809E1,4.3457317E0,8.1714636E-1,-4.342785E-1,-7.53924E0,9.293083E-1,1.6161157E0,5.747062E-1,1.561069E1,5.7807007E0,4.4472785E0,-1.7410898E0,3.626296E0,1E-1,2.535546E-1,1.5191085E1,1.9463223E1,-3.7942886E-1,3.6626258E0,1.4695589E1,1.0080505E1,9.045362E-1,8.953256E-1,1.0926344E1,1.4722004E1,4.2147903E0,-2.923051E-1,2.1682062E0,1.7377466E1,8.912982E-1,3.7638897E1,-1.0342503E0,-4.764404E0,4.06471E0,1.1570856E1,7.89824E0,1.2957551E1,-6.0677197E-2,5.0948568E-2,-8.764567E-2,6.798616E-3,-7.248171E-2,3.5718236E-2,-7.2522126E-2,4.7580022E-2,4.1254293E-2,-8.255442E-2,-7.042581E-2,-4.377253E-3,2.5961509E-2,-4.74819E-2,-6.476887E-2,4.7788814E-2,1.7308509E-2,-7.401748E-2,8.257616E-3,5.1499248E-2,-7.356948E-2,-2.1548346E-2,5.607341E-2,-4.929591E-2,-4.2643476E-2,-6.7789786E-2,-7.568949E-2,1.7616168E-2,9.857566E-3,-5.9898224E-2,-4.874341E-2,-7.170736E-2,-3.8698316E-2,5.8908023E-2,2.9865667E-2,-7.613255E-2,-7.294557E-2,4.7351077E-2,-7.378173E-2,-1.800776E-2,1.1327597E-1,-7.734879E-2,-7.636009E-2,-2.5831923E-2,3.7027914E-2,-5.231759E-2,-7.688887E-2,8.146308E-3,8.4533714E-2,-8.606772E-2,-7.0073985E-2,2.4166157E-2,3.796523E-2,-3.2498788E-2,1.5189478E-2,-8.433191E-2,-7.9116814E-2,6.1912548E-2,4.3665476E-2,-6.001764E-2,-8.297879E-2,4.9812865E-2,-6.0692277E-2,6.803958E-2],"split_indices":[78,49,94,82,90,19,19,33,16,49,48,49,14,16,49,60,58,90,26,5,105,57,91,67,112,39,49,49,45,90,91,52,26,54,112,8,85,92,98,100,94,16,46,90,8,49,49,51,26,14,5,48,94,91,114,16,108,90,41,24,49,9,17,0,0,0,0,0,0,0,0,0,0,0,0,0,0,0,0,0,0,0,0,0,0,0,0,0,0,0,0,0,0,0,0,0,0,0,0,0,0,0,0,0,0,0,0,0,0,0,0,0,0,0,0,0,0,0,0,0,0,0,0,0,0,0,0],"split_type":[0,0,0,0,0,0,0,0,0,0,0,0,0,0,0,0,0,0,0,0,0,0,0,0,0,0,0,0,0,0,0,0,0,0,0,0,0,0,0,0,0,0,0,0,0,0,0,0,0,0,0,0,0,0,0,0,0,0,0,0,0,0,0,0,0,0,0,0,0,0,0,0,0,0,0,0,0,0,0,0,0,0,0,0,0,0,0,0,0,0,0,0,0,0,0,0,0,0,0,0,0,0,0,0,0,0,0,0,0,0,0,0,0,0,0,0,0,0,0,0,0,0,0,0,0,0,0],"sum_hessian":[2.1551111E5,1.13095336E5,1.0241577E5,3.56932E4,7.740214E4,1.1018806E4,9.139697E4,1.308002E4,2.261318E4,8.943623E3,6.8458516E4,6.889808E3,4.1289976E3,4.1758706E3,8.72211E4,6.869311E3,6.2107085E3,4.589786E3,1.8023393E4,6.2788833E3,2.6647393E3,1.9345861E4,4.9112656E4,1.774111E3,5.1156973E3,6.32294E2,3.4967036E3,2.5974797E3,1.5783906E3,8.41936E4,3.027499E3,2.9249216E3,3.9443896E3,5.8462085E3,3.6450037E2,1.381004E3,3.2087822E3,1.3725073E3,1.6650887E4,6.126443E2,5.6662393E3,2.0712732E3,5.9346606E2,1.4021706E4,5.324156E3,2.2900493E3,4.6822605E4,9.138649E2,8.6024603E2,3.5362045E2,4.7620767E3,3.2432137E1,5.998619E2,2.8430054E3,6.536984E2,1.4267574E2,2.454804E3,1.1739746E3,4.0441602E2,6.815955E4,1.6034052E4,1.8535848E3,1.1739142E3,2.6824395E3,2.4248209E2,3.6699307E2,3.5773965E3,5.7657617E3,8.044644E1,1.6831996E2,1.9618039E2,1.2247126E3,1.5629135E2,2.2394497E3,9.693325E2,5.6492725E2,8.075801E2,2.240001E2,1.6426887E4,9.3443405E1,5.192009E2,1.8736315E3,3.7926077E3,1.9621688E3,1.0910429E2,1.6042438E2,4.330417E2,3.804865E3,1.0216841E4,1.1066368E3,4.217519E3,7.6474316E2,1.525306E3,3.5473525E3,4.3275254E4,7.503299E2,1.6353505E2,4.0160797E1,8.2008527E2,2.6103677E2,9.258369E1,4.679257E3,8.281984E1,1.0633102E1,2.1799034E1,5.7056213E2,2.9299719E1,2.538854E3,3.0415115E2,4.303446E2,2.2335379E2,8.25499E1,6.0125847E1,2.3719534E3,8.2850784E1,5.8712897E2,5.868457E2,5.4935375E1,3.4948062E2,1.2583874E2,6.803371E4,1.5318943E4,7.151079E2,9.05784E1,1.7630065E3,1.0846636E3,8.925057E1],"tree_param":{"num_deleted":"0","num_feature":"116","num_nodes":"127","size_leaf_vector":"1"}},{"base_weights":[-1.0752816E-3,-1.0221301E0,8.5038495E-1,-4.864505E-1,-1.2134491E0,6.5112546E-2,1.0214473E0,-1.1770153E0,4.617386E-2,-1.3108631E0,-8.8343364E-1,2.66854E-1,-1.240988E0,-8.781473E-2,1.0924547E0,-1.3473235E0,-7.6212615E-1,-1.0191919E0,4.3992737E-1,-1.3364981E0,-9.2295307E-1,-6.320621E-1,-1.418736E0,-5.781028E-1,4.6709085E-1,-1.320869E0,7.763907E-1,1.9843045E-1,-1.3834788E0,1.1867733E0,7.556185E-1,-1.361493E0,7.997096E-1,8.3479844E-2,-9.88738E-1,-1.3718979E0,-3.4650326E-1,6.7990154E-1,-3.0070835E-1,-1.3611888E0,-1.0454564E0,-5.288806E-2,-1.2289912E0,-1.2922595E0,-2.8210616E-1,-1.4300786E0,-2.1995638E-1,-1.0719384E0,4.8840633E-1,-6.78927E-1,5.6932926E-1,-1.462124E0,-7.0608115E-1,-7.7142745E-2,1.5846363E0,4.528623E-1,-7.9600316E-1,-3.8120127E-1,-1.5727261E0,1.230151E0,8.3740115E-1,8.1646204E-1,-1.3916668E0,-2.7630378E-2,-6.90018E-2,-7.2306536E-2,1.0857713E-1,4.5883227E-2,-5.768927E-2,-6.784506E-2,-1.433596E-2,-7.313024E-2,-4.1662168E-2,-5.360348E-2,1.8911412E-2,-1.9271327E-2,4.2395875E-2,2.5375117E-2,-6.412961E-2,-4.821738E-2,-6.8501815E-2,-6.047363E-2,5.301622E-3,3.9303865E-2,-7.216248E-2,-6.5303706E-2,5.285534E-2,-1.1892156E-2,-7.235743E-2,-5.5497874E-2,2.108661E-3,-7.636287E-2,-7.085872E-2,6.573655E-2,-7.2688065E-2,-6.251919E-2,9.550862E-3,4.4862006E-2,-6.592312E-2,-8.626942E-2,-3.3011194E-3,5.404823E-2,1.9187655E-2,-7.959435E-3,-7.385688E-2,-5.4247357E-2,4.7435995E-2,4.2362243E-2,8.698981E-2,-5.1274635E-2,2.9718209E-2,9.231078E-3,-7.0524104E-2,2.3495099E-2,-7.91289E-2,-1.0285133E-2,-8.7247975E-2,3.5921544E-2,6.2712334E-2,5.3893693E-2,-3.8941573E-2,1.5702529E-2,4.8445042E-2,-7.678286E-2,9.1631465E-2],"categories":[],"categories_nodes":[],"categories_segments":[],"categories_sizes":[],"default_left":[0,0,0,0,0,0,0,0,0,0,0,0,0,0,0,0,0,0,0,0,0,0,0,0,0,0,0,0,0,0,0,0,0,0,0,0,0,0,0,0,0,0,0,0,0,0,0,0,0,0,0,0,0,0,0,0,0,0,0,0,0,0,0,0,0,0,0,0,0,0,0,0,0,0,0,0,0,0,0,0,0,0,0,0,0,0,0,0,0,0,0,0,0,0,0,0,0,0,0,0,0,0,0,0,0,0,0,0,0,0,0,0,0,0,0,0,0,0,0,0,0,0,0,0,0],"id":11,"left_children":[1,3,5,7,9,11,13,15,17,19,21,23,25,27,29,31,33,35,37,39,41,43,45,47,49,51,53,55,57,59,61,63,65,67,69,71,73,75,77,79,81,83,85,87,89,91,93,95,97,99,101,103,105,-1,107,109,111,113,115,117,119,121,123,-1,-1,-1,-1,-1,-1,-1,-1,-1,-1,-1,-1,-1,-1,-1,-1,-1,-1,-1,-1,-1,-1,-1,-1,-1,-1,-1,-1,-1,-1,-1,-1,-1,-1,-1,-1,-1,-1,-1,-1,-1,-1,-1,-1,-1,-1,-1,-1,-1,-1,-1,-1,-1,-1,-1,-1,-1,-1,-1,-1,-1,-1],"loss_changes":[1.8328505E5,9.824039E3,1.5442234E4,9.279697E3,2.269625E3,5.418796E3,7.4351562E3,7.752256E2,5.9758794E3,5.410547E2,2.1656846E3,3.0141355E3,4.4443164E2,2.1068213E3,2.8176016E3,2.3800195E2,6.1318274E2,9.1162134E2,1.8488441E3,3.6615625E2,9.0093774E2,2.5313975E3,6.963086E1,1.7981376E3,1.687737E3,2.2884473E2,2.0007571E2,1.1776418E3,1.943706E2,1.0492969E3,2.5370293E3,1.1528125E2,1.6238255E2,6.9992993E2,6.5179175E2,1.2198633E2,6.9643726E2,1.4065122E3,2.02113E3,1.6421875E2,7.564204E2,1.029425E3,4.4249365E2,6.1961426E2,1.9230123E3,4.2265625E0,9.544741E1,5.2606885E2,7.99657E2,7.567089E2,1.255002E3,4.1853027E1,3.1230954E2,0E0,7.527664E0,7.7580035E2,5.716925E2,1.6902478E2,2.0314258E2,7.592578E2,2.9771162E3,1.4453418E3,2.5129077E2,0E0,0E0,0E0,0E0,0E0,0E0,0E0,0E0,0E0,0E0,0E0,0E0,0E0,0E0,0E0,0E0,0E0,0E0,0E0,0E0,0E0,0E0,0E0,0E0,0E0,0E0,0E0,0E0,0E0,0E0,0E0,0E0,0E0,0E0,0E0,0E0,0E0,0E0,0E0,0E0,0E0,0E0,0E0,0E0,0E0,0E0,0E0,0E0,0E0,0E0,0E0,0E0,0E0,0E0,0E0,0E0,0E0,0E0,0E0,0E0,0E0,0E0],"parents":[2147483647,0,0,1,1,2,2,3,3,4,4,5,5,6,6,7,7,8,8,9,9,10,10,11,11,12,12,13,13,14,14,15,15,16,16,17,17,18,18,19,19,20,20,21,21,22,22,23,23,24,24,25,25,26,26,27,27,28,28,29,29,30,30,31,31,32,32,33,33,34,34,35,35,36,36,37,37,38,38,39,39,40,40,41,41,42,42,43,43,44,44,45,45,46,46,47,47,48,48,49,49,50,50,51,51,52,52,54,54,55,55,56,56,57,57,58,58,59,59,60,60,61,61,62,62],"right_children":[2,4,6,8,10,12,14,16,18,20,22,24,26,28,30,32,34,36,38,40,42,44,46,48,50,52,54,56,58,60,62,64,66,68,70,72,74,76,78,80,82,84,86,88,90,92,94,96,98,100,102,104,106,-1,108,110,112,114,116,118,120,122,124,-1,-1,-1,-1,-1,-1,-1,-1,-1,-1,-1,-1,-1,-1,-1,-1,-1,-1,-1,-1,-1,-1,-1,-1,-1,-1,-1,-1,-1,-1,-1,-1,-1,-1,-1,-1,-1,-1,-1,-1,-1,-1,-1,-1,-1,-1,-1,-1,-1,-1,-1,-1,-1,-1,-1,-1,-1,-1,-1,-1,-1,-1],"split_conditions":[1.722346E0,-1.0342503E0,5.4250746E0,-2.0985766E-1,4.8763978E-1,1.3917843E1,2.1549706E-1,1.0926344E1,2.2983143E0,3.7171876E0,1.3321466E1,2.044509E0,1.3007482E1,1.1706505E0,-6.2405634E-1,3.5996415E-2,1.0027309E1,5.5512524E0,1.4850514E1,5.5523868E0,6.0807643E0,7.363104E0,1.6301233E1,1.7607368E1,1.5887923E0,6.3727E0,7.6016486E-1,2.0866978E1,6.670535E0,1.590357E1,1.6412256E1,-9.620965E-1,8.617793E0,7.410313E0,-5.3266066E-1,5.563813E0,6.7280924E-1,8.350459E0,-8.546714E0,6.781204E0,2.3588696E0,8.625594E0,3.7638897E1,3.7801461E0,3.4818375E0,1.5357277E1,6.666667E-2,4.7712727E0,2.5560286E1,7.9567814E0,-1.9127922E0,7.620021E-1,8.444844E0,-7.7142745E-2,2.7994162E1,-3.6398997E0,-7.53924E0,4.567571E0,5.452018E0,8.783695E0,-5.4840794E0,1.3208439E0,8.10236E0,-2.7630378E-2,-6.90018E-2,-7.2306536E-2,1.0857713E-1,4.5883227E-2,-5.768927E-2,-6.784506E-2,-1.433596E-2,-7.313024E-2,-4.1662168E-2,-5.360348E-2,1.8911412E-2,-1.9271327E-2,4.2395875E-2,2.5375117E-2,-6.412961E-2,-4.821738E-2,-6.8501815E-2,-6.047363E-2,5.301622E-3,3.9303865E-2,-7.216248E-2,-6.5303706E-2,5.285534E-2,-1.1892156E-2,-7.235743E-2,-5.5497874E-2,2.108661E-3,-7.636287E-2,-7.085872E-2,6.573655E-2,-7.2688065E-2,-6.251919E-2,9.550862E-3,4.4862006E-2,-6.592312E-2,-8.626942E-2,-3.3011194E-3,5.404823E-2,1.9187655E-2,-7.959435E-3,-7.385688E-2,-5.4247357E-2,4.7435995E-2,4.2362243E-2,8.698981E-2,-5.1274635E-2,2.9718209E-2,9.231078E-3,-7.0524104E-2,2.3495099E-2,-7.91289E-2,-1.0285133E-2,-8.7247975E-2,3.5921544E-2,6.2712334E-2,5.3893693E-2,-3.8941573E-2,1.5702529E-2,4.8445042E-2,-7.678286E-2,9.1631465E-2],"split_indices":[74,90,19,93,74,47,93,14,19,79,71,19,7,91,90,94,48,24,47,21,89,82,11,113,26,25,93,47,2,47,71,52,40,84,93,25,101,82,92,115,26,47,108,33,9,47,99,16,22,82,91,85,5,0,22,105,91,33,85,82,91,60,91,0,0,0,0,0,0,0,0,0,0,0,0,0,0,0,0,0,0,0,0,0,0,0,0,0,0,0,0,0,0,0,0,0,0,0,0,0,0,0,0,0,0,0,0,0,0,0,0,0,0,0,0,0,0,0,0,0,0,0,0,0,0],"split_type":[0,0,0,0,0,0,0,0,0,0,0,0,0,0,0,0,0,0,0,0,0,0,0,0,0,0,0,0,0,0,0,0,0,0,0,0,0,0,0,0,0,0,0,0,0,0,0,0,0,0,0,0,0,0,0,0,0,0,0,0,0,0,0,0,0,0,0,0,0,0,0,0,0,0,0,0,0,0,0,0,0,0,0,0,0,0,0,0,0,0,0,0,0,0,0,0,0,0,0,0,0,0,0,0,0,0,0,0,0,0,0,0,0,0,0,0,0,0,0,0,0,0,0,0,0],"sum_hessian":[2.1081888E5,9.586236E4,1.14956516E5,2.5228342E4,7.063402E4,2.0562854E4,9.4393664E4,1.0984879E4,1.4243462E4,5.453376E4,1.610026E4,1.781234E4,2.750514E3,5.6788975E3,8.8714766E4,7.7863896E3,3.1984888E3,3.843269E3,1.0400193E4,5.1151008E4,3.3827546E3,1.0957112E4,5.143147E3,3.412104E3,1.4400236E4,2.6460837E3,1.0443011E2,4.651999E3,1.0268982E3,6.930572E4,1.9409043E4,7.735703E3,5.0686623E1,6.761301E2,2.5223586E3,2.520614E3,1.3226549E3,7.8551274E3,2.545066E3,4.7147555E4,4.0034543E3,8.805441E2,2.5022104E3,3.795032E3,7.1620806E3,5.0947485E3,4.8398403E1,2.3321992E3,1.0799049E3,1.1789893E3,1.3221247E4,2.1505828E3,4.955011E2,2.6753254E1,7.767685E1,3.704679E3,9.4731995E2,1.6357881E2,8.633194E2,6.164893E4,7.656793E3,1.8874842E4,5.342008E2,1.7405063E2,7.5616523E3,1.9199987E1,3.1486633E1,4.0400293E2,2.7212717E2,1.654007E3,8.683518E2,2.1558616E3,3.647526E2,6.607072E2,6.6194763E2,1.069912E3,6.7852153E3,1.3962579E3,1.1488081E3,1.030613E3,4.611694E4,3.5042627E3,4.9919162E2,5.494389E2,3.311052E2,2.4210073E3,8.1203026E1,4.863962E2,3.3086357E3,2.0151615E3,5.146919E3,5.8346643E2,4.5112817E3,2.153998E1,2.6858425E1,2.0434817E3,2.8871744E2,8.810551E2,1.988498E2,4.3480188E2,7.4418744E2,3.5178037E3,9.703443E3,2.4630678E1,2.125952E3,4.0347098E2,9.203012E1,1.4626318E1,6.3050533E1,3.230748E2,3.3816042E3,3.6520383E2,5.821161E2,9.610387E1,6.747495E1,9.684566E1,7.6647375E2,2.7737468E3,5.887518E4,6.665407E3,9.9138574E2,4.394478E3,1.4480364E4,5.1186563E2,2.2335148E1],"tree_param":{"num_deleted":"0","num_feature":"116","num_nodes":"125","size_leaf_vector":"1"}},{"base_weights":[3.9590662E-3,-9.650397E-1,8.8809615E-1,-1.1712941E0,-2.2462216E-1,2.9738593E-1,1.081804E0,-7.528963E-1,-1.2657411E0,-1.2050381E0,1.1974393E-1,4.5173505E-1,-1.0789558E0,-3.1325197E-1,1.1129087E0,-1.3109901E0,-2.3490691E-1,-9.7602296E-1,-1.3043276E0,-1.8320504E-1,-1.2676016E0,5.515658E-1,-4.631167E-1,1.7136452E-1,8.044904E-1,7.1538374E-2,-1.4220021E0,4.5902455E-1,-8.9395005E-1,8.7828827E-1,1.195865E0,-1.4073799E0,-6.891447E-1,-7.702517E-1,3.4566903E-1,-1.2484555E0,-1.8476729E-1,-1.1486636E0,-1.3623005E0,1.3701386E0,-9.3925285E-1,1.0944912E0,-1.2885137E0,7.7421504E-1,-2.4278967E-1,-1.090649E0,-1.4161709E-1,4.7083333E-1,-2.9630336E-1,9.190676E-1,1.657292E-1,-8.086986E-1,8.6566746E-1,-1.4415883E0,5.129613E-1,7.890716E-1,-5.8955914E-1,-1.3121595E0,-4.37619E-2,-2.0979016E-1,9.376124E-1,1.1988708E0,-1.5337944E0,-7.151602E-2,-2.729907E-2,3.250854E-2,-6.898235E-2,1.1254797E-2,-5.732842E-2,4.160625E-2,-4.4862855E-2,-6.441765E-2,-4.978493E-3,-6.182436E-2,1.6947582E-2,-6.355023E-2,-2.9001623E-2,-6.0198512E-2,-6.9047354E-2,8.776387E-2,-7.19895E-2,-7.143544E-2,2.8508285E-2,-6.7354016E-2,9.1108516E-2,-6.530744E-2,3.102347E-2,-3.9633602E-2,4.272067E-2,-7.2414085E-2,2.3517882E-2,-6.277856E-2,5.4377127E-3,-5.9652817E-2,8.83998E-3,-4.2491923E-3,3.4864563E-2,-6.979229E-2,-4.852805E-3,-9.463347E-2,4.6870995E-2,2.0197678E-2,-7.778602E-2,-7.367753E-2,1.4096359E-2,5.4060765E-2,-1.0121347E-1,-7.2817646E-2,-3.7222893E-3,1.3294703E-1,-7.247054E-2,-1.617337E-2,5.166306E-2,4.8373748E-2,-6.281577E-2,4.7103323E-2,-7.0638366E-2,3.975845E-2,-6.4685345E-2,3.830656E-2,-3.6925156E-2,5.3049207E-2,2.6535247E-2,6.1350174E-2,4.6108704E-2,5.8283787E-2,-1.0407739E-1],"categories":[],"categories_nodes":[],"categories_segments":[],"categories_sizes":[],"default_left":[0,0,0,0,0,0,0,0,0,0,0,0,0,0,0,0,0,0,0,0,0,0,0,0,0,0,0,0,0,0,0,0,0,0,0,0,0,0,0,0,0,0,0,0,0,0,0,0,0,0,0,0,0,0,0,0,0,0,0,0,0,0,0,0,0,0,0,0,0,0,0,0,0,0,0,0,0,0,0,0,0,0,0,0,0,0,0,0,0,0,0,0,0,0,0,0,0,0,0,0,0,0,0,0,0,0,0,0,0,0,0,0,0,0,0,0,0,0,0,0,0,0,0,0,0,0,0],"id":12,"left_children":[1,3,5,7,9,11,13,15,17,19,21,23,25,27,29,31,33,35,37,39,41,43,45,47,49,51,53,55,57,59,61,63,65,67,69,71,73,75,77,79,81,83,85,87,89,91,93,95,97,99,101,103,105,107,109,111,113,115,117,119,121,123,125,-1,-1,-1,-1,-1,-1,-1,-1,-1,-1,-1,-1,-1,-1,-1,-1,-1,-1,-1,-1,-1,-1,-1,-1,-1,-1,-1,-1,-1,-1,-1,-1,-1,-1,-1,-1,-1,-1,-1,-1,-1,-1,-1,-1,-1,-1,-1,-1,-1,-1,-1,-1,-1,-1,-1,-1,-1,-1,-1,-1,-1,-1,-1,-1],"loss_changes":[1.7776081E5,1.511743E4,1.2414219E4,3.0586094E3,7.2823833E3,5.6924453E3,3.5456328E3,4.1224424E3,7.048594E2,3.5820947E2,4.0181108E3,2.3826685E3,1.0665322E3,7.9988464E2,1.5544688E3,4.1049512E2,2.2995076E3,1.6009521E3,5.014297E2,3.8255792E2,2.6237793E2,1.6220623E3,1.3705717E3,1.8803069E3,7.806675E2,4.3519788E2,7.9625E1,2.6549576E2,3.618673E2,1.3480098E3,4.862422E2,1.1664844E2,8.546959E2,1.4419783E3,2.1469233E3,2.5313867E2,1.0489374E3,1.0519141E3,1.1821875E2,1.17989456E2,1.6258105E2,8.578654E1,1.7712402E2,9.0077783E2,1.7272643E3,4.5538647E2,1.5046702E3,1.0302368E3,1.1481277E3,4.685586E2,6.6655927E2,2.1455618E2,2.0604271E2,4.149121E1,9.479794E1,1.5868979E2,1.9214085E2,1.560614E2,3.5405045E2,5.580298E2,9.934629E2,4.5795312E2,9.909799E1,0E0,0E0,0E0,0E0,0E0,0E0,0E0,0E0,0E0,0E0,0E0,0E0,0E0,0E0,0E0,0E0,0E0,0E0,0E0,