tree
version=v4
num_class=1
num_tree_per_iteration=1
label_index=0
max_feature_idx=115
objective=binary sigmoid:1
feature_names=Column_0 Column_1 Column_2 Column_3 Column_4 Column_5 Column_6 Column_7 Column_8 Column_9 Column_10 Column_11 Column_12 Column_13 Column_14 Column_15 Column_16 Column_17 Column_18 Column_19 Column_20 Column_21 Column_22 Column_23 Column_24 Column_25 Column_26 Column_27 Column_28 Column_29 Column_30 Column_31 Column_32 Column_33 Column_34 Column_35 Column_36 Column_37 Column_38 Column_39 Column_40 Column_41 Column_42 Column_43 Column_44 Column_45 Column_46 Column_47 Column_48 Column_49 Column_50 Column_51 Column_52 Column_53 Column_54 Column_55 Column_56 Column_57 Column_58 Column_59 Column_60 Column_61 Column_62 Column_63 Column_64 Column_65 Column_66 Column_67 Column_68 Column_69 Column_70 Column_71 Column_72 Column_73 Column_74 Column_75 Column_76 Column_77 Column_78 Column_79 Column_80 Column_81 Column_82 Column_83 Column_84 Column_85 Column_86 Column_87 Column_88 Column_89 Column_90 Column_91 Column_92 Column_93 Column_94 Column_95 Column_96 Column_97 Column_98 Column_99 Column_100 Column_101 Column_102 Column_103 Column_104 Column_105 Column_106 Column_107 Column_108 Column_109 Column_110 Column_111 Column_112 Column_113 Column_114 Column_115
feature_infos=[-2039.5943603515625:1091.5670166015625] [-1134.104736328125:739.82781982421875] [-1:0.99011200666427612] [0.0096023716032505035:64.989105224609375] [0.010041222907602787:49.440994262695312] [0.035454735159873962:44.476997375488281] [0.007113051600754261:78.644180297851562] [0.3463592529296875:781.92266845703125] [0.0060048419982194901:65.188430786132812] [0.019360942766070366:51.977462768554688] [0.068988509476184845:47.690227508544922] [0.0059902183711528778:90.412109375] [0:100.23731231689453] [0.0013214480131864548:61.963279724121094] [0.010355464182794094:52.328495025634766] [0.011050047352910042:47.890117645263672] [0.0013311915099620819:66.533592224121094] [-97.774765014648438:86.497817993164062] [-57.905815124511719:87.209556579589844] [-1.3301193714141846:44.707584381103516] [-0.78180736303329468:25.631746292114258] [0.10750811547040939:11.011712074279785] [0.12855009734630585:10.503690719604492] [0.077880986034870148:13.699997901916504] [0.044169161468744278:14.762792587280273] [0.0085361897945404053:10.248317718505859] [0.18814969062805176:12.954388618469238] [-93.206924438476562:99.688468933105469] [-134.4696044921875:106.49753570556641] [-134.10050964355469:105.12853240966797] [0:51.605751037597656] [0:18.348808288574219] [0:0.78299778699874878] [0:0.42438429594039917] [0:54.894451141357422] [0:51.251335144042969] [-1:1] [-1.411729097366333:1.163433313369751] [-15.353748321533203:9.4997272491455078] [-83.384567260742188:97.774765014648438] [0:95.475936889648438] [0:0.99994277954101562] [0:1.7749419212341309] [0:1.477941632270813] [0.033332347869873047:43.741523742675781] [0.0031959519255906343:45.273876190185547] [0.053865555673837662:45.222824096679688] [0.043048448860645294:47.368488311767578] [0.012945590540766716:43.362430572509766] [0.10510174930095673:38.453590393066406] [-0.99991971254348755:0.9997638463973999] [-0.99982750415802002:0.99914336204528809] [-0.99772530794143677:0.99425691366195679] [-0.99390935897827148:0.99936777353286743] [-0.9673495888710022:0.98826634883880615] [-0.91518092155456543:0.88159781694412231] [0:39.591716766357422] [0:39.214874267578125] [0:38.742374420166016] [0:9.125788688659668] [0:10.744699478149414] [0:12.015538215637207] [0:71.669044494628906] [0:57.955101013183594] [0:46.078044891357422] [0:73.331710815429688] [0:57.955101013183594] [0:45.891456604003906] [-1:1] [0:62.510276794433594] [4.8433175086975098:368.74359130859375] [0.10666890442371368:40.250312805175781] [-68.463424682617188:60.135345458984375] [-57.422454833984375:50.990169525146484] [-53.852008819580078:51.496723175048828] [-15.744968414306641:21.8988037109375] [-19.856260299682617:26.002399444580078] [-24.923774719238281:27.990203857421875] [-68.105026245117188:46.693119049072266] [-40.734767913818359:29.753732681274414] [-28.741292953491211:24.889211654663086] [0:39.723846435546875] [0:39.451431274414062] [0:39.214874267578125] [0:93.184066772460938] [0:58.999843597412109] [0:57.955101013183594] [0:93.184066772460938] [0:61.516483306884766] [0:57.955101013183594] [-15.551257133483887:21.8988037109375] [-19.856260299682617:25.553840637207031] [-25.015253067016602:27.990203857421875] none none none [0.0067619848996400833:93.184066772460938] [0.35236963629722595:37.178958892822266] [0.045222703367471695:52.49517822265625] [0.0083333337679505348:1.2727272510528564] [0.01666666753590107:1.0645161867141724] [0.0070790704339742661:8.1836423873901367] [0:50.591464996337891] [2.8104757802793756e-05:26.464035034179688] [4.8960159801936243e-06:41.847301483154297] [-48.960414886474609:49.849723815917969] [0:747592000] [0:15.962193489074707] [-0.72364157438278198:41.569110870361328] [-0.80483907461166382:43.460357666015625] [-0.78649657964706421:43.201053619384766] [-0.75885194540023804:41.880870819091797] [0.40425211191177368:23.848541259765625] [0.040430068969726562:24.338394165039062] [0.091518580913543701:23.784858703613281] [0.46562737226486206:23.037857055664062]
tree_sizes=3393 3429 3442 3452 3444

Tree=0
num_leaves=31
num_cat=0
split_feature=48 45 68 6 68 48 83 68 25 23 64 25 48 67 21 3 74 67 74 57 6 45 3 47 48 68 19 2 22 13
split_gain=2.09122e+06 195952 102729 72705.3 57307.9 50081.2 30676.1 26539 38685.8 25598.7 22494.2 19389.8 18507.7 18162.5 16845.7 20235.9 15076.3 14170.4 11386.7 10880.9 10837.1 10390.6 9833.46 7594.17 6665.45 6036.58 5946.45 8544.89 5528.11 6296.58
threshold=9.274045944213869 7.5470709800720224 -0.049164799973368638 16.595370292663578 0.33534479141235357 6.7557284832000741 4.3126077651977548 0.07463588193058969 2.9240629673004155 3.6473098993301396 7.8815398216247567 2.7580579519271855 5.2214047908782968 15.075814723968508 5.0153298377990732 5.7277591228485116 0.1683200150728226 18.012481689453129 0.057367159053683288 4.1133000850677499 5.2018363475799569 5.9002013206481942 12.48898506164551 1.6901099085807803 6.0941820144653329 0.1384144723415375 12.730148315429689 -0.9927023947238921 8.0356884002685565 3.3704744577407841
decision_type=2 2 2 2 2 2 2 2 2 2 2 2 2 2 2 2 2 2 2 2 2 2 2 2 2 2 2 2 2 2
left_child=2 4 12 5 25 6 10 -3 28 16 -4 18 22 19 -10 -16 -7 -8 -6 -5 -20 -11 -1 -13 -21 -2 27 -14 -9 -30
right_child=1 7 3 13 11 9 17 8 14 21 -12 23 26 -15 15 -17 -18 -19 20 24 -22 -23 -24 -25 -26 -27 -28 -29 29 -31
leaf_value=-2.2697499388878222 -3.1103239648710455 -3.1548792017886935 -2.25112280571128 -3.1670455510373929 -3.0193135913248672 -2.8115416325214131 -2.0544018231949996 -3.1135877867276043 -3.1520994139171523 -2.122408092940586 -3.0671700723959376 -2.6410360703484077 -2.2826804989994631 -3.0077887242746564 -2.5080852669782692 -2.9757525609652156 -2.3863349050047797 -2.6143260447399133 -2.3501561118442762 -2.3056868740838605 -2.8197618236409565 -2.3759756186756182 -2.9196255712747381 -2.2338732362067564 -2.781436653737547 -2.7627352033652324 -3.0264297808350125 -3.1670451287966417 -2.231593803906847 -3.0786126674367891
leaf_weight=234.7620946764946 417.07225957885385 7315.2030905149877 264.42783199623227 50.337993904948235 152.50295342877507 282.01063844934106 11360.493630532175 2591.8548421859741 226.1175762116909 1415.8621403425932 124.06766583025455 132.77627849578857 72.604777671396732 219.27400302886963 649.60056196525693 359.21464590355754 799.3585014604032 114.13138909637928 324.0607972741127 393.644671484828 197.86450032517314 565.32416851818562 77.399299621582031 832.93117308616638 90.56013885140419 178.31481456756592 360.49762890487909 43.786309167742729 38.534567683935165 50.953197628259659
leaf_count=1743 9797 178062 1869 1237 3317 5014 37589 61044 5492 6525 2812 1928 557 4721 7782 7514 7716 1599 2904 3193 3549 5345 1536 5613 1558 3004 7890 1076 258 1166
internal_value=-2.55142 -3.01355 -2.17351 -2.1455 -2.58605 -2.1213 -2.07477 -3.09864 -2.9936 -2.30156 -2.51173 -2.43352 -2.73019 -2.62459 -2.76204 -2.67461 -2.49722 -2.05997 -2.63924 -2.4674 -2.52819 -2.19476 -2.43088 -2.28985 -2.39467 -3.00622 -2.92611 -2.61538 -3.10025 -2.71388
internal_weight=29935.5 13467 16468.5 15679.5 2235.52 14925.7 11863.1 11231.5 3916.28 3062.56 388.495 1640.14 789.05 753.817 1234.93 1008.82 1081.37 11474.6 674.428 534.543 521.925 1981.19 312.161 965.707 484.205 595.387 476.889 116.391 2681.34 89.4878
internal_count=383410 291430 91980 79178 30112 68469 43869 261318 83256 24600 4681 17311 12802 10709 20788 15296 12730 39188 9770 5988 6453 11870 3279 7541 4751 12801 9523 1633 62468 1424
is_linear=0
shrinkage=1


Tree=1
num_leaves=31
num_cat=0
split_feature=48 48 49 24 74 96 11 21 44 11 83 24 22 13 70 74 5 50 74 46 64 111 46 47 90 48 49 55 11 92
split_gain=432184 27581.3 23553.8 18555.4 14714 14565.9 12202.2 10747.1 8988.23 8894.59 8842.25 7912.65 8453.22 7736.02 6500.43 5210.17 4517.3 4213.48 4078.68 3353.83 3347.28 3327.8 3304.13 2859.22 2781.64 2391.6 4111.3 4124.6 2324.67 2268.46
threshold=12.316394329071047 8.1867265701293963 12.347208023071291 3.1340428590774541 -0.059131305664777749 8.4611248970031756 26.664364814758304 5.5330214500427255 5.9067640304565439 11.103520393371584 3.7185484170913701 2.5972059965133671 7.3294076919555673 6.2295494079589853 55.463960647583015 1.049293100833893 1.9243761301040652 0.91069778800010692 -3.6359130144119258 11.760356903076174 5.2221069335937509 36.109060287475593 7.0678815841674814 6.1121075153350839 1.9966094493865969 15.735064506530763 15.023886203765871 0.15262593328952792 8.3890886306762713 1.2401297092437746
decision_type=2 2 2 2 2 2 2 2 2 2 2 2 2 2 2 2 2 2 2 2 2 2 2 2 2 2 2 2 2 2
left_child=1 6 8 22 25 11 9 23 15 16 20 12 -4 14 -9 17 -1 -3 -12 -13 -11 -18 24 -6 -2 26 -5 -28 -7 -17
right_child=3 2 5 4 7 28 -8 13 -10 10 18 19 -14 -15 -16 29 21 -19 -20 -21 -22 -23 -24 -25 -26 -27 27 -29 -30 -31
leaf_value=-0.054610758704704138 0.048991493420056924 0.038148615097136539 0.12124872254174582 -0.045096197742468272 0.33468004378832922 0.5949876916604836 0.039269008301751757 0.075439999080590181 0.012257923304177736 0.46451071159757495 0.059317867272213859 0.40170853099267323 0.41480356559793191 0.021596772214025384 0.46166512433317586 0.11386190981375893 0.40199314608132064 0.55173129791451314 0.35423377599814987 0.24067842489619845 -0.041813625069144482 -0.00957498727208945 -0.035639415646852544 -0.0052526321572568153 0.40708857364806356 -0.041623082293539573 0.079630108009484488 0.66276988306249085 0.078202479205739361 0.45343058583810003
leaf_weight=54.46103560179472 231.43558363616467 282.83118876814842 650.87988884747028 156.43421836942434 72.296243913471699 22.582529962062836 255.34566259384155 131.00596638023853 970.94130523502827 39.025891218334436 118.99174724519253 3520.0023025050759 393.49500799179077 167.03842590004206 646.90206104516983 60.118310928344727 26457.476914916188 46.501617565751076 7948.3379146791995 356.05223139375448 199.53961754590273 49.206226721405983 7667.2611285597086 428.47682178020477 70.825832664966583 954.69536173343658 67.486451923847198 55.065633036196232 598.29334932565689 270.39619295299053
leaf_count=783 4084 4715 9561 3806 422 129 4307 2024 20411 92 1674 14207 1897 3474 4302 631 40371 267 25059 4341 3995 556 187337 9425 470 23521 971 315 9317 979
internal_value=0.293723 0.365404 0.276052 0.00902252 0.122851 0.325208 0.38365 0.231088 0.109026 0.386172 0.341012 0.354004 0.231853 0.330328 0.396622 0.251417 0.400294 0.110666 0.349884 0.386916 0.0410138 0.401229 -0.0292472 0.0438232 0.132901 -0.00398981 0.124792 0.341649 0.096999 0.391665
internal_weight=52943.4 42294.5 7172.09 10648.9 2679.4 5541.31 35122.4 1445.72 1630.79 34867 8305.9 4920.43 1044.37 944.946 777.908 659.847 26561.1 329.333 8067.33 3876.05 238.566 26506.7 7969.52 500.773 302.261 1233.68 278.986 122.552 620.876 330.515
internal_count=383443 143292 66455 240151 48260 39452 76837 19647 27003 72530 30820 30006 11458 9800 6326 6592 41710 4982 26733 18548 4087 40927 191891 9847 4554 28613 5092 1286 9446 1610
is_linear=0
shrinkage=0.05


Tree=2
num_leaves=31
num_cat=0
split_feature=48 68 68 25 48 44 10 21 36 103 48 107 70 73 25 82 55 91 58 70 104 22 51 74 101 92 25 68 73 36
split_gain=231001 20892.9 16032 19558 9456.48 8829.31 6716.97 6709.23 5054.11 6080.45 5001.89 4395.36 4237.45 3472.92 3430.75 3141.12 2966.46 2942.17 2890.67 2540.71 2393.24 2264.1 2226.16 2339.16 2021.76 1634.18 1555.94 1471.17 1464.09 1441.95
threshold=12.403552055358888 -0.036674115806818001 -0.024291666224598881 3.078261256217957 7.3564186096191415 7.1262300014495858 24.005496025085453 7.0841534137725839 -0.78385105729103077 2.8084440231323247 5.515925645828248 8.0035424232482928 54.750432968139656 -3.9617092609405513 2.8654297590255742 18.572633743286136 0.25557087361812597 3.8917529582977299 4.2334849834442148 65.952625274658217 13.182498931884767 6.9092874526977548 0.9711042344570161 -0.57423344254493702 1.0407606363296511 -4.2562966346740714 2.7309949398040776 -0.30663648247718805 2.0514127016067509 0.94089975953102123
decision_type=2 2 2 2 2 2 2 2 2 2 2 2 2 2 2 2 2 2 2 2 2 2 2 2 2 2 2 2 2 2
left_child=1 4 -2 17 16 6 11 10 19 12 -7 13 -10 -3 -12 24 -1 22 -13 28 -19 -11 26 -24 -9 -21 -4 -6 -5 -29
right_child=2 5 3 8 27 7 -8 15 9 21 14 18 -14 -15 -16 -17 -18 20 -20 25 -22 -23 23 -25 -26 -27 -28 29 -30 -31
leaf_value=0.24212643377397819 -0.045513172968784404 0.04889114870512596 -0.041610771323211143 -0.03455885753250585 -0.034980716794910334 0.24249031206849125 0.0050640968074194305 0.29338218788162845 0.079365617397929716 0.020842471054040558 0.078750749905240586 -0.054776596505939072 0.41956959703018426 0.2815750466365427 0.19346172765461886 0.01668148808253778 0.0001748443556632474 0.13069399142431593 0.20740275889099322 -0.053449765860154576 0.75284456581710768 0.22766994944824176 0.81581982802103659 0.10204043145606599 0.22644733641434828 0.43463939968780552 0.049298744383307384 0.058744918777598076 0.35599882171710867 0.4308711791284468
leaf_weight=1025.7855263948441 6157.7261506319046 160.97141546756029 2008.9252455718815 57.860883627086878 705.43317350745201 1802.9317374564707 226.34089589118958 3134.1948134228587 134.46655895188451 540.39465900138021 1348.4155106544495 117.84732212498784 286.6545491963625 42358.840292423964 1261.6939473152161 126.2366830073297 144.53398108482361 195.58435514569283 974.52124283835292 17.994162406772375 16.783834338188171 175.22233290225267 15.569845218211411 43.67719092220068 1762.5863487236202 365.1426580734551 614.67706274986267 382.75664845108986 40.998814027756453 27.931775331497192
leaf_count=5254 159557 1732 49276 966 16004 3482 3179 5815 1761 8213 14653 1904 604 63448 7708 1770 2158 3160 3561 337 119 1443 116 864 6865 817 11156 7003 147 290
internal_value=0.220021 0.260944 0.00695745 0.0785355 0.112943 0.267296 0.27674 0.223422 0.217725 0.160195 0.178442 0.27815 0.31094 0.280694 0.134201 0.262941 0.212246 0.000713668 0.179118 0.353404 0.179864 0.0714852 -0.0134674 0.289618 0.269289 0.411716 -0.0203118 0.00881933 0.127412 0.084054
internal_weight=66232.7 55561 10671.7 4513.95 2286.44 53274.6 43838.5 9436.06 1618.73 1136.74 4413.04 43612.2 421.121 42519.8 2610.11 5023.02 1170.32 2895.22 1092.37 481.997 212.368 715.617 2682.85 59.247 4896.78 383.137 2623.6 1116.12 98.8597 410.688
internal_count=383362 144826 238536 78979 30709 114117 73824 40293 14288 12021 25843 70645 2365 65180 22361 14450 7412 64691 5465 2267 3279 9656 61412 980 12680 1154 60432 23297 1113 7293
is_linear=0
shrinkage=0.05


Tree=3
num_leaves=31
num_cat=0
split_feature=44 68 26 68 23 11 47 23 2 52 10 46 52 58 44 70 58 44 51 64 58 4 84 49 115 103 16 23 33 68
split_gain=125749 24664.8 16360.6 15761.1 7149.77 6468.27 5830.37 4884.19 5703.57 4389.84 4303.14 3530.02 3071.18 2872.83 2825.56 2706.11 2444.55 2388.49 2267.64 2001.46 1926.8 1686.29 1668.02 1562.01 1540.9 1473.46 1434.29 1266.77 1126.61 2015.88
threshold=10.609329223632814 -0.28165808320045466 9.0611619949340838 0.07463588193058969 3.2410019636154179 11.366948604583742 8.7205247879028338 3.3409650325775151 -0.99389770627021778 -0.86644244194030751 25.405777931213382 23.07342624664307 -0.053304478526115411 13.944415569305422 6.2902383804321298 55.869817733764656 4.2334849834442148 6.201125144958497 0.49936887621879583 7.9364068508148202 10.056313037872316 2.8545376062393193 7.8234245777130136 5.6366732120513925 18.100256919860843 6.1811380386352548 7.375197410583497 3.0181804895401005 0.026360391639173034 -0.56943917274475087
decision_type=2 2 2 2 2 2 2 2 2 2 2 2 2 2 2 2 2 2 2 2 2 2 2 2 2 2 2 2 2 2
left_child=3 28 7 6 12 11 14 23 9 -9 16 15 27 24 19 -4 18 -18 -6 25 -10 -14 -8 -3 -7 -1 -23 -5 -2 -30
right_child=1 2 5 4 10 13 22 8 20 -11 -12 -13 21 -15 -16 -17 17 -19 -20 -21 -22 26 -24 -25 -26 -27 -28 -29 29 -31
leaf_value=0.062802583922696581 -0.050916125648658231 0.8411120971809315 0.062399205250979611 0.026741586653679934 0.035519039590804172 0.12521062150707718 0.20511831211026521 0.36390331253583463 0.1482909611486963 0.10851739482373884 -0.04010675784393887 0.0013670760109249832 -0.013105527473831025 -0.041269163019227728 -0.043246689545612643 0.23227724480633674 0.22537505124088963 0.20025667682700832 0.2235204926854793 -0.005494336457109103 -0.014264298038757837 0.2100321094474048 0.080095798981594538 -0.04040961967602838 0.55853374566904324 0.23743305745581572 0.098827704196691443 0.12432474216652588 -0.034767162701658243 0.32484277865459488
leaf_weight=225.88936015963554 4994.9352784082294 5.0397249758243552 258.13879307731986 508.29809260368347 348.11544414609671 290.97997788339853 961.63709911704063 216.82192596793175 213.29864513874054 751.36044016480446 160.83431148529053 204.20251163840294 104.44235289096832 452.28557360172272 735.96036529541016 2552.358916465193 44192.546021241695 12043.246911533177 297.44372595474124 316.00251066684723 1254.1537493467331 1843.6637930087745 369.21855705976486 1751.0037251412868 22.07219310849905 259.62403392791748 344.0689788646996 962.00429344177246 127.43517369031906 56.13871318846941
leaf_count=2362 134660 12 3387 5011 2983 2775 3490 730 1582 10051 2548 3955 1247 8912 17840 12555 46956 31251 527 4541 23735 4382 3442 41659 137 1278 2419 5343 3085 331
internal_value=0.179277 0.038515 0.0937061 0.208349 0.213752 0.169135 0.0938134 0.0256843 0.0715126 0.16571 0.218155 0.20209 0.146993 0.0393243 0.0274903 0.216674 0.218885 0.219996 0.122141 0.0924418 0.0093636 0.183172 0.170433 -0.0378797 0.155763 0.156185 0.192543 0.0905893 -0.0464452 0.0752051
internal_weight=76823.2 13150.2 7971.72 63673 60804.7 3780.04 2868.33 4191.68 2435.63 968.182 57042.2 3014.7 3762.48 765.338 1537.48 2810.5 56881.4 56235.8 645.559 801.516 1467.45 2292.18 1330.86 1756.04 313.052 485.513 2187.73 1470.3 5178.51 183.574
internal_count=383186 247566 109490 135620 102667 31721 32953 77769 36098 10781 84265 19897 18402 11824 26021 15942 81717 78207 3510 8181 25317 8048 6932 41671 2912 3640 6801 10354 138076 3416
is_linear=0
shrinkage=0.05


Tree=4
num_leaves=31
num_cat=0
split_feature=48 68 25 23 48 68 50 68 33 10 82 8 108 68 26 11 44 49 6 23 51 19 48 46 47 107 51 26 115 85
split_gain=106751 12203 12253.5 9487.33 6106.72 4115.76 3301.9 3690.02 3062.32 2996.77 2925.26 2800.68 2224.34 2070.64 2015.9 1980.83 1840.38 1758.36 1687.14 1581.06 1719.44 1550.54 1523.4 2450.6 1518 1448.26 1386.37 1361.67 1281.95 952.251
threshold=12.491641521453859 -0.19785103201866147 3.0374454259872441 3.385861992835999 8.8453340530395526 -0.30663648247718805 -0.7697133719921111 0.73035845160484325 0.033186776563525207 25.405777931213382 15.205573081970217 17.712138175964359 35.835147857666023 0.1892964914441109 9.3953309059143084 8.5771660804748553 7.7729876041412362 15.823365211486818 7.0203917026519784 4.1194067001342782 -0.87453389167785633 29.382904052734379 4.6066889762878427 6.128697633743287 8.2652931213378924 4.9389441013336191 0.9711042344570161 7.8362751007080087 13.245422363281252 4.4750058650970468
decision_type=2 2 2 2 2 2 2 2 2 2 2 2 2 2 2 2 2 2 2 2 2 2 2 2 2 2 2 2 2 2
left_child=3 -2 16 4 11 8 17 12 -5 10 14 22 -8 -6 -7 -12 29 -4 -9 26 -21 24 -1 -24 -15 -13 -18 -19 -10 -3
right_child=1 2 6 5 13 9 7 18 28 -11 15 25 -14 21 -16 -17 19 27 -20 20 -22 -23 23 -25 -26 -27 -28 -29 -30 -31
leaf_value=0.17634780439162615 -0.050810027491538123 0.20525062180018372 0.48880983103597209 -0.031277270076648968 -0.03293663582694261 0.17456745136425769 -0.019116092513607585 0.2025196811976 0.22300158547053509 -0.039237562317374367 0.17312165104715016 0.12067249829447978 0.16904846385987374 0.13773383487710164 0.19254254173305926 0.061749589485862823 -0.028809826287061746 -0.053708543439692828 -0.053884683366457679 0.52120632255345445 0.041993165544819418 -0.026833481076281862 0.15667373200685228 0.060964172661061959 -0.0084678126898181435 -0.043783197363125123 0.16996798572048707 0.22071893662379083 -0.054148572839695645 -0.054839184340422814
leaf_weight=3920.8740115538239 5107.0283281803131 146.13815702870488 57.986601509153843 398.0802083350718 564.67708921432495 29953.409510754049 634.66880437731743 697.47139650210738 259.55993864312768 153.12714469432831 770.8563474714756 262.22919118404388 208.70856207609177 861.87080509588122 32545.850348360837 828.15634721517563 2907.442688215524 48.318707264959812 70.655602727085352 27.428212840110064 58.946954678744078 267.23059615492821 2444.5912906602025 920.69924931973219 223.60705335810781 273.49252235889435 90.445469945669174 700.77609710395336 49.714991562068462 46.354981057345867
leaf_count=5897 144875 942 136 7868 12007 46967 10056 2975 1176 2509 2705 1482 1512 4870 30529 6235 69482 1012 1238 157 997 3026 7085 5623 3689 3737 1140 1933 901 677
internal_value=0.152225 0.00531026 0.0556335 0.173471 0.127452 0.180371 0.140999 0.0996547 0.0604214 0.181691 0.182219 0.147054 0.0274485 0.0474845 0.183928 0.11544 -0.007375 0.223551 0.178935 -0.0167362 0.194166 0.0810556 0.155167 0.130489 0.107616 0.0367158 -0.0228128 0.203018 0.178451 0.142617
internal_weight=85500.4 10802.4 5695.34 74698 9739.27 64958.8 2418.59 1611.5 707.355 64251.4 64098.3 7821.89 843.377 1917.39 62499.3 1599.01 3276.76 807.081 768.127 3084.26 86.3752 1352.71 7286.16 3365.29 1085.48 535.722 2997.89 749.095 309.275 192.493
internal_count=383438 237132 92257 146306 47416 98890 18862 15781 9945 88945 86436 23824 11568 23592 77496 8940 73395 3081 4213 71776 1154 11585 18605 12708 8559 5219 70622 2945 2077 1619
is_linear=0
shrinkage=0.05


end of trees

feature_importances:
Column_68=14
Column_48=13
Column_23=6
Column_25=6
Column_44=6
Column_74=6
Column_11=5
Column_46=4
Column_47=4
Column_49=4
Column_51=4
Column_58=4
Column_70=4
Column_6=3
Column_10=3
Column_21=3
Column_22=3
Column_26=3
Column_64=3
Column_2=2
Column_3=2
Column_13=2
Column_19=2
Column_24=2
Column_33=2
Column_36=2
Column_45=2
Column_50=2
Column_52=2
Column_55=2
Column_67=2
Column_73=2
Column_82=2
Column_83=2
Column_92=2
Column_103=2
Column_107=2
Column_115=2
Column_4=1
Column_5=1
Column_8=1
Column_16=1
Column_57=1
Column_84=1
Column_85=1
Column_90=1
Column_91=1
Column_96=1
Column_101=1
Column_104=1
Column_108=1
Column_111=1

parameters:
[boosting: gbdt]
[objective: binary]
[metric: binary_logloss]
[tree_learner: serial]
[device_type: gpu]
[data_sample_strategy: bagging]
[data: ]
[valid: ]
[num_iterations: 1000]
[learning_rate: 0.05]
[num_leaves: 31]
[num_threads: 0]
[seed: 42]
[deterministic: 0]
[force_col_wise: 1]
[force_row_wise: 0]
[histogram_pool_size: -1]
[max_depth: 6]
[min_data_in_leaf: 20]
[min_sum_hessian_in_leaf: 5]
[bagging_fraction: 0.8]
[pos_bagging_fraction: 1]
[neg_bagging_fraction: 1]
[bagging_freq: 1]
[bagging_seed: 400]
[bagging_by_query: 0]
[feature_fraction: 0.8]
[feature_fraction_bynode: 1]
[feature_fraction_seed: 30056]
[extra_trees: 0]
[extra_seed: 12879]
[early_stopping_round: 0]
[early_stopping_min_delta: 0]
[first_metric_only: 0]
[max_delta_step: 0]
[lambda_l1: 0]
[lambda_l2: 0]
[linear_lambda: 0]
[min_gain_to_split: 0]
[drop_rate: 0.1]
[max_drop: 50]
[skip_drop: 0.5]
[xgboost_dart_mode: 0]
[uniform_drop: 0]
[drop_seed: 17869]
[top_rate: 0.2]
[other_rate: 0.1]
[min_data_per_group: 100]
[max_cat_threshold: 32]
[cat_l2: 10]
[cat_smooth: 10]
[max_cat_to_onehot: 4]
[top_k: 20]
[monotone_constraints: ]
[monotone_constraints_method: basic]
[monotone_penalty: 0]
[feature_contri: ]
[forcedsplits_filename: ]
[refit_decay_rate: 0.9]
[cegb_tradeoff: 1]
[cegb_penalty_split: 0]
[cegb_penalty_feature_lazy: ]
[cegb_penalty_feature_coupled: ]
[path_smooth: 0]
[interaction_constraints: ]
[verbosity: -1]
[saved_feature_importance_type: 0]
[use_quantized_grad: 0]
[num_grad_quant_bins: 4]
[quant_train_renew_leaf: 0]
[stochastic_rounding: 1]
[linear_tree: 0]
[max_bin: 255]
[max_bin_by_feature: ]
[min_data_in_bin: 3]
[bin_construct_sample_cnt: 200000]
[data_random_seed: 175]
[is_enable_sparse: 1]
[enable_bundle: 1]
[use_missing: 1]
[zero_as_missing: 0]
[feature_pre_filter: 1]
[pre_partition: 0]
[two_round: 0]
[header: 0]
[label_column: ]
[weight_column: ]
[group_column: ]
[ignore_column: ]
[categorical_feature: ]
[forcedbins_filename: ]
[precise_float_parser: 0]
[parser_config_file: ]
[objective_seed: 16083]
[num_class: 1]
[is_unbalance: 0]
[scale_pos_weight: 22.5295]
[sigmoid: 1]
[boost_from_average: 1]
[reg_sqrt: 0]
[alpha: 0.9]
[fair_c: 1]
[poisson_max_delta_step: 0.7]
[tweedie_variance_power: 1.5]
[lambdarank_truncation_level: 30]
[lambdarank_norm: 1]
[label_gain: ]
[lambdarank_position_bias_regularization: 0]
[eval_at: ]
[multi_error_top_k: 1]
[auc_mu_weights: ]
[num_machines: 1]
[local_listen_port: 12400]
[time_out: 120]
[machine_list_filename: ]
[machines: ]
[gpu_platform_id: -1]
[gpu_device_id: -1]
[gpu_use_dp: 0]
[num_gpu: 1]

end of parameters

pandas_categorical:null
