tree
version=v4
num_class=1
num_tree_per_iteration=1
label_index=0
max_feature_idx=124
objective=binary sigmoid:1
feature_names=Column_0 Column_1 Column_2 Column_3 Column_4 Column_5 Column_6 Column_7 Column_8 Column_9 Column_10 Column_11 Column_12 Column_13 Column_14 Column_15 Column_16 Column_17 Column_18 Column_19 Column_20 Column_21 Column_22 Column_23 Column_24 Column_25 Column_26 Column_27 Column_28 Column_29 Column_30 Column_31 Column_32 Column_33 Column_34 Column_35 Column_36 Column_37 Column_38 Column_39 Column_40 Column_41 Column_42 Column_43 Column_44 Column_45 Column_46 Column_47 Column_48 Column_49 Column_50 Column_51 Column_52 Column_53 Column_54 Column_55 Column_56 Column_57 Column_58 Column_59 Column_60 Column_61 Column_62 Column_63 Column_64 Column_65 Column_66 Column_67 Column_68 Column_69 Column_70 Column_71 Column_72 Column_73 Column_74 Column_75 Column_76 Column_77 Column_78 Column_79 Column_80 Column_81 Column_82 Column_83 Column_84 Column_85 Column_86 Column_87 Column_88 Column_89 Column_90 Column_91 Column_92 Column_93 Column_94 Column_95 Column_96 Column_97 Column_98 Column_99 Column_100 Column_101 Column_102 Column_103 Column_104 Column_105 Column_106 Column_107 Column_108 Column_109 Column_110 Column_111 Column_112 Column_113 Column_114 Column_115 Column_116 Column_117 Column_118 Column_119 Column_120 Column_121 Column_122 Column_123 Column_124
feature_infos=[-7273.46533203125:5652.064453125] [-3861.7880859375:3333.136474609375] [-1:0.99999886751174927] [0.0051123565062880516:27187.640625] [0:55.991123199462891] [0:42.826679229736328] [0:35.774253845214844] [0:90.9425048828125] [0:354.593505859375] [0:117.15441131591797] [0:73.270362854003906] [0:49.237400054931641] [0:124.43609619140625] [-117.15270233154297:330.05828857421875] [-129.60739135742188:128.50460815429688] [0.90282565355300903:48.251655578613281] [1.6063356399536133:41.460071563720703] [0.10778751224279404:31.583417892456055] [0.14931793510913849:32.728992462158203] [0.13999009132385254:31.141468048095703] [0.025990072637796402:30.617700576782227] [0.019832242280244827:32.764759063720703] [0.064262926578521729:30.924604415893555] [0.071119703352451324:32.986049652099609] [0.036066088825464249:30.320268630981445] none none none [0:131.74224853515625] [0:24.937484741210938] [0.97872453927993774:1] [0:1] [0:263.4844970703125] [0:131.74224853515625] [0.99923169612884521:1] [-1.3037761449813843:1.549217700958252] [-25.954643249511719:8.9996843338012695] [-111.30220031738281:129.60739135742188] [0:330.05828857421875] [0:0.99988555908203125] [0:1.8109883069992065] [0:1.5733619928359985] [0.019832242280244827:32.764759063720703] [0.025990072637796402:30.617700576782227] [0.064262926578521729:30.924604415893555] [0.071119703352451324:32.986049652099609] [0.06353382021188736:16.362390518188477] none [0.036066088825464249:30.320268630981445] [0:402.41644287109375] none none none [0.036066088825464249:30.320268630981445] [0:1] none none [0.031928207725286484:0.96518939733505249] [0:48.052211761474609] [0:1] [0:1] [0:1] [0:1] [0:1] [0:1] none none none none none none [0:148.43377685546875] [0:122.75540924072266] [0:67.636703491210938] [0:148.43377685546875] [0:122.75540924072266] [0:67.636703491210938] none [0:354.593505859375] [0.78649699687957764:236.84288024902344] none none none none none none none none none none none none none [0:153.05918884277344] [0:146.53776550292969] [0:122.75540924072266] [0:153.05918884277344] [0:146.53776550292969] [0:122.75540924072266] none none none none none none [0:153.56175231933594] [0:30.921586990356445] [0:99.133804321289062] [0.0083333337679505348:1.7704918384552002] [0.01666666753590107:1.75] [0:10.818352699279785] [0:146.81735229492188] [0:69.105567932128906] [0:115.70394897460938] [-106.35784912109375:125.79547119140625] [-3.7474431652424756e-17:1204205056] [0:40.514511108398438] [3.2734386920928955:46.481697082519531] [2.5080244541168213:47.083812713623047] [2.9429724216461182:46.76531982421875] [3.8124208450317383:46.246994018554688] [2.5540125370025635:40.881118774414062] [2.4607446193695068:41.080150604248047] [2.5037128925323486:41.018531799316406] [2.7176218032836914:40.872840881347656]
tree_sizes=3438

Tree=0
num_leaves=31
num_cat=0
split_feature=45 122 15 19 41 124 79 119 57 42 107 112 79 120 79 117 64 117 112 124 2 11 113 31 117 120 120 124 119 18
split_gain=5.51932e+06 2.26988e+06 1.63854e+06 1.11678e+06 1.06282e+06 952723 541899 534045 434441 433711 377492 394054 365324 326196 300256 258217 240582 545239 352685 302628 239311 225878 217988 208219 153027 183458 147677 135853 129284 125729
threshold=5.1456611156463632 20.274145126342777 12.24203681945801 9.4039878845214862 0.32366620004177099 29.821756362915043 64.563369750976577 10.519673824310305 0.13246974349021914 1.8899833559989931 2.438483834266663 4.5960676670074472 102.03016281127931 16.179730415344242 143.22659301757815 28.013131141662601 0.99999788403511058 35.077447891235359 4.5960676670074472 7.6342797279357919 -0.99146968126296986 1.4407927393913271 8.6116347312927264 0.99999991059303295 9.214449882507326 9.7406282424926776 10.309544563293459 6.5700106620788583 24.844255447387699 5.9171931743621835
decision_type=2 2 2 2 2 2 2 2 2 2 2 2 2 2 2 2 2 2 2 2 2 2 2 2 2 2 2 2 2 2
left_child=4 3 7 16 -1 8 15 21 14 27 -11 23 -5 20 -4 -7 24 19 -19 -18 -9 26 28 -12 25 -2 -3 -6 -14 -29
right_child=1 2 5 12 9 6 -8 13 -10 10 11 -13 22 -15 -16 -17 17 18 -20 -21 -22 -23 -24 -25 -26 -27 -28 29 -30 -31
leaf_value=-4.1361806883126802 -4.9572763637918733 0.63469915596353754 -4.1076073571946816 -4.9560991127535488 -4.9562573964279313 0.35467630262879002 -4.7651644747034725 -2.2008164116685185 0.67725807345006839 -4.2148409459706766 0.8629507910437253 -3.3137603307304282 1.5026278746844595 -4.9561211523699784 -0.36045066016282945 -4.9561211648189039 -1.9071662231523208 -0.688352505012225 -4.4289051319679951 -4.6704140106683578 0.82160582662095116 -4.2433312786010351 -4.9561211519255286 -2.5742249008476823 -4.9380042870432517 0.92556713598351958 -4.2951915491714807 1.4910493250326251 -4.9561211508965037 -0.24791068857578757
leaf_weight=115.32011015061289 27.879961032420397 59.18905877135694 795.88584916014224 34.937883445993066 8.6012695832177979 349.69060814008117 70.730334506370127 71.078593982383609 56.342934226617217 54.66030320385471 512.9539231355302 74.013340431265533 154.74761091731489 27.372532310895622 57.309472077526152 24.490826732479036 115.17928784759715 212.03901889035478 89.664373487234116 709.11666356865317 833.37967809382826 94.743419380858541 15.889491260051726 48.201591402292252 745.51571267843246 25.259878745302558 20.435494957491755 1256.9638202567585 8.1563146803528053 113.31353902397677
leaf_count=13930 3821 1544 95687 4789 1179 11065 9427 5855 1422 6688 11055 7732 1370 3752 2627 3357 8817 11100 11352 93178 18645 11646 2178 4328 101921 513 2533 11417 1118 4941
internal_value=-1.53425 -2.51711 -1.4816 -3.70868 0.535439 -2.64763 -0.751597 -0.0538943 -3.57509 0.795858 -0.227701 0.115418 -0.279797 0.421339 -3.85591 0.00707536 -4.08946 -3.61866 -1.80002 -4.2843 0.584083 -2.59357 0.633995 0.567708 -4.75322 -2.16088 -0.630548 1.30793 1.17925 1.34725
internal_weight=6783.06 4599.03 2460.65 2138.39 2184.03 1354.45 444.912 1106.2 909.538 2068.71 689.829 635.169 213.731 931.831 853.195 374.181 1924.65 1126 301.703 824.296 904.458 174.368 178.793 561.156 798.656 53.1398 79.6246 1378.88 162.904 1370.28
internal_count=468987 407717 167560 240157 61270 123585 23849 43975 99736 47340 29803 23115 9455 28252 98314 14422 230702 124447 22452 101995 24500 15723 4666 15383 106255 4334 4077 17537 2488 16358
is_linear=0
shrinkage=1


end of trees

feature_importances:
Column_79=3
Column_117=3
Column_120=3
Column_124=3
Column_112=2
Column_119=2
Column_2=1
Column_11=1
Column_15=1
Column_18=1
Column_19=1
Column_31=1
Column_41=1
Column_42=1
Column_45=1
Column_57=1
Column_64=1
Column_107=1
Column_113=1
Column_122=1

parameters:
[boosting: gbdt]
[objective: binary]
[metric: binary_logloss]
[tree_learner: serial]
[device_type: gpu]
[data_sample_strategy: bagging]
[data: ]
[valid: ]
[num_iterations: 1000]
[learning_rate: 0.05]
[num_leaves: 31]
[num_threads: 0]
[seed: 42]
[deterministic: 0]
[force_col_wise: 1]
[force_row_wise: 0]
[histogram_pool_size: -1]
[max_depth: 6]
[min_data_in_leaf: 20]
[min_sum_hessian_in_leaf: 5]
[bagging_fraction: 0.8]
[pos_bagging_fraction: 1]
[neg_bagging_fraction: 1]
[bagging_freq: 1]
[bagging_seed: 400]
[bagging_by_query: 0]
[feature_fraction: 0.8]
[feature_fraction_bynode: 1]
[feature_fraction_seed: 30056]
[extra_trees: 0]
[extra_seed: 12879]
[early_stopping_round: 0]
[early_stopping_min_delta: 0]
[first_metric_only: 0]
[max_delta_step: 0]
[lambda_l1: 0]
[lambda_l2: 0]
[linear_lambda: 0]
[min_gain_to_split: 0]
[drop_rate: 0.1]
[max_drop: 50]
[skip_drop: 0.5]
[xgboost_dart_mode: 0]
[uniform_drop: 0]
[drop_seed: 17869]
[top_rate: 0.2]
[other_rate: 0.1]
[min_data_per_group: 100]
[max_cat_threshold: 32]
[cat_l2: 10]
[cat_smooth: 10]
[max_cat_to_onehot: 4]
[top_k: 20]
[monotone_constraints: ]
[monotone_constraints_method: basic]
[monotone_penalty: 0]
[feature_contri: ]
[forcedsplits_filename: ]
[refit_decay_rate: 0.9]
[cegb_tradeoff: 1]
[cegb_penalty_split: 0]
[cegb_penalty_feature_lazy: ]
[cegb_penalty_feature_coupled: ]
[path_smooth: 0]
[interaction_constraints: ]
[verbosity: -1]
[saved_feature_importance_type: 0]
[use_quantized_grad: 0]
[num_grad_quant_bins: 4]
[quant_train_renew_leaf: 0]
[stochastic_rounding: 1]
[linear_tree: 0]
[max_bin: 255]
[max_bin_by_feature: ]
[min_data_in_bin: 3]
[bin_construct_sample_cnt: 200000]
[data_random_seed: 175]
[is_enable_sparse: 1]
[enable_bundle: 1]
[use_missing: 1]
[zero_as_missing: 0]
[feature_pre_filter: 1]
[pre_partition: 0]
[two_round: 0]
[header: 0]
[label_column: ]
[weight_column: ]
[group_column: ]
[ignore_column: ]
[categorical_feature: ]
[forcedbins_filename: ]
[precise_float_parser: 0]
[parser_config_file: ]
[objective_seed: 16083]
[num_class: 1]
[is_unbalance: 0]
[scale_pos_weight: 135.064]
[sigmoid: 1]
[boost_from_average: 1]
[reg_sqrt: 0]
[alpha: 0.9]
[fair_c: 1]
[poisson_max_delta_step: 0.7]
[tweedie_variance_power: 1.5]
[lambdarank_truncation_level: 30]
[lambdarank_norm: 1]
[label_gain: ]
[lambdarank_position_bias_regularization: 0]
[eval_at: ]
[multi_error_top_k: 1]
[auc_mu_weights: ]
[num_machines: 1]
[local_listen_port: 12400]
[time_out: 120]
[machine_list_filename: ]
[machines: ]
[gpu_platform_id: -1]
[gpu_device_id: -1]
[gpu_use_dp: 0]
[num_gpu: 1]

end of parameters

pandas_categorical:null
