tree
version=v4
num_class=1
num_tree_per_iteration=1
label_index=0
max_feature_idx=115
objective=binary sigmoid:1
feature_names=Column_0 Column_1 Column_2 Column_3 Column_4 Column_5 Column_6 Column_7 Column_8 Column_9 Column_10 Column_11 Column_12 Column_13 Column_14 Column_15 Column_16 Column_17 Column_18 Column_19 Column_20 Column_21 Column_22 Column_23 Column_24 Column_25 Column_26 Column_27 Column_28 Column_29 Column_30 Column_31 Column_32 Column_33 Column_34 Column_35 Column_36 Column_37 Column_38 Column_39 Column_40 Column_41 Column_42 Column_43 Column_44 Column_45 Column_46 Column_47 Column_48 Column_49 Column_50 Column_51 Column_52 Column_53 Column_54 Column_55 Column_56 Column_57 Column_58 Column_59 Column_60 Column_61 Column_62 Column_63 Column_64 Column_65 Column_66 Column_67 Column_68 Column_69 Column_70 Column_71 Column_72 Column_73 Column_74 Column_75 Column_76 Column_77 Column_78 Column_79 Column_80 Column_81 Column_82 Column_83 Column_84 Column_85 Column_86 Column_87 Column_88 Column_89 Column_90 Column_91 Column_92 Column_93 Column_94 Column_95 Column_96 Column_97 Column_98 Column_99 Column_100 Column_101 Column_102 Column_103 Column_104 Column_105 Column_106 Column_107 Column_108 Column_109 Column_110 Column_111 Column_112 Column_113 Column_114 Column_115
feature_infos=[-866.119140625:966.60614013671875] [-462.06771850585938:557.4169921875] [-1:0.99621385335922241] [0.0088545177131891251:55.566013336181641] [0.0099028227850794792:39.835006713867188] [0.029787380248308182:33.781608581542969] [0.0068583269603550434:60.159988403320312] [0.2869015634059906:781.92266845703125] [0.011369257234036922:54.554458618164062] [0.019187591969966888:42.048351287841797] [0.060291625559329987:36.242626190185547] [0.0075433291494846344:59.510818481445312] [0:72.68780517578125] [0.0050622783601284027:55.215686798095703] [0.012794247828423977:35.476058959960938] [0.049492068588733673:35.799137115478516] [0.0031034732237458229:60.134918212890625] [-72.43743896484375:70.098152160644531] [-55.686374664306641:46.993129730224609] [4.1515016555786133:43.741279602050781] [3.3079056739807129:24.952596664428711] [0.14119935035705566:9.1459531784057617] [0.13316482305526733:8.8663215637207031] [0.017218519002199173:6.2341203689575195] [0.044169161468744278:6.8273715972900391] [0.059067264199256897:6.5178914070129395] [0.19271674752235413:11.169953346252441] [-72.63800048828125:67.815803527832031] [-67.6019287109375:55.775661468505859] [-72.63800048828125:67.815803527832031] [0:29.595977783203125] [0:18.551864624023438] [0:0.78299778699874878] [0:0.38210967183113098] [0:41.900138854980469] [0:29.595977783203125] [-1:1] [-0.94881194829940796:1.0605286359786987] [-14.305831909179688:9.4997797012329102] [-60.691104888916016:52.987056732177734] [0:72.43743896484375] [0:0.99994277954101562] [0:1.6045068502426147] [0:1.2419072389602661] [0.033332347869873047:39.779510498046875] [0.011362367309629917:40.365840911865234] [0.05065179243683815:40.910942077636719] [0.043048448860645294:42.365413665771484] [0.012945590540766716:39.919143676757812] [0.12678009271621704:36.295963287353516] [-0.99991971254348755:0.9996761679649353] [-0.99982750415802002:0.99914336204528809] [-0.99778008460998535:0.99425691366195679] [-0.98626071214675903:0.99788194894790649] [-0.92601847648620605:0.95316696166992188] [-0.83308160305023193:0.88159781694412231] [0:35.734504699707031] [0:35.305717468261719] [0:34.637035369873047] [0:7.137359619140625] [0:9.8440046310424805] [0:11.192133903503418] [0:55.956779479980469] [0:50.542839050292969] [0:35.898418426513672] [0:55.956779479980469] [0:50.542839050292969] [0:35.898418426513672] [-1:1] [0:63.116115570068359] [5.7025537490844727:223.6939697265625] [0.10666890442371368:36.272579193115234] [-61.465339660644531:60.166343688964844] [-48.350994110107422:42.256992340087891] [-48.214427947998047:40.522945404052734] [-14.018982887268066:17.002956390380859] [-19.286090850830078:24.567808151245117] [-20.112392425537109:26.088510513305664] [-53.103885650634766:42.008769989013672] [-38.259925842285156:28.895261764526367] [-27.134321212768555:19.900264739990234] [0:36.079059600830078] [0:35.505069732666016] [0:35.305717468261719] [0:61.953762054443359] [0:50.957870483398438] [0:50.542839050292969] [0:61.953762054443359] [0:50.957870483398438] [0:50.542839050292969] [-14.018982887268066:17.002956390380859] [-19.286090850830078:24.567808151245117] [-20.112392425537109:26.088510513305664] none none none [0.0066044367849826813:61.953762054443359] [0.37627393007278442:25.322565078735352] [0.083408907055854797:46.404930114746094] [0.0083333337679505348:1.3770492076873779] [0.01666666753590107:1.1612902879714966] [0.007869265042245388:6.5019164085388184] [8.326323950313963e-06:27.389743804931641] [0.35170203447341919:18.932718276977539] [9.526837857265491e-06:26.596395492553711] [-37.445182800292969:40.341461181640625] [0:5944693.5] [0:16.807888031005859] [7.0295743942260742:39.541389465332031] [6.060234546661377:40.080028533935547] [6.7666120529174805:39.754383087158203] [8.5274953842163086:39.106224060058594] [5.194307804107666:19.896692276000977] [4.6085677146911621:20.947338104248047] [4.6818985939025879:20.312765121459961] [5.3677501678466797:19.693931579589844]
tree_sizes=3364 3456 3511 3451

Tree=0
num_leaves=31
num_cat=0
split_feature=81 5 83 47 47 83 51 66 61 49 56 71 49 49 6 19 55 22 50 107 105 22 71 38 83 15 67 12 99 45
split_gain=1.26044e+06 28639.5 22685 23264.9 18546.7 20112.4 13262.7 9018.87 7349.51 6209.87 5690.14 5276.01 4637.4 3616.07 2146.48 1505.86 1431.1 1378.03 1096.79 1051.91 1010.88 959.844 664.108 629.531 247.142 436.319 147.203 104.627 6.34401e-06 4.29182e-05
threshold=5.4890096187591562 6.7303793430328378 6.6057322025299081 5.8450634479522714 6.7968060970306405 4.0255801677703866 -0.30445344746112818 3.2457153797149663 4.5753605365753183 13.079574108123781 4.8431050777435312 4.3675987720489511 8.6588363647460955 8.5339789390563983 14.281517982482912 20.869626998901371 0.27340625226497656 5.9608986377716073 -0.82513126730918873 9.7933921813964862 5.4453711509704599 5.5319564342498788 4.3675987720489511 -6.0148143768310538 6.6683976650238046 7.6645042896270761 2.8097873926162724 3.3986306190490727 0.0094788861460983771 1.6572279334068301
decision_type=2 2 2 2 2 2 2 2 2 2 2 2 2 2 2 2 2 2 2 2 2 2 2 2 2 2 2 2 2 2
left_child=1 -1 3 6 7 12 9 27 10 16 -9 13 18 -7 26 -14 -2 -16 -6 23 -11 -13 -4 -5 25 -24 -8 -3 -26 -30
right_child=2 4 22 19 5 11 14 8 -10 20 -12 21 15 -15 17 -17 -18 -19 -20 -21 -22 -23 24 -25 28 -27 -28 -29 29 -31
leaf_value=-3.4303933309057562 -2.6550594132413985 -3.1379902168455156 -2.8612821297457867 -2.8750253218552873 -2.6550591307240565 -2.215284508818439 -3.1380010296353587 -1.9664519796190139 -3.4303901984536713 -3.4303902221042484 -2.1892797322545778 -2.8059167928892821 -2.411115666675733 -3.4303902287511514 -2.1525138521026701 -3.43039022427683 -1.9328705802246522 -3.1874199584981242 -1.9426079230755786 -2.7700623487963902 -2.551350077348828 -3.430390271693287 -2.8468475352105767 -3.4303902296284883 -3.4304123457527993 -3.4303902253236549 -3.43039018178855 -3.4303902233354346 -3.4302463903890175 -3.4303902376845521
leaf_weight=36.440284758806229 7.5663699284195891 5.0159939453005773 5.1540272235870352 5.2816067785024634 5.6747740544378749 22.932641290128235 5.0160037614405146 3235.8940209522843 8.8311388306319696 9.4368844963610155 314.32990646362305 7.0456676222383967 7.1943794749677163 8.3529179170727712 6.8861571289598924 7.3008328452706337 73.451936841011047 6.0361689850687981 112.37765834107995 6.6630967855453482 5.0052652470767489 48.587202675640583 5.026609379798173 150.63945260643959 32.042667977511883 8.831138398498295 30.351060520857573 7.8428161107003689 5.1949758976697913 2798.4509274847806
leaf_count=1143 124 129 105 109 93 181 129 9985 277 296 2323 136 84 262 46 229 179 161 295 124 72 1524 101 4725 1005 277 952 246 163 87777
internal_value=-2.64555 -2.03536 -3.38446 -2.97557 -2.02195 -2.46809 -2.51216 -1.99454 -1.98976 -2.17058 -1.98618 -3.05918 -2.08049 -2.53971 -3.18742 -2.9245 -2.00032 -2.63593 -1.97686 -3.38529 -3.12574 -3.3513 -3.42834 -3.41158 -3.42936 -3.21872 -3.38892 -3.31633 -3.43039 -3.43039
internal_weight=6988.85 3827.82 3161.03 306.334 3791.38 219.466 143.75 3571.91 3559.06 95.4605 3550.22 86.9184 132.548 31.2856 48.2894 14.4952 81.0183 12.9223 118.052 162.584 14.4421 55.6329 2854.7 155.921 2849.55 13.8577 35.3671 12.8588 2835.69 2803.65
internal_count=113252 16907 96345 6917 15764 2804 1959 12960 12585 671 12308 2103 701 443 1288 313 303 207 388 4958 368 1660 89428 4834 89323 378 1081 375 88945 87940
is_linear=0
shrinkage=1


Tree=1
num_leaves=31
num_cat=0
split_feature=81 52 58 114 58 21 71 47 53 71 48 104 43 52 52 55 5 81 66 47 112 56 61 81 83 47 51 28 107 32
split_gain=154446 5927.67 5002.73 3854.45 2642.97 2206.34 3680.6 2706.67 1110.67 1084.77 841.203 634.525 429.083 79.071 25.8951 70.0067 0.0592294 0.0596721 0.0356656 0.0167117 0.0164497 0.0121161 0.0113116 0.0132363 0.00365322 0.00484416 0.00444235 0.00360918 0.00123944 0.000520911
threshold=6.1791491508483896 0.48248499631881719 5.8480544090271005 7.6340937614440927 9.9599199295043963 6.0231008529663095 4.3675987720489511 5.0735545158386239 -0.32864363491535181 5.0754930973052987 11.449768066406252 2.7738395929336552 0.65072888135910045 -0.7106584608554839 -0.56209316849708546 0.60884770750999462 6.8288481235504159 5.4890096187591562 3.2457153797149663 5.7685041427612314 13.401208877563478 4.8431050777435312 4.5753605365753183 5.4890096187591562 6.6683976650238046 5.8450634479522714 -0.31099480390548701 0.90246331691741954 8.8685045242309588 0.083279754966497435
decision_type=2 2 2 2 2 2 2 2 2 2 2 2 2 2 2 2 2 2 2 2 2 2 2 2 2 2 2 2 2 2
left_child=1 4 3 13 5 10 8 -8 -7 -5 11 -1 -12 -2 -15 -16 -3 18 -18 20 -11 -20 23 27 25 26 -4 -6 -21 -24
right_child=2 16 24 9 22 6 7 -9 -10 19 12 -13 -14 14 15 -17 17 -19 21 28 -22 -23 29 -25 -26 -27 -28 -29 -30 -31
leaf_value=0.2114433206483545 0.49504420395385645 -0.05168233015802795 -0.053693505803111274 0.46129025819962655 -0.053645214509372277 0.15719820995379072 0.32392870308561494 0.14152494982044597 0.37095982762225621 -0.052195993385512673 -0.055311625716957448 0.391456961799447 0.31447335176136104 0.39546577131462668 0.18904883611712617 0.39546576876936745 -0.051890397590862128 -0.051714901577228078 -0.05683119242410966 -0.051650073028813095 -0.055069655364337555 -0.05514508050676431 -0.051670124086820472 -0.051731728767838658 -0.051619199550824425 -0.051728334602495554 -0.052093609766225325 -0.055444077633121897 -0.052412131469026103 -0.052264054610189209
leaf_weight=49.254678156226873 18.609851896762848 20.605166330933571 6.8134419694542911 11.340809449553488 5.1825637966394442 61.79931990429759 516.59905982762575 335.43786152079701 3636.912361247465 13.551172837615015 15.572122264653446 7988.6063423492014 15.808954913169144 74.512575149536133 6.0138554424047479 12.958708763122559 5.7953868079930535 12.615616977214811 23.560972368344665 84.327563039958477 7.8733907490968695 19.449736647307873 14.053012927994134 6.1824438869953147 2637.3894379772246 48.435626111924648 11.946011554449795 6.0358548797667027 5.6960761770606032 5.0071316305547944
leaf_count=288 7 669 139 27 114 428 1736 4161 4384 394 238 6939 55 23 81 4 169 400 236 2748 133 263 454 196 86812 1538 340 75 143 144
internal_value=0.294285 0.369671 -0.0324057 0.188936 0.372417 0.373645 0.345806 0.252118 0.367388 -0.0045897 0.389345 0.390354 0.130976 0.400923 0.382187 0.330036 -0.054002 -0.0547802 -0.0555726 -0.051997 -0.053252 -0.0560687 -0.0526676 -0.0535893 -0.0516285 -0.0519925 -0.0526747 -0.0546131 -0.0516983 -0.0518262
internal_weight=15677.9 12738.5 2939.47 234.884 12656.5 12620 4550.75 852.037 3698.71 122.789 8069.24 8037.86 31.3811 112.095 93.4851 18.9726 82.0269 61.4217 48.8061 111.448 21.4246 43.0107 36.461 17.4009 2704.58 67.1951 18.7595 11.2184 90.0236 19.0601
internal_count=113338 20949 92389 3560 19212 18229 10709 5897 4812 3445 7520 7227 293 115 108 85 1737 1068 668 3418 527 499 983 385 88829 2017 479 189 2891 598
is_linear=0
shrinkage=0.05


Tree=2
num_leaves=31
num_cat=0
split_feature=56 52 56 92 47 110 52 71 5 71 71 71 71 5 57 68 66 56 71 56 55 71 82 47 57 47 3 69 100 58
split_gain=86764.2 4156.44 3077.45 3034.35 1916.41 1276.6 1245.05 1193.96 1055.61 595.312 347.508 0.09016 0.0528047 0.0539232 0.0337752 0.0246842 0.0241237 0.0148977 0.00889022 0.00859359 0.00547744 0.00211352 0.000521654 0.000694823 0.000245643 0.000212296 0.000142599 4.02386e-05 2.90646e-05 0.000448749
threshold=7.0840373039245614 0.48248499631881719 5.608051300048829 0.97544145584106456 6.4311275482177743 11.917801380157472 0.01497491402551532 6.9715547561645517 6.7303793430328378 4.2842617034912118 3.609667301177979 4.8370378017425546 5.2332513332366952 6.7303793430328378 3.8448749780654912 0.37017381191253668 3.4146937131881718 4.8431050777435312 5.4657461643219003 5.0771331787109384 0.27340625226497656 5.1532027721405038 6.2057275772094735 5.8450634479522714 6.6683976650238046 6.3656373023986825 7.6256978511810312 7.8826918601989755 0.024695121683180336 5.0959153175354013
decision_type=2 2 2 2 2 2 2 2 2 2 2 2 2 2 2 2 2 2 2 2 2 2 2 2 2 2 2 2 2 2
left_child=1 2 5 4 6 15 -4 8 -7 -2 -5 -12 13 -3 -9 -1 -15 -18 -6 -14 -17 -11 23 -21 25 -23 -27 -24 -26 -30
right_child=9 12 3 10 18 7 -8 14 -10 21 11 -13 19 16 -16 20 17 -19 -20 22 -22 24 27 -25 28 26 -28 -29 29 -31
leaf_value=-0.055811973590765201 0.45953716425286184 -0.051545651118729496 0.27114041605639888 0.26674256192213908 -0.053888395426852115 -0.052318884766479723 -0.053382767777646833 -0.055788233124563651 0.27233969445987988 -0.05255643714270386 -0.0555378634158777 -0.052396028418616028 -0.053694153777167443 -0.051908012805610929 -0.052192728654912715 -0.058202764698303683 -0.056508772216099346 -0.054519439977560306 -0.051697278736013853 -0.052324118488082189 -0.059973901315084982 -0.051959044379415668 -0.051548168670769882 -0.051583355159218636 -0.051506165441200603 -0.05185078461001235 -0.051574118038106437 -0.051701218552915845 -0.052008419531191064 -0.05153740698711029
leaf_weight=5.4226758573204306 5.7108033802360287 13.821082243695853 462.52761224843562 9.033831696957348 5.0671117119491091 25.076298600062728 31.572842525318265 10.251896515488626 16159.970347076654 5.1194152832031241 28.534148931503296 114.31055422499776 6.2899276353418818 5.0965038221329442 17.998764930292964 5.7458267658948925 20.000619878992438 17.775275802239776 53.586886756122112 6.5890144873410446 18.168563898652792 5.2279815431684247 21.384156499058012 6.0927787777036428 72.010974349454045 5.5251283887773743 29.655304133892059 5.3737383447587481 5.0675826203078023 2384.7883906308562
leaf_count=80 27 476 1742 25 106 624 760 161 14771 145 425 3233 143 152 494 59 204 287 1738 188 133 159 736 207 2488 170 1012 177 172 82405
internal_value=0.223889 0.264317 0.266236 0.163939 0.218327 0.270674 0.250404 0.27127 0.271837 -0.0503802 -0.0340037 -0.0530236 -0.0532419 -0.0542615 -0.0534975 -0.0588577 -0.0551371 -0.0555727 -0.0518866 -0.0519778 -0.0595484 -0.0515415 -0.0517041 -0.0519682 -0.0515395 -0.0516617 -0.0516176 -0.0515789 -0.0515375 -0.0515384
internal_weight=19562.8 17049.7 16947.3 704.633 552.754 16242.6 494.1 16213.3 16185 2513.11 151.879 142.845 102.423 56.6935 28.2507 29.3371 42.8724 37.7759 58.654 45.7296 23.9144 2507.39 39.4397 12.6818 2502.28 40.4084 35.1804 26.7579 2461.87 2389.86
internal_count=113499 26921 24351 8029 4346 16322 2502 16050 15395 86578 3683 3658 2570 1119 655 272 643 491 1844 1451 192 86551 1308 395 86406 1341 1182 913 85065 82577
is_linear=0
shrinkage=0.05


Tree=3
num_leaves=31
num_cat=0
split_feature=81 57 71 52 45 3 110 58 18 16 54 1 113 7 57 81 63 47 47 10 58 81 61 70 81 83 47 58 107 38
split_gain=59102.5 3033.84 2157.12 1983.36 1180.67 1130.2 781.486 700.869 567.504 355.862 204.298 146.66 106.62 86.9156 60.0339 0.251311 0.0938653 0.0704912 0.0642782 0.062762 0.0569625 0.0518233 0.0249248 0.00664648 0.00253166 0.00236605 0.00781416 0.00124909 0.000449523 0.000449085
threshold=7.0628619194030771 6.6683976650238046 4.2842617034912118 0.4708328396081925 8.7303113937377947 4.7655208110809335 11.917801380157472 3.4969102144241337 -3.2174203395843501 22.265533447265629 0.32268042862415319 -127.046573638916 11.261430740356447 4.581066608428956 8.2284693717956561 5.4890096187591562 4.7387962341308603 6.7968060970306405 6.7968060970306405 9.3085956573486346 9.3559360504150408 5.2768864631652841 3.2563819885253911 100.44239425659181 6.1791491508483896 6.6683976650238046 5.7685041427612314 9.5916285514831561 8.1600542068481463 -4.9724445343017569
decision_type=2 2 2 2 2 2 2 2 2 2 2 2 2 2 2 2 2 2 2 2 2 2 2 2 2 2 2 2 2 2
left_child=1 3 8 4 5 16 -7 13 10 20 12 -5 -3 -6 -12 17 -1 22 -9 23 -10 -21 -4 -13 27 26 -2 -17 29 -28
right_child=25 2 15 11 7 6 -8 18 9 -11 14 19 -14 -15 -16 24 -18 -19 -20 21 -22 -23 -24 -25 -26 -27 28 -29 -30 -31
leaf_value=-0.053538726740753641 -0.053340328962894527 0.2330554023288256 -0.058198362960365208 0.21918577650536863 0.092524234264523636 -0.058069432820866851 0.21707752087358689 -0.058048053856408224 -0.059438911601686267 0.20101705949577636 0.2321739012130434 -0.051800280262536073 -0.057868326556149485 0.26719993004139647 0.30514799124281228 -0.052210032317996626 -0.058538629551942667 -0.052389486444363399 -0.052575872388111781 -0.056141396990142513 -0.054453764838981206 -0.052112026243695833 -0.054359455469897094 -0.053595207493269008 -0.051564383001055647 -0.0514609407303286 -0.051980814298191319 -0.051666621830998252 -0.052021655089223073 -0.051489425106151988
leaf_weight=21.455315865576267 7.0226106215268365 5.0031081326305857 23.484983142465357 5.2622596621513358 9.7032125201076251 25.841178961098194 19322.040861656889 5.9014619905501595 25.133432542905211 22.286202769726515 94.547620758414268 22.135407922789458 8.4997711181640607 26.766074122861028 40.152998924255371 29.337145416066051 16.68807483650744 8.7945914417505247 59.187899889424443 34.445332713425159 7.4225258957594624 10.385809555649756 5.1566002722829571 6.7242018077522507 98.399664849042892 2325.1588498819619 5.1296918503940097 16.53520386852324 5.2045366466045371 49.682165041565895
leaf_count=461 165 11 221 20 83 265 16634 71 217 38 62 744 101 7 10 772 191 222 1558 415 140 321 98 160 3397 84320 150 549 154 1781
internal_value=0.183377 0.211536 0.0724938 0.21427 0.215283 0.216174 0.21671 0.0452473 0.184491 0.0470773 0.23534 -0.0358267 0.0499252 0.220725 0.253927 -0.0526546 -0.0557262 -0.0563049 -0.053072 -0.0540372 -0.0583023 -0.0552079 -0.0575072 -0.0522185 -0.0517074 -0.0514694 -0.0517622 -0.0520142 -0.0515776 -0.0515354
internal_weight=22343.5 19951.3 384.754 19566.5 19487.6 19386 19347.9 101.559 203.046 54.8422 148.203 78.953 13.5029 36.4693 134.701 181.708 38.1434 37.4362 65.0894 73.6908 32.556 44.8311 28.6416 28.8596 144.272 2392.2 67.039 45.8723 60.0164 54.8119
internal_count=113338 26768 5838 20930 19270 17551 16899 1719 579 395 184 1660 112 90 72 5259 652 541 1629 1640 357 736 319 904 4718 86570 2250 1321 2085 1931
is_linear=0
shrinkage=0.05


end of trees

feature_importances:
Column_71=12
Column_47=11
Column_81=8
Column_52=6
Column_56=6
Column_58=6
Column_83=5
Column_5=4
Column_57=4
Column_49=3
Column_55=3
Column_61=3
Column_66=3
Column_107=3
Column_3=2
Column_22=2
Column_38=2
Column_45=2
Column_51=2
Column_110=2
Column_1=1
Column_6=1
Column_7=1
Column_10=1
Column_12=1
Column_15=1
Column_16=1
Column_18=1
Column_19=1
Column_21=1
Column_28=1
Column_32=1
Column_43=1
Column_48=1
Column_50=1
Column_53=1
Column_54=1
Column_63=1
Column_67=1
Column_68=1
Column_69=1
Column_70=1
Column_82=1
Column_92=1
Column_99=1
Column_100=1
Column_104=1
Column_105=1
Column_112=1
Column_113=1
Column_114=1

parameters:
[boosting: gbdt]
[objective: binary]
[metric: binary_logloss]
[tree_learner: serial]
[device_type: gpu]
[data_sample_strategy: bagging]
[data: ]
[valid: ]
[num_iterations: 1000]
[learning_rate: 0.05]
[num_leaves: 31]
[num_threads: 0]
[seed: 42]
[deterministic: 0]
[force_col_wise: 1]
[force_row_wise: 0]
[histogram_pool_size: -1]
[max_depth: 6]
[min_data_in_leaf: 20]
[min_sum_hessian_in_leaf: 5]
[bagging_fraction: 0.8]
[pos_bagging_fraction: 1]
[neg_bagging_fraction: 1]
[bagging_freq: 1]
[bagging_seed: 400]
[bagging_by_query: 0]
[feature_fraction: 0.8]
[feature_fraction_bynode: 1]
[feature_fraction_seed: 30056]
[extra_trees: 0]
[extra_seed: 12879]
[early_stopping_round: 0]
[early_stopping_min_delta: 0]
[first_metric_only: 0]
[max_delta_step: 0]
[lambda_l1: 0]
[lambda_l2: 0]
[linear_lambda: 0]
[min_gain_to_split: 0]
[drop_rate: 0.1]
[max_drop: 50]
[skip_drop: 0.5]
[xgboost_dart_mode: 0]
[uniform_drop: 0]
[drop_seed: 17869]
[top_rate: 0.2]
[other_rate: 0.1]
[min_data_per_group: 100]
[max_cat_threshold: 32]
[cat_l2: 10]
[cat_smooth: 10]
[max_cat_to_onehot: 4]
[top_k: 20]
[monotone_constraints: ]
[monotone_constraints_method: basic]
[monotone_penalty: 0]
[feature_contri: ]
[forcedsplits_filename: ]
[refit_decay_rate: 0.9]
[cegb_tradeoff: 1]
[cegb_penalty_split: 0]
[cegb_penalty_feature_lazy: ]
[cegb_penalty_feature_coupled: ]
[path_smooth: 0]
[interaction_constraints: ]
[verbosity: -1]
[saved_feature_importance_type: 0]
[use_quantized_grad: 0]
[num_grad_quant_bins: 4]
[quant_train_renew_leaf: 0]
[stochastic_rounding: 1]
[linear_tree: 0]
[max_bin: 255]
[max_bin_by_feature: ]
[min_data_in_bin: 3]
[bin_construct_sample_cnt: 200000]
[data_random_seed: 175]
[is_enable_sparse: 1]
[enable_bundle: 1]
[use_missing: 1]
[zero_as_missing: 0]
[feature_pre_filter: 1]
[pre_partition: 0]
[two_round: 0]
[header: 0]
[label_column: ]
[weight_column: ]
[group_column: ]
[ignore_column: ]
[categorical_feature: ]
[forcedbins_filename: ]
[precise_float_parser: 0]
[parser_config_file: ]
[objective_seed: 16083]
[num_class: 1]
[is_unbalance: 0]
[scale_pos_weight: 29.3322]
[sigmoid: 1]
[boost_from_average: 1]
[reg_sqrt: 0]
[alpha: 0.9]
[fair_c: 1]
[poisson_max_delta_step: 0.7]
[tweedie_variance_power: 1.5]
[lambdarank_truncation_level: 30]
[lambdarank_norm: 1]
[label_gain: ]
[lambdarank_position_bias_regularization: 0]
[eval_at: ]
[multi_error_top_k: 1]
[auc_mu_weights: ]
[num_machines: 1]
[local_listen_port: 12400]
[time_out: 120]
[machine_list_filename: ]
[machines: ]
[gpu_platform_id: -1]
[gpu_device_id: -1]
[gpu_use_dp: 0]
[num_gpu: 1]

end of parameters

pandas_categorical:null
