tree
version=v4
num_class=1
num_tree_per_iteration=1
label_index=0
max_feature_idx=115
objective=binary sigmoid:1
feature_names=Column_0 Column_1 Column_2 Column_3 Column_4 Column_5 Column_6 Column_7 Column_8 Column_9 Column_10 Column_11 Column_12 Column_13 Column_14 Column_15 Column_16 Column_17 Column_18 Column_19 Column_20 Column_21 Column_22 Column_23 Column_24 Column_25 Column_26 Column_27 Column_28 Column_29 Column_30 Column_31 Column_32 Column_33 Column_34 Column_35 Column_36 Column_37 Column_38 Column_39 Column_40 Column_41 Column_42 Column_43 Column_44 Column_45 Column_46 Column_47 Column_48 Column_49 Column_50 Column_51 Column_52 Column_53 Column_54 Column_55 Column_56 Column_57 Column_58 Column_59 Column_60 Column_61 Column_62 Column_63 Column_64 Column_65 Column_66 Column_67 Column_68 Column_69 Column_70 Column_71 Column_72 Column_73 Column_74 Column_75 Column_76 Column_77 Column_78 Column_79 Column_80 Column_81 Column_82 Column_83 Column_84 Column_85 Column_86 Column_87 Column_88 Column_89 Column_90 Column_91 Column_92 Column_93 Column_94 Column_95 Column_96 Column_97 Column_98 Column_99 Column_100 Column_101 Column_102 Column_103 Column_104 Column_105 Column_106 Column_107 Column_108 Column_109 Column_110 Column_111 Column_112 Column_113 Column_114 Column_115
feature_infos=[-1157.179443359375:880.9832763671875] [-544.37078857421875:555.390625] [-1:0.99794447422027588] [0.005871232133358717:55.566013336181641] [0.0078039984218776226:39.505550384521484] [0.008293752558529377:33.778057098388672] [0.0040494636632502079:61.944972991943359] [0.30508673191070557:781.92266845703125] [0.0060048419982194901:54.407463073730469] [0.01014577504247427:41.861293792724609] [0.012089082039892673:35.713474273681641] [0.0059902183711528778:63.512985229492188] [0:90.18548583984375] [0.004136859904974699:55.215686798095703] [0.0050835744477808475:38.739101409912109] [0.0057733249850571156:36.243705749511719] [0.0031066157389432192:60.134918212890625] [-81.509048461914062:68.761421203613281] [-55.686374664306641:87.209556579589844] [-1.8540489673614502:44.769496917724609] [-0.78141176700592041:24.338907241821289] [0.12848536670207977:10.776686668395996] [0.094705089926719666:10.295351982116699] [0.090973503887653351:6.1457657814025879] [0.088964648544788361:5.7095203399658203] [0.0085361897945404053:5.1167254447937012] [0.18814969062805176:12.889674186706543] none none none [0:35.023735046386719] [0:19.489936828613281] [0.99619829654693604:1] [0:1] [0:70.047470092773438] [0:35.023735046386719] [0.99997180700302124:1] [-1.1449552774429321:1.1600781679153442] [-15.426372528076172:9.4997797012329102] [-60.558181762695312:81.509048461914062] [0:87.209556579589844] [0:0.99988555908203125] [0:1.7749419212341309] [0:1.477941632270813] [0.090973503887653351:6.1457657814025879] [0.0085361897945404053:5.1167254447937012] [0.088964648544788361:5.7095203399658203] none [0.18814969062805176:12.889674186706543] none [0:1] [0:1] [0:1] [0:1] [0:1] [0:1] none none none none none none [0:56.736328125] [0:50.412540435791016] [0:36.460231781005859] [0:56.736328125] [0:50.412540435791016] [0:36.460231781005859] none [0:90.18548583984375] [2.5740008354187012:315.56838989257812] none none none none none none none none none none none none none [0:72.693580627441406] [0:50.929039001464844] [0:50.412540435791016] [0:72.693580627441406] [0:50.929039001464844] [0:50.412540435791016] none none none none none none [0.0033237903844565153:72.693580627441406] [0.136243537068367:29.02168083190918] [0.016610078513622284:46.383968353271484] [0.0083333337679505348:1.3333333730697632] [0.01666666753590107:1.0909091234207153] [0.0062673934735357761:8.0691242218017578] [0:33.625190734863281] [1.751109266479034e-05:22.068912506103516] [1.427128040631942e-06:30.518444061279297] [-37.445182800292969:40.341461181640625] [0:747592000] [0:15.282252311706543] [0.018802033737301826:41.565895080566406] [-0.83209437131881714:43.459129333496094] [-1.0028823614120483:43.201057434082031] [-0.18071600794792175:41.882347106933594] [0.40425211191177368:22.28223991394043] [0.062497448176145554:23.045293807983398] [0.09569096565246582:22.467765808105469] [0.47509801387786865:21.569890975952148]
tree_sizes=3409 3448 3451

Tree=0
num_leaves=31
num_cat=0
split_feature=22 6 24 16 10 4 22 38 25 38 25 33 113 109 22 6 38 103 14 114 43 115 109 14 25 37 19 110 108 21
split_gain=457054 290620 103431 64958.9 49253.6 40659.7 28549 25297.5 21669.5 14429.3 13305.7 12613.1 12131.8 12480.5 11350.9 11079.4 10573.5 9227.18 5790.79 5652.47 9179.36 5629.22 5295.47 5034.49 4386.91 4155.04 3986.17 3934.79 3820.04 5238.56
threshold=6.1822023391723642 8.1877169609069842 2.9317843914031987 1.04203337430954 9.463907718658449 8.8491082191467303 5.731778860092164 6.7353801727294931 2.6978542804718022 -2.5101346969604488 2.7572482824325566 0.99999991059303295 18.519755363464359 10.506493568420412 6.9038085937500009 4.7576503753662118 -6.3875293731689444 3.9054534435272221 0.95576438307762157 10.092473030090334 0.49014717340469366 16.719041824340824 10.978081703186037 1.6729195117950442 2.6245912313461308 -0.16068173944950101 8.8855614662170428 37.22442817687989 35.558113098144538 5.2193071842193612
decision_type=2 2 2 2 2 2 2 2 2 2 2 2 2 2 2 2 2 2 2 2 2 2 2 2 2 2 2 2 2 2
left_child=6 2 3 14 7 12 28 -5 27 10 11 -8 13 -3 -2 -6 -15 23 -16 20 -11 26 -21 -10 -22 -14 -7 -4 -1 -30
right_child=1 5 8 4 15 21 9 -9 17 19 -12 -13 25 16 18 -17 -18 -19 -20 22 24 -23 -24 -25 -26 -27 -28 -29 29 -31
leaf_value=-2.6132112325331902 -2.5493935423886445 -2.0532393555996511 -2.2141340416438631 -1.983461689098696 -2.1108018047552628 -2.2524585251289335 -2.4729016937576751 -2.2483920591895958 -2.6387331944153307 -2.591890564290642 -2.5113673365851237 -2.0337024452717829 -2.4429780542628441 -2.0802159404170246 -2.5833033709219735 -2.2972810344579866 -2.4490739764331662 -2.5551742869705634 -2.1841183428328597 -2.31670215957327 -2.2131545014004264 -2.3991477832742127 -2.5907917003388636 -2.285214229682424 -2.4560635528270018 -2.0459426607114173 -2.5861463058094207 -1.9489324204250824 -2.6177540116508977 -2.3535673836627198
leaf_weight=6157.3568044230342 624.67781486362219 288.80871493369341 468.10471487045288 16992.441995725036 1491.078522734344 91.885051868855953 233.32235479354858 951.51795572042465 117.58138209581375 457.20619761943817 431.12300539016724 546.03196716308594 76.153134524822235 219.87003409862518 109.15014409273863 1709.9487915039062 1669.6107426211238 1158.4958724677563 541.90225411206484 201.48024300485849 468.58757656812668 505.78828907012939 1405.6677897796035 701.85002967715263 308.07103139162064 489.22143822908401 3445.7402943149209 199.46241903305054 400.39035860449076 353.14070829004049
leaf_count=91353 8530 1293 3489 54132 8263 750 2856 7695 1800 6603 5584 2247 890 1094 1559 15375 19701 15944 3738 1884 3484 5501 20272 6154 3675 2124 49397 508 5974 3543
internal_value=-2.25996 -2.16412 -2.08553 -2.05065 -2.02974 -2.45436 -2.53843 -1.99751 -2.38121 -2.43304 -2.28848 -2.16519 -2.3058 -2.35936 -2.39713 -2.21042 -2.40615 -2.46435 -2.25104 -2.49463 -2.41414 -2.55517 -2.55643 -2.33594 -2.30951 -2.09942 -2.57748 -2.13489 -2.60021 -2.49394
internal_weight=42815.7 31853.3 25066.2 22420.7 21145 6787.08 10962.4 17944 2645.49 4051.49 1210.48 779.354 2743.66 2178.29 1275.73 3201.03 1889.48 1977.93 651.052 2841.01 1233.86 4043.41 1607.15 819.431 776.659 565.375 3537.63 667.567 6910.89 753.531
internal_count=355412 207937 127187 99292 85465 80750 147475 61827 27895 46605 10687 5103 25102 22088 13827 23638 20795 23898 5297 35918 13762 55648 22156 7954 7159 3014 50147 3997 100870 9517
is_linear=0
shrinkage=1


Tree=1
num_leaves=31
num_cat=0
split_feature=22 8 25 14 114 20 20 115 8 22 38 108 115 108 16 25 42 38 109 20 9 33 25 5 109 115 108 46 108 111
split_gain=201185 123624 40908.3 27154.1 22104.1 21165.8 26260.8 12811.5 12310.6 11993.3 7461.9 7239.64 5348.38 4422.04 4254.07 4016.01 4854.75 3903.97 3838.95 3548.03 3433.6 3270.14 3074.38 2950.03 2484.21 2198.76 2149.87 1968.71 1872.89 1872.65
threshold=6.0176608562469491 11.052857398986818 2.8341693878173833 1.0169615745544436 18.61137676239014 18.247172355651859 8.934761047363283 9.5909938812255877 13.371032714843752 5.4229228496551523 -2.3904342651367183 35.156011581420906 16.025680541992191 34.222936630249031 1.8360248208045962 2.7988126277923588 0.59680038690567028 -6.6413726806640616 13.268318176269533 18.77282810211182 9.1951527595520037 0.99999991059303295 2.8198686838150029 8.2913556098938006 35.357378005981452 15.76658344268799 9.7317066192626971 3.119775772094727 9.9481687545776385 10.635483741760256
decision_type=2 2 2 2 2 2 2 2 2 2 2 2 2 2 2 2 2 2 2 2 2 2 2 2 2 2 2 2 2 2
left_child=9 2 3 -2 7 6 -5 13 12 -1 -7 15 23 -4 -13 16 -11 25 -18 -9 27 -16 -14 24 -3 -10 -19 -6 29 -17
right_child=1 8 4 5 20 10 -8 19 17 11 -12 14 22 -15 21 28 18 26 -20 -21 -22 -23 -24 -25 -26 -27 -28 -29 -30 -31
leaf_value=-0.032020238277024077 -0.019432557050117649 0.12883036278591381 0.16995743842595593 0.3398773419961636 0.35814876228621573 0.39468005650731575 0.22709628395984827 -0.007037673678642848 0.066600277353033296 0.019112438628259974 0.30777624918308838 0.0069345064178489048 0.30676289359887615 0.39406170628349124 0.11349675855729185 -0.04090432260150912 0.28364987699053396 0.20575401272401739 0.094320303271034314 0.16408927335444298 0.024431538659404436 0.37216481073411345 0.0013108815733192487 0.052791588804705185 0.31840014297249086 0.38874678557348791 -0.014097874304370928 0.17424725851690315 -0.028646985235058528 0.37001201445960452
leaf_weight=5073.1880297996104 572.64421657472849 838.33043575286865 805.58802732080221 13489.679354421794 1342.9901893213391 10997.948837518692 8360.3906308040023 1787.3597600832582 115.7007093578577 1092.9190581440926 3185.5433679893613 173.31162217259407 607.88675475120544 302.8818142414093 178.91184517741203 50.614947810769081 433.87249246239662 115.16981764882803 699.23858466744423 364.69643771648407 92.535312227904797 385.36997938156128 95.291713953018188 1176.5664427280426 217.69503283500671 97.690186485648155 3223.2284901514649 163.21612900495529 1350.5536422729492 61.312304839491844
leaf_count=77021 7664 7763 6459 36958 3117 14854 43988 21706 1341 14499 10312 2120 3153 1202 1952 722 3167 940 7768 2909 1058 1564 1152 14054 1079 413 44862 1477 19875 387
internal_value=0.230677 0.272321 0.304076 0.32217 0.167767 0.327599 0.296724 0.0930935 0.0693589 0.0204562 0.375162 0.0806045 0.145117 0.231192 0.223604 0.0520089 0.0942973 0.00673982 0.166815 0.0219622 0.320059 0.290151 0.265369 0.107243 0.167909 0.214079 -0.00651331 0.338221 -0.012358 0.18419
internal_weight=57452.3 47953 41465.5 36606.2 4859.27 36033.6 21850.1 3260.53 6487.56 9499.29 14183.5 4426.1 2935.77 1108.47 737.593 3688.51 2226.03 3551.79 1133.11 2152.06 1598.74 564.282 703.178 2232.59 1056.03 213.391 3338.4 1506.21 1462.48 111.927
internal_count=355536 226461 151704 113776 37928 106112 80946 32276 74757 129075 25166 52054 27201 7661 5636 46418 25434 47556 10935 24615 5652 3516 4305 22896 8842 1754 45802 4594 20984 1109
is_linear=0
shrinkage=0.05


Tree=2
num_leaves=31
num_cat=0
split_feature=7 3 25 13 114 115 26 7 3 3 20 111 108 111 115 114 38 20 103 97 25 26 111 109 10 11 14 115 108 115
split_gain=123410 79534.2 20465.1 16232.9 14746.6 10778.2 10615.7 9064.16 9032.72 8667.39 7566.11 5533.27 4691.05 5196.61 4902.71 3502.83 3313.03 3282.6 3253.62 3186.73 1775.3 2415.16 1687.45 2709.93 1577.35 1395.09 1311.46 1309.61 1266.69 1209.75
threshold=3.7347629070281987 9.1417417526245135 2.7572482824325566 0.77969354391098034 18.546843528747562 9.8907866477966326 8.2916684150695819 3.4550403356552128 11.740663528442385 5.2113435268402108 18.142063140869144 35.086496353149421 13.195907592773439 36.987134933471687 16.905549049377445 19.625863075256351 -6.6413726806640616 18.304885864257816 6.489485740661622 2.8148779869079594 2.7778575420379643 7.5661966800689706 28.759824752807621 10.978081703186037 10.337698936462404 12.161244392395021 9.5298728942871112 7.7346396446228036 10.60426712036133 16.905549049377445
decision_type=2 2 2 2 2 2 2 2 2 2 2 2 2 2 2 2 2 2 2 2 2 2 2 2 2 2 2 2 2 2
left_child=7 2 3 -2 5 18 10 -1 12 -8 -5 15 24 14 -14 20 26 -7 -4 -13 21 -9 23 -6 -3 29 -10 -26 -27 -18
right_child=1 8 4 6 22 17 9 11 16 -11 -12 19 13 -15 -16 -17 25 -19 -20 -21 -22 -23 -24 -25 27 28 -28 -29 -30 -31
leaf_value=-0.030759232528109234 -0.018212097880411643 0.28106764560791964 0.21426480479049304 0.12291472552371036 0.27527582759338504 0.0094453345502977012 0.27077025785895764 -0.030064837265300817 0.3049289891260486 0.21991425368822975 0.26043932207059223 -0.029744471475114855 0.036832071652127978 0.3302152657318056 0.20341284330213463 0.21546073301185942 0.034516139791907645 0.14005808882655446 -0.0010041633334022999 0.24572105207703721 -0.021225163049106537 0.092016527503266957 0.29520413315439081 0.1379848993486418 0.47208113929866918 0.1226107253321031 0.05035032916446195 0.055917912567917387 -0.030040363050278126 0.25171877756910177
leaf_weight=5156.6225972138345 582.57235172390938 473.84277316182852 1721.1873797774315 2746.4225128442049 803.61009013652802 2174.7255403101444 27929.169676207006 571.22451505064964 118.13796955347061 11968.252770416439 1572.8944630622864 128.18192985653877 2326.9476945996284 203.00339603424072 545.18540114164352 269.00013810396194 412.79227144271135 617.67496147751808 195.46019124984741 580.29952499270439 1172.7002784460783 1393.2189721316099 1135.9812635779381 650.27905720472336 21.509843330830336 142.64356297254562 88.474784791469574 156.04329853877425 2873.2227891758084 75.893523797392845
leaf_count=76861 7336 1783 8548 18447 1349 24452 42198 7696 475 38449 3739 1488 24894 422 2613 1399 5064 4402 2125 2211 16261 11606 1947 3674 55 1324 919 1585 41657 423
internal_value=0.18309 0.209514 0.23135 0.243999 0.153712 0.101007 0.247454 0.0134026 0.0565643 0.255515 0.172995 0.0687481 0.111552 0.0857324 0.0684523 0.042304 0.00134923 0.0383367 0.192312 0.195882 0.0274564 0.0565175 0.249545 0.21387 0.23344 -0.0101215 0.195914 0.106334 -0.0228203 0.068248
internal_weight=68807.2 59535.9 52098.2 44799.3 7298.92 4709.05 44216.7 9271.25 7437.7 39897.4 4319.32 4114.63 3726.53 3075.14 2872.13 3406.14 3711.16 2792.4 1916.65 708.481 3137.14 1964.44 2589.87 1453.89 651.396 3504.55 206.613 177.553 3015.87 488.686
internal_count=355402 237880 156666 110169 46497 39527 102833 117522 81214 80647 22186 40661 31352 27929 27507 36962 49862 28854 10673 3699 35563 19302 6970 5023 3423 48468 1394 1640 42981 5487
is_linear=0
shrinkage=0.05


end of trees

feature_importances:
Column_25=8
Column_115=8
Column_108=7
Column_38=6
Column_20=5
Column_22=5
Column_109=5
Column_14=4
Column_111=4
Column_114=4
Column_3=3
Column_6=2
Column_7=2
Column_8=2
Column_10=2
Column_16=2
Column_26=2
Column_33=2
Column_103=2
Column_4=1
Column_5=1
Column_9=1
Column_11=1
Column_13=1
Column_19=1
Column_21=1
Column_24=1
Column_37=1
Column_42=1
Column_43=1
Column_46=1
Column_97=1
Column_110=1
Column_113=1

parameters:
[boosting: gbdt]
[objective: binary]
[metric: binary_logloss]
[tree_learner: serial]
[device_type: gpu]
[data_sample_strategy: bagging]
[data: ]
[valid: ]
[num_iterations: 1000]
[learning_rate: 0.05]
[num_leaves: 31]
[num_threads: 0]
[seed: 42]
[deterministic: 0]
[force_col_wise: 1]
[force_row_wise: 0]
[histogram_pool_size: -1]
[max_depth: 6]
[min_data_in_leaf: 20]
[min_sum_hessian_in_leaf: 5]
[bagging_fraction: 0.8]
[pos_bagging_fraction: 1]
[neg_bagging_fraction: 1]
[bagging_freq: 1]
[bagging_seed: 400]
[bagging_by_query: 0]
[feature_fraction: 0.8]
[feature_fraction_bynode: 1]
[feature_fraction_seed: 30056]
[extra_trees: 0]
[extra_seed: 12879]
[early_stopping_round: 0]
[early_stopping_min_delta: 0]
[first_metric_only: 0]
[max_delta_step: 0]
[lambda_l1: 0]
[lambda_l2: 0]
[linear_lambda: 0]
[min_gain_to_split: 0]
[drop_rate: 0.1]
[max_drop: 50]
[skip_drop: 0.5]
[xgboost_dart_mode: 0]
[uniform_drop: 0]
[drop_seed: 17869]
[top_rate: 0.2]
[other_rate: 0.1]
[min_data_per_group: 100]
[max_cat_threshold: 32]
[cat_l2: 10]
[cat_smooth: 10]
[max_cat_to_onehot: 4]
[top_k: 20]
[monotone_constraints: ]
[monotone_constraints_method: basic]
[monotone_penalty: 0]
[feature_contri: ]
[forcedsplits_filename: ]
[refit_decay_rate: 0.9]
[cegb_tradeoff: 1]
[cegb_penalty_split: 0]
[cegb_penalty_feature_lazy: ]
[cegb_penalty_feature_coupled: ]
[path_smooth: 0]
[interaction_constraints: ]
[verbosity: -1]
[saved_feature_importance_type: 0]
[use_quantized_grad: 0]
[num_grad_quant_bins: 4]
[quant_train_renew_leaf: 0]
[stochastic_rounding: 1]
[linear_tree: 0]
[max_bin: 255]
[max_bin_by_feature: ]
[min_data_in_bin: 3]
[bin_construct_sample_cnt: 200000]
[data_random_seed: 175]
[is_enable_sparse: 1]
[enable_bundle: 1]
[use_missing: 1]
[zero_as_missing: 0]
[feature_pre_filter: 1]
[pre_partition: 0]
[two_round: 0]
[header: 0]
[label_column: ]
[weight_column: ]
[group_column: ]
[ignore_column: ]
[categorical_feature: ]
[forcedbins_filename: ]
[precise_float_parser: 0]
[parser_config_file: ]
[objective_seed: 16083]
[num_class: 1]
[is_unbalance: 0]
[scale_pos_weight: 13.3385]
[sigmoid: 1]
[boost_from_average: 1]
[reg_sqrt: 0]
[alpha: 0.9]
[fair_c: 1]
[poisson_max_delta_step: 0.7]
[tweedie_variance_power: 1.5]
[lambdarank_truncation_level: 30]
[lambdarank_norm: 1]
[label_gain: ]
[lambdarank_position_bias_regularization: 0]
[eval_at: ]
[multi_error_top_k: 1]
[auc_mu_weights: ]
[num_machines: 1]
[local_listen_port: 12400]
[time_out: 120]
[machine_list_filename: ]
[machines: ]
[gpu_platform_id: -1]
[gpu_device_id: -1]
[gpu_use_dp: 0]
[num_gpu: 1]

end of parameters

pandas_categorical:null
