tree
version=v4
num_class=1
num_tree_per_iteration=1
label_index=0
max_feature_idx=124
objective=binary sigmoid:1
feature_names=Column_0 Column_1 Column_2 Column_3 Column_4 Column_5 Column_6 Column_7 Column_8 Column_9 Column_10 Column_11 Column_12 Column_13 Column_14 Column_15 Column_16 Column_17 Column_18 Column_19 Column_20 Column_21 Column_22 Column_23 Column_24 Column_25 Column_26 Column_27 Column_28 Column_29 Column_30 Column_31 Column_32 Column_33 Column_34 Column_35 Column_36 Column_37 Column_38 Column_39 Column_40 Column_41 Column_42 Column_43 Column_44 Column_45 Column_46 Column_47 Column_48 Column_49 Column_50 Column_51 Column_52 Column_53 Column_54 Column_55 Column_56 Column_57 Column_58 Column_59 Column_60 Column_61 Column_62 Column_63 Column_64 Column_65 Column_66 Column_67 Column_68 Column_69 Column_70 Column_71 Column_72 Column_73 Column_74 Column_75 Column_76 Column_77 Column_78 Column_79 Column_80 Column_81 Column_82 Column_83 Column_84 Column_85 Column_86 Column_87 Column_88 Column_89 Column_90 Column_91 Column_92 Column_93 Column_94 Column_95 Column_96 Column_97 Column_98 Column_99 Column_100 Column_101 Column_102 Column_103 Column_104 Column_105 Column_106 Column_107 Column_108 Column_109 Column_110 Column_111 Column_112 Column_113 Column_114 Column_115 Column_116 Column_117 Column_118 Column_119 Column_120 Column_121 Column_122 Column_123 Column_124
feature_infos=[-7249.14794921875:6533.8603515625] [-4787.27490234375:4033.9853515625] [-1:1] [0.0030537599232047796:12934.4912109375] [0:77.878311157226562] [0:69.006805419921875] [0:48.156871795654297] [0:122.61128234863281] [0:411.9490966796875] [0:69.424537658691406] [0:50.376220703125] [0:40.600479125976562] [0:107.73097991943359] [-302.92367553710938:352.62774658203125] [-253.8223876953125:212.32319641113281] [1.5498204231262207:51.422920227050781] [0.28178110718727112:40.322093963623047] [0.18578581511974335:41.702812194824219] [0.081008896231651306:36.618839263916016] [0.048772413283586502:32.445262908935547] [0.045044355094432831:35.9447021484375] [0.028488764539361:42.014167785644531] [0.10171648114919662:36.6448974609375] [0.051063802093267441:36.989612579345703] [0.014562399126589298:37.958633422851562] [-402.9344482421875:411.94900512695312] [-433.94729614257812:410.85693359375] [-436.01898193359375:294.94818115234375] [0:155.91316223144531] [0:25.243049621582031] [0:0.99294149875640869] [0:0.95729970932006836] [0:207.69064331054688] [0:158.53175354003906] [-1:1] [-1.4707280397415161:1.5406836271286011] [-26.140827178955078:8.9998989105224609] [-346.37509155273438:255.07093811035156] [0:352.62774658203125] [0:1] [0:1.7868115901947021] [0:1.5889600515365601] [0.057964641600847244:46.405269622802734] [0.04352429136633873:46.015594482421875] [0.12171319127082825:46.378982543945312] [0.09358755499124527:47.793449401855469] [0.005910343024879694:45.905326843261719] [0.0009318511001765728:48.4647216796875] [0.022818868979811668:48.081073760986328] [0:403.55111694335938] [0.00032678621937520802:44.564838409423828] [0:14.609677314758301] [0.00032678621937520802:44.564838409423828] [0.022818868979811668:48.081073760986328] [0:1] [0.00013463170034810901:0.9999346137046814] [0.021946746855974197:0.99967336654663086] [0.020374452695250511:0.97769016027450562] [0:15.057246208190918] [-0.99999141693115234:0.99999839067459106] [-0.99995869398117065:0.99997091293334961] [-0.99984484910964966:0.99994337558746338] [-0.99115043878555298:0.98937660455703735] [-0.94246089458465576:0.92775511741638184] [-0.85343217849731445:0.77049976587295532] [0:41.731132507324219] [0:41.398082733154297] [0:41.364032745361328] [0:16.77629280090332] [0:16.596233367919922] [0:14.862100601196289] [0:136.69990539550781] [0:75.358238220214844] [0:54.302074432373047] [0:157.13372802734375] [0:128.88984680175781] [0:67.636703491210938] [-1:1] [0:219.15333557128906] [0:220.79608154296875] [0.019190710037946701:43.046058654785156] [-95.148849487304688:99.083244323730469] [-50.808673858642578:48.322147369384766] [-43.627410888671875:33.737720489501953] [-35.224201202392578:33.915637969970703] [-34.958896636962891:33.999618530273438] [-35.268630981445312:31.839141845703125] [-108.78594970703125:97.827323913574219] [-56.851020812988281:48.221858978271484] [-36.581623077392578:32.557186126708984] [0:41.914981842041016] [0:41.614631652832031] [0:41.398082733154297] [0:146.0823974609375] [0:105.46862030029297] [0:75.358238220214844] [0:162.28175354003906] [0:156.9215087890625] [0:128.88984680175781] [-35.483997344970703:33.611457824707031] [-34.458736419677734:33.300384521484375] [-35.268630981445312:31.406509399414062] [-0.9999808669090271:0.99999356269836426] [-0.99995237588882446:0.99998825788497925] [-0.99990779161453247:0.99997693300247192] [0:196.628662109375] [0:32.198982238769531] [0:59.073127746582031] [0.0083333337679505348:1.515625] [0.01666666753590107:1.5882352590560913] [0:11.160055160522461] [0:158.03500366210938] [0:68.949180603027344] [0:112.32185363769531] [-66.694305419921875:65.986328125] [0:1308021120] [0:39.998802185058594] [3.1022758483886719:50.424972534179688] [2.489354133605957:50.649181365966797] [2.7162685394287109:50.607269287109375] [3.2887423038482666:50.411228179931641] [2.645543098449707:39.465473175048828] [1.9353533983230591:39.490787506103516] [2.541018009185791:39.4908447265625] [2.7840664386749268:39.4908447265625]
tree_sizes=3411

Tree=0
num_leaves=31
num_cat=0
split_feature=90 47 52 55 61 121 47 57 67 124 63 90 69 61 20 102 104 67 61 59 47 57 92 59 41 112 48 102 89 123
split_gain=1.06358e+07 2.47882e+06 735095 355272 318506 276995 254920 252988 252473 196436 108018 93683.4 93594 87292.7 81355.2 69201.6 67752.3 84571 64619.1 62632.2 53344.1 41808.9 33045.1 31332.9 29882.5 29428.3 26945.4 25039.3 21962.4 20637.1
threshold=10.485085487365724 4.2657277584075937 7.1251282691955575 0.061121216043829925 0.62945109605789196 39.239421844482429 13.149631023406984 0.25321775674819952 37.09257888793946 9.8147497177124041 0.52930384874343883 12.583860874176027 1.2951446175575259 -0.96089923381805409 2.1918870210647587 0.86422032117843639 0.074250478297472014 9.7790966033935565 -0.55194610357284535 -0.8948720097541808 13.434166431427004 0.12006815150380136 10.116706848144533 0.41235065460205084 0.50473287701606762 6.2840762138366708 14.50131940841675 -0.98436075448989857 -1.2110409736633299 30.484248161315922
decision_type=2 2 2 2 2 2 2 2 2 2 2 2 2 2 2 2 2 2 2 2 2 2 2 2 2 2 2 2 2 2
left_child=1 4 18 16 9 7 12 8 10 15 22 -12 -5 -10 19 24 -4 -18 20 -11 -3 -16 -2 28 -1 -9 29 -28 -7 -20
right_child=5 2 3 6 -6 23 -8 25 13 14 11 -13 -14 -15 21 -17 17 -19 26 -21 -22 -23 -24 -25 -26 -27 27 -29 -30 -31
leaf_value=-4.2321119234417903 -3.4800962359556853 -1.6854867299895058 -1.5814862073021878 -1.0789002389997822 -4.1822886810180044 -4.2315351047927496 -3.770892451449281 -4.2308941917217178 -1.0748620262041322 -1.7829981515178597 -1.3562367291990292 -4.2315351064051274 -1.6384154368099697 -4.2315485646897022 -3.9309933173462275 -4.0972476267367677 -2.4131356401374582 -4.1415887765159667 -4.147534337807695 -3.0682212360092986 -4.1296812736815536 -2.9755564331230304 -4.2250307281697781 -4.2315351030948518 -1.1783519149123785 -1.0667305670717897 -1.0993608761545217 -4.2315347216543797 -1.1499464379830249 -1.7248668927480875
leaf_weight=8.3189681209623796 152.34061558917165 73.225777268409729 111.08271022513509 8198.2106314450502 664.17265343666077 6.154390510171651 92.3071030639112 8.1412471272051317 89.109605893492699 141.59728640317917 62.565561685711145 51.771028604358435 822.39557017758489 29.03699292242527 315.61005156114697 24.356797873973846 201.45797460526228 109.09211424738169 233.63544322550297 286.78662800043821 32.112811923027039 179.68916161730886 6537.2044049911201 10.291920509189366 216.3984861522913 75.445209171622992 15.663942813873293 10.766476668417452 95.526211716234684 9.1339128799736482
leaf_count=561 8018 1266 1693 43801 44142 415 5387 549 469 2720 676 3491 13456 1958 19414 1578 6370 7163 15368 12768 2101 7672 439976 694 1580 385 90 726 644 165
internal_value=-2.5446 -1.6204 -1.30767 -1.22231 -3.30741 -4.06978 -1.15666 -4.10921 -4.14223 -2.81194 -4.18202 -2.65816 -1.12991 -1.85068 -3.14797 -1.56578 -2.64125 -3.02032 -3.4805 -2.64341 -2.43061 -3.58437 -4.20807 -1.60256 -1.2914 -1.37492 -3.89133 -2.37526 -1.33646 -4.05638
internal_weight=18863.6 11746 9909.08 9534.55 1836.93 7117.59 9112.91 7005.61 6922.03 1172.76 6803.88 114.337 9020.61 118.147 923.683 249.074 421.633 310.55 374.538 428.384 105.339 495.299 6689.55 111.973 224.717 83.5865 269.2 26.4304 101.681 242.769
internal_count=645296 188021 97586 77870 90435 457275 62644 455522 454588 46293 452161 4167 57257 2427 42574 3719 15226 13533 19716 15488 3367 27086 447994 1753 2141 934 16349 816 1059 15533
is_linear=0
shrinkage=1


end of trees

feature_importances:
Column_47=3
Column_61=3
Column_57=2
Column_59=2
Column_67=2
Column_90=2
Column_102=2
Column_20=1
Column_41=1
Column_48=1
Column_52=1
Column_55=1
Column_63=1
Column_69=1
Column_89=1
Column_92=1
Column_104=1
Column_112=1
Column_121=1
Column_123=1
Column_124=1

parameters:
[boosting: gbdt]
[objective: binary]
[metric: binary_logloss]
[tree_learner: serial]
[device_type: gpu]
[data_sample_strategy: bagging]
[data: ]
[valid: ]
[num_iterations: 1000]
[learning_rate: 0.05]
[num_leaves: 31]
[num_threads: 0]
[seed: 42]
[deterministic: 0]
[force_col_wise: 1]
[force_row_wise: 0]
[histogram_pool_size: -1]
[max_depth: 6]
[min_data_in_leaf: 20]
[min_sum_hessian_in_leaf: 5]
[bagging_fraction: 0.8]
[pos_bagging_fraction: 1]
[neg_bagging_fraction: 1]
[bagging_freq: 1]
[bagging_seed: 400]
[bagging_by_query: 0]
[feature_fraction: 0.8]
[feature_fraction_bynode: 1]
[feature_fraction_seed: 30056]
[extra_trees: 0]
[extra_seed: 12879]
[early_stopping_round: 0]
[early_stopping_min_delta: 0]
[first_metric_only: 0]
[max_delta_step: 0]
[lambda_l1: 0]
[lambda_l2: 0]
[linear_lambda: 0]
[min_gain_to_split: 0]
[drop_rate: 0.1]
[max_drop: 50]
[skip_drop: 0.5]
[xgboost_dart_mode: 0]
[uniform_drop: 0]
[drop_seed: 17869]
[top_rate: 0.2]
[other_rate: 0.1]
[min_data_per_group: 100]
[max_cat_threshold: 32]
[cat_l2: 10]
[cat_smooth: 10]
[max_cat_to_onehot: 4]
[top_k: 20]
[monotone_constraints: ]
[monotone_constraints_method: basic]
[monotone_penalty: 0]
[feature_contri: ]
[forcedsplits_filename: ]
[refit_decay_rate: 0.9]
[cegb_tradeoff: 1]
[cegb_penalty_split: 0]
[cegb_penalty_feature_lazy: ]
[cegb_penalty_feature_coupled: ]
[path_smooth: 0]
[interaction_constraints: ]
[verbosity: -1]
[saved_feature_importance_type: 0]
[use_quantized_grad: 0]
[num_grad_quant_bins: 4]
[quant_train_renew_leaf: 0]
[stochastic_rounding: 1]
[linear_tree: 0]
[max_bin: 255]
[max_bin_by_feature: ]
[min_data_in_bin: 3]
[bin_construct_sample_cnt: 200000]
[data_random_seed: 175]
[is_enable_sparse: 1]
[enable_bundle: 1]
[use_missing: 1]
[zero_as_missing: 0]
[feature_pre_filter: 1]
[pre_partition: 0]
[two_round: 0]
[header: 0]
[label_column: ]
[weight_column: ]
[group_column: ]
[ignore_column: ]
[categorical_feature: ]
[forcedbins_filename: ]
[precise_float_parser: 0]
[parser_config_file: ]
[objective_seed: 16083]
[num_class: 1]
[is_unbalance: 0]
[scale_pos_weight: 65.4163]
[sigmoid: 1]
[boost_from_average: 1]
[reg_sqrt: 0]
[alpha: 0.9]
[fair_c: 1]
[poisson_max_delta_step: 0.7]
[tweedie_variance_power: 1.5]
[lambdarank_truncation_level: 30]
[lambdarank_norm: 1]
[label_gain: ]
[lambdarank_position_bias_regularization: 0]
[eval_at: ]
[multi_error_top_k: 1]
[auc_mu_weights: ]
[num_machines: 1]
[local_listen_port: 12400]
[time_out: 120]
[machine_list_filename: ]
[machines: ]
[gpu_platform_id: -1]
[gpu_device_id: -1]
[gpu_use_dp: 0]
[num_gpu: 1]

end of parameters

pandas_categorical:null
