tree
version=v4
num_class=1
num_tree_per_iteration=1
label_index=0
max_feature_idx=100
objective=binary sigmoid:1
feature_names=Column_0 Column_1 Column_2 Column_3 Column_4 Column_5 Column_6 Column_7 Column_8 Column_9 Column_10 Column_11 Column_12 Column_13 Column_14 Column_15 Column_16 Column_17 Column_18 Column_19 Column_20 Column_21 Column_22 Column_23 Column_24 Column_25 Column_26 Column_27 Column_28 Column_29 Column_30 Column_31 Column_32 Column_33 Column_34 Column_35 Column_36 Column_37 Column_38 Column_39 Column_40 Column_41 Column_42 Column_43 Column_44 Column_45 Column_46 Column_47 Column_48 Column_49 Column_50 Column_51 Column_52 Column_53 Column_54 Column_55 Column_56 Column_57 Column_58 Column_59 Column_60 Column_61 Column_62 Column_63 Column_64 Column_65 Column_66 Column_67 Column_68 Column_69 Column_70 Column_71 Column_72 Column_73 Column_74 Column_75 Column_76 Column_77 Column_78 Column_79 Column_80 Column_81 Column_82 Column_83 Column_84 Column_85 Column_86 Column_87 Column_88 Column_89 Column_90 Column_91 Column_92 Column_93 Column_94 Column_95 Column_96 Column_97 Column_98 Column_99 Column_100
feature_infos=[-2208.55908203125:2257.853271484375] [-6802.26611328125:1986.3311767578125] [-1:1] [0:85.141807556152344] [0:61.495014190673828] [0:47.99676513671875] [0:121.357666015625] [0:115.83921051025391] [0:82.793418884277344] [0:58.053623199462891] [0:134.66365051269531] [0:308.098388671875] [0:67.254684448242188] [0:47.2135009765625] [0:40.516887664794922] [0:113.15421295166016] [-89.313461303710938:98.534194946289062] [-292.11419677734375:90.254196166992188] [9.5374965667724609:52.842624664306641] [4.2493963241577148:50.300064086914062] [-89.676681518554688:307.64584350585938] [-133.42796325683594:305.97003173828125] [-86.602188110351562:248.8673095703125] none [0:1.5536626577377319] [0:1.3389401435852051] [-34.145412445068359:35.674568176269531] [-49.557418823242188:51.999332427978516] [0.0084163062274456024:59.615379333496094] [0.010336526669561863:58.334709167480469] [0.008566870354115963:58.438335418701172] [0:59.637378692626953] [0.0026380554772913456:60.437129974365234] [-0.9999997615814209:0.99999982118606567] [-0.99999576807022095:0.99999970197677612] [-0.99998229742050171:0.99999880790710449] [-0.99999672174453735:0.99999380111694336] [-0.99994707107543945:0.99999380111694336] [-0.99982166290283203:0.99999380111694336] [0:56.217559814453125] [0:55.864601135253906] [0:55.116386413574219] [0:14.430252075195312] [0:19.047767639160156] [0:22.199108123779297] [0:125.93125915527344] [0:63.273429870605469] [0:45.075782775878906] [0:123.21116638183594] [0:63.989356994628906] [0:44.2440185546875] none [1.1011958122253418e-05:3.1415886878967285] [-1:1] [0:63.083480834960938] [0:287.7652587890625] [0.016554644331336021:56.276309967041016] [-70.835105895996094:69.291450500488281] [-62.248519897460938:67.387847900390625] [-51.353103637695312:49.468776702880859] [-23.391460418701172:35.010395050048828] [-44.676120758056641:42.934131622314453] [-49.626689910888672:50.59478759765625] [-110.561767578125:69.452873229980469] [-64.853927612304688:67.010818481445312] [-51.665279388427734:49.498813629150391] [0:56.313240051269531] [0:56.13555908203125] [0:55.864601135253906] [0:188.23602294921875] [0:94.641899108886719] [0:63.273429870605469] [0:112.80169677734375] [0:95.498771667480469] [0:63.989356994628906] [-27.951990127563477:23.891311645507812] [-43.761886596679688:44.960590362548828] [-49.557418823242188:51.999332427978516] [-0.9999997615814209:0.99999940395355225] [-0.99999946355819702:0.99999904632568359] [-0.99999898672103882:0.99999827146530151] [0:127.4866943359375] [0:31.822145462036133] [0:50.899524688720703] [0.0083333337679505348:1.1265822649002075] [0.01666666753590107:1] [0:15.999863624572754] [0:180.97085571289062] [0:53.171115875244141] [0:103.27472686767578] [-59.376785278320312:63.487030029296875] [-1.5483383194443514e-24:6167053824] [0:31.17542839050293] [9.6713123321533203:52.795036315917969] [9.5862913131713867:52.7984619140625] [9.7374515533447266:52.795215606689453] [9.8375310897827148:52.792022705078125] [4.5382332801818848:49.195056915283203] [4.4610395431518555:49.218429565429688] [4.4845328330993652:49.202102661132812] [4.5239825248718262:49.147579193115234]
tree_sizes=3510 3515

Tree=0
num_leaves=31
num_cat=0
split_feature=55 28 18 31 50 32 50 58 100 38 40 40 80 35 62 18 55 32 28 65 50 100 93 5 93 40 28 55 71 40
split_gain=4.11721e+08 1.69621e+08 1.41203e+07 2.71919e+07 1.06266e+07 7.01854e+06 6.67508e+06 4.49856e+06 4.15398e+06 3.68803e+06 3.6395e+06 3.26948e+06 2.15264e+06 1.74409e+06 1.7436e+06 1.62896e+06 1.5893e+06 5.41022e+06 1.49216e+06 2.14533e+06 1.47017e+06 1.44154e+06 1.37143e+06 1.24431e+06 1.17075e+06 1.09193e+06 921763 738219 570493 545401
threshold=56.161293029785163 14.836422443389894 22.954975128173832 12.257952690124513 1.5248193144798281 8.0237903594970721 11.877033710479738 5.0838618278503427 38.204607009887702 0.11902235075831415 18.327466964721683 8.9772295951843279 0.12626986205577853 0.15412069112062457 -14.539129734039305 27.724017143249515 42.254800796508796 3.4769427776336674 18.417927742004398 -3.7433350086212154 3.7166390419006352 41.721693038940437 15.227995395660402 7.1413862705230722 27.76442909240723 1.2451012134552004 4.676053762435914 44.490648269653327 9.9332699775695819 8.1598725318908709
decision_type=2 2 2 2 2 2 2 2 2 2 2 2 2 2 2 2 2 2 2 2 2 2 2 2 2 2 2 2 2 2
left_child=2 4 3 8 15 14 18 16 28 13 23 27 -11 -7 -6 26 -4 21 19 24 -16 -18 -10 -8 -3 -19 -2 -9 -1 -24
right_child=1 6 7 -5 5 9 10 11 22 12 -12 -13 -14 -15 20 -17 17 25 -20 -21 -22 -23 29 -25 -26 -27 -28 -29 -30 -31
leaf_value=-5.8234673663330581 8.4787850889836349 7.8136159868085659 -5.8221032916400368 -5.7184996089311415 -0.047975052662481588 -2.2295616088523307 -5.8216567477751902 -5.8206674425311355 -5.8221534774190724 3.6529640699427617 -5.6283963905986898 -5.8221383454438334 9.3400551847266726 4.4867453492757008 8.172978012478195 -4.9253039791323072 7.3636691022649092 2.8387472243003256 -5.7916153655587985 -5.7066728859991791 10.032925546085469 -5.8221383385383145 9.9118197000590644 8.3802688009908355 -3.2520915081878292 -5.5164138757987908 -5.8221383431736511 8.9780475461535918 7.2036893235639052 -5.8221383298168172
leaf_weight=56.826833262573928 44.910663217771798 65.950645640958101 9252.6635713502765 929.69254922866821 44.498082995414734 147.51134590059519 17.037068568170071 9.1949807573109847 14.536934081930665 225.41246258839965 82.886999376118183 74.473119242116809 635.47636498510838 280.39534732326865 1166.9557513222098 143.24780537886545 121.76658690162003 40.791446038521826 2104.3079590201378 138.99849315546453 11863.439155302942 24.980119673535228 521.546574275475 162.821110278368 37.490426444914192 945.4829520797357 15.041292317211626 100.90808928012848 9.8626780733466131 5.5666096825152627
leaf_count=18341 1701 3384 2990282 298534 9258 37107 5506 2972 4698 30265 26467 24068 13267 32986 51516 43733 7328 6139 678784 44601 83796 8073 4943 6515 10195 299795 4861 2835 626 1799
internal_value=2.24431 7.22199 -4.81684 -0.340629 9.32499 9.48561 -4.5175 -5.46815 7.87808 5.96525 3.04013 2.26922 7.85096 2.17145 9.83261 -2.02915 -5.60566 -3.83812 -5.36367 -1.64919 9.86636 5.1191 9.32785 7.03499 3.80304 -5.17085 4.89084 7.74217 -3.89689 9.74566
internal_weight=29284.7 17176.4 12108.3 1538.03 14566.9 14363.7 2609.49 10570.3 608.34 1288.8 262.745 184.576 860.889 427.907 13074.9 203.2 10385.7 1133.02 2346.75 242.44 13030.4 146.747 541.65 179.858 103.441 986.274 59.952 110.103 66.6895 527.113
internal_count=4754375 1083942 3670433 328941 308490 258195 775452 3341492 30407 113625 38488 29875 43532 70093 144570 50295 3311617 321335 736964 58180 135312 15401 11440 12021 13579 305934 6562 5807 18967 6742
is_linear=0
shrinkage=1


Tree=1
num_leaves=31
num_cat=0
split_feature=55 40 32 50 93 19 80 35 62 32 80 28 32 62 50 32 20 21 84 58 40 55 28 50 28 55 35 18 18 76
split_gain=979325 2.79512e+06 1.41829e+07 8.77697e+06 2.56306e+07 4.03176e+07 2.28057e+06 489370 545537 3.99329e+06 4.63201e+06 335226 304767 1.30661e+07 1.94221e+07 163162 82859.8 566459 84223.7 82306.8 431292 570992 70210.7 66224.4 126835 57889.1 95658.9 55289.8 44443 33326.9
threshold=56.161293029785163 3.5798488855361943 8.0237903594970721 1.5248193144798281 38.24696350097657 40.824115753173835 -0.041221059858798974 0.15412069112062457 -14.539129734039305 8.0237903594970721 0.37343318760395056 14.836422443389894 8.0237903594970721 -14.539129734039305 1.5248193144798281 8.0237903594970721 9.6082715988159197 -4.7345104217529288 0.91458335518836986 5.0838618278503427 8.9772295951843279 39.537376403808601 14.836422443389894 11.877033710479738 14.836422443389894 76.337799072265639 0.15412069112062457 28.838081359863285 18.278564453125004 -2.2427289485931392
decision_type=2 2 2 2 2 2 2 2 2 2 2 2 2 2 2 2 2 2 2 2 2 2 2 2 2 2 2 2 2 2
left_child=16 2 3 27 6 -6 -5 12 15 10 -10 -11 13 -3 -15 -9 19 -18 -19 29 21 -21 -17 28 -25 26 -4 -2 -14 -1
right_child=1 7 25 4 5 -7 -8 8 9 11 -12 -13 23 14 -16 22 17 18 -20 20 -22 -23 -24 24 -26 -27 -28 -29 -30 -31
leaf_value=0.24720987304354303 -5.5302763402164601 -0.031272016397039512 -0.58683338723554268 -29.691202965854497 -32.590189064989168 -182.6535924613346 -8.6881322672398191 -0.013588663035567054 -36.266084764399295 -1.2061614689058735 -6.0353753104384733 -0.11403154321432252 0.22466597730879984 -0.43228288079140004 -52.11612776761654 -3.8192199428487421 12.709032387597977 -0.62097534198571602 6.0467463726328932 -0.049773909658641008 -0.1414782445517698 -22.857422338850608 -0.41391236786749758 -0.27887423742769629 -2.5718667992719233 -0.51125699030790783 -2.4634994059383377 -0.050357231049875696 -0.10686625535166211 -0.11371967393147604
leaf_weight=678.67935460805893 5.0324203725904217 2109.0783843994141 165.19388808310032 15.570338878664186 17.651291538495574 5.996527009876444 76.062413795269094 1475.8468553861603 13.582012281753121 1947.0066792140715 188.92226377129555 1099.3767800997011 1335.3900753043126 45.279017925262451 30.368596076965332 41.263526520458981 9.8970503322780115 61.647020158590749 5.130215397803112 5.7681396547704917 60.726663738489151 5.2343893405050039 23.906158620724455 346.33202914893627 73.023987963795662 718.51291608810425 115.29623948037624 53.936747575178742 4159.5468300797511 11099.432102732393
leaf_count=207481 1316 7141 8060 9697 12434 22052 16330 4574 11345 57922 38491 297579 76645 7720 34576 3790 346 18940 762 1952 20024 3471 7866 5234 23925 34397 8968 7819 385981 3415395
internal_value=-0.425886 -0.70855 -3.045 -16.208 -24.2338 -70.6427 -12.257 -0.495868 -0.896489 -1.26399 -8.06296 -0.812034 -0.258934 -0.763584 -21.1807 -0.121702 -0.0926045 1.54578 -0.108722 -0.103206 -1.79178 -10.9004 -2.57005 -0.0725175 -0.678161 -0.749065 -1.35824 -0.518013 -0.0262967 -0.0929222
internal_weight=25988.7 14062.2 1173.25 174.25 115.281 23.6478 91.6328 12888.9 4789.9 3248.89 202.504 3046.38 8099.02 2184.73 75.6476 1541.02 11926.5 76.6743 66.7772 11849.8 71.7292 11.0025 65.1697 5914.29 419.356 999.003 280.49 58.9692 5494.94 11778.1
internal_count=4752233 1083862 121073 69648 60513 34486 26027 962789 421567 405337 49836 355501 541222 49437 42296 16230 3668371 20048 19702 3648323 25447 5423 11656 491785 29159 51425 17028 9135 462626 3622876
is_linear=0
shrinkage=0.05


end of trees

feature_importances:
Column_28=6
Column_32=6
Column_40=6
Column_50=6
Column_55=6
Column_18=4
Column_35=3
Column_62=3
Column_80=3
Column_93=3
Column_58=2
Column_100=2
Column_5=1
Column_19=1
Column_20=1
Column_21=1
Column_31=1
Column_38=1
Column_65=1
Column_71=1
Column_76=1
Column_84=1

parameters:
[boosting: gbdt]
[objective: binary]
[metric: binary_logloss]
[tree_learner: serial]
[device_type: gpu]
[data_sample_strategy: bagging]
[data: ]
[valid: ]
[num_iterations: 1000]
[learning_rate: 0.05]
[num_leaves: 31]
[num_threads: 0]
[seed: 42]
[deterministic: 0]
[force_col_wise: 1]
[force_row_wise: 0]
[histogram_pool_size: -1]
[max_depth: 6]
[min_data_in_leaf: 20]
[min_sum_hessian_in_leaf: 5]
[bagging_fraction: 0.8]
[pos_bagging_fraction: 1]
[neg_bagging_fraction: 1]
[bagging_freq: 1]
[bagging_seed: 400]
[bagging_by_query: 0]
[feature_fraction: 0.8]
[feature_fraction_bynode: 1]
[feature_fraction_seed: 30056]
[extra_trees: 0]
[extra_seed: 12879]
[early_stopping_round: 0]
[early_stopping_min_delta: 0]
[first_metric_only: 0]
[max_delta_step: 0]
[lambda_l1: 0]
[lambda_l2: 0]
[linear_lambda: 0]
[min_gain_to_split: 0]
[drop_rate: 0.1]
[max_drop: 50]
[skip_drop: 0.5]
[xgboost_dart_mode: 0]
[uniform_drop: 0]
[drop_seed: 17869]
[top_rate: 0.2]
[other_rate: 0.1]
[min_data_per_group: 100]
[max_cat_threshold: 32]
[cat_l2: 10]
[cat_smooth: 10]
[max_cat_to_onehot: 4]
[top_k: 20]
[monotone_constraints: ]
[monotone_constraints_method: basic]
[monotone_penalty: 0]
[feature_contri: ]
[forcedsplits_filename: ]
[refit_decay_rate: 0.9]
[cegb_tradeoff: 1]
[cegb_penalty_split: 0]
[cegb_penalty_feature_lazy: ]
[cegb_penalty_feature_coupled: ]
[path_smooth: 0]
[interaction_constraints: ]
[verbosity: -1]
[saved_feature_importance_type: 0]
[use_quantized_grad: 0]
[num_grad_quant_bins: 4]
[quant_train_renew_leaf: 0]
[stochastic_rounding: 1]
[linear_tree: 0]
[max_bin: 255]
[max_bin_by_feature: ]
[min_data_in_bin: 3]
[bin_construct_sample_cnt: 200000]
[data_random_seed: 175]
[is_enable_sparse: 1]
[enable_bundle: 1]
[use_missing: 1]
[zero_as_missing: 0]
[feature_pre_filter: 1]
[pre_partition: 0]
[two_round: 0]
[header: 0]
[label_column: ]
[weight_column: ]
[group_column: ]
[ignore_column: ]
[categorical_feature: ]
[forcedbins_filename: ]
[precise_float_parser: 0]
[parser_config_file: ]
[objective_seed: 16083]
[num_class: 1]
[is_unbalance: 0]
[scale_pos_weight: 321.174]
[sigmoid: 1]
[boost_from_average: 1]
[reg_sqrt: 0]
[alpha: 0.9]
[fair_c: 1]
[poisson_max_delta_step: 0.7]
[tweedie_variance_power: 1.5]
[lambdarank_truncation_level: 30]
[lambdarank_norm: 1]
[label_gain: ]
[lambdarank_position_bias_regularization: 0]
[eval_at: ]
[multi_error_top_k: 1]
[auc_mu_weights: ]
[num_machines: 1]
[local_listen_port: 12400]
[time_out: 120]
[machine_list_filename: ]
[machines: ]
[gpu_platform_id: -1]
[gpu_device_id: -1]
[gpu_use_dp: 0]
[num_gpu: 1]

end of parameters

pandas_categorical:null
