tree
version=v4
num_class=1
num_tree_per_iteration=1
label_index=0
max_feature_idx=124
objective=binary sigmoid:1
feature_names=Column_0 Column_1 Column_2 Column_3 Column_4 Column_5 Column_6 Column_7 Column_8 Column_9 Column_10 Column_11 Column_12 Column_13 Column_14 Column_15 Column_16 Column_17 Column_18 Column_19 Column_20 Column_21 Column_22 Column_23 Column_24 Column_25 Column_26 Column_27 Column_28 Column_29 Column_30 Column_31 Column_32 Column_33 Column_34 Column_35 Column_36 Column_37 Column_38 Column_39 Column_40 Column_41 Column_42 Column_43 Column_44 Column_45 Column_46 Column_47 Column_48 Column_49 Column_50 Column_51 Column_52 Column_53 Column_54 Column_55 Column_56 Column_57 Column_58 Column_59 Column_60 Column_61 Column_62 Column_63 Column_64 Column_65 Column_66 Column_67 Column_68 Column_69 Column_70 Column_71 Column_72 Column_73 Column_74 Column_75 Column_76 Column_77 Column_78 Column_79 Column_80 Column_81 Column_82 Column_83 Column_84 Column_85 Column_86 Column_87 Column_88 Column_89 Column_90 Column_91 Column_92 Column_93 Column_94 Column_95 Column_96 Column_97 Column_98 Column_99 Column_100 Column_101 Column_102 Column_103 Column_104 Column_105 Column_106 Column_107 Column_108 Column_109 Column_110 Column_111 Column_112 Column_113 Column_114 Column_115 Column_116 Column_117 Column_118 Column_119 Column_120 Column_121 Column_122 Column_123 Column_124
feature_infos=[-10902.404296875:10398.916015625] [-5087.52734375:4914.1630859375] [-1:0.99999958276748657] [0.0058571822009980679:21328.421875] [0:56.608112335205078] [0:42.842689514160156] [0:36.362030029296875] [0:94.559883117675781] [0:385.1671142578125] [0:58.005542755126953] [0:45.070648193359375] [0:38.245273590087891] [0:81.20733642578125] [-349.33145141601562:350.82537841796875] [-315.50698852539062:194.30973815917969] [0.86264181137084961:51.528648376464844] [0.28941032290458679:39.145782470703125] [0.12543858587741852:39.454280853271484] [0.079640768468379974:29.481786727905273] [0.054434299468994141:28.26222038269043] [0.0060426839627325535:35.9447021484375] [0.046332236379384995:31.238567352294922] [0.21600238978862762:33.195999145507812] [0.226978600025177:41.604473114013672] [0.02504359744489193:29.721469879150391] [-384.69418334960938:280.28411865234375] [-390.84664916992188:294.4195556640625] [-270.5234375:226.25872802734375] [0:148.13569641113281] [0:24.461219787597656] [0:0.99707645177841187] [0:0.96039706468582153] [0:284.06378173828125] [0:156.55917358398438] [-1:1] [-1.6124235391616821:1.5013116598129272] [-26.211399078369141:8.9999523162841797] [-315.50698852539062:255.07093811035156] [0:350.82537841796875] [0:1] [0:1.708288311958313] [0:1.5477278232574463] [0.045858673751354218:46.460380554199219] [0.07821347564458847:45.952808380126953] [0.050737340003252029:46.405941009521484] [0.088430449366569519:47.9295654296875] [0.0064687035046517849:46.015476226806641] [0.0012235685717314482:47.435707092285156] [0.032971575856208801:48.955619812011719] [0:352.48062133789062] [0.00029057502979412675:43.933990478515625] [0:14.609677314758301] [0.00029057502979412675:43.933990478515625] [0.032971575856208801:48.955619812011719] [0:1] [0.00015273617464117706:0.99994188547134399] [0.022254867479205132:0.99970942735671997] [0.020017767325043678:0.96808081865310669] [0:38.121021270751953] [-0.99999141693115234:0.99999833106994629] [-0.99995571374893188:0.99997526407241821] [-0.99957293272018433:0.99988877773284912] [-0.98921805620193481:0.99502289295196533] [-0.94558119773864746:0.95649039745330811] [-0.85459262132644653:0.84918779134750366] [0:42.007266998291016] [0:41.524051666259766] [0:41.40966796875] [0:16.310977935791016] [0:15.335395812988281] [0:12.119999885559082] [0:117.91139221191406] [0:66.098838806152344] [0:41.138301849365234] [0:158.97026062011719] [0:129.1767578125] [0:67.489837646484375] [-1:1] [0:143.16818237304688] [0.43567454814910889:210.05580139160156] [0.010673476383090019:43.046058654785156] [-132.81105041503906:76.762832641601562] [-67.044692993164062:38.781993865966797] [-44.677314758300781:31.713222503662109] [-35.508892059326172:33.468589782714844] [-34.0704345703125:33.300384521484375] [-33.790264129638672:32.322849273681641] [-111.04739379882812:96.495338439941406] [-82.58306884765625:46.086441040039062] [-34.528156280517578:30.406068801879883] [0:42.296855926513672] [0:41.788093566894531] [0:41.524051666259766] [0:150.86357116699219] [0:89.851951599121094] [0:66.098838806152344] [0:195.58567810058594] [0:132.95707702636719] [0:129.1767578125] [-38.186809539794922:34.238979339599609] [-35.738819122314453:34.287265777587891] [-33.535747528076172:32.322849273681641] [-0.99999690055847168:0.99999493360519409] [-0.99996364116668701:0.99998766183853149] [-0.99990785121917725:0.99998176097869873] [0:149.79348754882812] [0:32.069515228271484] [0:54.704681396484375] [0.0083333337679505348:1.9047619104385376] [0.01666666753590107:1.8181818723678589] [0:11.831968307495117] [0:168.4256591796875] [0:52.62420654296875] [0:99.261642456054688] [-53.533229827880859:57.146697998046875] [0:3731020800] [0:39.857501983642578] [3.2142646312713623:50.424972534179688] [2.4803745746612549:50.646701812744141] [2.6996719837188721:50.606315612792969] [3.5317111015319824:50.410720825195312] [2.639564037322998:37.904781341552734] [1.9226511716842651:38.355850219726562] [2.5346531867980957:38.377460479736328] [2.7822232246398926:37.815414428710938]
tree_sizes=3410 3428 3444

Tree=0
num_leaves=31
num_cat=0
split_feature=47 52 42 102 122 67 57 47 104 91 123 70 22 53 65 47 9 80 121 20 76 12 61 50 66 34 102 101 104 122
split_gain=9.5527e+06 951598 689047 144701 107930 119482 90500.2 75793.3 52397.8 60853.3 45485.6 26659.4 25421 23789.5 26057 22338.5 22146.3 18854.7 24391.2 18661.1 16634.4 16309.3 13579.9 12992.6 10915.3 10669.9 8955.53 8736.91 23799.7 8640.84
threshold=4.082611322402955 3.1066784858703618 7.557824134826661 -0.60862505435943592 14.581873416900637 5.5123159885406503 0.18668582290410998 3.2859795093536381 -1.0000000180025095e-35 11.070931911468508 23.567156791687015 0.29604101181030279 3.2105255126953129 4.8649373054504403 11.464716434478762 5.2196240425109872 5.4752798080444345 7.1136348247528085 7.8110127449035653 4.8274738788604745 6.7966802120208749 38.873758316040046 -0.7682698369026183 10.418271541595461 5.4716384410858163 0.99697721004486095 -0.11181699112057684 3.2267544269561772 0.8998229205608369 30.900508880615238
decision_type=2 2 2 2 2 2 2 2 2 2 2 2 2 2 2 2 2 2 2 2 2 2 2 2 2 2 2 2 2 2
left_child=1 12 4 -3 15 19 21 17 29 -10 11 -8 -1 23 -15 16 -2 18 -5 -6 -12 27 -23 -9 -14 -17 -18 -4 -29 -7
right_child=2 3 6 7 5 8 10 13 9 -11 20 -13 24 14 -16 25 26 -19 -20 -21 -22 22 -24 -25 -26 -27 -28 28 -30 -31
leaf_value=-1.7484179340370702 -3.7204545887161613 -3.7699667012533622 -3.7852966959181047 -3.793951640555314 -3.6929969068675437 -3.6196182317565415 -1.8827184878295655 -3.6693733173177931 -2.3674654090964786 -3.3957026926253464 -3.461475451564167 -3.5374132087881889 -3.7703710040000917 -2.0104685538712777 -3.3465481960679675 -3.7123010894683137 -3.6958113235166441 -1.6596298471536102 -1.7727516657763156 -1.8163820979263448 -1.8394874869145299 -2.1607331327570893 -3.5857937318343374 -2.4354143299832529 -2.5373847041531916 -2.4360451659219189 -2.606539981827555 -3.718841717390148 -3.0177646144440082 -2.0796314069923669
leaf_weight=16.510847464203835 86.256594605743885 88.352657318115234 10604.582946039736 14.966192811727522 292.96211671829224 121.1303436011076 27.608143575489521 33.919471703469753 1512.1810737475753 159.02430827915668 19.049312621355057 205.7516316473484 629.11641261726618 1098.2305203378201 37.74643861502409 388.18717958778143 21.526559539139271 8315.628078661859 5614.9059867337346 13.87470620125532 92.871657185256481 28.431193754076958 40.575895383954048 57.484674766659737 18.477003179490566 17.097979724407196 152.87046214193106 1322.4094371423125 133.25239741802216 9.8494845479726774
leaf_count=70 3692 3867 467314 662 12382 4946 191 1418 24773 5798 719 8071 27540 10336 1340 16553 911 21296 26782 78 564 351 1630 1018 364 303 3218 56559 3875 106
internal_value=-2.68947 -1.83299 -3.5839 -1.75237 -2.87129 -2.69607 -3.74242 -1.74062 -2.54078 -2.46531 -2.94422 -3.34165 -3.6858 -2.11731 -2.05486 -3.42622 -3.06512 -1.70747 -1.77812 -3.60814 -2.11556 -3.76514 -2.99866 -2.89333 -3.73519 -3.65846 -2.74099 -3.76953 -3.65466 -3.50381
internal_weight=31174.8 15925.3 15249.5 15261.2 2774.96 2109.02 12474.5 15172.9 1802.19 1671.21 345.281 233.36 664.104 1227.38 1135.98 665.939 260.654 13945.5 5629.87 306.837 111.921 12129.3 69.0071 91.4041 647.593 405.285 174.397 12060.2 1455.66 130.98
internal_count=706727 94693 612034 66719 72760 48083 539274 62852 35623 30571 9545 8262 27974 14112 11676 24677 7821 48740 27444 12460 1283 529729 1981 2436 27904 16856 4129 527748 60434 5052
is_linear=0
shrinkage=1


Tree=1
num_leaves=31
num_cat=0
split_feature=46 52 102 57 112 46 92 50 60 70 124 104 98 46 91 68 59 37 6 15 46 20 59 59 111 112 20 99 0 91
split_gain=444666 29034.8 13923.8 10943.4 10817.1 10071.4 8966.87 18392.3 16307.9 15225.3 11431.4 6828.14 6527.8 6466.88 5340.56 4717.59 4151.49 3638.6 3501.19 3480.41 3274.55 1736.33 3653.71 1695.77 1315.18 1141.55 860.738 871.782 639.141 633.426
threshold=9.2160000801086444 1.9597861766815188 -0.53286105394363392 0.41239126026630407 5.606513738632203 1.3478072285652163 13.94132709503174 18.137238502502445 -0.61845114827156056 1.365353584289551 22.779950141906742 0.45447959005832678 15.87768077850342 7.287243366241456 10.543408870697023 2.0399777889251713 -0.013087903615087269 -18.540657043457028 23.308931350708011 14.508296489715578 4.2642388343811044 3.2274039983749394 0.98629292845726024 -0.6286768615245818 20.454729080200199 4.4897420406341562 2.5007899999618535 1.6798496246337893 -289.24722290039057 10.274764060974123
decision_type=2 2 2 2 2 2 2 2 2 2 2 2 2 2 2 2 2 2 2 2 2 2 2 2 2 2 2 2 2 2
left_child=1 12 20 5 15 16 7 11 9 -9 -11 24 23 -7 18 -5 -4 -16 -13 -6 25 26 -23 -1 -2 -3 -14 -28 -26 -10
right_child=6 2 3 4 19 13 -8 8 29 10 -12 14 21 -15 17 -17 -18 -19 -20 -21 -22 22 -24 -25 28 -27 27 -29 -30 -31
leaf_value=0.63478476154989616 -0.051204090713391805 0.38883674680848374 0.26653332478700015 0.49857489930205923 0.37029845648971405 0.30698439656829368 -0.049761566576503845 -0.051219168648407844 0.35933278978261152 0.59681479116796288 1.5471857780131208 0.26777762283715262 -0.052143158598974726 0.19805870316652724 1.0605839654240843 1.4787172591734199 -0.030304272699009677 -0.051352794086902132 1.3649128297776381 -0.023849359864793147 -0.025674002660915164 0.40519020767443498 1.9538127023337895 -0.048560278544310359 0.42221001503754652 -0.053846344185612065 0.31320150568909427 0.93049646765170169 -0.051928558036664053 -0.051247143108534614
leaf_weight=9.1922451853752118 1581.9943217467517 75.546179562807083 188.37238212861121 1132.9460787158459 93.918294873088598 89743.251227676868 9060.2389575093985 45.033603509888053 10.263243956491349 71.493902476504445 56.762551791965961 308.51661914214492 14.223897702991961 1383.626597225666 7.5914602279663077 12.41119162738323 314.35787033289671 238.44319740310311 7.4472179412841788 138.75500274263322 392.01063108444214 13.782387319952251 5.263250268995761 735.26836828328669 22.101908624172211 18.040516585111618 51.203492656350136 6.4387872181832781 10.47685533761978 110.88483281806111
leaf_count=12 70767 46 379 3028 236 109670 412713 1998 290 1166 318 6550 492 30735 156 24 4022 10126 58 2309 13879 112 33 31300 112 564 195 51 394 4842
internal_value=0.266357 0.302186 0.304808 0.306203 0.446057 0.304099 -0.0267355 0.0576922 0.428578 0.739709 1.01742 0.00752023 0.00872037 0.305331 0.157626 0.509196 0.0809204 -0.0170437 0.293637 0.135248 0.0377663 0.408687 0.833151 -0.0401227 -0.0447282 0.303502 0.296198 0.382155 0.269734 -0.0164642
internal_weight=105860 94328.6 93493.2 93007.6 1378.03 91629.6 11531.2 2471.01 294.438 173.29 128.256 2176.57 835.372 91126.9 561.998 1145.36 502.73 246.035 315.964 232.673 485.597 90.9118 19.0456 744.461 1614.57 93.5867 71.8662 57.6423 32.5788 121.148
internal_count=706577 197087 164892 150403 5597 144806 509490 96777 8614 3482 1484 88163 32195 140405 16890 3052 4401 10282 6608 2545 14489 883 145 31312 71273 610 738 246 506 5132
is_linear=0
shrinkage=0.05


Tree=2
num_leaves=31
num_cat=0
split_feature=42 102 50 43 104 91 12 79 75 61 57 31 57 59 3 102 42 64 40 51 114 64 67 87 104 47 104 80 16 88
split_gain=272320 22300.6 9409.51 9431.13 7574.87 6732.7 4308.88 5675.91 3464.58 3060.19 2680.08 5075.07 2531.93 2401.99 1361.68 1353.17 1436.62 1528.63 1152.09 1141.65 966.931 1356.46 868.624 857.983 4567.4 2237.97 2016.26 728.933 655.973 516.913
threshold=11.02263116836548 -0.53286105394363392 1.9597861766815188 8.2963867187500018 0.54576039314270031 11.860480308532717 22.253224372863773 36.652477264404304 15.87768077850342 -0.7682698369026183 0.41239126026630407 0.0018563512712717058 0.15041068196296695 -0.71463337540626515 0.91173896193504345 -0.647101730108261 4.2104628086090097 -0.35434374213218683 1.2061615586280825 1.6397728919982912 15.08236885070801 0.33190332353115087 11.756662368774416 -5.7282915115356436 0.99684113264083873 13.489895343780519 0.66793823242187511 4.5583572387695321 17.709085464477543 -9.2803750038146955
decision_type=2 2 2 2 2 2 2 2 2 2 2 2 2 2 2 2 2 2 2 2 2 2 2 2 2 2 2 2 2 2
left_child=1 15 8 10 14 -6 23 -8 19 13 12 -12 -4 -9 -5 -1 18 -18 27 -3 -11 -22 -15 24 25 26 -2 -17 -10 -26
right_child=6 2 3 4 5 -7 7 9 28 20 11 -13 -14 22 -16 16 17 -19 -20 -21 21 -23 -24 -25 29 -27 -28 -29 -30 -31
leaf_value=-0.051254542156525765 -0.051350173756118125 -0.051415994560872307 0.23758590531729534 0.31180202143692165 0.2675439451091049 0.034392497181992755 1.5918447410032972 -0.055001618307643822 -0.053134448014596464 -0.051286512449103407 0.32661638802900161 0.078327819588998093 0.20895293523974195 -0.056689994433471981 -0.040767313838434432 -0.054731540124388849 0.5901112512718063 -0.053261669415153957 0.69788601280241913 0.30941850175248231 -0.051904759037789294 0.89502403974141387 0.38854763769712669 -0.04988984009775646 1.0520634086048706 -0.046920276501730439 0.32409181267014392 0.24428856041178146 0.30757274877985391 0.51921372338162042
leaf_weight=653.76168537139893 62.637771390378475 426.78226597234607 103657.23107072152 28.789436459541321 931.72831945866346 463.75480932742357 6.4226925224065772 49.4658113270998 14.246282052248715 223.00574679113925 1647.7673873566091 235.18628445640206 8342.0912953168154 11.981066223233936 561.68220382928848 27.877772156149149 9.8209155797958356 154.07244861125946 11.190485976636408 23.107721328735352 8.7296760044991952 6.6727028191089621 127.8347615879029 8624.2985018491745 5.7334502562880543 975.47429922223091 83.339109547436237 75.790582571178675 109.35353117063642 22.077033139765263
leaf_count=29690 2795 18783 95019 317 9487 16410 81 1335 395 9864 2768 2392 33454 251 20606 735 94 5088 38 171 332 4 225 411227 19 43742 854 54 241 103
internal_value=0.210071 0.231614 0.233564 0.234564 0.126542 0.190062 -0.0376355 0.116504 0.0315328 0.0943486 0.236448 0.295604 0.235453 0.24445 -0.0235772 -0.0119251 0.0803148 -0.0147091 0.215906 -0.0328824 -0.0248233 0.358329 0.350394 -0.0444819 -0.00389973 -0.0195964 0.162992 0.163878 0.265997 0.629067
internal_weight=127582 117374 116442 115868 1985.95 1395.48 10207.7 434.112 573.49 427.69 113882 1882.95 111999 189.282 590.472 932.514 278.752 163.893 114.859 449.89 238.408 15.4024 139.816 9773.56 1149.26 1121.45 145.977 103.668 123.6 27.8105
internal_count=706574 235742 200043 180453 46820 25897 470832 12092 19590 12011 133633 5160 128473 1811 20923 35699 6009 5182 827 18954 10200 336 476 458740 47513 47391 3649 789 636 122
is_linear=0
shrinkage=0.05


end of trees

feature_importances:
Column_104=6
Column_102=5
Column_46=4
Column_47=4
Column_57=4
Column_59=4
Column_91=4
Column_20=3
Column_42=3
Column_50=3
Column_12=2
Column_52=2
Column_61=2
Column_64=2
Column_67=2
Column_70=2
Column_80=2
Column_112=2
Column_122=2
Column_0=1
Column_3=1
Column_6=1
Column_9=1
Column_15=1
Column_16=1
Column_22=1
Column_31=1
Column_34=1
Column_37=1
Column_40=1
Column_43=1
Column_51=1
Column_53=1
Column_60=1
Column_65=1
Column_66=1
Column_68=1
Column_75=1
Column_76=1
Column_79=1
Column_87=1
Column_88=1
Column_92=1
Column_98=1
Column_99=1
Column_101=1
Column_111=1
Column_114=1
Column_121=1
Column_123=1
Column_124=1

parameters:
[boosting: gbdt]
[objective: binary]
[metric: binary_logloss]
[tree_learner: serial]
[device_type: gpu]
[data_sample_strategy: bagging]
[data: ]
[valid: ]
[num_iterations: 1000]
[learning_rate: 0.05]
[num_leaves: 31]
[num_threads: 0]
[seed: 42]
[deterministic: 0]
[force_col_wise: 1]
[force_row_wise: 0]
[histogram_pool_size: -1]
[max_depth: 6]
[min_data_in_leaf: 20]
[min_sum_hessian_in_leaf: 5]
[bagging_fraction: 0.8]
[pos_bagging_fraction: 1]
[neg_bagging_fraction: 1]
[bagging_freq: 1]
[bagging_seed: 400]
[bagging_by_query: 0]
[feature_fraction: 0.8]
[feature_fraction_bynode: 1]
[feature_fraction_seed: 30056]
[extra_trees: 0]
[extra_seed: 12879]
[early_stopping_round: 0]
[early_stopping_min_delta: 0]
[first_metric_only: 0]
[max_delta_step: 0]
[lambda_l1: 0]
[lambda_l2: 0]
[linear_lambda: 0]
[min_gain_to_split: 0]
[drop_rate: 0.1]
[max_drop: 50]
[skip_drop: 0.5]
[xgboost_dart_mode: 0]
[uniform_drop: 0]
[drop_seed: 17869]
[top_rate: 0.2]
[other_rate: 0.1]
[min_data_per_group: 100]
[max_cat_threshold: 32]
[cat_l2: 10]
[cat_smooth: 10]
[max_cat_to_onehot: 4]
[top_k: 20]
[monotone_constraints: ]
[monotone_constraints_method: basic]
[monotone_penalty: 0]
[feature_contri: ]
[forcedsplits_filename: ]
[refit_decay_rate: 0.9]
[cegb_tradeoff: 1]
[cegb_penalty_split: 0]
[cegb_penalty_feature_lazy: ]
[cegb_penalty_feature_coupled: ]
[path_smooth: 0]
[interaction_constraints: ]
[verbosity: -1]
[saved_feature_importance_type: 0]
[use_quantized_grad: 0]
[num_grad_quant_bins: 4]
[quant_train_renew_leaf: 0]
[stochastic_rounding: 1]
[linear_tree: 0]
[max_bin: 255]
[max_bin_by_feature: ]
[min_data_in_bin: 3]
[bin_construct_sample_cnt: 200000]
[data_random_seed: 175]
[is_enable_sparse: 1]
[enable_bundle: 1]
[use_missing: 1]
[zero_as_missing: 0]
[feature_pre_filter: 1]
[pre_partition: 0]
[two_round: 0]
[header: 0]
[label_column: ]
[weight_column: ]
[group_column: ]
[ignore_column: ]
[categorical_feature: ]
[forcedbins_filename: ]
[precise_float_parser: 0]
[parser_config_file: ]
[objective_seed: 16083]
[num_class: 1]
[is_unbalance: 0]
[scale_pos_weight: 42.2105]
[sigmoid: 1]
[boost_from_average: 1]
[reg_sqrt: 0]
[alpha: 0.9]
[fair_c: 1]
[poisson_max_delta_step: 0.7]
[tweedie_variance_power: 1.5]
[lambdarank_truncation_level: 30]
[lambdarank_norm: 1]
[label_gain: ]
[lambdarank_position_bias_regularization: 0]
[eval_at: ]
[multi_error_top_k: 1]
[auc_mu_weights: ]
[num_machines: 1]
[local_listen_port: 12400]
[time_out: 120]
[machine_list_filename: ]
[machines: ]
[gpu_platform_id: -1]
[gpu_device_id: -1]
[gpu_use_dp: 0]
[num_gpu: 1]

end of parameters

pandas_categorical:null
