tree
version=v4
num_class=1
num_tree_per_iteration=1
label_index=0
max_feature_idx=115
objective=binary sigmoid:1
feature_names=Column_0 Column_1 Column_2 Column_3 Column_4 Column_5 Column_6 Column_7 Column_8 Column_9 Column_10 Column_11 Column_12 Column_13 Column_14 Column_15 Column_16 Column_17 Column_18 Column_19 Column_20 Column_21 Column_22 Column_23 Column_24 Column_25 Column_26 Column_27 Column_28 Column_29 Column_30 Column_31 Column_32 Column_33 Column_34 Column_35 Column_36 Column_37 Column_38 Column_39 Column_40 Column_41 Column_42 Column_43 Column_44 Column_45 Column_46 Column_47 Column_48 Column_49 Column_50 Column_51 Column_52 Column_53 Column_54 Column_55 Column_56 Column_57 Column_58 Column_59 Column_60 Column_61 Column_62 Column_63 Column_64 Column_65 Column_66 Column_67 Column_68 Column_69 Column_70 Column_71 Column_72 Column_73 Column_74 Column_75 Column_76 Column_77 Column_78 Column_79 Column_80 Column_81 Column_82 Column_83 Column_84 Column_85 Column_86 Column_87 Column_88 Column_89 Column_90 Column_91 Column_92 Column_93 Column_94 Column_95 Column_96 Column_97 Column_98 Column_99 Column_100 Column_101 Column_102 Column_103 Column_104 Column_105 Column_106 Column_107 Column_108 Column_109 Column_110 Column_111 Column_112 Column_113 Column_114 Column_115
feature_infos=[-743.6439208984375:966.60614013671875] [-496.75881958007812:656.1673583984375] [-1:0.9980277419090271] [0.005871232133358717:64.706375122070312] [0.0078039984218776226:49.440994262695312] [0.008293752558529377:44.403293609619141] [0.0040494636632502079:73.2830810546875] [0.27823078632354736:95.003814697265625] [0.0060048419982194901:64.898422241210938] [0.01014577504247427:51.993732452392578] [0.012089082039892673:47.690227508544922] [0.0060155205428600311:87.338531494140625] [0:140.05091857910156] [0.001334018656052649:62.158443450927734] [0.0051939589902758598:49.688003540039062] [0.0057733249850571156:48.456829071044922] [0.0013312117662280798:64.741912841796875] [-82.114242553710938:122.05203247070312] [-57.259822845458984:71.547714233398438] [-1.8540489673614502:44.707584381103516] [2.3598387241363525:25.628744125366211] [0.12848536670207977:11.011712074279785] [0.094705089926719666:10.503690719604492] [0.094552844762802124:13.699997901916504] [0.044169161468744278:14.762792587280273] [0.066025987267494202:10.248317718505859] [0.12300509959459305:12.954388618469238] none none none [0:50.725044250488281] [0:20.60456657409668] [0.99326670169830322:1] [0:1] [0:101.45008850097656] [0:50.725044250488281] [0.99993395805358887:1] [-1.4460124969482422:1.1541460752487183] [-15.322174072265625:9.4997272491455078] [-122.05203247070312:81.509048461914062] [0:101.36838531494141] [0:0.99994277954101562] [0:1.628028392791748] [0:1.3154135942459106] [0.094552844762802124:13.699997901916504] [0.066025987267494202:10.248317718505859] [0.044169161468744278:14.762792587280273] none [0.12300509959459305:12.954388618469238] none [0:1] [0:1] [0:1] [0:1] [0:1] [0:1] none none none none none none [0:71.669044494628906] [0:57.955101013183594] [0:46.078044891357422] [0:71.669044494628906] [0:57.955101013183594] [0:46.078044891357422] none [0:140.05091857910156] [2.5740008354187012:360.41455078125] none none none none none none none none none none none none none [0:75.059371948242188] [0:60.096813201904297] [0:57.955101013183594] [0:75.059371948242188] [0:60.096813201904297] [0:57.955101013183594] none none none none none none [0.0033237903844565153:79.5836181640625] [0.136243537068367:34.458671569824219] [0.016610078513622284:52.537540435791016] [0.0083333337679505348:1.3770492076873779] [0.01666666753590107:1.1612902879714966] [0.0026237040292471647:7.4406356811523438] [0:54.649932861328125] [1.751109266479034e-05:26.464035034179688] [1.427128040631942e-06:41.847301483154297] [-48.916233062744141:47.949123382568359] [0:226565824] [0:16.57819938659668] [0.018802033737301826:39.585987091064453] [-0.83209437131881714:40.8956298828125] [-1.0028823614120483:40.724529266357422] [-0.17900210618972778:39.836887359619141] [4.2325692176818848:22.28223991394043] [3.6667697429656982:23.045293807983398] [3.8999350070953369:22.467765808105469] [4.7397499084472656:21.487401962280273]
tree_sizes=3421 3448 3430 3450 3450

Tree=0
num_leaves=31
num_cat=0
split_feature=23 98 97 25 48 16 97 48 25 16 108 25 55 104 104 25 112 98 7 13 25 38 108 26 109 103 109 55 26 54
split_gain=1.01307e+06 268309 188780 76644.4 57907.6 47411.2 34955.4 34681.4 26013.8 23416.6 19338.2 18596.3 17801.6 18668.9 16190.6 15369.2 15136.6 14286.7 12809.8 12267.4 11348.5 10786.6 10697.7 9713.31 9385.18 8959.38 8407.26 8096.59 6516.59 6256.95
threshold=3.2646040916442876 5.3907911777496347 4.9679453372955331 2.8182359933853154 8.8559527397155779 5.1759865283966073 2.6182308197021489 7.6605336666107187 3.0700523853302006 3.5270999670028691 24.30603122711182 2.5980480909347539 0.99997392296791088 1.4382719397544863 1.6295509934425356 2.4899170398712163 7.9465725421905526 0.85080963373184215 2.1097298860549931 11.782460212707521 2.2459360361099248 -1.802244186401367 9.2340044975280779 8.8458361625671404 6.8665499687194833 1.7104911208152773 25.481868743896488 0.99999192357063305 7.5197105407714853 0.99997845292091381
decision_type=2 2 2 2 2 2 2 2 2 2 2 2 2 2 2 2 2 2 2 2 2 2 2 2 2 2 2 2 2 2
left_child=1 3 4 7 8 11 -5 18 14 15 -8 -3 22 -14 17 23 25 -2 -1 -7 -18 -12 -9 -4 -20 -6 29 -16 -17 -10
right_child=2 5 9 6 16 19 10 12 26 -11 21 -13 13 -15 27 28 20 -19 24 -21 -22 -23 -24 -25 -26 -27 -28 -29 -30 -31
leaf_value=-2.7860833270539462 -2.6884797196917329 -2.2610986834417481 -2.4813719278960469 -2.1445997350960937 -2.2431561165179064 -2.6979438680132892 -2.8748764160339983 -2.0390073804540592 -2.3383153001713506 -2.9536361190494116 -2.7083815883466351 -2.7299173189137957 -2.1013273620731687 -2.333474733595533 -2.8902050050148858 -2.5786335375793423 -2.5904840270034803 -2.2503798025906789 -2.9475817651894585 -2.9532810134750349 -2.9363438855970201 -2.1999678949748107 -2.6417266068756864 -2.813723707344256 -2.0465088974397596 -2.707826978729194 -2.4905281686795453 -2.4792004113791721 -2.8978306229192778 -2.887047421501884
leaf_weight=59.337680824100971 207.71040138229728 764.85280740261078 549.59631591662765 482.34041539207101 170.46878965198994 1094.0666795298457 513.38018836826086 92.166493833065033 58.627073831856251 7135.0903294719756 183.30101299285889 292.3819385766983 2270.9107174314559 1399.8810105286539 132.52863708883524 177.5121790766716 301.08716044574976 1787.8692790232599 28.98421523347497 825.19528622180223 1117.4473422989249 242.13970059528947 365.86391988024116 366.40789473056793 9676.6424219794571 264.98981730639935 297.13664441928267 1250.0900801420212 1611.4109523892403 456.10353409871459
leaf_count=1012 3158 5429 6197 2358 1152 16830 9620 266 502 144359 2856 4675 9238 11858 2522 2329 4018 12327 583 16690 22242 1438 5238 6441 29304 4126 3402 14044 30897 8652
internal_value=-2.47892 -2.22524 -2.77105 -2.14082 -2.55111 -2.65962 -2.49055 -2.10504 -2.44817 -2.90615 -2.6683 -2.39075 -2.22653 -2.18986 -2.38709 -2.78087 -2.78378 -2.29598 -2.05368 -2.80773 -2.86293 -2.41902 -2.52045 -2.61431 -2.0492 -2.52592 -2.7023 -2.5186 -2.86616 -2.82455
internal_weight=34175.5 18291.4 15884.1 15314.9 6044.06 2976.5 1421.16 13893.8 4190.07 9840.02 938.821 1057.23 4128.82 3670.79 3378.2 2704.93 1853.99 1995.58 9764.96 1919.26 1418.53 425.441 458.03 916.004 9705.63 435.459 811.867 1382.62 1788.92 514.731
internal_count=383763 117395 266368 73771 76145 43624 16272 57499 44607 190223 13914 10104 26600 21096 32051 45864 31538 15485 30899 33520 26260 4294 5504 12638 29887 5278 12556 16566 33226 9154
is_linear=0
shrinkage=1


Tree=1
num_leaves=31
num_cat=0
split_feature=23 98 97 25 112 25 11 16 97 7 16 26 48 26 101 108 108 48 7 11 111 103 98 43 25 8 109 108 38 106
split_gain=245916 68400 61074 22343.9 15823.3 11796.3 11137.2 9867.9 9772.32 8610.02 8126.1 7198.83 7072.96 7034.98 6738.24 6250.46 6141.34 5813.86 5510.4 5308.39 4903.01 4759.21 4306.93 4230.42 3994.13 3478.56 3155.35 3126.32 2903.95 2849.87
threshold=3.3596674203872685 7.9052255153656015 5.367394447326661 3.0777685642242436 9.2590589523315447 2.4378502368927006 8.1055393218994158 11.550727844238283 2.4668163061141972 3.7578636407852177 4.4704070091247567 8.2883982658386248 8.7547979354858416 9.2981472015380877 1.5355578660964968 20.440006256103519 19.490610122680668 8.9751224517822283 1.9724025726318362 1.1248547434806826 21.10539531707764 6.6416029930114755 5.3907911777496347 0.20769693702459338 2.9760929346084599 15.505968093872072 26.217125892639164 21.686016082763675 -5.1657485961914054 35.966405868530281
decision_type=2 2 2 2 2 2 2 2 2 2 2 2 2 2 2 2 2 2 2 2 2 2 2 2 2 2 2 2 2 2
left_child=1 3 4 6 13 14 11 20 -5 16 17 18 27 19 23 -13 -8 24 -1 -2 -3 -22 -21 -6 -4 -23 -10 -7 -28 -9
right_child=2 7 10 8 5 12 9 29 26 -11 -12 15 -14 -15 -16 -17 -18 -19 -20 22 21 25 -24 -25 -26 -27 28 -29 -30 -31
leaf_value=-0.05336500419406242 0.025365977062334219 0.028334735054988881 0.20870115575447865 0.37397642511756418 0.015161362582583122 0.083598158666878655 0.22604993029449988 -0.040741171249426444 0.0049194546135939606 0.16030512193453444 -0.015846476046030348 0.20301685051889537 -0.0022736949547213724 0.079361885709821209 0.0024266763721515084 0.36195956820343073 0.38283523569512451 0.00014296088571493935 0.39286616709794636 0.36212557572586307 0.10985117866174024 0.38682100843142708 0.042926815099128768 0.33647053865815107 0.051643568595826597 0.11714789528801046 -0.044092802925755514 0.22788025529433314 0.25890175095772999 0.39676552207342186
leaf_weight=69.353400819003582 133.75966449454427 401.34995490312576 1032.6393741220236 414.00110816583037 111.9818839430809 681.69240146875381 892.41281344369054 971.52405786514282 550.0414201207459 913.89175546169281 5415.6925159841776 947.95090751722455 1127.4781086444855 305.50507569313049 207.37932848930359 1780.020839214325 2081.1510260105133 1113.8940896987915 28251.696862056851 2463.3147029690444 461.46229553222656 484.58225867152214 110.41513711214066 1202.4578927159309 665.80480670928955 158.75892373919487 104.32334756851196 835.73197382688522 326.79341672360897 38.704566478729248
leaf_count=1214 1804 6212 13115 1345 1594 9009 6019 20017 9756 9665 111187 7524 21594 4480 3311 8317 7461 21239 57535 14369 6454 3550 1746 8909 11815 2334 1782 7407 2545 474
internal_value=0.281977 0.349016 0.11295 0.366476 0.219517 0.156397 0.374312 0.0969188 0.17026 0.294529 0.0199607 0.384301 0.0925824 0.306807 0.267307 0.306728 0.335782 0.0889142 0.391773 0.332471 0.178009 0.232383 0.348432 0.309097 0.147133 0.320273 0.0843018 0.163063 0.185582 -0.0239791
internal_weight=54255.8 38848 15407.7 36331.6 7179.72 4166.72 34936.5 2516.38 1395.16 3887.46 8228.03 31049 2644.9 3012.99 1521.82 2727.97 2973.56 2812.34 28321.1 2707.49 1506.15 1104.8 2573.73 1314.44 1698.44 643.341 981.158 1517.42 431.117 1010.23
internal_count=383783 152204 231579 113163 74223 51824 97735 39041 15428 23145 157356 74590 38010 22399 13814 15841 13480 46169 58749 17919 18550 12338 16115 10503 24930 5884 14083 16416 4327 20491
is_linear=0
shrinkage=0.05


Tree=2
num_leaves=31
num_cat=0
split_feature=48 96 25 97 97 45 112 98 46 109 97 97 108 15 88 109 112 15 53 13 107 7 111 12 38 110 11 45 19 38
split_gain=132304 47424.5 24961.5 24473.1 10736.8 7249.16 8337.26 6890.85 5623.73 5762.11 8484 5346.52 4827.48 4758.69 4222.1 4075.16 4022.72 3771.45 3612.35 3353.8 3315.89 3238.71 3150.13 3066.97 2788.06 2768.09 2691.73 2667.11 2882.43 3322.92
threshold=8.6081719398498553 6.1718606948852548 2.9257370233535771 5.1531400680542001 4.0753405094146737 2.2296302318573002 8.9577822685241717 8.2949457168579119 2.5785511732101445 18.205851554870609 3.2117800712585454 2.5663241147995 24.30603122711182 7.6424243450164804 9.1677403450012225 21.177351951599125 8.324681758880617 1.0883833765983584 0.99999991059303295 2.7858049869537358 3.6888083219528203 3.9876655340194707 36.209581375122077 5.7975790500640878 6.0638287067413339 9.6808133125305194 0.14000391215085986 2.5424262285232548 25.856570243835453 -5.1657485961914054
decision_type=2 2 2 2 2 2 2 2 2 2 2 2 2 2 2 2 2 2 2 2 2 2 2 2 2 2 2 2 2 2
left_child=1 2 8 5 12 23 11 14 13 10 -10 17 16 26 -3 -15 -4 -7 27 20 -6 -11 -14 25 -13 -2 -1 28 -5 -30
right_child=3 7 4 18 19 6 -8 -9 9 21 -12 24 22 15 -16 -17 -18 -19 -20 -21 -22 -23 -24 -25 -26 -27 -28 -29 29 -31
leaf_value=0.037515072582405704 -0.030048574851903188 0.12274021512574451 0.21872333084873438 0.017839445851847314 0.043069230597252851 -0.015733329061820261 0.037313789778386258 0.020368279440120752 0.23559574676507333 0.27997871731428231 0.074012226266829018 -0.0073665362991687097 0.30973223547675571 0.095598332629269353 0.34380935600270157 0.25116060060669998 0.04188500876244846 0.31640825295948782 -0.029331616831545781 0.017931631827636633 0.24177504236787239 0.12430845993223261 0.08029236477724129 0.037115403183763426 0.23295829261101719 0.2803052306289015 0.28319718376556807 -0.0030910004211190112 0.011879608342292411 0.22966467905842025
leaf_weight=111.84054015949368 76.09747739136219 1969.9305456206203 817.11735971271992 716.87132787704468 406.4803608879447 96.57346211001277 1868.8634176254272 2089.7236499786377 2823.1066500917077 4821.90413447842 1140.5543940290809 348.80992355197668 1227.1682944297791 614.08152314275503 242.5751363709569 1338.898999966681 530.3055674880743 743.20782961323857 4013.4232940673828 1319.8544890061021 434.2433305978775 358.99368575587869 170.36877107620239 168.95522229373455 184.5257586017251 1286.1930440664291 35267.191911831498 1555.0077600479126 263.73571487516165 521.43144658952951
leaf_count=866 873 19568 4225 11557 5351 1054 28948 36882 7923 13056 9962 4659 2920 4687 1622 5988 6783 2147 82446 20037 4127 2894 1463 2081 1373 5330 55329 29846 3919 5785
internal_value=0.212667 0.244944 0.258296 0.0609142 0.151027 0.14839 0.106043 0.0854797 0.269618 0.234476 0.1891 0.199586 0.216654 0.278226 0.146978 0.202247 0.149125 0.278213 0.00185975 0.06765 0.145703 0.269192 0.281762 0.238049 0.0757821 0.262969 0.282421 0.0428091 0.0903279 0.156511
internal_weight=67528 55684.3 51382.1 11843.7 4905.54 4773.23 3241.98 4302.23 46476.6 9144.56 3963.66 1373.12 2744.96 37332 2212.51 1952.98 1347.42 839.781 7070.47 2160.58 840.724 5180.9 1397.54 1531.25 533.336 1362.29 35379 3057.05 1502.04 785.167
internal_count=383701 203683 145611 180018 44906 46465 38181 58072 100705 33835 17885 9233 15391 66870 21190 10675 11008 3201 133553 29515 9478 15950 4383 8284 6032 6203 56195 51107 21261 9704
is_linear=0
shrinkage=0.05


Tree=3
num_leaves=31
num_cat=0
split_feature=44 96 70 45 16 23 109 19 15 98 31 45 7 70 96 48 19 45 111 2 26 112 97 30 16 87 23 19 5 20
split_gain=84848.2 31088.7 23533.6 8564.57 8381.99 6884.42 6800.63 5504.41 4939.02 4857.16 4534.82 4480.3 4303.57 4043.69 3002.86 2985.11 2674.83 2634.5 4034.06 2362.68 2344.53 1937.59 1691.43 1654.84 1796.93 1602.28 1582.98 1559.37 2328.6 1460.47
threshold=3.4415010213851933 8.0766844749450701 56.923131942749031 3.1602246761322026 2.8835213184356694 3.0951073169708256 20.51273345947266 36.11090278625489 7.5959463119506845 1.2595949769020083 3.1622687578201298 2.3697010278701787 2.2183527946472172 39.200630187988288 11.545268535614015 8.7547979354858416 6.6400661468505868 2.9331548213958745 8.5123691558837908 -0.92080929875373829 9.1894135475158709 9.7322955131530779 6.4408450126647958 4.4254226684570321 9.9492993354797381 7.2948646545410165 3.9628928899765019 12.058115959167482 4.3493406772613534 12.500550270080568
decision_type=2 2 2 2 2 2 2 2 2 2 2 2 2 2 2 2 2 2 2 2 2 2 2 2 2 2 2 2 2 2
left_child=1 3 9 5 11 12 8 -8 -7 -2 -11 22 19 -5 23 21 -14 20 -19 -1 -12 -13 29 -3 -25 -6 -24 -15 -29 -4
right_child=2 14 4 13 25 6 7 -9 -10 10 17 15 16 27 -16 -17 -18 18 -20 -21 -22 -23 26 24 -26 -27 -28 28 -30 -31
leaf_value=-0.016430993615689515 -0.0051388628257075485 0.042781825694745111 0.26068950608789493 0.20394034336663036 0.012996578709475976 0.16061975334396411 0.23136478380767556 0.16089844982636353 -0.00015975375547618324 0.052227031359872035 0.23754274578237605 0.18174575016758343 -0.055812318744300642 -0.053761923030672981 -0.024474846090396782 -0.011474804956692012 0.22346215600935265 0.27473523433593544 0.06288437485660503 0.22848708957568006 0.10458999198125617 0.052838010335941057 0.0063613943608918175 0.23114182623733243 0.036252600048277302 -0.036777609636163743 0.5530175193633704 0.20809366614539054 0.01034203915103154 0.096213063667068291
leaf_weight=293.26921498775482 437.58464416861534 963.64474701881409 510.40982342511415 507.05937170982361 3026.9936376139522 8082.6110805273056 8621.5213883221149 4084.1445126235485 507.66239106655121 695.21550586819649 2266.2427297234535 471.40641981363297 85.934809617698193 353.10406751558185 1253.9926338195801 1090.6501526236534 37448.493864245713 318.89796230196953 760.81200814247131 148.24581039696932 388.42214712500572 763.84138488769531 173.53725799173117 303.13991371169686 193.94777258858085 3470.7052512839437 14.337078697979448 222.94041532278061 448.03669967129827 183.4844473823905
leaf_count=3361 4939 12653 1853 1747 51920 32370 22638 16760 6221 8855 8150 3418 1040 5946 24121 19570 44879 709 8482 633 4532 9145 2134 2203 3218 72901 62 1494 6152 1419
internal_value=0.172865 0.197829 0.0640542 0.20522 0.0190577 0.208237 0.185481 0.208714 0.151118 0.153779 0.169478 0.0851914 0.220997 0.088465 0.0322812 0.0488074 0.222823 0.191307 0.125456 0.0658042 0.21809 0.102033 0.181164 0.0810045 0.155102 -0.01359 0.0480779 0.0312891 0.0760475 0.217197
internal_weight=78090.3 63517.7 14572.5 60803 9705.37 59271.9 21295.9 12705.7 8590.27 4867.17 4429.59 3207.67 37975.9 1531.14 2714.73 2325.9 37534.4 3734.37 1079.71 441.515 2654.66 1235.25 881.769 1460.73 497.088 6497.7 187.874 1024.08 670.977 693.894
internal_count=383525 185436 198089 143241 162422 127902 77989 39398 38591 35667 30728 37601 49913 15339 42195 32133 45919 21873 9191 3994 12682 12563 5468 18074 5421 124821 2196 13592 7646 3272
is_linear=0
shrinkage=0.05


Tree=4
num_leaves=31
num_cat=0
split_feature=96 23 7 70 24 19 97 7 16 25 98 16 26 20 46 97 38 55 11 96 70 15 110 112 105 55 31 25 112 105
split_gain=62054.8 26795.5 8604.5 7510.71 6715.7 5980.8 7245.43 4427.46 4272.3 4112.19 3999.41 3825.4 3562.65 3524.93 3071.27 2849.56 2527.87 2495.75 2280.73 2224.46 1941.19 1922.6 1693.13 1687.73 1684.1 1613.48 1443.63 1429.19 1360.54 1357.35
threshold=6.1037676334381112 3.4737930297851567 3.6952956914901738 48.864099502563484 2.631972193717957 13.042502403259279 3.2117800712585454 4.1410257816314706 2.8058681488037114 2.6521459817886357 1.2988215088844302 8.9155521392822283 9.2000036239624041 18.60905742645264 2.2860890626907353 4.7379899024963388 -5.3697528839111319 0.99996748566627514 0.77750444412231456 11.394452571868898 54.011995315551765 8.1443943977355975 9.0588245391845721 9.5771293640136737 -9.3822526931762678 0.99992299079895031 3.4507325887680058 2.7291289567947392 16.516946792602543 0.75825858116149913
decision_type=2 2 2 2 2 2 2 2 2 2 2 2 2 2 2 2 2 2 2 2 2 2 2 2 2 2 2 2 2 2
left_child=1 4 9 10 7 6 22 21 18 19 -3 24 14 27 -5 17 -17 -7 -9 29 -11 25 -6 -16 26 -1 -4 -12 -28 -2
right_child=2 3 11 12 5 15 -8 8 -10 20 13 -13 -14 -15 23 16 -18 -19 -20 -21 -22 -23 -24 -25 -26 -27 28 -29 -30 -31
leaf_value=0.14520754651765713 0.22326364414875158 -0.011441562779656952 0.034588570140758966 0.17878249327843643 0.1999527510205687 0.039437994990982272 -0.013765381445813574 0.017675798111615099 0.074341654489160594 0.18590286695553832 0.20557090826119803 -0.031637696340672164 -0.0056871816353831015 -0.054626210585493509 0.10719317304393464 -0.015107573498771384 0.13677554080184318 0.1872516838238541 0.1744921509073106 -0.0092769549460901147 0.0047096560903318024 0.13421187493437778 0.10926536775036938 0.036444270617045353 0.036885760289358104 0.18968256808058856 0.27137906492396069 0.13355438605118236 0.83922468992013577 0.11969373512709365
leaf_weight=2137.1613549850881 764.935203474015 368.36995479092002 54.777874514460564 628.8765721321106 722.67340772598982 299.43884807825089 1205.4546262323856 244.64030627161264 1729.2708936408162 174.07204383611679 1699.2803055420518 4371.9400992393494 1880.2718911170959 175.2725914567709 1252.1173006594181 306.65050429105759 2569.2229882478714 6165.6233245134354 4439.4219255894423 175.28830254077911 980.03996950387955 1746.5085141658783 1788.2404867783189 2579.6022163331509 2319.9167375564575 44512.637327514589 55.954854156821966 1158.6444153897464 12.999086190015076 539.43859906867146
leaf_count=4885 2293 4191 902 3644 1271 1726 14117 1487 11895 908 4952 88966 33030 2586 11227 3553 13700 10961 10661 3081 13911 7291 6757 34645 33581 46276 309 7115 36 3833
internal_value=0.147006 0.161735 0.0260274 0.0841929 0.172867 0.140642 0.0869935 0.180544 0.141506 0.10278 0.144132 -0.00363247 0.0520384 0.163026 0.0763715 0.161987 0.12058 0.180405 0.166302 0.157957 0.0320386 0.185717 0.135366 0.0595634 0.0464718 0.187645 0.226206 0.176374 0.378428 0.180431
internal_weight=87058.7 77609.4 9449.36 9742.44 67866.9 13057.3 3716.37 54809.6 6413.33 2633.77 3401.57 6815.59 6340.87 3033.2 4460.6 9340.94 2875.87 6465.06 4684.06 1479.66 1154.11 48396.3 2510.91 3831.72 2443.65 46649.8 123.732 2857.92 68.9539 1304.37
internal_count=383790 235970 147820 101390 134580 52085 22145 82495 24043 24026 18844 123794 82546 14653 49516 29940 17253 12687 12148 9207 14819 58452 8028 45872 34828 51161 1247 12067 345 6126
is_linear=0
shrinkage=0.05


end of trees

feature_importances:
Column_25=11
Column_97=11
Column_16=8
Column_7=7
Column_98=7
Column_112=7
Column_26=6
Column_48=6
Column_108=6
Column_109=6
Column_19=5
Column_23=5
Column_38=5
Column_45=5
Column_96=5
Column_11=4
Column_15=4
Column_55=4
Column_70=4
Column_111=3
Column_13=2
Column_20=2
Column_31=2
Column_46=2
Column_103=2
Column_104=2
Column_105=2
Column_110=2
Column_2=1
Column_5=1
Column_8=1
Column_12=1
Column_24=1
Column_30=1
Column_43=1
Column_44=1
Column_53=1
Column_54=1
Column_87=1
Column_88=1
Column_101=1
Column_106=1
Column_107=1

parameters:
[boosting: gbdt]
[objective: binary]
[metric: binary_logloss]
[tree_learner: serial]
[device_type: gpu]
[data_sample_strategy: bagging]
[data: ]
[valid: ]
[num_iterations: 1000]
[learning_rate: 0.05]
[num_leaves: 31]
[num_threads: 0]
[seed: 42]
[deterministic: 0]
[force_col_wise: 1]
[force_row_wise: 0]
[histogram_pool_size: -1]
[max_depth: 6]
[min_data_in_leaf: 20]
[min_sum_hessian_in_leaf: 5]
[bagging_fraction: 0.8]
[pos_bagging_fraction: 1]
[neg_bagging_fraction: 1]
[bagging_freq: 1]
[bagging_seed: 400]
[bagging_by_query: 0]
[feature_fraction: 0.8]
[feature_fraction_bynode: 1]
[feature_fraction_seed: 30056]
[extra_trees: 0]
[extra_seed: 12879]
[early_stopping_round: 0]
[early_stopping_min_delta: 0]
[first_metric_only: 0]
[max_delta_step: 0]
[lambda_l1: 0]
[lambda_l2: 0]
[linear_lambda: 0]
[min_gain_to_split: 0]
[drop_rate: 0.1]
[max_drop: 50]
[skip_drop: 0.5]
[xgboost_dart_mode: 0]
[uniform_drop: 0]
[drop_seed: 17869]
[top_rate: 0.2]
[other_rate: 0.1]
[min_data_per_group: 100]
[max_cat_threshold: 32]
[cat_l2: 10]
[cat_smooth: 10]
[max_cat_to_onehot: 4]
[top_k: 20]
[monotone_constraints: ]
[monotone_constraints_method: basic]
[monotone_penalty: 0]
[feature_contri: ]
[forcedsplits_filename: ]
[refit_decay_rate: 0.9]
[cegb_tradeoff: 1]
[cegb_penalty_split: 0]
[cegb_penalty_feature_lazy: ]
[cegb_penalty_feature_coupled: ]
[path_smooth: 0]
[interaction_constraints: ]
[verbosity: -1]
[saved_feature_importance_type: 0]
[use_quantized_grad: 0]
[num_grad_quant_bins: 4]
[quant_train_renew_leaf: 0]
[stochastic_rounding: 1]
[linear_tree: 0]
[max_bin: 255]
[max_bin_by_feature: ]
[min_data_in_bin: 3]
[bin_construct_sample_cnt: 200000]
[data_random_seed: 175]
[is_enable_sparse: 1]
[enable_bundle: 1]
[use_missing: 1]
[zero_as_missing: 0]
[feature_pre_filter: 1]
[pre_partition: 0]
[two_round: 0]
[header: 0]
[label_column: ]
[weight_column: ]
[group_column: ]
[ignore_column: ]
[categorical_feature: ]
[forcedbins_filename: ]
[precise_float_parser: 0]
[parser_config_file: ]
[objective_seed: 16083]
[num_class: 1]
[is_unbalance: 0]
[scale_pos_weight: 19.3288]
[sigmoid: 1]
[boost_from_average: 1]
[reg_sqrt: 0]
[alpha: 0.9]
[fair_c: 1]
[poisson_max_delta_step: 0.7]
[tweedie_variance_power: 1.5]
[lambdarank_truncation_level: 30]
[lambdarank_norm: 1]
[label_gain: ]
[lambdarank_position_bias_regularization: 0]
[eval_at: ]
[multi_error_top_k: 1]
[auc_mu_weights: ]
[num_machines: 1]
[local_listen_port: 12400]
[time_out: 120]
[machine_list_filename: ]
[machines: ]
[gpu_platform_id: -1]
[gpu_device_id: -1]
[gpu_use_dp: 0]
[num_gpu: 1]

end of parameters

pandas_categorical:null
