tree
version=v4
num_class=1
num_tree_per_iteration=1
label_index=0
max_feature_idx=115
objective=binary sigmoid:1
feature_names=Column_0 Column_1 Column_2 Column_3 Column_4 Column_5 Column_6 Column_7 Column_8 Column_9 Column_10 Column_11 Column_12 Column_13 Column_14 Column_15 Column_16 Column_17 Column_18 Column_19 Column_20 Column_21 Column_22 Column_23 Column_24 Column_25 Column_26 Column_27 Column_28 Column_29 Column_30 Column_31 Column_32 Column_33 Column_34 Column_35 Column_36 Column_37 Column_38 Column_39 Column_40 Column_41 Column_42 Column_43 Column_44 Column_45 Column_46 Column_47 Column_48 Column_49 Column_50 Column_51 Column_52 Column_53 Column_54 Column_55 Column_56 Column_57 Column_58 Column_59 Column_60 Column_61 Column_62 Column_63 Column_64 Column_65 Column_66 Column_67 Column_68 Column_69 Column_70 Column_71 Column_72 Column_73 Column_74 Column_75 Column_76 Column_77 Column_78 Column_79 Column_80 Column_81 Column_82 Column_83 Column_84 Column_85 Column_86 Column_87 Column_88 Column_89 Column_90 Column_91 Column_92 Column_93 Column_94 Column_95 Column_96 Column_97 Column_98 Column_99 Column_100 Column_101 Column_102 Column_103 Column_104 Column_105 Column_106 Column_107 Column_108 Column_109 Column_110 Column_111 Column_112 Column_113 Column_114 Column_115
feature_infos=[-2039.5943603515625:1212.2451171875] [-1134.104736328125:730.34527587890625] [-1:0.99005889892578125] [0.0088545177131891251:64.706375122070312] [0.0099028227850794792:49.409854888916016] [0.035454735159873962:44.476997375488281] [0.0072998427785933018:77.811622619628906] [0.3463592529296875:40.257602691650391] [0.0060175275430083275:64.898422241210938] [0.0880555659532547:51.860572814941406] [0.22483976185321808:47.67010498046875] [0.0059902183711528778:90.412109375] [0:138.262451171875] [0.0013214480131864548:61.963279724121094] [0.010320204310119152:51.613239288330078] [0.011075667105615139:48.514438629150391] [0.0013088468695059419:66.533592224121094] [-99.356796264648438:118.31072998046875] [-66.543357849121094:82.889923095703125] [-1.3473501205444336:44.746669769287109] [-0.78180736303329468:25.640096664428711] [0.10750811547040939:10.830297470092773] [0.094705089926719666:10.503690719604492] [0.077880986034870148:13.443633079528809] [0.10941646993160248:14.450000762939453] [0.0060817701742053032:10.019110679626465] [0.21280665695667267:12.77411937713623] [-134.10050964355469:91.601478576660156] [-134.4696044921875:100.57228851318359] [-89.731826782226562:99.688468933105469] [0:51.875812530517578] [0:17.311136245727539] [0:0.78299778699874878] [0:0.42411512136459351] [0:54.894451141357422] [0:51.605751037597656] [-1:1] [-1.4460124969482422:1.1600781679153442] [-15.426372528076172:9.4999227523803711] [-118.31072998046875:99.356796264648438] [0:91.059890747070312] [0:1] [0:1.7749419212341309] [0:1.4446083307266235] [0.043157320469617844:43.750633239746094] [0.021505469456315041:45.273876190185547] [0.05065179243683815:45.272552490234375] [0.022097408771514893:47.411537170410156] [0.010373324155807495:43.492877960205078] [0.10510174930095673:38.453590393066406] [-0.99990129470825195:0.9997638463973999] [-0.99952477216720581:0.99914336204528809] [-0.99744963645935059:0.99425691366195679] [-0.99600088596343994:0.99936777353286743] [-0.964954674243927:0.98826634883880615] [-0.91276836395263672:0.86570972204208374] [0:39.591716766357422] [0:39.221351623535156] [0:38.742374420166016] [0:9.125788688659668] [0:10.744699478149414] [0:12.015538215637207] [0:73.331710815429688] [0:57.955101013183594] [0:45.956134796142578] [0:73.331710815429688] [0:57.955101013183594] [0:45.956134796142578] [-1:1] [0:69.910919189453125] [4.8360910415649414:368.6561279296875] [0.10666890442371368:40.250312805175781] [-68.463424682617188:59.501846313476562] [-57.030132293701172:50.990169525146484] [-53.835853576660156:50.571651458740234] [-15.744968414306641:21.8988037109375] [-19.712799072265625:26.002399444580078] [-25.015253067016602:27.917823791503906] [-68.105026245117188:46.693119049072266] [-40.734767913818359:29.535537719726562] [-28.741292953491211:24.97967529296875] [0:39.731166839599609] [0:39.439041137695312] [0:39.221351623535156] [0:79.641975402832031] [0:62.458950042724609] [0:57.955101013183594] [0:89.550811767578125] [0:62.458950042724609] [0:57.955101013183594] [-15.106813430786133:21.8988037109375] [-19.856260299682617:25.833765029907227] [-25.015253067016602:27.658330917358398] none none none [0.010176697745919228:93.184066772460938] [0.3512483537197113:37.273303985595703] [0.045222703367471695:52.49517822265625] [0.0083333337679505348:1.9016393423080444] [0.01666666753590107:1.8064515590667725] [0.0070790704339742661:8.0738840103149414] [0:50.591464996337891] [2.8104301236453466e-05:26.464035034179688] [4.8960159801936243e-06:41.257369995117188] [-48.916233062744141:49.849723815917969] [0:692845312] [0:16.807888031005859] [-0.72694313526153564:41.565895080566406] [-0.80539190769195557:43.460357666015625] [-0.78563004732131958:43.200851440429688] [-0.75885194540023804:41.879306793212891] [0.40425211191177368:23.860540390014648] [0.040430068969726562:24.329673767089844] [0.09569096565246582:23.780532836914062] [0.46562737226486206:23.036382675170898]
tree_sizes=3396 3398

Tree=0
num_leaves=31
num_cat=0
split_feature=47 74 71 22 71 45 62 74 22 68 48 109 48 68 47 68 111 67 67 45 27 68 107 111 108 87 2 103 19 15
split_gain=3.95191e+06 524123 148877 145730 135360 60263.3 73567 55652.3 47504.7 38236.8 36957.6 35106 34892.9 36954.9 34468.3 32169.3 30369.3 29157.1 28991.3 26006.1 21264.9 25765.9 17523.2 17252.3 16488.8 15738.6 15296.1 13949.4 13508.7 13263.2
threshold=7.7669284343719491 1.5956693291664126 7.4877874851226816 6.2628908157348642 6.9670066833496103 13.775228500366213 1.0759371519088747 -0.26565140485763544 6.6148252487182626 0.91224607825279247 7.1423182487487802 37.998409271240241 7.6978766918182382 0.35994353890419012 5.2301690578460702 0.27167877554893499 36.942604064941413 11.918524265289308 4.8315985202789316 5.8577973842620858 -0.5014091134071349 0.1825651749968529 7.4282500743865976 12.629941940307619 32.685935974121101 4.6925632953643808 -0.98616263270378102 6.7440214157104501 15.433885097503664 17.990651130676273
decision_type=2 2 2 2 2 2 2 2 2 2 2 2 2 2 2 2 2 2 2 2 2 2 2 2 2 2 2 2 2 2
left_child=1 4 10 9 8 6 15 19 26 14 22 20 13 -10 -3 28 17 -8 -9 -6 25 -22 -2 -21 -20 -5 -1 -14 -4 -11
right_child=2 3 5 11 7 -7 16 18 12 29 -12 -13 27 -15 -16 -17 -18 -19 24 23 21 -23 -24 -25 -26 -27 -28 -29 -30 -31
leaf_value=-1.9681406518619373 -3.4552041261544852 -2.0013706835721203 -3.7605622434996366 -3.4486612783083728 -1.8740375909035702 -3.7294324858081449 -3.6171235227826863 -3.2312765742801308 -1.9857595957535175 -3.5134877877080983 -2.3670105680606719 -1.9198981620219489 -2.2687703748133412 -3.5862982944520483 -2.9470768109934622 -3.5837920531423602 -2.3601411039960016 -3.1015257121182196 -2.714540268256858 -3.4980095771454622 -2.407943463566081 -3.5898889315788978 -2.323933393603471 -2.286189892361171 -2.0362395539277873 -2.6001117498013464 -1.7435348322356963 -1.8043089774469188 -1.905471097383481 -2.0520068983070159
leaf_weight=879.26507507264614 173.75472060404718 481.58943074941635 10.66245720349252 91.598718076944351 570.28552914224565 4765.7116581108421 1663.6542485244572 185.102912530303 64.414334988221526 82.584347918629646 287.12141067907214 44.363808929920197 310.63701453618705 81.942729532718658 120.44595509767532 46.161083810031414 56.851067785173655 328.30624956637621 249.7969210036099 31.087673081085086 49.804539259523153 621.5139950606972 42.629534780979156 531.69070897623897 139.70259149000049 135.45271452702582 5496.8532387185842 337.07209562882781 123.25267910398543 19.117526337504387
leaf_count=6932 6411 4109 457 3368 3449 201337 66639 6021 530 3141 4498 308 4271 3233 3250 1819 883 9848 5607 1173 820 24565 632 7491 1287 2738 19248 1580 821 182
internal_value=-2.69211 -2.06716 -3.56929 -2.8865 -1.9152 -3.62906 -3.41446 -2.31526 -1.81993 -2.34205 -2.73889 -3.29293 -2.18461 -2.88187 -2.19057 -2.44554 -3.49962 -3.53214 -2.71609 -2.112 -3.36073 -3.5022 -3.23233 -2.35313 -2.47125 -2.94244 -1.77451 -2.02706 -2.05318 -3.23876
internal_weight=18022.4 10524.3 7498.11 1646.47 8877.85 6994.6 2228.89 1707.67 7170.18 703.737 503.506 942.734 794.066 146.357 602.035 180.076 2048.81 1991.96 574.602 1133.06 898.37 671.319 216.384 562.778 389.5 227.051 6376.12 647.709 133.915 101.702
internal_count=396648 103303 293345 42481 60822 281804 80467 25028 35794 10682 11541 31799 9614 3763 7359 3097 77370 76487 12915 12113 31491 25385 7043 8664 6894 6106 26180 5851 1278 3323
is_linear=0
shrinkage=1


Tree=1
num_leaves=31
num_cat=0
split_feature=47 58 84 74 71 7 108 21 64 67 106 101 67 47 112 61 67 67 67 59 107 53 66 70 110 115 107 19 107 49
split_gain=187527 20469.2 28857.7 19633.1 13795.7 14299.9 9871.83 9379.9 9324.37 7978.33 7234.05 6721.64 6511.34 13252.4 10071 6377.44 5292.79 4750.72 4676.4 4631.6 4376.04 4093.62 3391.7 3328.29 3157.27 2967.39 2837.27 2410.6 2492.61 2306.62
threshold=10.728413581848146 13.154455184936525 1.6583598256111147 5.3333327770233163 14.364006519317629 3.9511071443557744 38.00963211059571 7.7536756992340097 3.0308959484100346 13.66986131668091 259.21638488769537 0.76537984609603893 3.8593955039978032 3.6699156761169438 20.142794609069828 1.9337806701660158 24.2045431137085 5.952141761779786 6.580578327178956 3.035596609115601 7.0475878715515146 -0.5330161154270171 6.8492391109466562 28.759799957275394 23.122298240661625 15.574799060821535 5.9117741584777841 6.4546351432800302 8.3388810157775897 23.09810829162598
decision_type=2 2 2 2 2 2 2 2 2 2 2 2 2 2 2 2 2 2 2 2 2 2 2 2 2 2 2 2 2 2
left_child=3 2 4 7 17 8 9 12 -6 10 -4 18 13 25 -15 -11 22 -2 -5 24 -19 -8 -9 -14 -20 -1 -21 -13 -29 -25
right_child=1 -3 6 11 5 -7 21 16 -10 15 -12 27 23 14 -16 -17 -18 20 19 26 -22 -23 -24 29 -26 -27 -28 28 -30 -31
leaf_value=0.27083380061236662 -0.026541618793785839 -0.040097489768545144 -0.031526105165310118 -0.020561053924207439 -0.051455087340819154 -0.051250544004887148 1.7425109520863378 -0.031741041285241918 1.5734254993537562 0.68482162691234272 1.2623117496553813 0.63930623770754413 0.043919753821925422 0.099425984386129429 0.76311738836500653 0.11208627101533582 1.5144916010899929 0.37324505775488387 0.10912421819956392 0.3102200546835025 1.4603633336527584 0.46610344881446536 0.24117932906719669 0.3289655607957383 0.39666812126533779 0.35403912630212742 1.7381368484583168 -0.032000945790045608 0.39380037963016701 0.70728171862450984
leaf_weight=2093.5614106040448 77.942809786647558 4013.7094982899725 1541.3710233531892 128.74109840393066 10.307116096839307 24.836737547069788 6.8281903564929953 278.51004590839148 61.570816455408931 72.024477202445269 10.879686936736105 14.731438418850301 102.39646705240011 1225.3461203575134 59.955148220062256 149.47773775458336 6.5175208747386923 451.25317228585482 150.04211922734976 5.6217406541109076 9.4508148282766324 78.468787789344788 192.53280175477266 42972.698175301775 262.4488407317549 2195.0371190160513 9.1264632623642665 600.88095770217478 36.455361008644104 40.328634241595864
leaf_count=6759 2554 170405 61761 3871 419 1069 41 6397 536 827 172 44 1284 17200 395 4514 12 2112 2615 120 17 504 1711 87405 2433 2322 22 18002 385 670
internal_value=0.282381 0.0298068 0.142288 0.315012 0.433194 0.983034 0.0428666 0.319905 1.34042 0.0176002 -0.0224576 0.115876 0.322068 0.271214 0.130385 0.298319 0.0993915 0.334469 0.243603 0.323204 0.395546 0.568282 0.0798117 0.328642 0.292075 0.313421 1.19384 0.00697056 -0.00764529 0.32932
internal_weight=56883.1 6508.12 2494.41 50374.9 635.361 96.7147 1859.05 49166.9 71.8779 1773.75 1552.25 1208.05 48689.3 5573.9 1285.3 221.502 477.56 538.647 555.98 427.239 460.704 85.297 471.043 43115.4 412.491 4288.6 14.7482 652.068 637.336 43013
internal_count=396578 244931 74526 151647 6707 2024 67819 124155 955 67274 61933 27492 116035 26676 17595 5341 8120 4683 9061 5190 2129 545 8108 89359 5048 9081 142 18431 18387 88075
is_linear=0
shrinkage=0.05


end of trees

feature_importances:
Column_67=7
Column_47=4
Column_68=4
Column_107=4
Column_71=3
Column_74=3
Column_19=2
Column_22=2
Column_45=2
Column_48=2
Column_108=2
Column_111=2
Column_2=1
Column_7=1
Column_15=1
Column_21=1
Column_27=1
Column_49=1
Column_53=1
Column_58=1
Column_59=1
Column_61=1
Column_62=1
Column_64=1
Column_66=1
Column_70=1
Column_84=1
Column_87=1
Column_101=1
Column_103=1
Column_106=1
Column_109=1
Column_110=1
Column_112=1
Column_115=1

parameters:
[boosting: gbdt]
[objective: binary]
[metric: binary_logloss]
[tree_learner: serial]
[device_type: gpu]
[data_sample_strategy: bagging]
[data: ]
[valid: ]
[num_iterations: 1000]
[learning_rate: 0.05]
[num_leaves: 31]
[num_threads: 0]
[seed: 42]
[deterministic: 0]
[force_col_wise: 1]
[force_row_wise: 0]
[histogram_pool_size: -1]
[max_depth: 6]
[min_data_in_leaf: 20]
[min_sum_hessian_in_leaf: 5]
[bagging_fraction: 0.8]
[pos_bagging_fraction: 1]
[neg_bagging_fraction: 1]
[bagging_freq: 1]
[bagging_seed: 400]
[bagging_by_query: 0]
[feature_fraction: 0.8]
[feature_fraction_bynode: 1]
[feature_fraction_seed: 30056]
[extra_trees: 0]
[extra_seed: 12879]
[early_stopping_round: 0]
[early_stopping_min_delta: 0]
[first_metric_only: 0]
[max_delta_step: 0]
[lambda_l1: 0]
[lambda_l2: 0]
[linear_lambda: 0]
[min_gain_to_split: 0]
[drop_rate: 0.1]
[max_drop: 50]
[skip_drop: 0.5]
[xgboost_dart_mode: 0]
[uniform_drop: 0]
[drop_seed: 17869]
[top_rate: 0.2]
[other_rate: 0.1]
[min_data_per_group: 100]
[max_cat_threshold: 32]
[cat_l2: 10]
[cat_smooth: 10]
[max_cat_to_onehot: 4]
[top_k: 20]
[monotone_constraints: ]
[monotone_constraints_method: basic]
[monotone_penalty: 0]
[feature_contri: ]
[forcedsplits_filename: ]
[refit_decay_rate: 0.9]
[cegb_tradeoff: 1]
[cegb_penalty_split: 0]
[cegb_penalty_feature_lazy: ]
[cegb_penalty_feature_coupled: ]
[path_smooth: 0]
[interaction_constraints: ]
[verbosity: -1]
[saved_feature_importance_type: 0]
[use_quantized_grad: 0]
[num_grad_quant_bins: 4]
[quant_train_renew_leaf: 0]
[stochastic_rounding: 1]
[linear_tree: 0]
[max_bin: 255]
[max_bin_by_feature: ]
[min_data_in_bin: 3]
[bin_construct_sample_cnt: 200000]
[data_random_seed: 175]
[is_enable_sparse: 1]
[enable_bundle: 1]
[use_missing: 1]
[zero_as_missing: 0]
[feature_pre_filter: 1]
[pre_partition: 0]
[two_round: 0]
[header: 0]
[label_column: ]
[weight_column: ]
[group_column: ]
[ignore_column: ]
[categorical_feature: ]
[forcedbins_filename: ]
[precise_float_parser: 0]
[parser_config_file: ]
[objective_seed: 16083]
[num_class: 1]
[is_unbalance: 0]
[scale_pos_weight: 40.8326]
[sigmoid: 1]
[boost_from_average: 1]
[reg_sqrt: 0]
[alpha: 0.9]
[fair_c: 1]
[poisson_max_delta_step: 0.7]
[tweedie_variance_power: 1.5]
[lambdarank_truncation_level: 30]
[lambdarank_norm: 1]
[label_gain: ]
[lambdarank_position_bias_regularization: 0]
[eval_at: ]
[multi_error_top_k: 1]
[auc_mu_weights: ]
[num_machines: 1]
[local_listen_port: 12400]
[time_out: 120]
[machine_list_filename: ]
[machines: ]
[gpu_platform_id: -1]
[gpu_device_id: -1]
[gpu_use_dp: 0]
[num_gpu: 1]

end of parameters

pandas_categorical:null
