tree
version=v4
num_class=1
num_tree_per_iteration=1
label_index=0
max_feature_idx=115
objective=binary sigmoid:1
feature_names=Column_0 Column_1 Column_2 Column_3 Column_4 Column_5 Column_6 Column_7 Column_8 Column_9 Column_10 Column_11 Column_12 Column_13 Column_14 Column_15 Column_16 Column_17 Column_18 Column_19 Column_20 Column_21 Column_22 Column_23 Column_24 Column_25 Column_26 Column_27 Column_28 Column_29 Column_30 Column_31 Column_32 Column_33 Column_34 Column_35 Column_36 Column_37 Column_38 Column_39 Column_40 Column_41 Column_42 Column_43 Column_44 Column_45 Column_46 Column_47 Column_48 Column_49 Column_50 Column_51 Column_52 Column_53 Column_54 Column_55 Column_56 Column_57 Column_58 Column_59 Column_60 Column_61 Column_62 Column_63 Column_64 Column_65 Column_66 Column_67 Column_68 Column_69 Column_70 Column_71 Column_72 Column_73 Column_74 Column_75 Column_76 Column_77 Column_78 Column_79 Column_80 Column_81 Column_82 Column_83 Column_84 Column_85 Column_86 Column_87 Column_88 Column_89 Column_90 Column_91 Column_92 Column_93 Column_94 Column_95 Column_96 Column_97 Column_98 Column_99 Column_100 Column_101 Column_102 Column_103 Column_104 Column_105 Column_106 Column_107 Column_108 Column_109 Column_110 Column_111 Column_112 Column_113 Column_114 Column_115
feature_infos=[-2039.5943603515625:1206.126953125] [-1134.104736328125:730.34527587890625] [-1:0.99794447422027588] [0.005871232133358717:63.983562469482422] [0.0078039984218776226:49.440994262695312] [0.008293752558529377:44.116363525390625] [0.0040494636632502079:78.644180297851562] [0.30508673191070557:95.003814697265625] [0.0060175275430083275:64.118637084960938] [0.01014577504247427:51.624599456787109] [0.012089082039892673:47.655338287353516] [0.0059902183711528778:90.236366271972656] [0:140.05091857910156] [0.0013214480131864548:60.813640594482422] [0.0051939589902758598:52.411670684814453] [0.0057733249850571156:48.456829071044922] [0.0013311915099620819:65.851654052734375] [-92.831260681152344:122.05203247070312] [-65.028762817382812:68.684486389160156] [-1.8540489673614502:44.707584381103516] [1.8273410797119141:25.640096664428711] [0.10750811547040939:11.011712074279785] [0.239180788397789:10.503690719604492] [0.090973503887653351:13.699997901916504] [0.075673207640647888:14.762792587280273] [0.0060817701742053032:10.248317718505859] [0.18814969062805176:12.954388618469238] none none none [0:51.605751037597656] [0:19.489936828613281] [0.99619829654693604:1] [0:1] [0:103.21150207519531] [0:51.605751037597656] [0.99997180700302124:1] [-1.411729097366333:1.1541460752487183] [-15.322174072265625:9.4998264312744141] [-122.05203247070312:92.831260681152344] [0:101.36838531494141] [0:0.99988555908203125] [0:1.6894146203994751] [0:1.4278087615966797] [0.090973503887653351:13.699997901916504] [0.0060817701742053032:10.248317718505859] [0.075673207640647888:14.762792587280273] none [0.18814969062805176:12.954388618469238] none [0:1] [0:1] [0:1] [0:1] [0:1] [0:1] none none none none none none [0:73.331710815429688] [0:57.698581695556641] [0:46.078044891357422] [0:73.331710815429688] [0:57.698581695556641] [0:46.078044891357422] none [0:140.05091857910156] [2.5740008354187012:368.74359130859375] none none none none none none none none none none none none none [0:93.184066772460938] [0:62.771469116210938] [0:57.698581695556641] [0:93.184066772460938] [0:62.771469116210938] [0:57.698581695556641] none none none none none none [0.0033237903844565153:93.184066772460938] [0.136243537068367:37.291801452636719] [0.016610078513622284:51.204093933105469] [0.0083333337679505348:1] [0.01666666753590107:1.03125] [0.0067988219670951366:8.0738840103149414] [0:56.086627960205078] [1.751109266479034e-05:26.447019577026367] [1.427128040631942e-06:41.847301483154297] [-48.916233062744141:47.949123382568359] [0:226565824] [0:16.807888031005859] [-0.72647285461425781:39.587371826171875] [-0.83209437131881714:40.8956298828125] [-1.0028823614120483:40.726676940917969] [-0.75870436429977417:39.835845947265625] [4.2325692176818848:23.838151931762695] [3.6667697429656982:24.24144172668457] [3.8999350070953369:23.772876739501953] [4.7433509826660156:23.030448913574219]
tree_sizes=3391

Tree=0
num_leaves=31
num_cat=0
split_feature=25 7 7 24 22 24 7 6 19 24 16 22 25 21 38 112 114 6 15 19 15 70 110 2 7 25 110 38 113 46
split_gain=710976 168138 105188 34369.8 23412.6 17378 14701.3 11011.4 9318.94 8836.34 7298.84 7178.13 7080.72 6669.35 5364.49 4707.78 4594.7 4534.73 3945.85 3834.59 3792.19 3593.68 4954.17 3452.61 3437.59 3412.57 3395.98 3056.34 2176.86 2115.74
threshold=2.7665727138519292 3.8165675401687627 2.9130727052688603 2.9346321821212773 6.0441360473632821 2.7698432207107548 3.5233845710754399 9.7527856826782244 7.0898888111114511 2.9111052751541142 4.7300312519073495 7.110307216644288 2.2289260625839238 6.5474662780761728 -1.6034412384033201 10.601525306701662 14.986763000488283 9.3872761726379412 13.858009338378908 13.044560909271242 9.7779774665832537 47.13512039184571 6.9487311840057382 -0.90368738770484913 2.2961457967758183 2.9846448898315434 12.870075702667238 0.169306755065918 9.7640852928161639 2.5139603614807133
decision_type=2 2 2 2 2 2 2 2 2 2 2 2 2 2 2 2 2 2 2 2 2 2 2 2 2 2 2 2 2 2
left_child=2 6 12 13 5 16 8 11 21 -8 15 25 24 20 -7 -10 -4 28 -12 -13 29 -2 -23 -14 -1 -5 -15 -18 -11 -3
right_child=1 3 4 7 -6 14 9 -9 10 17 18 19 23 26 -16 -17 27 -19 -20 -21 -22 22 -24 -25 -26 -27 -28 -29 -30 -31
leaf_value=-1.9892169285119534 -1.9079252369727495 -2.4147274445998836 -2.4252629024568484 -2.1736569484838055 -2.4594500404225559 -2.019771474246649 -2.2011257940390068 -2.3012067973836752 -1.9558241426089149 -2.0534243072102534 -1.9709318716754136 -2.0974060143432545 -1.9324415787862024 -2.2836025132279074 -2.242274244604344 -1.8891601289467297 -2.2336177810455369 -2.1707431253963572 -2.3699715151956711 -2.3690306286105502 -2.4665187998680529 -2.4319808050727358 -2.0816181626205528 -2.1720588479644101 -2.406496517773872 -2.0473033876877658 -2.4405208546954866 -2.3959952395412043 -1.9611932646899042 -2.1707955183304408
leaf_weight=74.30766224861145 179.81573939323425 101.22399115562439 2382.9573085308075 658.33467507362366 13129.720058202744 415.15237784385681 625.99777793884277 793.64316940307617 3424.443642616272 830.33750700950623 4500.1803233623505 210.16552877426147 1222.0314846038818 451.89529538154602 779.58041310310364 11685.367209434509 663.39607381820679 350.40218257904053 62.815722227096558 340.35559177398682 159.73984384536743 132.43883562088013 423.63707661628723 171.41983270645142 146.98580622673035 2837.9989330768585 1454.7673699855804 514.58319759368896 2787.3917362689972 729.67583918571472
leaf_count=327 522 1230 29414 5104 170257 2053 5167 8000 12939 4616 18244 1337 4096 4410 7020 29939 5869 2698 712 3852 2092 1651 2573 1324 1764 15460 18362 6077 10805 5619
internal_value=-2.15112 -2.00876 -2.39013 -2.21244 -2.42502 -2.32997 -1.94573 -2.13092 -1.92754 -2.02654 -1.921 -2.09752 -2.00364 -2.34865 -2.16496 -1.90427 -2.38533 -1.999 -1.97643 -2.26534 -2.24341 -2.10223 -2.16506 -1.96192 -2.26638 -2.07109 -2.40333 -2.30455 -1.98236 -2.20051
internal_weight=52240.8 32740.6 19500.1 7737.8 17885.4 4755.67 25002.8 4840.5 20408.7 4594.13 19672.8 4046.85 1614.74 2897.3 1194.73 15109.8 3560.94 3968.13 4563 550.521 990.64 735.892 556.076 1393.45 221.293 3496.33 1906.66 1177.98 3617.73 830.9
internal_count=383533 155332 228201 65466 220690 50433 89866 33753 66580 23286 61834 25753 7511 31713 9073 42878 41360 18119 18956 5189 8941 4746 4224 5420 2091 20564 22772 11946 15421 6849
is_linear=0
shrinkage=1


end of trees

feature_importances:
Column_7=4
Column_24=3
Column_25=3
Column_6=2
Column_15=2
Column_19=2
Column_22=2
Column_38=2
Column_110=2
Column_2=1
Column_16=1
Column_21=1
Column_46=1
Column_70=1
Column_112=1
Column_113=1
Column_114=1

parameters:
[boosting: gbdt]
[objective: binary]
[metric: binary_logloss]
[tree_learner: serial]
[device_type: gpu]
[data_sample_strategy: bagging]
[data: ]
[valid: ]
[num_iterations: 1000]
[learning_rate: 0.05]
[num_leaves: 31]
[num_threads: 0]
[seed: 42]
[deterministic: 0]
[force_col_wise: 1]
[force_row_wise: 0]
[histogram_pool_size: -1]
[max_depth: 6]
[min_data_in_leaf: 20]
[min_sum_hessian_in_leaf: 5]
[bagging_fraction: 0.8]
[pos_bagging_fraction: 1]
[neg_bagging_fraction: 1]
[bagging_freq: 1]
[bagging_seed: 400]
[bagging_by_query: 0]
[feature_fraction: 0.8]
[feature_fraction_bynode: 1]
[feature_fraction_seed: 30056]
[extra_trees: 0]
[extra_seed: 12879]
[early_stopping_round: 0]
[early_stopping_min_delta: 0]
[first_metric_only: 0]
[max_delta_step: 0]
[lambda_l1: 0]
[lambda_l2: 0]
[linear_lambda: 0]
[min_gain_to_split: 0]
[drop_rate: 0.1]
[max_drop: 50]
[skip_drop: 0.5]
[xgboost_dart_mode: 0]
[uniform_drop: 0]
[drop_seed: 17869]
[top_rate: 0.2]
[other_rate: 0.1]
[min_data_per_group: 100]
[max_cat_threshold: 32]
[cat_l2: 10]
[cat_smooth: 10]
[max_cat_to_onehot: 4]
[top_k: 20]
[monotone_constraints: ]
[monotone_constraints_method: basic]
[monotone_penalty: 0]
[feature_contri: ]
[forcedsplits_filename: ]
[refit_decay_rate: 0.9]
[cegb_tradeoff: 1]
[cegb_penalty_split: 0]
[cegb_penalty_feature_lazy: ]
[cegb_penalty_feature_coupled: ]
[path_smooth: 0]
[interaction_constraints: ]
[verbosity: -1]
[saved_feature_importance_type: 0]
[use_quantized_grad: 0]
[num_grad_quant_bins: 4]
[quant_train_renew_leaf: 0]
[stochastic_rounding: 1]
[linear_tree: 0]
[max_bin: 255]
[max_bin_by_feature: ]
[min_data_in_bin: 3]
[bin_construct_sample_cnt: 200000]
[data_random_seed: 175]
[is_enable_sparse: 1]
[enable_bundle: 1]
[use_missing: 1]
[zero_as_missing: 0]
[feature_pre_filter: 1]
[pre_partition: 0]
[two_round: 0]
[header: 0]
[label_column: ]
[weight_column: ]
[group_column: ]
[ignore_column: ]
[categorical_feature: ]
[forcedbins_filename: ]
[precise_float_parser: 0]
[parser_config_file: ]
[objective_seed: 16083]
[num_class: 1]
[is_unbalance: 0]
[scale_pos_weight: 11.3992]
[sigmoid: 1]
[boost_from_average: 1]
[reg_sqrt: 0]
[alpha: 0.9]
[fair_c: 1]
[poisson_max_delta_step: 0.7]
[tweedie_variance_power: 1.5]
[lambdarank_truncation_level: 30]
[lambdarank_norm: 1]
[label_gain: ]
[lambdarank_position_bias_regularization: 0]
[eval_at: ]
[multi_error_top_k: 1]
[auc_mu_weights: ]
[num_machines: 1]
[local_listen_port: 12400]
[time_out: 120]
[machine_list_filename: ]
[machines: ]
[gpu_platform_id: -1]
[gpu_device_id: -1]
[gpu_use_dp: 0]
[num_gpu: 1]

end of parameters

pandas_categorical:null
