tree
version=v4
num_class=1
num_tree_per_iteration=1
label_index=0
max_feature_idx=124
objective=binary sigmoid:1
feature_names=Column_0 Column_1 Column_2 Column_3 Column_4 Column_5 Column_6 Column_7 Column_8 Column_9 Column_10 Column_11 Column_12 Column_13 Column_14 Column_15 Column_16 Column_17 Column_18 Column_19 Column_20 Column_21 Column_22 Column_23 Column_24 Column_25 Column_26 Column_27 Column_28 Column_29 Column_30 Column_31 Column_32 Column_33 Column_34 Column_35 Column_36 Column_37 Column_38 Column_39 Column_40 Column_41 Column_42 Column_43 Column_44 Column_45 Column_46 Column_47 Column_48 Column_49 Column_50 Column_51 Column_52 Column_53 Column_54 Column_55 Column_56 Column_57 Column_58 Column_59 Column_60 Column_61 Column_62 Column_63 Column_64 Column_65 Column_66 Column_67 Column_68 Column_69 Column_70 Column_71 Column_72 Column_73 Column_74 Column_75 Column_76 Column_77 Column_78 Column_79 Column_80 Column_81 Column_82 Column_83 Column_84 Column_85 Column_86 Column_87 Column_88 Column_89 Column_90 Column_91 Column_92 Column_93 Column_94 Column_95 Column_96 Column_97 Column_98 Column_99 Column_100 Column_101 Column_102 Column_103 Column_104 Column_105 Column_106 Column_107 Column_108 Column_109 Column_110 Column_111 Column_112 Column_113 Column_114 Column_115 Column_116 Column_117 Column_118 Column_119 Column_120 Column_121 Column_122 Column_123 Column_124
feature_infos=[-10797.26953125:5611.37744140625] [-4777.70556640625:4973.11962890625] [-1:0.99999982118606567] [0.0038541972171515226:70972.25] [0:55.277652740478516] [0:39.629898071289062] [0:36.26129150390625] [0:94.549247741699219] [0:403.55111694335938] [0:70.747413635253906] [0:45.683273315429688] [0:35.514125823974609] [0:81.488410949707031] [-349.33145141601562:350.82537841796875] [-207.06953430175781:194.30973815917969] [1.094521164894104:51.422920227050781] [0.83618253469467163:41.256111145019531] [0.11781629174947739:41.516159057617188] [0.011582506820559502:29.075857162475586] [0.19776690006256104:31.737522125244141] [0.0013056313619017601:36.124820709228516] [0.031081700697541237:33.438594818115234] [0.027231745421886444:36.605648040771484] [0.16463565826416016:41.680580139160156] [0.014562399126589298:37.968193054199219] [-402.9344482421875:194.46549987792969] [-487.68215942382812:294.4195556640625] [-436.01898193359375:252.10395812988281] [0:155.91316223144531] [0:24.327075958251953] [0:0.99707645177841187] [0:0.94846820831298828] [0:284.115234375] [0:155.0782470703125] [-1:1] [-1.4840179681777954:1.3841689825057983] [-26.134937286376953:8.9999523162841797] [-346.37509155273438:255.07093811035156] [0:350.82537841796875] [0:1] [0:1.7868115901947021] [0:1.5873267650604248] [0.030226971954107285:46.473621368408203] [0.020318599417805672:46.035747528076172] [0.050737340003252029:46.386489868164062] [0.077606447041034698:47.877029418945312] [0.0064687035046517849:45.781276702880859] [0.00088391773169860244:48.755020141601562] [0.022818868979811668:48.761928558349609] [0:403.55111694335938] [0.00013480584311764687:44.401126861572266] [0:15.821608543395996] [0.00013480584311764687:44.401126861572266] [0.022818868979811668:48.761928558349609] [0:1] [0.00013911283167544752:0.99997305870056152] [0.022025885060429573:0.99986517429351807] [0.020095683634281158:0.97769016027450562] [0:38.641063690185547] [-0.99997222423553467:0.99999624490737915] [-0.99990898370742798:0.99997639656066895] [-0.99984484910964966:0.99994021654129028] [-0.98840439319610596:0.99502289295196533] [-0.95823335647583008:0.97433567047119141] [-0.85218620300292969:0.79667091369628906] [0:41.840099334716797] [0:41.458000183105469] [0:41.401447296142578] [0:16.77629280090332] [0:15.352021217346191] [0:12.120124816894531] [0:138.10136413574219] [0:75.358238220214844] [0:43.771453857421875] [0:156.8441162109375] [0:84.521919250488281] [0:46.292957305908203] [-1:1] [0:240.88093566894531] [0:210.14833068847656] [0.0069706970825791359:43.353752136230469] [-131.89265441894531:95.029731750488281] [-67.075431823730469:45.837409973144531] [-44.677314758300781:33.737720489501953] [-35.483997344970703:31.50398063659668] [-33.855934143066406:33.999618530273438] [-34.789871215820312:31.534881591796875] [-154.31962585449219:97.119003295898438] [-56.723514556884766:47.329055786132812] [-58.542896270751953:33.932456970214844] [0:42.120548248291016] [0:41.729846954345703] [0:41.458000183105469] [0:150.86357116699219] [0:106.58065032958984] [0:75.358238220214844] [0:196.16714477539062] [0:120.60219573974609] [0:84.521919250488281] [-34.911895751953125:33.969703674316406] [-34.187889099121094:33.999618530273438] [-34.86676025390625:31.839141845703125] [-0.99998867511749268:0.99999618530273438] [-0.99998283386230469:0.99994897842407227] [-0.99990785121917725:0.99991518259048462] [0:149.79348754882812] [0:28.043367385864258] [0:59.41033935546875] [0.0083333337679505348:1.9354838132858276] [0.01666666753590107:1.875] [0:11.831968307495117] [0:168.4256591796875] [0:59.331695556640625] [0:112.15193176269531] [-66.653831481933594:66.807548522949219] [0:3737050368] [0:40.202266693115234] [3.0997099876403809:50.363189697265625] [2.489001989364624:50.617252349853516] [2.6996719837188721:50.607269287109375] [3.2876486778259277:50.411228179931641] [3.6229021549224854:39.488269805908203] [2.8559293746948242:39.933082580566406] [3.0651960372924805:40.005901336669922] [3.967893123626709:39.4908447265625]
tree_sizes=3395

Tree=0
num_leaves=31
num_cat=0
split_feature=90 52 50 47 67 47 61 62 121 80 90 61 36 61 4 50 123 104 18 79 34 47 61 59 89 57 11 98 101 117
split_gain=4.9492e+06 1.50526e+06 431408 212744 193782 176981 155827 118245 105654 86684.2 79438.8 75187.5 67760.3 42398 39498.3 39052.9 35304 34080.7 36217.1 33352.9 30860.4 30340 30212.6 16619.9 12339.6 11536.2 11166.2 11041.7 9803.37 9505.77
threshold=10.915802955627443 7.2612948417663583 13.78374767303467 4.4991800785064706 8.0144214630126971 13.151389122009279 0.48861333727836614 0.69353231787681591 39.241451263427741 37.710298538208015 12.634226322174074 0.59666335582733165 4.485149860382081 -0.96427401900291432 4.190068483352662 9.2878079414367694 20.96153545379639 -0.46849186718463892 7.9768285751342782 31.092511177062992 0.041135396808385856 13.907526016235353 -0.39630389213562006 0.40124395489692694 -1.2059510946273801 0.36948584020137792 9.9521913528442401 15.26677179336548 -2.2228727340698238 9.5981874465942401
decision_type=2 2 2 2 2 2 2 2 2 2 2 2 2 2 2 2 2 2 2 2 2 2 2 2 2 2 2 2 2 2
left_child=1 6 3 12 16 11 14 8 9 25 26 -5 20 29 -1 -14 19 -6 -19 -4 -3 22 -16 24 -10 -2 -9 -8 -7 -11
right_child=7 2 4 5 17 28 27 10 23 13 -12 -13 15 -15 21 -17 -18 18 -20 -21 -22 -23 -24 -25 -26 -27 -28 -29 -30 -31
leaf_value=-3.7072830490518642 -3.7367595279111372 -2.4532810884679819 -3.747998387972673 -1.8150520271651049 -2.0041238587423011 -2.5283786065282552 -3.7452638172514812 -3.748022737449094 -3.7480088749543237 -1.6792218475814873 -3.7480088747973115 -2.2725288978755289 -3.1609963998932495 -3.7480083106555848 -2.0683685863421699 -1.9759233996122989 -3.4580017561047782 -3.5787073850031801 -2.9007457573383792 -1.9793409393401524 -3.0536448096098514 -3.6014323520213072 -2.870762299350206 -3.7480088751844662 -1.8841953113178291 -2.1337368997098283 -1.7733476286555607 -2.9579795759960601 -3.6011573400748329 -3.7480088761403851
leaf_weight=98.995172448456287 8243.0202941522002 381.45856609940529 27.915797255933285 11147.335781402886 49.705776952207088 24.79244440048933 1468.6882665157318 7.5337275415658942 9.730378642678259 82.82461304217577 89.864297263324261 976.85280781239271 78.983398914337158 41.873614825308323 230.43116873502731 580.15200805664062 48.657034046947956 583.43361064046621 297.40481787919998 590.39099943637848 487.72871731966734 68.764112986624241 238.9835095629096 16.484961219131947 101.66777781397104 11.238724410533903 143.94043039530516 45.928860902786255 150.99762801826 5.9515899345278731
leaf_count=4113 347214 6519 1182 51739 414 460 62108 319 412 165 3805 13250 2440 1773 2208 4513 1785 22777 7678 4632 14046 2715 6030 698 609 122 551 1237 5961 252
internal_value=-2.69032 -2.20656 -2.03375 -1.94388 -2.8117 -1.87475 -3.44542 -3.66166 -3.6926 -3.71435 -2.57027 -1.85191 -2.50024 -2.43651 -2.7894 -2.11793 -2.16124 -3.27792 -3.3498 -2.05919 -2.79016 -2.62056 -2.47687 -2.26627 -2.047 -3.73458 -1.87156 -3.72139 -3.44986 -1.81791
internal_weight=26331.7 17577.6 15425.8 13828.3 1597.51 12300 2151.79 8754.13 8512.79 8384.91 241.338 12124.2 1528.32 130.65 637.174 659.135 666.964 930.544 880.838 618.307 869.187 538.179 469.415 127.883 111.398 8254.26 151.474 1514.62 175.79 88.7762
internal_count=571727 215807 137396 98928 38468 71410 78411 355920 351245 349526 4675 64989 27518 2190 15066 6953 7599 30869 30455 5814 20565 10953 8238 1719 1021 347336 870 63345 6421 417
is_linear=0
shrinkage=1


end of trees

feature_importances:
Column_61=4
Column_47=3
Column_50=2
Column_90=2
Column_4=1
Column_11=1
Column_18=1
Column_34=1
Column_36=1
Column_52=1
Column_57=1
Column_59=1
Column_62=1
Column_67=1
Column_79=1
Column_80=1
Column_89=1
Column_98=1
Column_101=1
Column_104=1
Column_117=1
Column_121=1
Column_123=1

parameters:
[boosting: gbdt]
[objective: binary]
[metric: binary_logloss]
[tree_learner: serial]
[device_type: gpu]
[data_sample_strategy: bagging]
[data: ]
[valid: ]
[num_iterations: 1000]
[learning_rate: 0.05]
[num_leaves: 31]
[num_threads: 0]
[seed: 42]
[deterministic: 0]
[force_col_wise: 1]
[force_row_wise: 0]
[histogram_pool_size: -1]
[max_depth: 6]
[min_data_in_leaf: 20]
[min_sum_hessian_in_leaf: 5]
[bagging_fraction: 0.8]
[pos_bagging_fraction: 1]
[neg_bagging_fraction: 1]
[bagging_freq: 1]
[bagging_seed: 400]
[bagging_by_query: 0]
[feature_fraction: 0.8]
[feature_fraction_bynode: 1]
[feature_fraction_seed: 30056]
[extra_trees: 0]
[extra_seed: 12879]
[early_stopping_round: 0]
[early_stopping_min_delta: 0]
[first_metric_only: 0]
[max_delta_step: 0]
[lambda_l1: 0]
[lambda_l2: 0]
[linear_lambda: 0]
[min_gain_to_split: 0]
[drop_rate: 0.1]
[max_drop: 50]
[skip_drop: 0.5]
[xgboost_dart_mode: 0]
[uniform_drop: 0]
[drop_seed: 17869]
[top_rate: 0.2]
[other_rate: 0.1]
[min_data_per_group: 100]
[max_cat_threshold: 32]
[cat_l2: 10]
[cat_smooth: 10]
[max_cat_to_onehot: 4]
[top_k: 20]
[monotone_constraints: ]
[monotone_constraints_method: basic]
[monotone_penalty: 0]
[feature_contri: ]
[forcedsplits_filename: ]
[refit_decay_rate: 0.9]
[cegb_tradeoff: 1]
[cegb_penalty_split: 0]
[cegb_penalty_feature_lazy: ]
[cegb_penalty_feature_coupled: ]
[path_smooth: 0]
[interaction_constraints: ]
[verbosity: -1]
[saved_feature_importance_type: 0]
[use_quantized_grad: 0]
[num_grad_quant_bins: 4]
[quant_train_renew_leaf: 0]
[stochastic_rounding: 1]
[linear_tree: 0]
[max_bin: 255]
[max_bin_by_feature: ]
[min_data_in_bin: 3]
[bin_construct_sample_cnt: 200000]
[data_random_seed: 175]
[is_enable_sparse: 1]
[enable_bundle: 1]
[use_missing: 1]
[zero_as_missing: 0]
[feature_pre_filter: 1]
[pre_partition: 0]
[two_round: 0]
[header: 0]
[label_column: ]
[weight_column: ]
[group_column: ]
[ignore_column: ]
[categorical_feature: ]
[forcedbins_filename: ]
[precise_float_parser: 0]
[parser_config_file: ]
[objective_seed: 16083]
[num_class: 1]
[is_unbalance: 0]
[scale_pos_weight: 40.3168]
[sigmoid: 1]
[boost_from_average: 1]
[reg_sqrt: 0]
[alpha: 0.9]
[fair_c: 1]
[poisson_max_delta_step: 0.7]
[tweedie_variance_power: 1.5]
[lambdarank_truncation_level: 30]
[lambdarank_norm: 1]
[label_gain: ]
[lambdarank_position_bias_regularization: 0]
[eval_at: ]
[multi_error_top_k: 1]
[auc_mu_weights: ]
[num_machines: 1]
[local_listen_port: 12400]
[time_out: 120]
[machine_list_filename: ]
[machines: ]
[gpu_platform_id: -1]
[gpu_device_id: -1]
[gpu_use_dp: 0]
[num_gpu: 1]

end of parameters

pandas_categorical:null
